{
  "type": "LSTM",
  "options": {
    "inputSize": 46,
    "inputRange": 46,
    "hiddenLayers": [
      20,
      20
    ],
    "outputSize": 46,
    "decayRate": 0.999,
    "smoothEps": 1e-8,
    "regc": 0.000001,
    "clipval": 5,
    "maxPredictionLength": 100,
    "dataFormatter": {
      "values": [
        "Appreciate every day",
        "What is the meaning of life?",
        "copy file into docker container",
        "docker cp ./some_file CONTAINER:/work",
        "git pull origin --rebase ",
        "how to clean node cache",
        "how to rebase in git",
        "how to run nodejs file on command line",
        "how to view all ports being used on mac",
        "node --experimental-modules src/file.js",
        "npm cache clean --force",
        "sudo lsof -iTCP -sTCP:LISTEN -n -P"
      ],
      "indexTable": {
        "A": 0,
        "p": 1,
        "r": 2,
        "e": 3,
        "c": 4,
        "i": 5,
        "a": 6,
        "t": 7,
        " ": 8,
        "v": 9,
        "y": 10,
        "d": 11,
        "W": 12,
        "h": 13,
        "s": 14,
        "m": 15,
        "n": 16,
        "g": 17,
        "o": 18,
        "f": 19,
        "l": 20,
        "?": 21,
        "k": 22,
        ".": 23,
        "/": 24,
        "_": 25,
        "C": 26,
        "O": 27,
        "N": 28,
        "T": 29,
        "I": 30,
        "E": 31,
        "R": 32,
        ":": 33,
        "w": 34,
        "u": 35,
        "-": 36,
        "b": 37,
        "j": 38,
        "x": 39,
        "P": 40,
        "L": 41,
        "S": 42,
        "stop-input": 43,
        "start-output": 44,
        "unrecognized": 45
      },
      "characterTable": {
        "0": "A",
        "1": "p",
        "2": "r",
        "3": "e",
        "4": "c",
        "5": "i",
        "6": "a",
        "7": "t",
        "8": " ",
        "9": "v",
        "10": "y",
        "11": "d",
        "12": "W",
        "13": "h",
        "14": "s",
        "15": "m",
        "16": "n",
        "17": "g",
        "18": "o",
        "19": "f",
        "20": "l",
        "21": "?",
        "22": "k",
        "23": ".",
        "24": "/",
        "25": "_",
        "26": "C",
        "27": "O",
        "28": "N",
        "29": "T",
        "30": "I",
        "31": "E",
        "32": "R",
        "33": ":",
        "34": "w",
        "35": "u",
        "36": "-",
        "37": "b",
        "38": "j",
        "39": "x",
        "40": "P",
        "41": "L",
        "42": "S",
        "43": null,
        "44": null,
        "45": null
      },
      "characters": [
        "A",
        "p",
        "r",
        "e",
        "c",
        "i",
        "a",
        "t",
        " ",
        "v",
        "y",
        "d",
        "W",
        "h",
        "s",
        "m",
        "n",
        "g",
        "o",
        "f",
        "l",
        "?",
        "k",
        ".",
        "/",
        "_",
        "C",
        "O",
        "N",
        "T",
        "I",
        "E",
        "R",
        ":",
        "w",
        "u",
        "-",
        "b",
        "j",
        "x",
        "P",
        "L",
        "S",
        "stop-input",
        "start-output",
        "unrecognized"
      ],
      "specialIndexes": [
        43,
        44,
        45
      ]
    }
  },
  "input": {
    "rows": 47,
    "columns": 46,
    "weights": {
      "0": -0.13507403433322906,
      "1": 0.07276652753353119,
      "2": -0.463050901889801,
      "3": 0.1466246098279953,
      "4": 0.6118184924125671,
      "5": 1.1916531324386597,
      "6": -0.2819385230541229,
      "7": 0.5348560810089111,
      "8": -0.6173999309539795,
      "9": -0.5776433944702148,
      "10": 0.4470818340778351,
      "11": -0.5458924174308777,
      "12": -1.0441068410873413,
      "13": 0.2102476805448532,
      "14": 0.3694251775741577,
      "15": -0.35198861360549927,
      "16": -0.1400824934244156,
      "17": -0.13877949118614197,
      "18": 0.4967091679573059,
      "19": 0.010868840850889683,
      "20": 0.8996931314468384,
      "21": -0.9042856097221375,
      "22": 0.2059566080570221,
      "23": -0.24977068603038788,
      "24": -0.7268080711364746,
      "25": 0.8871538043022156,
      "26": 0.056489311158657074,
      "27": -0.8021779656410217,
      "28": -0.9159064888954163,
      "29": -0.15610703825950623,
      "30": -0.1469138264656067,
      "31": 0.3522477447986603,
      "32": -1.3368780612945557,
      "33": -1.2631173133850098,
      "34": 0.0511881522834301,
      "35": -0.18772786855697632,
      "36": 0.19492611289024353,
      "37": -0.6440934538841248,
      "38": 0.49781090021133423,
      "39": 0.6310580372810364,
      "40": 0.784354031085968,
      "41": -0.5646674633026123,
      "42": 0.7964933514595032,
      "43": 0.34762808680534363,
      "44": 0.17433026432991028,
      "45": -0.6103370785713196,
      "46": -2.5850741863250732,
      "47": -0.5083062052726746,
      "48": 0.002131605986505747,
      "49": 0.08238182961940765,
      "50": 0.01801467314362526,
      "51": 1.9066165685653687,
      "52": -0.711159884929657,
      "53": -0.18006297945976257,
      "54": -0.93002849817276,
      "55": -1.0043890476226807,
      "56": -0.10396547615528107,
      "57": -0.6227200031280518,
      "58": 2.949984073638916,
      "59": -1.5819237232208252,
      "60": 0.4773300588130951,
      "61": 1.2763246297836304,
      "62": 0.3665250241756439,
      "63": -0.6007790565490723,
      "64": -1.5184069871902466,
      "65": 0.8291460275650024,
      "66": -1.1436103582382202,
      "67": 0.2180517315864563,
      "68": 1.0441055297851562,
      "69": -1.1325045824050903,
      "70": 0.2847709059715271,
      "71": -1.1556824445724487,
      "72": 3.754936456680298,
      "73": -0.9880834817886353,
      "74": -1.0050113201141357,
      "75": -2.313142776489258,
      "76": -3.3804738521575928,
      "77": 0.6516382694244385,
      "78": 2.4480814933776855,
      "79": 0.1758274883031845,
      "80": 1.8830430507659912,
      "81": -2.611534833908081,
      "82": -0.8619509339332581,
      "83": -0.38311830163002014,
      "84": -0.31938740611076355,
      "85": 1.2130640745162964,
      "86": 0.7325415015220642,
      "87": -0.24675075709819794,
      "88": -0.46518611907958984,
      "89": -1.1962965726852417,
      "90": 0.4061967432498932,
      "91": 0.5623313188552856,
      "92": 0.18971018493175507,
      "93": 0.5740973949432373,
      "94": -0.06413649767637253,
      "95": -0.5361548066139221,
      "96": 0.08924375474452972,
      "97": -0.3524753749370575,
      "98": -0.11089091747999191,
      "99": 0.5397568345069885,
      "100": 1.3972113132476807,
      "101": 0.8575340509414673,
      "102": -0.146057590842247,
      "103": 0.9208062887191772,
      "104": -0.38190189003944397,
      "105": -0.33600154519081116,
      "106": -1.7727965116500854,
      "107": -0.2665720283985138,
      "108": -0.22277449071407318,
      "109": 0.25656408071517944,
      "110": -0.21824589371681213,
      "111": 0.0050012110732495785,
      "112": -0.43782052397727966,
      "113": -0.010007744655013084,
      "114": -0.35127225518226624,
      "115": -0.31767430901527405,
      "116": 1.8908910751342773,
      "117": 0.06938815116882324,
      "118": 0.21310488879680634,
      "119": 1.078871726989746,
      "120": 0.6869734525680542,
      "121": 0.11176121979951859,
      "122": 0.4465031921863556,
      "123": -0.44814443588256836,
      "124": -0.08725982904434204,
      "125": 0.18746358156204224,
      "126": 0.42148908972740173,
      "127": 0.3656748831272125,
      "128": 0.33393770456314087,
      "129": 0.3308136463165283,
      "130": 0.3718400001525879,
      "131": -1.068575382232666,
      "132": -1.9159481525421143,
      "133": 1.027164340019226,
      "134": -0.2640933096408844,
      "135": -0.49653759598731995,
      "136": 0.03375688195228577,
      "137": 0.5887913107872009,
      "138": 0.4361146092414856,
      "139": -0.18786795437335968,
      "140": 0.06906206160783768,
      "141": -0.5223264098167419,
      "142": -0.0010843651834875345,
      "143": -1.0273261070251465,
      "144": 1.213514804840088,
      "145": -1.0868773460388184,
      "146": 0.8888212442398071,
      "147": 0.5243145227432251,
      "148": -0.45922282338142395,
      "149": 0.9061589241027832,
      "150": -0.14237770438194275,
      "151": 0.8584772348403931,
      "152": -1.0056960582733154,
      "153": 0.5393745303153992,
      "154": -0.1620170921087265,
      "155": 0.3297000229358673,
      "156": 0.5020149946212769,
      "157": -0.5182342529296875,
      "158": -0.3815747797489166,
      "159": 0.8688480257987976,
      "160": -1.4561971426010132,
      "161": 0.45995837450027466,
      "162": 1.1792436838150024,
      "163": -0.47755300998687744,
      "164": -0.9012803435325623,
      "165": 0.6419031023979187,
      "166": 0.5075719952583313,
      "167": 0.7419580817222595,
      "168": 0.4417836368083954,
      "169": -1.0886393785476685,
      "170": -0.12288907170295715,
      "171": 0.4161774218082428,
      "172": -0.9273053407669067,
      "173": 0.27867400646209717,
      "174": 0.5296697616577148,
      "175": -2.4317715167999268,
      "176": -0.36712056398391724,
      "177": -0.47083061933517456,
      "178": -0.9734344482421875,
      "179": 0.507098376750946,
      "180": -0.26990747451782227,
      "181": 0.42687705159187317,
      "182": -0.8303076028823853,
      "183": 0.8106757402420044,
      "184": -1.1168649196624756,
      "185": 1.4389209747314453,
      "186": 1.6610655784606934,
      "187": 2.496906042098999,
      "188": -1.6187880039215088,
      "189": 0.9985786080360413,
      "190": -0.3907870054244995,
      "191": 0.027951302006840706,
      "192": -0.08255910128355026,
      "193": -0.9382497668266296,
      "194": 1.8249821662902832,
      "195": 0.07991617172956467,
      "196": 0.9448789358139038,
      "197": -1.480987548828125,
      "198": -0.7601453065872192,
      "199": -1.279550313949585,
      "200": 1.4144316911697388,
      "201": -0.014721432700753212,
      "202": 0.5615096092224121,
      "203": 2.1652870178222656,
      "204": 1.4844449758529663,
      "205": -1.6180812120437622,
      "206": 2.1868093013763428,
      "207": 1.8932666778564453,
      "208": 0.025441378355026245,
      "209": 0.7755597233772278,
      "210": 0.07409302890300751,
      "211": -0.21334049105644226,
      "212": -0.5859314799308777,
      "213": -1.0597256422042847,
      "214": -0.9548600316047668,
      "215": 2.1669676303863525,
      "216": 1.3897939920425415,
      "217": -1.1071768999099731,
      "218": -0.2755962610244751,
      "219": -1.2489988803863525,
      "220": 0.7554532289505005,
      "221": 0.49313852190971375,
      "222": 0.28566592931747437,
      "223": 0.8645648956298828,
      "224": 0.7733319997787476,
      "225": -0.4306703507900238,
      "226": 1.5231274366378784,
      "227": -1.2145936489105225,
      "228": 2.3532001972198486,
      "229": 0.3474641740322113,
      "230": 0.13899800181388855,
      "231": -1.200821042060852,
      "232": -1.5560367107391357,
      "233": 1.7067629098892212,
      "234": 1.3792608976364136,
      "235": -0.21663254499435425,
      "236": 1.1343557834625244,
      "237": -2.0500295162200928,
      "238": -0.39718741178512573,
      "239": -0.2609754204750061,
      "240": 0.4432065486907959,
      "241": -0.5910307765007019,
      "242": -0.8697865009307861,
      "243": 1.7008130550384521,
      "244": 0.5346014499664307,
      "245": -0.3916641175746918,
      "246": -0.8677970767021179,
      "247": -0.486928790807724,
      "248": 0.7291969060897827,
      "249": -0.6051524877548218,
      "250": 0.3814983665943146,
      "251": 0.8900099396705627,
      "252": -0.6535807251930237,
      "253": 1.026233196258545,
      "254": -0.4443776607513428,
      "255": 1.2670973539352417,
      "256": -0.4558262526988983,
      "257": -0.4803263247013092,
      "258": 0.7895289063453674,
      "259": 0.353088915348053,
      "260": 0.2359047681093216,
      "261": -0.21410226821899414,
      "262": -0.38510408997535706,
      "263": -1.1186014413833618,
      "264": -0.6933239102363586,
      "265": 0.22561334073543549,
      "266": 0.787445604801178,
      "267": -1.387138843536377,
      "268": -1.4929603338241577,
      "269": 0.4486069977283478,
      "270": 0.5760610699653625,
      "271": 0.09210951626300812,
      "272": -0.148112490773201,
      "273": 1.5562890768051147,
      "274": 0.04740465432405472,
      "275": -0.3304104804992676,
      "276": -0.39270392060279846,
      "277": -2.194831371307373,
      "278": -0.3550492823123932,
      "279": 0.39675772190093994,
      "280": 0.40086495876312256,
      "281": 0.08208324760198593,
      "282": -0.020427579060196877,
      "283": -1.6733266115188599,
      "284": -0.3161471486091614,
      "285": -0.9388768672943115,
      "286": -0.5590463876724243,
      "287": 0.0985904410481453,
      "288": -0.00971839390695095,
      "289": -0.16339513659477234,
      "290": 0.20791132748126984,
      "291": 1.537134051322937,
      "292": -0.6609269976615906,
      "293": -0.9004859328269958,
      "294": -0.42553794384002686,
      "295": 0.4987412691116333,
      "296": -0.45290428400039673,
      "297": 0.5786780714988708,
      "298": 0.5840777158737183,
      "299": 0.5043737888336182,
      "300": 0.17862233519554138,
      "301": 2.305023193359375,
      "302": -0.9885578155517578,
      "303": -0.3916950523853302,
      "304": 0.5691688656806946,
      "305": 0.32531964778900146,
      "306": 0.11856035888195038,
      "307": 0.2431250512599945,
      "308": -1.5847069025039673,
      "309": 0.09532689303159714,
      "310": -0.3191317915916443,
      "311": 0.8738778829574585,
      "312": -0.23591095209121704,
      "313": -0.3789352774620056,
      "314": -0.5101926326751709,
      "315": 1.0909456014633179,
      "316": -0.2259541004896164,
      "317": -1.2545713186264038,
      "318": -0.8227160573005676,
      "319": 1.5295040607452393,
      "320": 0.13691876828670502,
      "321": 0.3048930764198303,
      "322": 1.5164262056350708,
      "323": -2.0407049655914307,
      "324": -1.273917317390442,
      "325": 1.1507850885391235,
      "326": 1.5179742574691772,
      "327": -0.800003707408905,
      "328": -0.3958676755428314,
      "329": -0.303544819355011,
      "330": 0.6288801431655884,
      "331": -0.012537326663732529,
      "332": 0.8013050556182861,
      "333": 0.23200514912605286,
      "334": -0.7828335165977478,
      "335": -0.05089811235666275,
      "336": -0.3440183401107788,
      "337": -0.48089227080345154,
      "338": -0.834446907043457,
      "339": -0.7091063857078552,
      "340": 0.012321674264967442,
      "341": 0.02004513330757618,
      "342": 0.21790573000907898,
      "343": 0.38894596695899963,
      "344": -0.3766648769378662,
      "345": -0.07253458350896835,
      "346": 0.012370222248136997,
      "347": 0.3601311147212982,
      "348": -0.40685713291168213,
      "349": 0.31858640909194946,
      "350": -0.12925145030021667,
      "351": 1.5973377227783203,
      "352": 1.1290851831436157,
      "353": -0.17151454091072083,
      "354": -0.22316810488700867,
      "355": 0.5306802988052368,
      "356": 0.20258645713329315,
      "357": 1.3652961254119873,
      "358": 0.10807141661643982,
      "359": 0.16554909944534302,
      "360": -0.11170386523008347,
      "361": 0.07925383001565933,
      "362": -1.0967414379119873,
      "363": 0.3457140326499939,
      "364": 0.4709623157978058,
      "365": 2.760101556777954,
      "366": 0.24892300367355347,
      "367": -0.20865482091903687,
      "368": 2.2327847480773926,
      "369": -0.8089393973350525,
      "370": -0.874882698059082,
      "371": 2.823221445083618,
      "372": 1.1967097520828247,
      "373": -1.333985447883606,
      "374": -0.001967845018953085,
      "375": -0.6041152477264404,
      "376": 0.2545486390590668,
      "377": 0.3814948797225952,
      "378": 1.144397258758545,
      "379": -0.14518749713897705,
      "380": -1.0062580108642578,
      "381": 1.057981252670288,
      "382": 0.24194766581058502,
      "383": -0.5778490304946899,
      "384": -0.7583027482032776,
      "385": -0.8809881806373596,
      "386": 0.592529296875,
      "387": -1.1950852870941162,
      "388": 1.420270323753357,
      "389": -0.15410713851451874,
      "390": -1.109444260597229,
      "391": -0.36857637763023376,
      "392": -0.5180167555809021,
      "393": 1.3747851848602295,
      "394": -1.294823408126831,
      "395": -0.13837917149066925,
      "396": -0.8027136325836182,
      "397": 1.3072106838226318,
      "398": 1.7527304887771606,
      "399": -0.8881049752235413,
      "400": -0.8145365118980408,
      "401": 0.6625281572341919,
      "402": -0.07302486896514893,
      "403": 0.7786389589309692,
      "404": 0.5807370543479919,
      "405": -0.9009048342704773,
      "406": -0.38148897886276245,
      "407": -1.1533548831939697,
      "408": -0.20742079615592957,
      "409": 0.16919754445552826,
      "410": 1.5964792966842651,
      "411": 3.4128921031951904,
      "412": -0.08698847889900208,
      "413": -0.7784048914909363,
      "414": 0.5317577123641968,
      "415": -1.1357423067092896,
      "416": -0.9108619689941406,
      "417": 0.34633857011795044,
      "418": 0.5175610780715942,
      "419": -1.0344538688659668,
      "420": 0.5487431287765503,
      "421": -0.6856038570404053,
      "422": -0.05193518474698067,
      "423": 0.4508751630783081,
      "424": 0.2941482961177826,
      "425": -0.11470360308885574,
      "426": -0.2207532525062561,
      "427": 0.24257215857505798,
      "428": 0.3189956545829773,
      "429": -0.3434605002403259,
      "430": -0.7120878100395203,
      "431": -0.012813840061426163,
      "432": 0.6891239881515503,
      "433": -0.009343806654214859,
      "434": 0.32680565118789673,
      "435": 0.09277313202619553,
      "436": 0.15839999914169312,
      "437": -0.08156069368124008,
      "438": -0.11492223292589188,
      "439": -0.026173066347837448,
      "440": -0.588708221912384,
      "441": 0.06501390039920807,
      "442": 0.3539081811904907,
      "443": 0.29797664284706116,
      "444": -0.109152652323246,
      "445": 0.18338969349861145,
      "446": -0.05273851007223129,
      "447": 0.3152469992637634,
      "448": 0.24225221574306488,
      "449": -0.1772107481956482,
      "450": 0.39860984683036804,
      "451": -0.21752476692199707,
      "452": 1.191495656967163,
      "453": 0.33517685532569885,
      "454": -1.2614601850509644,
      "455": 0.18478454649448395,
      "456": 0.5634462833404541,
      "457": 0.5859290361404419,
      "458": -0.5870823264122009,
      "459": -0.057529889047145844,
      "460": 3.2918388843536377,
      "461": 1.4201992750167847,
      "462": 1.182507872581482,
      "463": 0.7209976315498352,
      "464": -0.7416265606880188,
      "465": -1.9710919857025146,
      "466": -0.6292559504508972,
      "467": 0.6847013831138611,
      "468": 2.762991428375244,
      "469": 1.2303673028945923,
      "470": -0.21596424281597137,
      "471": 1.2327580451965332,
      "472": -0.730964183807373,
      "473": -0.5586577653884888,
      "474": -1.6098215579986572,
      "475": -1.5987837314605713,
      "476": 0.7279207110404968,
      "477": -0.6112841963768005,
      "478": -1.1148369312286377,
      "479": 0.06694216281175613,
      "480": 0.41067057847976685,
      "481": -0.4253646731376648,
      "482": 0.7703683972358704,
      "483": -0.9958645105361938,
      "484": 0.9678412079811096,
      "485": 0.12877029180526733,
      "486": -2.3981454372406006,
      "487": 1.1038168668746948,
      "488": -0.5741106867790222,
      "489": 2.125422716140747,
      "490": 2.5328166484832764,
      "491": -0.23099610209465027,
      "492": -0.7317830324172974,
      "493": 2.6563265323638916,
      "494": 0.3319568634033203,
      "495": 1.7122923135757446,
      "496": -0.68509441614151,
      "497": 0.2477797567844391,
      "498": 0.7271583080291748,
      "499": -2.250425338745117,
      "500": -1.9893956184387207,
      "501": -0.912872850894928,
      "502": -0.22647841274738312,
      "503": 0.9640305042266846,
      "504": -0.5660795569419861,
      "505": 0.3139394521713257,
      "506": 2.1311192512512207,
      "507": -0.7292894124984741,
      "508": -1.5567243099212646,
      "509": -0.9347777962684631,
      "510": 1.4222501516342163,
      "511": -1.6238998174667358,
      "512": -0.5303639769554138,
      "513": 0.33031997084617615,
      "514": 0.2870725095272064,
      "515": 0.012534886598587036,
      "516": -1.2435957193374634,
      "517": 0.6890691518783569,
      "518": -2.380100727081299,
      "519": 2.4173660278320312,
      "520": -1.1779919862747192,
      "521": 4.184441566467285,
      "522": -3.948401689529419,
      "523": -0.4621577262878418,
      "524": 0.4580433964729309,
      "525": -0.5788511633872986,
      "526": 0.12502257525920868,
      "527": -0.8379563093185425,
      "528": -0.014461424201726913,
      "529": -1.6078832149505615,
      "530": 0.15501846373081207,
      "531": -2.4348628520965576,
      "532": -0.5945547223091125,
      "533": 0.6723739504814148,
      "534": 1.1361616849899292,
      "535": 1.7927570343017578,
      "536": 2.7853503227233887,
      "537": -1.0630899667739868,
      "538": -1.013823390007019,
      "539": 0.9780454635620117,
      "540": -0.2045057713985443,
      "541": 1.9375941753387451,
      "542": -0.16864709556102753,
      "543": -0.8779605031013489,
      "544": 0.35793766379356384,
      "545": -0.9905151724815369,
      "546": -0.5756015777587891,
      "547": 0.36003434658050537,
      "548": -0.5429588556289673,
      "549": -1.2476950883865356,
      "550": -0.14859642088413239,
      "551": 0.23067733645439148,
      "552": 1.1673399209976196,
      "553": -0.0691671371459961,
      "554": -0.10479070991277695,
      "555": 0.0882871150970459,
      "556": -0.030831264331936836,
      "557": -0.5465725660324097,
      "558": 0.7766035199165344,
      "559": -0.8887558579444885,
      "560": 0.18191181123256683,
      "561": 0.151419535279274,
      "562": 0.2542235553264618,
      "563": 0.735476553440094,
      "564": -0.8280414938926697,
      "565": 1.419471263885498,
      "566": -0.07758644223213196,
      "567": 0.5189676284790039,
      "568": -0.29211851954460144,
      "569": -0.15661132335662842,
      "570": 1.5393184423446655,
      "571": -0.616787314414978,
      "572": -0.5214577317237854,
      "573": 0.4757936894893646,
      "574": -0.02881048433482647,
      "575": 0.17822468280792236,
      "576": 0.6080930829048157,
      "577": -0.2129470407962799,
      "578": -0.8983892202377319,
      "579": 0.6673551201820374,
      "580": 0.7243167757987976,
      "581": 1.0513534545898438,
      "582": 1.5638219118118286,
      "583": -0.5792194604873657,
      "584": -0.07410784065723419,
      "585": 1.2439513206481934,
      "586": 0.2617209851741791,
      "587": 1.2471519708633423,
      "588": 0.18179883062839508,
      "589": -0.1303699016571045,
      "590": -0.08873314410448074,
      "591": 0.16386529803276062,
      "592": -1.7954132556915283,
      "593": -0.3997100591659546,
      "594": -0.7081514000892639,
      "595": 0.3993532359600067,
      "596": -2.3917033672332764,
      "597": 1.4364757537841797,
      "598": -1.5706167221069336,
      "599": 2.364842653274536,
      "600": 2.2860944271087646,
      "601": 0.09397639334201813,
      "602": -2.390920877456665,
      "603": 0.7443291544914246,
      "604": -0.7892265915870667,
      "605": 2.392354726791382,
      "606": 0.031058480963110924,
      "607": -0.7594417333602905,
      "608": 0.645125150680542,
      "609": -0.5907831192016602,
      "610": 0.21003380417823792,
      "611": 0.9514979720115662,
      "612": 0.5632174611091614,
      "613": 0.9277432560920715,
      "614": 1.894676685333252,
      "615": -0.28348222374916077,
      "616": -1.3502249717712402,
      "617": 0.9043087363243103,
      "618": 0.3398500084877014,
      "619": -0.8728873133659363,
      "620": 1.0748255252838135,
      "621": -0.03532910719513893,
      "622": -0.732755720615387,
      "623": -2.5746192932128906,
      "624": 1.9713119268417358,
      "625": -0.521075963973999,
      "626": -0.7773786783218384,
      "627": -1.4107824563980103,
      "628": -1.2164572477340698,
      "629": 1.2410926818847656,
      "630": 0.9610645174980164,
      "631": -0.39838358759880066,
      "632": -0.5891091227531433,
      "633": -0.9282975196838379,
      "634": -1.000867486000061,
      "635": 2.0174686908721924,
      "636": 0.8789190649986267,
      "637": -0.18832513689994812,
      "638": 1.0447486639022827,
      "639": -0.7499043345451355,
      "640": -2.588719129562378,
      "641": -1.5636658668518066,
      "642": 1.0856122970581055,
      "643": -0.43657585978507996,
      "644": 1.0420520305633545,
      "645": -1.2775529623031616,
      "646": -1.2308557033538818,
      "647": 1.846866250038147,
      "648": 1.020466923713684,
      "649": 0.2929939329624176,
      "650": 0.2686019241809845,
      "651": -0.3902607560157776,
      "652": -0.2167433351278305,
      "653": -0.9077314734458923,
      "654": 0.9166145324707031,
      "655": -0.019266486167907715,
      "656": -0.9547716975212097,
      "657": 0.020844534039497375,
      "658": 0.006286189891397953,
      "659": 0.5675340890884399,
      "660": -1.2196428775787354,
      "661": -2.24942946434021,
      "662": -0.015537400729954243,
      "663": 0.5386632084846497,
      "664": -0.613381028175354,
      "665": -0.27247053384780884,
      "666": 0.4894005060195923,
      "667": 0.5527101755142212,
      "668": 0.075063057243824,
      "669": 0.5623735189437866,
      "670": 0.32982027530670166,
      "671": 0.11971782147884369,
      "672": -0.11983966082334518,
      "673": 1.045232892036438,
      "674": 1.113976001739502,
      "675": -0.07012947648763657,
      "676": -1.6491103172302246,
      "677": 0.4374856650829315,
      "678": 0.4252568483352661,
      "679": 1.3325804471969604,
      "680": -0.19816164672374725,
      "681": 0.4167550206184387,
      "682": -0.09618664532899857,
      "683": 1.085861325263977,
      "684": -0.8912181258201599,
      "685": -0.10249263793230057,
      "686": -0.6295355558395386,
      "687": 0.6471720337867737,
      "688": 1.2730709314346313,
      "689": 0.5630221366882324,
      "690": 0.5526069402694702,
      "691": -1.0146805047988892,
      "692": -0.9565702676773071,
      "693": -0.5300303101539612,
      "694": 1.0728694200515747,
      "695": -1.3066060543060303,
      "696": 2.4390549659729004,
      "697": -1.7474218606948853,
      "698": -0.29914993047714233,
      "699": -0.17599594593048096,
      "700": -1.7402576208114624,
      "701": 0.3696635067462921,
      "702": 0.15757447481155396,
      "703": 2.7244491577148438,
      "704": 0.5675168633460999,
      "705": 1.3637946844100952,
      "706": -0.6194797158241272,
      "707": 0.12323950231075287,
      "708": 1.165977120399475,
      "709": -2.5114758014678955,
      "710": -2.3304412364959717,
      "711": 2.583735227584839,
      "712": -3.167022705078125,
      "713": 1.117233157157898,
      "714": 0.4152918756008148,
      "715": -1.74918794631958,
      "716": 0.16617853939533234,
      "717": 1.0381852388381958,
      "718": 2.3655097484588623,
      "719": 0.5764946341514587,
      "720": 0.2676061987876892,
      "721": -2.63761568069458,
      "722": -0.5558133125305176,
      "723": 0.2916778326034546,
      "724": 0.40369677543640137,
      "725": 0.5570477247238159,
      "726": 0.9010806083679199,
      "727": -2.3452377319335938,
      "728": -1.3937757015228271,
      "729": 0.03998647257685661,
      "730": 0.5672767162322998,
      "731": 0.752048909664154,
      "732": -2.630577802658081,
      "733": 0.4082602858543396,
      "734": -1.8399032354354858,
      "735": 1.1783193349838257,
      "736": -1.2319667339324951,
      "737": -0.23604384064674377,
      "738": 0.22672446072101593,
      "739": 0.9716485738754272,
      "740": -0.12180276960134506,
      "741": -0.06988262385129929,
      "742": 0.23750068247318268,
      "743": 0.6907979846000671,
      "744": -1.993085503578186,
      "745": -1.3124620914459229,
      "746": -0.98002690076828,
      "747": -1.2708532810211182,
      "748": 0.47944125533103943,
      "749": -0.6329502463340759,
      "750": 1.1462066173553467,
      "751": 0.45577993988990784,
      "752": -0.09008675068616867,
      "753": -0.5441412329673767,
      "754": -0.6929807662963867,
      "755": 2.596055269241333,
      "756": 0.4641759991645813,
      "757": -0.45464205741882324,
      "758": 1.7673314809799194,
      "759": -0.07511451095342636,
      "760": -1.7954769134521484,
      "761": -0.45413851737976074,
      "762": 0.8465927243232727,
      "763": -0.9832720160484314,
      "764": 0.4112807512283325,
      "765": -0.8349505066871643,
      "766": -0.8621498942375183,
      "767": 0.4817853271961212,
      "768": 0.7249171733856201,
      "769": -1.3985596895217896,
      "770": -0.04712286219000816,
      "771": -1.141384482383728,
      "772": -1.4861094951629639,
      "773": 1.8808619976043701,
      "774": 0.12398950755596161,
      "775": 1.2968628406524658,
      "776": 0.33232465386390686,
      "777": -0.987838089466095,
      "778": -0.7085835337638855,
      "779": -0.8366565108299255,
      "780": 2.4707512855529785,
      "781": -0.846687376499176,
      "782": 0.11426059156656265,
      "783": -1.0197298526763916,
      "784": -0.9741233587265015,
      "785": 3.3641321659088135,
      "786": 0.6720960140228271,
      "787": -0.4064798355102539,
      "788": -0.2921130061149597,
      "789": -1.7555062770843506,
      "790": 0.4338952302932739,
      "791": 0.024422945454716682,
      "792": 1.649577260017395,
      "793": 0.15898281335830688,
      "794": -0.104233518242836,
      "795": 0.10942530632019043,
      "796": -0.09533930569887161,
      "797": -0.8946762084960938,
      "798": -0.2827964425086975,
      "799": -0.15254414081573486,
      "800": 0.10333448648452759,
      "801": 0.5643953084945679,
      "802": 0.4521740674972534,
      "803": 0.3101324439048767,
      "804": 0.22624652087688446,
      "805": 0.10530149936676025,
      "806": 1.0724681615829468,
      "807": 2.433192729949951,
      "808": -2.006852865219116,
      "809": -0.4500349462032318,
      "810": 0.36363041400909424,
      "811": 0.6488667726516724,
      "812": -0.031582310795784,
      "813": 0.5811139345169067,
      "814": 0.20065422356128693,
      "815": 0.5495537519454956,
      "816": 0.2237861454486847,
      "817": -0.41533151268959045,
      "818": 0.551871657371521,
      "819": -0.8520533442497253,
      "820": -0.3599795699119568,
      "821": 0.4365520179271698,
      "822": -1.7559713125228882,
      "823": 0.374733030796051,
      "824": 1.2457834482192993,
      "825": 0.7633981108665466,
      "826": 0.23349179327487946,
      "827": 0.15576258301734924,
      "828": 0.673190712928772,
      "829": -1.393597960472107,
      "830": -2.35101318359375,
      "831": -1.076385736465454,
      "832": 1.5944135189056396,
      "833": 0.8410663604736328,
      "834": 1.313252568244934,
      "835": -0.664553701877594,
      "836": -0.9009374976158142,
      "837": -0.8890625834465027,
      "838": -1.272262692451477,
      "839": -0.4293302297592163,
      "840": -0.442204087972641,
      "841": 1.8575737476348877,
      "842": 0.5527749061584473,
      "843": 1.060219168663025,
      "844": -2.2905783653259277,
      "845": 1.2307294607162476,
      "846": 1.5233707427978516,
      "847": -2.322793960571289,
      "848": -2.89227557182312,
      "849": 2.4228475093841553,
      "850": -1.9521852731704712,
      "851": 1.1923209428787231,
      "852": 0.7687608003616333,
      "853": -0.3943864107131958,
      "854": 0.4887676537036896,
      "855": -0.3453346788883209,
      "856": 2.5918831825256348,
      "857": 0.9204661846160889,
      "858": 0.8192213177680969,
      "859": -1.5974540710449219,
      "860": -1.6835064888000488,
      "861": -0.17169542610645294,
      "862": 1.2563129663467407,
      "863": 0.7236081957817078,
      "864": 0.1612662523984909,
      "865": -0.08582109957933426,
      "866": -2.009493589401245,
      "867": 0.8344582319259644,
      "868": -0.8108713626861572,
      "869": 0.6037560701370239,
      "870": -1.059255599975586,
      "871": -0.09115439653396606,
      "872": -1.870965600013733,
      "873": 1.6373846530914307,
      "874": -1.0927984714508057,
      "875": 1.3492469787597656,
      "876": -0.6016738414764404,
      "877": -0.740602970123291,
      "878": 0.274994820356369,
      "879": 1.732366681098938,
      "880": -0.9035958051681519,
      "881": -0.18592248857021332,
      "882": -1.30767822265625,
      "883": -0.9695730805397034,
      "884": 0.7795459628105164,
      "885": -1.3616547584533691,
      "886": 0.5781749486923218,
      "887": 0.33858731389045715,
      "888": 0.7019400000572205,
      "889": 0.2599997818470001,
      "890": 0.1982049196958542,
      "891": 0.2675435543060303,
      "892": 0.47903335094451904,
      "893": -0.23616434633731842,
      "894": 0.9265730381011963,
      "895": -1.064854383468628,
      "896": 0.2101784497499466,
      "897": 0.21222086250782013,
      "898": -0.179851695895195,
      "899": 0.7294318675994873,
      "900": -0.27610015869140625,
      "901": -1.584985613822937,
      "902": -0.8981596827507019,
      "903": -0.7868312001228333,
      "904": -0.6753008365631104,
      "905": 1.90589439868927,
      "906": 0.3613240718841553,
      "907": -1.0291798114776611,
      "908": 0.18893341720104218,
      "909": -0.9880853891372681,
      "910": -0.0636051669716835,
      "911": -0.19184018671512604,
      "912": -0.8783672451972961,
      "913": 0.21617166697978973,
      "914": 1.2404416799545288,
      "915": -0.14905601739883423,
      "916": 0.8925429582595825,
      "917": -0.3277668356895447,
      "918": 0.16912543773651123,
      "919": -0.7394469976425171,
      "920": -0.33103761076927185,
      "921": 1.5524801015853882,
      "922": 2.164429187774658,
      "923": 1.3663843870162964,
      "924": -2.2714786529541016,
      "925": -0.371427983045578,
      "926": -0.0402199923992157,
      "927": 0.17562076449394226,
      "928": 0.9078852534294128,
      "929": 1.0387654304504395,
      "930": 0.6210839152336121,
      "931": 0.2862939238548279,
      "932": -0.005040501244366169,
      "933": -0.7399767637252808,
      "934": -0.07197530567646027,
      "935": 0.123994380235672,
      "936": 1.827576756477356,
      "937": -1.0505458116531372,
      "938": -0.6306681036949158,
      "939": 1.326859951019287,
      "940": 0.9203346371650696,
      "941": -0.6163074970245361,
      "942": 1.0273921489715576,
      "943": 0.8490674495697021,
      "944": -0.40649154782295227,
      "945": -0.7982698082923889,
      "946": 1.1248482465744019,
      "947": 0.5804868340492249,
      "948": -1.1218432188034058,
      "949": -0.8495806455612183,
      "950": -0.6640908122062683,
      "951": 0.5384941697120667,
      "952": 0.6832136511802673,
      "953": 0.5209503173828125,
      "954": -1.09136164188385,
      "955": -0.2611441910266876,
      "956": 0.4591568112373352,
      "957": 1.102781057357788,
      "958": 0.8340103626251221,
      "959": -0.826088547706604,
      "960": 0.358428031206131,
      "961": -0.353590726852417,
      "962": -0.36974868178367615,
      "963": -0.2682175040245056,
      "964": 1.3476592302322388,
      "965": -0.46903249621391296,
      "966": -0.9077614545822144,
      "967": -0.10792937129735947,
      "968": 0.1626465618610382,
      "969": 0.04630696028470993,
      "970": -0.3977646231651306,
      "971": -0.48895931243896484,
      "972": 0.37723490595817566,
      "973": -0.2159917950630188,
      "974": -0.6589531302452087,
      "975": 0.17037905752658844,
      "976": -0.33304885029792786,
      "977": 0.6566582918167114,
      "978": 1.3263458013534546,
      "979": 1.7856000661849976,
      "980": -0.1874474734067917,
      "981": -0.15736223757266998,
      "982": -0.48720020055770874,
      "983": -0.035200927406549454,
      "984": 0.56026691198349,
      "985": -1.932358980178833,
      "986": -1.2103852033615112,
      "987": 1.1873377561569214,
      "988": -1.4027634859085083,
      "989": 0.8831578493118286,
      "990": 0.890685498714447,
      "991": -0.018935203552246094,
      "992": 1.2438862323760986,
      "993": 0.8321948051452637,
      "994": 1.1314804553985596,
      "995": -0.7439023852348328,
      "996": -0.6268831491470337,
      "997": -1.3790931701660156,
      "998": 0.43964263796806335,
      "999": -0.2830941677093506,
      "1000": 1.1199203729629517,
      "1001": -0.4639863073825836,
      "1002": 1.340742826461792,
      "1003": 1.3439593315124512,
      "1004": -1.1449562311172485,
      "1005": 0.21202346682548523,
      "1006": -0.026702366769313812,
      "1007": 1.2703086137771606,
      "1008": -2.039903402328491,
      "1009": -0.3956117630004883,
      "1010": 0.128743514418602,
      "1011": 1.1945700645446777,
      "1012": -1.106827735900879,
      "1013": 0.979875385761261,
      "1014": 1.597763180732727,
      "1015": -1.2293189764022827,
      "1016": -2.0324971675872803,
      "1017": 0.15900546312332153,
      "1018": -0.9798314571380615,
      "1019": 0.6098622679710388,
      "1020": 0.7085497379302979,
      "1021": -0.26732248067855835,
      "1022": 0.2676205337047577,
      "1023": -0.2346128225326538,
      "1024": 1.2661821842193604,
      "1025": 0.13502593338489532,
      "1026": -0.45120760798454285,
      "1027": 1.6653262376785278,
      "1028": 1.6569138765335083,
      "1029": 0.6934795379638672,
      "1030": -0.929685115814209,
      "1031": -0.23741957545280457,
      "1032": 0.007876068353652954,
      "1033": -0.00881357304751873,
      "1034": -0.298465758562088,
      "1035": -0.27175095677375793,
      "1036": -0.05224492400884628,
      "1037": 0.7423964142799377,
      "1038": 0.3858994245529175,
      "1039": -0.33587148785591125,
      "1040": -0.3175343871116638,
      "1041": -0.4884868562221527,
      "1042": -1.276286005973816,
      "1043": -0.03787252679467201,
      "1044": 1.3626247644424438,
      "1045": 0.4200165867805481,
      "1046": -0.7972197532653809,
      "1047": -2.116034746170044,
      "1048": -0.5455195903778076,
      "1049": -1.095258116722107,
      "1050": -3.3615357875823975,
      "1051": 0.02340838499367237,
      "1052": -0.8393652439117432,
      "1053": -0.1138487383723259,
      "1054": 1.8461973667144775,
      "1055": -0.3934474289417267,
      "1056": -0.1126766949892044,
      "1057": -0.3873136341571808,
      "1058": -3.2330219745635986,
      "1059": 0.1339278519153595,
      "1060": 1.0197744369506836,
      "1061": 0.7863898277282715,
      "1062": 1.8878138065338135,
      "1063": -2.077606678009033,
      "1064": 1.7450653314590454,
      "1065": 0.8565009236335754,
      "1066": -3.294645309448242,
      "1067": 0.4808826446533203,
      "1068": -1.597484827041626,
      "1069": -1.051658034324646,
      "1070": -0.8930947184562683,
      "1071": 1.4928028583526611,
      "1072": 1.5909825563430786,
      "1073": 0.544965922832489,
      "1074": 0.9562763571739197,
      "1075": 1.6982011795043945,
      "1076": -2.2018542289733887,
      "1077": 1.6312516927719116,
      "1078": 0.9473471641540527,
      "1079": 0.9473726749420166,
      "1080": 0.138573557138443,
      "1081": 1.40389084815979,
      "1082": -1.7934470176696777,
      "1083": -5.664957046508789,
      "1084": 4.957995414733887,
      "1085": -0.818416953086853,
      "1086": -1.758101463317871,
      "1087": -4.349643230438232,
      "1088": -4.428129196166992,
      "1089": -0.029895393177866936,
      "1090": 2.868572473526001,
      "1091": -0.19841456413269043,
      "1092": -5.192739486694336,
      "1093": -2.885505437850952,
      "1094": 0.42535796761512756,
      "1095": 3.4384121894836426,
      "1096": -3.93350887298584,
      "1097": 0.7691826820373535,
      "1098": 3.040586233139038,
      "1099": -2.0515832901000977,
      "1100": -6.610339641571045,
      "1101": -1.8912519216537476,
      "1102": 4.613390922546387,
      "1103": -0.9721243381500244,
      "1104": -0.4237985610961914,
      "1105": -0.9722906351089478,
      "1106": -1.097485899925232,
      "1107": 0.3928399682044983,
      "1108": 0.8483079075813293,
      "1109": -2.0026803016662598,
      "1110": 2.1650407314300537,
      "1111": -1.3666999340057373,
      "1112": 1.3487966060638428,
      "1113": 1.3530480861663818,
      "1114": -1.302044153213501,
      "1115": 2.7582767009735107,
      "1116": -0.22013388574123383,
      "1117": 0.3549400866031647,
      "1118": -3.274257183074951,
      "1119": 0.3128293454647064,
      "1120": -0.6957972049713135,
      "1121": 0.800125002861023,
      "1122": 0.39726534485816956,
      "1123": -2.052579164505005,
      "1124": -3.3142542839050293,
      "1125": 2.007275342941284,
      "1126": -2.666027545928955,
      "1127": -0.2277752161026001,
      "1128": 3.4625244140625,
      "1129": 2.4991707801818848,
      "1130": -2.0025553703308105,
      "1131": 1.3516805171966553,
      "1132": 1.8160059452056885,
      "1133": -0.08357878029346466,
      "1134": 0.029267678037285805,
      "1135": -3.0586862564086914,
      "1136": -1.8162462711334229,
      "1137": 3.537522792816162,
      "1138": 0.7772303819656372,
      "1139": 0.5561085939407349,
      "1140": 0.8923369646072388,
      "1141": -1.3097774982452393,
      "1142": 0.16777445375919342,
      "1143": -0.7351278066635132,
      "1144": -2.0388596057891846,
      "1145": 3.461534023284912,
      "1146": -2.2291698455810547,
      "1147": 1.343615174293518,
      "1148": -1.9504213333129883,
      "1149": 3.3962249755859375,
      "1150": 4.162711143493652,
      "1151": -3.4606330394744873,
      "1152": -4.508584499359131,
      "1153": -0.5549825429916382,
      "1154": 4.298717021942139,
      "1155": -1.1913822889328003,
      "1156": 1.3685121536254883,
      "1157": -0.19144664704799652,
      "1158": -3.3416974544525146,
      "1159": -1.3461977243423462,
      "1160": -2.267552614212036,
      "1161": -1.173740029335022,
      "1162": -4.949404239654541,
      "1163": 0.4959416687488556,
      "1164": -0.20822979509830475,
      "1165": 1.9861525297164917,
      "1166": -4.651387691497803,
      "1167": -1.8961879014968872,
      "1168": 0.8002989292144775,
      "1169": -0.15269353985786438,
      "1170": -0.8736817240715027,
      "1171": 1.2051752805709839,
      "1172": -1.1327157020568848,
      "1173": -0.2732733488082886,
      "1174": -0.7596886157989502,
      "1175": -0.24495887756347656,
      "1176": -1.2205625772476196,
      "1177": -0.2546903192996979,
      "1178": -0.08266504853963852,
      "1179": 2.8224375247955322,
      "1180": 3.807868242263794,
      "1181": 0.11522775888442993,
      "1182": -2.3996598720550537,
      "1183": 0.9245806336402893,
      "1184": -0.9725842475891113,
      "1185": 4.417877197265625,
      "1186": 1.154619574546814,
      "1187": -0.7923204302787781,
      "1188": -0.3630308508872986,
      "1189": 2.0906195640563965,
      "1190": 0.7744783759117126,
      "1191": -0.7940015196800232,
      "1192": -1.4181691408157349,
      "1193": 1.888105869293213,
      "1194": 1.8083051443099976,
      "1195": -0.9847374558448792,
      "1196": 2.552509069442749,
      "1197": -5.642472743988037,
      "1198": -4.990001201629639,
      "1199": 2.328772783279419,
      "1200": 5.0760273933410645,
      "1201": -1.8879841566085815,
      "1202": -0.5413352251052856,
      "1203": -1.344406008720398,
      "1204": -2.4585697650909424,
      "1205": -2.4069344997406006,
      "1206": 0.20388047397136688,
      "1207": -3.392375946044922,
      "1208": -5.328048229217529,
      "1209": -0.8083899021148682,
      "1210": 3.6287388801574707,
      "1211": 4.220529556274414,
      "1212": -5.591423511505127,
      "1213": -3.4795308113098145,
      "1214": -0.861595630645752,
      "1215": 0.597871720790863,
      "1216": -0.17963172495365143,
      "1217": -0.1227811723947525,
      "1218": 1.4294384717941284,
      "1219": -0.17612265050411224,
      "1220": -3.5561001300811768,
      "1221": 1.4175843000411987,
      "1222": -1.0249186754226685,
      "1223": -2.5455949306488037,
      "1224": 0.04673227667808533,
      "1225": 1.544338583946228,
      "1226": 1.8444081544876099,
      "1227": 1.9182358980178833,
      "1228": -4.9801459312438965,
      "1229": -0.930962860584259,
      "1230": 1.467692494392395,
      "1231": 3.8673393726348877,
      "1232": -0.8890489935874939,
      "1233": 1.1357314586639404,
      "1234": 2.0022966861724854,
      "1235": 1.7667031288146973,
      "1236": -0.7691253423690796,
      "1237": -1.2655149698257446,
      "1238": -1.4380697011947632,
      "1239": 0.9784985184669495,
      "1240": 2.313237190246582,
      "1241": -1.5297820568084717,
      "1242": 1.3048210144042969,
      "1243": 0.054930124431848526,
      "1244": -1.8482154607772827,
      "1245": -0.37626913189888,
      "1246": 1.9195066690444946,
      "1247": 3.5293002128601074,
      "1248": -0.26258838176727295,
      "1249": -0.34801429510116577,
      "1250": -1.0308091640472412,
      "1251": 0.08875154703855515,
      "1252": 2.2988922595977783,
      "1253": -1.8560404777526855,
      "1254": -2.5220932960510254,
      "1255": -0.18109381198883057,
      "1256": 1.4042668342590332,
      "1257": -0.7348999977111816,
      "1258": -1.3949979543685913,
      "1259": 1.6705946922302246,
      "1260": 0.2603608965873718,
      "1261": -0.6480625867843628,
      "1262": 2.8241031169891357,
      "1263": -1.4026896953582764,
      "1264": -0.04547988995909691,
      "1265": -1.7495051622390747,
      "1266": -1.7928401231765747,
      "1267": 2.1476545333862305,
      "1268": 0.5121278762817383,
      "1269": -2.4647953510284424,
      "1270": -1.7758725881576538,
      "1271": 1.0047866106033325,
      "1272": 0.8562474250793457,
      "1273": 1.3343539237976074,
      "1274": -2.4228909015655518,
      "1275": -2.2879769802093506,
      "1276": 0.0027427664026618004,
      "1277": 1.3237252235412598,
      "1278": -0.24490077793598175,
      "1279": -0.3691972494125366,
      "1280": 0.9232051372528076,
      "1281": 1.3892122507095337,
      "1282": 1.5323705673217773,
      "1283": -0.19470220804214478,
      "1284": 2.837003231048584,
      "1285": 1.0015586614608765,
      "1286": -0.1849333941936493,
      "1287": -2.1621596813201904,
      "1288": 3.366215705871582,
      "1289": -5.846687316894531,
      "1290": -2.7170639038085938,
      "1291": -5.005565166473389,
      "1292": 3.580974578857422,
      "1293": 0.5841692686080933,
      "1294": -2.7634589672088623,
      "1295": -0.093415267765522,
      "1296": -1.8082325458526611,
      "1297": -1.8414912223815918,
      "1298": 0.3717993199825287,
      "1299": 1.156235933303833,
      "1300": -1.8168518543243408,
      "1301": -0.09598960727453232,
      "1302": -0.3581879138946533,
      "1303": 5.46150016784668,
      "1304": -3.4936158657073975,
      "1305": -2.1819510459899902,
      "1306": 1.7384049892425537,
      "1307": 1.381169319152832,
      "1308": -0.4830138683319092,
      "1309": -0.9105521440505981,
      "1310": 1.9499046802520752,
      "1311": 2.19850754737854,
      "1312": -1.0440343618392944,
      "1313": 4.85780668258667,
      "1314": -2.0701003074645996,
      "1315": 1.152754783630371,
      "1316": -1.6696194410324097,
      "1317": 2.844402551651001,
      "1318": 4.235405445098877,
      "1319": 0.277832567691803,
      "1320": -1.981495976448059,
      "1321": -0.3548262119293213,
      "1322": -1.0143184661865234,
      "1323": 3.847790241241455,
      "1324": -0.06546623259782791,
      "1325": 0.6961426734924316,
      "1326": -1.7820807695388794,
      "1327": 1.1018844842910767,
      "1328": -2.1469454765319824,
      "1329": -1.8019102811813354,
      "1330": -1.990727424621582,
      "1331": 0.4158772826194763,
      "1332": 2.643688917160034,
      "1333": 1.091456413269043,
      "1334": 1.0873831510543823,
      "1335": -1.4282015562057495,
      "1336": -1.1719976663589478,
      "1337": 2.6439881324768066,
      "1338": 0.33250319957733154,
      "1339": -4.279214859008789,
      "1340": 1.9287210702896118,
      "1341": -2.5688185691833496,
      "1342": 1.6490118503570557,
      "1343": 0.9742499589920044,
      "1344": 0.17955812811851501,
      "1345": 4.2627081871032715,
      "1346": -0.49866601824760437,
      "1347": 2.4488701820373535,
      "1348": -0.6657154560089111,
      "1349": 1.7168608903884888,
      "1350": -1.5627999305725098,
      "1351": -1.4396414756774902,
      "1352": 0.8333809971809387,
      "1353": -3.268174171447754,
      "1354": -2.24184513092041,
      "1355": 1.743470311164856,
      "1356": -1.2347478866577148,
      "1357": 0.5865931510925293,
      "1358": 3.5748722553253174,
      "1359": -3.34855055809021,
      "1360": -1.4066510200500488,
      "1361": 0.7676428556442261,
      "1362": 1.682428240776062,
      "1363": 1.696494460105896,
      "1364": 1.077013611793518,
      "1365": -2.2322967052459717,
      "1366": -1.0497931241989136,
      "1367": 4.4514479637146,
      "1368": 0.6260218620300293,
      "1369": 1.200417160987854,
      "1370": -0.5584938526153564,
      "1371": -1.4379050731658936,
      "1372": -0.6871802806854248,
      "1373": -1.0158004760742188,
      "1374": -2.8612685203552246,
      "1375": -0.27856341004371643,
      "1376": -2.9585957527160645,
      "1377": -0.07463937252759933,
      "1378": -3.2580745220184326,
      "1379": 4.404274940490723,
      "1380": 0.35663852095603943,
      "1381": -2.4477968215942383,
      "1382": -3.3863143920898438,
      "1383": 1.1595160961151123,
      "1384": 2.926198720932007,
      "1385": 2.181232213973999,
      "1386": -1.860260248184204,
      "1387": 0.08663128316402435,
      "1388": -2.185490608215332,
      "1389": -1.5788240432739258,
      "1390": 0.8074436783790588,
      "1391": -1.9336329698562622,
      "1392": -0.9094014167785645,
      "1393": -0.9608901739120483,
      "1394": 1.704711675643921,
      "1395": -1.5512114763259888,
      "1396": -2.323301315307617,
      "1397": -0.1280805766582489,
      "1398": 0.8003571033477783,
      "1399": 1.8474634885787964,
      "1400": 1.0722721815109253,
      "1401": -2.1139392852783203,
      "1402": 0.38196054100990295,
      "1403": -0.952415406703949,
      "1404": -1.4630767107009888,
      "1405": 1.77092707157135,
      "1406": -0.7112269997596741,
      "1407": -1.7897605895996094,
      "1408": -1.1802141666412354,
      "1409": 0.5475304126739502,
      "1410": 0.2477799504995346,
      "1411": 1.9577337503433228,
      "1412": -0.1272340565919876,
      "1413": -2.406707286834717,
      "1414": 0.42088255286216736,
      "1415": -1.1504299640655518,
      "1416": -0.5885286927223206,
      "1417": -0.28682923316955566,
      "1418": -0.31799328327178955,
      "1419": 1.4871610403060913,
      "1420": 1.0338234901428223,
      "1421": -0.5779535174369812,
      "1422": 1.3767884969711304,
      "1423": 0.4906976521015167,
      "1424": 1.7221859693527222,
      "1425": -1.1852984428405762,
      "1426": 0.8684853315353394,
      "1427": -0.09910959750413895,
      "1428": -0.7925782799720764,
      "1429": 1.169356346130371,
      "1430": 0.780163586139679,
      "1431": 0.7105253338813782,
      "1432": -0.8459101915359497,
      "1433": 1.6936204433441162,
      "1434": -1.392126441001892,
      "1435": -0.9829409122467041,
      "1436": 1.5136202573776245,
      "1437": -1.3859243392944336,
      "1438": -1.4671603441238403,
      "1439": -0.41087809205055237,
      "1440": 1.0246659517288208,
      "1441": -0.7533726692199707,
      "1442": -0.6604955792427063,
      "1443": -0.8477848172187805,
      "1444": 0.07135941833257675,
      "1445": 1.2009018659591675,
      "1446": 2.1418261528015137,
      "1447": -1.4947971105575562,
      "1448": 0.8771693706512451,
      "1449": -0.4151848256587982,
      "1450": -1.213073492050171,
      "1451": 1.6140283346176147,
      "1452": -0.3259407579898834,
      "1453": -1.4334170818328857,
      "1454": -2.1389753818511963,
      "1455": 1.1356710195541382,
      "1456": 1.0918834209442139,
      "1457": 0.7443576455116272,
      "1458": -0.9703666567802429,
      "1459": -1.0866457223892212,
      "1460": -0.2511168122291565,
      "1461": 0.7267608046531677,
      "1462": 0.312796026468277,
      "1463": 0.0625339075922966,
      "1464": -0.09813915193080902,
      "1465": 1.2100154161453247,
      "1466": 1.5894134044647217,
      "1467": -1.2235380411148071,
      "1468": 1.3681939840316772,
      "1469": 0.9165890216827393,
      "1470": 1.5346481800079346,
      "1471": -1.5573261976242065,
      "1472": 1.0517059564590454,
      "1473": 0.08315647393465042,
      "1474": -1.7840343713760376,
      "1475": 0.9740256667137146,
      "1476": 1.5856391191482544,
      "1477": 2.505171537399292,
      "1478": -0.41716504096984863,
      "1479": 1.002197027206421,
      "1480": -1.0241963863372803,
      "1481": -0.6178866624832153,
      "1482": 1.9055001735687256,
      "1483": -1.763820767402649,
      "1484": -1.9474272727966309,
      "1485": -0.20382307469844818,
      "1486": 1.3839783668518066,
      "1487": -0.4028492271900177,
      "1488": -1.166550874710083,
      "1489": -0.08054627478122711,
      "1490": 1.9620232582092285,
      "1491": -0.12729033827781677,
      "1492": 2.1367883682250977,
      "1493": -1.5608950853347778,
      "1494": -0.7368737459182739,
      "1495": -0.9726560115814209,
      "1496": -2.1350014209747314,
      "1497": 0.9933949112892151,
      "1498": 0.5257687568664551,
      "1499": -1.873215675354004,
      "1500": -1.1409552097320557,
      "1501": 0.8587604761123657,
      "1502": 1.0093884468078613,
      "1503": 1.4431684017181396,
      "1504": -2.3106091022491455,
      "1505": -2.727243185043335,
      "1506": 1.267969012260437,
      "1507": 0.9297466278076172,
      "1508": 0.5606899261474609,
      "1509": -1.542418360710144,
      "1510": 1.4429539442062378,
      "1511": 1.1289678812026978,
      "1512": 2.683689594268799,
      "1513": -2.1293082237243652,
      "1514": 2.3839402198791504,
      "1515": 0.020259898155927658,
      "1516": 0.18719661235809326,
      "1517": -1.8096462488174438,
      "1518": 1.1568461656570435,
      "1519": 0.16258639097213745,
      "1520": 1.243274211883545,
      "1521": 2.1287684440612793,
      "1522": -0.6603712439537048,
      "1523": 0.28738105297088623,
      "1524": -0.8852123022079468,
      "1525": 1.685836672782898,
      "1526": -1.1533994674682617,
      "1527": -2.2192203998565674,
      "1528": 5.632713794708252,
      "1529": -1.346895456314087,
      "1530": -1.663370132446289,
      "1531": -4.483260631561279,
      "1532": 1.4075767993927002,
      "1533": -1.0760233402252197,
      "1534": 0.618589460849762,
      "1535": -4.830688953399658,
      "1536": -3.331482410430908,
      "1537": 3.494375705718994,
      "1538": 3.584477424621582,
      "1539": -4.23183012008667,
      "1540": 3.7932686805725098,
      "1541": -4.623477458953857,
      "1542": -1.315537929534912,
      "1543": 3.3211915493011475,
      "1544": -1.772897481918335,
      "1545": -3.2494611740112305,
      "1546": -4.856925010681152,
      "1547": 0.8004133701324463,
      "1548": 1.3900020122528076,
      "1549": -0.11864147335290909,
      "1550": -1.91471529006958,
      "1551": 0.09291345626115799,
      "1552": 3.022308111190796,
      "1553": 1.2557883262634277,
      "1554": -3.5968687534332275,
      "1555": 2.5131547451019287,
      "1556": 3.421795129776001,
      "1557": 1.4037092924118042,
      "1558": 3.10402512550354,
      "1559": -1.3175668716430664,
      "1560": 3.121748685836792,
      "1561": -0.6663711071014404,
      "1562": 2.4965670108795166,
      "1563": -1.77164626121521,
      "1564": 0.9829233884811401,
      "1565": -0.590682327747345,
      "1566": -0.8475219011306763,
      "1567": 1.1995849609375,
      "1568": 0.8915045857429504,
      "1569": 2.875437021255493,
      "1570": -0.8053300380706787,
      "1571": 0.27663353085517883,
      "1572": -0.8226425647735596,
      "1573": -0.7540778517723083,
      "1574": 1.4323128461837769,
      "1575": -1.0038093328475952,
      "1576": -0.7793761491775513,
      "1577": -0.7871673703193665,
      "1578": 0.9732205271720886,
      "1579": -0.7335784435272217,
      "1580": -0.5160233378410339,
      "1581": -0.8648260831832886,
      "1582": -0.2464810162782669,
      "1583": 0.7678804397583008,
      "1584": 1.531752586364746,
      "1585": -0.9114260673522949,
      "1586": 0.6441060900688171,
      "1587": -0.5057986974716187,
      "1588": -1.0131149291992188,
      "1589": 1.7802276611328125,
      "1590": 1.6535682678222656,
      "1591": -1.004623293876648,
      "1592": -0.9903104901313782,
      "1593": 1.0067335367202759,
      "1594": 1.1940891742706299,
      "1595": 0.8020914196968079,
      "1596": -0.8648909330368042,
      "1597": -2.02168607711792,
      "1598": 0.6888381838798523,
      "1599": 0.892478346824646,
      "1600": -0.2660007178783417,
      "1601": 0.09488257020711899,
      "1602": 0.4253876805305481,
      "1603": 1.0766997337341309,
      "1604": 1.5734261274337769,
      "1605": -0.9654611945152283,
      "1606": 1.6879076957702637,
      "1607": 1.1558880805969238,
      "1608": 1.0518226623535156,
      "1609": -1.142961025238037,
      "1610": 2.3272650241851807,
      "1611": -1.0941470861434937,
      "1612": -2.062810182571411,
      "1613": 1.31436026096344,
      "1614": 1.5316860675811768,
      "1615": -1.2972092628479004,
      "1616": -0.38397806882858276,
      "1617": 0.163371279835701,
      "1618": 0.5275244116783142,
      "1619": 1.3452867269515991,
      "1620": 0.5881359577178955,
      "1621": -0.14462484419345856,
      "1622": -1.4739618301391602,
      "1623": -0.8354125022888184,
      "1624": 0.12872575223445892,
      "1625": -1.2230414152145386,
      "1626": -1.6060031652450562,
      "1627": -0.5526109337806702,
      "1628": -0.3292672038078308,
      "1629": 0.25860705971717834,
      "1630": 0.3542661666870117,
      "1631": 0.005542609840631485,
      "1632": 0.2402142435312271,
      "1633": -0.46517592668533325,
      "1634": -0.1310417354106903,
      "1635": 1.4155690670013428,
      "1636": -0.7806307673454285,
      "1637": -0.2251637876033783,
      "1638": -0.03389504924416542,
      "1639": 1.1353849172592163,
      "1640": 0.6806841492652893,
      "1641": 0.2068995237350464,
      "1642": -1.4584615230560303,
      "1643": 1.7719457149505615,
      "1644": 0.6620612144470215,
      "1645": 0.8795724511146545,
      "1646": -0.30300500988960266,
      "1647": 0.015530392527580261,
      "1648": 0.9521751403808594,
      "1649": -0.25747719407081604,
      "1650": -1.1517666578292847,
      "1651": 0.10110608488321304,
      "1652": 0.5358166694641113,
      "1653": 1.3471938371658325,
      "1654": -0.3049866855144501,
      "1655": -0.1454959362745285,
      "1656": -0.9546934366226196,
      "1657": -0.5255351662635803,
      "1658": 0.6412261724472046,
      "1659": 1.7886817455291748,
      "1660": -0.9823443293571472,
      "1661": -2.494523763656616,
      "1662": 2.6336021423339844,
      "1663": -0.01801406964659691,
      "1664": 0.7939791679382324,
      "1665": -1.177674412727356,
      "1666": 1.3262262344360352,
      "1667": 2.094139575958252,
      "1668": 1.161338210105896,
      "1669": 2.0178182125091553,
      "1670": -1.3318289518356323,
      "1671": 0.8248597979545593,
      "1672": -0.7490862011909485,
      "1673": -0.7284616827964783,
      "1674": 0.28562891483306885,
      "1675": -1.4102790355682373,
      "1676": -2.532489538192749,
      "1677": 3.6641833782196045,
      "1678": -1.4116203784942627,
      "1679": 3.0309653282165527,
      "1680": 1.6180516481399536,
      "1681": -2.6964352130889893,
      "1682": 1.2910603284835815,
      "1683": 0.828552782535553,
      "1684": 1.4070720672607422,
      "1685": -0.2292850762605667,
      "1686": -1.207280158996582,
      "1687": -2.5022592544555664,
      "1688": 0.7893757224082947,
      "1689": 3.1070637702941895,
      "1690": 0.36644765734672546,
      "1691": -0.6521578431129456,
      "1692": -0.4390420913696289,
      "1693": 0.14860647916793823,
      "1694": 1.3501665592193604,
      "1695": 2.3900301456451416,
      "1696": -1.119571566581726,
      "1697": 0.969283401966095,
      "1698": -2.9504759311676025,
      "1699": -0.40030425786972046,
      "1700": -0.7574564218521118,
      "1701": 2.799492359161377,
      "1702": 1.4847716093063354,
      "1703": -1.733840823173523,
      "1704": -0.8362076878547668,
      "1705": -0.03725626319646835,
      "1706": 1.3317171335220337,
      "1707": -2.5357906818389893,
      "1708": -0.09027040749788284,
      "1709": 0.17628926038742065,
      "1710": 0.6599515676498413,
      "1711": 1.7693355083465576,
      "1712": -1.0900843143463135,
      "1713": 1.8304444551467896,
      "1714": -0.8187007308006287,
      "1715": -0.026351409032940865,
      "1716": -0.45226776599884033,
      "1717": -1.4210214614868164,
      "1718": -1.6037662029266357,
      "1719": 1.213325023651123,
      "1720": -0.9285321831703186,
      "1721": 1.2678016424179077,
      "1722": -0.03610492870211601,
      "1723": 0.15849509835243225,
      "1724": 0.5158053040504456,
      "1725": -0.5908629298210144,
      "1726": 0.8271104097366333,
      "1727": -1.9635601043701172,
      "1728": 1.3286813497543335,
      "1729": 1.3774018287658691,
      "1730": -0.27730193734169006,
      "1731": 1.6312545537948608,
      "1732": 0.9090849161148071,
      "1733": -0.5730934143066406,
      "1734": -0.8556972742080688,
      "1735": 3.874218225479126,
      "1736": -1.002571940422058,
      "1737": 1.3083616495132446,
      "1738": -0.4176255762577057,
      "1739": 0.9796113967895508,
      "1740": 0.6470704674720764,
      "1741": -1.8487483263015747,
      "1742": -2.606555938720703,
      "1743": -0.2225542664527893,
      "1744": -0.5659167766571045,
      "1745": 2.721463441848755,
      "1746": 2.007831573486328,
      "1747": 0.4514615535736084,
      "1748": 0.9376747608184814,
      "1749": -2.166053056716919,
      "1750": -0.6708624958992004,
      "1751": 1.8393176794052124,
      "1752": 0.9918034672737122,
      "1753": -0.048991650342941284,
      "1754": 2.116978168487549,
      "1755": -3.697903871536255,
      "1756": 2.2572851181030273,
      "1757": 1.6420414447784424,
      "1758": 1.9009102582931519,
      "1759": -0.5488094091415405,
      "1760": -1.6222491264343262,
      "1761": -2.257159471511841,
      "1762": -0.8649336099624634,
      "1763": -3.3040854930877686,
      "1764": 2.2960710525512695,
      "1765": -2.1214613914489746,
      "1766": 0.8660675287246704,
      "1767": 3.247098207473755,
      "1768": 1.500213623046875,
      "1769": -1.4656507968902588,
      "1770": -1.0748320817947388,
      "1771": 1.5247224569320679,
      "1772": 0.7792262434959412,
      "1773": 6.39652681350708,
      "1774": -3.2898356914520264,
      "1775": -1.1586716175079346,
      "1776": -1.6131653785705566,
      "1777": 1.6119282245635986,
      "1778": 1.028978943824768,
      "1779": 0.0029836019966751337,
      "1780": -0.09647476673126221,
      "1781": 2.192279100418091,
      "1782": -1.3419928550720215,
      "1783": 0.7963723540306091,
      "1784": 1.4521210193634033,
      "1785": -0.012457341887056828,
      "1786": 0.48805922269821167,
      "1787": -1.0137630701065063,
      "1788": -3.2275896072387695,
      "1789": 4.400424003601074,
      "1790": 1.5178669691085815,
      "1791": 3.9202489852905273,
      "1792": 1.8224544525146484,
      "1793": -1.4111684560775757,
      "1794": 2.812283992767334,
      "1795": -1.8401120901107788,
      "1796": -1.167215347290039,
      "1797": -1.6826789379119873,
      "1798": 1.554231882095337,
      "1799": -3.3982393741607666,
      "1800": -0.27289581298828125,
      "1801": -1.8214521408081055,
      "1802": 1.2561482191085815,
      "1803": 3.6801493167877197,
      "1804": -3.032305955886841,
      "1805": 1.1553038358688354,
      "1806": -1.6213128566741943,
      "1807": 0.14029854536056519,
      "1808": -1.2543721199035645,
      "1809": -1.6623446941375732,
      "1810": -1.635035514831543,
      "1811": 2.9236953258514404,
      "1812": 0.6560275554656982,
      "1813": -0.04306710138916969,
      "1814": -0.10899876803159714,
      "1815": -0.7987971901893616,
      "1816": 1.1823828220367432,
      "1817": 0.23554541170597076,
      "1818": 0.7349792122840881,
      "1819": 2.0847666263580322,
      "1820": -3.6063153743743896,
      "1821": 1.4149773120880127,
      "1822": 0.19106200337409973,
      "1823": 2.7019991874694824,
      "1824": 2.933227777481079,
      "1825": -0.4434238076210022,
      "1826": -1.7576085329055786,
      "1827": 3.1978213787078857,
      "1828": -3.6399083137512207,
      "1829": 2.7440788745880127,
      "1830": 1.4588943719863892,
      "1831": -1.415036916732788,
      "1832": -2.4647772312164307,
      "1833": -3.2164316177368164,
      "1834": -1.2187042236328125,
      "1835": 1.004155158996582,
      "1836": -3.3209240436553955,
      "1837": 1.6554287672042847,
      "1838": 0.07685568183660507,
      "1839": 0.7955549955368042,
      "1840": -0.748559296131134,
      "1841": -0.9616676568984985,
      "1842": 2.290412664413452,
      "1843": 0.2965207099914551,
      "1844": -2.7519612312316895,
      "1845": -1.4427624940872192,
      "1846": -2.3632049560546875,
      "1847": 5.478527545928955,
      "1848": -1.1276122331619263,
      "1849": 0.24664784967899323,
      "1850": -2.029740810394287,
      "1851": 2.8812355995178223,
      "1852": 1.1630663871765137,
      "1853": -0.06963102519512177,
      "1854": -2.1674489974975586,
      "1855": -5.284476280212402,
      "1856": 0.5286852717399597,
      "1857": -0.3446638584136963,
      "1858": -3.423279047012329,
      "1859": -3.4818062782287598,
      "1860": -2.9487969875335693,
      "1861": -0.25343093276023865,
      "1862": 2.0698351860046387,
      "1863": -0.8330574631690979,
      "1864": 6.291059494018555,
      "1865": 1.8135955333709717,
      "1866": 1.6566981077194214,
      "1867": 0.917512059211731,
      "1868": 1.1620464324951172,
      "1869": -1.2766953706741333,
      "1870": 0.056857071816921234,
      "1871": -1.8769551515579224,
      "1872": 1.4233359098434448,
      "1873": 3.1606738567352295,
      "1874": 3.6255624294281006,
      "1875": 0.4608761966228485,
      "1876": -2.063096284866333,
      "1877": 3.689394235610962,
      "1878": 3.1907217502593994,
      "1879": 0.5536670088768005,
      "1880": 1.1662839651107788,
      "1881": 2.634366989135742,
      "1882": -3.72513484954834,
      "1883": 2.930509328842163,
      "1884": 0.13856619596481323,
      "1885": 5.552548885345459,
      "1886": -0.029449939727783203,
      "1887": 0.8629728555679321,
      "1888": 2.3768248558044434,
      "1889": 6.647179126739502,
      "1890": -2.549865484237671,
      "1891": 0.6658661961555481,
      "1892": 0.3850935697555542,
      "1893": -0.06527164578437805,
      "1894": 0.15297293663024902,
      "1895": -0.3161628246307373,
      "1896": 2.9639992713928223,
      "1897": -0.3156312108039856,
      "1898": 3.243717908859253,
      "1899": -2.1476573944091797,
      "1900": 0.6919448375701904,
      "1901": -7.166753768920898,
      "1902": 3.2862021923065186,
      "1903": -2.4481472969055176,
      "1904": -3.081516742706299,
      "1905": 1.1994240283966064,
      "1906": 1.2088826894760132,
      "1907": -2.8964250087738037,
      "1908": 0.08446492999792099,
      "1909": 0.7595852017402649,
      "1910": -1.2048171758651733,
      "1911": 0.1017368882894516,
      "1912": 4.945517063140869,
      "1913": 1.5513616800308228,
      "1914": -2.825575828552246,
      "1915": -0.01632676087319851,
      "1916": -1.1480129957199097,
      "1917": 1.174385905265808,
      "1918": 4.582275390625,
      "1919": -0.42597338557243347,
      "1920": 1.799543023109436,
      "1921": -0.7126011252403259,
      "1922": 0.8193662762641907,
      "1923": 2.5748448371887207,
      "1924": 0.6413312554359436,
      "1925": -0.5604258179664612,
      "1926": 2.6566014289855957,
      "1927": -1.8978826999664307,
      "1928": 0.005811013281345367,
      "1929": 2.216696262359619,
      "1930": 4.355058670043945,
      "1931": 0.5723688006401062,
      "1932": 0.29681485891342163,
      "1933": 0.0027887453325092793,
      "1934": -0.5895584225654602,
      "1935": 1.7153064012527466,
      "1936": 0.6422454118728638,
      "1937": 2.4391770362854004,
      "1938": -1.280349612236023,
      "1939": 0.9805026650428772,
      "1940": -0.8499919176101685,
      "1941": -1.0640604496002197,
      "1942": 1.8379956483840942,
      "1943": -1.2200491428375244,
      "1944": -1.5838342905044556,
      "1945": -1.3073011636734009,
      "1946": 1.09406578540802,
      "1947": -2.8079257011413574,
      "1948": -0.03665207326412201,
      "1949": -0.7428738474845886,
      "1950": -0.9175392985343933,
      "1951": 1.029725193977356,
      "1952": 2.029240369796753,
      "1953": -1.6948258876800537,
      "1954": 0.8525828123092651,
      "1955": -1.3701058626174927,
      "1956": -1.0955089330673218,
      "1957": 2.2441916465759277,
      "1958": -0.5480921268463135,
      "1959": -1.5868003368377686,
      "1960": -1.7156403064727783,
      "1961": 0.23767252266407013,
      "1962": 0.8232015371322632,
      "1963": 1.397917628288269,
      "1964": -1.7961033582687378,
      "1965": -1.2786777019500732,
      "1966": 1.1941410303115845,
      "1967": 0.4758760333061218,
      "1968": -1.0406931638717651,
      "1969": 0.7436780333518982,
      "1970": 2.1032559871673584,
      "1971": 0.8588050603866577,
      "1972": 1.621854543685913,
      "1973": -1.0300413370132446,
      "1974": 2.284837484359741,
      "1975": 0.9692610502243042,
      "1976": 0.8134027123451233,
      "1977": -1.4424190521240234,
      "1978": -1.3355259895324707,
      "1979": 0.6520124673843384,
      "1980": 1.4103211164474487,
      "1981": 1.421981930732727,
      "1982": -2.7216134071350098,
      "1983": -1.2106503248214722,
      "1984": 1.2091783285140991,
      "1985": -2.699216365814209,
      "1986": 1.6735678911209106,
      "1987": 2.6329474449157715,
      "1988": -4.084506034851074,
      "1989": 2.154885768890381,
      "1990": 2.1270594596862793,
      "1991": 1.9017728567123413,
      "1992": -1.811191439628601,
      "1993": -2.014277696609497,
      "1994": 1.654422402381897,
      "1995": 0.7335600256919861,
      "1996": 0.04435070604085922,
      "1997": -4.026272296905518,
      "1998": -1.3830678462982178,
      "1999": 0.4063960611820221,
      "2000": -0.47420820593833923,
      "2001": 4.048074245452881,
      "2002": 2.3234646320343018,
      "2003": 0.13852784037590027,
      "2004": 0.016702571883797646,
      "2005": 3.7539613246917725,
      "2006": 1.7540086507797241,
      "2007": -1.9917961359024048,
      "2008": -1.9129488468170166,
      "2009": -1.2393101453781128,
      "2010": 1.7891325950622559,
      "2011": 1.1925922632217407,
      "2012": 0.1997089982032776,
      "2013": -1.6061012744903564,
      "2014": 4.7850141525268555,
      "2015": -0.6302037835121155,
      "2016": -0.44930338859558105,
      "2017": -2.2137253284454346,
      "2018": -1.0320165157318115,
      "2019": 1.6761858463287354,
      "2020": -2.179868221282959,
      "2021": -1.001249074935913,
      "2022": -1.5526256561279297,
      "2023": 1.499724268913269,
      "2024": -2.225630283355713,
      "2025": 0.8881535530090332,
      "2026": 0.3508337438106537,
      "2027": -0.09690506756305695,
      "2028": -0.6107193827629089,
      "2029": 2.365550994873047,
      "2030": -1.0082588195800781,
      "2031": -0.6886806488037109,
      "2032": 0.5977017879486084,
      "2033": 0.04719823971390724,
      "2034": 1.3701648712158203,
      "2035": -1.0925229787826538,
      "2036": 0.9045958518981934,
      "2037": -0.9865540266036987,
      "2038": 0.433182954788208,
      "2039": 0.7495601177215576,
      "2040": 1.1203936338424683,
      "2041": -0.1328178346157074,
      "2042": 0.47373104095458984,
      "2043": 0.3601897358894348,
      "2044": 2.8219099044799805,
      "2045": -0.6299555897712708,
      "2046": 0.022884557023644447,
      "2047": -0.15071195363998413,
      "2048": 0.13824500143527985,
      "2049": 2.0536861419677734,
      "2050": -1.4594197273254395,
      "2051": -1.8226330280303955,
      "2052": -1.1892863512039185,
      "2053": -1.5773420333862305,
      "2054": -2.1714131832122803,
      "2055": 0.8927114009857178,
      "2056": 0.21577417850494385,
      "2057": 0.312866747379303,
      "2058": 0.6092115044593811,
      "2059": -1.3198175430297852,
      "2060": 0.164045050740242,
      "2061": -1.3511408567428589,
      "2062": 0.5916149616241455,
      "2063": -0.4160095155239105,
      "2064": -0.2556030750274658,
      "2065": -0.6241633892059326,
      "2066": 2.9303765296936035,
      "2067": 1.1894978284835815,
      "2068": -0.2841741144657135,
      "2069": -1.9020237922668457,
      "2070": -0.6500200033187866,
      "2071": 0.8329141139984131,
      "2072": 1.9258311986923218,
      "2073": -0.5849228501319885,
      "2074": -1.7422434091567993,
      "2075": -0.4864215850830078,
      "2076": 0.3380174934864044,
      "2077": 0.7008208632469177,
      "2078": 1.245916485786438,
      "2079": 0.9435831904411316,
      "2080": -0.6878418922424316,
      "2081": 0.8449574112892151,
      "2082": 0.6774324178695679,
      "2083": -1.114516258239746,
      "2084": -0.8670617341995239,
      "2085": -1.4219179153442383,
      "2086": 1.3510717153549194,
      "2087": 0.5661458373069763,
      "2088": -1.0631283521652222,
      "2089": -0.4795842170715332,
      "2090": -0.6418830156326294,
      "2091": 0.5063127875328064,
      "2092": -0.8233132362365723,
      "2093": -1.1416281461715698,
      "2094": 0.5363452434539795,
      "2095": -0.056479401886463165,
      "2096": 0.3694456219673157,
      "2097": 0.9057244658470154,
      "2098": 0.6243550181388855,
      "2099": -0.9855544567108154,
      "2100": -0.627983033657074,
      "2101": -0.6846432089805603,
      "2102": 0.42879587411880493,
      "2103": 0.8203648328781128,
      "2104": 0.87297523021698,
      "2105": -0.9801744818687439,
      "2106": -0.26996690034866333,
      "2107": 0.23525400459766388,
      "2108": 1.1687949895858765,
      "2109": -1.1749303340911865,
      "2110": -0.34577304124832153,
      "2111": 0.6753897666931152,
      "2112": 0.10171691328287125,
      "2113": 0.6074719429016113,
      "2114": -0.5603152513504028,
      "2115": 0.1912708580493927,
      "2116": 0.042983945459127426,
      "2117": 0.07766332477331161,
      "2118": -0.005567536223679781,
      "2119": 0.0788876861333847,
      "2120": 0.01356798131018877,
      "2121": -0.01857602782547474,
      "2122": -0.04903301224112511,
      "2123": -0.037618666887283325,
      "2124": -0.009673574939370155,
      "2125": -0.06940364092588425,
      "2126": -0.024746878072619438,
      "2127": 0.01705920137465,
      "2128": 0.031978506594896317,
      "2129": 0.03822802007198334,
      "2130": -0.0652725100517273,
      "2131": 0.00904865376651287,
      "2132": -0.05096541345119476,
      "2133": 0.021636832505464554,
      "2134": -0.005994098260998726,
      "2135": -0.01268000714480877,
      "2136": -0.04896237701177597,
      "2137": -0.07131143659353256,
      "2138": -0.0592445507645607,
      "2139": -0.07668881118297577,
      "2140": 0.027926888316869736,
      "2141": -0.07453344017267227,
      "2142": 0.03817557916045189,
      "2143": 0.033139538019895554,
      "2144": 0.026458896696567535,
      "2145": 0.06500741094350815,
      "2146": -0.06762056797742844,
      "2147": -0.02740343287587166,
      "2148": 0.014785791747272015,
      "2149": 0.03881409019231796,
      "2150": 0.007527453824877739,
      "2151": 0.024891089648008347,
      "2152": -0.06601318717002869,
      "2153": -0.0540187805891037,
      "2154": -0.026287978515028954,
      "2155": 0.04810868203639984,
      "2156": -0.05242035910487175,
      "2157": 0.022772321477532387,
      "2158": -0.07758767902851105,
      "2159": 0.033264320343732834,
      "2160": 0.0160816740244627,
      "2161": -0.07462183386087418
    }
  },
  "hiddenLayers": [
    {
      "inputMatrix": {
        "rows": 20,
        "columns": 46,
        "weights": {
          "0": 0.22783136367797852,
          "1": -0.3258835971355438,
          "2": -0.7322836518287659,
          "3": 0.8359702825546265,
          "4": 0.624607503414154,
          "5": -1.279450535774231,
          "6": 1.8108659982681274,
          "7": -0.9389401078224182,
          "8": 0.6338365077972412,
          "9": 1.3132309913635254,
          "10": -0.547458291053772,
          "11": 0.6639153361320496,
          "12": 0.08265505731105804,
          "13": -0.06251760572195053,
          "14": -0.7137659192085266,
          "15": -0.8330526351928711,
          "16": -0.5403070449829102,
          "17": 0.2201266884803772,
          "18": -0.04251449182629585,
          "19": -0.6654101610183716,
          "20": -0.06989766657352448,
          "21": 0.6185921430587769,
          "22": -1.1505992412567139,
          "23": -0.4117754399776459,
          "24": 0.7836611270904541,
          "25": -0.05273030698299408,
          "26": -0.7762265801429749,
          "27": 0.45301756262779236,
          "28": 1.1175498962402344,
          "29": 0.23244622349739075,
          "30": 0.32111918926239014,
          "31": -0.6710894107818604,
          "32": 0.46247974038124084,
          "33": 0.9615723490715027,
          "34": 0.17736934125423431,
          "35": -0.37055444717407227,
          "36": 1.555292010307312,
          "37": -0.6554585695266724,
          "38": -0.31882244348526,
          "39": -0.6468839049339294,
          "40": -1.2792905569076538,
          "41": 1.4395145177841187,
          "42": -0.4913000464439392,
          "43": 0.6138728857040405,
          "44": -0.7896301746368408,
          "45": 0.43713387846946716,
          "46": 0.06590606272220612,
          "47": -1.6174136400222778,
          "48": -1.1131411790847778,
          "49": 0.5623002648353577,
          "50": 0.9265108108520508,
          "51": -0.7175999879837036,
          "52": 0.6587103009223938,
          "53": -1.2546802759170532,
          "54": 0.22419074177742004,
          "55": 0.3386157155036926,
          "56": -0.21712340414524078,
          "57": 0.6810349225997925,
          "58": -0.012067727744579315,
          "59": 0.3423740267753601,
          "60": -0.3512609899044037,
          "61": -0.37449386715888977,
          "62": -1.0500495433807373,
          "63": -0.8204396963119507,
          "64": 0.36940598487854004,
          "65": 0.36243411898612976,
          "66": -0.17584027349948883,
          "67": 0.331749826669693,
          "68": 0.2581058442592621,
          "69": 1.3445254564285278,
          "70": 1.2134150266647339,
          "71": 1.8808479309082031,
          "72": -1.2742743492126465,
          "73": 0.1488555520772934,
          "74": 0.3997967541217804,
          "75": 0.4501948654651642,
          "76": 0.2622118592262268,
          "77": -0.1715327948331833,
          "78": -0.03709465637803078,
          "79": 1.0323230028152466,
          "80": -0.7543520331382751,
          "81": 0.29243242740631104,
          "82": 1.5287823677062988,
          "83": -0.8227408528327942,
          "84": -0.9452276825904846,
          "85": 0.706537663936615,
          "86": -1.284891963005066,
          "87": 0.8553550243377686,
          "88": -0.9333494901657104,
          "89": 0.5309518575668335,
          "90": 0.5965949296951294,
          "91": 1.0653984546661377,
          "92": 1.6196813583374023,
          "93": -1.8852483034133911,
          "94": -1.4026567935943604,
          "95": -0.13690833747386932,
          "96": 1.6462446451187134,
          "97": -0.591652512550354,
          "98": 0.4667282700538635,
          "99": -0.8332619071006775,
          "100": 0.3902442455291748,
          "101": 0.5581188797950745,
          "102": 0.4061439335346222,
          "103": -0.4194282293319702,
          "104": -1.5338373184204102,
          "105": -0.47716987133026123,
          "106": 0.6605508327484131,
          "107": -0.07729126513004303,
          "108": -1.1359764337539673,
          "109": 0.053400930017232895,
          "110": -0.293422669172287,
          "111": 0.9606972336769104,
          "112": 0.2992249131202698,
          "113": -0.1484220325946808,
          "114": 0.8068086504936218,
          "115": 0.2415773868560791,
          "116": -0.4660044014453888,
          "117": 1.3025999069213867,
          "118": -0.7467223405838013,
          "119": -0.48985159397125244,
          "120": -0.14132876694202423,
          "121": 1.3356637954711914,
          "122": 1.4417434930801392,
          "123": 0.1986418515443802,
          "124": -1.459779977798462,
          "125": 1.0004149675369263,
          "126": -0.12493424117565155,
          "127": 1.7657177448272705,
          "128": 0.07970898598432541,
          "129": -0.7723264694213867,
          "130": 0.04697949066758156,
          "131": 0.08140162378549576,
          "132": -0.3397951126098633,
          "133": 0.1954297572374344,
          "134": 0.5379001498222351,
          "135": 2.9737470149993896,
          "136": -0.6521309614181519,
          "137": -0.30318763852119446,
          "138": -0.6898773908615112,
          "139": -1.0549898147583008,
          "140": -0.07876453548669815,
          "141": 0.9485347867012024,
          "142": 0.22836683690547943,
          "143": 0.7633448839187622,
          "144": -0.593298077583313,
          "145": -0.8506763577461243,
          "146": -0.2877289056777954,
          "147": -0.27009305357933044,
          "148": 0.6909699440002441,
          "149": -0.5654215216636658,
          "150": 0.9340999126434326,
          "151": -0.8025504946708679,
          "152": 0.9664821624755859,
          "153": -0.06920423358678818,
          "154": 0.4179496765136719,
          "155": 0.28546175360679626,
          "156": -0.5476875901222229,
          "157": 1.3307030200958252,
          "158": -0.06074836477637291,
          "159": -0.15938661992549896,
          "160": 0.5559550523757935,
          "161": 0.5153055191040039,
          "162": -0.14312876760959625,
          "163": 2.5462279319763184,
          "164": -0.18348881602287292,
          "165": -1.0506715774536133,
          "166": -0.5492404103279114,
          "167": -0.25622573494911194,
          "168": -0.5470426678657532,
          "169": 1.0242321491241455,
          "170": 0.2470509111881256,
          "171": -0.4027497470378876,
          "172": -0.00897558219730854,
          "173": -0.29268112778663635,
          "174": -0.25704726576805115,
          "175": 0.07650844007730484,
          "176": -0.8843529224395752,
          "177": 1.2512413263320923,
          "178": 0.006101018283516169,
          "179": 0.22182798385620117,
          "180": -0.2934691309928894,
          "181": 0.2768789231777191,
          "182": 0.553111732006073,
          "183": 0.16773362457752228,
          "184": 0.5656322836875916,
          "185": -0.2673019468784332,
          "186": -1.0880919694900513,
          "187": 1.0611661672592163,
          "188": 0.9414346814155579,
          "189": 0.4078783690929413,
          "190": -0.08718675374984741,
          "191": 0.48563826084136963,
          "192": -0.05601021647453308,
          "193": -0.35141289234161377,
          "194": 1.1368834972381592,
          "195": -0.49087145924568176,
          "196": -0.7396403551101685,
          "197": 0.3866308927536011,
          "198": 0.013669868931174278,
          "199": -1.3074227571487427,
          "200": -0.6861724257469177,
          "201": -0.09337974339723587,
          "202": 0.6565156579017639,
          "203": -0.323253870010376,
          "204": 0.8792178630828857,
          "205": -0.2411346137523651,
          "206": -0.2179005891084671,
          "207": 0.27864301204681396,
          "208": 0.2780062258243561,
          "209": -0.2068682163953781,
          "210": 0.3187057077884674,
          "211": -0.2970290780067444,
          "212": 0.21483753621578217,
          "213": 0.21957068145275116,
          "214": 0.37993621826171875,
          "215": 0.7326574325561523,
          "216": 0.4055384695529938,
          "217": -1.3879956007003784,
          "218": 0.3880108594894409,
          "219": 0.3096567988395691,
          "220": 0.8098125457763672,
          "221": -0.7829352617263794,
          "222": -0.291004478931427,
          "223": 0.9408814907073975,
          "224": 0.4486166536808014,
          "225": -0.39941760897636414,
          "226": 1.020869493484497,
          "227": -0.2050575464963913,
          "228": 0.17624232172966003,
          "229": -0.38391536474227905,
          "230": -0.35572385787963867,
          "231": -1.4452338218688965,
          "232": -1.4194676876068115,
          "233": 1.2496588230133057,
          "234": 1.7184958457946777,
          "235": 0.7108105421066284,
          "236": -0.020612569525837898,
          "237": -0.5523996353149414,
          "238": -2.3263957500457764,
          "239": -1.3639775514602661,
          "240": 0.5918524265289307,
          "241": -1.8599600791931152,
          "242": 0.2897879183292389,
          "243": 0.5942475199699402,
          "244": 2.7169289588928223,
          "245": 0.3140164613723755,
          "246": -0.8464351296424866,
          "247": -0.1405574232339859,
          "248": -0.5654433369636536,
          "249": -0.5041907429695129,
          "250": -0.2823893129825592,
          "251": 0.597937822341919,
          "252": -0.15201643109321594,
          "253": -0.02323540672659874,
          "254": -1.14274263381958,
          "255": 0.9153756499290466,
          "256": 1.2347439527511597,
          "257": -1.2743096351623535,
          "258": -0.08563624322414398,
          "259": -0.5535079836845398,
          "260": -0.6518480777740479,
          "261": 0.08713778853416443,
          "262": -0.31936630606651306,
          "263": -0.9304141998291016,
          "264": 0.9879988431930542,
          "265": -0.2734394967556,
          "266": -0.44431012868881226,
          "267": -0.3163246214389801,
          "268": -1.1292191743850708,
          "269": 1.796275019645691,
          "270": 1.0737371444702148,
          "271": -0.5893265008926392,
          "272": -0.054421551525592804,
          "273": 1.2532870769500732,
          "274": -0.004147520754486322,
          "275": -0.5869964957237244,
          "276": 0.33172205090522766,
          "277": -1.924047827720642,
          "278": -1.7602125406265259,
          "279": 1.3429172039031982,
          "280": 1.8963735103607178,
          "281": 0.5577406287193298,
          "282": 0.46418657898902893,
          "283": -1.2864203453063965,
          "284": -0.9748682975769043,
          "285": -1.4023560285568237,
          "286": 0.020879942923784256,
          "287": -1.8451032638549805,
          "288": -0.8031429052352905,
          "289": -0.32713156938552856,
          "290": 1.8715896606445312,
          "291": -0.032382532954216,
          "292": -0.15044884383678436,
          "293": -0.2860930860042572,
          "294": -0.04083231836557388,
          "295": 0.29275885224342346,
          "296": -0.13950540125370026,
          "297": 0.5304891467094421,
          "298": -0.6065053343772888,
          "299": 0.3465152382850647,
          "300": -1.0212293863296509,
          "301": 1.4707746505737305,
          "302": 0.006476507056504488,
          "303": -1.27219557762146,
          "304": -0.013535789214074612,
          "305": 0.4591027796268463,
          "306": -0.02925792708992958,
          "307": 0.04911608621478081,
          "308": -0.9182766675949097,
          "309": -1.1353700160980225,
          "310": 0.36532148718833923,
          "311": 0.18206188082695007,
          "312": -0.03987183794379234,
          "313": -0.7000676393508911,
          "314": -0.15294712781906128,
          "315": 1.330734133720398,
          "316": 1.463086485862732,
          "317": 0.5050555467605591,
          "318": 0.43818214535713196,
          "319": 2.0110738277435303,
          "320": 0.15833114087581635,
          "321": -0.7132757306098938,
          "322": -0.5263713598251343,
          "323": 1.7013336420059204,
          "324": 1.930357813835144,
          "325": -0.6690188646316528,
          "326": -1.4107205867767334,
          "327": 0.5971599817276001,
          "328": -0.15157990157604218,
          "329": 0.680486261844635,
          "330": 0.4291382133960724,
          "331": 0.13481390476226807,
          "332": -0.8960734605789185,
          "333": -0.03160394728183746,
          "334": 0.8888375759124756,
          "335": -0.08060913532972336,
          "336": -0.6938300728797913,
          "337": -0.8663510680198669,
          "338": 2.257107734680176,
          "339": 1.3535844087600708,
          "340": -0.3034150302410126,
          "341": -0.30100613832473755,
          "342": 0.22233791649341583,
          "343": -0.1171068623661995,
          "344": -0.617170512676239,
          "345": 0.0430762954056263,
          "346": -0.17176344990730286,
          "347": 0.4842332899570465,
          "348": 0.17441897094249725,
          "349": 0.1397402286529541,
          "350": 0.08763433992862701,
          "351": -0.9456480741500854,
          "352": -0.5634923577308655,
          "353": 0.19215631484985352,
          "354": 0.9930264949798584,
          "355": -1.3814030885696411,
          "356": -1.134840726852417,
          "357": -1.4899888038635254,
          "358": 0.1940355747938156,
          "359": -1.021866798400879,
          "360": -0.15621055662631989,
          "361": -0.5201017260551453,
          "362": 0.47462302446365356,
          "363": 0.5754920840263367,
          "364": 0.6260913610458374,
          "365": 0.8378568887710571,
          "366": 0.19245697557926178,
          "367": -0.41281047463417053,
          "368": 0.8915689587593079,
          "369": -1.870970606803894,
          "370": -1.783958077430725,
          "371": -0.6047080159187317,
          "372": 1.6517434120178223,
          "373": -0.4464499354362488,
          "374": 0.17634516954421997,
          "375": -0.10407406836748123,
          "376": 0.6470739841461182,
          "377": 0.1096445694565773,
          "378": -0.009157875552773476,
          "379": 0.25215834379196167,
          "380": -1.4071658849716187,
          "381": -0.7769186496734619,
          "382": -0.22837196290493011,
          "383": 1.2122539281845093,
          "384": -0.9559010863304138,
          "385": 0.06875205785036087,
          "386": -0.33458083868026733,
          "387": 0.5635758638381958,
          "388": -0.015107246115803719,
          "389": -0.10661201179027557,
          "390": 0.21952185034751892,
          "391": -0.6557191610336304,
          "392": -0.012767214328050613,
          "393": 0.4942946434020996,
          "394": -1.4165366888046265,
          "395": -0.11967277526855469,
          "396": 0.02473253570497036,
          "397": 1.4932090044021606,
          "398": 1.2008187770843506,
          "399": -0.0017194602405652404,
          "400": -1.3687664270401,
          "401": 0.3154006004333496,
          "402": -0.349321573972702,
          "403": 1.4969687461853027,
          "404": -0.8950033783912659,
          "405": -1.507495403289795,
          "406": 0.7185410857200623,
          "407": -0.2694118916988373,
          "408": -0.4892672598361969,
          "409": 0.020542236045002937,
          "410": 0.3026123642921448,
          "411": 1.5424813032150269,
          "412": -0.9762349724769592,
          "413": -0.03057355433702469,
          "414": -0.8941736221313477,
          "415": 1.5271542072296143,
          "416": 1.2403923273086548,
          "417": -0.9372801780700684,
          "418": -0.8509568572044373,
          "419": 1.2369225025177002,
          "420": -0.47638195753097534,
          "421": 1.210309386253357,
          "422": -0.403730183839798,
          "423": -0.7867510318756104,
          "424": 0.45415690541267395,
          "425": -0.46965375542640686,
          "426": -0.10764667391777039,
          "427": -0.4981473684310913,
          "428": 0.26573991775512695,
          "429": -1.630388617515564,
          "430": 1.7547779083251953,
          "431": -0.415535032749176,
          "432": -0.6125065088272095,
          "433": 0.7160012125968933,
          "434": 0.7222124338150024,
          "435": -0.6711863279342651,
          "436": 0.1403229832649231,
          "437": -1.217705488204956,
          "438": -0.3635827302932739,
          "439": 0.3858340084552765,
          "440": 1.1982516050338745,
          "441": -0.5019829273223877,
          "442": -0.8476503491401672,
          "443": -1.5074000358581543,
          "444": -1.0332170724868774,
          "445": 0.6322513222694397,
          "446": 0.3821215331554413,
          "447": -0.4283622205257416,
          "448": 0.9008854031562805,
          "449": -1.327738642692566,
          "450": -0.6863154172897339,
          "451": 0.3522629141807556,
          "452": 0.6087816953659058,
          "453": 0.36108338832855225,
          "454": 0.8387125134468079,
          "455": -0.6919857859611511,
          "456": 0.5691420435905457,
          "457": -0.5048478841781616,
          "458": 0.5078746676445007,
          "459": -0.6733232140541077,
          "460": 0.5821607708930969,
          "461": -0.9529977440834045,
          "462": -0.8201025128364563,
          "463": -1.7400456666946411,
          "464": 0.7914963364601135,
          "465": -0.7920441031455994,
          "466": -0.03261903300881386,
          "467": -0.2095564752817154,
          "468": 0.37151017785072327,
          "469": 0.08754243701696396,
          "470": -0.7390010952949524,
          "471": 0.7094735503196716,
          "472": -0.57154381275177,
          "473": 0.15416084229946136,
          "474": -0.1778227537870407,
          "475": 0.600814163684845,
          "476": -1.2283563613891602,
          "477": 0.18863965570926666,
          "478": 0.19636870920658112,
          "479": -0.6726845502853394,
          "480": -1.171677589416504,
          "481": 1.3250099420547485,
          "482": -0.2774604558944702,
          "483": 0.7899289727210999,
          "484": 0.1281580924987793,
          "485": -0.5378536581993103,
          "486": -0.08291258662939072,
          "487": 0.9822701215744019,
          "488": 0.7764688730239868,
          "489": 0.5321630835533142,
          "490": 0.3988651633262634,
          "491": -0.49293941259384155,
          "492": -1.2558696269989014,
          "493": 0.3895524740219116,
          "494": -0.3113493323326111,
          "495": 1.3457305431365967,
          "496": 0.04711573198437691,
          "497": 0.5606001019477844,
          "498": 0.241515651345253,
          "499": 0.221570685505867,
          "500": -0.201578751206398,
          "501": 0.03860289603471756,
          "502": -1.6621545553207397,
          "503": 0.8491888642311096,
          "504": -0.8605244755744934,
          "505": 1.1192116737365723,
          "506": -0.6695996522903442,
          "507": 2.369812250137329,
          "508": 1.4955658912658691,
          "509": -2.042065143585205,
          "510": -0.9286690354347229,
          "511": 0.5963726043701172,
          "512": -0.019972778856754303,
          "513": 0.6586570143699646,
          "514": 1.1129130125045776,
          "515": 0.03799593076109886,
          "516": -0.4208203852176666,
          "517": 0.24809321761131287,
          "518": 0.8100186586380005,
          "519": -0.041052233427762985,
          "520": -0.8620606660842896,
          "521": 0.9071188569068909,
          "522": 1.2042491436004639,
          "523": 0.864845871925354,
          "524": 0.43995022773742676,
          "525": 0.1366635262966156,
          "526": -0.3231683075428009,
          "527": 0.18396569788455963,
          "528": -0.25316229462623596,
          "529": 0.37643373012542725,
          "530": -0.13668859004974365,
          "531": -0.3937624394893646,
          "532": 0.536612868309021,
          "533": 0.6777259111404419,
          "534": 0.20179274678230286,
          "535": -0.6802336573600769,
          "536": -0.7560276389122009,
          "537": -0.07064445316791534,
          "538": 1.388515591621399,
          "539": -0.661953866481781,
          "540": -1.938696265220642,
          "541": -0.9589619040489197,
          "542": 0.11341496556997299,
          "543": -1.304105520248413,
          "544": -0.11379556357860565,
          "545": -0.25218889117240906,
          "546": 0.32007578015327454,
          "547": 0.11012443155050278,
          "548": -0.05337333679199219,
          "549": -2.087902069091797,
          "550": 0.21872542798519135,
          "551": -0.09658876061439514,
          "552": -0.8541796803474426,
          "553": 1.7769004106521606,
          "554": 1.608620285987854,
          "555": -1.1943137645721436,
          "556": -1.606089472770691,
          "557": 1.1369032859802246,
          "558": -0.7422897815704346,
          "559": 1.0458874702453613,
          "560": -0.24388541281223297,
          "561": -0.11590844392776489,
          "562": -0.42753440141677856,
          "563": 0.07437693327665329,
          "564": 0.5264555215835571,
          "565": -0.1219731941819191,
          "566": 0.1794111579656601,
          "567": -0.5639733672142029,
          "568": 1.5481715202331543,
          "569": 0.05608443170785904,
          "570": -0.30290138721466064,
          "571": -0.09145940095186234,
          "572": -0.20417346060276031,
          "573": -0.8056685328483582,
          "574": 0.23956285417079926,
          "575": -0.12987905740737915,
          "576": -0.29122477769851685,
          "577": 0.7773358821868896,
          "578": 0.7874478697776794,
          "579": 0.40937212109565735,
          "580": 0.10437064617872238,
          "581": -1.470166563987732,
          "582": -0.30281978845596313,
          "583": 0.26141396164894104,
          "584": 0.7829229831695557,
          "585": -0.5788346529006958,
          "586": 0.6809405088424683,
          "587": -0.3368454575538635,
          "588": 0.29529494047164917,
          "589": 0.5685546398162842,
          "590": 1.1522369384765625,
          "591": -0.12608644366264343,
          "592": 1.422165036201477,
          "593": -0.08643119782209396,
          "594": -0.0469854511320591,
          "595": -0.37502312660217285,
          "596": -0.19049523770809174,
          "597": 0.20721466839313507,
          "598": -1.3964024782180786,
          "599": 1.6526952981948853,
          "600": 1.2871013879776,
          "601": -0.42341795563697815,
          "602": -1.2058837413787842,
          "603": 0.9081639051437378,
          "604": -0.27753081917762756,
          "605": 0.8874505758285522,
          "606": -0.5878876447677612,
          "607": -0.0600232370197773,
          "608": -0.3848232626914978,
          "609": 0.07658115774393082,
          "610": 0.9396324157714844,
