{
  "type": "LSTM",
  "options": {
    "inputSize": 46,
    "inputRange": 46,
    "hiddenLayers": [
      20,
      20
    ],
    "outputSize": 46,
    "decayRate": 0.999,
    "smoothEps": 1e-8,
    "regc": 0.000001,
    "clipval": 5,
    "maxPredictionLength": 100,
    "dataFormatter": {
      "values": [
        "Appreciate every day",
        "What is the meaning of life?",
        "copy file into docker container",
        "docker cp ./some_file CONTAINER:/work",
        "git pull origin --rebase ",
        "how to clean node cache",
        "how to rebase in git",
        "how to run nodejs file on command line",
        "how to view all ports being used on mac",
        "node --experimental-modules src/file.js",
        "npm cache clean --force",
        "sudo lsof -iTCP -sTCP:LISTEN -n -P"
      ],
      "indexTable": {
        "A": 0,
        "p": 1,
        "r": 2,
        "e": 3,
        "c": 4,
        "i": 5,
        "a": 6,
        "t": 7,
        " ": 8,
        "v": 9,
        "y": 10,
        "d": 11,
        "W": 12,
        "h": 13,
        "s": 14,
        "m": 15,
        "n": 16,
        "g": 17,
        "o": 18,
        "f": 19,
        "l": 20,
        "?": 21,
        "k": 22,
        ".": 23,
        "/": 24,
        "_": 25,
        "C": 26,
        "O": 27,
        "N": 28,
        "T": 29,
        "I": 30,
        "E": 31,
        "R": 32,
        ":": 33,
        "w": 34,
        "u": 35,
        "-": 36,
        "b": 37,
        "j": 38,
        "x": 39,
        "P": 40,
        "L": 41,
        "S": 42,
        "stop-input": 43,
        "start-output": 44,
        "unrecognized": 45
      },
      "characterTable": {
        "0": "A",
        "1": "p",
        "2": "r",
        "3": "e",
        "4": "c",
        "5": "i",
        "6": "a",
        "7": "t",
        "8": " ",
        "9": "v",
        "10": "y",
        "11": "d",
        "12": "W",
        "13": "h",
        "14": "s",
        "15": "m",
        "16": "n",
        "17": "g",
        "18": "o",
        "19": "f",
        "20": "l",
        "21": "?",
        "22": "k",
        "23": ".",
        "24": "/",
        "25": "_",
        "26": "C",
        "27": "O",
        "28": "N",
        "29": "T",
        "30": "I",
        "31": "E",
        "32": "R",
        "33": ":",
        "34": "w",
        "35": "u",
        "36": "-",
        "37": "b",
        "38": "j",
        "39": "x",
        "40": "P",
        "41": "L",
        "42": "S",
        "43": null,
        "44": null,
        "45": null
      },
      "characters": [
        "A",
        "p",
        "r",
        "e",
        "c",
        "i",
        "a",
        "t",
        " ",
        "v",
        "y",
        "d",
        "W",
        "h",
        "s",
        "m",
        "n",
        "g",
        "o",
        "f",
        "l",
        "?",
        "k",
        ".",
        "/",
        "_",
        "C",
        "O",
        "N",
        "T",
        "I",
        "E",
        "R",
        ":",
        "w",
        "u",
        "-",
        "b",
        "j",
        "x",
        "P",
        "L",
        "S",
        "stop-input",
        "start-output",
        "unrecognized"
      ],
      "specialIndexes": [
        43,
        44,
        45
      ]
    }
  },
  "input": {
    "rows": 47,
    "columns": 46,
    "weights": {
      "0": -0.356099396944046,
      "1": 0.4792692959308624,
      "2": 0.42393192648887634,
      "3": -0.81291663646698,
      "4": 0.004730269778519869,
      "5": -0.6585109233856201,
      "6": 3.138540029525757,
      "7": 1.4345686435699463,
      "8": 2.2099578380584717,
      "9": -0.49102646112442017,
      "10": 0.6124024391174316,
      "11": -0.869846522808075,
      "12": -0.5857391357421875,
      "13": 3.3859214782714844,
      "14": -2.234544515609741,
      "15": 1.5955870151519775,
      "16": -0.5718896985054016,
      "17": -3.5290260314941406,
      "18": 0.23906837403774261,
      "19": 1.4512020349502563,
      "20": -0.9780880808830261,
      "21": 0.8576525449752808,
      "22": 1.7046723365783691,
      "23": 0.30905646085739136,
      "24": 0.8599390387535095,
      "25": 0.806239128112793,
      "26": 0.6702068448066711,
      "27": -2.944140672683716,
      "28": -0.6076862215995789,
      "29": -1.5539250373840332,
      "30": 0.7571841478347778,
      "31": -0.09432531893253326,
      "32": -1.3724277019500732,
      "33": -0.18664510548114777,
      "34": 1.4414315223693848,
      "35": -0.4715803563594818,
      "36": -0.5251670479774475,
      "37": -1.4187202453613281,
      "38": 3.8319809436798096,
      "39": -0.6975637674331665,
      "40": -0.4838532507419586,
      "41": 1.2302500009536743,
      "42": -2.183344841003418,
      "43": -1.0916712284088135,
      "44": -0.9425233602523804,
      "45": -0.47260066866874695,
      "46": -0.4993460476398468,
      "47": 8.811641693115234,
      "48": -1.3708677291870117,
      "49": -1.8618954420089722,
      "50": -3.6612846851348877,
      "51": -1.0704330205917358,
      "52": 3.883227825164795,
      "53": 2.961911201477051,
      "54": -2.1697707176208496,
      "55": -1.6451091766357422,
      "56": 0.38725581765174866,
      "57": 1.3573029041290283,
      "58": 6.037081718444824,
      "59": -2.8423938751220703,
      "60": 7.307321548461914,
      "61": -3.4381675720214844,
      "62": 3.359647750854492,
      "63": -1.7820520401000977,
      "64": 3.4440624713897705,
      "65": -1.1655164957046509,
      "66": 2.050663709640503,
      "67": -3.491575241088867,
      "68": 0.4931146502494812,
      "69": -0.47995391488075256,
      "70": -5.081661224365234,
      "71": 1.4536699056625366,
      "72": -3.895421266555786,
      "73": -5.609282493591309,
      "74": 4.341377258300781,
      "75": 2.1914944648742676,
      "76": -5.681020736694336,
      "77": 4.4739274978637695,
      "78": 2.5219173431396484,
      "79": -5.8614420890808105,
      "80": 1.3161547183990479,
      "81": -0.3446904718875885,
      "82": 1.4149693250656128,
      "83": 0.8186225295066833,
      "84": 4.707703590393066,
      "85": -1.7684757709503174,
      "86": 4.578442096710205,
      "87": 1.0024782419204712,
      "88": 3.8239848613739014,
      "89": 0.3016342222690582,
      "90": -1.8086583614349365,
      "91": -0.4855930209159851,
      "92": 0.5222758650779724,
      "93": 1.8606903553009033,
      "94": 1.5421391725540161,
      "95": -1.440422773361206,
      "96": 0.07106492668390274,
      "97": -1.8177478313446045,
      "98": 1.8752658367156982,
      "99": -1.5206398963928223,
      "100": -2.042534351348877,
      "101": -0.10469021648168564,
      "102": -0.41499096155166626,
      "103": -1.104048728942871,
      "104": 2.6921498775482178,
      "105": 0.06173492968082428,
      "106": -0.9095690846443176,
      "107": 0.021320559084415436,
      "108": 0.25712850689888,
      "109": -1.0001167058944702,
      "110": 1.2166333198547363,
      "111": -0.5906282663345337,
      "112": 2.741441249847412,
      "113": -1.0297105312347412,
      "114": 0.17209157347679138,
      "115": 1.485642433166504,
      "116": -2.0247864723205566,
      "117": 1.2312586307525635,
      "118": 0.4309355318546295,
      "119": 0.3661220669746399,
      "120": 3.292381525039673,
      "121": 0.5130045413970947,
      "122": -1.7026841640472412,
      "123": 3.1212987899780273,
      "124": 1.10451340675354,
      "125": 1.8340442180633545,
      "126": -0.2918393313884735,
      "127": 0.8448578119277954,
      "128": -0.06067025288939476,
      "129": -0.3175172507762909,
      "130": 0.5045718550682068,
      "131": -1.4618452787399292,
      "132": 1.4227056503295898,
      "133": -0.7124366760253906,
      "134": 0.9541776180267334,
      "135": 0.6209656596183777,
      "136": 1.5003153085708618,
      "137": -0.958506166934967,
      "138": 0.8033487200737,
      "139": -2.8679282665252686,
      "140": 1.191423773765564,
      "141": 1.260085105895996,
      "142": -1.256179928779602,
      "143": 0.39686259627342224,
      "144": -0.1690385639667511,
      "145": -3.1040570735931396,
      "146": 1.210516333580017,
      "147": -1.2846890687942505,
      "148": 0.21580317616462708,
      "149": -0.6831828951835632,
      "150": 0.11029739677906036,
      "151": 1.2431669235229492,
      "152": -0.5762201547622681,
      "153": 0.3282815217971802,
      "154": 0.025850815698504448,
      "155": -1.2208043336868286,
      "156": -0.1338404268026352,
      "157": 1.7964555025100708,
      "158": -0.6710159182548523,
      "159": 1.0240291357040405,
      "160": -0.6830395460128784,
      "161": -1.603547215461731,
      "162": 0.21205401420593262,
      "163": 0.95450359582901,
      "164": 1.5518771409988403,
      "165": 1.446266531944275,
      "166": -0.3890027105808258,
      "167": 0.7818611264228821,
      "168": 3.302004098892212,
      "169": -1.3681138753890991,
      "170": 0.4708927869796753,
      "171": 2.4566116333007812,
      "172": 1.369305968284607,
      "173": -1.2751915454864502,
      "174": 0.7599634528160095,
      "175": -1.968281865119934,
      "176": 0.5273497104644775,
      "177": -0.3542672395706177,
      "178": 0.7557674646377563,
      "179": 1.4692047834396362,
      "180": 0.3298584222793579,
      "181": 0.7115170359611511,
      "182": -0.023193517699837685,
      "183": -0.38065680861473083,
      "184": -0.8638315200805664,
      "185": 2.081716775894165,
      "186": -0.39567840099334717,
      "187": -0.8259031772613525,
      "188": 0.543599545955658,
      "189": -0.49080362915992737,
      "190": -0.0054891337640583515,
      "191": 0.34227922558784485,
      "192": -1.5111956596374512,
      "193": 0.06549286097288132,
      "194": -1.5796587467193604,
      "195": -0.19705846905708313,
      "196": -0.9198637008666992,
      "197": -1.5489660501480103,
      "198": 0.7843757271766663,
      "199": 0.8508365750312805,
      "200": -0.17958864569664001,
      "201": 0.6129418611526489,
      "202": 0.10790303349494934,
      "203": 0.5686233639717102,
      "204": 1.3650728464126587,
      "205": -0.008243043906986713,
      "206": -0.12520213425159454,
      "207": -0.1502319723367691,
      "208": 0.07965505123138428,
      "209": -0.6833233833312988,
      "210": 0.11690300703048706,
      "211": 1.0415306091308594,
      "212": 1.1246304512023926,
      "213": 0.49652910232543945,
      "214": -1.7598673105239868,
      "215": 1.3841478824615479,
      "216": -1.7110350131988525,
      "217": -0.884522020816803,
      "218": 0.43443936109542847,
      "219": 0.8945544362068176,
      "220": -1.249791145324707,
      "221": -0.19664537906646729,
      "222": -0.7853233218193054,
      "223": 1.0551278591156006,
      "224": -1.4348846673965454,
      "225": 0.44535157084465027,
      "226": -0.5770087838172913,
      "227": -0.6359661221504211,
      "228": -0.2600919306278229,
      "229": -0.1650194674730301,
      "230": -1.5016648769378662,
      "231": -1.2778164148330688,
      "232": 2.2879631519317627,
      "233": -0.007417076267302036,
      "234": -1.9132740497589111,
      "235": -3.2589833736419678,
      "236": 0.49271202087402344,
      "237": -3.095597267150879,
      "238": -0.4078381359577179,
      "239": 0.8266803026199341,
      "240": -0.03831333667039871,
      "241": 1.1405587196350098,
      "242": 1.552138328552246,
      "243": -1.6894863843917847,
      "244": 0.8775078058242798,
      "245": -2.033414602279663,
      "246": -0.8200980424880981,
      "247": 1.295166015625,
      "248": -0.11740387231111526,
      "249": 2.787008047103882,
      "250": 0.9300987124443054,
      "251": -1.0784457921981812,
      "252": -1.402239441871643,
      "253": -2.1977579593658447,
      "254": 1.0163897275924683,
      "255": -0.28802621364593506,
      "256": 0.5502761602401733,
      "257": 2.9962663650512695,
      "258": 1.0477427244186401,
      "259": -0.178854838013649,
      "260": 1.4416424036026,
      "261": 1.9779658317565918,
      "262": 2.4032645225524902,
      "263": -0.6590999364852905,
      "264": 2.4254581928253174,
      "265": -1.987299919128418,
      "266": 2.2480547428131104,
      "267": -0.9720116853713989,
      "268": -0.18219681084156036,
      "269": -0.0002668257802724838,
      "270": 2.3117263317108154,
      "271": 2.3249850273132324,
      "272": 0.5074597597122192,
      "273": 1.0725910663604736,
      "274": 3.5888891220092773,
      "275": -3.3085601329803467,
      "276": 0.9756338596343994,
      "277": 0.9739738702774048,
      "278": -1.693482756614685,
      "279": 0.5220624804496765,
      "280": 0.05016513168811798,
      "281": -0.35898932814598083,
      "282": 0.16257686913013458,
      "283": -0.310916543006897,
      "284": -0.36179569363594055,
      "285": 1.0512245893478394,
      "286": -0.19990034401416779,
      "287": -0.9004942774772644,
      "288": -3.358757972717285,
      "289": -0.07100727409124374,
      "290": -0.8128870129585266,
      "291": -3.8436903953552246,
      "292": 0.3476490080356598,
      "293": 1.6501883268356323,
      "294": 0.39089617133140564,
      "295": -2.0377635955810547,
      "296": -0.025158459320664406,
      "297": -2.812089204788208,
      "298": -0.8305575847625732,
      "299": -1.806931495666504,
      "300": -2.344348669052124,
      "301": -0.25518161058425903,
      "302": 0.6499024629592896,
      "303": 1.3381693363189697,
      "304": 1.3200740814208984,
      "305": -3.055208206176758,
      "306": 0.8758779764175415,
      "307": 3.33453106880188,
      "308": -1.1371737718582153,
      "309": 1.1681753396987915,
      "310": -0.03681493178009987,
      "311": 0.5190765261650085,
      "312": 0.8118058443069458,
      "313": 0.4003278613090515,
      "314": 0.04831434041261673,
      "315": -1.5375643968582153,
      "316": 0.9848722815513611,
      "317": -4.244149684906006,
      "318": 5.535259246826172,
      "319": 0.35591453313827515,
      "320": 2.687511920928955,
      "321": -3.4140303134918213,
      "322": -0.12015274167060852,
      "323": -0.6963488459587097,
      "324": -1.5108575820922852,
      "325": -3.7517380714416504,
      "326": 0.41017404198646545,
      "327": -0.6744541525840759,
      "328": -2.3038201332092285,
      "329": 1.0653142929077148,
      "330": -0.3691987991333008,
      "331": 0.23474058508872986,
      "332": -0.5840610265731812,
      "333": -1.5668871402740479,
      "334": -0.932020366191864,
      "335": 0.7289250493049622,
      "336": -1.6841466426849365,
      "337": -0.9162189960479736,
      "338": -1.6083284616470337,
      "339": 0.20754781365394592,
      "340": 1.1108475923538208,
      "341": 0.298141211271286,
      "342": -1.997542381286621,
      "343": 0.37191078066825867,
      "344": 4.892159461975098,
      "345": 0.8086979389190674,
      "346": 0.44951704144477844,
      "347": -0.6447265148162842,
      "348": 0.25700631737709045,
      "349": -0.7677199840545654,
      "350": -0.3553062975406647,
      "351": -0.7242110967636108,
      "352": 0.4623326063156128,
      "353": 1.4618316888809204,
      "354": 0.7306135892868042,
      "355": -0.8083257079124451,
      "356": 2.3022308349609375,
      "357": -1.3520054817199707,
      "358": -0.40437546372413635,
      "359": -0.77582186460495,
      "360": -0.6471141576766968,
      "361": 0.28128600120544434,
      "362": 0.4216115474700928,
      "363": -1.0602225065231323,
      "364": 0.31441637873649597,
      "365": 0.07938031852245331,
      "366": -0.4762455224990845,
      "367": -0.5949743986129761,
      "368": 0.5570864081382751,
      "369": 1.1386808156967163,
      "370": -0.7419207096099854,
      "371": 0.34578609466552734,
      "372": 0.5623131394386292,
      "373": 0.09468863159418106,
      "374": -2.0093419551849365,
      "375": 1.571987271308899,
      "376": -2.5486643314361572,
      "377": -2.5695080757141113,
      "378": 2.4245059490203857,
      "379": 0.25414106249809265,
      "380": -2.633970260620117,
      "381": -0.44915908575057983,
      "382": -0.6645873188972473,
      "383": 0.517796516418457,
      "384": 1.8144994974136353,
      "385": 0.12036894261837006,
      "386": -2.200237274169922,
      "387": -0.6918058395385742,
      "388": 2.2104146480560303,
      "389": 0.27260422706604004,
      "390": 0.7227087616920471,
      "391": -0.5966313481330872,
      "392": 0.019095273688435555,
      "393": -0.4269619584083557,
      "394": 0.17112420499324799,
      "395": -0.7751901745796204,
      "396": 0.6072226166725159,
      "397": 2.1185548305511475,
      "398": 1.0887881517410278,
      "399": 0.8829155564308167,
      "400": -1.0707347393035889,
      "401": 0.9224392175674438,
      "402": 0.7479621767997742,
      "403": 1.6596825122833252,
      "404": 1.4288709163665771,
      "405": -2.061408042907715,
      "406": -1.6200937032699585,
      "407": 3.028312921524048,
      "408": 0.7105478644371033,
      "409": 0.007686033379286528,
      "410": 0.19288069009780884,
      "411": -4.16226053237915,
      "412": 1.0603787899017334,
      "413": 1.1937260627746582,
      "414": 0.7489213943481445,
      "415": 0.27895063161849976,
      "416": -2.83961820602417,
      "417": -0.09383700042963028,
      "418": -0.3449620306491852,
      "419": -0.024230489507317543,
      "420": 1.1765334606170654,
      "421": 2.780543565750122,
      "422": 0.09427434206008911,
      "423": -1.432788372039795,
      "424": 5.0160088539123535,
      "425": 0.9826290011405945,
      "426": 2.1793227195739746,
      "427": -1.3708029985427856,
      "428": -1.6263612508773804,
      "429": 2.376023769378662,
      "430": 0.19302323460578918,
      "431": 2.949416399002075,
      "432": -0.18101507425308228,
      "433": 0.2433628886938095,
      "434": 1.8758583068847656,
      "435": -0.5925126671791077,
      "436": 2.696751594543457,
      "437": -3.586512565612793,
      "438": -0.025904063135385513,
      "439": -3.1783854961395264,
      "440": 0.01792832836508751,
      "441": -1.3510960340499878,
      "442": 3.8100926876068115,
      "443": -0.20353621244430542,
      "444": -0.7385733127593994,
      "445": -1.7002612352371216,
      "446": -3.101130485534668,
      "447": -1.683387279510498,
      "448": 2.558521270751953,
      "449": 1.0146960020065308,
      "450": 3.14314603805542,
      "451": -1.2340548038482666,
      "452": -0.6542791128158569,
      "453": 1.1486799716949463,
      "454": 0.3035694658756256,
      "455": 3.143188238143921,
      "456": -2.5575344562530518,
      "457": -2.356731653213501,
      "458": 0.6366069316864014,
      "459": -0.9255878329277039,
      "460": 1.1863162517547607,
      "461": 2.154491901397705,
      "462": -1.4744311571121216,
      "463": -2.2824289798736572,
      "464": -1.4939501285552979,
      "465": -1.037158489227295,
      "466": -1.8105781078338623,
      "467": 3.1286933422088623,
      "468": 2.8214643001556396,
      "469": -0.0529043972492218,
      "470": -0.357352077960968,
      "471": -1.8306654691696167,
      "472": 4.90460729598999,
      "473": 0.34803086519241333,
      "474": -1.2252330780029297,
      "475": 2.8560826778411865,
      "476": 3.268810987472534,
      "477": 0.4594695270061493,
      "478": 1.9554153680801392,
      "479": -0.2204338014125824,
      "480": -5.298250675201416,
      "481": 1.3174339532852173,
      "482": 2.273540496826172,
      "483": -1.2581491470336914,
      "484": -2.4688196182250977,
      "485": 1.356662631034851,
      "486": 0.3036089539527893,
      "487": -2.7437050342559814,
      "488": -1.1666468381881714,
      "489": -1.443534255027771,
      "490": -1.6409944295883179,
      "491": 0.7207021713256836,
      "492": -3.4764416217803955,
      "493": -2.436349391937256,
      "494": 1.2318918704986572,
      "495": 0.24956801533699036,
      "496": 4.4885430335998535,
      "497": 2.1217901706695557,
      "498": 8.464614868164062,
      "499": 1.91028892993927,
      "500": -2.590179204940796,
      "501": 4.10874080657959,
      "502": -4.1435866355896,
      "503": -1.6707061529159546,
      "504": 1.414564609527588,
      "505": 1.521187424659729,
      "506": -0.48390132188796997,
      "507": 0.5724579691886902,
      "508": -2.4584054946899414,
      "509": -0.863362729549408,
      "510": -1.6012955904006958,
      "511": 0.7351473569869995,
      "512": -1.5882208347320557,
      "513": 3.693495988845825,
      "514": -8.531798362731934,
      "515": -2.0680830478668213,
      "516": 1.5161871910095215,
      "517": -5.94959831237793,
      "518": 1.9267762899398804,
      "519": 1.3152283430099487,
      "520": -0.8338971138000488,
      "521": -2.007000684738159,
      "522": 3.619204044342041,
      "523": -3.488013744354248,
      "524": -1.4365990161895752,
      "525": -3.742218255996704,
      "526": 1.8384202718734741,
      "527": -4.192648410797119,
      "528": 2.9915738105773926,
      "529": -1.3562917709350586,
      "530": 0.5392404794692993,
      "531": 2.164397954940796,
      "532": 0.72435063123703,
      "533": -1.3569855690002441,
      "534": 7.714144706726074,
      "535": 6.460356712341309,
      "536": 1.4287090301513672,
      "537": 3.114884614944458,
      "538": 2.8778557777404785,
      "539": 2.765723705291748,
      "540": 1.4875978231430054,
      "541": 1.3855879306793213,
      "542": 1.2948251962661743,
      "543": 1.4264863729476929,
      "544": -3.0740737915039062,
      "545": 5.446671009063721,
      "546": -1.967140555381775,
      "547": -1.9401464462280273,
      "548": -4.403270721435547,
      "549": -0.5551211833953857,
      "550": 3.582669973373413,
      "551": 1.4706124067306519,
      "552": -1.5776029825210571,
      "553": -0.8332511782646179,
      "554": 0.46686404943466187,
      "555": -1.2429059743881226,
      "556": 0.8488660454750061,
      "557": 2.331562042236328,
      "558": -1.4850045442581177,
      "559": 1.8626893758773804,
      "560": -2.7765488624572754,
      "561": -0.7432219386100769,
      "562": 3.2964611053466797,
      "563": 0.04037560150027275,
      "564": 0.7544308304786682,
      "565": -0.9111325144767761,
      "566": 0.3021168112754822,
      "567": -0.2273639291524887,
      "568": 0.8751386404037476,
      "569": -1.633460521697998,
      "570": 2.050088405609131,
      "571": 2.3015313148498535,
      "572": 2.1996543407440186,
      "573": 2.6190690994262695,
      "574": 2.027641773223877,
      "575": 1.910892367362976,
      "576": 1.2225908041000366,
      "577": 0.4368801712989807,
      "578": -1.02811861038208,
      "579": -1.880549669265747,
      "580": -1.9970954656600952,
      "581": 1.4675734043121338,
      "582": 1.282210111618042,
      "583": 0.27939778566360474,
      "584": 1.4906712770462036,
      "585": 3.844555377960205,
      "586": -1.5022320747375488,
      "587": -1.4009010791778564,
      "588": 0.9677124619483948,
      "589": -2.0291390419006348,
      "590": -1.9666470289230347,
      "591": 1.0519119501113892,
      "592": 2.219011068344116,
      "593": 0.5924426317214966,
      "594": 1.0693869590759277,
      "595": -2.7105491161346436,
      "596": -1.8101202249526978,
      "597": 1.2253696918487549,
      "598": 12.138190269470215,
      "599": 2.1238999366760254,
      "600": -1.8721942901611328,
      "601": 4.319431781768799,
      "602": -1.8501657247543335,
      "603": 1.7644882202148438,
      "604": -1.582810401916504,
      "605": -1.4047048091888428,
      "606": 13.644210815429688,
      "607": -3.950934886932373,
      "608": -0.14389678835868835,
      "609": -3.8527228832244873,
      "610": -0.8663657307624817,
      "611": 0.3196268379688263,
      "612": -2.7220749855041504,
      "613": -2.750060558319092,
      "614": 1.8394376039505005,
      "615": 2.402600049972534,
      "616": 4.078883647918701,
      "617": 10.817811012268066,
      "618": 4.82339334487915,
      "619": -7.818061351776123,
      "620": 4.0114665031433105,
      "621": -6.33639669418335,
      "622": -4.078047275543213,
      "623": -5.75639533996582,
      "624": 3.5321288108825684,
      "625": -3.4453744888305664,
      "626": -5.343098163604736,
      "627": -8.947139739990234,
      "628": 0.8891090154647827,
      "629": 2.5872104167938232,
      "630": -11.487305641174316,
      "631": -1.2455382347106934,
      "632": 3.1467888355255127,
      "633": 4.6982269287109375,
      "634": 4.790318489074707,
      "635": 2.284945011138916,
      "636": 5.851019382476807,
      "637": -1.4610252380371094,
      "638": -1.0294734239578247,
      "639": 0.9061797261238098,
      "640": 3.830698013305664,
      "641": 4.2997846603393555,
      "642": 4.287267684936523,
      "643": -0.9948803186416626,
      "644": -1.3068994283676147,
      "645": -0.6200670599937439,
      "646": -0.5502105951309204,
      "647": -2.8050341606140137,
      "648": 0.5045869946479797,
      "649": -2.254789352416992,
      "650": 0.5410329699516296,
      "651": -0.6337662935256958,
      "652": -1.625751256942749,
      "653": 0.017531881108880043,
      "654": 3.4489495754241943,
      "655": 0.338331013917923,
      "656": 0.7223119735717773,
      "657": 0.23122015595436096,
      "658": 2.7643394470214844,
      "659": 1.7548640966415405,
      "660": 2.360496997833252,
      "661": -0.6211696267127991,
      "662": -1.3309261798858643,
      "663": 2.516005516052246,
      "664": 0.4760008156299591,
      "665": -1.5640078783035278,
      "666": 0.572560727596283,
      "667": -1.929669737815857,
      "668": -0.48524540662765503,
      "669": 1.5008975267410278,
      "670": 2.256437301635742,
      "671": 0.11422997713088989,
      "672": 2.3706955909729004,
      "673": 1.237048864364624,
      "674": 0.9092814922332764,
      "675": 2.7197494506835938,
      "676": 1.5519304275512695,
      "677": 0.7936148047447205,
      "678": 3.111868143081665,
      "679": -1.0571305751800537,
      "680": -0.8507342338562012,
      "681": -1.8776885271072388,
      "682": 2.1974809169769287,
      "683": -0.2564447522163391,
      "684": 1.4742625951766968,
      "685": 1.0551698207855225,
      "686": -1.8274939060211182,
      "687": -1.195689082145691,
      "688": 2.6111786365509033,
      "689": -0.3017144203186035,
      "690": -0.3818207085132599,
      "691": 2.8551595211029053,
      "692": 0.6230310797691345,
      "693": -3.277287006378174,
      "694": -2.0648021697998047,
      "695": -3.1193370819091797,
      "696": 2.1486995220184326,
      "697": -0.5380772948265076,
      "698": 0.9521765112876892,
      "699": -2.924595594406128,
      "700": 2.745821475982666,
      "701": -0.6445674300193787,
      "702": 0.6295371651649475,
      "703": -1.191868543624878,
      "704": -2.8461785316467285,
      "705": -0.8176981210708618,
      "706": -4.479638576507568,
      "707": -0.013174036517739296,
      "708": 1.3201206922531128,
      "709": 0.42088794708251953,
      "710": 2.004835367202759,
      "711": -1.6463030576705933,
      "712": 0.18112650513648987,
      "713": 0.5866547226905823,
      "714": -1.059155821800232,
      "715": -2.5343286991119385,
      "716": 0.4864540100097656,
      "717": 0.5582174062728882,
      "718": 2.826127290725708,
      "719": -0.7708669304847717,
      "720": 1.0911699533462524,
      "721": 3.962590217590332,
      "722": -0.42445576190948486,
      "723": 0.5308334231376648,
      "724": 2.028428554534912,
      "725": 1.3981451988220215,
      "726": 1.1163865327835083,
      "727": -0.6045291423797607,
      "728": 0.9510537385940552,
      "729": -1.4947969913482666,
      "730": 0.8289969563484192,
      "731": -0.18183760344982147,
      "732": 1.4970825910568237,
      "733": 1.341686725616455,
      "734": -2.9945054054260254,
      "735": -1.8328101634979248,
      "736": 0.8598814010620117,
      "737": -0.943057656288147,
      "738": -1.8826292753219604,
      "739": -2.1799161434173584,
      "740": 0.6825780868530273,
      "741": 0.3134573698043823,
      "742": -0.22320862114429474,
      "743": 0.06501147150993347,
      "744": -1.8380287885665894,
      "745": 1.5169293880462646,
      "746": 2.1875252723693848,
      "747": 1.4023053646087646,
      "748": 2.8778746128082275,
      "749": 0.7244612574577332,
      "750": 1.4661026000976562,
      "751": 3.2927911281585693,
      "752": 2.513632297515869,
      "753": -1.335816740989685,
      "754": -2.363851547241211,
      "755": 1.5560201406478882,
      "756": 2.4912450313568115,
      "757": 1.1278023719787598,
      "758": 3.832421064376831,
      "759": -3.670830249786377,
      "760": 0.6352679133415222,
      "761": -0.41703420877456665,
      "762": 0.20383894443511963,
      "763": -1.8591598272323608,
      "764": 3.9494078159332275,
      "765": 1.1679718494415283,
      "766": -1.693587064743042,
      "767": 0.48737820982933044,
      "768": -0.3740164041519165,
      "769": 0.1108274981379509,
      "770": 3.5225446224212646,
      "771": -2.1789004802703857,
      "772": 2.18520188331604,
      "773": -0.5607321262359619,
      "774": 3.388479709625244,
      "775": -0.1371450424194336,
      "776": -0.5581159591674805,
      "777": 3.3410394191741943,
      "778": -0.4333450198173523,
      "779": -5.336489677429199,
      "780": 2.007939338684082,
      "781": 0.5563520193099976,
      "782": -0.04528716206550598,
      "783": 1.0430386066436768,
      "784": -0.40784764289855957,
      "785": 0.24841150641441345,
      "786": -0.3397320806980133,
      "787": 0.39351677894592285,
      "788": -0.500806450843811,
      "789": -0.03370450809597969,
      "790": -0.765350878238678,
      "791": 0.2518722116947174,
      "792": 0.24763399362564087,
      "793": -2.1659672260284424,
      "794": 1.405134677886963,
      "795": -0.9428786635398865,
      "796": -1.3741127252578735,
      "797": -0.9846615791320801,
      "798": 2.468905210494995,
      "799": -0.501553475856781,
      "800": 0.6522776484489441,
      "801": 0.4443681836128235,
      "802": -2.110905885696411,
      "803": 0.20444649457931519,
      "804": 0.05149971321225166,
      "805": -0.2324289083480835,
      "806": 0.5228157043457031,
      "807": 1.7832263708114624,
      "808": -0.010473397560417652,
      "809": -2.2717950344085693,
      "810": 1.8283252716064453,
      "811": 2.1151845455169678,
      "812": 0.8617550730705261,
      "813": -0.20933900773525238,
      "814": 0.7192416191101074,
      "815": 1.9736231565475464,
      "816": -1.320051908493042,
      "817": 0.9457416534423828,
      "818": -0.7210837602615356,
      "819": -0.21350033581256866,
      "820": -3.4887733459472656,
      "821": 1.3662822246551514,
      "822": 0.9942170977592468,
      "823": -0.13587245345115662,
      "824": -0.25178664922714233,
      "825": -2.118772268295288,
      "826": 1.8161171674728394,
      "827": -0.5962076783180237,
      "828": 4.446706295013428,
      "829": -0.6575216054916382,
      "830": -1.775665044784546,
      "831": 5.007059097290039,
      "832": 1.1885762214660645,
      "833": 2.660156488418579,
      "834": -1.9864997863769531,
      "835": -1.7043921947479248,
      "836": 2.895578384399414,
      "837": 0.1486336886882782,
      "838": 2.479832172393799,
      "839": -0.9496983289718628,
      "840": -0.598838210105896,
      "841": 0.797492265701294,
      "842": -1.3201045989990234,
      "843": 0.1134648472070694,
      "844": 3.9207727909088135,
      "845": -0.509735107421875,
      "846": -1.759533405303955,
      "847": -0.3627315163612366,
      "848": -4.56077241897583,
      "849": -0.10500334203243256,
      "850": 2.060589075088501,
      "851": -4.880758762359619,
      "852": -0.5142942070960999,
      "853": 2.3338472843170166,
      "854": -3.492985248565674,
      "855": -0.07228811085224152,
      "856": 0.3035939037799835,
      "857": 0.3602455258369446,
      "858": -0.29655271768569946,
      "859": -0.4706972539424896,
      "860": -2.94883131980896,
      "861": 1.5219532251358032,
      "862": -2.771374225616455,
      "863": -2.5976123809814453,
      "864": -0.018631532788276672,
      "865": -0.17275135219097137,
      "866": -0.16597357392311096,
      "867": 1.593113899230957,
      "868": -0.9038001298904419,
      "869": -0.8793186545372009,
      "870": -1.5572779178619385,
      "871": -2.3493294715881348,
      "872": 4.462387561798096,
      "873": 0.12034625560045242,
      "874": 1.3048512935638428,
      "875": -0.23041357100009918,
      "876": -2.1821558475494385,
      "877": -0.5204107761383057,
      "878": -0.6795883774757385,
      "879": -1.3063429594039917,
      "880": 2.7704200744628906,
      "881": -0.900541365146637,
      "882": 1.9401609897613525,
      "883": 1.2458126544952393,
      "884": 1.656274437904358,
      "885": -1.645337462425232,
      "886": -0.6177036762237549,
      "887": -0.9773287177085876,
      "888": -0.8297099471092224,
      "889": 2.072283983230591,
      "890": -2.5002293586730957,
      "891": 0.6515596508979797,
      "892": -0.3637031316757202,
      "893": 2.888484001159668,
      "894": 0.5255365371704102,
      "895": -0.7361098527908325,
      "896": -0.43494704365730286,
      "897": 0.0993480235338211,
      "898": 1.051998257637024,
      "899": -3.712754487991333,
      "900": -1.3046367168426514,
      "901": 0.6643490791320801,
      "902": 0.29671698808670044,
      "903": -0.5747570991516113,
      "904": 0.057092275470495224,
      "905": 0.12617750465869904,
      "906": -0.5857717394828796,
      "907": 0.36548757553100586,
      "908": 0.9305254220962524,
      "909": 0.5310015678405762,
      "910": 0.6709665060043335,
      "911": -0.5304231643676758,
      "912": 0.15396353602409363,
      "913": -2.48126482963562,
      "914": 1.5398672819137573,
      "915": 1.3037837743759155,
      "916": -0.16127637028694153,
      "917": 0.8453309535980225,
      "918": -0.2227453589439392,
      "919": -2.336268663406372,
      "920": -0.012479838915169239,
      "921": 3.0585427284240723,
      "922": 1.4933429956436157,
      "923": -0.3636895418167114,
      "924": -3.4178619384765625,
      "925": -0.15360574424266815,
      "926": 0.9770109057426453,
      "927": 1.9571870565414429,
      "928": -1.3852190971374512,
      "929": 0.269208699464798,
      "930": 1.8829774856567383,
      "931": -1.8547362089157104,
      "932": -2.1545350551605225,
      "933": -0.4636780023574829,
      "934": 1.957039475440979,
      "935": 0.33820176124572754,
      "936": -1.2078969478607178,
      "937": -1.1556257009506226,
      "938": 1.3621149063110352,
      "939": 1.5139232873916626,
      "940": 1.0916341543197632,
      "941": -1.0319876670837402,
      "942": -0.47957921028137207,
      "943": -6.287685871124268,
      "944": -0.6173863410949707,
      "945": 0.29314082860946655,
      "946": 2.521369218826294,
      "947": -1.5682088136672974,
      "948": 3.074841260910034,
      "949": 0.5594156980514526,
      "950": 0.7124305963516235,
      "951": 3.191920042037964,
      "952": 3.5826985836029053,
      "953": 0.4069913327693939,
      "954": 6.714364528656006,
      "955": -0.9105008840560913,
      "956": 3.9365155696868896,
      "957": -0.2049071341753006,
      "958": -0.9446184635162354,
      "959": -1.2737936973571777,
      "960": 4.146547794342041,
      "961": 0.4497990608215332,
      "962": -0.6502459645271301,
      "963": 1.5442160367965698,
      "964": 4.936344146728516,
      "965": -0.9976232051849365,
      "966": -0.599519670009613,
      "967": -0.2868601083755493,
      "968": 1.3868939876556396,
      "969": -1.5483956336975098,
      "970": -0.9138827919960022,
      "971": -0.17110033333301544,
      "972": -0.2818048596382141,
      "973": 2.59598970413208,
      "974": -1.0630773305892944,
      "975": -1.5477874279022217,
      "976": -0.669687032699585,
      "977": -0.7772976160049438,
      "978": -0.9297842979431152,
      "979": 2.700098991394043,
      "980": 1.3371198177337646,
      "981": 0.1714414656162262,
      "982": -1.709643006324768,
      "983": -0.7352269291877747,
      "984": 0.04892341047525406,
      "985": -1.6532255411148071,
      "986": -2.2161355018615723,
      "987": 0.34510156512260437,
      "988": 2.4182910919189453,
      "989": 1.4006590843200684,
      "990": 0.11469551920890808,
      "991": 0.546142578125,
      "992": -2.141754150390625,
      "993": -0.23317715525627136,
      "994": 1.0427125692367554,
      "995": 2.0664920806884766,
      "996": 0.03659471496939659,
      "997": 0.07912169396877289,
      "998": 1.722301959991455,
      "999": 0.7958388328552246,
      "1000": 1.2577584981918335,
      "1001": -0.5685712099075317,
      "1002": -2.639430522918701,
      "1003": -1.4614921808242798,
      "1004": -1.2218419313430786,
      "1005": -0.34474384784698486,
      "1006": -1.3225042819976807,
      "1007": -1.0475728511810303,
      "1008": -0.3323083519935608,
      "1009": -0.6245109438896179,
      "1010": -0.693084716796875,
      "1011": 0.7050361633300781,
      "1012": -1.705839991569519,
      "1013": 2.686194658279419,
      "1014": -7.514346122741699,
      "1015": -2.5940604209899902,
      "1016": 0.5465059280395508,
      "1017": 0.10338809341192245,
      "1018": 6.9049391746521,
      "1019": 3.364413022994995,
      "1020": -0.9732120633125305,
      "1021": 7.095127105712891,
      "1022": 2.0148932933807373,
      "1023": 1.2822035551071167,
      "1024": 2.263798952102661,
      "1025": -1.4524407386779785,
      "1026": -2.7985856533050537,
      "1027": 1.9290326833724976,
      "1028": -1.8088971376419067,
      "1029": 0.19143638014793396,
      "1030": 2.565382719039917,
      "1031": 4.838586807250977,
      "1032": -0.12943407893180847,
      "1033": -5.718954086303711,
      "1034": -1.3330888748168945,
      "1035": 1.5530216693878174,
      "1036": -4.292142391204834,
      "1037": -1.8599086999893188,
      "1038": -6.083288669586182,
      "1039": -5.93859338760376,
      "1040": -0.9008042216300964,
      "1041": -5.583836078643799,
      "1042": -4.704354763031006,
      "1043": 0.06984274834394455,
      "1044": 4.18955135345459,
      "1045": -4.135644435882568,
      "1046": -3.8508498668670654,
      "1047": 3.1793935298919678,
      "1048": 0.2654532492160797,
      "1049": 0.9053779244422913,
      "1050": 0.20463871955871582,
      "1051": -2.0485143661499023,
      "1052": 0.15882273018360138,
      "1053": 4.3269500732421875,
      "1054": 0.040493424981832504,
      "1055": 2.9138906002044678,
      "1056": 2.721797466278076,
      "1057": 1.4477012157440186,
      "1058": -8.65233039855957,
      "1059": -3.893709659576416,
      "1060": -1.4365923404693604,
      "1061": -5.872803211212158,
      "1062": 5.999663352966309,
      "1063": -4.008182048797607,
      "1064": -1.8381444215774536,
      "1065": -7.460594177246094,
      "1066": 2.392632484436035,
      "1067": 4.788153171539307,
      "1068": -7.501789093017578,
      "1069": 4.85767126083374,
      "1070": 4.009095668792725,
      "1071": 2.27258038520813,
      "1072": 6.704323768615723,
      "1073": 4.6576948165893555,
      "1074": -5.404819011688232,
      "1075": -4.136085510253906,
      "1076": 1.505083441734314,
      "1077": 2.2458765506744385,
      "1078": -3.716496706008911,
      "1079": -2.0655598640441895,
      "1080": 0.9247655272483826,
      "1081": 5.102625846862793,
      "1082": 1.080885410308838,
      "1083": -0.4165225625038147,
      "1084": 9.69790267944336,
      "1085": 3.3502492904663086,
      "1086": -3.5508780479431152,
      "1087": 0.18186412751674652,
      "1088": -6.605266571044922,
      "1089": -6.272667407989502,
      "1090": -2.0511159896850586,
      "1091": -4.568892955780029,
      "1092": -0.6295961737632751,
      "1093": -3.094489336013794,
      "1094": -5.225412845611572,
      "1095": 1.4530586004257202,
      "1096": 4.685120582580566,
      "1097": 1.2138723134994507,
      "1098": -4.6307878494262695,
      "1099": 8.14047908782959,
      "1100": -1.0071004629135132,
      "1101": -1.9271022081375122,
      "1102": -2.00695538520813,
      "1103": -1.2202850580215454,
      "1104": -3.0271008014678955,
      "1105": 1.4078295230865479,
      "1106": 2.9851536750793457,
      "1107": -0.3398684859275818,
      "1108": 1.3510174751281738,
      "1109": 0.09847470372915268,
      "1110": 0.058812305331230164,
      "1111": -3.1229283809661865,
      "1112": -0.29494979977607727,
      "1113": -3.8148419857025146,
      "1114": 1.4122991561889648,
      "1115": 1.2231194972991943,
      "1116": 4.35862398147583,
      "1117": 1.0746920108795166,
      "1118": 2.979978561401367,
      "1119": 3.2884624004364014,
      "1120": 0.14144504070281982,
      "1121": -4.1429314613342285,
      "1122": 0.253113329410553,
      "1123": 0.28004157543182373,
      "1124": -1.2696044445037842,
      "1125": 0.755946159362793,
      "1126": 0.15960203111171722,
      "1127": -1.6861354112625122,
      "1128": 2.355198383331299,
      "1129": 0.5717747807502747,
      "1130": 6.984137058258057,
      "1131": -1.7084258794784546,
      "1132": 1.2226215600967407,
      "1133": 0.8869625926017761,
      "1134": 1.8067595958709717,
      "1135": -0.6134310960769653,
      "1136": 3.1171069145202637,
      "1137": 1.253084659576416,
      "1138": 1.393110990524292,
      "1139": -4.995739936828613,
      "1140": 2.1722829341888428,
      "1141": -0.4372895359992981,
      "1142": 0.7654940485954285,
      "1143": -0.26083260774612427,
      "1144": -3.4537906646728516,
      "1145": 4.140872001647949,
      "1146": -1.916507363319397,
      "1147": -0.016783609986305237,
      "1148": 0.23732556402683258,
      "1149": 3.5864222049713135,
      "1150": -10.075860023498535,
      "1151": 2.5861451625823975,
      "1152": -0.5249494910240173,
      "1153": 1.6377960443496704,
      "1154": 3.804708480834961,
      "1155": -0.6493546366691589,
      "1156": -0.8172601461410522,
      "1157": -1.0475232601165771,
      "1158": -3.556049346923828,
      "1159": -6.50420618057251,
      "1160": 0.045357175171375275,
      "1161": 1.802438735961914,
      "1162": -1.5153530836105347,
      "1163": -3.0454518795013428,
      "1164": 3.533454179763794,
      "1165": -2.145495891571045,
      "1166": -2.4483823776245117,
      "1167": 2.552568197250366,
      "1168": 0.3152509331703186,
      "1169": 3.7476611137390137,
      "1170": 3.6941659450531006,
      "1171": 0.298976331949234,
      "1172": -1.0267131328582764,
      "1173": 2.8029747009277344,
      "1174": 0.572161853313446,
      "1175": 1.1566672325134277,
      "1176": 5.59223747253418,
      "1177": -0.5660281777381897,
      "1178": -1.6846379041671753,
      "1179": 11.079143524169922,
      "1180": -0.926203191280365,
      "1181": -4.567525386810303,
      "1182": 5.637535572052002,
      "1183": -1.2914124727249146,
      "1184": -1.272073745727539,
      "1185": 2.148844003677368,
      "1186": 2.8863677978515625,
      "1187": -0.15774701535701752,
      "1188": -2.1720399856567383,
      "1189": -2.6026737689971924,
      "1190": -0.16605634987354279,
      "1191": -0.9529677629470825,
      "1192": 1.351763367652893,
      "1193": 0.7014740109443665,
      "1194": -3.2196366786956787,
      "1195": 0.06863317638635635,
      "1196": -3.0427072048187256,
      "1197": 9.892952919006348,
      "1198": -2.872389078140259,
      "1199": 1.5507601499557495,
      "1200": 0.21276186406612396,
      "1201": 2.5015861988067627,
      "1202": -2.315204620361328,
      "1203": -0.49016883969306946,
      "1204": -7.726157188415527,
      "1205": 2.6477088928222656,
      "1206": -0.2742924392223358,
      "1207": -0.37887197732925415,
      "1208": -0.6518993377685547,
      "1209": -2.2254886627197266,
      "1210": 1.8480767011642456,
      "1211": -6.128955364227295,
      "1212": -0.9258278608322144,
      "1213": 5.089450359344482,
      "1214": -1.539156198501587,
      "1215": -4.123045921325684,
      "1216": 2.524872064590454,
      "1217": -3.494389295578003,
      "1218": -5.880550384521484,
      "1219": 0.041570402681827545,
      "1220": -11.774022102355957,
      "1221": -1.4087402820587158,
      "1222": 7.778711795806885,
      "1223": -1.2371220588684082,
      "1224": 0.8847092986106873,
      "1225": 3.6790196895599365,
      "1226": -2.1058084964752197,
      "1227": -0.1695268750190735,
      "1228": -1.2184985876083374,
      "1229": -2.4337565898895264,
      "1230": 1.277016043663025,
      "1231": 4.374495506286621,
      "1232": 3.187187910079956,
      "1233": 3.1572248935699463,
      "1234": -5.148088455200195,
      "1235": -3.19404673576355,
      "1236": 0.5304186940193176,
      "1237": 1.5601706504821777,
      "1238": 1.23672616481781,
      "1239": 2.7531473636627197,
      "1240": 4.008441925048828,
      "1241": -0.37083157896995544,
      "1242": 1.168575644493103,
      "1243": 1.9595026969909668,
      "1244": 2.3791797161102295,
      "1245": 1.7867677211761475,
      "1246": -0.27795103192329407,
      "1247": 3.601518154144287,
      "1248": -1.5828871726989746,
      "1249": 6.774002552032471,
      "1250": 3.6081864833831787,
      "1251": 0.5390728116035461,
      "1252": -3.436311960220337,
      "1253": -5.146092891693115,
      "1254": -3.776738166809082,
      "1255": 1.779219627380371,
      "1256": -7.816685199737549,
      "1257": -4.899672031402588,
      "1258": -3.147761583328247,
      "1259": -1.2701836824417114,
      "1260": 3.112926721572876,
      "1261": -2.6595802307128906,
      "1262": -0.9230232834815979,
      "1263": 3.8654422760009766,
      "1264": 3.622736930847168,
      "1265": -0.4003135859966278,
      "1266": -1.0975050926208496,
      "1267": -1.5729236602783203,
      "1268": -1.306027889251709,
      "1269": -4.536198139190674,
      "1270": -0.4914323091506958,
      "1271": -3.0135889053344727,
      "1272": 3.1937460899353027,
      "1273": -1.6121926307678223,
      "1274": -5.103133678436279,
      "1275": 2.045088768005371,
      "1276": -4.213235378265381,
      "1277": 3.7337934970855713,
      "1278": -2.3484718799591064,
      "1279": -3.923776149749756,
      "1280": -6.544686317443848,
      "1281": 3.3103058338165283,
      "1282": -0.20227763056755066,
      "1283": -5.870385646820068,
      "1284": 3.364626169204712,
      "1285": -2.3198277950286865,
      "1286": -2.0231058597564697,
      "1287": 6.064624309539795,
      "1288": -2.417212724685669,
      "1289": 2.478633403778076,
      "1290": 4.737820148468018,
      "1291": -3.432588577270508,
      "1292": 8.459439277648926,
      "1293": -2.0153815746307373,
      "1294": 5.471292972564697,
      "1295": -4.651965141296387,
      "1296": 0.9291359186172485,
      "1297": 6.428304195404053,
      "1298": -8.586843490600586,
      "1299": -2.269543170928955,
      "1300": 1.0518509149551392,
      "1301": -5.671814918518066,
      "1302": -1.701264500617981,
      "1303": -4.297698497772217,
      "1304": -3.274184465408325,
      "1305": 7.179341793060303,
      "1306": -4.3920464515686035,
      "1307": -0.1764819175004959,
      "1308": -1.6085739135742188,
      "1309": -1.0444788932800293,
      "1310": 3.499521255493164,
      "1311": -0.5242416858673096,
      "1312": -0.6826156973838806,
      "1313": 0.9286415576934814,
      "1314": 0.7116214036941528,
      "1315": 11.153890609741211,
      "1316": 3.649508476257324,
      "1317": 0.4175701141357422,
      "1318": -6.039013385772705,
      "1319": -3.045440673828125,
      "1320": -2.63242506980896,
      "1321": -4.235751152038574,
      "1322": -6.420009613037109,
      "1323": -4.584141254425049,
      "1324": -9.285497665405273,
      "1325": 2.2226006984710693,
      "1326": -6.338109970092773,
      "1327": 7.886893272399902,
      "1328": -2.087911367416382,
      "1329": -0.7126415967941284,
      "1330": -2.5471858978271484,
      "1331": -2.1124672889709473,
      "1332": -1.8684407472610474,
      "1333": -0.9133042693138123,
      "1334": -0.4613162577152252,
      "1335": 1.8067166805267334,
      "1336": 1.7343980073928833,
      "1337": 0.21058416366577148,
      "1338": 1.5619808435440063,
      "1339": 5.432232856750488,
      "1340": -5.099114418029785,
      "1341": 2.54044771194458,
      "1342": -2.7448995113372803,
      "1343": -5.161515712738037,
      "1344": 3.15906023979187,
      "1345": -1.9834330081939697,
      "1346": -4.899684906005859,
      "1347": 2.659553050994873,
      "1348": 1.2654564380645752,
      "1349": 0.6323094367980957,
      "1350": 0.5440089702606201,
      "1351": -3.6802785396575928,
      "1352": -0.4679875075817108,
      "1353": -2.3639001846313477,
      "1354": 0.14579392969608307,
      "1355": 3.432375192642212,
      "1356": 3.002420663833618,
      "1357": 0.14392438530921936,
      "1358": 4.869012832641602,
      "1359": 1.2653087377548218,
      "1360": 0.6208655834197998,
      "1361": -3.7250728607177734,
      "1362": 0.8060479760169983,
      "1363": -0.6011292934417725,
      "1364": 5.692942142486572,
      "1365": 1.365584373474121,
      "1366": 2.6040031909942627,
      "1367": 2.5901544094085693,
      "1368": -1.3100253343582153,
      "1369": -0.48992326855659485,
      "1370": 2.3102407455444336,
      "1371": -4.414021015167236,
      "1372": -3.5929694175720215,
      "1373": -1.6128565073013306,
      "1374": 0.4456382095813751,
      "1375": -6.2263617515563965,
      "1376": 2.0535168647766113,
      "1377": 0.2377283275127411,
      "1378": -0.04743335396051407,
      "1379": 3.291245460510254,
      "1380": 3.532069206237793,
      "1381": -1.8623005151748657,
      "1382": -2.2390127182006836,
      "1383": 5.620550632476807,
      "1384": 6.370438098907471,
      "1385": 2.5045173168182373,
      "1386": -2.715790033340454,
      "1387": -4.755795001983643,
      "1388": 0.9963733553886414,
      "1389": 5.873305797576904,
      "1390": -2.611276149749756,
      "1391": -3.880836009979248,
      "1392": -0.13446711003780365,
      "1393": -0.2281969040632248,
      "1394": 2.1609110832214355,
      "1395": -0.7904908657073975,
      "1396": 3.6215720176696777,
      "1397": -2.835146903991699,
      "1398": -1.9926296472549438,
      "1399": -3.6069135665893555,
      "1400": -2.998180866241455,
      "1401": 3.292536735534668,
      "1402": -4.7672319412231445,
      "1403": -0.3555944561958313,
      "1404": -1.9677627086639404,
      "1405": 8.530129432678223,
      "1406": -6.123196125030518,
      "1407": 2.6722025871276855,
      "1408": 1.623124122619629,
      "1409": -2.7831170558929443,
      "1410": -5.2903571128845215,
      "1411": -1.176042079925537,
      "1412": 1.9819480180740356,
      "1413": -0.9406075477600098,
      "1414": -3.197141647338867,
      "1415": 1.8405358791351318,
      "1416": 4.144527912139893,
      "1417": 4.779079914093018,
      "1418": 1.409209966659546,
      "1419": 1.4415866136550903,
      "1420": 1.6743848323822021,
      "1421": 2.8529677391052246,
      "1422": -1.4127155542373657,
      "1423": 2.53523588180542,
      "1424": 1.625121831893921,
      "1425": 1.221630573272705,
      "1426": -1.7268810272216797,
      "1427": 1.6619216203689575,
      "1428": -4.468656063079834,
      "1429": -0.7925832867622375,
      "1430": -3.229036331176758,
      "1431": -0.9366775155067444,
      "1432": 2.0168535709381104,
      "1433": 6.837968826293945,
      "1434": -1.6353331804275513,
      "1435": 4.409552574157715,
      "1436": -3.0564205646514893,
      "1437": -3.375016927719116,
      "1438": -2.0637433528900146,
      "1439": 1.5124257802963257,
      "1440": 0.4295656681060791,
      "1441": -4.731295108795166,
      "1442": -3.2854130268096924,
      "1443": 0.3088049292564392,
      "1444": 5.6856465339660645,
      "1445": -0.0014639465371146798,
      "1446": -1.0847455263137817,
      "1447": 0.4864347577095032,
      "1448": 0.5029877424240112,
      "1449": 3.50784969329834,
      "1450": 1.100191354751587,
      "1451": -1.8715516328811646,
      "1452": -5.23904275894165,
      "1453": -0.22007711231708527,
      "1454": -0.1803911328315735,
      "1455": -1.3298468589782715,
      "1456": 4.45324182510376,
      "1457": 0.05944881588220596,
      "1458": -1.9994192123413086,
      "1459": -3.85361647605896,
      "1460": -1.191467046737671,
      "1461": 3.74525785446167,
      "1462": -3.7464804649353027,
      "1463": 2.8621745109558105,
      "1464": -5.052669048309326,
      "1465": -1.07637619972229,
      "1466": 5.147994041442871,
      "1467": -0.5762982368469238,
      "1468": -0.2703573703765869,
      "1469": 1.5709869861602783,
      "1470": -2.287510395050049,
      "1471": -5.89137077331543,
      "1472": 5.617526054382324,
      "1473": 3.475623846054077,
      "1474": -3.7484593391418457,
      "1475": 3.6698780059814453,
      "1476": 3.28511905670166,
      "1477": 1.7366975545883179,
      "1478": 1.6298304796218872,
      "1479": -3.0549402236938477,
      "1480": 2.6799066066741943,
      "1481": 1.5624454021453857,
      "1482": 0.18094807863235474,
      "1483": -3.10502028465271,
      "1484": -5.780563831329346,
      "1485": -0.2888314723968506,
      "1486": -3.147002696990967,
      "1487": -4.835768222808838,
      "1488": 1.0926240682601929,
      "1489": -1.883575439453125,
      "1490": -4.633281707763672,
      "1491": -5.593062877655029,
      "1492": -4.153707981109619,
      "1493": -1.8602052927017212,
      "1494": -2.548126459121704,
      "1495": -4.926599502563477,
      "1496": -4.600285530090332,
      "1497": 5.255134582519531,
      "1498": -7.579863548278809,
      "1499": 1.1024104356765747,
      "1500": 3.7168045043945312,
      "1501": -3.6586451530456543,
      "1502": -3.8747849464416504,
      "1503": 2.6288297176361084,
      "1504": -4.999465465545654,
      "1505": 0.4147776663303375,
      "1506": -2.487969398498535,
      "1507": 1.7293750047683716,
      "1508": 3.097586154937744,
      "1509": 1.0809962749481201,
      "1510": 0.29381901025772095,
      "1511": -0.42894572019577026,
      "1512": -0.1137532889842987,
      "1513": -2.634676933288574,
      "1514": 3.5189003944396973,
      "1515": -0.6262586712837219,
      "1516": 2.3370890617370605,
      "1517": 2.559922933578491,
      "1518": -4.626226902008057,
      "1519": -2.8123347759246826,
      "1520": 3.7020351886749268,
      "1521": 11.808298110961914,
      "1522": -0.6700825095176697,
      "1523": 9.725637435913086,
      "1524": -3.04396390914917,
      "1525": 2.1635377407073975,
      "1526": 0.648703396320343,
      "1527": -2.471348524093628,
      "1528": -9.345545768737793,
      "1529": 0.05030487850308418,
      "1530": 5.5498809814453125,
      "1531": 3.2332961559295654,
      "1532": 3.7710001468658447,
      "1533": -2.6954197883605957,
      "1534": 0.6646052002906799,
      "1535": 0.42026716470718384,
      "1536": 0.6408587098121643,
      "1537": -1.4360414743423462,
      "1538": -1.6526559591293335,
      "1539": -1.725390911102295,
      "1540": 1.2220441102981567,
      "1541": 0.05860799178481102,
      "1542": 2.414128303527832,
      "1543": 5.789296627044678,
      "1544": 2.387691020965576,
      "1545": -1.9310916662216187,
      "1546": 2.512211561203003,
      "1547": 0.09225253760814667,
      "1548": 0.8888918161392212,
      "1549": 3.719604730606079,
      "1550": 6.109597682952881,
      "1551": 7.900465965270996,
      "1552": -3.2861998081207275,
      "1553": -5.607889652252197,
      "1554": 0.9807157516479492,
      "1555": 2.2288379669189453,
      "1556": -3.15324330329895,
      "1557": -1.087850570678711,
      "1558": -4.266554355621338,
      "1559": -4.129995822906494,
      "1560": 1.349856972694397,
      "1561": 3.166689395904541,
      "1562": 1.0129984617233276,
      "1563": -1.2359527349472046,
      "1564": 3.564145088195801,
      "1565": 0.9415090084075928,
      "1566": -0.9405423998832703,
      "1567": 0.8478584289550781,
      "1568": 1.023969054222107,
      "1569": 1.2069593667984009,
      "1570": -2.3109776973724365,
      "1571": 1.5509127378463745,
      "1572": 3.109583854675293,
      "1573": -1.7686914205551147,
      "1574": 1.3466092348098755,
      "1575": 1.135634422302246,
      "1576": -2.8230748176574707,
      "1577": 1.1532752513885498,
      "1578": -3.985492467880249,
      "1579": 2.1104538440704346,
      "1580": 0.8479607105255127,
      "1581": -5.61039400100708,
      "1582": -2.196398973464966,
      "1583": -2.151047945022583,
      "1584": 1.5211477279663086,
      "1585": 7.43556022644043,
      "1586": -2.627258777618408,
      "1587": 0.9765322804450989,
      "1588": 1.944655179977417,
      "1589": 2.2467050552368164,
      "1590": -1.3672288656234741,
      "1591": 0.07741010189056396,
      "1592": -0.8331860303878784,
      "1593": -0.03734162822365761,
      "1594": 1.5322710275650024,
      "1595": -3.6547513008117676,
      "1596": -2.5212724208831787,
      "1597": 4.602349758148193,
      "1598": -3.015923023223877,
      "1599": 5.1504225730896,
      "1600": 0.3903367817401886,
      "1601": -2.868105888366699,
      "1602": -1.351887822151184,
      "1603": -1.371825098991394,
      "1604": -0.8988171815872192,
      "1605": 1.8941903114318848,
      "1606": -1.525765299797058,
      "1607": -2.035806894302368,
      "1608": -2.3247029781341553,
      "1609": 0.6385922431945801,
      "1610": -0.8461147546768188,
      "1611": 1.0044702291488647,
      "1612": -2.744375467300415,
      "1613": -3.280482053756714,
      "1614": -1.0735286474227905,
      "1615": -0.2223418802022934,
      "1616": -0.33175066113471985,
      "1617": -0.04156159609556198,
      "1618": -0.764287531375885,
      "1619": -0.7843910455703735,
      "1620": 2.9789505004882812,
      "1621": -3.1699576377868652,
      "1622": -0.6550190448760986,
      "1623": 1.5740461349487305,
      "1624": -0.5685977339744568,
      "1625": -0.6749004125595093,
      "1626": 1.9320842027664185,
      "1627": 1.6573705673217773,
      "1628": -0.43156376481056213,
      "1629": -0.2126474380493164,
      "1630": -2.9862279891967773,
      "1631": -2.8351452350616455,
      "1632": 0.86223304271698,
      "1633": 0.07521192729473114,
      "1634": 0.46169325709342957,
      "1635": 0.268928200006485,
      "1636": 1.8341646194458008,
      "1637": -1.3728078603744507,
      "1638": 2.7191433906555176,
      "1639": -0.054297689348459244,
      "1640": 1.2774603366851807,
      "1641": 3.015272855758667,
      "1642": 1.1483169794082642,
      "1643": 1.0963246822357178,
      "1644": 0.4831935465335846,
      "1645": -1.930527925491333,
      "1646": 1.959099292755127,
      "1647": -0.24134007096290588,
      "1648": -0.6550445556640625,
      "1649": -1.9344632625579834,
      "1650": 0.8592543601989746,
      "1651": -2.6833059787750244,
      "1652": 0.39010781049728394,
      "1653": 0.6980331540107727,
      "1654": 0.41122210025787354,
      "1655": 0.01105564832687378,
      "1656": 2.700514078140259,
      "1657": -2.136465549468994,
      "1658": -0.23640874028205872,
      "1659": -0.7282940149307251,
      "1660": -1.403526782989502,
      "1661": 0.9055740237236023,
      "1662": -2.4685685634613037,
      "1663": 3.025392770767212,
      "1664": 0.033619511872529984,
      "1665": 2.975372791290283,
      "1666": 1.536716341972351,
      "1667": -1.3870513439178467,
      "1668": -3.963003635406494,
      "1669": 0.8293771147727966,
      "1670": -1.6364753246307373,
      "1671": -2.5004849433898926,
      "1672": 1.5316417217254639,
      "1673": -1.605808973312378,
      "1674": 3.6987292766571045,
      "1675": 1.1237945556640625,
      "1676": -2.575700521469116,
      "1677": 2.7821388244628906,
      "1678": 1.625723123550415,
      "1679": -1.8294200897216797,
      "1680": -1.0216199159622192,
      "1681": 0.09752576798200607,
      "1682": 1.2476810216903687,
      "1683": -0.31434503197669983,
      "1684": 1.3807892799377441,
      "1685": -0.47995197772979736,
      "1686": 0.6988143920898438,
      "1687": -2.0602076053619385,
      "1688": -0.5737742185592651,
      "1689": 0.1576901227235794,
      "1690": -0.14627452194690704,
      "1691": -2.075465440750122,
      "1692": -2.0075693130493164,
      "1693": -1.6230318546295166,
      "1694": -4.978842258453369,
      "1695": 0.6100804805755615,
      "1696": 0.9895858764648438,
      "1697": -3.182391405105591,
      "1698": 2.191474676132202,
      "1699": -1.5457878112792969,
      "1700": 2.09587025642395,
      "1701": -0.055097874253988266,
      "1702": -2.6888039112091064,
      "1703": -3.0572474002838135,
      "1704": 0.05036650598049164,
      "1705": -0.03197763115167618,
      "1706": -1.2411396503448486,
      "1707": -1.4208776950836182,
      "1708": 1.5283869504928589,
      "1709": -3.8803658485412598,
      "1710": 1.7887052297592163,
      "1711": 4.4209136962890625,
      "1712": 1.931748390197754,
      "1713": 1.0353670120239258,
      "1714": 2.063993453979492,
      "1715": 1.0774201154708862,
      "1716": 1.4550297260284424,
      "1717": 1.7028589248657227,
      "1718": 0.26965659856796265,
      "1719": -0.22017572820186615,
      "1720": -0.19695183634757996,
      "1721": 2.3106656074523926,
      "1722": -2.057441473007202,
      "1723": -0.6440174579620361,
      "1724": -0.7395508289337158,
      "1725": 0.15348263084888458,
      "1726": -2.2959694862365723,
      "1727": 2.618328094482422,
      "1728": -0.816927433013916,
      "1729": -0.1892852932214737,
      "1730": 1.560259461402893,
      "1731": 0.36928507685661316,
      "1732": 0.964272141456604,
      "1733": 1.7012885808944702,
      "1734": 1.0366382598876953,
      "1735": 0.2116587609052658,
      "1736": 5.033369541168213,
      "1737": -1.8247573375701904,
      "1738": 2.3378963470458984,
      "1739": 2.0647709369659424,
      "1740": 2.143216371536255,
      "1741": -3.232469081878662,
      "1742": 0.22335176169872284,
      "1743": 0.3434504270553589,
      "1744": 1.0936418771743774,
      "1745": 2.0629889965057373,
      "1746": -1.9603794813156128,
      "1747": 0.3254004716873169,
      "1748": 1.8669862747192383,
      "1749": 2.7232816219329834,
      "1750": 0.9806854724884033,
      "1751": -1.5937474966049194,
      "1752": -2.154686212539673,
      "1753": 0.9221076965332031,
      "1754": 1.8347150087356567,
      "1755": 4.227180480957031,
      "1756": -0.4009062349796295,
      "1757": 0.1914612501859665,
      "1758": -3.497894525527954,
      "1759": 3.051457643508911,
      "1760": 0.2366107553243637,
      "1761": 3.7905378341674805,
      "1762": 2.763892412185669,
      "1763": -0.06451910734176636,
      "1764": 3.725339651107788,
      "1765": -2.011012315750122,
      "1766": 2.4837145805358887,
      "1767": -0.019390933215618134,
      "1768": 1.7462100982666016,
      "1769": 1.7506226301193237,
      "1770": 5.199207782745361,
      "1771": -1.6325565576553345,
      "1772": -0.6995328068733215,
      "1773": 2.3141326904296875,
      "1774": 1.5875967741012573,
      "1775": -5.17982816696167,
      "1776": 0.6272803544998169,
      "1777": -3.5192067623138428,
      "1778": -0.8985825181007385,
      "1779": 3.1954822540283203,
      "1780": 2.2715048789978027,
      "1781": 5.554569721221924,
      "1782": 5.314627647399902,
      "1783": -5.143373966217041,
      "1784": 6.3105974197387695,
      "1785": -5.146286487579346,
      "1786": 4.5258073806762695,
      "1787": 1.7514796257019043,
      "1788": -1.1090723276138306,
      "1789": 0.13655142486095428,
      "1790": 4.169821739196777,
      "1791": -2.540330171585083,
      "1792": 1.7253026962280273,
      "1793": 1.892542839050293,
      "1794": -10.5952730178833,
      "1795": -0.7498031258583069,
      "1796": 0.4917061924934387,
      "1797": 1.0462676286697388,
      "1798": -1.7319657802581787,
      "1799": 2.1288516521453857,
      "1800": -1.906571865081787,
      "1801": -0.2159353494644165,
      "1802": 0.05003496631979942,
      "1803": 8.701576232910156,
      "1804": -2.1946139335632324,
      "1805": 1.7514560222625732,
      "1806": -1.0864604711532593,
      "1807": -4.896774768829346,
      "1808": 4.306633472442627,
      "1809": 1.7578037977218628,
      "1810": -1.6541465520858765,
      "1811": -1.0925172567367554,
      "1812": 5.207646369934082,
      "1813": 4.554230213165283,
      "1814": 2.3151419162750244,
      "1815": -0.3369225859642029,
      "1816": -0.27552518248558044,
      "1817": 3.75852370262146,
      "1818": 1.2240437269210815,
      "1819": 0.803776741027832,
      "1820": 4.984094142913818,
      "1821": 0.49675464630126953,
      "1822": -6.4095892906188965,
      "1823": 4.798973083496094,
      "1824": 6.338515758514404,
      "1825": 0.5389688014984131,
      "1826": 7.193234443664551,
      "1827": -1.238375186920166,
      "1828": -1.126731276512146,
      "1829": 0.1424688696861267,
      "1830": -3.7559072971343994,
      "1831": 4.825981616973877,
      "1832": -1.385344386100769,
      "1833": -2.582127571105957,
      "1834": 2.355104923248291,
      "1835": 2.406717538833618,
      "1836": -0.8975785970687866,
      "1837": 2.625605344772339,
      "1838": 6.565582275390625,
      "1839": -7.413933753967285,
      "1840": -1.798713207244873,
      "1841": 3.5914933681488037,
      "1842": -1.434542179107666,
      "1843": 3.8614447116851807,
      "1844": 3.8010406494140625,
      "1845": 0.8349230885505676,
      "1846": -0.00978103931993246,
      "1847": -0.3987326920032501,
      "1848": -7.937496662139893,
      "1849": 10.939221382141113,
      "1850": -5.269952297210693,
      "1851": 8.851388931274414,
      "1852": 0.29999178647994995,
      "1853": -1.4321935176849365,
      "1854": 5.75079345703125,
      "1855": -0.5965151190757751,
      "1856": -6.7329421043396,
      "1857": 2.9456405639648438,
      "1858": -2.82075834274292,
      "1859": -6.410926342010498,
      "1860": -4.5408501625061035,
      "1861": -0.6134644746780396,
      "1862": 4.1767191886901855,
      "1863": 7.113919258117676,
      "1864": 0.7264610528945923,
      "1865": -0.24255123734474182,
      "1866": 1.2472206354141235,
      "1867": 5.811664581298828,
      "1868": 1.397356390953064,
      "1869": -0.07306168228387833,
      "1870": -6.812898635864258,
      "1871": -2.9044787883758545,
      "1872": 3.286379098892212,
      "1873": -3.143364667892456,
      "1874": -7.432137489318848,
      "1875": -0.3039662837982178,
      "1876": -3.0227034091949463,
      "1877": 9.265427589416504,
      "1878": 2.9207324981689453,
      "1879": -2.3985166549682617,
      "1880": -1.8918074369430542,
      "1881": -0.7429617643356323,
      "1882": -2.642690658569336,
      "1883": -4.897310256958008,
      "1884": -7.812068462371826,
      "1885": 1.2062259912490845,
      "1886": -4.905792713165283,
      "1887": -2.5786032676696777,
      "1888": -3.935445785522461,
      "1889": 1.0667592287063599,
      "1890": 1.717899203300476,
      "1891": -4.56422233581543,
      "1892": 0.5407747030258179,
      "1893": -4.0677490234375,
      "1894": -4.649158954620361,
      "1895": 5.380594730377197,
      "1896": -2.399230718612671,
      "1897": -1.472139835357666,
      "1898": -2.4729743003845215,
      "1899": -0.6086133122444153,
      "1900": 3.285074234008789,
      "1901": 8.640545845031738,
      "1902": -2.2058327198028564,
      "1903": 7.547511100769043,
      "1904": -0.33613458275794983,
      "1905": 6.250381946563721,
      "1906": 4.9372992515563965,
      "1907": -2.15431809425354,
      "1908": -3.0156054496765137,
      "1909": 0.3270776569843292,
      "1910": -0.6456166505813599,
      "1911": 1.8411612510681152,
      "1912": -1.8225804567337036,
      "1913": 4.03603982925415,
      "1914": -1.2078274488449097,
      "1915": 0.09304402023553848,
      "1916": -0.6797036528587341,
      "1917": 2.839529037475586,
      "1918": 2.687757968902588,
      "1919": -2.520725727081299,
      "1920": 6.251693248748779,
      "1921": 3.6588213443756104,
      "1922": 1.2139792442321777,
      "1923": -1.889168620109558,
      "1924": 5.855826377868652,
      "1925": -1.1913939714431763,
      "1926": -0.6206117868423462,
      "1927": 4.1168060302734375,
      "1928": -5.900232315063477,
      "1929": 4.276843547821045,
      "1930": 10.294330596923828,
      "1931": -2.4967896938323975,
      "1932": 3.724085807800293,
      "1933": -3.626669406890869,
      "1934": -2.2764010429382324,
      "1935": 3.288494110107422,
      "1936": -4.610895156860352,
      "1937": 2.365572929382324,
      "1938": -2.624737024307251,
      "1939": 7.851851463317871,
      "1940": 1.8811837434768677,
      "1941": 0.45993170142173767,
      "1942": -0.6078697443008423,
      "1943": 2.9987576007843018,
      "1944": -4.0481157302856445,
      "1945": 7.079808235168457,
      "1946": -1.054673433303833,
      "1947": -4.700247287750244,
      "1948": -1.1890099048614502,
      "1949": -7.5342302322387695,
      "1950": 2.687547445297241,
      "1951": -5.93839168548584,
      "1952": -3.9608027935028076,
      "1953": 6.446097373962402,
      "1954": 1.4944761991500854,
      "1955": 1.9812756776809692,
      "1956": 6.248520851135254,
      "1957": 2.4001481533050537,
      "1958": -2.854532241821289,
      "1959": -8.158425331115723,
      "1960": -3.7535133361816406,
      "1961": -4.334184646606445,
      "1962": -1.5616155862808228,
      "1963": -4.678854465484619,
      "1964": 0.3160882294178009,
      "1965": 6.559683322906494,
      "1966": -9.409520149230957,
      "1967": -4.000583648681641,
      "1968": -1.8945648670196533,
      "1969": -2.3822619915008545,
      "1970": -4.271222114562988,
      "1971": -3.322660207748413,
      "1972": 1.3131330013275146,
      "1973": -5.002146244049072,
      "1974": 1.7688337564468384,
      "1975": -3.1987874507904053,
      "1976": -4.693075180053711,
      "1977": -0.5120731592178345,
      "1978": 10.623184204101562,
      "1979": -2.619457960128784,
      "1980": -2.1083993911743164,
      "1981": 10.92923355102539,
      "1982": -2.772908926010132,
      "1983": 10.793622970581055,
      "1984": -6.633059978485107,
      "1985": 0.5384533405303955,
      "1986": 7.320955753326416,
      "1987": 2.048428773880005,
      "1988": -1.5275702476501465,
      "1989": -3.777561664581299,
      "1990": -6.277166366577148,
      "1991": 2.04860782623291,
      "1992": -5.247985363006592,
      "1993": -8.54848861694336,
      "1994": 2.696775197982788,
      "1995": -6.6543803215026855,
      "1996": 2.1454811096191406,
      "1997": -7.869262218475342,
      "1998": -8.09074592590332,
      "1999": -0.710885763168335,
      "2000": -0.11175336688756943,
      "2001": -1.527715802192688,
      "2002": 1.909112811088562,
      "2003": 4.51165771484375,
      "2004": -9.248534202575684,
      "2005": 2.9415485858917236,
      "2006": -5.367647647857666,
      "2007": -4.907477378845215,
      "2008": -0.8189980387687683,
      "2009": 1.8789989948272705,
      "2010": -5.369068145751953,
      "2011": -1.6362053155899048,
      "2012": -7.322895050048828,
      "2013": 4.615359306335449,
      "2014": -0.6654293537139893,
      "2015": -0.40026506781578064,
      "2016": 2.297150135040283,
      "2017": 0.41669708490371704,
      "2018": 6.460672855377197,
      "2019": -1.4551844596862793,
      "2020": 1.11328125,
      "2021": 2.700496196746826,
      "2022": 1.0382745265960693,
      "2023": -4.864699363708496,
      "2024": -1.6176196336746216,
      "2025": -1.2982808351516724,
      "2026": -1.9436233043670654,
      "2027": 2.7685911655426025,
      "2028": -0.21920596063137054,
      "2029": 1.8595802783966064,
      "2030": -1.3547511100769043,
      "2031": -0.9364051818847656,
      "2032": 0.19199107587337494,
      "2033": -0.959743082523346,
      "2034": 3.018691301345825,
      "2035": 2.1357474327087402,
      "2036": -0.35513368248939514,
      "2037": -0.8831127882003784,
      "2038": 1.5922940969467163,
      "2039": -0.6663994193077087,
      "2040": 1.7950267791748047,
      "2041": -0.35995954275131226,
      "2042": -0.6101900339126587,
      "2043": 0.5832701325416565,
      "2044": 0.2670499384403229,
      "2045": 2.974709987640381,
      "2046": -0.7601453065872192,
      "2047": -0.047679271548986435,
      "2048": 1.585318922996521,
      "2049": 1.9653092622756958,
      "2050": 1.2792326211929321,
      "2051": -0.48179930448532104,
      "2052": -1.3480709791183472,
      "2053": 2.9038734436035156,
      "2054": 2.241420030593872,
      "2055": -2.8392035961151123,
      "2056": 0.62200927734375,
      "2057": 1.7320383787155151,
      "2058": -0.8707976341247559,
      "2059": -1.4655218124389648,
      "2060": -1.4130992889404297,
      "2061": 1.0060006380081177,
      "2062": -1.76526939868927,
      "2063": 0.2239333838224411,
      "2064": 1.105601191520691,
      "2065": -0.38390257954597473,
      "2066": 0.6021261215209961,
      "2067": -0.13571150600910187,
      "2068": 0.6481420993804932,
      "2069": 0.3755545914173126,
      "2070": -1.0937612056732178,
      "2071": 0.09165719896554947,
      "2072": -0.15700997412204742,
      "2073": -0.29709717631340027,
      "2074": 1.1095285415649414,
      "2075": -0.3055064082145691,
      "2076": -1.8258496522903442,
      "2077": 0.5725321769714355,
      "2078": -1.5026600360870361,
      "2079": 1.8344489336013794,
      "2080": -2.035947799682617,
      "2081": -0.04169614985585213,
      "2082": 0.54128497838974,
      "2083": 3.175739049911499,
      "2084": -0.3699435591697693,
      "2085": 2.1648030281066895,
      "2086": -0.4051702320575714,
      "2087": -2.293447732925415,
      "2088": -1.1310371160507202,
      "2089": -0.7167182564735413,
      "2090": -1.1283577680587769,
      "2091": 2.206835985183716,
      "2092": 2.0415356159210205,
      "2093": 1.3244352340698242,
      "2094": 2.37138032913208,
      "2095": 1.3057880401611328,
      "2096": 1.8288809061050415,
      "2097": 0.037823617458343506,
      "2098": -2.072587728500366,
      "2099": 0.3557974100112915,
      "2100": 1.322859525680542,
      "2101": -1.346482515335083,
      "2102": 0.8794241547584534,
      "2103": -0.2584056258201599,
      "2104": -0.5019647479057312,
      "2105": -2.1618144512176514,
      "2106": -0.07740327715873718,
      "2107": 0.29216623306274414,
      "2108": 1.9541747570037842,
      "2109": 1.3196712732315063,
      "2110": -2.992936372756958,
      "2111": 0.9784796237945557,
      "2112": -1.5027834177017212,
      "2113": -0.6775820851325989,
      "2114": -2.2619214057922363,
      "2115": 1.0277447700500488,
      "2116": 0.027667932212352753,
      "2117": -0.037461765110492706,
      "2118": -0.02318183332681656,
      "2119": -0.00008964094740804285,
      "2120": -0.06276647001504898,
      "2121": -0.050230640918016434,
      "2122": -0.031961552798748016,
      "2123": -0.004600953310728073,
      "2124": 0.04524688422679901,
      "2125": -0.060898683965206146,
      "2126": 0.018330832943320274,
      "2127": -0.06842924654483795,
      "2128": 0.025986095890402794,
      "2129": 0.01696927659213543,
      "2130": 0.016141477972269058,
      "2131": 0.060353852808475494,
      "2132": -0.013031496666371822,
      "2133": -0.0028621358796954155,
      "2134": -0.024168483912944794,
      "2135": 0.023862484842538834,
      "2136": 0.007968392223119736,
      "2137": -0.06782631576061249,
      "2138": -0.026930201798677444,
      "2139": -0.03129122406244278,
      "2140": 0.07234741002321243,
      "2141": 0.03041698783636093,
      "2142": -0.01812872104346752,
      "2143": 0.0656438022851944,
      "2144": -0.012396448291838169,
      "2145": 0.06249435991048813,
      "2146": 0.06764394789934158,
      "2147": 0.01443166472017765,
      "2148": -0.02198503538966179,
      "2149": -0.05071818456053734,
      "2150": -0.019057374447584152,
      "2151": -0.007362352684140205,
      "2152": -0.0610923245549202,
      "2153": 0.013009280897676945,
      "2154": 0.04172546789050102,
      "2155": 0.013919278979301453,
      "2156": 0.052036210894584656,
      "2157": 0.03154325112700462,
      "2158": -0.013126310892403126,
      "2159": -0.053664468228816986,
      "2160": -0.005145819392055273,
      "2161": -0.07378093153238297
    }
  },
  "hiddenLayers": [
    {
      "inputMatrix": {
        "rows": 20,
        "columns": 46,
        "weights": {
          "0": -0.3382739722728729,
          "1": 1.0377930402755737,
          "2": -2.0299768447875977,
          "3": -1.5468844175338745,
          "4": 1.0960007905960083,
          "5": -0.787603497505188,
          "6": 0.9965037107467651,
          "7": 2.8511617183685303,
          "8": -3.0731160640716553,
          "9": 0.9059205055236816,
          "10": 1.244195818901062,
          "11": -0.9460558295249939,
          "12": 0.2714773714542389,
          "13": 0.02363746426999569,
          "14": -0.645796000957489,
          "15": 0.4850252866744995,
          "16": -0.06889824569225311,
          "17": 1.5292026996612549,
          "18": 1.7113592624664307,
          "19": 0.18219347298145294,
          "20": 0.19490374624729156,
          "21": -2.0603857040405273,
          "22": 1.6263761520385742,
          "23": 1.315064549446106,
          "24": -0.04322296008467674,
          "25": -0.14440426230430603,
          "26": -1.5715774297714233,
          "27": -0.09885875880718231,
          "28": 0.7778702974319458,
          "29": 0.6487811207771301,
          "30": 1.1816245317459106,
          "31": 1.6827720403671265,
          "32": 1.5092265605926514,
          "33": -0.6760199069976807,
          "34": 1.8504958152770996,
          "35": 0.8474070429801941,
          "36": 1.4763599634170532,
          "37": -0.541485071182251,
          "38": -1.8105530738830566,
          "39": -0.35594427585601807,
          "40": 0.8477462530136108,
          "41": -0.039390403777360916,
          "42": -1.0654851198196411,
          "43": 0.9057815670967102,
          "44": 0.5765727758407593,
          "45": -0.6315875053405762,
          "46": 1.4968738555908203,
          "47": 0.029809365049004555,
          "48": 0.08977936208248138,
          "49": -0.7621461153030396,
          "50": -1.3850955963134766,
          "51": -0.3992041349411011,
          "52": 0.2735694348812103,
          "53": 0.1524200439453125,
          "54": 0.7070883512496948,
          "55": -1.5980111360549927,
          "56": 1.4424670934677124,
          "57": -2.2910971641540527,
          "58": -0.2197520136833191,
          "59": -1.498398780822754,
          "60": -3.5981924533843994,
          "61": -0.21188205480575562,
          "62": 1.3606984615325928,
          "63": 0.252128541469574,
          "64": 1.359483242034912,
          "65": 0.4473211467266083,
          "66": 3.12320613861084,
          "67": 0.954063355922699,
          "68": 0.5340133905410767,
          "69": 0.14312897622585297,
          "70": 2.0186545848846436,
          "71": -0.896327793598175,
          "72": 0.7732548117637634,
          "73": -1.4733219146728516,
          "74": 1.9987431764602661,
          "75": -0.3221055567264557,
          "76": 1.9773979187011719,
          "77": -0.5038062930107117,
          "78": -0.8402706980705261,
          "79": 1.6442575454711914,
          "80": 0.4951520264148712,
          "81": 1.159001350402832,
          "82": 0.4540547728538513,
          "83": -1.2864389419555664,
          "84": -3.110748529434204,
          "85": -1.9004204273223877,
          "86": 1.603581428527832,
          "87": 0.7546339631080627,
          "88": 1.247568964958191,
          "89": -0.39688926935195923,
          "90": -0.08606048673391342,
          "91": -0.28913775086402893,
          "92": -0.8942795395851135,
          "93": -3.077068328857422,
          "94": 0.7330717444419861,
          "95": -0.9733588695526123,
          "96": 0.9179444313049316,
          "97": -1.998117208480835,
          "98": 0.6299086809158325,
          "99": -1.088484287261963,
          "100": -0.688104510307312,
          "101": -0.9820160269737244,
          "102": -0.39100536704063416,
          "103": 0.05434002727270126,
          "104": -0.32674890756607056,
          "105": 1.6215274333953857,
          "106": -0.5529412627220154,
          "107": 0.0691792219877243,
          "108": -2.6572482585906982,
          "109": -0.1378459483385086,
          "110": -1.635643482208252,
          "111": 2.0611157417297363,
          "112": -0.9437985420227051,
          "113": -0.7595998048782349,
          "114": -1.160033941268921,
          "115": 1.4601449966430664,
          "116": 2.2489163875579834,
          "117": -0.5084114670753479,
          "118": 1.6742010116577148,
          "119": 1.8254948854446411,
          "120": -1.653680443763733,
          "121": -0.18923239409923553,
          "122": 0.8897250890731812,
          "123": -1.4221071004867554,
          "124": 0.8915224075317383,
          "125": -0.0005972827784717083,
          "126": 1.2112047672271729,
          "127": 0.7496531009674072,
          "128": -1.3425486087799072,
          "129": -1.7535920143127441,
          "130": 2.2457640171051025,
          "131": 0.014368045143783092,
          "132": -2.1873779296875,
          "133": 0.22127129137516022,
          "134": -2.2109110355377197,
          "135": 2.674236536026001,
          "136": -1.5818365812301636,
          "137": -1.0525152683258057,
          "138": 0.273052453994751,
          "139": -1.5788567066192627,
          "140": -1.086426854133606,
          "141": 0.13948312401771545,
          "142": 0.19125762581825256,
          "143": -0.033577460795640945,
          "144": -0.9658126831054688,
          "145": -1.912225365638733,
          "146": 0.28100523352622986,
          "147": -0.4476678967475891,
          "148": 1.4466861486434937,
          "149": 0.26145726442337036,
          "150": 0.6646670699119568,
          "151": -0.4221358895301819,
          "152": 0.7270898222923279,
          "153": 2.6595752239227295,
          "154": 1.4418926239013672,
          "155": 0.7688982486724854,
          "156": -1.0690958499908447,
          "157": 3.297811269760132,
          "158": -0.14085637032985687,
          "159": 1.2574383020401,
          "160": -0.4774746298789978,
          "161": -0.5153144598007202,
          "162": 0.4818921685218811,
          "163": -0.04674413800239563,
          "164": 0.30803054571151733,
          "165": -0.5670679807662964,
          "166": -1.4232498407363892,
          "167": 1.7048633098602295,
          "168": 0.7185810804367065,
          "169": -2.106492280960083,
          "170": 0.07529395073652267,
          "171": -0.29475292563438416,
          "172": -0.05383141711354256,
          "173": -0.48979681730270386,
          "174": -0.6058427095413208,
          "175": -0.33162519335746765,
          "176": 1.4474592208862305,
          "177": 1.0865236520767212,
          "178": -0.6089856028556824,
          "179": 2.2603325843811035,
          "180": -2.0004968643188477,
          "181": -1.331808090209961,
          "182": 0.7181728482246399,
          "183": 0.42281994223594666,
          "184": 0.22281061112880707,
          "185": -1.8044848442077637,
          "186": -0.15826696157455444,
          "187": 0.9433225989341736,
          "188": 1.4481183290481567,
          "189": -0.05008205771446228,
          "190": 1.8191382884979248,
          "191": -0.7902779579162598,
          "192": 1.038196086883545,
          "193": -0.48008987307548523,
          "194": 0.8590857982635498,
          "195": 0.08491218835115433,
          "196": 2.369115114212036,
          "197": 1.2284233570098877,
          "198": 0.16790898144245148,
          "199": 1.9486465454101562,
          "200": 0.8529017567634583,
          "201": -0.48650112748146057,
          "202": -0.06566217541694641,
          "203": 0.4860903322696686,
          "204": -0.26112329959869385,
          "205": 2.287105083465576,
          "206": 0.3005700707435608,
          "207": 1.2886641025543213,
          "208": 3.042142391204834,
          "209": 0.5629626512527466,
          "210": 0.3460543751716614,
          "211": -0.0873015895485878,
          "212": -1.28271484375,
          "213": 0.7636500000953674,
          "214": -1.2793368101119995,
          "215": -1.0553818941116333,
          "216": 0.2573529779911041,
          "217": 1.419956088066101,
          "218": -1.8735777139663696,
          "219": -0.4206872284412384,
          "220": 0.5247266888618469,
          "221": -0.8578670620918274,
          "222": 1.492356777191162,
          "223": -0.43870678544044495,
          "224": -0.6525591015815735,
          "225": 0.5219337344169617,
          "226": -2.3510801792144775,
          "227": -1.8118703365325928,
          "228": -0.2867682874202728,
          "229": 1.295329213142395,
          "230": -0.10444144159555435,
          "231": -2.009791851043701,
          "232": 0.8822940587997437,
          "233": -0.34765687584877014,
          "234": -1.8998982906341553,
          "235": 0.06943076848983765,
          "236": -0.3590966463088989,
          "237": -0.8890231251716614,
          "238": 1.2771987915039062,
          "239": -1.7030408382415771,
          "240": -1.261505365371704,
          "241": 0.022422676905989647,
          "242": -0.9839462637901306,
          "243": 0.268716961145401,
          "244": -0.7280526757240295,
          "245": -3.049259901046753,
          "246": -2.275057077407837,
          "247": 0.7036871910095215,
          "248": 1.8550655841827393,
          "249": 0.15758909285068512,
          "250": 0.2919826805591583,
          "251": -0.6653836369514465,
          "252": -0.37418416142463684,
          "253": -0.2179338037967682,
          "254": 1.2338523864746094,
          "255": -1.050744891166687,
          "256": 1.3289384841918945,
          "257": 1.6724915504455566,
          "258": -2.9273836612701416,
          "259": -0.8326668739318848,
          "260": 1.3665883541107178,
          "261": -0.008691557683050632,
          "262": -0.7842535972595215,
          "263": 0.0429668128490448,
          "264": -0.5967803001403809,
          "265": 0.21244195103645325,
          "266": -0.14104735851287842,
          "267": 0.17877867817878723,
          "268": -0.4601970911026001,
          "269": 0.10978354513645172,
          "270": -0.183760404586792,
          "271": -2.1666553020477295,
          "272": 2.78166127204895,
          "273": 2.2611942291259766,
          "274": -1.3903193473815918,
          "275": -2.0011117458343506,
          "276": 0.31097906827926636,
          "277": 0.7436742782592773,
          "278": -1.380001187324524,
          "279": -1.6187199354171753,
          "280": 0.09149417281150818,
          "281": 0.5311222672462463,
          "282": 2.0060324668884277,
          "283": 0.1552572101354599,
          "284": 2.1818361282348633,
          "285": -0.8694630265235901,
          "286": -0.44162142276763916,
          "287": -2.101069211959839,
          "288": 0.7087129354476929,
          "289": 1.8500946760177612,
          "290": -0.16134710609912872,
          "291": 2.6310365200042725,
          "292": 1.0227241516113281,
          "293": -1.5310306549072266,
          "294": -1.1401699781417847,
          "295": 2.145822286605835,
          "296": 1.067298173904419,
          "297": 0.6330009698867798,
          "298": 1.1088510751724243,
          "299": -0.4943140149116516,
          "300": -0.9436492919921875,
          "301": 1.2274879217147827,
          "302": -0.691664457321167,
          "303": -2.171382188796997,
          "304": 0.41116589307785034,
          "305": -0.9338830709457397,
          "306": -1.6835002899169922,
          "307": 1.154273509979248,
          "308": -0.25021862983703613,
          "309": 0.05560529977083206,
          "310": 1.7544044256210327,
          "311": 0.8747569918632507,
          "312": 1.45553719997406,
          "313": -2.259453535079956,
          "314": 4.35711669921875,
          "315": -0.4099825322628021,
          "316": -1.6507225036621094,
          "317": 2.058844804763794,
          "318": 0.02825262024998665,
          "319": 0.7201710939407349,
          "320": 0.6111658215522766,
          "321": 1.324684500694275,
          "322": -1.2168447971343994,
          "323": 1.602084755897522,
          "324": -1.4470394849777222,
          "325": 1.9581739902496338,
          "326": -2.7868826389312744,
          "327": 1.0297796726226807,
          "328": -1.2790063619613647,
          "329": 1.7921440601348877,
          "330": -0.07233750075101852,
          "331": -0.34845006465911865,
          "332": 1.9885518550872803,
          "333": 0.5141043663024902,
          "334": -0.7419336438179016,
          "335": 0.2619157135486603,
          "336": -0.7163916230201721,
          "337": -2.650510311126709,
          "338": 0.22912319004535675,
          "339": -1.6425713300704956,
          "340": 1.185786485671997,
          "341": 0.1842867136001587,
          "342": -0.020874908193945885,
          "343": 0.37261778116226196,
          "344": 0.4902207851409912,
          "345": -0.7569472193717957,
          "346": -0.20413926243782043,
          "347": -0.42927706241607666,
          "348": 0.9659284353256226,
          "349": -2.4695260524749756,
          "350": -0.3705690801143646,
          "351": -0.18932121992111206,
          "352": 0.9519438147544861,
          "353": 1.2234175205230713,
          "354": -1.259610891342163,
          "355": -0.054780710488557816,
          "356": -0.5699147582054138,
          "357": -0.35322684049606323,
          "358": 0.41756728291511536,
          "359": -0.03573250025510788,
          "360": -2.2227182388305664,
          "361": -0.42946872115135193,
          "362": 2.15460467338562,
          "363": -2.356569528579712,
          "364": 1.7371482849121094,
          "365": -0.13255690038204193,
          "366": 0.04127609729766846,
          "367": -0.1672431081533432,
          "368": -0.3945733606815338,
          "369": 0.19796432554721832,
          "370": 0.3101441264152527,
          "371": 2.3593571186065674,
          "372": -0.4980776607990265,
          "373": 0.05199705436825752,
          "374": 1.2611669301986694,
          "375": -2.826991081237793,
          "376": 1.1148066520690918,
          "377": -0.3288814425468445,
          "378": 0.11826694011688232,
          "379": -0.25696858763694763,
          "380": 1.3378764390945435,
          "381": -1.6337597370147705,
          "382": 0.14742714166641235,
          "383": -0.8859684467315674,
          "384": 0.3332497477531433,
          "385": 0.9512788653373718,
          "386": -0.7351989150047302,
          "387": 0.3303455710411072,
          "388": 0.6399367451667786,
          "389": -1.9177658557891846,
          "390": -1.765562891960144,
          "391": -0.9142916202545166,
          "392": -1.369638204574585,
          "393": 0.2918185889720917,
          "394": 1.520226001739502,
          "395": 0.47278061509132385,
          "396": 0.716072678565979,
          "397": 0.2664138972759247,
          "398": 0.5174102187156677,
          "399": 0.7037068605422974,
          "400": 0.12986186146736145,
          "401": 0.3813699185848236,
          "402": 0.10001520812511444,
          "403": 0.6273796558380127,
          "404": 1.950318455696106,
          "405": 1.864179015159607,
          "406": 0.21791109442710876,
          "407": -1.2900137901306152,
          "408": 0.842786967754364,
          "409": -0.4494326114654541,
          "410": 1.3682159185409546,
          "411": 1.3972980976104736,
          "412": 2.627049684524536,
          "413": -0.1297810673713684,
          "414": -0.08960054814815521,
          "415": -1.8399322032928467,
          "416": 3.068382978439331,
          "417": -0.5705177187919617,
          "418": 0.41484177112579346,
          "419": -0.2677101492881775,
          "420": -0.07137990742921829,
          "421": 1.158812403678894,
          "422": -0.9119125604629517,
          "423": -0.10058946162462234,
          "424": -1.6278927326202393,
          "425": -0.21298669278621674,
          "426": -0.9821405410766602,
          "427": -0.5990619659423828,
          "428": 2.244044780731201,
          "429": 0.2764212191104889,
          "430": -3.287391424179077,
          "431": 0.19470785558223724,
          "432": 0.9627454280853271,
          "433": 1.4720909595489502,
          "434": 0.866062581539154,
          "435": -0.45386555790901184,
          "436": 0.7371125221252441,
          "437": 1.0719479322433472,
          "438": 2.2728025913238525,
          "439": -4.096864700317383,
          "440": -1.3697848320007324,
          "441": 0.13042376935482025,
          "442": -1.2095966339111328,
          "443": -0.8136293888092041,
          "444": -0.4104095995426178,
          "445": -0.49794501066207886,
          "446": 2.070054054260254,
          "447": -1.4921294450759888,
          "448": -0.8264937996864319,
          "449": -0.4301595687866211,
          "450": -1.7626237869262695,
          "451": -0.5657957792282104,
          "452": -2.642990827560425,
          "453": 0.6846091151237488,
          "454": -0.6231440305709839,
          "455": 0.7869069576263428,
          "456": 0.6379944682121277,
          "457": 0.4348292052745819,
          "458": -0.10607140511274338,
          "459": 0.49532294273376465,
          "460": 1.582579493522644,
          "461": 1.120703935623169,
          "462": 1.5496160984039307,
          "463": 2.165300130844116,
          "464": 1.078208088874817,
          "465": 0.19464130699634552,
          "466": 0.8590713739395142,
          "467": -0.10163751244544983,
          "468": 2.368299722671509,
          "469": -3.07680082321167,
          "470": -1.2779237031936646,
          "471": -0.7968071103096008,
          "472": 2.040532350540161,
          "473": 1.9640213251113892,
          "474": -2.447441816329956,
          "475": 0.6508237719535828,
          "476": 0.5314807295799255,
          "477": -1.5599900484085083,
          "478": -0.73636794090271,
          "479": -1.3503117561340332,
          "480": -1.24803626537323,
          "481": -1.1700595617294312,
          "482": -0.5466639995574951,
          "483": 0.11825728416442871,
          "484": -0.04819883406162262,
          "485": 1.2649126052856445,
          "486": -1.1904206275939941,
          "487": -0.7266186475753784,
          "488": -1.2265660762786865,
          "489": -3.2673635482788086,
          "490": 0.6464639902114868,
          "491": 0.6423901319503784,
          "492": -0.32363441586494446,
          "493": 0.4128997027873993,
          "494": -1.6022695302963257,
          "495": 0.4462079405784607,
          "496": 1.132993221282959,
          "497": -1.3604971170425415,
          "498": 1.6614927053451538,
          "499": 0.5180795192718506,
          "500": -1.4869216680526733,
          "501": -0.22111719846725464,
          "502": 0.6103242039680481,
          "503": 1.8291168212890625,
          "504": 0.12944170832633972,
          "505": 1.496898889541626,
          "506": -1.67734956741333,
          "507": 0.5001083016395569,
          "508": -2.429304838180542,
          "509": 1.7309341430664062,
          "510": -1.1560354232788086,
          "511": -0.18578685820102692,
          "512": -0.5255136489868164,
          "513": -1.7852191925048828,
          "514": -4.875553131103516,
          "515": -1.323405385017395,
          "516": 1.4771437644958496,
          "517": -0.0059235491789877415,
          "518": -0.4324257969856262,
          "519": -2.4387667179107666,
          "520": 0.5827274918556213,
          "521": 0.3987569808959961,
          "522": -0.0297737754881382,
          "523": 1.1305087804794312,
          "524": 0.893131673336029,
          "525": 1.0289011001586914,
          "526": 2.3454549312591553,
          "527": -3.6808223724365234,
          "528": -1.7419157028198242,
          "529": 1.7028034925460815,
          "530": 0.5135046243667603,
          "531": -1.4385091066360474,
          "532": -0.6693727970123291,
          "533": -0.48605647683143616,
          "534": 1.2532851696014404,
          "535": 2.5325381755828857,
          "536": 1.7266815900802612,
          "537": 1.556355357170105,
          "538": -0.28886330127716064,
          "539": 0.1750010848045349,
          "540": 1.0125223398208618,
          "541": 3.7108285427093506,
          "542": 0.23094169795513153,
          "543": -0.15973025560379028,
          "544": -2.4563562870025635,
          "545": -1.5358401536941528,
          "546": 3.614229440689087,
          "547": -0.7697490453720093,
          "548": -1.4977166652679443,
          "549": 2.0592172145843506,
          "550": 0.9226816892623901,
          "551": -1.9303339719772339,
          "552": 0.4661754071712494,
          "553": 0.10649947077035904,
          "554": -0.3834831416606903,
          "555": 0.5091924071311951,
          "556": -2.721905469894409,
          "557": -2.554499626159668,
          "558": -2.177443027496338,
          "559": 0.16961495578289032,
          "560": 0.9739344716072083,
          "561": 1.938984751701355,
          "562": -1.3078759908676147,
          "563": 0.021184073761105537,
          "564": -1.166276454925537,
          "565": -0.8332586884498596,
          "566": -0.603985607624054,
          "567": -3.5519137382507324,
          "568": -1.2369157075881958,
          "569": 0.9555604457855225,
          "570": 5.401181697845459,
          "571": -0.520201563835144,
          "572": -0.7808663249015808,
          "573": -2.925489902496338,
          "574": -0.9697750806808472,
          "575": 0.29792141914367676,
          "576": 1.225804328918457,
          "577": 0.4691358208656311,
          "578": 1.46442449092865,
          "579": 0.2578158676624298,
          "580": 0.007777049671858549,
          "581": -3.4038989543914795,
          "582": -0.6022762656211853,
          "583": 1.9503540992736816,
          "584": -1.0024147033691406,
          "585": 0.09881371259689331,
          "586": -1.039423942565918,
          "587": 0.6480877995491028,
          "588": -0.3028360605239868,
          "589": 0.6208876967430115,
          "590": -3.09076189994812,
          "591": -2.45971941947937,
          "592": 2.1619575023651123,
          "593": -1.9013615846633911,
          "594": 0.6756809949874878,
          "595": -0.25411245226860046,
          "596": 0.596379816532135,
          "597": -2.796710252761841,
          "598": -1.5151375532150269,
          "599": 0.2730329632759094,
          "600": 2.034489631652832,
          "601": -0.24343320727348328,
          "602": 0.2764875292778015,
          "603": -0.21079888939857483,
          "604": -1.36753511428833,
          "605": -0.7986241579055786,
          "606": -0.009010661393404007,
          "607": -2.434852361679077,
          "608": 1.1825110912322998,
          "609": 0.2936289310455322,
          "610": -1.4225784540176392,
          "611": -1.6249417066574097,
          "612": 0.27492180466651917,
          "613": -0.15872229635715485,
          "614": -2.52412748336792,
          "615": 0.07749706506729126,
          "616": -0.16398656368255615,
          "617": 0.008826646953821182,
          "618": 3.3656458854675293,
          "619": 0.26860311627388,
          "620": -1.1293634176254272,
          "621": 1.3428120613098145,
          "622": 0.401194304227829,
          "623": -1.4679176807403564,
          "624": 1.867316722869873,
          "625": 2.0003371238708496,
          "626": -0.5031527876853943,
          "627": 0.9114193916320801,
          "628": 0.8923376202583313,
