{
  "type": "LSTM",
  "options": {
    "inputSize": 47,
    "inputRange": 47,
    "hiddenLayers": [
      20,
      20
    ],
    "outputSize": 47,
    "decayRate": 0.999,
    "smoothEps": 1e-8,
    "regc": 0.000001,
    "clipval": 5,
    "maxPredictionLength": 100,
    "dataFormatter": {
      "values": [
        "Adobe",
        "Appreciate every day",
        "What is the meaning of life?",
        "boston",
        "copy file into docker container",
        "docker cp ./some_file CONTAINER:/work",
        "favorite city",
        "favorite cloud",
        "favorite company to work for",
        "favorite food",
        "favorite rock",
        "favorite state",
        "git pull origin --rebase",
        "how to clean node cache",
        "how to rebase in git",
        "how to run nodejs file on command line",
        "how to view all ports being used on mac",
        "igneous",
        "mass",
        "node --experimental-modules src/file.js",
        "npm cache clean --force",
        "pizza",
        "stratus",
        "sudo lsof -iTCP -sTCP:LISTEN -n -P"
      ],
      "indexTable": {
        "A": 0,
        "d": 1,
        "o": 2,
        "b": 3,
        "e": 4,
        "p": 5,
        "r": 6,
        "c": 7,
        "i": 8,
        "a": 9,
        "t": 10,
        " ": 11,
        "v": 12,
        "y": 13,
        "W": 14,
        "h": 15,
        "s": 16,
        "m": 17,
        "n": 18,
        "g": 19,
        "f": 20,
        "l": 21,
        "?": 22,
        "k": 23,
        ".": 24,
        "/": 25,
        "_": 26,
        "C": 27,
        "O": 28,
        "N": 29,
        "T": 30,
        "I": 31,
        "E": 32,
        "R": 33,
        ":": 34,
        "w": 35,
        "u": 36,
        "-": 37,
        "j": 38,
        "x": 39,
        "z": 40,
        "P": 41,
        "L": 42,
        "S": 43,
        "stop-input": 44,
        "start-output": 45,
        "unrecognized": 46
      },
      "characterTable": {
        "0": "A",
        "1": "d",
        "2": "o",
        "3": "b",
        "4": "e",
        "5": "p",
        "6": "r",
        "7": "c",
        "8": "i",
        "9": "a",
        "10": "t",
        "11": " ",
        "12": "v",
        "13": "y",
        "14": "W",
        "15": "h",
        "16": "s",
        "17": "m",
        "18": "n",
        "19": "g",
        "20": "f",
        "21": "l",
        "22": "?",
        "23": "k",
        "24": ".",
        "25": "/",
        "26": "_",
        "27": "C",
        "28": "O",
        "29": "N",
        "30": "T",
        "31": "I",
        "32": "E",
        "33": "R",
        "34": ":",
        "35": "w",
        "36": "u",
        "37": "-",
        "38": "j",
        "39": "x",
        "40": "z",
        "41": "P",
        "42": "L",
        "43": "S",
        "44": null,
        "45": null,
        "46": null
      },
      "characters": [
        "A",
        "d",
        "o",
        "b",
        "e",
        "p",
        "r",
        "c",
        "i",
        "a",
        "t",
        " ",
        "v",
        "y",
        "W",
        "h",
        "s",
        "m",
        "n",
        "g",
        "f",
        "l",
        "?",
        "k",
        ".",
        "/",
        "_",
        "C",
        "O",
        "N",
        "T",
        "I",
        "E",
        "R",
        ":",
        "w",
        "u",
        "-",
        "j",
        "x",
        "z",
        "P",
        "L",
        "S",
        "stop-input",
        "start-output",
        "unrecognized"
      ],
      "specialIndexes": [
        44,
        45,
        46
      ]
    }
  },
  "input": {
    "rows": 48,
    "columns": 47,
    "weights": {
      "0": 0.7263440489768982,
      "1": -0.6632325649261475,
      "2": -0.5206927061080933,
      "3": -0.11771653592586517,
      "4": -0.5871697664260864,
      "5": 0.19891852140426636,
      "6": -0.06009998545050621,
      "7": 0.19745373725891113,
      "8": -0.8184228539466858,
      "9": -0.12221917510032654,
      "10": -0.5190994739532471,
      "11": 1.0537294149398804,
      "12": 0.5705811977386475,
      "13": -1.4280282258987427,
      "14": 1.924180269241333,
      "15": 1.0371662378311157,
      "16": 0.5625403523445129,
      "17": -0.6888076663017273,
      "18": 1.1223143339157104,
      "19": -1.034736156463623,
      "20": -1.0828721523284912,
      "21": -0.05209536477923393,
      "22": -0.6737357378005981,
      "23": -0.06187320128083229,
      "24": -1.9629381895065308,
      "25": -0.19186057150363922,
      "26": -0.835261881351471,
      "27": -0.6935627460479736,
      "28": 1.4538551568984985,
      "29": -0.48705896735191345,
      "30": 0.537905216217041,
      "31": -0.09317551553249359,
      "32": 0.7733885645866394,
      "33": 0.030531685799360275,
      "34": 0.22993484139442444,
      "35": -0.20675702393054962,
      "36": -0.4963497519493103,
      "37": -0.44389137625694275,
      "38": -0.5097181797027588,
      "39": 1.132587194442749,
      "40": -0.37853729724884033,
      "41": -0.03994740545749664,
      "42": 0.30330440402030945,
      "43": -1.715622067451477,
      "44": 0.9589062333106995,
      "45": -0.33601051568984985,
      "46": 0.689440906047821,
      "47": -0.39911168813705444,
      "48": 3.7832164764404297,
      "49": 5.201429843902588,
      "50": -2.796027421951294,
      "51": 4.225148677825928,
      "52": 8.84707260131836,
      "53": -3.3660171031951904,
      "54": 1.8434946537017822,
      "55": 0.2910020351409912,
      "56": 0.08595646917819977,
      "57": 1.4105041027069092,
      "58": -1.2197487354278564,
      "59": 0.8074036836624146,
      "60": -3.9276866912841797,
      "61": -1.0032179355621338,
      "62": -0.1075625866651535,
      "63": -2.1238455772399902,
      "64": -1.7047317028045654,
      "65": -2.526108980178833,
      "66": 5.541258811950684,
      "67": -0.3144555389881134,
      "68": 0.17391806840896606,
      "69": -0.9934019446372986,
      "70": 3.4171364307403564,
      "71": -3.352277994155884,
      "72": -0.3562557101249695,
      "73": -3.3823084831237793,
      "74": -1.6817984580993652,
      "75": 3.4633774757385254,
      "76": 1.8056617975234985,
      "77": 2.4236114025115967,
      "78": 2.6523561477661133,
      "79": -1.0180643796920776,
      "80": 4.947198390960693,
      "81": 1.8236100673675537,
      "82": 4.965364456176758,
      "83": 0.1416976898908615,
      "84": -2.0330114364624023,
      "85": 0.4073212146759033,
      "86": 4.945808410644531,
      "87": 1.135913372039795,
      "88": -0.8995184898376465,
      "89": -1.840623140335083,
      "90": -0.3271234333515167,
      "91": -4.449263572692871,
      "92": -2.2485358715057373,
      "93": -2.8728015422821045,
      "94": -2.1067447662353516,
      "95": 0.32547274231910706,
      "96": 0.339606910943985,
      "97": 0.9575107097625732,
      "98": 1.4006479978561401,
      "99": 2.341707706451416,
      "100": -1.6143254041671753,
      "101": 1.112987756729126,
      "102": 1.560645580291748,
      "103": -0.6931488513946533,
      "104": 0.0451589934527874,
      "105": -0.7805721163749695,
      "106": 0.3387037515640259,
      "107": 0.04724836349487305,
      "108": -0.45367348194122314,
      "109": -1.7872625589370728,
      "110": -1.298957109451294,
      "111": 1.4824687242507935,
      "112": -1.2973545789718628,
      "113": 0.9967256188392639,
      "114": 1.1075139045715332,
      "115": 0.9670656323432922,
      "116": -0.879902720451355,
      "117": -0.08610929548740387,
      "118": -0.7469667792320251,
      "119": 1.1071336269378662,
      "120": 1.831371784210205,
      "121": 1.7318593263626099,
      "122": 0.8290193676948547,
      "123": 0.6973991990089417,
      "124": -1.2418196201324463,
      "125": 1.062651515007019,
      "126": 1.860771894454956,
      "127": 0.7949791550636292,
      "128": 0.3689233660697937,
      "129": 0.09251685440540314,
      "130": 0.8341266512870789,
      "131": 1.134690284729004,
      "132": 0.1566707342863083,
      "133": 0.6436335444450378,
      "134": 1.1984272003173828,
      "135": 0.9357967376708984,
      "136": 0.5576257705688477,
      "137": 0.9470593333244324,
      "138": -2.5735042095184326,
      "139": 0.036031272262334824,
      "140": -0.0289866104722023,
      "141": 0.6735440492630005,
      "142": 0.15616196393966675,
      "143": 0.4244921803474426,
      "144": -1.4968065023422241,
      "145": 0.5656238794326782,
      "146": 1.3750454187393188,
      "147": -2.593423843383789,
      "148": -0.31524109840393066,
      "149": 1.2214590311050415,
      "150": -1.3430461883544922,
      "151": -0.38505980372428894,
      "152": 0.40533241629600525,
      "153": 0.6726577877998352,
      "154": 0.09162049740552902,
      "155": 0.05577521771192551,
      "156": 0.8922992944717407,
      "157": 1.8116512298583984,
      "158": 0.6194149255752563,
      "159": -0.8505262136459351,
      "160": 1.5491665601730347,
      "161": -0.5745413899421692,
      "162": -0.6038395166397095,
      "163": 1.9816144704818726,
      "164": 0.3074134290218353,
      "165": 2.3960490226745605,
      "166": 0.05501167103648186,
      "167": -1.7652539014816284,
      "168": -2.6618640422821045,
      "169": 0.12496639788150787,
      "170": -1.281200885772705,
      "171": 0.57452392578125,
      "172": -0.5891776084899902,
      "173": 0.19181743264198303,
      "174": 0.7160381078720093,
      "175": -0.8865331411361694,
      "176": 0.220058873295784,
      "177": -2.0648059844970703,
      "178": -1.6615800857543945,
      "179": 0.6362025737762451,
      "180": -0.28578412532806396,
      "181": 0.20058496296405792,
      "182": 0.9920693039894104,
      "183": 0.2935950756072998,
      "184": 0.707675039768219,
      "185": -0.0137386005371809,
      "186": -2.619205951690674,
      "187": 0.10441619902849197,
      "188": -0.31373631954193115,
      "189": 0.025328846648335457,
      "190": 1.6098511219024658,
      "191": 0.6820962429046631,
      "192": 1.9239575862884521,
      "193": 2.1489098072052,
      "194": -3.0082778930664062,
      "195": 3.2518703937530518,
      "196": 3.1035444736480713,
      "197": -1.3453054428100586,
      "198": -0.032556887716054916,
      "199": -0.11077708005905151,
      "200": 0.6915590167045593,
      "201": 4.536846160888672,
      "202": -0.7311652302742004,
      "203": -2.918388605117798,
      "204": -1.8215919733047485,
      "205": 3.8948733806610107,
      "206": -2.8197286128997803,
      "207": 3.466520071029663,
      "208": 0.7192250490188599,
      "209": -0.24851083755493164,
      "210": -1.876192569732666,
      "211": -2.5035400390625,
      "212": 2.318901538848877,
      "213": 3.730661153793335,
      "214": 2.183656930923462,
      "215": 0.2808627784252167,
      "216": -1.6379694938659668,
      "217": 2.3437421321868896,
      "218": -1.8804106712341309,
      "219": -0.5267166495323181,
      "220": -0.9632396101951599,
      "221": -1.2806472778320312,
      "222": -0.2381516993045807,
      "223": -1.8965845108032227,
      "224": 0.6455875039100647,
      "225": 3.5208489894866943,
      "226": -1.2616146802902222,
      "227": 3.3540608882904053,
      "228": 1.707740068435669,
      "229": 0.046725764870643616,
      "230": 0.08093135803937912,
      "231": 3.0661747455596924,
      "232": -2.042984962463379,
      "233": 0.34927278757095337,
      "234": -2.459707260131836,
      "235": 0.3251489996910095,
      "236": -0.13387387990951538,
      "237": -0.5401181578636169,
      "238": 0.2890430688858032,
      "239": -1.7095105648040771,
      "240": -1.2891507148742676,
      "241": 1.0627096891403198,
      "242": 0.6346465945243835,
      "243": 0.17750251293182373,
      "244": 0.14225943386554718,
      "245": -0.6811944246292114,
      "246": 0.09856979548931122,
      "247": 0.07987304776906967,
      "248": 2.77424693107605,
      "249": -2.03615140914917,
      "250": -0.8030025362968445,
      "251": 0.07604198902845383,
      "252": 0.33525630831718445,
      "253": -0.1796354353427887,
      "254": -1.0301607847213745,
      "255": 0.7144280076026917,
      "256": 0.21932101249694824,
      "257": -0.05651186406612396,
      "258": -2.0435266494750977,
      "259": 0.0862264409661293,
      "260": 0.4089321792125702,
      "261": 0.3384155035018921,
      "262": 1.8274942636489868,
      "263": -2.5655977725982666,
      "264": 0.5172138214111328,
      "265": -1.4194759130477905,
      "266": 0.3822788894176483,
      "267": -0.24822983145713806,
      "268": -2.941549777984619,
      "269": -1.6096996068954468,
      "270": -2.618396759033203,
      "271": -0.019262103363871574,
      "272": 1.0785679817199707,
      "273": -0.44394639134407043,
      "274": 1.4773656129837036,
      "275": -0.6708904504776001,
      "276": -0.19657643139362335,
      "277": 0.3946645259857178,
      "278": 1.0328116416931152,
      "279": -1.136646032333374,
      "280": 1.3037587404251099,
      "281": -0.4474942088127136,
      "282": 0.2090959995985031,
      "283": -0.4585995078086853,
      "284": -0.420688271522522,
      "285": 2.331129312515259,
      "286": -0.6254366636276245,
      "287": 1.2384936809539795,
      "288": 0.9620176553726196,
      "289": 0.021632855758070946,
      "290": -0.5131543874740601,
      "291": 1.4661206007003784,
      "292": -0.873308539390564,
      "293": -0.8791094422340393,
      "294": -0.3465019762516022,
      "295": 0.07486742734909058,
      "296": 0.34741970896720886,
      "297": -1.4580824375152588,
      "298": 1.3565605878829956,
      "299": 3.75453782081604,
      "300": 0.12723180651664734,
      "301": -0.35705283284187317,
      "302": -0.47099170088768005,
      "303": -1.694471836090088,
      "304": 0.28605079650878906,
      "305": -0.7868449687957764,
      "306": -0.19865310192108154,
      "307": -0.6061699390411377,
      "308": 4.018413066864014,
      "309": -0.6703632473945618,
      "310": -1.8213814496994019,
      "311": 2.5834901332855225,
      "312": 0.9267423152923584,
      "313": -1.1341650485992432,
      "314": -0.08305840939283371,
      "315": -0.296965628862381,
      "316": -2.0811495780944824,
      "317": 0.1191677451133728,
      "318": 0.42268893122673035,
      "319": 3.782100200653076,
      "320": -1.8113229274749756,
      "321": -0.7166662812232971,
      "322": -0.9608563184738159,
      "323": -2.65501070022583,
      "324": 0.21823737025260925,
      "325": 0.06472688168287277,
      "326": 1.0077269077301025,
      "327": 0.4885590374469757,
      "328": -1.658069372177124,
      "329": 0.52994304895401,
      "330": -1.757949948310852,
      "331": 0.4262883961200714,
      "332": -0.8568546175956726,
      "333": 0.3309018611907959,
      "334": 1.6130270957946777,
      "335": -1.4280227422714233,
      "336": -2.9232962131500244,
      "337": 1.356223464012146,
      "338": -1.5662287473678589,
      "339": -1.2753729820251465,
      "340": 0.8832269310951233,
      "341": -0.2422139048576355,
      "342": 0.4122796356678009,
      "343": 0.5474327802658081,
      "344": 1.0806423425674438,
      "345": 0.4705527126789093,
      "346": -3.33357834815979,
      "347": 0.4764028787612915,
      "348": 0.9252374768257141,
      "349": 0.4210880398750305,
      "350": 0.8191331028938293,
      "351": -0.8797129392623901,
      "352": -0.3610161244869232,
      "353": 0.9419124722480774,
      "354": -0.2992026209831238,
      "355": -3.7162365913391113,
      "356": -0.8879004120826721,
      "357": 0.8899609446525574,
      "358": -2.8111467361450195,
      "359": 0.1524449735879898,
      "360": 0.08232295513153076,
      "361": 1.292847752571106,
      "362": -0.05123536288738251,
      "363": -0.538851797580719,
      "364": -0.2673356831073761,
      "365": -1.19431734085083,
      "366": -3.641387939453125,
      "367": 0.8649757504463196,
      "368": -0.6845207214355469,
      "369": 0.6306558847427368,
      "370": 2.245957612991333,
      "371": -0.6409725546836853,
      "372": 0.47579270601272583,
      "373": -1.5081229209899902,
      "374": -1.068602442741394,
      "375": 0.8085220456123352,
      "376": -0.912896990776062,
      "377": -0.6620649099349976,
      "378": -0.9761048555374146,
      "379": -0.3481023907661438,
      "380": -0.5037810802459717,
      "381": -2.131516456604004,
      "382": 0.768363356590271,
      "383": -0.07575354725122452,
      "384": -0.21990811824798584,
      "385": 0.5798096656799316,
      "386": 0.24715028703212738,
      "387": 1.7005239725112915,
      "388": 0.25579291582107544,
      "389": 0.018787436187267303,
      "390": -0.048457786440849304,
      "391": 0.6663949489593506,
      "392": -0.2752062678337097,
      "393": -1.9779313802719116,
      "394": 1.1247154474258423,
      "395": -0.8378309011459351,
      "396": 2.182246446609497,
      "397": -0.16685250401496887,
      "398": -0.5388296246528625,
      "399": -0.9760406017303467,
      "400": -0.10995302349328995,
      "401": -0.04068867862224579,
      "402": -1.083089828491211,
      "403": 0.4868505299091339,
      "404": 0.16325733065605164,
      "405": -0.39887535572052,
      "406": 0.18854467570781708,
      "407": 2.2604868412017822,
      "408": -0.48162877559661865,
      "409": -2.1035666465759277,
      "410": 0.12488413602113724,
      "411": -0.44891154766082764,
      "412": 1.2072606086730957,
      "413": -0.9730889201164246,
      "414": 0.10597940534353256,
      "415": 0.1193145141005516,
      "416": 1.093361735343933,
      "417": 1.4070550203323364,
      "418": -1.1584794521331787,
      "419": 2.5220422744750977,
      "420": 0.39370283484458923,
      "421": -0.11831127107143402,
      "422": 1.2887259721755981,
      "423": 0.01666237972676754,
      "424": -0.049981918185949326,
      "425": -0.2976160943508148,
      "426": 1.587826132774353,
      "427": -0.4426281750202179,
      "428": -0.5421983003616333,
      "429": 0.9981903433799744,
      "430": -2.164517641067505,
      "431": 0.9023785591125488,
      "432": 1.085659146308899,
      "433": -0.3885223865509033,
      "434": 0.8463670015335083,
      "435": 0.20638568699359894,
      "436": 1.8613985776901245,
      "437": -0.7382052540779114,
      "438": 2.560177803039551,
      "439": 0.5863863825798035,
      "440": -0.2985112965106964,
      "441": 0.4995129108428955,
      "442": -1.1470457315444946,
      "443": 0.12035050988197327,
      "444": -0.20282740890979767,
      "445": 0.12582102417945862,
      "446": 0.88429856300354,
      "447": 1.1746182441711426,
      "448": 0.8718640804290771,
      "449": 0.9794120192527771,
      "450": -0.7327675819396973,
      "451": -0.10337598621845245,
      "452": 0.5762960314750671,
      "453": 1.103672742843628,
      "454": -0.3137843608856201,
      "455": 0.11788874119520187,
      "456": -0.060861583799123764,
      "457": -0.4600176215171814,
      "458": 0.9574700593948364,
      "459": -0.6580964922904968,
      "460": -0.5256811380386353,
      "461": -1.251044511795044,
      "462": -3.037609338760376,
      "463": -0.37402603030204773,
      "464": -0.8324731588363647,
      "465": -0.1593472957611084,
      "466": 1.1171492338180542,
      "467": 2.1118602752685547,
      "468": -1.5336438417434692,
      "469": 0.45674678683280945,
      "470": -0.10462235659360886,
      "471": -2.1601438522338867,
      "472": 0.032878272235393524,
      "473": -0.2849600315093994,
      "474": 0.834114670753479,
      "475": 0.5490361452102661,
      "476": 0.1060042604804039,
      "477": -2.700556755065918,
      "478": 1.48704195022583,
      "479": -0.6323159337043762,
      "480": 0.020221523940563202,
      "481": -0.26959240436553955,
      "482": 0.23873434960842133,
      "483": 0.8636236786842346,
      "484": 1.1735669374465942,
      "485": 1.398320198059082,
      "486": -2.431560516357422,
      "487": -3.2936971187591553,
      "488": 2.0173704624176025,
      "489": 1.237500548362732,
      "490": 2.143629550933838,
      "491": 0.8971554636955261,
      "492": -0.53117436170578,
      "493": -1.1680728197097778,
      "494": 1.6803864240646362,
      "495": -0.8493460416793823,
      "496": -2.6566333770751953,
      "497": -1.0997744798660278,
      "498": 0.10002336651086807,
      "499": 0.5279847979545593,
      "500": 1.2380115985870361,
      "501": 2.6618547439575195,
      "502": 1.6248751878738403,
      "503": 0.4079500138759613,
      "504": 1.1313499212265015,
      "505": -0.007393563631922007,
      "506": 0.028116300702095032,
      "507": -1.3104232549667358,
      "508": 0.3967636227607727,
      "509": -1.2803881168365479,
      "510": 1.1742526292800903,
      "511": 2.7366607189178467,
      "512": -1.3272160291671753,
      "513": 1.0246762037277222,
      "514": 0.20655712485313416,
      "515": -2.2205302715301514,
      "516": -0.23883140087127686,
      "517": 1.4559600353240967,
      "518": -0.37134218215942383,
      "519": -0.9865369200706482,
      "520": -0.1605200320482254,
      "521": -0.6038743257522583,
      "522": -0.6775773167610168,
      "523": -1.6709163188934326,
      "524": 0.6373186111450195,
      "525": -1.0871572494506836,
      "526": -0.7991142272949219,
      "527": -1.6473089456558228,
      "528": -0.19685149192810059,
      "529": 0.6620628833770752,
      "530": 1.2020589113235474,
      "531": 0.7186524271965027,
      "532": -0.8141407370567322,
      "533": -0.05080393701791763,
      "534": 0.28806591033935547,
      "535": -0.7533740997314453,
      "536": -0.48250818252563477,
      "537": -1.6352887153625488,
      "538": -1.3314344882965088,
      "539": -0.5408738851547241,
      "540": -1.8019636869430542,
      "541": 0.13156291842460632,
      "542": 0.23281794786453247,
      "543": -1.0697345733642578,
      "544": -1.588377833366394,
      "545": -0.9330170750617981,
      "546": -0.558090090751648,
      "547": -0.7297709584236145,
      "548": -2.166400909423828,
      "549": -0.8838203549385071,
      "550": -0.08622702956199646,
      "551": -1.0430834293365479,
      "552": -1.4818294048309326,
      "553": -1.997626781463623,
      "554": 0.5758625268936157,
      "555": 0.3060782849788666,
      "556": 1.7406655550003052,
      "557": 1.3898719549179077,
      "558": -0.1466970294713974,
      "559": 0.8424445390701294,
      "560": 0.012145229615271091,
      "561": -0.7666975259780884,
      "562": -1.1933201551437378,
      "563": 1.175215482711792,
      "564": -0.38560453057289124,
      "565": -1.6947423219680786,
      "566": 1.3489513397216797,
      "567": -1.321738362312317,
      "568": -1.369572401046753,
      "569": -3.063184976577759,
      "570": 2.892742872238159,
      "571": -0.5741586089134216,
      "572": 2.123159170150757,
      "573": -0.44060149788856506,
      "574": 1.2507551908493042,
      "575": 1.0277589559555054,
      "576": -1.0668349266052246,
      "577": 0.3350240886211395,
      "578": -2.2383484840393066,
      "579": -0.45329487323760986,
      "580": -3.7309398651123047,
      "581": -1.8077356815338135,
      "582": 1.2642621994018555,
      "583": -1.2018845081329346,
      "584": 0.08691205084323883,
      "585": 0.9500768780708313,
      "586": -0.6282722353935242,
      "587": -3.0521605014801025,
      "588": -1.3811784982681274,
      "589": 0.5049977898597717,
      "590": -0.8742809891700745,
      "591": 2.556555986404419,
      "592": -1.0323106050491333,
      "593": -0.27677562832832336,
      "594": -2.0331485271453857,
      "595": 2.148206949234009,
      "596": -0.13617289066314697,
      "597": -0.9546211957931519,
      "598": 0.7989612817764282,
      "599": -3.7772486209869385,
      "600": 0.531599760055542,
      "601": -0.783953070640564,
      "602": 0.532318651676178,
      "603": 1.2161942720413208,
      "604": 0.35939860343933105,
      "605": 1.1530464887619019,
      "606": -1.7662333250045776,
      "607": -0.3911242187023163,
      "608": -1.5480279922485352,
      "609": 1.1303147077560425,
      "610": 1.0897010564804077,
      "611": -1.0291664600372314,
      "612": -0.8909875154495239,
      "613": 1.0888423919677734,
      "614": -0.7465143799781799,
      "615": 2.5512731075286865,
      "616": 3.2510604858398438,
      "617": -2.0453295707702637,
      "618": 0.28129762411117554,
      "619": 0.33581894636154175,
      "620": -2.8275983333587646,
      "621": 0.33973270654678345,
      "622": -1.288109302520752,
      "623": -1.6602156162261963,
      "624": 0.4043118953704834,
      "625": 1.4084572792053223,
      "626": 0.2555118501186371,
      "627": -0.011253740638494492,
      "628": -2.381894588470459,
      "629": 0.7283397912979126,
      "630": 3.417862892150879,
      "631": 0.49872276186943054,
      "632": -1.3508117198944092,
      "633": 0.3341763913631439,
      "634": 0.6847208142280579,
      "635": 1.739001989364624,
      "636": -2.3237721920013428,
      "637": -0.3528105616569519,
      "638": 0.017801932990550995,
      "639": -1.6449429988861084,
      "640": 0.8080973625183105,
      "641": 1.400262713432312,
      "642": -0.35434165596961975,
      "643": 1.332586407661438,
      "644": 2.082580089569092,
      "645": 0.21046845614910126,
      "646": 1.6810845136642456,
      "647": 1.0049678087234497,
      "648": 0.19076663255691528,
      "649": 1.1396318674087524,
      "650": -1.4520787000656128,
      "651": 1.0565630197525024,
      "652": -1.1121747493743896,
      "653": -0.546913206577301,
      "654": 1.251147985458374,
      "655": 0.5845197439193726,
      "656": 0.6468145251274109,
      "657": -0.6970757246017456,
      "658": -4.9008402824401855,
      "659": 0.7812545895576477,
      "660": -2.108783721923828,
      "661": -0.7179746627807617,
      "662": 3.658730983734131,
      "663": 0.01427571102976799,
      "664": -1.2976720333099365,
      "665": 0.785560667514801,
      "666": 0.16104008257389069,
      "667": -1.1894571781158447,
      "668": -1.1073286533355713,
      "669": -1.8147411346435547,
      "670": -2.2811434268951416,
      "671": 0.4632512927055359,
      "672": -3.4508297443389893,
      "673": -0.9882543683052063,
      "674": 0.4323626160621643,
      "675": -0.199775829911232,
      "676": 0.13397768139839172,
      "677": 1.062901258468628,
      "678": -0.6974360942840576,
      "679": -0.4114241600036621,
      "680": 0.19192254543304443,
      "681": 2.788142204284668,
      "682": -1.8097013235092163,
      "683": -1.4621444940567017,
      "684": 2.2154958248138428,
      "685": 3.9318671226501465,
      "686": -2.5562307834625244,
      "687": 2.3468739986419678,
      "688": -3.6926703453063965,
      "689": -0.3258478045463562,
      "690": -0.9893578290939331,
      "691": -0.9850990772247314,
      "692": -2.1357810497283936,
      "693": 2.5615389347076416,
      "694": 3.931151866912842,
      "695": 3.4136745929718018,
      "696": -0.2840467393398285,
      "697": 0.8387427926063538,
      "698": -0.9045308828353882,
      "699": 0.03468658775091171,
      "700": 1.856811761856079,
      "701": -0.1481737643480301,
      "702": 0.6929481029510498,
      "703": 1.7613117694854736,
      "704": -0.39339679479599,
      "705": 2.1088180541992188,
      "706": 0.4787716269493103,
      "707": -5.319705009460449,
      "708": 2.534512996673584,
      "709": -1.4797990322113037,
      "710": -1.3662022352218628,
      "711": 5.929424285888672,
      "712": -3.1296396255493164,
      "713": 0.4935358762741089,
      "714": 4.102006912231445,
      "715": -3.8599395751953125,
      "716": 4.0048747062683105,
      "717": 0.30368858575820923,
      "718": 0.929858922958374,
      "719": 5.221071243286133,
      "720": 5.416939735412598,
      "721": -3.952240467071533,
      "722": -0.3903333246707916,
      "723": 5.430666923522949,
      "724": -4.205851078033447,
      "725": -0.11802937090396881,
      "726": 3.681637763977051,
      "727": -8.601930618286133,
      "728": -0.41545286774635315,
      "729": -4.614831924438477,
      "730": 7.218747615814209,
      "731": -3.5263240337371826,
      "732": 0.28470978140830994,
      "733": -1.4770337343215942,
      "734": -1.9830243587493896,
      "735": 1.3613868951797485,
      "736": 2.084019184112549,
      "737": 3.29612135887146,
      "738": -2.7387185096740723,
      "739": 2.5742335319519043,
      "740": -3.2211358547210693,
      "741": -2.474513053894043,
      "742": -0.510115385055542,
      "743": -2.7587263584136963,
      "744": 0.7179396748542786,
      "745": -1.9903178215026855,
      "746": 6.706397533416748,
      "747": -0.5812413692474365,
      "748": -3.5845227241516113,
      "749": 4.82046365737915,
      "750": 4.000766277313232,
      "751": 3.1095309257507324,
      "752": 0.3777349591255188,
      "753": 0.4900515675544739,
      "754": 3.859196186065674,
      "755": -2.508881092071533,
      "756": -2.6540145874023438,
      "757": 2.5373523235321045,
      "758": -0.6931025981903076,
      "759": 0.3250459134578705,
      "760": 0.4207841157913208,
      "761": -0.34637898206710815,
      "762": 4.046938419342041,
      "763": -1.2697782516479492,
      "764": -1.8612786531448364,
      "765": 2.6717233657836914,
      "766": -4.416917324066162,
      "767": -3.1105942726135254,
      "768": 0.13916711509227753,
      "769": 1.6814168691635132,
      "770": -1.3638787269592285,
      "771": -0.7559881806373596,
      "772": -0.749106228351593,
      "773": 1.2550768852233887,
      "774": 3.882974147796631,
      "775": -1.1059257984161377,
      "776": 0.21206682920455933,
      "777": 2.3876705169677734,
      "778": 0.28693687915802,
      "779": 2.7370798587799072,
      "780": 2.462731122970581,
      "781": -1.4108778238296509,
      "782": -4.847192287445068,
      "783": -0.4696821868419647,
      "784": 0.33179423213005066,
      "785": 0.3716118633747101,
      "786": 1.264622688293457,
      "787": -1.5944650173187256,
      "788": -1.786474347114563,
      "789": -1.4072366952896118,
      "790": -0.18754436075687408,
      "791": -0.09183397144079208,
      "792": 2.301246404647827,
      "793": -0.24058297276496887,
      "794": -0.5989975929260254,
      "795": -0.5466814041137695,
      "796": -2.7120227813720703,
      "797": -0.7495944499969482,
      "798": -3.458261489868164,
      "799": 0.7807004451751709,
      "800": -0.30451810359954834,
      "801": -1.036882996559143,
      "802": -0.4544074833393097,
      "803": 0.16886556148529053,
      "804": -0.8347399830818176,
      "805": -1.5167229175567627,
      "806": 0.388283371925354,
      "807": -0.5237590074539185,
      "808": -2.1958460807800293,
      "809": -1.105246663093567,
      "810": 0.20385169982910156,
      "811": 0.6581704020500183,
      "812": 2.004585027694702,
      "813": 0.23978929221630096,
      "814": -1.8288919925689697,
      "815": -1.446239948272705,
      "816": -2.7046873569488525,
      "817": -0.24106518924236298,
      "818": -0.04488449916243553,
      "819": 0.6492803692817688,
      "820": 1.902642846107483,
      "821": -1.8082953691482544,
      "822": -0.8149253129959106,
      "823": 0.8708323240280151,
      "824": 1.1252591609954834,
      "825": -1.1696527004241943,
      "826": -0.7919585704803467,
      "827": 2.4720163345336914,
      "828": -2.445535659790039,
      "829": -0.8736976385116577,
      "830": 1.1940990686416626,
      "831": 0.027064582332968712,
      "832": -0.14310018718242645,
      "833": 2.8390915393829346,
      "834": 0.3437902629375458,
      "835": -0.39017367362976074,
      "836": 0.1630878746509552,
      "837": -0.6495909690856934,
      "838": -0.7546052932739258,
      "839": 2.907703399658203,
      "840": 1.2790173292160034,
      "841": -0.06048666313290596,
      "842": -1.5628557205200195,
      "843": -0.7446198463439941,
      "844": -1.1396002769470215,
      "845": -0.484226256608963,
      "846": -0.26733025908470154,
      "847": 0.5172120332717896,
      "848": -0.07809361815452576,
      "849": -0.620720386505127,
      "850": -0.16176103055477142,
      "851": -0.38421905040740967,
      "852": 0.664121687412262,
      "853": 3.462700843811035,
      "854": -0.5464300513267517,
      "855": -0.7329155206680298,
      "856": 0.21164272725582123,
      "857": -1.1458905935287476,
      "858": 0.5176685452461243,
      "859": -0.386758416891098,
      "860": -0.408475399017334,
      "861": -2.422053575515747,
      "862": 0.6174775958061218,
      "863": 3.433919668197632,
      "864": -1.5163732767105103,
      "865": 0.22119499742984772,
      "866": 2.8285958766937256,
      "867": -0.3332183361053467,
      "868": -0.29204365611076355,
      "869": 1.1482617855072021,
      "870": -0.02575966902077198,
      "871": -1.0138252973556519,
      "872": 3.629425525665283,
      "873": 0.22296735644340515,
      "874": 0.6634090542793274,
      "875": -0.40121185779571533,
      "876": -0.4928354024887085,
      "877": 0.0950084775686264,
      "878": -3.2918896675109863,
      "879": 0.726003110408783,
      "880": -0.5870074033737183,
      "881": 0.7993314266204834,
      "882": 2.225637912750244,
      "883": 1.39853036403656,
      "884": -0.009476445615291595,
      "885": 2.9435691833496094,
      "886": 0.1693243533372879,
      "887": -0.6620516777038574,
      "888": 1.340484857559204,
      "889": 1.6741878986358643,
      "890": 1.100545883178711,
      "891": 1.696150541305542,
      "892": -1.8683888912200928,
      "893": 0.021249422803521156,
      "894": 1.916425108909607,
      "895": -0.1720895618200302,
      "896": 0.5447127223014832,
      "897": -0.38936847448349,
      "898": 0.8603726029396057,
      "899": -0.03444845601916313,
      "900": 0.8224790096282959,
      "901": 0.22938741743564606,
      "902": -0.5145307183265686,
      "903": -0.4272337555885315,
      "904": -1.5914311408996582,
      "905": 0.4452191889286041,
      "906": 0.6171627044677734,
      "907": -1.2717849016189575,
      "908": -2.663017749786377,
      "909": 0.2657046318054199,
      "910": 0.9300181865692139,
      "911": -2.219346523284912,
      "912": -0.01976783759891987,
      "913": 0.05438040569424629,
      "914": 0.7185376286506653,
      "915": -0.25529220700263977,
      "916": -0.41443485021591187,
      "917": 0.034103307873010635,
      "918": 0.9644349813461304,
      "919": -0.1706562340259552,
      "920": -0.7927358150482178,
      "921": -0.2268339842557907,
      "922": 0.5704774856567383,
      "923": -1.7665023803710938,
      "924": 0.0018030264182016253,
      "925": 0.5785649418830872,
      "926": -0.13594982028007507,
      "927": 1.4222465753555298,
      "928": -0.12298240512609482,
      "929": 0.2137247771024704,
      "930": 1.3038698434829712,
      "931": -1.4052414894104004,
      "932": 0.9908166527748108,
      "933": 1.2009671926498413,
      "934": 0.5721553564071655,
      "935": 0.23103587329387665,
      "936": -0.05946090444922447,
      "937": -2.0216939449310303,
      "938": -1.2566887140274048,
      "939": -0.8935103416442871,
      "940": 0.4723528027534485,
      "941": 0.32830366492271423,
      "942": -1.3738025426864624,
      "943": -0.13217271864414215,
      "944": -2.0126595497131348,
      "945": 0.5845949649810791,
      "946": 1.3798714876174927,
      "947": 0.0176846981048584,
      "948": 0.5361101031303406,
      "949": 2.057884931564331,
      "950": -0.513812243938446,
      "951": 3.2005536556243896,
      "952": 0.8485811352729797,
      "953": 4.039471626281738,
      "954": -1.7927144765853882,
      "955": 2.5323894023895264,
      "956": 0.5343331098556519,
      "957": -0.4257323443889618,
      "958": 2.13560152053833,
      "959": -1.339085578918457,
      "960": 0.9794790148735046,
      "961": -0.024721741676330566,
      "962": -5.540762424468994,
      "963": 0.44763755798339844,
      "964": -0.16400155425071716,
      "965": 2.1332919597625732,
      "966": -2.4718596935272217,
      "967": 0.5232111811637878,
      "968": -3.582059383392334,
      "969": 0.7621433734893799,
      "970": 2.397523880004883,
      "971": 0.24978937208652496,
      "972": 1.3053969144821167,
      "973": -3.465620756149292,
      "974": -1.8917391300201416,
      "975": -0.3675737977027893,
      "976": -1.263926386833191,
      "977": -0.12162452191114426,
      "978": -1.683143138885498,
      "979": -0.4154636263847351,
      "980": -2.4274299144744873,
      "981": 1.3022403717041016,
      "982": -0.8882725238800049,
      "983": -0.5395151972770691,
      "984": 1.3008644580841064,
      "985": 1.784057378768921,
      "986": -0.2922535240650177,
      "987": 2.6963911056518555,
      "988": -0.4935262203216553,
      "989": -0.2960662245750427,
      "990": 0.044003698974847794,
      "991": -0.21208500862121582,
      "992": -0.5685606598854065,
      "993": 0.4593978524208069,
      "994": -0.06023580953478813,
      "995": -0.42992156744003296,
      "996": 0.5584799647331238,
      "997": -1.6845062971115112,
      "998": 0.9388609528541565,
      "999": 1.1324772834777832,
      "1000": 0.8686886429786682,
      "1001": 2.094433069229126,
      "1002": 0.3043133318424225,
      "1003": -0.07264447212219238,
      "1004": 0.04817746952176094,
      "1005": -0.008483240380883217,
      "1006": -1.3338907957077026,
      "1007": -1.8902256488800049,
      "1008": -0.05473911017179489,
      "1009": -0.5853326320648193,
      "1010": -0.5823169946670532,
      "1011": 0.0688120648264885,
      "1012": 0.2960352897644043,
      "1013": 0.017872873693704605,
      "1014": -1.6626960039138794,
      "1015": -1.2085469961166382,
      "1016": 0.08476223796606064,
      "1017": 1.9923899173736572,
      "1018": -1.5348752737045288,
      "1019": -1.0827113389968872,
      "1020": -0.09784331917762756,
      "1021": 0.806410014629364,
      "1022": -1.3340330123901367,
      "1023": -3.135244846343994,
      "1024": 0.37240469455718994,
      "1025": -1.0555944442749023,
      "1026": 0.14175045490264893,
      "1027": -0.39865463972091675,
      "1028": 0.294254332780838,
      "1029": 0.5374175310134888,
      "1030": -1.1636158227920532,
      "1031": 2.211483955383301,
      "1032": -0.47900110483169556,
      "1033": 0.6473019123077393,
      "1034": -0.17886343598365784,
      "1035": 2.4502909183502197,
      "1036": -0.7890562415122986,
      "1037": 2.2203633785247803,
      "1038": -1.0140876770019531,
      "1039": -0.083938829600811,
      "1040": 0.4296010136604309,
      "1041": 3.1150338649749756,
      "1042": -0.3629794418811798,
      "1043": 2.118260383605957,
      "1044": -0.6150519251823425,
      "1045": -1.3325738906860352,
      "1046": 1.5558475255966187,
      "1047": 1.0758492946624756,
      "1048": 0.326349675655365,
      "1049": -3.4645934104919434,
      "1050": -0.042759351432323456,
      "1051": 3.3180203437805176,
      "1052": -1.8131234645843506,
      "1053": -1.1717787981033325,
      "1054": -0.6641294956207275,
      "1055": -0.16550040245056152,
      "1056": -0.05942724272608757,
      "1057": 0.2938276529312134,
      "1058": -0.5974412560462952,
      "1059": 0.7593637704849243,
      "1060": 1.4835339784622192,
      "1061": -1.6627161502838135,
      "1062": -0.3042924404144287,
      "1063": 2.099027395248413,
      "1064": 0.9742326140403748,
      "1065": -0.680965006351471,
      "1066": -0.1802668422460556,
      "1067": 0.21286115050315857,
      "1068": 0.5441043972969055,
      "1069": 0.774155855178833,
      "1070": 1.2038007974624634,
      "1071": 2.936697244644165,
      "1072": -2.9294378757476807,
      "1073": 2.286384344100952,
      "1074": 0.6284706592559814,
      "1075": -0.41956090927124023,
      "1076": 1.0418723821640015,
      "1077": -0.3218909204006195,
      "1078": 0.3708592355251312,
      "1079": -0.32333388924598694,
      "1080": -1.1506693363189697,
      "1081": -6.0426130294799805,
      "1082": -0.39955365657806396,
      "1083": 5.524295806884766,
      "1084": -0.20210526883602142,
      "1085": 3.8346450328826904,
      "1086": 2.532280921936035,
      "1087": -2.806007146835327,
      "1088": 0.2618144154548645,
      "1089": 5.239283084869385,
      "1090": -2.7856500148773193,
      "1091": 3.6759026050567627,
      "1092": -0.9431488513946533,
      "1093": -1.7162810564041138,
      "1094": -1.569474458694458,
      "1095": -1.2531545162200928,
      "1096": -1.1766072511672974,
      "1097": -5.169957637786865,
      "1098": 2.2594528198242188,
      "1099": -5.095010280609131,
      "1100": 2.905323028564453,
      "1101": 4.822817802429199,
      "1102": 6.099512577056885,
      "1103": 0.077820785343647,
      "1104": 1.6915924549102783,
      "1105": -0.20953229069709778,
      "1106": 1.1727368831634521,
      "1107": 4.493014812469482,
      "1108": 3.5545780658721924,
      "1109": 5.6740288734436035,
      "1110": 3.485994577407837,
      "1111": -2.1836581230163574,
      "1112": 4.903046607971191,
      "1113": -2.6353180408477783,
      "1114": 5.0417561531066895,
      "1115": 5.470422267913818,
      "1116": 2.995117664337158,
      "1117": 2.795316457748413,
      "1118": 0.28397977352142334,
      "1119": 3.177837610244751,
      "1120": 0.4961495101451874,
      "1121": 5.666292667388916,
      "1122": -0.9899072647094727,
      "1123": -1.2626395225524902,
      "1124": 4.297549724578857,
      "1125": -6.340230464935303,
      "1126": 1.8276208639144897,
      "1127": -0.7334803938865662,
      "1128": -2.4581899642944336,
      "1129": 3.2611725330352783,
      "1130": 4.062204360961914,
      "1131": -3.1051762104034424,
      "1132": 0.6864554286003113,
      "1133": 1.3029758930206299,
      "1134": -3.822180986404419,
      "1135": 0.28095483779907227,
      "1136": 0.0296567901968956,
      "1137": -2.3151309490203857,
      "1138": 1.6983331441879272,
      "1139": -1.0524191856384277,
      "1140": -2.7605834007263184,
      "1141": 2.1865506172180176,
      "1142": -2.8734002113342285,
      "1143": -1.5196024179458618,
      "1144": 0.3828319311141968,
      "1145": 1.9321658611297607,
      "1146": -2.4806487560272217,
      "1147": 3.690317153930664,
      "1148": -0.5452500581741333,
      "1149": 1.4001010656356812,
      "1150": 1.7067859172821045,
      "1151": 0.37490516901016235,
      "1152": 1.0214972496032715,
      "1153": 0.5464547872543335,
      "1154": -0.485609769821167,
      "1155": 2.179211378097534,
      "1156": 0.6224415898323059,
      "1157": 1.0240607261657715,
      "1158": -3.6711597442626953,
      "1159": -0.7561895251274109,
      "1160": -2.1063249111175537,
      "1161": 1.4860864877700806,
      "1162": -0.8193657398223877,
      "1163": 2.421298027038574,
      "1164": 2.144453287124634,
      "1165": 2.1615846157073975,
      "1166": 3.271960973739624,
      "1167": -0.17012301087379456,
      "1168": 0.8897072076797485,
      "1169": -1.756139874458313,
      "1170": -0.329881489276886,
      "1171": -0.3176148533821106,
      "1172": -4.499509334564209,
      "1173": 1.0207056999206543,
      "1174": -2.349876642227173,
      "1175": 2.3094019889831543,
      "1176": 3.4690771102905273,
      "1177": 3.435817241668701,
      "1178": 0.35041868686676025,
      "1179": -3.3318533897399902,
      "1180": -2.201172113418579,
      "1181": 0.463430792093277,
      "1182": 1.7336102724075317,
      "1183": -2.759164810180664,
      "1184": 0.4253405034542084,
      "1185": 0.30197393894195557,
      "1186": 0.16230270266532898,
      "1187": 1.403850793838501,
      "1188": -0.5352970361709595,
      "1189": -0.9075966477394104,
      "1190": -4.074789524078369,
      "1191": 4.048830509185791,
      "1192": 4.072264671325684,
      "1193": -3.594977617263794,
      "1194": -1.2913739681243896,
      "1195": -3.729079008102417,
      "1196": -4.646242618560791,
      "1197": 2.907266139984131,
      "1198": -0.8367777466773987,
      "1199": -1.3589227199554443,
      "1200": 2.8445191383361816,
      "1201": 0.3506552577018738,
      "1202": -3.22162127494812,
      "1203": -6.453344821929932,
      "1204": 0.9141638278961182,
      "1205": -1.2538341283798218,
      "1206": -5.2370500564575195,
      "1207": -2.1949424743652344,
      "1208": 2.157694101333618,
      "1209": -4.3377299308776855,
      "1210": -0.8176944851875305,
      "1211": -3.2877304553985596,
      "1212": 0.737731397151947,
      "1213": -0.167808398604393,
      "1214": 4.156257152557373,
      "1215": -1.2712172269821167,
      "1216": 1.19867742061615,
      "1217": 3.7520103454589844,
      "1218": -1.1696434020996094,
      "1219": 0.1987268030643463,
      "1220": -4.924927234649658,
      "1221": 1.1480035781860352,
      "1222": -1.770465612411499,
      "1223": 4.05057430267334,
      "1224": 3.0272998809814453,
      "1225": 0.870915949344635,
      "1226": 1.7416318655014038,
      "1227": -0.9460194706916809,
      "1228": 0.751525342464447,
      "1229": 4.670172691345215,
      "1230": -4.087158203125,
      "1231": -0.23455992341041565,
      "1232": 4.150887489318848,
      "1233": -2.9490299224853516,
      "1234": -5.186464786529541,
      "1235": -5.628782749176025,
      "1236": -2.0797548294067383,
      "1237": -2.8816494941711426,
      "1238": 2.499732255935669,
      "1239": 4.053205490112305,
      "1240": -3.366774320602417,
      "1241": -0.3955499827861786,
      "1242": -1.4111220836639404,
      "1243": -0.4048566222190857,
      "1244": 5.024853706359863,
      "1245": 4.495462894439697,
      "1246": -3.231670618057251,
      "1247": -4.200911521911621,
      "1248": 8.80512523651123,
      "1249": 2.2553458213806152,
      "1250": 1.2933024168014526,
      "1251": 2.477322816848755,
      "1252": -1.421094298362732,
      "1253": -2.237030506134033,
      "1254": -2.7013490200042725,
      "1255": 6.210151672363281,
      "1256": 1.3712037801742554,
      "1257": 3.040501356124878,
      "1258": 1.1551713943481445,
      "1259": 2.075683832168579,
      "1260": -0.3077193796634674,
      "1261": -0.8178062438964844,
      "1262": 0.9963944554328918,
      "1263": -3.974001884460449,
      "1264": 2.8735978603363037,
      "1265": -2.531358003616333,
      "1266": -2.7580041885375977,
      "1267": 2.4619438648223877,
      "1268": 0.8891522884368896,
      "1269": -0.3661370873451233,
      "1270": 0.2755497395992279,
      "1271": 2.1645922660827637,
      "1272": -5.514488697052002,
      "1273": 1.9971692562103271,
      "1274": -0.2923039495944977,
      "1275": -0.8025285601615906,
      "1276": 1.0831494331359863,
      "1277": 0.4201671779155731,
      "1278": -5.226796627044678,
      "1279": -1.0001428127288818,
      "1280": -0.6962042450904846,
      "1281": -1.9254635572433472,
      "1282": 11.77156925201416,
      "1283": -3.6411828994750977,
      "1284": 4.273654460906982,
      "1285": -1.80841863155365,
      "1286": -1.3695852756500244,
      "1287": 2.4026882648468018,
      "1288": 6.655776023864746,
      "1289": 2.9785678386688232,
      "1290": 1.2752392292022705,
      "1291": 3.2041780948638916,
      "1292": 1.5763626098632812,
      "1293": 12.543804168701172,
      "1294": -3.6161012649536133,
      "1295": -1.2279483079910278,
      "1296": 0.896185576915741,
      "1297": -4.833108901977539,
      "1298": 2.9691667556762695,
      "1299": 0.8039171695709229,
      "1300": -1.1179478168487549,
      "1301": -0.6025019884109497,
      "1302": 0.9642072319984436,
      "1303": -1.2487050294876099,
      "1304": -1.6089746952056885,
      "1305": 0.1973121017217636,
      "1306": -0.0977998673915863,
      "1307": 0.6313662528991699,
      "1308": -5.835083484649658,
      "1309": 4.181418418884277,
      "1310": -0.5278172492980957,
      "1311": -11.078840255737305,
      "1312": 1.8639874458312988,
      "1313": 0.41653937101364136,
      "1314": 0.07666510343551636,
      "1315": -6.773653984069824,
      "1316": -4.577418327331543,
      "1317": 0.0016506126848980784,
      "1318": -1.704354166984558,
      "1319": 1.5674022436141968,
      "1320": 1.1415263414382935,
      "1321": 3.2699854373931885,
      "1322": -4.1390156745910645,
      "1323": 6.296944618225098,
      "1324": -2.2336361408233643,
      "1325": -2.360673666000366,
      "1326": -0.9518963098526001,
      "1327": -1.3390662670135498,
      "1328": -2.723698377609253,
      "1329": -7.118132591247559,
      "1330": -0.43639081716537476,
      "1331": -6.3647847175598145,
      "1332": 3.2227487564086914,
      "1333": 2.702547311782837,
      "1334": -2.744602918624878,
      "1335": 1.281375765800476,
      "1336": -2.3856778144836426,
      "1337": -5.192276954650879,
      "1338": -1.253204345703125,
      "1339": 2.2914633750915527,
      "1340": -1.1544150114059448,
      "1341": -1.510490894317627,
      "1342": 4.866576671600342,
      "1343": 0.8362467288970947,
      "1344": -2.516110420227051,
      "1345": 0.977771520614624,
      "1346": -2.350518226623535,
      "1347": -1.3924174308776855,
      "1348": -3.4616382122039795,
      "1349": 6.138248920440674,
      "1350": -0.9249585270881653,
      "1351": 2.048076868057251,
      "1352": 2.783817768096924,
      "1353": 2.467557668685913,
      "1354": 1.5428005456924438,
      "1355": 1.7289230823516846,
      "1356": 0.6322426795959473,
      "1357": -6.156506538391113,
      "1358": 2.9116272926330566,
      "1359": -3.232811689376831,
      "1360": -2.7405922412872314,
      "1361": 3.035245180130005,
      "1362": 1.1839320659637451,
      "1363": 3.2360644340515137,
      "1364": 0.35121533274650574,
      "1365": -2.1222715377807617,
      "1366": 1.6855907440185547,
      "1367": -4.659576892852783,
      "1368": 0.4365583658218384,
      "1369": 1.575947642326355,
      "1370": -0.43673864006996155,
      "1371": -1.0701370239257812,
      "1372": 4.434432506561279,
      "1373": 0.2540152668952942,
      "1374": 2.762244462966919,
      "1375": 3.5905275344848633,
      "1376": 2.9496688842773438,
      "1377": -0.2233162820339203,
      "1378": 0.6011735796928406,
      "1379": 2.0103657245635986,
      "1380": -0.08331247419118881,
      "1381": -0.7114769816398621,
      "1382": -4.116804122924805,
      "1383": -4.49214506149292,
      "1384": -0.8233731985092163,
      "1385": -0.2093350738286972,
      "1386": -3.583587884902954,
      "1387": 0.6917786002159119,
      "1388": 3.8146555423736572,
      "1389": -0.1290017068386078,
      "1390": -4.3090972900390625,
      "1391": -2.0164217948913574,
      "1392": -2.213162660598755,
      "1393": 0.0035671270452439785,
      "1394": -2.089205265045166,
      "1395": 0.0015459307469427586,
      "1396": 0.13382984697818756,
      "1397": -2.475884199142456,
      "1398": -3.4082109928131104,
      "1399": -4.110690593719482,
      "1400": -0.20858561992645264,
      "1401": -2.562345504760742,
      "1402": 1.6253328323364258,
      "1403": -6.645647048950195,
      "1404": -0.2039591372013092,
      "1405": 4.2108893394470215,
      "1406": 0.14597421884536743,
      "1407": 0.18789590895175934,
      "1408": -4.235440731048584,
      "1409": 0.9123823046684265,
      "1410": -2.5069103240966797,
      "1411": -0.9406415224075317,
      "1412": 0.9699558019638062,
      "1413": -5.539700508117676,
      "1414": 5.202880382537842,
      "1415": 1.3541920185089111,
      "1416": -3.057600498199463,
      "1417": 2.2655627727508545,
      "1418": -1.116089940071106,
      "1419": -5.281949043273926,
      "1420": 4.234079837799072,
      "1421": 0.7135368585586548,
      "1422": -3.0765485763549805,
      "1423": -2.836536169052124,
      "1424": -0.9730878472328186,
      "1425": -0.3640822768211365,
      "1426": -0.4525940418243408,
      "1427": -0.9511440992355347,
      "1428": -2.7964401245117188,
      "1429": 2.4085330963134766,
      "1430": -0.3976390063762665,
      "1431": 0.145785391330719,
      "1432": 2.912106990814209,
      "1433": 3.3551573753356934,
      "1434": 0.16605103015899658,
      "1435": -3.5202808380126953,
      "1436": -2.7893478870391846,
      "1437": 2.3276829719543457,
      "1438": 3.4296770095825195,
      "1439": -0.7507850527763367,
      "1440": -0.821595311164856,
      "1441": 1.0975803136825562,
      "1442": -4.182941913604736,
      "1443": 2.5989115238189697,
      "1444": 1.6519253253936768,
      "1445": 3.9663679599761963,
      "1446": 2.752570152282715,
      "1447": -2.5468590259552,
      "1448": 6.648245811462402,
      "1449": 0.3510948121547699,
      "1450": 1.1424534320831299,
      "1451": -1.7249774932861328,
      "1452": -0.09075392037630081,
      "1453": -1.6098030805587769,
      "1454": -1.0523418188095093,
      "1455": 3.044663906097412,
      "1456": 0.6291465759277344,
      "1457": 2.633897304534912,
      "1458": 0.8198021054267883,
      "1459": 3.172501564025879,
      "1460": 2.2430899143218994,
      "1461": -4.037866592407227,
      "1462": 2.4904773235321045,
      "1463": 0.5565597414970398,
      "1464": -6.316182613372803,
      "1465": -2.9886159896850586,
      "1466": 2.3362090587615967,
      "1467": 2.2003042697906494,
      "1468": -0.1005287617444992,
      "1469": 0.9659472107887268,
      "1470": -1.0388028621673584,
      "1471": 0.0030812127515673637,
      "1472": 2.0651917457580566,
      "1473": 2.002131938934326,
      "1474": 0.05236461013555527,
      "1475": -1.8769148588180542,
      "1476": -5.299910545349121,
      "1477": -1.2766727209091187,
      "1478": -1.5710790157318115,
      "1479": -0.3503396511077881,
      "1480": 0.8787161111831665,
      "1481": -1.764998197555542,
      "1482": 2.472290277481079,
      "1483": -2.3516125679016113,
      "1484": -2.031992197036743,
      "1485": 2.774251937866211,
      "1486": -3.4924354553222656,
      "1487": 0.9348343014717102,
      "1488": -3.6852505207061768,
      "1489": 3.6022799015045166,
      "1490": 0.6293331980705261,
      "1491": -1.7495328187942505,
      "1492": 0.07527560740709305,
      "1493": -4.029651641845703,
      "1494": -5.150819778442383,
      "1495": -4.973198413848877,
      "1496": -2.9265878200531006,
      "1497": -2.870147943496704,
      "1498": 2.5441815853118896,
      "1499": 1.367795467376709,
      "1500": -1.9832926988601685,
      "1501": -2.1894702911376953,
      "1502": -2.2018260955810547,
      "1503": 2.088625431060791,
      "1504": -5.326985836029053,
      "1505": 1.439186453819275,
      "1506": 0.24809011816978455,
      "1507": -6.97835111618042,
      "1508": 4.779916286468506,
      "1509": 3.428868055343628,
      "1510": -2.2773630619049072,
      "1511": 1.1274378299713135,
      "1512": -3.565979242324829,
      "1513": -6.332898139953613,
      "1514": 0.38942569494247437,
      "1515": -0.4802866578102112,
      "1516": -5.945993423461914,
      "1517": -1.5336767435073853,
      "1518": -0.41119563579559326,
      "1519": 0.8591552376747131,
      "1520": -2.106764078140259,
      "1521": 1.1789965629577637,
      "1522": 0.25994938611984253,
      "1523": 8.069339752197266,
      "1524": 1.1517318487167358,
      "1525": -2.0861055850982666,
      "1526": 0.13364771008491516,
      "1527": 4.076251029968262,
      "1528": 0.693049967288971,
      "1529": -4.761577129364014,
      "1530": 2.3385562896728516,
      "1531": 0.40881940722465515,
      "1532": -3.892765998840332,
      "1533": 4.075116157531738,
      "1534": -0.9220658540725708,
      "1535": 0.8946177959442139,
      "1536": -0.06989458948373795,
      "1537": 3.2881038188934326,
      "1538": 2.347383499145508,
      "1539": 5.881275653839111,
      "1540": 3.973320245742798,
      "1541": 5.168597221374512,
      "1542": 4.140720844268799,
      "1543": -0.46988314390182495,
      "1544": 1.4255214929580688,
      "1545": -4.94650411605835,
      "1546": -2.5942606925964355,
      "1547": -1.4655817747116089,
      "1548": -2.1174516677856445,
      "1549": 2.05013370513916,
      "1550": -5.226900100708008,
      "1551": 6.259047031402588,
      "1552": -4.351576328277588,
      "1553": -2.482361078262329,
      "1554": 0.15110161900520325,
      "1555": -0.9269070029258728,
      "1556": -0.7881485819816589,
      "1557": 0.7901862263679504,
      "1558": 0.4176502227783203,
      "1559": -0.8164095282554626,
      "1560": -0.2526635527610779,
      "1561": -1.3108667135238647,
      "1562": 1.8282573223114014,
      "1563": 7.480690002441406,
      "1564": -0.337428480386734,
      "1565": 3.6671009063720703,
      "1566": 1.3649965524673462,
      "1567": 2.2001583576202393,
      "1568": -1.7997509241104126,
      "1569": 2.533766269683838,
      "1570": -0.8601999878883362,
      "1571": -2.9201736450195312,
      "1572": -3.4866886138916016,
      "1573": -1.9925981760025024,
      "1574": -2.454942464828491,
      "1575": 1.110074758529663,
      "1576": 5.223065376281738,
      "1577": -4.7106852531433105,
      "1578": -5.1468377113342285,
      "1579": -1.4899911880493164,
      "1580": -0.9125477075576782,
      "1581": 2.31821608543396,
      "1582": -3.167367935180664,
      "1583": -0.39341986179351807,
      "1584": -0.49130868911743164,
      "1585": -2.3802196979522705,
      "1586": -4.560402870178223,
      "1587": -5.271280765533447,
      "1588": -0.994990885257721,
      "1589": -1.3321794271469116,
      "1590": 2.028027057647705,
      "1591": -0.9179897904396057,
      "1592": 2.610147714614868,
      "1593": 2.152280330657959,
      "1594": -1.1340583562850952,
      "1595": 4.992330074310303,
      "1596": -5.102986812591553,
      "1597": 3.124394178390503,
      "1598": 1.075195550918579,
      "1599": -3.5831027030944824,
      "1600": -1.9163663387298584,
      "1601": -0.5551658272743225,
      "1602": -3.448986530303955,
      "1603": 0.38678622245788574,
      "1604": 2.7501394748687744,
      "1605": -2.3470849990844727,
      "1606": 0.1971885710954666,
      "1607": 1.459192156791687,
      "1608": -3.583408832550049,
      "1609": 5.220282077789307,
      "1610": 1.1589778661727905,
      "1611": -0.08463871479034424,
      "1612": -0.8817653656005859,
      "1613": 1.906750202178955,
      "1614": 6.6014862060546875,
      "1615": -3.0095622539520264,
      "1616": 4.204015254974365,
      "1617": -1.0893198251724243,
      "1618": 3.063044548034668,
      "1619": -4.3149800300598145,
      "1620": -4.154806613922119,
      "1621": -0.9888083338737488,
      "1622": -1.287636160850525,
      "1623": 2.6931464672088623,
      "1624": 0.7911494374275208,
      "1625": -0.6102601289749146,
      "1626": -3.756901741027832,
      "1627": -3.4758098125457764,
      "1628": -1.8708189725875854,
      "1629": 1.305345058441162,
      "1630": 7.2171711921691895,
      "1631": -2.704511880874634,
      "1632": -7.03978967666626,
      "1633": -1.0278472900390625,
      "1634": -0.6533403396606445,
      "1635": -5.0922746658325195,
      "1636": 0.7055602669715881,
      "1637": -3.664382219314575,
      "1638": -4.023420333862305,
      "1639": 3.5259838104248047,
      "1640": 2.34171724319458,
      "1641": 4.196133136749268,
      "1642": 1.6921298503875732,
      "1643": -2.537487030029297,
      "1644": 4.170352935791016,
      "1645": -0.8932675719261169,
      "1646": 1.7714920043945312,
      "1647": 5.226490020751953,
      "1648": 3.085099458694458,
      "1649": 0.4788855314254761,
      "1650": 4.481498718261719,
      "1651": -0.9537690281867981,
      "1652": -2.750688314437866,
      "1653": 0.549860954284668,
      "1654": -0.1628645360469818,
      "1655": -0.06509718298912048,
      "1656": -1.784037709236145,
      "1657": 1.0061651468276978,
      "1658": -1.9487360715866089,
      "1659": -0.7457330822944641,
      "1660": -1.4004775285720825,
      "1661": -5.543444633483887,
      "1662": 1.6513402462005615,
      "1663": -2.839108943939209,
      "1664": 0.8111538887023926,
      "1665": 0.7478460073471069,
      "1666": 2.273582696914673,
      "1667": -1.5716884136199951,
      "1668": 0.901768147945404,
      "1669": -0.7189455628395081,
      "1670": 4.481340408325195,
      "1671": -3.659477710723877,
      "1672": -2.3298087120056152,
      "1673": 5.152503490447998,
      "1674": -3.4948267936706543,
      "1675": -0.5573869943618774,
      "1676": 1.5051186084747314,
      "1677": 4.833239555358887,
      "1678": 3.5527164936065674,
      "1679": 2.34262752532959,
      "1680": 1.6597888469696045,
      "1681": -1.270859956741333,
      "1682": -5.504436016082764,
      "1683": -1.8532201051712036,
      "1684": 0.07194846868515015,
      "1685": -0.5312286615371704,
      "1686": 4.870116233825684,
      "1687": 1.8729335069656372,
      "1688": -1.5000009536743164,
      "1689": -3.2110755443573,
      "1690": -3.3113369941711426,
      "1691": -2.2066807746887207,
      "1692": 3.8797519207000732,
      "1693": -1.457161545753479,
      "1694": -1.9148063659667969,
      "1695": -0.12749522924423218,
      "1696": -1.3345975875854492,
      "1697": -0.7563683390617371,
      "1698": 0.5632010102272034,
      "1699": -1.495498776435852,
      "1700": -2.5677850246429443,
      "1701": 0.17654868960380554,
      "1702": -0.21113651990890503,
      "1703": 2.3723435401916504,
      "1704": 2.5217416286468506,
      "1705": 1.3686929941177368,
      "1706": 1.9101696014404297,
      "1707": -0.2121409773826599,
      "1708": 1.8453372716903687,
      "1709": -1.2670923471450806,
      "1710": -0.21325837075710297,
      "1711": -1.843517541885376,
      "1712": -1.2893534898757935,
      "1713": -1.8445261716842651,
      "1714": -0.17956416308879852,
      "1715": -1.5727581977844238,
      "1716": -2.0123116970062256,
      "1717": 1.0820138454437256,
      "1718": -0.7346093058586121,
      "1719": 0.9083631038665771,
      "1720": -0.9443161487579346,
      "1721": 0.04016272351145744,
      "1722": -1.3856734037399292,
      "1723": -1.6394442319869995,
      "1724": -1.8521192073822021,
      "1725": -1.6375575065612793,
      "1726": -1.9909477233886719,
      "1727": -2.657116174697876,
      "1728": -2.608854055404663,
      "1729": 0.9037953615188599,
      "1730": 0.5192304253578186,
      "1731": 1.1306591033935547,
      "1732": -2.289113759994507,
      "1733": 1.0943540334701538,
      "1734": 2.43184494972229,
      "1735": -1.0213288068771362,
      "1736": 0.2156578004360199,
      "1737": 0.4755263030529022,
      "1738": 1.4474396705627441,
      "1739": 4.286440372467041,
      "1740": -1.5127378702163696,
      "1741": -2.6277060508728027,
      "1742": 1.586132287979126,
      "1743": -2.3002920150756836,
      "1744": -2.239624500274658,
      "1745": -0.0876975879073143,
      "1746": -2.1086103916168213,
      "1747": -0.920103132724762,
      "1748": 1.3148692846298218,
      "1749": 0.4035080671310425,
      "1750": 1.8105767965316772,
      "1751": 3.0653128623962402,
      "1752": 2.2265663146972656,
      "1753": 2.52327036857605,
      "1754": -0.07763146609067917,
      "1755": 1.2887661457061768,
      "1756": -0.918323278427124,
      "1757": 1.297722578048706,
      "1758": -1.957326054573059,
      "1759": 0.04892253130674362,
      "1760": -0.6698477268218994,
      "1761": -0.15486010909080505,
      "1762": -1.595096468925476,
      "1763": 1.9763634204864502,
      "1764": 3.1696386337280273,
      "1765": -2.423032760620117,
      "1766": -3.0219383239746094,
      "1767": 0.9148667454719543,
      "1768": -1.036125659942627,
      "1769": -0.2952772378921509,
      "1770": -1.2825320959091187,
      "1771": -0.44876882433891296,
      "1772": -2.0822184085845947,
      "1773": -0.941752552986145,
      "1774": -1.159744143486023,
      "1775": -3.5881564617156982,
      "1776": -1.035321831703186,
      "1777": 0.053352415561676025,
      "1778": 0.05746250972151756,
      "1779": -0.4816206395626068,
      "1780": 0.5051637291908264,
      "1781": -1.6589077711105347,
      "1782": 0.6977807283401489,
      "1783": 1.8275525569915771,
      "1784": -2.1518120765686035,
      "1785": 1.2258681058883667,
      "1786": 0.7228826880455017,
      "1787": -2.6891655921936035,
      "1788": 1.8650680780410767,
      "1789": -4.242903232574463,
      "1790": -0.027993768453598022,
      "1791": -0.30700233578681946,
      "1792": -2.355748176574707,
      "1793": 0.9519601464271545,
      "1794": -0.6710325479507446,
      "1795": -2.0698437690734863,
      "1796": 2.363502264022827,
      "1797": 0.2501627206802368,
      "1798": -3.316861629486084,
      "1799": -0.8830504417419434,
      "1800": -2.017347574234009,
      "1801": -0.21048901975154877,
      "1802": 3.1520767211914062,
      "1803": -3.426797866821289,
      "1804": -0.7935405969619751,
      "1805": -0.4372347891330719,
      "1806": -3.3046810626983643,
      "1807": 0.8720594048500061,
      "1808": 3.9573192596435547,
      "1809": -0.5807753205299377,
      "1810": 1.606706976890564,
      "1811": -1.444476842880249,
      "1812": 2.1624038219451904,
      "1813": 4.080201148986816,
      "1814": 2.2961461544036865,
      "1815": -2.116307020187378,
      "1816": -2.1065409183502197,
      "1817": -1.03315269947052,
      "1818": 0.6848058104515076,
      "1819": 0.9154826402664185,
      "1820": 1.6119600534439087,
      "1821": -1.6059620380401611,
      "1822": -1.3809013366699219,
      "1823": 0.17442335188388824,
      "1824": 2.156543493270874,
      "1825": -3.2528493404388428,
      "1826": -0.4666987955570221,
      "1827": -3.59197998046875,
      "1828": 0.631385087966919,
      "1829": -4.373533725738525,
      "1830": -1.415585994720459,
      "1831": 0.7785186767578125,
      "1832": -0.5441427230834961,
      "1833": -4.258212566375732,
      "1834": 3.503437042236328,
      "1835": 1.1943895816802979,
      "1836": -4.661892890930176,
      "1837": -1.6073906421661377,
      "1838": -0.9049494862556458,
      "1839": -4.909134387969971,
      "1840": 13.407835006713867,
      "1841": -4.203357696533203,
      "1842": -3.015777587890625,
      "1843": 2.5592758655548096,
      "1844": -6.050212860107422,
      "1845": -2.9306118488311768,
      "1846": -3.1717615127563477,
      "1847": 0.08314733952283859,
      "1848": -5.718493461608887,
      "1849": 4.603334426879883,
      "1850": 4.936163902282715,
      "1851": -5.173732757568359,
      "1852": 1.8805806636810303,
      "1853": -2.010298490524292,
      "1854": -5.190346717834473,
      "1855": -0.9639432430267334,
      "1856": 5.221835613250732,
      "1857": -0.7974923253059387,
      "1858": -4.271663665771484,
      "1859": 4.503111362457275,
      "1860": -0.45354002714157104,
      "1861": -0.11942488700151443,
      "1862": -3.1600279808044434,
      "1863": -1.2993699312210083,
      "1864": -6.398717880249023,
      "1865": -9.18786907196045,
      "1866": 4.0877203941345215,
      "1867": -3.2938337326049805,
      "1868": 4.900735855102539,
      "1869": 3.153393268585205,
      "1870": -1.1540147066116333,
      "1871": 2.5285041332244873,
      "1872": 5.299922466278076,
      "1873": -3.5899083614349365,
      "1874": -9.763625144958496,
      "1875": 9.251189231872559,
      "1876": -3.1115846633911133,
      "1877": 4.241360187530518,
      "1878": 2.7490906715393066,
      "1879": -2.2599844932556152,
      "1880": -2.8810768127441406,
      "1881": 1.7520744800567627,
      "1882": -0.33673492074012756,
      "1883": 0.3441475033760071,
      "1884": 4.589673042297363,
      "1885": 7.750633716583252,
      "1886": -2.03120756149292,
      "1887": 2.104287624359131,
      "1888": 0.8128175139427185,
      "1889": 1.6183990240097046,
      "1890": 6.6407999992370605,
      "1891": -0.09327138960361481,
      "1892": -4.784811019897461,
      "1893": -1.1158756017684937,
      "1894": -1.6053041219711304,
      "1895": -3.1148316860198975,
      "1896": -0.6115675568580627,
      "1897": 0.737408459186554,
      "1898": 0.04380166530609131,
      "1899": 5.002163887023926,
      "1900": 0.672793984413147,
      "1901": 1.098226547241211,
      "1902": -2.4498918056488037,
      "1903": 4.7277984619140625,
      "1904": 1.0946412086486816,
      "1905": -2.8277275562286377,
      "1906": -0.13798299431800842,
      "1907": 6.111145973205566,
      "1908": 3.74165940284729,
      "1909": 1.1013940572738647,
      "1910": -6.870881080627441,
      "1911": 0.32576683163642883,
      "1912": 5.690184116363525,
      "1913": 4.584540843963623,
      "1914": 0.5342605113983154,
      "1915": 5.0553789138793945,
      "1916": 4.3671674728393555,
      "1917": 0.29152458906173706,
      "1918": 6.467494487762451,
      "1919": -2.4406673908233643,
      "1920": 1.8215175867080688,
      "1921": -0.7731665372848511,
      "1922": -2.316347599029541,
      "1923": 2.3921048641204834,
      "1924": -8.716527938842773,
      "1925": 1.8456050157546997,
      "1926": 0.8234652280807495,
      "1927": 2.5668978691101074,
      "1928": -0.883382260799408,
      "1929": 0.26429033279418945,
      "1930": -3.074167251586914,
      "1931": 2.0764851570129395,
      "1932": 4.565052032470703,
      "1933": -4.627230644226074,
      "1934": -1.2785842418670654,
      "1935": -2.235304832458496,
      "1936": -2.8015806674957275,
      "1937": -0.885452389717102,
      "1938": 4.016924858093262,
      "1939": 3.8672070503234863,
      "1940": -0.7313767075538635,
      "1941": 3.7066962718963623,
      "1942": 6.086239814758301,
      "1943": 2.034533739089966,
      "1944": -5.19608736038208,
      "1945": 1.2386434078216553,
      "1946": -3.402961492538452,
      "1947": -7.462040424346924,
      "1948": -0.5562537908554077,
      "1949": -2.3618199825286865,
      "1950": 1.4137358665466309,
      "1951": -7.541155815124512,
      "1952": 2.066950559616089,
      "1953": -2.4456889629364014,
      "1954": -4.7247772216796875,
      "1955": 1.1064419746398926,
      "1956": -4.601717948913574,
      "1957": 1.2145519256591797,
      "1958": -5.995248317718506,
      "1959": 2.9822402000427246,
      "1960": 0.5397047400474548,
      "1961": -2.876553773880005,
      "1962": 0.07703571021556854,
      "1963": -2.9887502193450928,
      "1964": -3.1888651847839355,
      "1965": -3.772027015686035,
      "1966": 0.3443623483181,
      "1967": -5.910922050476074,
      "1968": 0.11065294593572617,
      "1969": 2.980318307876587,
      "1970": -5.389223575592041,
      "1971": 2.430985689163208,
      "1972": -0.8878712058067322,
      "1973": 2.7501332759857178,
      "1974": 1.1299442052841187,
      "1975": -0.005475248210132122,
      "1976": -0.5458241105079651,
      "1977": -2.0304787158966064,
      "1978": 1.8283783197402954,
      "1979": -1.948427438735962,
      "1980": -3.171468734741211,
      "1981": 3.995197057723999,
      "1982": 6.242589473724365,
      "1983": -2.789733409881592,
      "1984": -0.23966234922409058,
      "1985": -1.0919256210327148,
      "1986": 2.1804940700531006,
      "1987": 5.9168243408203125,
      "1988": 1.6929923295974731,
      "1989": -2.448009729385376,
      "1990": -6.05480432510376,
      "1991": 1.3690316677093506,
      "1992": 0.5796172022819519,
      "1993": 3.787808895111084,
      "1994": 5.469987392425537,
      "1995": 4.945211410522461,
      "1996": 0.7676722407341003,
      "1997": -1.0538761615753174,
      "1998": 4.034175872802734,
      "1999": 1.4951320886611938,
      "2000": -0.3631666898727417,
      "2001": -2.7275547981262207,
      "2002": -1.2730987071990967,
      "2003": 4.407140254974365,
      "2004": -2.67926287651062,
      "2005": 7.80584192276001,
      "2006": -4.015280723571777,
      "2007": -1.5035276412963867,
      "2008": 4.87461519241333,
      "2009": -0.40851113200187683,
      "2010": 0.8665745258331299,
      "2011": 2.7477071285247803,
      "2012": 3.1802756786346436,
      "2013": 2.0533156394958496,
      "2014": 7.703184604644775,
      "2015": 2.19083833694458,
      "2016": -3.180798053741455,
      "2017": 5.274325370788574,
      "2018": 3.11397647857666,
      "2019": -2.9045839309692383,
      "2020": 0.41449296474456787,
      "2021": 6.275067329406738,
      "2022": 0.605250895023346,
      "2023": 0.29208076000213623,
      "2024": 2.4206271171569824,
      "2025": -7.334012508392334,
      "2026": -1.5029278993606567,
      "2027": 1.898269772529602,
      "2028": -4.6841511726379395,
      "2029": -3.4222543239593506,
      "2030": 3.5187723636627197,
      "2031": -0.9765986800193787,
      "2032": -0.8056281805038452,
      "2033": 0.1616537868976593,
      "2034": -1.205461859703064,
      "2035": -0.4367421865463257,
      "2036": 1.8103046417236328,
      "2037": 0.7351866960525513,
      "2038": -2.0945019721984863,
      "2039": -0.4285939335823059,
      "2040": -8.42402172088623,
      "2041": -0.5698427557945251,
      "2042": -2.354262590408325,
      "2043": 1.3646866083145142,
      "2044": -3.2271828651428223,
      "2045": -1.9424954652786255,
      "2046": 3.0366370677948,
      "2047": -4.899005889892578,
      "2048": -4.04614782333374,
      "2049": -1.979255199432373,
      "2050": -6.722297191619873,
      "2051": 0.2533971071243286,
      "2052": -5.287553787231445,
      "2053": 5.917563438415527,
      "2054": 1.2658597230911255,
      "2055": -1.8601120710372925,
      "2056": -1.101331353187561,
      "2057": -6.634866237640381,
      "2058": -5.0387067794799805,
      "2059": -2.332606792449951,
      "2060": 0.18602415919303894,
      "2061": -3.2594008445739746,
      "2062": 4.270326614379883,
      "2063": -1.0566316843032837,
      "2064": -1.8425408601760864,
      "2065": -3.7499775886535645,
      "2066": -3.278380870819092,
      "2067": 0.5943111777305603,
      "2068": 3.588599443435669,
      "2069": -0.17511512339115143,
      "2070": -7.116976737976074,
      "2071": 9.732343673706055,
      "2072": -6.895694732666016,
      "2073": -2.279670238494873,
      "2074": 6.051214218139648,
      "2075": -1.4847851991653442,
      "2076": 2.189883232116699,
      "2077": 7.334822177886963,
      "2078": -2.1996052265167236,
      "2079": 1.7201416492462158,
      "2080": 3.9856183528900146,
      "2081": 2.4350366592407227,
      "2082": -1.6329245567321777,
      "2083": -4.334488868713379,
      "2084": 2.2174973487854004,
      "2085": -2.501840114593506,
      "2086": 4.365917682647705,
      "2087": -4.393831253051758,
      "2088": 8.294612884521484,
      "2089": 0.22940926253795624,
      "2090": -8.075399398803711,
      "2091": 0.6262810826301575,
      "2092": 8.02165699005127,
      "2093": 4.44563102722168,
      "2094": -2.744751453399658,
      "2095": 0.7925304770469666,
      "2096": -5.886725425720215,
      "2097": -0.9095935225486755,
      "2098": 2.431649923324585,
      "2099": 4.585024356842041,
      "2100": 1.754278540611267,
      "2101": -5.85518741607666,
      "2102": -2.7921910285949707,
      "2103": 1.639100193977356,
      "2104": -2.0049054622650146,
      "2105": -0.27795326709747314,
      "2106": -7.70857048034668,
      "2107": -3.3222196102142334,
      "2108": -1.299081802368164,
      "2109": 6.440722465515137,
      "2110": 0.8681532740592957,
      "2111": 6.5667195320129395,
      "2112": 0.08664749562740326,
      "2113": -1.472110390663147,
      "2114": -3.3740546703338623,
      "2115": -1.4605181217193604,
      "2116": 0.19257864356040955,
      "2117": -0.24477967619895935,
      "2118": -0.5528717041015625,
      "2119": 2.0918784141540527,
      "2120": 0.8128790259361267,
      "2121": -1.8600778579711914,
      "2122": -0.1921786218881607,
      "2123": -0.6207213997840881,
      "2124": -1.6174176931381226,
      "2125": -0.06614615768194199,
      "2126": 0.24798376858234406,
      "2127": -0.3752807080745697,
      "2128": -1.1251139640808105,
      "2129": 0.34595075249671936,
      "2130": -0.5758587718009949,
      "2131": 2.084388494491577,
      "2132": -0.41432425379753113,
      "2133": -0.7805542349815369,
      "2134": 0.9064064025878906,
      "2135": -0.6641194820404053,
      "2136": -1.4030729532241821,
      "2137": 0.16655795276165009,
      "2138": 1.2173725366592407,
      "2139": -0.46156972646713257,
      "2140": -0.13354210555553436,
      "2141": 0.1695326715707779,
      "2142": 0.440532386302948,
      "2143": -0.7448516488075256,
      "2144": -0.8843649625778198,
      "2145": -1.3679099082946777,
      "2146": -1.1513772010803223,
      "2147": 0.22649510204792023,
      "2148": 0.48067185282707214,
      "2149": -1.430985689163208,
      "2150": 1.5998421907424927,
      "2151": 0.6952203512191772,
      "2152": -0.15141165256500244,
      "2153": 1.6466048955917358,
      "2154": 0.11299321800470352,
      "2155": -0.3276898264884949,
      "2156": 0.5292872786521912,
      "2157": 1.1558655500411987,
      "2158": -0.07350189238786697,
      "2159": -0.31591564416885376,
      "2160": 0.08844948559999466,
      "2161": 0.8446609973907471,
      "2162": 0.32887062430381775,
      "2163": -0.460103839635849,
      "2164": -0.6287316679954529,
      "2165": 0.24634121358394623,
      "2166": -1.0658066272735596,
      "2167": -1.4325019121170044,
      "2168": 0.9682062268257141,
      "2169": -0.6148574948310852,
      "2170": -0.43044185638427734,
      "2171": 0.13170571625232697,
      "2172": 0.32989630103111267,
      "2173": 0.45233154296875,
      "2174": 0.09748975932598114,
      "2175": 0.9275566935539246,
      "2176": -0.18243937194347382,
      "2177": 0.10657186806201935,
      "2178": -0.20724527537822723,
      "2179": -0.44547098875045776,
      "2180": -0.006107541266828775,
      "2181": -0.5362007021903992,
      "2182": -0.19931747019290924,
      "2183": 0.021031053736805916,
      "2184": -0.21354763209819794,
      "2185": -1.1648228168487549,
      "2186": 0.7548121809959412,
      "2187": 0.3568265438079834,
      "2188": -1.051343560218811,
      "2189": 0.39921846985816956,
      "2190": -0.5291624069213867,
      "2191": 0.27441689372062683,
      "2192": -0.28747186064720154,
      "2193": -0.03228577971458435,
      "2194": -0.22390814125537872,
      "2195": -0.33254677057266235,
      "2196": -0.07611235976219177,
      "2197": -0.8909063339233398,
      "2198": -0.42669063806533813,
      "2199": -0.18483112752437592,
      "2200": 0.18784289062023163,
      "2201": -1.0953419208526611,
      "2202": 0.16136130690574646,
      "2203": 0.7036445140838623,
      "2204": -0.13795821368694305,
      "2205": -0.3278692662715912,
      "2206": -0.4022076427936554,
      "2207": -0.3208637535572052,
      "2208": 0.06688547134399414,
      "2209": 0.009799795225262642,
      "2210": -0.024020345881581306,
      "2211": -0.06189350411295891,
      "2212": 0.04056982696056366,
      "2213": -0.028442611917853355,
      "2214": 0.04831407219171524,
      "2215": -0.016941824927926064,
      "2216": 0.05697701498866081,
      "2217": 0.05619414523243904,
      "2218": 0.06786363571882248,
      "2219": -0.02955099754035473,
      "2220": 0.033545803278684616,
      "2221": -0.03671829029917717,
      "2222": 0.06448717415332794,
      "2223": -0.036596860736608505,
      "2224": 0.010210736654698849,
      "2225": 0.06609600782394409,
      "2226": 0.040054768323898315,
      "2227": -0.07036974281072617,
      "2228": -0.017748242244124413,
      "2229": 0.058876920491456985,
      "2230": -0.008482140488922596,
      "2231": 0.060906391590833664,
      "2232": -0.0405680276453495,
      "2233": -0.02825479581952095,
      "2234": 0.01148210559040308,
      "2235": 0.04851008579134941,
      "2236": -0.047816336154937744,
      "2237": -0.006878421176224947,
      "2238": 0.07519936561584473,
      "2239": -0.07413554191589355,
      "2240": -0.03692523017525673,
      "2241": -0.07038173079490662,
      "2242": -0.05706758052110672,
      "2243": -0.07772423326969147,
      "2244": -0.0773383304476738,
      "2245": 0.03154558315873146,
      "2246": 0.004186560865491629,
      "2247": 0.02788912132382393,
      "2248": -0.07495711743831635,
      "2249": -0.012394425459206104,
      "2250": -0.034316882491111755,
      "2251": -0.056865524500608444,
      "2252": 0.061342544853687286,
      "2253": 0.006470916792750359,
      "2254": 0.053115054965019226,
      "2255": -0.000441647571278736
    }
  },
  "hiddenLayers": [
    {
      "inputMatrix": {
        "rows": 20,
        "columns": 47,
        "weights": {
          "0": -1.6581485271453857,
          "1": -1.020241141319275,
          "2": 0.6476706862449646,
          "3": -0.14656755328178406,
          "4": 0.991429328918457,
          "5": 0.5245850682258606,
          "6": 0.016075948253273964,
          "7": 0.30581989884376526,
          "8": 0.5684530735015869,
          "9": -1.114620566368103,
          "10": 0.5567366480827332,
          "11": -0.9398898482322693,
          "12": -1.5626717805862427,
          "13": 0.027065204456448555,
          "14": -0.7373695969581604,
          "15": -1.1163965463638306,
          "16": -2.7416675090789795,
          "17": -1.0782074928283691,
          "18": 0.09553028643131256,
          "19": 0.6981140971183777,
          "20": 1.9032056331634521,
          "21": 2.1675853729248047,
          "22": -1.0804924964904785,
          "23": -0.8855965733528137,
          "24": 0.20115606486797333,
          "25": 0.04180376976728439,
          "26": 0.7045078873634338,
          "27": 1.516243815422058,
          "28": 2.199948787689209,
          "29": 0.027032775804400444,
          "30": -1.0524451732635498,
          "31": 2.7312769889831543,
          "32": 0.9656140804290771,
          "33": 0.8739481568336487,
          "34": 2.236104726791382,
          "35": -0.0933169573545456,
          "36": 1.6049479246139526,
          "37": 0.36199700832366943,
          "38": -1.0660678148269653,
          "39": -0.1370849609375,
          "40": 1.967045545578003,
          "41": 0.25368034839630127,
          "42": 0.47299641370773315,
          "43": 0.1773318350315094,
          "44": -1.8956791162490845,
          "45": -0.22171863913536072,
          "46": -0.8933703899383545,
          "47": 0.3045998513698578,
          "48": -1.8230098485946655,
          "49": -1.5438387393951416,
          "50": 0.24729053676128387,
          "51": -0.060811903327703476,
          "52": -0.8326302170753479,
          "53": 1.5697988271713257,
          "54": -0.4380667507648468,
          "55": -0.05662034824490547,
          "56": 0.5468841195106506,
          "57": -0.5273886919021606,
          "58": 0.43824684619903564,
          "59": -0.9291297793388367,
          "60": 1.2066296339035034,
          "61": -0.050906021147966385,
          "62": 0.39754027128219604,
          "63": -0.1563388854265213,
          "64": -1.557040810585022,
          "65": 1.3200287818908691,
          "66": -1.4299237728118896,
          "67": -1.3107521533966064,
          "68": -1.6579052209854126,
          "69": -0.6111049056053162,
          "70": -1.0152164697647095,
          "71": -1.3542207479476929,
          "72": -0.5499579310417175,
          "73": -1.0503653287887573,
          "74": 0.49061575531959534,
          "75": -3.330824136734009,
          "76": 0.28003278374671936,
          "77": 0.8572617173194885,
          "78": -1.2713946104049683,
          "79": 0.08669216930866241,
          "80": -1.6996163129806519,
          "81": -1.8971258401870728,
          "82": -1.1067496538162231,
          "83": 0.09156602621078491,
          "84": 0.13014556467533112,
          "85": -0.469532310962677,
          "86": -0.1655213087797165,
          "87": -2.479497194290161,
          "88": 0.39245375990867615,
          "89": 0.8017206788063049,
          "90": -0.8403500914573669,
          "91": 1.037056565284729,
          "92": 0.9346036314964294,
          "93": 0.7953421473503113,
          "94": 0.4104922115802765,
          "95": 0.9476872086524963,
          "96": 1.9054951667785645,
          "97": -0.42921358346939087,
          "98": 1.079045057296753,
          "99": 1.408928632736206,
          "100": -1.6366702318191528,
          "101": 0.9380972385406494,
          "102": -0.20294484496116638,
          "103": -0.8031798601150513,
          "104": 0.9488558173179626,
          "105": -2.252480983734131,
          "106": 0.10241655260324478,
          "107": 0.5976085662841797,
          "108": 0.4670272767543793,
          "109": -1.767457127571106,
          "110": 0.3040374517440796,
          "111": 1.1046782732009888,
          "112": -1.9531664848327637,
          "113": 1.3293578624725342,
          "114": -1.6720894575119019,
          "115": -0.23169340193271637,
          "116": 0.6749900579452515,
          "117": 0.5245912075042725,
          "118": 0.39877617359161377,
          "119": -0.16115354001522064,
          "120": -0.36881589889526367,
          "121": -1.1985632181167603,
          "122": -0.1408315896987915,
          "123": 0.8371779322624207,
          "124": 0.34378665685653687,
          "125": -1.2648569345474243,
          "126": -0.006467314437031746,
          "127": 1.1145907640457153,
          "128": 0.8224049210548401,
          "129": 1.295466661453247,
          "130": -0.4449380040168762,
          "131": 1.314008355140686,
          "132": 0.5287123918533325,
          "133": 0.3619740605354309,
          "134": 1.6601804494857788,
          "135": -0.6934840679168701,
          "136": 0.7317174673080444,
          "137": -0.9945523142814636,
          "138": 0.3816556930541992,
          "139": -0.8248143196105957,
          "140": -1.4686731100082397,
          "141": -0.25396037101745605,
          "142": 0.6513448357582092,
          "143": 0.3044813275337219,
          "144": -0.8571940064430237,
          "145": 0.8023541569709778,
          "146": 1.6219730377197266,
          "147": -1.4977926015853882,
          "148": 0.8238909244537354,
          "149": -0.02954915165901184,
          "150": -0.5085476040840149,
          "151": 0.025605805218219757,
          "152": -0.6281610727310181,
          "153": -0.41389700770378113,
          "154": -0.3271578848361969,
          "155": 0.3074781596660614,
          "156": -0.2565363645553589,
          "157": 0.3645365238189697,
          "158": 1.368341326713562,
          "159": -0.7520137429237366,
          "160": 1.4627798795700073,
          "161": -0.6144829988479614,
          "162": -0.4783906638622284,
          "163": 1.046874761581421,
          "164": 0.9473157525062561,
          "165": 0.331796795129776,
          "166": -0.590064525604248,
          "167": 1.2476606369018555,
          "168": 0.7050161361694336,
          "169": -0.5335826277732849,
          "170": 0.6939888000488281,
          "171": 0.17371903359889984,
          "172": -0.6808323264122009,
          "173": -1.5780633687973022,
          "174": 1.2437989711761475,
          "175": -0.544313371181488,
          "176": 1.072893500328064,
          "177": 0.33562710881233215,
          "178": 0.6046329140663147,
          "179": 1.0596916675567627,
          "180": 0.8598207831382751,
          "181": 0.5633028745651245,
          "182": -1.174672245979309,
          "183": -0.11502590775489807,
          "184": 0.8197216391563416,
          "185": 0.5735014081001282,
          "186": 1.1436594724655151,
          "187": 0.6242209672927856,
          "188": -2.4292757511138916,
          "189": -1.4763649702072144,
          "190": 0.14240486919879913,
          "191": -0.45696547627449036,
          "192": 0.9711187481880188,
          "193": -1.4306539297103882,
          "194": 0.14259478449821472,
          "195": -1.2236088514328003,
          "196": 0.5626990795135498,
          "197": -0.6469584703445435,
          "198": 0.28511735796928406,
          "199": 0.3314744532108307,
          "200": -2.4562151432037354,
          "201": -0.6219452023506165,
          "202": 0.0955427885055542,
          "203": 1.2793524265289307,
          "204": 0.04376768320798874,
          "205": -0.99381422996521,
          "206": 1.8410154581069946,
          "207": 0.8022580742835999,
          "208": 0.22187547385692596,
          "209": 0.06673690676689148,
          "210": 0.8818265795707703,
          "211": 0.23405176401138306,
          "212": 0.4627090394496918,
          "213": -1.5393582582473755,
          "214": 0.3825744688510895,
          "215": 1.1234874725341797,
          "216": -0.6527500152587891,
          "217": -0.17624089121818542,
          "218": -0.7043662667274475,
          "219": 0.34565842151641846,
          "220": 0.0659654438495636,
          "221": 0.22109533846378326,
          "222": 0.6837809681892395,
          "223": 0.3169294595718384,
          "224": 1.1287519931793213,
          "225": -0.516737163066864,
          "226": 2.385079860687256,
          "227": -2.3856170177459717,
          "228": 1.1908975839614868,
          "229": 0.04325200617313385,
          "230": -0.9324937462806702,
          "231": 0.6439173817634583,
          "232": 0.7327545881271362,
          "233": 0.1341084986925125,
          "234": 1.0507874488830566,
          "235": 0.07576505839824677,
          "236": 0.37631499767303467,
          "237": 1.4258497953414917,
          "238": -2.0005667209625244,
          "239": 0.03839912638068199,
          "240": 0.015188348479568958,
          "241": -0.5654253363609314,
          "242": 0.27271097898483276,
          "243": -0.4919283986091614,
          "244": -0.6465877294540405,
          "245": 0.8187259435653687,
          "246": 0.3945102095603943,
          "247": 0.045167289674282074,
          "248": -1.2251243591308594,
          "249": 0.6649601459503174,
          "250": 0.37061813473701477,
          "251": 0.8699886202812195,
          "252": 0.15063434839248657,
          "253": -0.15976601839065552,
          "254": 0.6308215856552124,
          "255": 2.065946340560913,
          "256": 0.12348650395870209,
          "257": 0.9353604316711426,
          "258": 0.9182043075561523,
          "259": 0.9862387776374817,
          "260": -1.8000260591506958,
          "261": -0.7334865927696228,
          "262": -0.28320908546447754,
          "263": 3.4142749309539795,
          "264": -1.2939715385437012,
          "265": 0.747833788394928,
          "266": 0.5968136787414551,
          "267": -1.3343305587768555,
          "268": 0.9345113039016724,
          "269": 1.1119252443313599,
          "270": 1.16020667552948,
          "271": 0.01203679759055376,
          "272": -1.3859950304031372,
          "273": 1.2474594116210938,
          "274": 0.08990034461021423,
          "275": 1.5920162200927734,
          "276": 0.4121359884738922,
          "277": -0.8833863735198975,
          "278": 1.8076655864715576,
          "279": -0.0565190427005291,
          "280": -0.1838994175195694,
          "281": -0.3083314597606659,
          "282": -0.4545203149318695,
          "283": -0.25231969356536865,
          "284": 0.35580894351005554,
          "285": 0.6402913928031921,
          "286": -0.27384859323501587,
          "287": -0.021670600399374962,
          "288": 0.23312917351722717,
          "289": -0.671859860420227,
          "290": 0.5815120935440063,
          "291": 0.33541470766067505,
          "292": 0.20390069484710693,
          "293": 0.03098548762500286,
          "294": -0.12563130259513855,
          "295": 0.1398925483226776,
          "296": -1.3289817571640015,
          "297": -0.21396848559379578,
          "298": 0.0535617396235466,
          "299": 0.9866843223571777,
          "300": -0.7051185965538025,
          "301": -0.48494425415992737,
          "302": 0.4629366993904114,
          "303": 0.32485970854759216,
          "304": -0.14387847483158112,
          "305": -0.17820148169994354,
          "306": -0.6300429701805115,
          "307": 1.3073210716247559,
          "308": 1.1867187023162842,
          "309": 0.9866037368774414,
          "310": -0.09635496884584427,
          "311": -0.38758599758148193,
          "312": -1.9219409227371216,
          "313": 0.08310884237289429,
          "314": 0.9039022922515869,
          "315": 0.11584743857383728,
          "316": -0.7983922958374023,
          "317": -0.37195438146591187,
          "318": 0.003624700242653489,
          "319": -0.359392911195755,
          "320": -0.3709201216697693,
          "321": -0.0856437161564827,
          "322": -0.9008728265762329,
          "323": 0.8276758193969727,
          "324": 0.2885570824146271,
          "325": 0.17288365960121155,
          "326": -0.8517699241638184,
          "327": 0.3793516755104065,
          "328": -0.1089315265417099,
          "329": 2.081740379333496,
          "330": -0.6157031059265137,
          "331": -2.1233279705047607,
          "332": -0.19057615101337433,
          "333": -0.7451772689819336,
          "334": -0.2160061150789261,
          "335": -0.23231323063373566,
          "336": -1.6337368488311768,
          "337": -1.326830506324768,
          "338": 0.053097814321517944,
          "339": -0.545088529586792,
          "340": -0.01064673624932766,
          "341": 0.9113852381706238,
          "342": 0.11167297512292862,
          "343": 1.8366045951843262,
          "344": 0.2251628339290619,
          "345": -0.8121684193611145,
          "346": -0.4590436816215515,
          "347": 0.37441959977149963,
          "348": -1.075350284576416,
          "349": 0.564332127571106,
          "350": 0.15166452527046204,
          "351": -0.34732094407081604,
          "352": -1.0954556465148926,
          "353": -0.5401636362075806,
          "354": -0.5705779790878296,
          "355": -0.7918557524681091,
          "356": 0.26358044147491455,
          "357": -0.5306065678596497,
          "358": -0.3016107380390167,
          "359": -0.39927807450294495,
          "360": -0.2045382559299469,
          "361": -0.4588009715080261,
          "362": -0.4183647632598877,
          "363": -0.4415101408958435,
          "364": -1.6117663383483887,
          "365": -1.0479100942611694,
          "366": 0.39960476756095886,
          "367": -0.05520174652338028,
          "368": 0.7636328935623169,
          "369": -0.9438472390174866,
          "370": 0.8749188184738159,
          "371": -0.6790480613708496,
          "372": -0.006374178919941187,
          "373": -1.04833984375,
          "374": 1.2933979034423828,
          "375": -0.13892799615859985,
          "376": -0.5503565669059753,
          "377": 0.047191496938467026,
          "378": -1.0150240659713745,
          "379": 0.24862796068191528,
          "380": 0.9043974876403809,
          "381": -0.12867926061153412,
          "382": -1.1790434122085571,
          "383": -0.24183817207813263,
          "384": 0.3370106816291809,
          "385": -0.12098325043916702,
          "386": -0.40285271406173706,
          "387": 0.7086652517318726,
          "388": 0.6651328802108765,
          "389": -0.5436974167823792,
          "390": 2.179042100906372,
          "391": 0.2946149408817291,
          "392": 1.0214405059814453,
          "393": 1.5047540664672852,
          "394": 0.13997958600521088,
          "395": 0.31881216168403625,
          "396": 0.2990262508392334,
          "397": -1.0774426460266113,
          "398": 0.3081943094730377,
          "399": 0.8985325694084167,
          "400": -0.7579280734062195,
          "401": -0.7748122215270996,
          "402": 0.5794153809547424,
          "403": -0.8544444441795349,
          "404": -1.6491508483886719,
          "405": 0.39175963401794434,
          "406": 1.477189302444458,
          "407": -1.0416467189788818,
          "408": -0.6264852285385132,
          "409": 0.7098293304443359,
          "410": -1.766416311264038,
          "411": 1.0294383764266968,
          "412": 0.5203177332878113,
          "413": 0.4909830093383789,
          "414": 0.8178579211235046,
          "415": 0.2379014492034912,
          "416": -0.8109639883041382,
          "417": -0.0345359742641449,
          "418": 0.92411869764328,
          "419": 0.563782811164856,
          "420": 1.0207810401916504,
          "421": 0.518328070640564,
          "422": 1.0992871522903442,
          "423": -0.06615538150072098,
          "424": -0.8821991086006165,
          "425": -0.552855372428894,
          "426": -0.2946648895740509,
          "427": 0.22494256496429443,
          "428": -0.8004010319709778,
          "429": 0.18308593332767487,
          "430": -0.8772509694099426,
          "431": 2.5377538204193115,
          "432": -0.3371826708316803,
          "433": -0.6223573088645935,
          "434": 0.7672038078308105,
          "435": -0.29102957248687744,
          "436": 2.0635921955108643,
          "437": 1.0271732807159424,
          "438": 1.3841145038604736,
          "439": -1.9109032154083252,
          "440": -1.8931277990341187,
          "441": 1.412346363067627,
          "442": 0.275671124458313,
          "443": 0.20177732408046722,
          "444": 1.4364043474197388,
          "445": -1.0497117042541504,
          "446": 0.19572582840919495,
          "447": 3.2115981578826904,
          "448": 0.4239756166934967,
          "449": -1.0391658544540405,
          "450": -0.6838712692260742,
          "451": -0.2206616848707199,
          "452": -0.08534765988588333,
          "453": 2.341887950897217,
          "454": 0.8874871134757996,
          "455": 0.046600714325904846,
          "456": -0.36725783348083496,
          "457": 1.6923235654830933,
          "458": 0.09400220215320587,
          "459": -0.39435282349586487,
          "460": -0.6460360884666443,
          "461": -0.028821930289268494,
          "462": -1.3068492412567139,
          "463": 0.5407882928848267,
          "464": 0.7119004726409912,
          "465": -2.3183133602142334,
          "466": -0.22254452109336853,
          "467": 0.7520176768302917,
          "468": -0.1820010095834732,
          "469": 0.18059514462947845,
          "470": -1.2078403234481812,
          "471": 0.5397729277610779,
          "472": -0.5031678676605225,
          "473": 0.2682066559791565,
          "474": -1.0006368160247803,
          "475": -1.676866888999939,
          "476": 0.0053048087283968925,
          "477": 0.3553687632083893,
          "478": -0.06026754900813103,
          "479": 0.4946363568305969,
          "480": 0.6224104762077332,
          "481": -0.4541880786418915,
          "482": -0.3000998795032501,
          "483": 0.515160083770752,
          "484": -1.2562450170516968,
          "485": -1.6510918140411377,
          "486": -0.30656155943870544,
          "487": 0.5007200837135315,
          "488": -0.9622341394424438,
          "489": -1.7803963422775269,
          "490": 0.1689029335975647,
          "491": 0.6434035897254944,
          "492": -0.0777294859290123,
          "493": 0.3008750081062317,
          "494": -0.11378131806850433,
          "495": 0.5297133326530457,
          "496": 0.5666148066520691,
          "497": 1.4341732263565063,
          "498": 1.8851304054260254,
          "499": -1.0265179872512817,
          "500": -2.927703380584717,
          "501": 1.0325862169265747,
          "502": -0.755921483039856,
          "503": -0.574228048324585,
          "504": 0.8303148150444031,
          "505": -0.33399704098701477,
          "506": 0.6096400022506714,
          "507": -0.507632851600647,
          "508": -0.859607458114624,
          "509": 0.6338912844657898,
          "510": 1.1307567358016968,
          "511": 0.6354835033416748,
          "512": 1.0323716402053833,
          "513": 0.058215413242578506,
          "514": 0.3720964193344116,
          "515": 0.8016142249107361,
          "516": 1.0650198459625244,
          "517": -1.7640856504440308,
          "518": -0.29650986194610596,
          "519": 0.8288925886154175,
          "520": -0.3523606061935425,
          "521": 0.6581522226333618,
          "522": 0.3177979588508606,
          "523": -0.16962753236293793,
          "524": 0.7248480916023254,
          "525": 1.9392379522323608,
