{
  "type": "LSTM",
  "options": {
    "inputSize": 47,
    "inputRange": 47,
    "hiddenLayers": [
      20,
      20
    ],
    "outputSize": 47,
    "decayRate": 0.999,
    "smoothEps": 1e-8,
    "regc": 0.000001,
    "clipval": 5,
    "maxPredictionLength": 100,
    "dataFormatter": {
      "values": [
        "Appreciate every day",
        "What is the meaning of life?",
        "boston",
        "copy file into docker container",
        "docker cp ./some_file CONTAINER:/work",
        "favorite city",
        "favorite cloud",
        "favorite food",
        "favorite rock",
        "favorite state",
        "git pull origin --rebase",
        "how to clean node cache",
        "how to rebase in git",
        "how to run nodejs file on command line",
        "how to view all ports being used on mac",
        "igneous",
        "mass",
        "node --experimental-modules src/file.js",
        "npm cache clean --force",
        "pizza",
        "stratus",
        "sudo lsof -iTCP -sTCP:LISTEN -n -P"
      ],
      "indexTable": {
        "A": 0,
        "p": 1,
        "r": 2,
        "e": 3,
        "c": 4,
        "i": 5,
        "a": 6,
        "t": 7,
        " ": 8,
        "v": 9,
        "y": 10,
        "d": 11,
        "W": 12,
        "h": 13,
        "s": 14,
        "m": 15,
        "n": 16,
        "g": 17,
        "o": 18,
        "f": 19,
        "l": 20,
        "?": 21,
        "b": 22,
        "k": 23,
        ".": 24,
        "/": 25,
        "_": 26,
        "C": 27,
        "O": 28,
        "N": 29,
        "T": 30,
        "I": 31,
        "E": 32,
        "R": 33,
        ":": 34,
        "w": 35,
        "u": 36,
        "-": 37,
        "j": 38,
        "x": 39,
        "z": 40,
        "P": 41,
        "L": 42,
        "S": 43,
        "stop-input": 44,
        "start-output": 45,
        "unrecognized": 46
      },
      "characterTable": {
        "0": "A",
        "1": "p",
        "2": "r",
        "3": "e",
        "4": "c",
        "5": "i",
        "6": "a",
        "7": "t",
        "8": " ",
        "9": "v",
        "10": "y",
        "11": "d",
        "12": "W",
        "13": "h",
        "14": "s",
        "15": "m",
        "16": "n",
        "17": "g",
        "18": "o",
        "19": "f",
        "20": "l",
        "21": "?",
        "22": "b",
        "23": "k",
        "24": ".",
        "25": "/",
        "26": "_",
        "27": "C",
        "28": "O",
        "29": "N",
        "30": "T",
        "31": "I",
        "32": "E",
        "33": "R",
        "34": ":",
        "35": "w",
        "36": "u",
        "37": "-",
        "38": "j",
        "39": "x",
        "40": "z",
        "41": "P",
        "42": "L",
        "43": "S",
        "44": null,
        "45": null,
        "46": null
      },
      "characters": [
        "A",
        "p",
        "r",
        "e",
        "c",
        "i",
        "a",
        "t",
        " ",
        "v",
        "y",
        "d",
        "W",
        "h",
        "s",
        "m",
        "n",
        "g",
        "o",
        "f",
        "l",
        "?",
        "b",
        "k",
        ".",
        "/",
        "_",
        "C",
        "O",
        "N",
        "T",
        "I",
        "E",
        "R",
        ":",
        "w",
        "u",
        "-",
        "j",
        "x",
        "z",
        "P",
        "L",
        "S",
        "stop-input",
        "start-output",
        "unrecognized"
      ],
      "specialIndexes": [
        44,
        45,
        46
      ]
    }
  },
  "input": {
    "rows": 48,
    "columns": 47,
    "weights": {
      "0": 1.4504622220993042,
      "1": 0.019970767199993134,
      "2": 0.9120440483093262,
      "3": -0.03426893800497055,
      "4": 0.9212316870689392,
      "5": -1.344061017036438,
      "6": -0.40657827258110046,
      "7": -0.013149380683898926,
      "8": 0.500074565410614,
      "9": -0.4100102484226227,
      "10": 0.46376901865005493,
      "11": 1.3573359251022339,
      "12": -0.03703175485134125,
      "13": 1.48838472366333,
      "14": -0.4580805003643036,
      "15": -0.5648137331008911,
      "16": 0.7089787721633911,
      "17": -0.5728421211242676,
      "18": 1.6903291940689087,
      "19": 0.8738692998886108,
      "20": -0.44461315870285034,
      "21": -0.450528085231781,
      "22": -1.0810554027557373,
      "23": 0.0018730158917605877,
      "24": 0.8199073672294617,
      "25": 0.933112382888794,
      "26": 0.11667531728744507,
      "27": 0.28474515676498413,
      "28": 1.4842798709869385,
      "29": -1.0386930704116821,
      "30": -0.03737851232290268,
      "31": -0.33333247900009155,
      "32": -0.07470101118087769,
      "33": 0.3273439407348633,
      "34": -0.41453883051872253,
      "35": -1.0844464302062988,
      "36": 0.819236159324646,
      "37": 0.36678242683410645,
      "38": -0.08750919997692108,
      "39": 0.14574231207370758,
      "40": 1.5064477920532227,
      "41": 0.35799771547317505,
      "42": -0.236693874001503,
      "43": 0.36988675594329834,
      "44": 0.25677594542503357,
      "45": -1.4179553985595703,
      "46": 0.4789573550224304,
      "47": 0.3150162398815155,
      "48": -1.7212929725646973,
      "49": 1.830368161201477,
      "50": -0.7697920203208923,
      "51": -1.6758772134780884,
      "52": -1.4858952760696411,
      "53": 0.7806050777435303,
      "54": -0.40146374702453613,
      "55": -1.4856864213943481,
      "56": -1.6628321409225464,
      "57": 0.11013805121183395,
      "58": 2.8465592861175537,
      "59": -1.349496841430664,
      "60": 1.3685896396636963,
      "61": -0.6323081254959106,
      "62": 3.085024356842041,
      "63": -1.6532127857208252,
      "64": -3.153703451156616,
      "65": 2.624547004699707,
      "66": 2.057724952697754,
      "67": 1.1373810768127441,
      "68": 4.074230670928955,
      "69": 0.7727547287940979,
      "70": -1.139459252357483,
      "71": 0.5719645619392395,
      "72": 2.3513541221618652,
      "73": -0.4438842833042145,
      "74": -1.973280906677246,
      "75": 1.7109171152114868,
      "76": -2.814594030380249,
      "77": 0.17779214680194855,
      "78": 0.04569325968623161,
      "79": 1.2980501651763916,
      "80": -0.5795497298240662,
      "81": 1.0005543231964111,
      "82": -1.7311992645263672,
      "83": -1.0774805545806885,
      "84": -1.3482799530029297,
      "85": -1.9868353605270386,
      "86": -2.289123773574829,
      "87": 0.7735514640808105,
      "88": -0.4056686758995056,
      "89": 1.4612338542938232,
      "90": -1.8872053623199463,
      "91": 1.3066794872283936,
      "92": -3.1582765579223633,
      "93": -1.1954396963119507,
      "94": -2.1155292987823486,
      "95": 0.5076074004173279,
      "96": 0.254956990480423,
      "97": 1.1812098026275635,
      "98": 0.7068678736686707,
      "99": 1.066029667854309,
      "100": -0.37981677055358887,
      "101": -0.9921408891677856,
      "102": 1.2949408292770386,
      "103": -0.326997846364975,
      "104": 2.229008436203003,
      "105": 0.3987962305545807,
      "106": 0.07343067228794098,
      "107": -1.3992100954055786,
      "108": -0.20867231488227844,
      "109": -1.041085124015808,
      "110": 1.4937382936477661,
      "111": 0.9895198345184326,
      "112": -2.9324676990509033,
      "113": -1.0895955562591553,
      "114": 0.7297775745391846,
      "115": -1.1668967008590698,
      "116": -0.7470473647117615,
      "117": 0.2477470487356186,
      "118": 2.200643301010132,
      "119": 0.3640766441822052,
      "120": 0.044493772089481354,
      "121": 3.185424327850342,
      "122": -2.660999298095703,
      "123": 1.3984270095825195,
      "124": 0.4893258213996887,
      "125": 1.3600482940673828,
      "126": -1.1238791942596436,
      "127": 1.1283308267593384,
      "128": -1.1767889261245728,
      "129": 1.280476450920105,
      "130": 0.7888208031654358,
      "131": -0.6229224801063538,
      "132": 2.2638401985168457,
      "133": 1.15044367313385,
      "134": -1.3998329639434814,
      "135": 0.4966006875038147,
      "136": -0.5453096032142639,
      "137": 3.5207011699676514,
      "138": -1.7774879932403564,
      "139": 0.42398372292518616,
      "140": 0.17031025886535645,
      "141": -0.3032625913619995,
      "142": -1.896815538406372,
      "143": -1.4264854192733765,
      "144": -0.48086264729499817,
      "145": 1.3402782678604126,
      "146": 0.04350190609693527,
      "147": -0.8216928839683533,
      "148": 0.24971291422843933,
      "149": -0.2328139990568161,
      "150": -0.25623539090156555,
      "151": 1.0982543230056763,
      "152": -0.002854748163372278,
      "153": 0.1631481647491455,
      "154": -0.09105561673641205,
      "155": 0.3626425266265869,
      "156": 0.7639654874801636,
      "157": 1.4475398063659668,
      "158": 2.1365063190460205,
      "159": -0.5776765942573547,
      "160": -0.3354659080505371,
      "161": -0.5357706546783447,
      "162": -0.20268361270427704,
      "163": 1.2216298580169678,
      "164": -0.18615838885307312,
      "165": 0.36058083176612854,
      "166": 1.47764253616333,
      "167": 0.05893855541944504,
      "168": -1.0140997171401978,
      "169": -0.8863271474838257,
      "170": 2.706768035888672,
      "171": -0.12147040665149689,
      "172": 0.1964622586965561,
      "173": -1.2037173509597778,
      "174": 0.2735139727592468,
      "175": 0.4412318766117096,
      "176": 1.5126233100891113,
      "177": -0.3294210433959961,
      "178": -0.3046635091304779,
      "179": 0.3675462305545807,
      "180": 0.4891018271446228,
      "181": -1.315886378288269,
      "182": -0.3648492991924286,
      "183": 0.6825567483901978,
      "184": -0.031604547053575516,
      "185": 0.16485953330993652,
      "186": 0.15437769889831543,
      "187": 0.21147342026233673,
      "188": -0.6577492952346802,
      "189": 0.23858854174613953,
      "190": 0.37516534328460693,
      "191": 1.1754157543182373,
      "192": -1.5471935272216797,
      "193": 0.7377455234527588,
      "194": 0.16123299300670624,
      "195": -0.9848840832710266,
      "196": 0.3890179693698883,
      "197": 0.6098070740699768,
      "198": -0.43551263213157654,
      "199": 1.081002116203308,
      "200": -1.513594627380371,
      "201": -0.9294400215148926,
      "202": 0.23187299072742462,
      "203": 0.32782119512557983,
      "204": 0.7008610963821411,
      "205": -0.9106742143630981,
      "206": -0.12055785208940506,
      "207": 0.8395586609840393,
      "208": -0.4058629274368286,
      "209": 0.2724340260028839,
      "210": -0.1780574768781662,
      "211": -0.35148486495018005,
      "212": -0.7573337554931641,
      "213": -0.10382726043462753,
      "214": -0.17136649787425995,
      "215": -0.21608023345470428,
      "216": -0.15766920149326324,
      "217": -0.3460903465747833,
      "218": -0.0819653570652008,
      "219": -0.47552794218063354,
      "220": 0.3654320240020752,
      "221": -0.26218873262405396,
      "222": -0.31384116411209106,
      "223": -0.22235073149204254,
      "224": 0.29970335960388184,
      "225": -0.8143094182014465,
      "226": -1.5426636934280396,
      "227": -0.8741759657859802,
      "228": -0.391813725233078,
      "229": 2.151259422302246,
      "230": -0.2687724232673645,
      "231": 0.302465558052063,
      "232": -0.1169576570391655,
      "233": -1.187792420387268,
      "234": 1.2228416204452515,
      "235": 0.767388641834259,
      "236": 0.9794694185256958,
      "237": 0.1998547464609146,
      "238": 0.054406456649303436,
      "239": 0.20205150544643402,
      "240": 0.17572450637817383,
      "241": 1.073344111442566,
      "242": -1.5177404880523682,
      "243": 0.15432152152061462,
      "244": -0.5962696075439453,
      "245": 1.2822149991989136,
      "246": 1.4168150424957275,
      "247": -1.4414068460464478,
      "248": 0.35513612627983093,
      "249": 0.39980852603912354,
      "250": -1.8642181158065796,
      "251": 1.0054079294204712,
      "252": 1.9047752618789673,
      "253": 0.033511921763420105,
      "254": 1.270493507385254,
      "255": -0.3272581696510315,
      "256": -0.6994267106056213,
      "257": -0.08210039883852005,
      "258": -0.1732661873102188,
      "259": -0.15734846889972687,
      "260": 0.33443838357925415,
      "261": 0.7341691851615906,
      "262": 0.5526937246322632,
      "263": 0.13369053602218628,
      "264": 0.5455076694488525,
      "265": -0.1960318684577942,
      "266": -1.9826902151107788,
      "267": -2.8107364177703857,
      "268": -0.2648380696773529,
      "269": -1.0975286960601807,
      "270": 0.40767085552215576,
      "271": -0.19562958180904388,
      "272": -0.10003144294023514,
      "273": -0.31173115968704224,
      "274": -0.5035573840141296,
      "275": -0.2034434974193573,
      "276": -0.18289338052272797,
      "277": -2.2498884201049805,
      "278": 0.6351708769798279,
      "279": -0.6646934747695923,
      "280": -1.134720802307129,
      "281": 0.12492667883634567,
      "282": 0.3502967059612274,
      "283": -1.5751608610153198,
      "284": -0.19769169390201569,
      "285": -0.8386892676353455,
      "286": 1.2261959314346313,
      "287": -0.16830448806285858,
      "288": -1.9673725366592407,
      "289": 1.5993672609329224,
      "290": -2.234631061553955,
      "291": 0.12531375885009766,
      "292": 0.8200363516807556,
      "293": 0.5845819711685181,
      "294": 1.6925431489944458,
      "295": -0.05017019808292389,
      "296": -0.16249115765094757,
      "297": 0.4950917661190033,
      "298": 0.14082029461860657,
      "299": 1.6314738988876343,
      "300": -0.5035828351974487,
      "301": 0.8166469931602478,
      "302": 1.1213701963424683,
      "303": 1.0013694763183594,
      "304": 0.7830891013145447,
      "305": -0.20388539135456085,
      "306": 0.4042510390281677,
      "307": 0.6108455061912537,
      "308": -1.8916552066802979,
      "309": -1.6527656316757202,
      "310": -0.1736583113670349,
      "311": 1.1077539920806885,
      "312": 1.2512428760528564,
      "313": 1.561034083366394,
      "314": -1.0499424934387207,
      "315": -0.9654719829559326,
      "316": 1.1759262084960938,
      "317": 0.5102075338363647,
      "318": -1.365676999092102,
      "319": 0.38187769055366516,
      "320": -0.9233295917510986,
      "321": -0.36941325664520264,
      "322": -0.8898802995681763,
      "323": -0.7539052367210388,
      "324": 1.7731084823608398,
      "325": -1.2948782444000244,
      "326": 1.3448998928070068,
      "327": -0.34466487169265747,
      "328": -1.1888641119003296,
      "329": 0.2429971694946289,
      "330": -0.6359196901321411,
      "331": -0.11884395033121109,
      "332": 0.6509469747543335,
      "333": 0.025202011689543724,
      "334": -0.7215059399604797,
      "335": -0.3629404604434967,
      "336": 0.43489187955856323,
      "337": -0.0866570845246315,
      "338": -1.335519790649414,
      "339": -0.010351653210818768,
      "340": 0.4133630394935608,
      "341": 0.2825784981250763,
      "342": 0.6432180404663086,
      "343": -0.6330012679100037,
      "344": 0.15244479477405548,
      "345": -0.3486979901790619,
      "346": -0.015851931646466255,
      "347": -0.03686560317873955,
      "348": 0.8452321290969849,
      "349": 0.6227874755859375,
      "350": -0.2332940697669983,
      "351": -0.020900925621390343,
      "352": -0.482336163520813,
      "353": -0.04293209686875343,
      "354": 1.0831159353256226,
      "355": -0.5006027817726135,
      "356": -0.1341688483953476,
      "357": 0.17384636402130127,
      "358": 1.071831464767456,
      "359": 0.6310214996337891,
      "360": 0.027182115241885185,
      "361": 0.3418835997581482,
      "362": -1.1462104320526123,
      "363": 0.7360445261001587,
      "364": -0.4794687330722809,
      "365": -0.2312089055776596,
      "366": -0.19775132834911346,
      "367": -0.03684600442647934,
      "368": -0.2718118727207184,
      "369": 0.5314850807189941,
      "370": 0.16195790469646454,
      "371": 0.2442883849143982,
      "372": 0.48023101687431335,
      "373": 0.8082697987556458,
      "374": -0.6041845679283142,
      "375": -0.5256048440933228,
      "376": 0.6321471929550171,
      "377": 0.1854516714811325,
      "378": -0.0477479062974453,
      "379": -0.41763371229171753,
      "380": 2.3026199340820312,
      "381": -0.5044670104980469,
      "382": -0.885893702507019,
      "383": 0.09180736541748047,
      "384": -0.24386782944202423,
      "385": 1.061154842376709,
      "386": 0.5194886326789856,
      "387": -0.06693001836538315,
      "388": 0.7555659413337708,
      "389": 0.24688556790351868,
      "390": -0.0009783199056982994,
      "391": -1.2810981273651123,
      "392": 1.2073380947113037,
      "393": 2.879399538040161,
      "394": 0.5426402688026428,
      "395": 0.15639770030975342,
      "396": -1.2210363149642944,
      "397": -0.6337099075317383,
      "398": 0.5208806395530701,
      "399": -0.47880086302757263,
      "400": -0.0859028622508049,
      "401": -0.4477531313896179,
      "402": -0.04473670944571495,
      "403": -0.4777534008026123,
      "404": 0.35611239075660706,
      "405": 0.8471338152885437,
      "406": 0.05386754497885704,
      "407": -1.3956921100616455,
      "408": -0.25838544964790344,
      "409": 0.334499329328537,
      "410": -0.5385196208953857,
      "411": 0.5024300813674927,
      "412": -1.0852535963058472,
      "413": 1.4034992456436157,
      "414": 0.001080755260773003,
      "415": 0.18711404502391815,
      "416": -1.4513651132583618,
      "417": -1.8992887735366821,
      "418": -0.06371710449457169,
      "419": -0.46680349111557007,
      "420": -0.9208762049674988,
      "421": 1.1407618522644043,
      "422": -0.31862321496009827,
      "423": -1.0866833925247192,
      "424": -0.15464405715465546,
      "425": -0.8659782409667969,
      "426": -0.46003395318984985,
      "427": -0.8553596138954163,
      "428": 0.7639370560646057,
      "429": -0.196554034948349,
      "430": 0.9080409407615662,
      "431": -0.6285271048545837,
      "432": 1.876508355140686,
      "433": -0.011342626996338367,
      "434": -1.3478857278823853,
      "435": 1.209953784942627,
      "436": -1.0690277814865112,
      "437": 2.189049482345581,
      "438": 0.8402913808822632,
      "439": -0.2666110098361969,
      "440": 0.9557896852493286,
      "441": 0.5828611850738525,
      "442": -1.1460412740707397,
      "443": 0.21446235477924347,
      "444": 0.6395103335380554,
      "445": 0.15624023973941803,
      "446": 1.6360357999801636,
      "447": 0.6262174248695374,
      "448": -0.8150074481964111,
      "449": 0.257291704416275,
      "450": -0.656079888343811,
      "451": 0.4154561460018158,
      "452": -0.013339618220925331,
      "453": -0.6122055053710938,
      "454": 0.49776792526245117,
      "455": 0.21144643425941467,
      "456": 0.006797044537961483,
      "457": 0.6013509631156921,
      "458": 0.09644496440887451,
      "459": 0.2860032916069031,
      "460": -0.4943118691444397,
      "461": -0.13570185005664825,
      "462": 1.0012325048446655,
      "463": -0.7300759553909302,
      "464": -0.07175297290086746,
      "465": 0.875005841255188,
      "466": -0.6437661051750183,
      "467": 0.38182497024536133,
      "468": 1.4418010711669922,
      "469": 0.017570573836565018,
      "470": 0.2122078537940979,
      "471": 0.8477750420570374,
      "472": -1.4143807888031006,
      "473": -0.17728033661842346,
      "474": 0.014140157029032707,
      "475": 0.7356113195419312,
      "476": -0.45433080196380615,
      "477": -0.7546989917755127,
      "478": -0.15114857256412506,
      "479": 0.5162667036056519,
      "480": 2.046440839767456,
      "481": -0.5843200087547302,
      "482": -1.3983997106552124,
      "483": -1.9090125560760498,
      "484": 1.1846848726272583,
      "485": -1.3684754371643066,
      "486": 2.4276974201202393,
      "487": 2.720745325088501,
      "488": -2.2280330657958984,
      "489": -0.4492848515510559,
      "490": 0.16293781995773315,
      "491": -1.450411081314087,
      "492": 0.17778588831424713,
      "493": -0.5349510312080383,
      "494": 1.1974718570709229,
      "495": -2.7351746559143066,
      "496": 0.28635188937187195,
      "497": 1.150838017463684,
      "498": -2.108060121536255,
      "499": 1.392431616783142,
      "500": 0.16972270607948303,
      "501": 0.5998337268829346,
      "502": -1.1979652643203735,
      "503": 0.9649677872657776,
      "504": -0.6846091151237488,
      "505": 1.6488924026489258,
      "506": -0.5400500297546387,
      "507": -0.018677813932299614,
      "508": -0.9514551162719727,
      "509": -0.21822258830070496,
      "510": -2.015695810317993,
      "511": 0.10329513996839523,
      "512": -0.6390018463134766,
      "513": 0.5049922466278076,
      "514": -2.0464999675750732,
      "515": 1.4372674226760864,
      "516": -0.3611571192741394,
      "517": 0.3674212396144867,
      "518": -0.6663459539413452,
      "519": 1.9129494428634644,
      "520": 2.479292869567871,
      "521": 0.22642681002616882,
      "522": -2.00122332572937,
      "523": 0.47813260555267334,
      "524": -1.7176260948181152,
      "525": 0.92600417137146,
      "526": 0.22490809857845306,
      "527": -1.5096757411956787,
      "528": -1.6398245096206665,
      "529": -2.227044105529785,
      "530": 0.9613168835639954,
      "531": 0.8532596826553345,
      "532": -1.1831101179122925,
      "533": 1.3671939373016357,
      "534": -0.40906766057014465,
      "535": 1.2240175008773804,
      "536": -1.1883188486099243,
      "537": -1.761627435684204,
      "538": -1.5573445558547974,
      "539": -2.263660430908203,
      "540": -2.0143043994903564,
      "541": -0.5530181527137756,
      "542": 1.7846062183380127,
      "543": 1.7722432613372803,
      "544": 1.7866142988204956,
      "545": 1.4285595417022705,
      "546": 1.9470188617706299,
      "547": -1.8045711517333984,
      "548": -2.3136162757873535,
      "549": -2.527454376220703,
      "550": 1.7328853607177734,
      "551": -1.5874474048614502,
      "552": -1.1932895183563232,
      "553": 2.898500442504883,
      "554": -1.344107985496521,
      "555": 3.2861216068267822,
      "556": -1.1965110301971436,
      "557": -3.0338752269744873,
      "558": 2.2692112922668457,
      "559": -3.4201531410217285,
      "560": 2.243450403213501,
      "561": -2.022242307662964,
      "562": 1.8102350234985352,
      "563": 0.05665880814194679,
      "564": 0.7817884087562561,
      "565": -2.00887131690979,
      "566": -1.0495314598083496,
      "567": 1.5586249828338623,
      "568": 4.201396942138672,
      "569": -0.503132700920105,
      "570": -2.6579108238220215,
      "571": -0.14855127036571503,
      "572": 1.148254156112671,
      "573": -0.05608813837170601,
      "574": 0.12906287610530853,
      "575": 0.425942987203598,
      "576": -0.7166160941123962,
      "577": 1.1034739017486572,
      "578": -1.1846705675125122,
      "579": 0.7747738361358643,
      "580": -0.1084175780415535,
      "581": 0.5003986954689026,
      "582": 0.04723944142460823,
      "583": -0.35540351271629333,
      "584": -0.9950476884841919,
      "585": 0.5105782151222229,
      "586": 0.25751978158950806,
      "587": -2.1816556453704834,
      "588": 0.19968780875205994,
      "589": 2.6136879920959473,
      "590": -0.9314815402030945,
      "591": -1.3602474927902222,
      "592": -0.1665559858083725,
      "593": 1.2519572973251343,
      "594": 0.10521653294563293,
      "595": 0.7346364855766296,
      "596": 0.3644919991493225,
      "597": 1.7449811697006226,
      "598": 0.4310990273952484,
      "599": 1.3491642475128174,
      "600": 0.2384243905544281,
      "601": 2.072479248046875,
      "602": -0.368519127368927,
      "603": -1.8079355955123901,
      "604": -0.4834709167480469,
      "605": -1.8052499294281006,
      "606": 0.4835783839225769,
      "607": -1.4864970445632935,
      "608": -0.33312302827835083,
      "609": -0.4719063639640808,
      "610": -2.4900341033935547,
      "611": 0.5762311220169067,
      "612": -0.5503391623497009,
      "613": 6.632820129394531,
      "614": 4.9723663330078125,
      "615": -0.7368504405021667,
      "616": 0.5683659911155701,
      "617": -1.4221066236495972,
      "618": 1.2775733470916748,
      "619": -1.4916402101516724,
      "620": 1.5480272769927979,
      "621": 0.5751469731330872,
      "622": -4.710117340087891,
      "623": 1.6234114170074463,
      "624": -0.5364134311676025,
      "625": -2.45182728767395,
      "626": -5.714699745178223,
      "627": 5.277731895446777,
      "628": -3.9413564205169678,
      "629": 0.22923403978347778,
      "630": -0.49583104252815247,
      "631": -4.256650924682617,
      "632": -4.9185991287231445,
      "633": -5.531968116760254,
      "634": -0.10376027971506119,
      "635": 1.5202090740203857,
      "636": -0.6305678486824036,
      "637": 4.632967472076416,
      "638": 4.833189964294434,
      "639": 0.3743976056575775,
      "640": 2.2415411472320557,
      "641": -3.9612371921539307,
      "642": -2.6741867065429688,
      "643": 0.9049708247184753,
      "644": 4.502277374267578,
      "645": 2.246544599533081,
      "646": -1.7308847904205322,
      "647": 3.10434627532959,
      "648": -1.1866421699523926,
      "649": 2.2506258487701416,
      "650": 2.29826021194458,
      "651": -0.8974155187606812,
      "652": 4.842658519744873,
      "653": -1.3176206350326538,
      "654": 4.732937812805176,
      "655": -1.6248635053634644,
      "656": 3.218017101287842,
      "657": 2.517875909805298,
      "658": -1.1317471265792847,
      "659": -1.0068360567092896,
      "660": -0.4758427143096924,
      "661": -1.662509560585022,
      "662": 3.4406747817993164,
      "663": 2.2788314819335938,
      "664": -1.3078643083572388,
      "665": 1.8789637088775635,
      "666": 0.4000690281391144,
      "667": 2.6732749938964844,
      "668": 1.7561289072036743,
      "669": -6.464675426483154,
      "670": 0.8206689357757568,
      "671": 0.9532801508903503,
      "672": 3.001789093017578,
      "673": -1.2306350469589233,
      "674": 0.5967981219291687,
      "675": -0.9617958664894104,
      "676": 0.543558657169342,
      "677": -2.964036703109741,
      "678": 1.5583608150482178,
      "679": -0.7954156398773193,
      "680": 0.42159509658813477,
      "681": 0.5841265916824341,
      "682": 0.9892475008964539,
      "683": -0.603472113609314,
      "684": -2.340454578399658,
      "685": 0.6746577620506287,
      "686": 1.3474695682525635,
      "687": 4.954157829284668,
      "688": -0.4306454658508301,
      "689": -0.4598458409309387,
      "690": -1.2135337591171265,
      "691": -0.25600600242614746,
      "692": -0.018679790198802948,
      "693": 1.0681664943695068,
      "694": -0.9127727746963501,
      "695": 1.283817172050476,
      "696": 1.967029094696045,
      "697": 4.6235575675964355,
      "698": -1.9397608041763306,
      "699": -0.19338418543338776,
      "700": -0.46204933524131775,
      "701": 0.5225605368614197,
      "702": 0.5234241485595703,
      "703": 4.134998798370361,
      "704": -0.8027637004852295,
      "705": 1.9957274198532104,
      "706": -0.794601321220398,
      "707": 0.4154055416584015,
      "708": -0.013172145932912827,
      "709": 1.565065622329712,
      "710": 0.6574100852012634,
      "711": -0.7056172490119934,
      "712": 0.8781827092170715,
      "713": -0.2656554579734802,
      "714": 1.0376217365264893,
      "715": 1.7729862928390503,
      "716": -1.2454131841659546,
      "717": 1.9296324253082275,
      "718": -0.60761958360672,
      "719": 0.6327840685844421,
      "720": 0.01968369632959366,
      "721": 0.8019534945487976,
      "722": 1.2328969240188599,
      "723": -0.8942871689796448,
      "724": -1.7701929807662964,
      "725": 1.3783289194107056,
      "726": 0.05014690384268761,
      "727": -0.22451533377170563,
      "728": 0.7671027183532715,
      "729": 2.002135992050171,
      "730": -0.7525907158851624,
      "731": -0.27462509274482727,
      "732": -0.6299434304237366,
      "733": -0.8776323795318604,
      "734": -0.4628307819366455,
      "735": 1.4307749271392822,
      "736": 0.6370397210121155,
      "737": -2.006258249282837,
      "738": 1.205734133720398,
      "739": 0.26257461309432983,
      "740": -0.03586350753903389,
      "741": 0.13634367287158966,
      "742": -0.15060555934906006,
      "743": 0.8128986358642578,
      "744": 0.8983465433120728,
      "745": -0.9151343703269958,
      "746": -0.8541449904441833,
      "747": 0.9890198111534119,
      "748": -1.4505183696746826,
      "749": -0.9770299196243286,
      "750": 1.3392162322998047,
      "751": -0.26172786951065063,
      "752": -0.053281351923942566,
      "753": 2.0013272762298584,
      "754": 0.7427688241004944,
      "755": -1.2096225023269653,
      "756": -2.0837504863739014,
      "757": -1.5687768459320068,
      "758": 2.1002774238586426,
      "759": -0.7856399416923523,
      "760": -0.0582820363342762,
      "761": -0.37158018350601196,
      "762": 0.01066742092370987,
      "763": -0.11922360956668854,
      "764": 0.5690842270851135,
      "765": 3.07043719291687,
      "766": -0.41358083486557007,
      "767": -0.5825806856155396,
      "768": 0.5005325078964233,
      "769": -0.12498175352811813,
      "770": 3.5410337448120117,
      "771": -2.0640554428100586,
      "772": -0.923808753490448,
      "773": 0.44258081912994385,
      "774": 0.35302627086639404,
      "775": -0.25837838649749756,
      "776": 0.5768170356750488,
      "777": 0.24314230680465698,
      "778": 1.628481149673462,
      "779": -1.7826464176177979,
      "780": 2.9795002937316895,
      "781": -0.7926283478736877,
      "782": -1.6820523738861084,
      "783": -4.545860290527344,
      "784": -0.7285028100013733,
      "785": 1.5270369052886963,
      "786": -0.041731398552656174,
      "787": -0.8574240803718567,
      "788": -0.5056859254837036,
      "789": -1.43287193775177,
      "790": 3.1369469165802,
      "791": 0.1414557546377182,
      "792": 1.6176189184188843,
      "793": 1.9763085842132568,
      "794": 0.6392523646354675,
      "795": -0.557723343372345,
      "796": -0.053724873811006546,
      "797": -0.20873279869556427,
      "798": 1.5281215906143188,
      "799": 0.09504209458827972,
      "800": -1.5814764499664307,
      "801": 0.005722567904740572,
      "802": -0.5203235745429993,
      "803": 1.004675030708313,
      "804": 0.450278639793396,
      "805": -1.1405982971191406,
      "806": 1.4526183605194092,
      "807": -1.5782005786895752,
      "808": 0.5946238040924072,
      "809": 0.40628257393836975,
      "810": -0.03252410888671875,
      "811": 1.1653225421905518,
      "812": -0.43640080094337463,
      "813": -0.6923916935920715,
      "814": 1.0098257064819336,
      "815": -0.18644583225250244,
      "816": 0.7144257426261902,
      "817": 0.0460750088095665,
      "818": -0.23752082884311676,
      "819": 0.23754774034023285,
      "820": 0.12960253655910492,
      "821": 0.7148699164390564,
      "822": 0.04182625934481621,
      "823": 0.055157288908958435,
      "824": -0.05388994887471199,
      "825": -2.226503610610962,
      "826": -1.4218758344650269,
      "827": -0.18743419647216797,
      "828": 0.3951791524887085,
      "829": 1.7791951894760132,
      "830": 1.8110677003860474,
      "831": 0.3152815103530884,
      "832": 0.5274771451950073,
      "833": 0.7400066256523132,
      "834": -0.39007315039634705,
      "835": -0.009017672389745712,
      "836": 0.39837178587913513,
      "837": -2.3072972297668457,
      "838": -0.7701959609985352,
      "839": -0.029476797208189964,
      "840": -0.6528769135475159,
      "841": 2.1141040325164795,
      "842": -1.4251924753189087,
      "843": 0.4027841091156006,
      "844": -0.036961089819669724,
      "845": -0.2117600291967392,
      "846": 0.0834965780377388,
      "847": -3.326439380645752,
      "848": -0.4825901389122009,
      "849": -0.34690460562705994,
      "850": 2.5044329166412354,
      "851": 1.491740107536316,
      "852": -0.5161092281341553,
      "853": 3.1780340671539307,
      "854": 0.42588531970977783,
      "855": 2.0702478885650635,
      "856": 1.014710545539856,
      "857": -1.761095404624939,
      "858": 1.6124351024627686,
      "859": -0.3599667251110077,
      "860": -1.1986229419708252,
      "861": -0.7965551018714905,
      "862": 1.3005783557891846,
      "863": 0.3311149477958679,
      "864": 0.025081945583224297,
      "865": -1.882655143737793,
      "866": 0.2712111473083496,
      "867": -0.598918080329895,
      "868": 1.1944942474365234,
      "869": -1.1328459978103638,
      "870": 1.5969196557998657,
      "871": -1.3238173723220825,
      "872": -0.37941429018974304,
      "873": 0.7211207151412964,
      "874": 0.08326303213834763,
      "875": 2.884110450744629,
      "876": 0.1527317762374878,
      "877": 0.3041229546070099,
      "878": -0.8590267896652222,
      "879": 0.7257068753242493,
      "880": -0.03483443334698677,
      "881": 0.0654744803905487,
      "882": -0.24350512027740479,
      "883": 2.3635051250457764,
      "884": 0.9322502613067627,
      "885": -1.1681430339813232,
      "886": 0.15511073172092438,
      "887": -1.171669363975525,
      "888": 2.654407501220703,
      "889": 0.08335276693105698,
      "890": 0.3985120952129364,
      "891": 1.5260990858078003,
      "892": -0.41569650173187256,
      "893": 1.6530044078826904,
      "894": 0.5894752144813538,
      "895": 0.8464993834495544,
      "896": 0.7063425183296204,
      "897": 1.1180981397628784,
      "898": 0.9567112922668457,
      "899": -0.6659388542175293,
      "900": -0.49621352553367615,
      "901": 0.6755161881446838,
      "902": 1.5633195638656616,
      "903": -0.2981218695640564,
      "904": -0.9964411854743958,
      "905": 0.10362938791513443,
      "906": -0.6056086421012878,
      "907": -0.45706355571746826,
      "908": -0.8335266709327698,
      "909": 0.07107831537723541,
      "910": -0.3592683970928192,
      "911": 0.9382427334785461,
      "912": -1.0078027248382568,
      "913": -0.9009314775466919,
      "914": -0.5873779058456421,
      "915": -0.5057678818702698,
      "916": -1.0003694295883179,
      "917": 0.2917216718196869,
      "918": -1.5211989879608154,
      "919": -0.38092270493507385,
      "920": 0.5932279825210571,
      "921": 0.8553639054298401,
      "922": -2.108189105987549,
      "923": 0.43285706639289856,
      "924": 0.6952158212661743,
      "925": 1.261624813079834,
      "926": 1.4037829637527466,
      "927": -0.0603807307779789,
      "928": -1.4350534677505493,
      "929": 1.6083576679229736,
      "930": 1.0127806663513184,
      "931": -0.9198859333992004,
      "932": -0.9052230715751648,
      "933": 0.4570630192756653,
      "934": -0.36267805099487305,
      "935": -0.6545550227165222,
      "936": -0.5039019584655762,
      "937": -0.804134726524353,
      "938": 0.6256691217422485,
      "939": 0.9808980226516724,
      "940": -0.9615482091903687,
      "941": -0.6724498271942139,
      "942": -1.6593352556228638,
      "943": 1.2461864948272705,
      "944": 1.0355042219161987,
      "945": 2.8183016777038574,
      "946": -0.4101536273956299,
      "947": 0.2652476131916046,
      "948": 1.0685368776321411,
      "949": -0.6988881826400757,
      "950": -1.2270731925964355,
      "951": -1.2158993482589722,
      "952": -0.463180810213089,
      "953": -1.34099543094635,
      "954": 0.5786402821540833,
      "955": 0.07869669049978256,
      "956": 1.556408405303955,
      "957": -0.0522465854883194,
      "958": -1.7343900203704834,
      "959": -0.1693093627691269,
      "960": 0.06532518565654755,
      "961": -0.7516067624092102,
      "962": 0.9462202787399292,
      "963": 1.8578161001205444,
      "964": -0.25225624442100525,
      "965": -0.7006814479827881,
      "966": -0.6968320608139038,
      "967": 0.447248637676239,
      "968": -1.503680944442749,
      "969": 2.625410556793213,
      "970": 0.7068116664886475,
      "971": 0.7312017679214478,
      "972": 0.8743523955345154,
      "973": 1.3412913084030151,
      "974": -0.037536073476076126,
      "975": 1.1286991834640503,
      "976": 0.7985311150550842,
      "977": 0.28416335582733154,
      "978": -0.4239506125450134,
      "979": 2.2106363773345947,
      "980": -2.0058562755584717,
      "981": 0.5215757489204407,
      "982": 0.3296368420124054,
      "983": 0.42283761501312256,
      "984": -0.6458205580711365,
      "985": 1.6128493547439575,
      "986": 0.6910614371299744,
      "987": 1.632449746131897,
      "988": 1.8958228826522827,
      "989": 0.7044948935508728,
      "990": -1.5188264846801758,
      "991": 2.12168288230896,
      "992": 0.29793259501457214,
      "993": -1.5191550254821777,
      "994": 1.4003145694732666,
      "995": 0.6048688292503357,
      "996": 2.3722615242004395,
      "997": -1.3623530864715576,
      "998": -0.7366101741790771,
      "999": 1.3065508604049683,
      "1000": 0.3730725347995758,
      "1001": -0.630443811416626,
      "1002": 0.5512055158615112,
      "1003": -1.3223708868026733,
      "1004": 0.6651655435562134,
      "1005": 1.197531819343567,
      "1006": -2.1235623359680176,
      "1007": 2.2055110931396484,
      "1008": 0.6309572458267212,
      "1009": 1.388695478439331,
      "1010": 0.05991845577955246,
      "1011": -0.011336083523929119,
      "1012": -1.7519980669021606,
      "1013": -2.1842613220214844,
      "1014": -0.29676687717437744,
      "1015": 0.4392513036727905,
      "1016": -2.8349335193634033,
      "1017": 2.6787002086639404,
      "1018": 2.045276165008545,
      "1019": 1.0511980056762695,
      "1020": -0.035111285746097565,
      "1021": -0.524013876914978,
      "1022": -1.5429086685180664,
      "1023": -2.1387414932250977,
      "1024": 1.6389745473861694,
      "1025": -1.0682162046432495,
      "1026": 0.21334728598594666,
      "1027": 0.32194024324417114,
      "1028": -2.171884298324585,
      "1029": 0.9120943546295166,
      "1030": -2.243264675140381,
      "1031": -0.7499199509620667,
      "1032": 1.195559024810791,
      "1033": -1.343397855758667,
      "1034": -1.4133607149124146,
      "1035": -3.3784589767456055,
      "1036": -4.210131645202637,
      "1037": -0.8377804160118103,
      "1038": 2.3823323249816895,
      "1039": -0.09189770370721817,
      "1040": -3.1143810749053955,
      "1041": 1.2534574270248413,
      "1042": -0.6206161975860596,
      "1043": -4.011102676391602,
      "1044": -4.117283344268799,
      "1045": -0.2908609211444855,
      "1046": 2.0443108081817627,
      "1047": -2.318868637084961,
      "1048": 0.9038273692131042,
      "1049": 1.5158355236053467,
      "1050": -0.6065620183944702,
      "1051": 2.4565837383270264,
      "1052": -3.8632099628448486,
      "1053": 4.7213592529296875,
      "1054": 0.7897130250930786,
      "1055": 2.038391590118408,
      "1056": 2.476473808288574,
      "1057": -0.9271003007888794,
      "1058": -2.916923999786377,
      "1059": -1.0760067701339722,
      "1060": -2.733093738555908,
      "1061": -1.1941076517105103,
      "1062": -3.5310239791870117,
      "1063": -0.750837504863739,
      "1064": 2.355147361755371,
      "1065": 2.005603790283203,
      "1066": 1.0186479091644287,
      "1067": -0.3925669193267822,
      "1068": 0.21716460585594177,
      "1069": 3.010486125946045,
      "1070": -1.833160638809204,
      "1071": 2.348308801651001,
      "1072": -0.8280947208404541,
      "1073": -0.4660187065601349,
      "1074": -4.439853668212891,
      "1075": -2.0176942348480225,
      "1076": 3.174429178237915,
      "1077": -1.7261812686920166,
      "1078": 2.530667543411255,
      "1079": 3.6010563373565674,
      "1080": -2.6060268878936768,
      "1081": -3.266737461090088,
      "1082": 6.7589521408081055,
      "1083": -0.9447566866874695,
      "1084": -2.3990046977996826,
      "1085": -3.2010836601257324,
      "1086": -0.765262246131897,
      "1087": 0.6826176047325134,
      "1088": 0.12585604190826416,
      "1089": 2.8854362964630127,
      "1090": -0.19802868366241455,
      "1091": 0.35776227712631226,
      "1092": 0.005702953319996595,
      "1093": 1.4528648853302002,
      "1094": -2.21549129486084,
      "1095": 1.6177140474319458,
      "1096": 1.2630772590637207,
      "1097": -2.3172924518585205,
      "1098": 2.639587640762329,
      "1099": -0.6349791884422302,
      "1100": -1.7129430770874023,
      "1101": 2.718151569366455,
      "1102": 1.1405105590820312,
      "1103": -0.3274826109409332,
      "1104": 3.2477638721466064,
      "1105": -1.239933967590332,
      "1106": -0.456071674823761,
      "1107": -1.173340082168579,
      "1108": -0.7709507942199707,
      "1109": -2.059736967086792,
      "1110": -1.2901571989059448,
      "1111": 0.7942626476287842,
      "1112": 1.3469761610031128,
      "1113": -3.2926840782165527,
      "1114": -2.6237831115722656,
      "1115": -4.5118303298950195,
      "1116": 1.3934221267700195,
      "1117": -0.861484944820404,
      "1118": -1.1425858736038208,
      "1119": 4.83930778503418,
      "1120": 2.1229536533355713,
      "1121": -0.23060007393360138,
      "1122": 1.3108395338058472,
      "1123": -0.05822932720184326,
      "1124": 0.38987812399864197,
      "1125": 1.6025230884552002,
      "1126": 1.712565302848816,
      "1127": -1.7117632627487183,
      "1128": -8.525086402893066,
      "1129": 3.7566161155700684,
      "1130": 0.7028931975364685,
      "1131": 1.2116996049880981,
      "1132": -2.7925822734832764,
      "1133": 3.004744291305542,
      "1134": 1.1750633716583252,
      "1135": -2.4822750091552734,
      "1136": -0.6950384974479675,
      "1137": 6.092438697814941,
      "1138": 0.8458898663520813,
      "1139": -1.0981543064117432,
      "1140": -1.9639217853546143,
      "1141": -3.6507482528686523,
      "1142": 7.871750831604004,
      "1143": -1.414383888244629,
      "1144": 1.178155779838562,
      "1145": -0.19381512701511383,
      "1146": -2.905045747756958,
      "1147": 0.05190874636173248,
      "1148": -0.46937277913093567,
      "1149": 1.769701361656189,
      "1150": -1.8844562768936157,
      "1151": 5.7767133712768555,
      "1152": 1.4069929122924805,
      "1153": -5.158076286315918,
      "1154": 3.3191077709198,
      "1155": 1.306571364402771,
      "1156": -3.007941484451294,
      "1157": 2.0700645446777344,
      "1158": -4.511406898498535,
      "1159": -2.1230859756469727,
      "1160": 0.541964590549469,
      "1161": -2.9014697074890137,
      "1162": -0.6511031985282898,
      "1163": 2.797088146209717,
      "1164": -2.439218759536743,
      "1165": 0.045414555817842484,
      "1166": 0.3388185501098633,
      "1167": 6.4272661209106445,
      "1168": -7.368625640869141,
      "1169": -0.9391775727272034,
      "1170": -1.1539442539215088,
      "1171": 2.76015305519104,
      "1172": 3.091099977493286,
      "1173": 2.383747100830078,
      "1174": -3.110755443572998,
      "1175": 5.820836067199707,
      "1176": -3.634465456008911,
      "1177": 1.37714684009552,
      "1178": -1.1161253452301025,
      "1179": 4.209486484527588,
      "1180": 0.9667662978172302,
      "1181": -0.9384541511535645,
      "1182": 2.8448541164398193,
      "1183": -0.9375775456428528,
      "1184": -4.338051795959473,
      "1185": 3.486647367477417,
      "1186": 1.2675344944000244,
      "1187": 2.146929979324341,
      "1188": 3.5909268856048584,
      "1189": -4.51601505279541,
      "1190": 0.8129122853279114,
      "1191": -1.619349718093872,
      "1192": -2.527411460876465,
      "1193": 1.8720835447311401,
      "1194": -0.4860644042491913,
      "1195": 2.9144985675811768,
      "1196": 0.9647530913352966,
      "1197": -0.6149768233299255,
      "1198": -3.0882468223571777,
      "1199": 3.1121604442596436,
      "1200": 2.5215916633605957,
      "1201": 0.08194780349731445,
      "1202": 0.3159409761428833,
      "1203": 1.6951594352722168,
      "1204": -0.7635897397994995,
      "1205": 0.8384974598884583,
      "1206": 2.353032350540161,
      "1207": -0.6303840279579163,
      "1208": 2.756451368331909,
      "1209": 1.271481990814209,
      "1210": -1.9234296083450317,
      "1211": -0.05206727609038353,
      "1212": 2.515573501586914,
      "1213": 0.0449044443666935,
      "1214": -1.5072969198226929,
      "1215": 4.070102691650391,
      "1216": -1.4669265747070312,
      "1217": 2.4563686847686768,
      "1218": 1.907371163368225,
      "1219": -1.584428071975708,
      "1220": -3.3747897148132324,
      "1221": -0.38021230697631836,
      "1222": 4.863905906677246,
      "1223": -3.3672726154327393,
      "1224": -1.3724573850631714,
      "1225": 2.002988815307617,
      "1226": 2.2949440479278564,
      "1227": 0.3116494417190552,
      "1228": 1.3343122005462646,
      "1229": 2.4727776050567627,
      "1230": 2.3708739280700684,
      "1231": -7.014803409576416,
      "1232": -3.0994436740875244,
      "1233": 3.8560876846313477,
      "1234": 2.885456085205078,
      "1235": 1.7045179605484009,
      "1236": -2.265308141708374,
      "1237": -2.248844861984253,
      "1238": 0.47379520535469055,
      "1239": -1.0969403982162476,
      "1240": 1.225852131843567,
      "1241": -0.6068213582038879,
      "1242": 1.36643648147583,
      "1243": -2.3298983573913574,
      "1244": -0.08800927549600601,
      "1245": -0.4223088324069977,
      "1246": 1.2639917135238647,
      "1247": 3.7532174587249756,
      "1248": 0.1612563282251358,
      "1249": 0.8904450535774231,
      "1250": 0.04430544748902321,
      "1251": -6.311066150665283,
      "1252": 0.4691420793533325,
      "1253": 0.4103583097457886,
      "1254": 1.667892336845398,
      "1255": 2.518380641937256,
      "1256": 3.4977471828460693,
      "1257": -1.3000613451004028,
      "1258": 1.1270521879196167,
      "1259": -1.7802696228027344,
      "1260": -3.753692388534546,
      "1261": -0.9829603433609009,
      "1262": 4.389699935913086,
      "1263": 1.0753785371780396,
      "1264": 3.680651903152466,
      "1265": -0.6345412135124207,
      "1266": -5.900241851806641,
      "1267": -2.295348644256592,
      "1268": 4.362006664276123,
      "1269": 0.9194843769073486,
      "1270": 2.6637868881225586,
      "1271": -7.274857521057129,
      "1272": -6.00881814956665,
      "1273": -0.7593809366226196,
      "1274": -2.868354558944702,
      "1275": 2.5631906986236572,
      "1276": -3.5716612339019775,
      "1277": 1.948333978652954,
      "1278": -5.13054084777832,
      "1279": 4.5656418800354,
      "1280": 5.193485736846924,
      "1281": -4.134265899658203,
      "1282": 0.14539110660552979,
      "1283": -5.271150588989258,
      "1284": -3.176211357116699,
      "1285": -5.581687927246094,
      "1286": 5.966312408447266,
      "1287": -5.88009786605835,
      "1288": 5.923296928405762,
      "1289": 1.5933210849761963,
      "1290": -4.13001012802124,
      "1291": 3.9083237648010254,
      "1292": -4.901594638824463,
      "1293": 1.2064135074615479,
      "1294": 5.1174445152282715,
      "1295": 0.11655987799167633,
      "1296": -0.2542934715747833,
      "1297": -1.3566147089004517,
      "1298": -4.214516639709473,
      "1299": 1.7683314085006714,
      "1300": -1.814702033996582,
      "1301": -3.4868438243865967,
      "1302": -3.9281423091888428,
      "1303": -2.7481768131256104,
      "1304": 0.5637849569320679,
      "1305": -1.3413442373275757,
      "1306": 0.3385717272758484,
      "1307": 1.5677028894424438,
      "1308": -5.865067958831787,
      "1309": 8.586448669433594,
      "1310": -0.5941659808158875,
      "1311": -3.002311944961548,
      "1312": -1.7228658199310303,
      "1313": -1.4945449829101562,
      "1314": -4.620554447174072,
      "1315": -1.221010446548462,
      "1316": 0.9030014872550964,
      "1317": -2.8762047290802,
      "1318": -0.9715266227722168,
      "1319": -2.031747579574585,
      "1320": 2.185849189758301,
      "1321": 1.5861581563949585,
      "1322": -2.447108507156372,
      "1323": 3.0192368030548096,
      "1324": -1.2083888053894043,
      "1325": 1.4192473888397217,
      "1326": 2.2414190769195557,
      "1327": -0.6315959095954895,
      "1328": 4.0448994636535645,
      "1329": -3.360201120376587,
      "1330": 0.43196621537208557,
      "1331": 2.308741807937622,
      "1332": -1.2654809951782227,
      "1333": 2.9693572521209717,
      "1334": -2.109879732131958,
      "1335": -0.05264246463775635,
      "1336": 2.20670223236084,
      "1337": 3.078853130340576,
      "1338": 1.1345512866973877,
      "1339": 0.7794444561004639,
      "1340": 1.8369898796081543,
      "1341": -2.640860080718994,
      "1342": -2.3023693561553955,
      "1343": -1.8127769231796265,
      "1344": -1.0295861959457397,
      "1345": 1.007140874862671,
      "1346": 2.3870949745178223,
      "1347": 3.0848870277404785,
      "1348": -2.04003643989563,
      "1349": -0.04543240740895271,
      "1350": 1.3890717029571533,
      "1351": 0.5708969235420227,
      "1352": -1.1494072675704956,
      "1353": 1.3084360361099243,
      "1354": -5.384647369384766,
      "1355": 0.20029698312282562,
      "1356": 0.23413151502609253,
      "1357": -1.9021620750427246,
      "1358": 4.224945068359375,
      "1359": -2.867264747619629,
      "1360": 2.382732629776001,
      "1361": 1.1965115070343018,
      "1362": -0.8304362893104553,
      "1363": 4.615028381347656,
      "1364": -0.7098850607872009,
      "1365": -1.4901279211044312,
      "1366": 4.068457126617432,
      "1367": 1.4139752388000488,
      "1368": -3.1748263835906982,
      "1369": -0.6786669492721558,
      "1370": 2.7277348041534424,
      "1371": -7.0227370262146,
      "1372": -2.804279088973999,
      "1373": -3.425422430038452,
      "1374": 6.191896438598633,
      "1375": 3.8582921028137207,
      "1376": 3.0249528884887695,
      "1377": -4.387197017669678,
      "1378": 3.2156436443328857,
      "1379": 2.9085659980773926,
      "1380": -2.351858377456665,
      "1381": 0.4393923580646515,
      "1382": 7.144561290740967,
      "1383": -0.7419368028640747,
      "1384": 2.11836314201355,
      "1385": -3.951772451400757,
      "1386": -1.9411247968673706,
      "1387": -8.45911693572998,
      "1388": 3.1358230113983154,
      "1389": 0.6530287265777588,
      "1390": -4.17003870010376,
      "1391": -0.3938058614730835,
      "1392": -6.356943607330322,
      "1393": -0.09920839965343475,
      "1394": 0.5965656042098999,
      "1395": 2.199575901031494,
      "1396": -1.1514188051223755,
      "1397": 4.6011643409729,
      "1398": 0.6076478362083435,
      "1399": 0.9491642713546753,
      "1400": -0.013600500300526619,
      "1401": -4.132828235626221,
      "1402": -0.9529832005500793,
      "1403": 0.5953887701034546,
      "1404": 0.07258632034063339,
      "1405": 2.3868701457977295,
      "1406": -0.9285674095153809,
      "1407": 5.926772117614746,
      "1408": -3.948361873626709,
      "1409": -0.6364018321037292,
      "1410": -2.051936149597168,
      "1411": 2.6424238681793213,
      "1412": -1.5120491981506348,
      "1413": -3.1265392303466797,
      "1414": 3.1971757411956787,
      "1415": 2.809276580810547,
      "1416": -1.8983266353607178,
      "1417": -2.933218002319336,
      "1418": 2.2763893604278564,
      "1419": 0.2922295331954956,
      "1420": 2.119701385498047,
      "1421": -1.2932709455490112,
      "1422": -2.588444232940674,
      "1423": -1.7459782361984253,
      "1424": 1.9990630149841309,
      "1425": -0.12439876049757004,
      "1426": 0.3086073696613312,
      "1427": 1.927083134651184,
      "1428": -1.7401950359344482,
      "1429": -0.5702111721038818,
      "1430": 1.3534200191497803,
      "1431": -0.9395282864570618,
      "1432": 2.6774747371673584,
      "1433": 2.039198875427246,
      "1434": 1.8376392126083374,
      "1435": -0.49904143810272217,
      "1436": -3.9132111072540283,
      "1437": 0.05397938936948776,
      "1438": -2.3255372047424316,
      "1439": 0.7077932357788086,
      "1440": 6.091246604919434,
      "1441": 2.532532215118408,
      "1442": -2.4983108043670654,
      "1443": -4.324036598205566,
      "1444": -1.8123763799667358,
      "1445": 1.9469900131225586,
      "1446": -1.4908092021942139,
      "1447": 3.7180533409118652,
      "1448": 2.840024471282959,
      "1449": 2.79101300239563,
      "1450": -2.874596118927002,
      "1451": -1.7007644176483154,
      "1452": -3.2073371410369873,
      "1453": -0.4050617814064026,
      "1454": -1.4732673168182373,
      "1455": 1.0425795316696167,
      "1456": -2.244523763656616,
      "1457": 2.6764440536499023,
      "1458": -2.833890438079834,
      "1459": -0.8640543818473816,
      "1460": 3.1574442386627197,
      "1461": 1.4454859495162964,
      "1462": -1.6972461938858032,
      "1463": -4.040327548980713,
      "1464": 4.310705184936523,
      "1465": -0.8267531394958496,
      "1466": 4.371437072753906,
      "1467": -6.411593437194824,
      "1468": -3.332956314086914,
      "1469": 3.5566577911376953,
      "1470": -0.4403834044933319,
      "1471": -3.086512565612793,
      "1472": 1.739594578742981,
      "1473": 2.954232931137085,
      "1474": -0.6327735781669617,
      "1475": -0.8605018854141235,
      "1476": -2.2317934036254883,
      "1477": -0.3975342810153961,
      "1478": 1.2670619487762451,
      "1479": 0.19402869045734406,
      "1480": -5.4013671875,
      "1481": -5.6364827156066895,
      "1482": -0.16716623306274414,
      "1483": -2.2768702507019043,
      "1484": -1.656691312789917,
      "1485": -0.30470597743988037,
      "1486": 3.712019205093384,
      "1487": 1.9515100717544556,
      "1488": 3.5964808464050293,
      "1489": 3.7437081336975098,
      "1490": 0.22678212821483612,
      "1491": 1.4320224523544312,
      "1492": 1.6085845232009888,
      "1493": 1.212239146232605,
      "1494": 1.8071802854537964,
      "1495": -1.915055274963379,
      "1496": -3.7701876163482666,
      "1497": -2.737154483795166,
      "1498": -1.2100416421890259,
      "1499": 3.409982919692993,
      "1500": -1.8015862703323364,
      "1501": 2.3002769947052,
      "1502": 2.7216646671295166,
      "1503": -1.9460909366607666,
      "1504": 1.4007751941680908,
      "1505": -2.9020588397979736,
      "1506": 0.8358877301216125,
      "1507": 0.6463706493377686,
      "1508": 0.0939754843711853,
      "1509": -1.1906501054763794,
      "1510": -0.025282882153987885,
      "1511": 4.260138511657715,
      "1512": -3.6312015056610107,
      "1513": -1.5017030239105225,
      "1514": -2.1325366497039795,
      "1515": 0.7282660603523254,
      "1516": 5.237847328186035,
      "1517": 0.9396088719367981,
      "1518": -3.4686994552612305,
      "1519": -0.43296095728874207,
      "1520": -0.723832905292511,
      "1521": -0.14749744534492493,
      "1522": 1.4358142614364624,
      "1523": 0.8581355214118958,
      "1524": 0.18733131885528564,
      "1525": 3.4523231983184814,
      "1526": 0.4810621440410614,
      "1527": -5.200158596038818,
      "1528": -3.555161476135254,
      "1529": 0.6752085089683533,
      "1530": -0.89933842420578,
      "1531": 1.7446200847625732,
      "1532": 0.6413387060165405,
      "1533": -2.0684943199157715,
      "1534": 0.848002552986145,
      "1535": 0.9623673558235168,
      "1536": 2.530013084411621,
      "1537": 0.5975703597068787,
      "1538": 1.034749150276184,
      "1539": -0.16213755309581757,
      "1540": -0.474516361951828,
      "1541": -0.1968400776386261,
      "1542": -0.8425902128219604,
      "1543": -4.427709102630615,
      "1544": 0.24041296541690826,
      "1545": -0.096662737429142,
      "1546": 5.7111005783081055,
      "1547": -2.907514810562134,
      "1548": 0.1244387999176979,
      "1549": -0.7719157934188843,
      "1550": -0.30469581484794617,
      "1551": 0.2349976897239685,
      "1552": -5.437602519989014,
      "1553": -0.2914731502532959,
      "1554": 0.6791722178459167,
      "1555": 1.2949681282043457,
      "1556": 1.0216881036758423,
      "1557": -2.034902572631836,
      "1558": 4.248744487762451,
      "1559": -2.911350727081299,
      "1560": 1.897813320159912,
      "1561": -1.5768349170684814,
      "1562": -1.6608456373214722,
      "1563": 3.486429214477539,
      "1564": 0.1134803518652916,
      "1565": 0.5678340792655945,
      "1566": -0.3579682409763336,
      "1567": 1.5840479135513306,
      "1568": -0.25499245524406433,
      "1569": 0.7321030497550964,
      "1570": -3.7427539825439453,
      "1571": 0.9432219862937927,
      "1572": 2.1295783519744873,
      "1573": 0.7756028771400452,
      "1574": 0.4345966577529907,
      "1575": -1.3714650869369507,
      "1576": -0.4483199715614319,
      "1577": -2.1688930988311768,
      "1578": -1.5002110004425049,
      "1579": 0.6494254469871521,
      "1580": 2.009551525115967,
      "1581": 2.2042434215545654,
      "1582": 1.8697896003723145,
      "1583": 0.6283890604972839,
      "1584": 0.8941600322723389,
      "1585": 4.403386116027832,
      "1586": -0.5896726846694946,
      "1587": -0.5233772993087769,
      "1588": 1.2690290212631226,
      "1589": -1.1096271276474,
      "1590": 0.7888210415840149,
      "1591": -0.9559994339942932,
      "1592": -0.68895024061203,
      "1593": 3.317478656768799,
      "1594": -2.447289228439331,
      "1595": 3.710024833679199,
      "1596": 2.022076368331909,
      "1597": -1.1196597814559937,
      "1598": -5.225499153137207,
      "1599": 0.9935443997383118,
      "1600": 0.18773393332958221,
      "1601": 7.8374176025390625,
      "1602": -1.7091872692108154,
      "1603": -8.01540470123291,
      "1604": 1.1169582605361938,
      "1605": -3.1410093307495117,
      "1606": 3.3048717975616455,
      "1607": -7.090839385986328,
      "1608": -3.8893656730651855,
      "1609": 5.077236652374268,
      "1610": 0.22421616315841675,
      "1611": 3.8260483741760254,
      "1612": 5.7120137214660645,
      "1613": -1.0721555948257446,
      "1614": -0.14935865998268127,
      "1615": -3.8138458728790283,
      "1616": -4.177122592926025,
      "1617": 2.9782962799072266,
      "1618": -1.8421634435653687,
      "1619": 0.021013127639889717,
      "1620": -0.34157297015190125,
      "1621": -1.6013457775115967,
      "1622": -1.3105283975601196,
      "1623": 5.476894855499268,
      "1624": 4.152624130249023,
      "1625": 2.1937413215637207,
      "1626": -2.7954556941986084,
      "1627": -0.6505860686302185,
      "1628": -6.904941558837891,
      "1629": -4.661304950714111,
      "1630": -3.904341220855713,
      "1631": 1.9413723945617676,
      "1632": -1.3061988353729248,
      "1633": 1.0454484224319458,
      "1634": -1.889614224433899,
      "1635": -1.9124555587768555,
      "1636": 1.890694260597229,
      "1637": 3.0172500610351562,
      "1638": -2.3828651905059814,
      "1639": 3.130556583404541,
      "1640": -2.904849052429199,
      "1641": 7.246345043182373,
      "1642": -1.4390220642089844,
      "1643": -3.0833818912506104,
      "1644": -3.1620984077453613,
      "1645": 0.8442907333374023,
      "1646": -0.9741871953010559,
      "1647": 2.2255873680114746,
      "1648": -0.4920363128185272,
      "1649": -1.581917405128479,
      "1650": -1.0420278310775757,
      "1651": -0.6228803992271423,
      "1652": 1.9805612564086914,
      "1653": -2.0719170570373535,
      "1654": 0.8514066338539124,
      "1655": -3.772526502609253,
      "1656": 1.7360543012619019,
      "1657": 3.8582029342651367,
      "1658": -0.9360684752464294,
      "1659": -0.9220026135444641,
      "1660": -0.9281637072563171,
      "1661": -0.1466229408979416,
      "1662": -2.2322535514831543,
      "1663": 1.3501912355422974,
      "1664": 1.1047866344451904,
      "1665": 0.05093163251876831,
      "1666": 4.901916027069092,
      "1667": -1.9763872623443604,
      "1668": -6.197356700897217,
      "1669": -3.890277624130249,
      "1670": -0.49177470803260803,
      "1671": -0.009517298080027103,
      "1672": -1.7260268926620483,
      "1673": 1.5013285875320435,
      "1674": -5.14352560043335,
      "1675": 1.4278777837753296,
      "1676": -0.4142381250858307,
      "1677": 4.974048614501953,
      "1678": 1.0091583728790283,
      "1679": 3.6417739391326904,
      "1680": -1.0738075971603394,
      "1681": 0.6030853390693665,
      "1682": 0.05561663210391998,
      "1683": -5.4095845222473145,
      "1684": -4.823006629943848,
      "1685": 0.3953900635242462,
      "1686": -0.3771001398563385,
      "1687": 3.6600863933563232,
      "1688": -4.8260297775268555,
      "1689": 2.530109167098999,
      "1690": -3.1532864570617676,
      "1691": 0.4767337143421173,
      "1692": 2.1977427005767822,
      "1693": 1.6397016048431396,
      "1694": 0.5187169909477234,
      "1695": 0.14953549206256866,
      "1696": 0.905755341053009,
      "1697": -1.2801803350448608,
      "1698": -0.5303102135658264,
      "1699": -1.6184858083724976,
      "1700": 2.2999181747436523,
      "1701": 0.7393249273300171,
      "1702": -0.46607303619384766,
      "1703": -1.7812501192092896,
      "1704": -0.8513505458831787,
      "1705": 1.9784139394760132,
      "1706": 1.5610102415084839,
      "1707": -1.1932098865509033,
      "1708": -0.7938912510871887,
      "1709": 1.2059072256088257,
      "1710": 2.4143362045288086,
      "1711": -2.106156826019287,
      "1712": -2.2136762142181396,
      "1713": -1.7996479272842407,
      "1714": -1.077343463897705,
      "1715": -0.2490476816892624,
      "1716": -0.4074046015739441,
      "1717": 0.7935510277748108,
      "1718": -0.6091527342796326,
      "1719": -0.6648736596107483,
      "1720": 2.0286715030670166,
      "1721": -0.12432224303483963,
      "1722": -0.688133716583252,
      "1723": -1.7440271377563477,
      "1724": -3.1114752292633057,
      "1725": 0.8538970351219177,
      "1726": -1.4098232984542847,
      "1727": -0.7238554954528809,
      "1728": 0.9223095774650574,
      "1729": -0.3327312171459198,
      "1730": 4.299816131591797,
      "1731": 0.7402559518814087,
      "1732": -0.6619911193847656,
      "1733": -0.8480954170227051,
      "1734": -2.41182541847229,
      "1735": -0.2168053239583969,
      "1736": -1.1813836097717285,
      "1737": 1.1170028448104858,
      "1738": -0.22195769846439362,
      "1739": -1.1148537397384644,
      "1740": -2.3043079376220703,
      "1741": -1.5987147092819214,
      "1742": -0.7687781453132629,
      "1743": 2.066819906234741,
      "1744": -0.3761202096939087,
      "1745": -2.423809289932251,
      "1746": 1.7919894456863403,
      "1747": -0.6741018891334534,
      "1748": -0.557717502117157,
      "1749": 1.4980216026306152,
      "1750": 0.6827916502952576,
      "1751": 1.1003684997558594,
      "1752": -1.0763826370239258,
      "1753": 0.009168164804577827,
      "1754": 1.2969766855239868,
      "1755": 0.30380091071128845,
      "1756": 2.824326515197754,
      "1757": -1.8957960605621338,
      "1758": 1.504759669303894,
      "1759": 2.3207058906555176,
      "1760": 1.1803950071334839,
      "1761": 1.7426044940948486,
      "1762": -0.4401407241821289,
      "1763": -0.07097186893224716,
      "1764": 0.09855350106954575,
      "1765": -2.4546871185302734,
      "1766": -2.519217014312744,
      "1767": -1.585756540298462,
      "1768": 1.6816493272781372,
      "1769": 1.7081278562545776,
      "1770": 1.7238705158233643,
      "1771": -0.8716489672660828,
      "1772": -3.1400811672210693,
      "1773": 1.3358268737792969,
      "1774": 2.103376865386963,
      "1775": -2.6636881828308105,
      "1776": 0.7238740921020508,
      "1777": -0.8092805743217468,
      "1778": -0.13000370562076569,
      "1779": -0.950766921043396,
      "1780": -1.0788723230361938,
      "1781": 2.7800772190093994,
      "1782": -0.7437229156494141,
      "1783": 3.923313617706299,
      "1784": -0.7604667544364929,
      "1785": -1.9868848323822021,
      "1786": 0.43099334836006165,
      "1787": 2.103492498397827,
      "1788": -4.8549017906188965,
      "1789": -5.6428303718566895,
      "1790": -0.9658888578414917,
      "1791": -3.1400365829467773,
      "1792": 3.0811784267425537,
      "1793": -0.868893027305603,
      "1794": 0.5252682566642761,
      "1795": -0.10246366262435913,
      "1796": 0.5609824061393738,
      "1797": 2.4615135192871094,
      "1798": -2.309380531311035,
      "1799": -1.0011285543441772,
      "1800": -1.0146775245666504,
      "1801": -1.0806535482406616,
      "1802": -0.4638090431690216,
      "1803": 3.0165395736694336,
      "1804": -1.334614872932434,
      "1805": 1.8403657674789429,
      "1806": -1.8225291967391968,
      "1807": -1.8609721660614014,
      "1808": 3.055851459503174,
      "1809": 0.19828099012374878,
      "1810": -0.8526487350463867,
      "1811": -1.0109586715698242,
      "1812": 2.5764005184173584,
      "1813": 0.17089630663394928,
      "1814": -2.2651660442352295,
      "1815": -0.852424681186676,
      "1816": -0.6393330097198486,
      "1817": -2.6364080905914307,
      "1818": 1.4800612926483154,
      "1819": 0.1403256356716156,
      "1820": -1.4841032028198242,
      "1821": 0.0968562513589859,
      "1822": 1.69608736038208,
      "1823": 0.6180394887924194,
      "1824": 0.32015031576156616,
      "1825": -1.0779792070388794,
      "1826": 5.405665874481201,
      "1827": -1.1526646614074707,
      "1828": -2.5033602714538574,
      "1829": 1.178288459777832,
      "1830": -1.5211094617843628,
      "1831": -1.5197598934173584,
      "1832": 2.9931750297546387,
      "1833": -4.026118278503418,
      "1834": 5.09274959564209,
      "1835": -0.939531683921814,
      "1836": 0.12722334265708923,
      "1837": -0.6029083728790283,
      "1838": 0.5971978306770325,
      "1839": 6.880898475646973,
      "1840": -7.004946231842041,
      "1841": 7.365871906280518,
      "1842": -4.309318542480469,
      "1843": 3.904026746749878,
      "1844": 2.1497550010681152,
      "1845": -4.135909080505371,
      "1846": 0.8958167433738708,
      "1847": -0.7012445330619812,
      "1848": -1.2976704835891724,
      "1849": 1.3308746814727783,
      "1850": 1.3988596200942993,
      "1851": 2.885014057159424,
      "1852": -4.801865100860596,
      "1853": -2.4310128688812256,
      "1854": -4.776834487915039,
      "1855": 1.9479514360427856,
      "1856": 0.5032730102539062,
      "1857": 5.775012493133545,
      "1858": 4.959432601928711,
      "1859": -1.199316143989563,
      "1860": 2.208421468734741,
      "1861": 0.46518567204475403,
      "1862": 5.272536277770996,
      "1863": -4.668344974517822,
      "1864": -4.181246757507324,
      "1865": -5.0008697509765625,
      "1866": 1.6028192043304443,
      "1867": -7.204961776733398,
      "1868": -1.2452266216278076,
      "1869": 0.5630694627761841,
      "1870": -5.057116508483887,
      "1871": 5.70607328414917,
      "1872": 1.5893465280532837,
      "1873": 0.41800177097320557,
      "1874": 2.4826931953430176,
      "1875": -4.267457485198975,
      "1876": 5.501940727233887,
      "1877": -4.699712753295898,
      "1878": -3.5970029830932617,
      "1879": 2.5833098888397217,
      "1880": 0.6991328597068787,
      "1881": 2.9144370555877686,
      "1882": -1.1259629726409912,
      "1883": 2.436735153198242,
      "1884": -3.2899703979492188,
      "1885": 5.854438781738281,
      "1886": 7.1396098136901855,
      "1887": -2.4144890308380127,
      "1888": 1.7909703254699707,
      "1889": -0.5837532877922058,
      "1890": -5.524672031402588,
      "1891": -0.9931128621101379,
      "1892": -2.3310630321502686,
      "1893": 1.3596779108047485,
      "1894": 0.7173246145248413,
      "1895": -4.199740409851074,
      "1896": -0.4808494448661804,
      "1897": -8.350308418273926,
      "1898": 0.32073476910591125,
      "1899": 0.9566017389297485,
      "1900": -8.73486042022705,
      "1901": 0.8324734568595886,
      "1902": -4.313138961791992,
      "1903": 2.3504414558410645,
      "1904": -2.475379705429077,
      "1905": -2.9094924926757812,
      "1906": 10.602446556091309,
      "1907": -0.898726761341095,
      "1908": -0.34972381591796875,
      "1909": -4.054718971252441,
      "1910": -5.559001445770264,
      "1911": -5.607124328613281,
      "1912": -2.1078402996063232,
      "1913": 5.429122447967529,
      "1914": 6.350949287414551,
      "1915": -0.5400305986404419,
      "1916": 7.240827560424805,
      "1917": -4.320530891418457,
      "1918": 6.345253944396973,
      "1919": 2.9544970989227295,
      "1920": 1.4326214790344238,
      "1921": 3.97623348236084,
      "1922": 0.14324018359184265,
      "1923": -1.7227296829223633,
      "1924": -3.2098679542541504,
      "1925": 0.7921409010887146,
      "1926": 5.274925708770752,
      "1927": 3.0219738483428955,
      "1928": 0.11105291545391083,
      "1929": 3.9338033199310303,
      "1930": -1.2570186853408813,
      "1931": 1.390074610710144,
      "1932": 2.0908889770507812,
      "1933": 2.3023457527160645,
      "1934": -1.0277448892593384,
      "1935": 1.943843126296997,
      "1936": -2.5824062824249268,
      "1937": 1.712699055671692,
      "1938": -1.9976625442504883,
      "1939": -3.3607420921325684,
      "1940": 4.088633060455322,
      "1941": -1.1491457223892212,
      "1942": -3.9461615085601807,
      "1943": 1.5897687673568726,
      "1944": -1.8439921140670776,
      "1945": -1.0692540407180786,
      "1946": -2.517498016357422,
      "1947": -5.170574188232422,
      "1948": -7.493049144744873,
      "1949": -2.5391812324523926,
      "1950": -0.5441102385520935,
      "1951": 4.534211158752441,
      "1952": 3.4735260009765625,
      "1953": 6.787953853607178,
      "1954": 2.1542274951934814,
      "1955": -0.08497203886508942,
      "1956": 0.639833927154541,
      "1957": -4.50451135635376,
      "1958": -4.408425331115723,
      "1959": -3.1362922191619873,
      "1960": 3.5548014640808105,
      "1961": -2.877786874771118,
      "1962": 0.9354338049888611,
      "1963": -0.30608609318733215,
      "1964": -6.553411483764648,
      "1965": 8.223164558410645,
      "1966": 1.7112256288528442,
      "1967": 0.26748397946357727,
      "1968": 2.7268779277801514,
      "1969": -3.587390661239624,
      "1970": 2.772996664047241,
      "1971": -5.089387893676758,
      "1972": 1.7663370370864868,
      "1973": -1.084825038909912,
      "1974": -5.198759078979492,
      "1975": 2.598700761795044,
      "1976": -1.0607770681381226,
      "1977": -2.4395031929016113,
      "1978": -6.408280372619629,
      "1979": 4.398731708526611,
      "1980": 1.925431251525879,
      "1981": 0.5692263841629028,
      "1982": -2.8235955238342285,
      "1983": 5.4402852058410645,
      "1984": 1.8483465909957886,
      "1985": -2.012476921081543,
      "1986": -0.9147084951400757,
      "1987": -3.09049129486084,
      "1988": 5.303038120269775,
      "1989": 1.521989107131958,
      "1990": -1.5383697748184204,
      "1991": -2.0317909717559814,
      "1992": -0.255589097738266,
      "1993": -1.6717554330825806,
      "1994": 0.20207326114177704,
      "1995": 3.1064562797546387,
      "1996": 0.5855185389518738,
      "1997": 4.127349853515625,
      "1998": 4.471940040588379,
      "1999": -5.560689449310303,
      "2000": 1.144911766052246,
      "2001": -2.504108428955078,
      "2002": -0.31189388036727905,
      "2003": 2.8269691467285156,
      "2004": -4.403960227966309,
      "2005": -2.3350155353546143,
      "2006": 1.5623646974563599,
      "2007": -0.6495637893676758,
      "2008": 1.476776123046875,
      "2009": 0.6975302696228027,
      "2010": 0.4812221825122833,
      "2011": 4.321803092956543,
      "2012": -1.8326466083526611,
      "2013": 1.502637267112732,
      "2014": -1.8185465335845947,
      "2015": 1.1493971347808838,
      "2016": 0.19978034496307373,
      "2017": -3.41620135307312,
      "2018": 1.189289927482605,
      "2019": 0.9864721298217773,
      "2020": -3.533590793609619,
      "2021": 0.9590005874633789,
      "2022": 5.541007995605469,
      "2023": 1.6257812976837158,
      "2024": 3.762260675430298,
      "2025": -1.1792997121810913,
      "2026": -1.619896411895752,
      "2027": 1.0918238162994385,
      "2028": -2.2385876178741455,
      "2029": 3.8139073848724365,
      "2030": -0.12875014543533325,
      "2031": -1.2055604457855225,
      "2032": -1.8642191886901855,
      "2033": -1.2787013053894043,
      "2034": 0.9998773336410522,
      "2035": 0.48182785511016846,
      "2036": -7.6347432136535645,
      "2037": 4.550894737243652,
      "2038": -1.0244725942611694,
      "2039": 0.5447235107421875,
      "2040": 0.7970787882804871,
      "2041": -5.434072971343994,
      "2042": -5.608363628387451,
      "2043": -5.030648231506348,
      "2044": 0.945231020450592,
      "2045": -1.9763580560684204,
      "2046": 0.23814657330513,
      "2047": 7.2412872314453125,
      "2048": 2.528066873550415,
      "2049": 1.4102396965026855,
      "2050": 2.516434907913208,
      "2051": -6.432507038116455,
      "2052": -6.640182018280029,
      "2053": -2.4949464797973633,
      "2054": 6.467474460601807,
      "2055": -3.3177342414855957,
      "2056": -0.32679471373558044,
      "2057": 4.817519664764404,
      "2058": -1.5085896253585815,
      "2059": 7.096099376678467,
      "2060": 2.737717390060425,
      "2061": -0.49483904242515564,
      "2062": 4.287055492401123,
      "2063": -3.135854721069336,
      "2064": 4.885742664337158,
      "2065": -5.201995372772217,
      "2066": 1.3492995500564575,
      "2067": 1.514716625213623,
      "2068": -2.5563743114471436,
      "2069": -0.6746250987052917,
      "2070": 2.7240827083587646,
      "2071": -0.590299129486084,
      "2072": 3.305647373199463,
      "2073": 0.5280964374542236,
      "2074": -1.7731393575668335,
      "2075": 0.684593677520752,
      "2076": -0.12184156477451324,
      "2077": 2.2416419982910156,
      "2078": -4.903932571411133,
      "2079": -3.7802093029022217,
      "2080": -1.9820449352264404,
      "2081": 0.3332061171531677,
      "2082": 2.2672362327575684,
      "2083": 5.687091827392578,
      "2084": -5.397833824157715,
      "2085": -3.312483310699463,
      "2086": 2.835657835006714,
      "2087": -6.648520469665527,
      "2088": 3.0693929195404053,
      "2089": 3.6246562004089355,
      "2090": 4.2565226554870605,
      "2091": 2.388353109359741,
      "2092": 0.17527766525745392,
      "2093": -1.418953776359558,
      "2094": -4.024679183959961,
      "2095": -0.06373284012079239,
      "2096": 1.6308997869491577,
      "2097": -0.029442423954606056,
      "2098": 3.46639084815979,
      "2099": 2.4757494926452637,
      "2100": 3.5978589057922363,
      "2101": -4.136379241943359,
      "2102": 0.5628491640090942,
      "2103": -2.323476552963257,
      "2104": -5.0698628425598145,
      "2105": 3.305844306945801,
      "2106": 1.0774469375610352,
      "2107": -0.4390152096748352,
      "2108": -1.0270130634307861,
      "2109": -5.474394798278809,
      "2110": 1.0605440139770508,
      "2111": -5.986999034881592,
      "2112": 3.7499451637268066,
      "2113": 0.11630813032388687,
      "2114": -5.024787425994873,
      "2115": 0.1722395420074463,
      "2116": -2.1981143951416016,
      "2117": -0.37907782196998596,
      "2118": -0.20080235600471497,
      "2119": 1.14740788936615,
      "2120": -0.5750196576118469,
      "2121": -2.1966300010681152,
      "2122": 2.2691755294799805,
      "2123": -1.4993594884872437,
      "2124": 0.09891194105148315,
      "2125": 0.5091176629066467,
      "2126": 0.3574281334877014,
      "2127": 1.501015067100525,
      "2128": -0.2909867465496063,
      "2129": -0.43955355882644653,
      "2130": 0.867656409740448,
      "2131": 0.2247486412525177,
      "2132": 1.3932234048843384,
      "2133": -0.6141852140426636,
      "2134": 1.5288020372390747,
      "2135": 1.4771186113357544,
      "2136": 0.39859870076179504,
      "2137": 0.5898126363754272,
      "2138": -0.44475942850112915,
      "2139": -0.1926519274711609,
      "2140": 0.5891582369804382,
      "2141": -1.8299936056137085,
      "2142": -1.3799006938934326,
      "2143": -0.3386734426021576,
      "2144": 1.8873077630996704,
      "2145": 1.6770427227020264,
      "2146": 1.3045727014541626,
      "2147": -0.5489341616630554,
      "2148": -1.1887211799621582,
      "2149": 1.1661367416381836,
      "2150": 0.395824670791626,
      "2151": -1.1125508546829224,
      "2152": 1.5054636001586914,
      "2153": -2.007575511932373,
      "2154": -0.2963539659976959,
      "2155": -0.713520348072052,
      "2156": -0.7380094528198242,
      "2157": 1.7547581195831299,
      "2158": -1.1485060453414917,
      "2159": 1.4449621438980103,
      "2160": -0.32512611150741577,
      "2161": -1.6997370719909668,
      "2162": -0.14608465135097504,
      "2163": 0.09338179975748062,
      "2164": -0.17779333889484406,
      "2165": -1.6368796825408936,
      "2166": 1.1079286336898804,
      "2167": -0.5659613013267517,
      "2168": -0.7836233973503113,
      "2169": 0.10054517537355423,
      "2170": -0.10122592002153397,
      "2171": 0.02733609825372696,
      "2172": 0.35707223415374756,
      "2173": -0.3555656671524048,
      "2174": 0.3511079251766205,
      "2175": -0.06331182271242142,
      "2176": 0.33754682540893555,
      "2177": 0.8706663846969604,
      "2178": -1.2718982696533203,
      "2179": 0.10943096876144409,
      "2180": 0.36089208722114563,
      "2181": -0.45943453907966614,
      "2182": 0.9676457047462463,
      "2183": 0.4204345941543579,
      "2184": 1.1147122383117676,
      "2185": 0.17582698166370392,
      "2186": 0.51656574010849,
      "2187": 0.02035483717918396,
      "2188": -0.8611409664154053,
      "2189": -0.14074654877185822,
      "2190": 0.04035772383213043,
      "2191": -0.07574114948511124,
      "2192": 0.4507855474948883,
      "2193": 0.7968716025352478,
      "2194": 0.22112999856472015,
      "2195": -1.0706697702407837,
      "2196": -0.11363232880830765,
      "2197": -0.07881733030080795,
      "2198": -1.5508021116256714,
      "2199": 1.343721628189087,
      "2200": -0.11111459136009216,
      "2201": 0.2791408598423004,
      "2202": 0.5096050500869751,
      "2203": -1.1944061517715454,
      "2204": 0.1980387568473816,
      "2205": -0.10968208312988281,
      "2206": 0.8234071731567383,
      "2207": -0.08143911510705948,
      "2208": -1.670581579208374,
      "2209": -0.018928008154034615,
      "2210": -0.028465276584029198,
      "2211": -0.0015633896691724658,
      "2212": -0.03316981717944145,
      "2213": -0.0009132855338975787,
      "2214": -0.07182105630636215,
      "2215": 0.062179792672395706,
      "2216": -0.01733999140560627,
      "2217": -0.06324158608913422,
      "2218": 0.012274621985852718,
      "2219": -0.06485379487276077,
      "2220": 0.043960634618997574,
      "2221": -0.04706800729036331,
      "2222": 0.03129769116640091,
      "2223": -0.07633177936077118,
      "2224": -0.030849410220980644,
      "2225": -0.0005350035498850048,
      "2226": -0.05025874450802803,
      "2227": 0.056546930223703384,
      "2228": 0.04172974079847336,
      "2229": -0.04240585118532181,
      "2230": -0.05494774505496025,
      "2231": -0.014643947593867779,
      "2232": -0.041574738919734955,
      "2233": -0.06039067730307579,
      "2234": 0.07189754396677017,
      "2235": 0.02874932251870632,
      "2236": -0.007360932417213917,
      "2237": 0.07462862879037857,
      "2238": -0.07162871956825256,
      "2239": -0.02116941288113594,
      "2240": 0.06703035533428192,
      "2241": -0.03138360008597374,
      "2242": 0.0449242889881134,
      "2243": -0.07187017053365707,
      "2244": 0.00044423932558856905,
      "2245": -0.0708032175898552,
      "2246": 0.02815467305481434,
      "2247": 0.060636259615421295,
      "2248": 0.06077010557055473,
      "2249": 0.03726409375667572,
      "2250": -0.005647418089210987,
      "2251": 0.03278487175703049,
      "2252": -0.07571639120578766,
      "2253": -0.06125830113887787,
      "2254": -0.01852521114051342,
      "2255": -0.07516352832317352
    }
  },
  "hiddenLayers": [
    {
      "inputMatrix": {
        "rows": 20,
        "columns": 47,
        "weights": {
          "0": -1.244477391242981,
          "1": -0.07762816548347473,
          "2": -1.6812455654144287,
          "3": -1.0913443565368652,
          "4": 1.4827314615249634,
          "5": 1.149999976158142,
          "6": -0.5455639362335205,
          "7": 0.38914480805397034,
          "8": 0.5225598216056824,
          "9": 1.31074857711792,
          "10": 1.7840700149536133,
          "11": -0.8082564473152161,
          "12": 0.39719662070274353,
          "13": -1.707853078842163,
          "14": 0.869310200214386,
          "15": 0.8173251748085022,
          "16": 0.0074027590453624725,
          "17": 1.4990346431732178,
          "18": -0.9516945481300354,
          "19": -1.0432205200195312,
          "20": 0.41390708088874817,
          "21": 0.3088361620903015,
          "22": 1.2224394083023071,
          "23": 0.2625364363193512,
          "24": 1.0057016611099243,
          "25": -2.745048761367798,
          "26": -1.0476939678192139,
          "27": 0.24983395636081696,
          "28": -0.7528554201126099,
          "29": 0.23818530142307281,
          "30": 0.8573883175849915,
          "31": 1.138403058052063,
          "32": 0.5742533206939697,
          "33": 0.5811691880226135,
          "34": -0.515921413898468,
          "35": 1.4301517009735107,
          "36": -0.21639686822891235,
          "37": 2.311638355255127,
          "38": -0.6938272714614868,
          "39": 0.13744047284126282,
          "40": -1.4746395349502563,
          "41": -1.4052670001983643,
          "42": 0.7147760987281799,
          "43": -0.4954304099082947,
          "44": -0.05881890654563904,
          "45": 1.5661635398864746,
          "46": -0.5782508254051208,
          "47": -0.44451403617858887,
          "48": 0.9155663251876831,
          "49": -2.5075597763061523,
          "50": -1.2111225128173828,
          "51": -0.6595486998558044,
          "52": 0.4145564138889313,
          "53": 0.4942988455295563,
          "54": -0.2638888359069824,
          "55": -0.39546921849250793,
          "56": 0.4488576352596283,
          "57": 1.5014328956604004,
          "58": 0.09432333707809448,
          "59": -0.4650454521179199,
          "60": -1.259101390838623,
          "61": 1.275112271308899,
          "62": 0.35959839820861816,
          "63": -0.11971844732761383,
          "64": 2.443619966506958,
          "65": -1.452531337738037,
          "66": 0.4262929856777191,
          "67": 0.7345762848854065,
          "68": 0.3875103294849396,
          "69": 1.0725395679473877,
          "70": 1.8643981218338013,
          "71": 0.1536685973405838,
          "72": -0.7984306216239929,
          "73": -0.315026193857193,
          "74": -0.5958384871482849,
          "75": -1.530917763710022,
          "76": 0.8011128306388855,
          "77": 1.4552271366119385,
          "78": 0.3364865779876709,
          "79": -0.8030024170875549,
          "80": -1.0975944995880127,
          "81": -0.022552447393536568,
          "82": 1.1775051355361938,
          "83": -0.5293368697166443,
          "84": 0.7538328766822815,
          "85": -0.47572121024131775,
          "86": 0.8933420181274414,
          "87": -0.3643016517162323,
          "88": -1.1749200820922852,
          "89": -0.11606057733297348,
          "90": -0.9143974781036377,
          "91": 0.33922889828681946,
          "92": 0.11373995244503021,
          "93": -0.7548564076423645,
          "94": -0.3203901946544647,
          "95": -0.062447428703308105,
          "96": 0.26323240995407104,
          "97": 1.1330229043960571,
          "98": -0.3735869228839874,
          "99": 0.053284116089344025,
          "100": -0.5161124467849731,
          "101": 0.20289240777492523,
          "102": -0.4834672212600708,
          "103": 0.10164045542478561,
          "104": -0.5058014392852783,
          "105": -0.06000905483961105,
          "106": 0.6707260012626648,
          "107": -0.4337260127067566,
          "108": 0.08411411195993423,
          "109": -0.9376344680786133,
          "110": 1.2851098775863647,
          "111": -0.3063640296459198,
          "112": -0.7224137783050537,
          "113": 0.03753417730331421,
          "114": -0.174776092171669,
          "115": -0.12270054966211319,
          "116": -0.1561116874217987,
          "117": -0.04422522336244583,
          "118": -0.029685674235224724,
          "119": -0.21036866307258606,
          "120": 0.25765880942344666,
          "121": 0.28651928901672363,
          "122": -0.46340641379356384,
          "123": 0.778834342956543,
          "124": -0.14738012850284576,
          "125": -0.061588507145643234,
          "126": 0.3091704845428467,
          "127": -0.2543652653694153,
          "128": 0.9266125559806824,
          "129": -0.35734137892723083,
          "130": 0.020254405215382576,
          "131": 0.11729872971773148,
          "132": -0.04267206788063049,
          "133": 0.08228795230388641,
          "134": -0.8616442680358887,
          "135": 0.31242918968200684,
          "136": 0.185008704662323,
          "137": 0.42993614077568054,
          "138": 0.13634172081947327,
          "139": 0.3489581048488617,
          "140": 0.04922068864107132,
          "141": 0.9811098575592041,
          "142": 0.43470969796180725,
          "143": 0.8437013030052185,
          "144": 0.6736330389976501,
          "145": 0.9893674850463867,
          "146": -1.598833441734314,
          "147": 0.3992457091808319,
          "148": -0.6593288779258728,
          "149": -0.6412620544433594,
          "150": -1.1598159074783325,
          "151": -0.31910738348960876,
          "152": 1.929879903793335,
          "153": -0.08864964544773102,
          "154": 1.2945386171340942,
          "155": -0.2434270679950714,
          "156": -1.4871635437011719,
          "157": 1.060155987739563,
          "158": -0.03132045641541481,
          "159": 1.7786805629730225,
          "160": 1.1437315940856934,
          "161": -1.6382313966751099,
          "162": -0.9736574292182922,
          "163": -0.2598634660243988,
          "164": -1.130353331565857,
          "165": -1.4440116882324219,
          "166": 0.4703664779663086,
          "167": 0.4196131229400635,
          "168": 0.24865759909152985,
          "169": 1.6809159517288208,
          "170": -0.6656299233436584,
          "171": -0.5914009213447571,
          "172": -1.34896981716156,
          "173": -0.490456223487854,
          "174": 0.8773210048675537,
          "175": -0.33483707904815674,
          "176": -1.0453566312789917,
          "177": 0.27058684825897217,
          "178": -0.3494536280632019,
          "179": -0.04312094300985336,
          "180": -0.9277703166007996,
          "181": 0.8173622488975525,
          "182": -0.2640819847583771,
          "183": -0.9054942727088928,
          "184": 0.1394934058189392,
          "185": -0.8986635208129883,
          "186": -1.5385655164718628,
          "187": 0.7396427392959595,
          "188": 1.887738585472107,
          "189": -0.5768617987632751,
          "190": 1.055575966835022,
          "191": 0.4717268943786621,
          "192": -0.46774861216545105,
          "193": 0.22536185383796692,
          "194": -0.2918551564216614,
          "195": 0.8323512077331543,
          "196": -0.3834839165210724,
          "197": -0.1311892420053482,
          "198": -0.9492383599281311,
          "199": -0.20005886256694794,
          "200": 1.338610053062439,
          "201": 0.24125687777996063,
          "202": -0.4437272846698761,
          "203": -0.6403954029083252,
          "204": 1.252219557762146,
          "205": -0.5932976007461548,
          "206": 0.10848616063594818,
          "207": 0.5016046762466431,
          "208": -0.7461852431297302,
          "209": 0.06992534548044205,
          "210": -2.1766839027404785,
          "211": -1.0645387172698975,
          "212": -0.7197048664093018,
          "213": -0.3261648714542389,
          "214": 0.4080011546611786,
          "215": -0.6631507277488708,
          "216": 0.490315705537796,
          "217": -1.280494213104248,
          "218": -0.06082037836313248,
          "219": 0.309856116771698,
          "220": 0.3680121898651123,
          "221": 0.48207858204841614,
          "222": 1.3676133155822754,
          "223": -0.05839180946350098,
          "224": 0.9269702434539795,
          "225": -0.9489776492118835,
          "226": -0.5078707337379456,
          "227": -0.859695553779602,
          "228": 0.4886223077774048,
          "229": 0.79306560754776,
          "230": 0.8251382112503052,
          "231": -0.3703945279121399,
          "232": 0.20534628629684448,
          "233": -0.00616884883493185,
          "234": 0.4855796992778778,
          "235": 0.884124755859375,
          "236": -0.42017218470573425,
          "237": 1.783218502998352,
          "238": 0.8019191026687622,
          "239": 1.0880769491195679,
          "240": 0.31849610805511475,
          "241": -0.9532625079154968,
          "242": 0.2117992490530014,
          "243": -0.14818158745765686,
          "244": -0.34627676010131836,
          "245": 1.0121904611587524,
          "246": -1.0719377994537354,
          "247": -0.17362883687019348,
          "248": 0.1383969932794571,
          "249": 0.47591379284858704,
          "250": -0.21374446153640747,
          "251": 1.567546010017395,
          "252": 0.5442017316818237,
          "253": -0.7048133015632629,
          "254": -0.8653991222381592,
          "255": 0.5174686908721924,
          "256": -0.21926656365394592,
          "257": -0.6146537661552429,
          "258": 0.08587011694908142,
          "259": 0.6228160858154297,
          "260": 0.6036024689674377,
          "261": 0.22611276805400848,
          "262": -0.24154780805110931,
          "263": -0.40512481331825256,
          "264": 2.9183037281036377,
          "265": -0.7579861879348755,
          "266": 0.37068161368370056,
          "267": -1.548373818397522,
          "268": 0.31045815348625183,
          "269": -1.0364437103271484,
          "270": 1.295027732849121,
          "271": -0.9372960925102234,
          "272": -0.8437217473983765,
          "273": 0.4578437805175781,
          "274": 0.9606484174728394,
          "275": -1.7422289848327637,
          "276": -0.13214030861854553,
          "277": -0.29167258739471436,
          "278": 0.6772304773330688,
          "279": -0.6348848938941956,
          "280": 0.94846510887146,
          "281": -0.9667837023735046,
          "282": -0.366523414850235,
          "283": 0.39736151695251465,
          "284": -0.2247198075056076,
          "285": -0.8403156995773315,
          "286": -0.8721752762794495,
          "287": -0.3000074326992035,
          "288": 1.0376485586166382,
          "289": -0.30534741282463074,
          "290": -0.24927526712417603,
          "291": -0.39518627524375916,
          "292": 0.8962120413780212,
          "293": 1.4196473360061646,
          "294": 0.2311355322599411,
          "295": -1.4978885650634766,
          "296": 0.2675495743751526,
          "297": -0.4781765341758728,
          "298": 0.2709573209285736,
          "299": 1.3337469100952148,
          "300": -1.0162063837051392,
          "301": 1.7276841402053833,
          "302": -0.06245369091629982,
          "303": -0.1191062480211258,
          "304": 1.2960469722747803,
          "305": -0.7301387786865234,
          "306": -0.9035832285881042,
          "307": -0.6109853982925415,
          "308": -0.04705895483493805,
          "309": 0.6691979169845581,
          "310": -0.9773795008659363,
          "311": -0.866399884223938,
          "312": 0.033744893968105316,
          "313": -0.02536068484187126,
          "314": -0.9972837567329407,
          "315": -1.873113989830017,
          "316": -1.5335414409637451,
          "317": 1.4443609714508057,
          "318": -1.4593340158462524,
          "319": -0.4277135133743286,
          "320": -0.4157050848007202,
          "321": -0.36092230677604675,
          "322": -0.12241716682910919,
          "323": -0.09682033210992813,
          "324": -0.6535676121711731,
          "325": 0.2948221266269684,
          "326": -1.0547897815704346,
          "327": -0.9928408265113831,
          "328": -0.3850400149822235,
          "329": -0.2795026898384094,
          "330": 0.23058222234249115,
          "331": -0.6848678588867188,
          "332": 1.8729133605957031,
          "333": -1.3249484300613403,
          "334": -0.8150520920753479,
          "335": -0.6783761978149414,
          "336": 0.6004496812820435,
          "337": -0.7623266577720642,
          "338": 0.3403260409832001,
          "339": -2.281161308288574,
          "340": -1.12811279296875,
          "341": 0.34207844734191895,
          "342": 0.13540567457675934,
          "343": 0.9509649276733398,
          "344": -0.3075498938560486,
          "345": 1.6666091680526733,
          "346": 0.025164034217596054,
          "347": 0.4131298065185547,
          "348": 0.1807209998369217,
          "349": -0.2476421743631363,
          "350": 0.01772914081811905,
          "351": -0.22038255631923676,
          "352": 0.30245241522789,
          "353": -1.7817553281784058,
          "354": 0.24306684732437134,
          "355": 0.021185947582125664,
          "356": -0.5442463159561157,
          "357": 0.6110482215881348,
          "358": 1.7246423959732056,
          "359": -0.24467919766902924,
          "360": -1.011751651763916,
          "361": -0.4502183198928833,
          "362": -0.2930848002433777,
          "363": 1.9248600006103516,
          "364": 0.4114302396774292,
          "365": 0.08557766675949097,
          "366": 0.3434681296348572,
          "367": 0.9157170057296753,
          "368": 0.4832035303115845,
          "369": -1.148508906364441,
          "370": 0.6034806966781616,
          "371": 0.28742361068725586,
          "372": -0.24631237983703613,
          "373": 1.7967770099639893,
          "374": 1.167850375175476,
          "375": -0.2623257040977478,
          "376": 0.22970469295978546,
          "377": 1.484787106513977,
          "378": -0.21985602378845215,
          "379": -0.9961352348327637,
          "380": -0.13617047667503357,
          "381": -1.1819241046905518,
          "382": 0.7253522276878357,
          "383": -0.7270632982254028,
          "384": -0.9801223874092102,
          "385": -1.1688874959945679,
          "386": -0.6758601069450378,
          "387": 0.721318244934082,
          "388": -0.8770169615745544,
          "389": 0.9258518815040588,
          "390": 0.96110600233078,
          "391": 0.4375884234905243,
          "392": -1.0181000232696533,
          "393": 0.1686505824327469,
          "394": 0.8365404009819031,
          "395": -0.05207066237926483,
          "396": 0.4785691797733307,
          "397": 0.32777225971221924,
          "398": 0.222804456949234,
          "399": 1.6333045959472656,
          "400": 0.40658411383628845,
          "401": 1.2824592590332031,
          "402": 2.647519588470459,
          "403": -1.250078558921814,
          "404": 0.3534872829914093,
          "405": -0.9249593615531921,
          "406": -1.9855506420135498,
          "407": -0.8206304907798767,
          "408": -1.4453810453414917,
          "409": 0.4231013357639313,
          "410": 0.8188243508338928,
          "411": -0.3594667315483093,
          "412": -0.7439591288566589,
          "413": -1.7114471197128296,
          "414": 0.8730728030204773,
          "415": 1.292445421218872,
          "416": 0.5826798677444458,
          "417": -0.4521191716194153,
          "418": -1.0828089714050293,
          "419": -0.1734502762556076,
          "420": 1.182232141494751,
          "421": -0.23931141197681427,
          "422": -0.5086297988891602,
          "423": -1.341111421585083,
          "424": 0.32321205735206604,
          "425": -0.5231540203094482,
          "426": -0.3029877543449402,
          "427": -1.122445821762085,
          "428": 0.45976510643959045,
          "429": 2.661391019821167,
          "430": 0.0989854484796524,
          "431": 0.11689481139183044,
          "432": 0.617785632610321,
          "433": 0.2327749878168106,
          "434": -0.16663897037506104,
          "435": 0.6281941533088684,
          "436": -1.4130916595458984,
          "437": -0.4212223291397095,
          "438": -1.5949957370758057,
          "439": 0.7206509709358215,
          "440": 0.22757913172245026,
          "441": -0.10443226993083954,
          "442": 0.15718337893486023,
          "443": -0.6013036966323853,
          "444": -0.2849099934101105,
          "445": 0.39520615339279175,
          "446": -0.6743156313896179,
          "447": -0.3410249948501587,
          "448": -1.1416207551956177,
          "449": 1.5672162771224976,
          "450": 3.4985768795013428,
          "451": 0.1649632751941681,
          "452": 0.2726231515407562,
          "453": -1.3426246643066406,
          "454": -1.0454041957855225,
          "455": 0.567957878112793,
          "456": -0.09957285970449448,
          "457": -1.533919095993042,
          "458": 0.8453459143638611,
          "459": -0.43929237127304077,
          "460": 0.24352356791496277,
          "461": 0.13859812915325165,
          "462": -0.4030032753944397,
          "463": 0.009970000013709068,
          "464": 0.6013948917388916,
          "465": 0.2739270329475403,
          "466": 1.4693574905395508,
          "467": -0.004700526129454374,
          "468": 0.6320679187774658,
          "469": 0.39567339420318604,
          "470": -0.6511045694351196,
          "471": 1.5972671508789062,
          "472": -0.7971948981285095,
          "473": -0.6881730556488037,
          "474": -0.17739947140216827,
          "475": 0.20874837040901184,
          "476": -0.023586921393871307,
          "477": -0.2918603718280792,
          "478": 1.4761624336242676,
          "479": -1.1277713775634766,
          "480": -0.7980244159698486,
          "481": -0.7730104327201843,
          "482": 0.8861564993858337,
          "483": -0.3901796042919159,
          "484": 0.6535214781761169,
          "485": -1.9121540784835815,
          "486": -0.9788654446601868,
          "487": -0.17652451992034912,
          "488": -0.2260928452014923,
          "489": -1.0100059509277344,
          "490": 0.01193180214613676,
          "491": -1.1566812992095947,
          "492": 0.5022738575935364,
          "493": 0.31228941679000854,
          "494": 1.1026065349578857,
          "495": -0.2404852658510208,
          "496": 0.5993232131004333,
          "497": 2.0452656745910645,
          "498": -0.04627425968647003,
          "499": -1.1801334619522095,
          "500": -1.030542254447937,
          "501": 0.035722516477108,
          "502": -0.5410681366920471,
          "503": 1.621239185333252,
          "504": -0.42725953459739685,
          "505": 0.007955731824040413,
          "506": -0.5948099493980408,
          "507": 1.1832150220870972,
          "508": 2.2545576095581055,
          "509": 0.8291018605232239,
          "510": -0.37196922302246094,
          "511": -0.5186141133308411,
          "512": -0.44488197565078735,
          "513": 0.9093924164772034,
          "514": -1.2169318199157715,
          "515": 0.7560882568359375,
          "516": -1.2282381057739258,
          "517": -0.1350165456533432,
          "518": 0.1370602399110794,
          "519": -0.41185542941093445,
          "520": 0.6488995552062988,
          "521": -1.076370358467102,
          "522": -2.1597204208374023,
          "523": -0.10580328851938248,
          "524": -0.14480507373809814,
