{
  "type": "LSTM",
  "options": {
    "inputSize": 47,
    "inputRange": 47,
    "hiddenLayers": [
      20,
      20
    ],
    "outputSize": 47,
    "decayRate": 0.999,
    "smoothEps": 1e-8,
    "regc": 0.000001,
    "clipval": 5,
    "maxPredictionLength": 100,
    "dataFormatter": {
      "values": [
        "Appreciate every day",
        "What is the meaning of life?",
        "boston",
        "copy file into docker container",
        "docker cp ./some_file CONTAINER:/work",
        "favorite city",
        "favorite cloud",
        "favorite food",
        "favorite rock",
        "favorite state",
        "git pull origin --rebase",
        "how to clean node cache",
        "how to rebase in git",
        "how to run nodejs file on command line",
        "how to view all ports being used on mac",
        "igneous",
        "mass",
        "node --experimental-modules src/file.js",
        "npm cache clean --force",
        "pizza",
        "stratus",
        "sudo lsof -iTCP -sTCP:LISTEN -n -P"
      ],
      "indexTable": {
        "A": 0,
        "p": 1,
        "r": 2,
        "e": 3,
        "c": 4,
        "i": 5,
        "a": 6,
        "t": 7,
        " ": 8,
        "v": 9,
        "y": 10,
        "d": 11,
        "W": 12,
        "h": 13,
        "s": 14,
        "m": 15,
        "n": 16,
        "g": 17,
        "o": 18,
        "f": 19,
        "l": 20,
        "?": 21,
        "b": 22,
        "k": 23,
        ".": 24,
        "/": 25,
        "_": 26,
        "C": 27,
        "O": 28,
        "N": 29,
        "T": 30,
        "I": 31,
        "E": 32,
        "R": 33,
        ":": 34,
        "w": 35,
        "u": 36,
        "-": 37,
        "j": 38,
        "x": 39,
        "z": 40,
        "P": 41,
        "L": 42,
        "S": 43,
        "stop-input": 44,
        "start-output": 45,
        "unrecognized": 46
      },
      "characterTable": {
        "0": "A",
        "1": "p",
        "2": "r",
        "3": "e",
        "4": "c",
        "5": "i",
        "6": "a",
        "7": "t",
        "8": " ",
        "9": "v",
        "10": "y",
        "11": "d",
        "12": "W",
        "13": "h",
        "14": "s",
        "15": "m",
        "16": "n",
        "17": "g",
        "18": "o",
        "19": "f",
        "20": "l",
        "21": "?",
        "22": "b",
        "23": "k",
        "24": ".",
        "25": "/",
        "26": "_",
        "27": "C",
        "28": "O",
        "29": "N",
        "30": "T",
        "31": "I",
        "32": "E",
        "33": "R",
        "34": ":",
        "35": "w",
        "36": "u",
        "37": "-",
        "38": "j",
        "39": "x",
        "40": "z",
        "41": "P",
        "42": "L",
        "43": "S",
        "44": null,
        "45": null,
        "46": null
      },
      "characters": [
        "A",
        "p",
        "r",
        "e",
        "c",
        "i",
        "a",
        "t",
        " ",
        "v",
        "y",
        "d",
        "W",
        "h",
        "s",
        "m",
        "n",
        "g",
        "o",
        "f",
        "l",
        "?",
        "b",
        "k",
        ".",
        "/",
        "_",
        "C",
        "O",
        "N",
        "T",
        "I",
        "E",
        "R",
        ":",
        "w",
        "u",
        "-",
        "j",
        "x",
        "z",
        "P",
        "L",
        "S",
        "stop-input",
        "start-output",
        "unrecognized"
      ],
      "specialIndexes": [
        44,
        45,
        46
      ]
    }
  },
  "input": {
    "rows": 48,
    "columns": 47,
    "weights": {
      "0": -0.4731391668319702,
      "1": -0.0529029406607151,
      "2": -0.04706968739628792,
      "3": -0.12954722344875336,
      "4": 1.2137137651443481,
      "5": 0.35450583696365356,
      "6": 0.12045519053936005,
      "7": -1.1397342681884766,
      "8": -0.8337191939353943,
      "9": -0.346639484167099,
      "10": -0.6292410492897034,
      "11": -0.5679779648780823,
      "12": 0.2265084683895111,
      "13": -0.682136058807373,
      "14": -0.8128018379211426,
      "15": 0.12689538300037384,
      "16": -0.6361764669418335,
      "17": 0.7754999995231628,
      "18": -0.48790135979652405,
      "19": -0.8296565413475037,
      "20": 0.5050584673881531,
      "21": -0.2846873700618744,
      "22": -1.2128850221633911,
      "23": -0.4238084852695465,
      "24": -0.11974572390317917,
      "25": -1.1349012851715088,
      "26": -1.159645915031433,
      "27": 0.06425780057907104,
      "28": 0.07437607645988464,
      "29": -0.03853220120072365,
      "30": -1.8940935134887695,
      "31": 0.7426552772521973,
      "32": -0.7135996222496033,
      "33": 0.36405110359191895,
      "34": -0.46720319986343384,
      "35": -0.046636566519737244,
      "36": 0.810756504535675,
      "37": 0.47301360964775085,
      "38": 0.9454401731491089,
      "39": -0.24290731549263,
      "40": 0.28008344769477844,
      "41": 0.2338285595178604,
      "42": 0.5589309930801392,
      "43": 0.18074673414230347,
      "44": 0.31230926513671875,
      "45": -0.5352864265441895,
      "46": 0.37314459681510925,
      "47": 3.7288010120391846,
      "48": 6.292687892913818,
      "49": -0.4869576394557953,
      "50": -0.47279149293899536,
      "51": 4.276167392730713,
      "52": 5.1243977546691895,
      "53": 1.3186662197113037,
      "54": -1.1258615255355835,
      "55": -1.069425344467163,
      "56": 1.488943338394165,
      "57": 1.1583635807037354,
      "58": 2.4493978023529053,
      "59": 1.7145953178405762,
      "60": -1.2079766988754272,
      "61": 1.8328754901885986,
      "62": 0.9107633233070374,
      "63": -1.2091706991195679,
      "64": 2.0228331089019775,
      "65": 3.9517552852630615,
      "66": 0.5314203500747681,
      "67": -3.5535638332366943,
      "68": 1.267988920211792,
      "69": -1.2448451519012451,
      "70": -0.8658051490783691,
      "71": 2.3046205043792725,
      "72": 0.6338753700256348,
      "73": 1.2806470394134521,
      "74": -3.8019471168518066,
      "75": 0.564595639705658,
      "76": -2.837071418762207,
      "77": -0.1574530303478241,
      "78": -1.015096664428711,
      "79": 1.6417241096496582,
      "80": -0.25654447078704834,
      "81": 1.2501177787780762,
      "82": 1.2457239627838135,
      "83": 0.8185440301895142,
      "84": -4.88380765914917,
      "85": -4.283234119415283,
      "86": 1.2372102737426758,
      "87": -8.143502235412598,
      "88": -1.9509307146072388,
      "89": -5.15582799911499,
      "90": -4.180500507354736,
      "91": -3.9117729663848877,
      "92": 0.9112478494644165,
      "93": -1.4621082544326782,
      "94": 0.7810295820236206,
      "95": -0.9293970465660095,
      "96": 1.3066998720169067,
      "97": -0.2619420289993286,
      "98": -1.205116868019104,
      "99": -1.5216233730316162,
      "100": -0.8195191621780396,
      "101": 0.3300170302391052,
      "102": 1.2074522972106934,
      "103": 0.3495624363422394,
      "104": 0.37049826979637146,
      "105": -0.0320197269320488,
      "106": -0.09512186050415039,
      "107": 1.109878420829773,
      "108": 0.3304000496864319,
      "109": -0.2808332145214081,
      "110": 1.8509137630462646,
      "111": -0.8979784846305847,
      "112": -1.4799385070800781,
      "113": 2.002556324005127,
      "114": 0.5605859160423279,
      "115": -1.2693742513656616,
      "116": -0.6164847612380981,
      "117": -2.777724504470825,
      "118": 2.611837387084961,
      "119": 1.4570190906524658,
      "120": 1.84162437915802,
      "121": 2.044090747833252,
      "122": 0.37979865074157715,
      "123": 2.634040594100952,
      "124": 1.4290597438812256,
      "125": -1.3389846086502075,
      "126": -0.2944076657295227,
      "127": -0.6599953770637512,
      "128": 2.3994953632354736,
      "129": -0.25719791650772095,
      "130": 0.2811433672904968,
      "131": 0.3812324106693268,
      "132": 0.7436756491661072,
      "133": -1.5308185815811157,
      "134": -2.368177652359009,
      "135": 0.4301733672618866,
      "136": 0.06787338852882385,
      "137": 0.10744880884885788,
      "138": 0.1890162080526352,
      "139": -1.4764666557312012,
      "140": -0.2155841588973999,
      "141": 0.11305727064609528,
      "142": 1.3724740743637085,
      "143": 0.7824060320854187,
      "144": -0.25962623953819275,
      "145": 0.5099943280220032,
      "146": 1.3994550704956055,
      "147": 0.5288925170898438,
      "148": -0.5334892272949219,
      "149": -0.4983099400997162,
      "150": 0.31366607546806335,
      "151": -0.3468543589115143,
      "152": -0.16520431637763977,
      "153": -0.37203165888786316,
      "154": -0.6278148293495178,
      "155": 0.2254578322172165,
      "156": -0.41047990322113037,
      "157": -0.08746100217103958,
      "158": 0.9456005096435547,
      "159": -0.5379242300987244,
      "160": -0.627751350402832,
      "161": 0.19501417875289917,
      "162": -0.7230729460716248,
      "163": -0.7015592455863953,
      "164": 0.44144827127456665,
      "165": 0.8151358366012573,
      "166": -0.3345470726490021,
      "167": 0.32290002703666687,
      "168": 0.07863610982894897,
      "169": -0.25898921489715576,
      "170": -1.7374041080474854,
      "171": -0.06572098284959793,
      "172": 0.545802652835846,
      "173": -0.011368042789399624,
      "174": 0.11289004981517792,
      "175": -0.6823034882545471,
      "176": 0.3167293667793274,
      "177": 0.28244784474372864,
      "178": -0.9209467172622681,
      "179": 0.5039804577827454,
      "180": 0.7743273377418518,
      "181": -0.8264544010162354,
      "182": -0.26466935873031616,
      "183": -1.5264838933944702,
      "184": -0.427288681268692,
      "185": -0.2513387203216553,
      "186": 0.5719606876373291,
      "187": -0.2394673377275467,
      "188": -0.4445295035839081,
      "189": -0.7390533685684204,
      "190": -0.5451919436454773,
      "191": -0.33080407977104187,
      "192": -0.7518662810325623,
      "193": -1.4657200574874878,
      "194": 0.5698795914649963,
      "195": 0.38018104434013367,
      "196": 0.4406609833240509,
      "197": -0.42953920364379883,
      "198": 0.546407163143158,
      "199": -0.0019312006188556552,
      "200": 1.3350446224212646,
      "201": 1.0323641300201416,
      "202": 0.8867732286453247,
      "203": -0.19926346838474274,
      "204": -0.08880387991666794,
      "205": -1.078013300895691,
      "206": 0.4343724250793457,
      "207": -0.29083895683288574,
      "208": -0.3361814618110657,
      "209": -0.7425993084907532,
      "210": -0.1720534861087799,
      "211": 0.6471744775772095,
      "212": 0.28814008831977844,
      "213": 0.612579882144928,
      "214": 0.1430254727602005,
      "215": -0.06586490571498871,
      "216": -0.6995651125907898,
      "217": 1.203890085220337,
      "218": -0.7937054634094238,
      "219": 1.8465403318405151,
      "220": 0.5052131414413452,
      "221": -0.6918032765388489,
      "222": 0.33023905754089355,
      "223": 0.3731456696987152,
      "224": -1.1060117483139038,
      "225": 1.1209076642990112,
      "226": 0.46539774537086487,
      "227": -0.6913054585456848,
      "228": 0.38913193345069885,
      "229": -0.5713074803352356,
      "230": -0.010354794561862946,
      "231": -0.23240171372890472,
      "232": 0.1177351251244545,
      "233": 0.4366358816623688,
      "234": -0.9259406328201294,
      "235": -1.8475350141525269,
      "236": 1.1676138639450073,
      "237": 0.25998833775520325,
      "238": 1.1087695360183716,
      "239": -1.4578089714050293,
      "240": 1.0395212173461914,
      "241": 2.1777327060699463,
      "242": 0.24202194809913635,
      "243": 0.9378439784049988,
      "244": 0.28466877341270447,
      "245": -2.401061773300171,
      "246": 0.26619768142700195,
      "247": -2.1214141845703125,
      "248": -0.6021859645843506,
      "249": 2.415480613708496,
      "250": -2.9330432415008545,
      "251": 0.46945497393608093,
      "252": 1.6086312532424927,
      "253": -2.2574682235717773,
      "254": 0.7662034630775452,
      "255": 0.1053699478507042,
      "256": -1.2067792415618896,
      "257": 2.3426194190979004,
      "258": 2.9015421867370605,
      "259": 0.7794618606567383,
      "260": -0.21512801945209503,
      "261": -0.15027685463428497,
      "262": -0.8510235548019409,
      "263": -2.0572564601898193,
      "264": -2.1900360584259033,
      "265": 1.5208994150161743,
      "266": 1.1543188095092773,
      "267": 1.0156761407852173,
      "268": -0.7264184355735779,
      "269": -0.9610458612442017,
      "270": 0.15661634504795074,
      "271": -1.597966194152832,
      "272": -0.09735224395990372,
      "273": 1.6937685012817383,
      "274": 0.8227050304412842,
      "275": 0.02758879028260708,
      "276": -0.3126464784145355,
      "277": -0.033431217074394226,
      "278": 1.364790916442871,
      "279": 0.8897422552108765,
      "280": -0.0640527606010437,
      "281": -1.6020491123199463,
      "282": 0.6337845325469971,
      "283": 1.6767293214797974,
      "284": 0.6577695608139038,
      "285": 1.0060256719589233,
      "286": -2.1068315505981445,
      "287": 1.0133910179138184,
      "288": -0.4714210331439972,
      "289": -1.3818817138671875,
      "290": 0.003037968883290887,
      "291": 1.3951119184494019,
      "292": -0.4131896197795868,
      "293": 0.7767660021781921,
      "294": -2.4478249549865723,
      "295": -1.2742489576339722,
      "296": -0.08093422651290894,
      "297": -1.95957612991333,
      "298": 0.5092528462409973,
      "299": 4.038156509399414,
      "300": -0.8610560297966003,
      "301": 0.17940299212932587,
      "302": 0.35876187682151794,
      "303": -0.5380176305770874,
      "304": 4.426379680633545,
      "305": 2.3022146224975586,
      "306": -1.002532958984375,
      "307": -1.0735498666763306,
      "308": -0.6415787935256958,
      "309": 0.1722097396850586,
      "310": -0.11433782428503036,
      "311": -1.068850040435791,
      "312": 1.4266334772109985,
      "313": -0.17179392278194427,
      "314": -0.5548951625823975,
      "315": -1.0848742723464966,
      "316": -0.12056885659694672,
      "317": 1.5102097988128662,
      "318": -0.9898164868354797,
      "319": -1.0131391286849976,
      "320": 1.093821406364441,
      "321": 3.3485772609710693,
      "322": 0.10858194530010223,
      "323": -0.8603823781013489,
      "324": -1.369460105895996,
      "325": -0.3377314507961273,
      "326": 0.5437788963317871,
      "327": 0.6658235192298889,
      "328": -0.6147249341011047,
      "329": 0.4113241136074066,
      "330": 0.28622761368751526,
      "331": 0.5571994781494141,
      "332": 0.49186283349990845,
      "333": 0.00710699986666441,
      "334": 0.4618031978607178,
      "335": -0.024263503029942513,
      "336": 1.6354295015335083,
      "337": 0.27785030007362366,
      "338": -0.10842881351709366,
      "339": -0.5887553095817566,
      "340": 0.3442566990852356,
      "341": -0.7698766589164734,
      "342": -0.10150272399187088,
      "343": -0.4244288206100464,
      "344": -0.2707298696041107,
      "345": -0.07576149702072144,
      "346": 0.06712917238473892,
      "347": -0.018285153433680534,
      "348": -0.17551849782466888,
      "349": -0.09868436306715012,
      "350": -0.46518582105636597,
      "351": 0.26159006357192993,
      "352": -0.5981084704399109,
      "353": 0.3486989438533783,
      "354": -0.041618283838033676,
      "355": -0.07331220805644989,
      "356": 0.24628306925296783,
      "357": 0.5180245637893677,
      "358": -0.12204524874687195,
      "359": -0.31490978598594666,
      "360": -0.03904241323471069,
      "361": 0.08122218400239944,
      "362": -0.6979425549507141,
      "363": 0.9649825096130371,
      "364": 0.2524143159389496,
      "365": -0.2911064326763153,
      "366": -0.9028084874153137,
      "367": -0.18158039450645447,
      "368": 0.8906069993972778,
      "369": -1.120328426361084,
      "370": -0.41039276123046875,
      "371": -0.4502394199371338,
      "372": 0.05607309564948082,
      "373": 0.12107111513614655,
      "374": -0.044417545199394226,
      "375": -0.8926182985305786,
      "376": -1.2130006551742554,
      "377": 0.31279927492141724,
      "378": 1.268170952796936,
      "379": -0.5052691698074341,
      "380": -1.119315505027771,
      "381": -0.8761054277420044,
      "382": -0.7722352147102356,
      "383": 0.9038586020469666,
      "384": -0.06300632655620575,
      "385": 0.44327032566070557,
      "386": -1.4023616313934326,
      "387": 0.6314446926116943,
      "388": -0.07075578719377518,
      "389": 0.9499790072441101,
      "390": 0.0328141488134861,
      "391": 0.1923101544380188,
      "392": 0.40409761667251587,
      "393": -2.5254440307617188,
      "394": -0.11001907289028168,
      "395": -1.0014472007751465,
      "396": 0.7025779485702515,
      "397": 0.6660311818122864,
      "398": -2.26029634475708,
      "399": 0.41287118196487427,
      "400": 1.9477148056030273,
      "401": 2.6602001190185547,
      "402": 1.8345218896865845,
      "403": 2.132040023803711,
      "404": 0.13508783280849457,
      "405": 0.8516696095466614,
      "406": 0.9011528491973877,
      "407": -0.8594986200332642,
      "408": -0.5467917919158936,
      "409": 2.12036395072937,
      "410": -1.8281619548797607,
      "411": 0.058269936591386795,
      "412": 0.653360903263092,
      "413": 0.49715563654899597,
      "414": -0.43407124280929565,
      "415": -0.6629419922828674,
      "416": -0.7717807292938232,
      "417": -0.6560267806053162,
      "418": -1.7856776714324951,
      "419": -0.5856229662895203,
      "420": -1.127162218093872,
      "421": 1.9483238458633423,
      "422": 0.1191352903842926,
      "423": 0.1859540194272995,
      "424": -0.08138231188058853,
      "425": 0.5114334225654602,
      "426": 0.3274810314178467,
      "427": -0.06047169491648674,
      "428": -1.1361933946609497,
      "429": -0.6467796564102173,
      "430": -0.8304670453071594,
      "431": -0.4260209798812866,
      "432": 0.34239447116851807,
      "433": 0.00694342702627182,
      "434": 0.19384874403476715,
      "435": 0.6283384561538696,
      "436": 0.36315426230430603,
      "437": -0.5667998790740967,
      "438": 0.4317571222782135,
      "439": -0.09753847122192383,
      "440": 0.023933392018079758,
      "441": 0.33702826499938965,
      "442": 0.44615402817726135,
      "443": -0.2664569318294525,
      "444": 0.19889657199382782,
      "445": -1.0383844375610352,
      "446": -0.4488612711429596,
      "447": 0.192414328455925,
      "448": -0.36574244499206543,
      "449": 0.9108596444129944,
      "450": 0.7207505702972412,
      "451": -0.7905431985855103,
      "452": 1.302420735359192,
      "453": -0.10575155168771744,
      "454": 0.03653580695390701,
      "455": 0.8290891051292419,
      "456": 0.2308376282453537,
      "457": 0.4549742043018341,
      "458": 0.061477817595005035,
      "459": -0.5590564608573914,
      "460": 0.5698222517967224,
      "461": -0.3406568169593811,
      "462": -1.0034816265106201,
      "463": -0.25301530957221985,
      "464": 0.4881785809993744,
      "465": -0.10700716823339462,
      "466": 0.7165078520774841,
      "467": -0.38017135858535767,
      "468": 0.865430474281311,
      "469": -0.5872178673744202,
      "470": 1.2531702518463135,
      "471": -0.14902371168136597,
      "472": -0.6948911547660828,
      "473": -0.17204952239990234,
      "474": -0.7299845218658447,
      "475": -0.5671817064285278,
      "476": 1.335649847984314,
      "477": 0.9376766085624695,
      "478": -0.6860870122909546,
      "479": -0.7748011946678162,
      "480": 2.0226292610168457,
      "481": -0.15629617869853973,
      "482": -0.32744958996772766,
      "483": -0.3944169282913208,
      "484": 0.8655946254730225,
      "485": -1.0742906332015991,
      "486": 0.4913919270038605,
      "487": -0.4161890745162964,
      "488": -1.0762183666229248,
      "489": 2.501009941101074,
      "490": -1.2377123832702637,
      "491": 1.0471442937850952,
      "492": 1.0695323944091797,
      "493": -0.4704273045063019,
      "494": -0.1109323650598526,
      "495": 0.20707356929779053,
      "496": 0.5954506993293762,
      "497": -0.273207426071167,
      "498": 1.4593172073364258,
      "499": 1.0220295190811157,
      "500": 0.9307023286819458,
      "501": -2.619256019592285,
      "502": -0.2407604306936264,
      "503": -1.8235994577407837,
      "504": 1.9381659030914307,
      "505": -0.45809438824653625,
      "506": -0.16761288046836853,
      "507": -0.34752944111824036,
      "508": -1.0762537717819214,
      "509": -0.21094457805156708,
      "510": 0.744752049446106,
      "511": -1.1231801509857178,
      "512": -3.615377426147461,
      "513": -2.8909313678741455,
      "514": -1.6959829330444336,
      "515": -0.17640981078147888,
      "516": -0.8070351481437683,
      "517": -0.8314463496208191,
      "518": 2.5829341411590576,
      "519": -0.30385276675224304,
      "520": 2.340618848800659,
      "521": 0.6539663672447205,
      "522": 4.156375408172607,
      "523": 0.5761367678642273,
      "524": -2.2084648609161377,
      "525": 0.6171467900276184,
      "526": 2.5888006687164307,
      "527": -0.5413618087768555,
      "528": 2.342667579650879,
      "529": -2.075399160385132,
      "530": 1.0555628538131714,
      "531": 4.177873134613037,
      "532": -2.6846654415130615,
      "533": 1.3935381174087524,
      "534": 0.895865261554718,
      "535": -1.6032054424285889,
      "536": -0.06778816878795624,
      "537": -0.11440438032150269,
      "538": -0.7311578392982483,
      "539": 3.2013790607452393,
      "540": 2.060473918914795,
      "541": 0.5231915712356567,
      "542": -2.0414938926696777,
      "543": -0.8811187744140625,
      "544": -1.3684386014938354,
      "545": 0.25221917033195496,
      "546": -3.957744836807251,
      "547": 2.2209606170654297,
      "548": -1.574938416481018,
      "549": 0.8281262516975403,
      "550": -0.2883542478084564,
      "551": -5.999751567840576,
      "552": 0.4429066479206085,
      "553": 0.20799940824508667,
      "554": -2.744077205657959,
      "555": -0.9692977070808411,
      "556": 2.5663838386535645,
      "557": 2.813220500946045,
      "558": -0.2595959007740021,
      "559": -1.093767523765564,
      "560": 0.7896981835365295,
      "561": -0.6920399069786072,
      "562": -0.20732209086418152,
      "563": 0.34372350573539734,
      "564": 0.12695007026195526,
      "565": 0.4417593777179718,
      "566": 0.16102193295955658,
      "567": 1.8093281984329224,
      "568": 1.4056775569915771,
      "569": 2.44307541847229,
      "570": 0.10398351401090622,
      "571": -1.589145302772522,
      "572": 2.3357272148132324,
      "573": 1.4400975704193115,
      "574": -3.4408957958221436,
      "575": 1.2411794662475586,
      "576": -0.49115169048309326,
      "577": -0.21522755920886993,
      "578": 1.0383126735687256,
      "579": 0.42831724882125854,
      "580": 0.2448570430278778,
      "581": 0.3534455895423889,
      "582": 0.5485695600509644,
      "583": -2.4691877365112305,
      "584": 0.9880477786064148,
      "585": 0.07633449882268906,
      "586": 0.5329468250274658,
      "587": -0.852939784526825,
      "588": 0.2434162199497223,
      "589": -0.1902891993522644,
      "590": -0.22665487229824066,
      "591": 0.8994371294975281,
      "592": -2.1712875366210938,
      "593": -0.012502998113632202,
      "594": 0.14726749062538147,
      "595": -0.8930829167366028,
      "596": 0.8417941331863403,
      "597": 1.2788476943969727,
      "598": -2.6216742992401123,
      "599": -0.32003462314605713,
      "600": 1.0599344968795776,
      "601": -1.6208925247192383,
      "602": -0.19770944118499756,
      "603": 0.26848673820495605,
      "604": -0.2832123935222626,
      "605": 0.6343033313751221,
      "606": 2.103996515274048,
      "607": 1.5215896368026733,
      "608": 0.6565335392951965,
      "609": -1.6270297765731812,
      "610": 0.964603066444397,
      "611": -2.6633336544036865,
      "612": 1.6929534673690796,
      "613": 0.22347533702850342,
      "614": -6.974327564239502,
      "615": 2.491926431655884,
      "616": 0.4499902129173279,
      "617": -3.541024684906006,
      "618": -3.177847146987915,
      "619": 0.3876592218875885,
      "620": -4.27967643737793,
      "621": 2.1835591793060303,
      "622": -7.165395736694336,
      "623": 6.888503551483154,
      "624": 1.1885687112808228,
      "625": 0.3662191331386566,
      "626": 3.408949136734009,
      "627": -0.38000425696372986,
      "628": -1.047075629234314,
      "629": 2.3717823028564453,
      "630": 0.0867118090391159,
      "631": 0.6718398928642273,
      "632": 1.371842622756958,
      "633": -7.399534702301025,
      "634": -3.559993267059326,
      "635": 0.6488550305366516,
      "636": -2.3127987384796143,
      "637": 1.4416921138763428,
      "638": -0.06466023623943329,
      "639": 2.5953056812286377,
      "640": -1.1678993701934814,
      "641": -4.7921929359436035,
      "642": 2.6185121536254883,
      "643": -3.649833917617798,
      "644": 1.6337449550628662,
      "645": -0.21109746396541595,
      "646": -4.309155464172363,
      "647": 6.123719215393066,
      "648": 1.5518887042999268,
      "649": 0.1712324172258377,
      "650": -1.3624297380447388,
      "651": -6.428721904754639,
      "652": 3.5426394939422607,
      "653": -1.519361972808838,
      "654": -3.289564371109009,
      "655": -0.7755202651023865,
      "656": -7.910578727722168,
      "657": 4.549864768981934,
      "658": -2.009110689163208,
      "659": 2.638338804244995,
      "660": 1.0794627666473389,
      "661": 3.337904453277588,
      "662": -1.1719169616699219,
      "663": 2.886958599090576,
      "664": -0.6213193535804749,
      "665": -2.351039409637451,
      "666": 3.926363229751587,
      "667": 1.3214460611343384,
      "668": -5.268219470977783,
      "669": 2.2842905521392822,
      "670": -3.5038440227508545,
      "671": 0.7472866177558899,
      "672": 1.25481116771698,
      "673": -1.5075500011444092,
      "674": 0.7780804634094238,
      "675": 1.1629035472869873,
      "676": -1.1313871145248413,
      "677": -2.7953972816467285,
      "678": 1.711642861366272,
      "679": -0.7125756740570068,
      "680": 4.360190391540527,
      "681": 2.4301631450653076,
      "682": 1.5097461938858032,
      "683": -1.6352547407150269,
      "684": -3.0645246505737305,
      "685": 1.8728039264678955,
      "686": 0.45185041427612305,
      "687": -1.781733751296997,
      "688": -1.5448037385940552,
      "689": 0.7536890506744385,
      "690": -0.753086507320404,
      "691": 0.9644993543624878,
      "692": -3.9372215270996094,
      "693": -2.247056245803833,
      "694": -0.598610520362854,
      "695": -0.9705941081047058,
      "696": 0.5328043699264526,
      "697": 2.3553154468536377,
      "698": 1.4477782249450684,
      "699": 1.6830497980117798,
      "700": 6.1076483726501465,
      "701": 5.7754974365234375,
      "702": 4.107033729553223,
      "703": -1.7614243030548096,
      "704": 0.8274868726730347,
      "705": 0.7839974164962769,
      "706": -0.12005851417779922,
      "707": -0.7846505641937256,
      "708": -0.7052227854728699,
      "709": -0.9566715955734253,
      "710": -2.0687332153320312,
      "711": -1.2144629955291748,
      "712": -0.0073714544996619225,
      "713": 0.2791491746902466,
      "714": -1.3897206783294678,
      "715": 0.2895016670227051,
      "716": -1.7964859008789062,
      "717": 0.043478962033987045,
      "718": 0.6543653011322021,
      "719": -1.9445446729660034,
      "720": -0.0808972641825676,
      "721": 0.6697393655776978,
      "722": -0.1524922400712967,
      "723": 0.29206034541130066,
      "724": 1.4435646533966064,
      "725": -0.06345099210739136,
      "726": 1.1396493911743164,
      "727": -1.2494080066680908,
      "728": -0.4870971143245697,
      "729": -0.449161559343338,
      "730": 0.024113215506076813,
      "731": -0.9655250906944275,
      "732": -0.6112721562385559,
      "733": 0.5425131916999817,
      "734": 2.2834153175354004,
      "735": -0.14499755203723907,
      "736": -1.255367398262024,
      "737": -0.9065832495689392,
      "738": -1.5895150899887085,
      "739": 1.4815346002578735,
      "740": -3.397595167160034,
      "741": 0.4403991997241974,
      "742": -0.1026923805475235,
      "743": -0.8805885910987854,
      "744": 0.04506206884980202,
      "745": 0.550452709197998,
      "746": 3.0394856929779053,
      "747": -1.1320979595184326,
      "748": 0.13927777111530304,
      "749": -0.7712473273277283,
      "750": -1.3389179706573486,
      "751": 0.3444547951221466,
      "752": 1.4597067832946777,
      "753": -0.7304004430770874,
      "754": 0.7255626916885376,
      "755": -1.6000440120697021,
      "756": 0.378906786441803,
      "757": -0.44184598326683044,
      "758": -1.4924476146697998,
      "759": -0.4821419417858124,
      "760": -0.5703929662704468,
      "761": 0.34169259667396545,
      "762": 2.225248336791992,
      "763": 0.23503243923187256,
      "764": 1.1126211881637573,
      "765": 1.4788837432861328,
      "766": -0.9253231883049011,
      "767": 1.7341744899749756,
      "768": 1.0665959119796753,
      "769": -0.7924812436103821,
      "770": 1.7494032382965088,
      "771": 0.1264614760875702,
      "772": -1.5449672937393188,
      "773": 0.19905294477939606,
      "774": -2.1474082469940186,
      "775": -2.8995957374572754,
      "776": 0.7127663493156433,
      "777": 1.0944067239761353,
      "778": 1.4489681720733643,
      "779": 1.0428799390792847,
      "780": 1.5116801261901855,
      "781": -1.26376211643219,
      "782": -0.38751962780952454,
      "783": -2.717935085296631,
      "784": 0.6328279376029968,
      "785": 0.4312581717967987,
      "786": 3.911691427230835,
      "787": -0.1679784506559372,
      "788": 0.5798766016960144,
      "789": -1.0262489318847656,
      "790": -1.5671100616455078,
      "791": 0.4756563901901245,
      "792": -1.3031545877456665,
      "793": -0.8249638676643372,
      "794": -1.321640968322754,
      "795": -2.94497013092041,
      "796": -0.569283127784729,
      "797": 1.454072117805481,
      "798": -0.2512253224849701,
      "799": 2.0536606311798096,
      "800": -0.6788088083267212,
      "801": -1.8062275648117065,
      "802": -0.19083324074745178,
      "803": 0.7316277623176575,
      "804": 0.8344788551330566,
      "805": 0.8876734972000122,
      "806": -0.8631177544593811,
      "807": -0.13834887742996216,
      "808": -0.713019609451294,
      "809": 0.7701367735862732,
      "810": -0.3506317436695099,
      "811": -0.7486047148704529,
      "812": -0.4653991758823395,
      "813": -0.385189026594162,
      "814": 0.057793885469436646,
      "815": -0.5943176746368408,
      "816": -0.699163019657135,
      "817": 0.9370592832565308,
      "818": 0.9539980292320251,
      "819": -1.5995769500732422,
      "820": 1.8575650453567505,
      "821": 0.7823110818862915,
      "822": -0.03337499871850014,
      "823": -0.1521870493888855,
      "824": -0.12447856366634369,
      "825": -1.676706075668335,
      "826": -0.07016168534755707,
      "827": 1.3863723278045654,
      "828": 0.2258303463459015,
      "829": 2.0874555110931396,
      "830": -2.744661569595337,
      "831": -0.962825357913971,
      "832": -0.7932617664337158,
      "833": -0.07501856237649918,
      "834": -2.244722604751587,
      "835": 1.2419049739837646,
      "836": -1.8954087495803833,
      "837": -1.4194364547729492,
      "838": 1.5379867553710938,
      "839": 0.4011465311050415,
      "840": 2.30059552192688,
      "841": -2.028822183609009,
      "842": -1.2194161415100098,
      "843": -0.2575644552707672,
      "844": -1.792420744895935,
      "845": 2.762758493423462,
      "846": -0.13192248344421387,
      "847": 2.224181890487671,
      "848": -0.35259079933166504,
      "849": -1.6920292377471924,
      "850": 2.2949717044830322,
      "851": 0.29803869128227234,
      "852": -0.5433379411697388,
      "853": -2.576992988586426,
      "854": -0.896935224533081,
      "855": -0.48412978649139404,
      "856": 1.3224663734436035,
      "857": -0.6868000626564026,
      "858": 1.7720682621002197,
      "859": -2.141864538192749,
      "860": 0.7879143357276917,
      "861": 1.0396299362182617,
      "862": -0.9559463858604431,
      "863": 1.43875253200531,
      "864": 0.18472813069820404,
      "865": 1.3916831016540527,
      "866": -0.13306932151317596,
      "867": 3.3764214515686035,
      "868": -1.168337106704712,
      "869": -0.08584385365247726,
      "870": -1.2071293592453003,
      "871": -2.1379952430725098,
      "872": -1.2919996976852417,
      "873": -1.2695579528808594,
      "874": 0.08120477199554443,
      "875": -0.3839513957500458,
      "876": -1.2093008756637573,
      "877": 0.3344784677028656,
      "878": -0.12381945550441742,
      "879": -0.20007793605327606,
      "880": -1.7330483198165894,
      "881": -1.3614581823349,
      "882": 1.7003281116485596,
      "883": 0.6687778830528259,
      "884": -2.0977907180786133,
      "885": -2.2444851398468018,
      "886": -2.205221652984619,
      "887": 2.2880170345306396,
      "888": -0.7012178301811218,
      "889": -0.9129445552825928,
      "890": -1.5802698135375977,
      "891": -0.6658252477645874,
      "892": 1.6154959201812744,
      "893": -1.4410208463668823,
      "894": -0.19931814074516296,
      "895": 0.3277149200439453,
      "896": 0.08097851276397705,
      "897": -0.11583174020051956,
      "898": -0.25380781292915344,
      "899": 0.14910395443439484,
      "900": -0.5939069390296936,
      "901": -0.8781271576881409,
      "902": 0.2239948958158493,
      "903": -0.13128839433193207,
      "904": 0.8465485572814941,
      "905": -0.10263430327177048,
      "906": -0.6739344596862793,
      "907": 0.26964715123176575,
      "908": -0.5007568597793579,
      "909": -0.8087844848632812,
      "910": 0.5158049464225769,
      "911": -0.49967271089553833,
      "912": 0.4245123267173767,
      "913": 0.47390055656433105,
      "914": 0.3624798357486725,
      "915": -0.5101557970046997,
      "916": -0.6598926782608032,
      "917": -0.12277916818857193,
      "918": -0.2014494091272354,
      "919": 0.4140585660934448,
      "920": 0.5972921252250671,
      "921": -1.2644459009170532,
      "922": 0.5946738123893738,
      "923": -1.1960053443908691,
      "924": 1.191329836845398,
      "925": 0.720881998538971,
      "926": 0.11314939707517624,
      "927": -0.8524490594863892,
      "928": 0.6275095343589783,
      "929": -0.31652748584747314,
      "930": 1.7398535013198853,
      "931": 0.12606793642044067,
      "932": -1.2030364274978638,
      "933": 0.7691071629524231,
      "934": -0.11848649382591248,
      "935": 2.209735631942749,
      "936": 1.1157599687576294,
      "937": 0.47362807393074036,
      "938": 1.6398038864135742,
      "939": -0.27471446990966797,
      "940": 2.924532175064087,
      "941": 1.0637718439102173,
      "942": 1.3851028680801392,
      "943": 1.6724578142166138,
      "944": 0.5984841585159302,
      "945": -0.14705143868923187,
      "946": 0.7714244723320007,
      "947": 0.7839479446411133,
      "948": -2.095254421234131,
      "949": -0.7083039879798889,
      "950": -2.1126158237457275,
      "951": -0.5371392965316772,
      "952": -1.5239464044570923,
      "953": -1.6001274585723877,
      "954": -0.22462591528892517,
      "955": -1.8206398487091064,
      "956": -2.0355193614959717,
      "957": 0.967420756816864,
      "958": -0.47812360525131226,
      "959": -2.2144269943237305,
      "960": -0.4906618893146515,
      "961": 1.6843138933181763,
      "962": 0.9559385180473328,
      "963": 1.1554806232452393,
      "964": -0.7011951208114624,
      "965": -0.8293868899345398,
      "966": -0.2479989379644394,
      "967": -1.225817084312439,
      "968": 1.573462724685669,
      "969": -0.7976124882698059,
      "970": -1.3721225261688232,
      "971": 0.7514640092849731,
      "972": -1.1755497455596924,
      "973": -1.5638636350631714,
      "974": 0.7564315795898438,
      "975": -1.5043659210205078,
      "976": -0.20493744313716888,
      "977": -0.42469945549964905,
      "978": -2.4871957302093506,
      "979": 1.1664139032363892,
      "980": -0.21629789471626282,
      "981": 0.43849679827690125,
      "982": -0.5393089652061462,
      "983": -0.3359169363975525,
      "984": 0.6800481677055359,
      "985": -0.31549787521362305,
      "986": -0.184451624751091,
      "987": -0.3295429050922394,
      "988": 2.8744192123413086,
      "989": -0.46239998936653137,
      "990": 1.1839231252670288,
      "991": 2.414491653442383,
      "992": 1.8892210721969604,
      "993": 1.6839689016342163,
      "994": -1.887420892715454,
      "995": -1.2893162965774536,
      "996": 0.561156690120697,
      "997": -0.4576970636844635,
      "998": 0.9492356777191162,
      "999": -0.576423168182373,
      "1000": -1.9561846256256104,
      "1001": 0.4572572112083435,
      "1002": -0.4626859426498413,
      "1003": -1.5299948453903198,
      "1004": 2.8944034576416016,
      "1005": 0.28166845440864563,
      "1006": -0.43376845121383667,
      "1007": 0.9417792558670044,
      "1008": -0.07622738182544708,
      "1009": 1.01707124710083,
      "1010": 1.7074438333511353,
      "1011": -1.723814845085144,
      "1012": -2.0820999145507812,
      "1013": -0.5690944790840149,
      "1014": -0.7287104725837708,
      "1015": -1.4378482103347778,
      "1016": -2.136571168899536,
      "1017": 0.012707161717116833,
      "1018": 0.7369548082351685,
      "1019": 1.6699953079223633,
      "1020": -0.7991243004798889,
      "1021": -1.42396080493927,
      "1022": 0.6915790438652039,
      "1023": -1.459102749824524,
      "1024": -0.27036216855049133,
      "1025": 1.3016479015350342,
      "1026": 1.960233449935913,
      "1027": -0.9875405430793762,
      "1028": -0.6666306853294373,
      "1029": 0.883870005607605,
      "1030": 0.4041703939437866,
      "1031": 1.3430367708206177,
      "1032": 1.6957345008850098,
      "1033": -1.4754916429519653,
      "1034": -2.4049243927001953,
      "1035": -2.3784449100494385,
      "1036": 2.1914303302764893,
      "1037": 2.4457032680511475,
      "1038": -2.346964120864868,
      "1039": 0.6393348574638367,
      "1040": 4.455056667327881,
      "1041": 2.205942153930664,
      "1042": 2.7958898544311523,
      "1043": 2.215989828109741,
      "1044": -1.5407963991165161,
      "1045": 3.2677464485168457,
      "1046": -0.8136095404624939,
      "1047": 2.4992940425872803,
      "1048": 3.6333940029144287,
      "1049": -3.039011240005493,
      "1050": 3.232917070388794,
      "1051": -1.5161443948745728,
      "1052": -2.402578592300415,
      "1053": -1.6912341117858887,
      "1054": 2.5333783626556396,
      "1055": -2.7871594429016113,
      "1056": 0.6144090890884399,
      "1057": 1.680116057395935,
      "1058": 2.165208339691162,
      "1059": 2.2583208084106445,
      "1060": 2.159710168838501,
      "1061": 2.0078682899475098,
      "1062": -3.724841594696045,
      "1063": -0.5170001983642578,
      "1064": 1.6213335990905762,
      "1065": 2.2081871032714844,
      "1066": 3.993849039077759,
      "1067": 1.170729160308838,
      "1068": -3.28670597076416,
      "1069": 2.0353879928588867,
      "1070": -3.7927587032318115,
      "1071": 1.9860799312591553,
      "1072": 3.567302942276001,
      "1073": -1.5703299045562744,
      "1074": 3.036360263824463,
      "1075": -2.6060266494750977,
      "1076": 2.3806405067443848,
      "1077": 1.8121922016143799,
      "1078": 3.0850436687469482,
      "1079": 3.8903775215148926,
      "1080": -4.652061462402344,
      "1081": 0.9439677596092224,
      "1082": 5.267333507537842,
      "1083": 2.4185333251953125,
      "1084": 0.43028953671455383,
      "1085": 2.3510732650756836,
      "1086": 3.746971845626831,
      "1087": 1.2775181531906128,
      "1088": -4.070334434509277,
      "1089": -0.8057649731636047,
      "1090": 2.419600009918213,
      "1091": 0.5071322917938232,
      "1092": 1.7415306568145752,
      "1093": -0.8585450649261475,
      "1094": -0.3132585883140564,
      "1095": 2.6279447078704834,
      "1096": -1.6237190961837769,
      "1097": 0.47927722334861755,
      "1098": 3.0031673908233643,
      "1099": -0.3637422025203705,
      "1100": -0.08511490374803543,
      "1101": -0.5222223401069641,
      "1102": 0.42454373836517334,
      "1103": 1.0957938432693481,
      "1104": 3.4180893898010254,
      "1105": 0.42689481377601624,
      "1106": -0.8738145232200623,
      "1107": 1.5298163890838623,
      "1108": -1.1677680015563965,
      "1109": -1.2692497968673706,
      "1110": -3.1173930168151855,
      "1111": 0.6022994518280029,
      "1112": -0.6898625493049622,
      "1113": 2.982628107070923,
      "1114": 0.20909151434898376,
      "1115": -1.9443185329437256,
      "1116": 1.735832691192627,
      "1117": -0.28086981177330017,
      "1118": -5.010702133178711,
      "1119": -0.43938779830932617,
      "1120": 4.480695724487305,
      "1121": -0.3566698133945465,
      "1122": -1.2517942190170288,
      "1123": -2.3128855228424072,
      "1124": 0.04228987172245979,
      "1125": -0.8245316743850708,
      "1126": 2.2268714904785156,
      "1127": -1.0812896490097046,
      "1128": -0.8294736742973328,
      "1129": 1.8192033767700195,
      "1130": 3.2726805210113525,
      "1131": 1.9956281185150146,
      "1132": -0.4066643714904785,
      "1133": 2.7102644443511963,
      "1134": 2.598360061645508,
      "1135": -3.888986110687256,
      "1136": 1.1689902544021606,
      "1137": 2.842665433883667,
      "1138": -0.9807833433151245,
      "1139": 1.598660945892334,
      "1140": -1.99752938747406,
      "1141": -3.269655466079712,
      "1142": 1.5737448930740356,
      "1143": -2.7330527305603027,
      "1144": 3.194643259048462,
      "1145": 1.0511478185653687,
      "1146": -0.6053295731544495,
      "1147": -1.6252961158752441,
      "1148": 0.910572350025177,
      "1149": -1.252261757850647,
      "1150": -1.4402960538864136,
      "1151": -0.3730463981628418,
      "1152": -0.9804909825325012,
      "1153": 0.37100815773010254,
      "1154": 0.2334686517715454,
      "1155": 4.895482063293457,
      "1156": -3.4508097171783447,
      "1157": -1.4014265537261963,
      "1158": -0.039360251277685165,
      "1159": -3.6073708534240723,
      "1160": 2.211097002029419,
      "1161": 2.879970073699951,
      "1162": -2.218998670578003,
      "1163": 2.30359148979187,
      "1164": 1.2715250253677368,
      "1165": -0.9757781624794006,
      "1166": 1.5175095796585083,
      "1167": 0.185491681098938,
      "1168": -0.957991361618042,
      "1169": -2.475796699523926,
      "1170": -0.10394096374511719,
      "1171": -0.009536825120449066,
      "1172": 0.529774010181427,
      "1173": 4.223669528961182,
      "1174": -3.3479557037353516,
      "1175": 1.343996286392212,
      "1176": -5.076732635498047,
      "1177": 0.5716980695724487,
      "1178": 0.18330693244934082,
      "1179": -2.905626058578491,
      "1180": -4.108761787414551,
      "1181": -0.1473185271024704,
      "1182": 1.8279093503952026,
      "1183": 2.4516289234161377,
      "1184": -1.0027260780334473,
      "1185": 0.11520575731992722,
      "1186": -1.257468342781067,
      "1187": 0.7778997421264648,
      "1188": 1.1881862878799438,
      "1189": -0.8609268665313721,
      "1190": 0.7653178572654724,
      "1191": 2.6236462593078613,
      "1192": -1.0622360706329346,
      "1193": 1.0113987922668457,
      "1194": 3.908352851867676,
      "1195": 0.290916383266449,
      "1196": -1.3206866979599,
      "1197": -0.2280227243900299,
      "1198": 0.03953157737851143,
      "1199": 0.5499749183654785,
      "1200": 0.8260043263435364,
      "1201": 0.5566312670707703,
      "1202": 1.3993397951126099,
      "1203": -1.9821807146072388,
      "1204": 3.2199344635009766,
      "1205": -2.6826975345611572,
      "1206": 3.5783944129943848,
      "1207": 1.603920340538025,
      "1208": -0.492349773645401,
      "1209": 3.1946589946746826,
      "1210": -0.6692430973052979,
      "1211": -1.1346319913864136,
      "1212": 1.9168683290481567,
      "1213": 3.386124610900879,
      "1214": -1.5943220853805542,
      "1215": 1.7328859567642212,
      "1216": 2.2580878734588623,
      "1217": 5.311281681060791,
      "1218": 1.9579392671585083,
      "1219": 1.5937188863754272,
      "1220": -1.7169990539550781,
      "1221": -0.0058556352742016315,
      "1222": 1.0318548679351807,
      "1223": -4.937262058258057,
      "1224": 1.6897881031036377,
      "1225": 2.5451643466949463,
      "1226": 2.841503381729126,
      "1227": 1.0645411014556885,
      "1228": 1.9856610298156738,
      "1229": 7.052150726318359,
      "1230": 1.7391935586929321,
      "1231": 0.7671967148780823,
      "1232": -2.788438320159912,
      "1233": 2.1003811359405518,
      "1234": -2.1024482250213623,
      "1235": 1.1533395051956177,
      "1236": -0.190805122256279,
      "1237": -2.461693525314331,
      "1238": -0.0619678758084774,
      "1239": -2.0688059329986572,
      "1240": -3.030580520629883,
      "1241": -0.6189708113670349,
      "1242": 1.6124138832092285,
      "1243": -1.0786482095718384,
      "1244": 2.0725669860839844,
      "1245": 3.5389676094055176,
      "1246": 1.344097375869751,
      "1247": 3.0591282844543457,
      "1248": 3.9828507900238037,
      "1249": -1.4243221282958984,
      "1250": -1.5835447311401367,
      "1251": -2.2995054721832275,
      "1252": -3.197139263153076,
      "1253": 4.684479713439941,
      "1254": 2.8712122440338135,
      "1255": -1.8767435550689697,
      "1256": -0.6701828241348267,
      "1257": 3.004962682723999,
      "1258": -2.6157143115997314,
      "1259": 4.54122257232666,
      "1260": 0.27706485986709595,
      "1261": -4.6974077224731445,
      "1262": 2.336226224899292,
      "1263": -1.445006012916565,
      "1264": 2.081709623336792,
      "1265": 1.8500864505767822,
      "1266": -0.1883777678012848,
      "1267": 2.1089892387390137,
      "1268": -3.5991687774658203,
      "1269": 0.4984894394874573,
      "1270": -5.387808322906494,
      "1271": 0.7264107465744019,
      "1272": 3.5351643562316895,
      "1273": -1.157387614250183,
      "1274": -1.1187418699264526,
      "1275": 0.29922884702682495,
      "1276": 9.369119644165039,
      "1277": 2.171320915222168,
      "1278": -0.32608193159103394,
      "1279": -0.572039008140564,
      "1280": 1.5492382049560547,
      "1281": 0.9767176508903503,
      "1282": -3.2269771099090576,
      "1283": -1.2916916608810425,
      "1284": -4.495938777923584,
      "1285": -0.7749069333076477,
      "1286": 1.0457521677017212,
      "1287": -3.0979416370391846,
      "1288": 3.529649257659912,
      "1289": -0.08423598110675812,
      "1290": 1.394539475440979,
      "1291": -1.8800715208053589,
      "1292": -1.9917598962783813,
      "1293": -2.4496893882751465,
      "1294": -2.260113000869751,
      "1295": -1.273836374282837,
      "1296": 0.6827970147132874,
      "1297": 1.0058945417404175,
      "1298": 3.1129090785980225,
      "1299": -4.450875282287598,
      "1300": 9.225055694580078,
      "1301": 0.9043822884559631,
      "1302": 0.6136622428894043,
      "1303": -1.6035395860671997,
      "1304": -1.2404800653457642,
      "1305": -0.8872599005699158,
      "1306": 4.091562271118164,
      "1307": 0.5761973857879639,
      "1308": -1.920186161994934,
      "1309": 2.2781875133514404,
      "1310": 1.5902594327926636,
      "1311": 8.739020347595215,
      "1312": 5.583162784576416,
      "1313": 4.192785263061523,
      "1314": 0.8547850251197815,
      "1315": 1.0907822847366333,
      "1316": -1.3524775505065918,
      "1317": -0.2076132595539093,
      "1318": 0.5712436437606812,
      "1319": -3.595106840133667,
      "1320": 1.0884186029434204,
      "1321": 2.2551963329315186,
      "1322": -3.6297924518585205,
      "1323": -4.008542060852051,
      "1324": 2.254432201385498,
      "1325": -6.780423164367676,
      "1326": 1.4334611892700195,
      "1327": -4.869716167449951,
      "1328": 4.700163841247559,
      "1329": 1.3455777168273926,
      "1330": -2.812804937362671,
      "1331": 4.770174980163574,
      "1332": 1.036315679550171,
      "1333": -0.34036868810653687,
      "1334": 1.3396164178848267,
      "1335": -0.5109137296676636,
      "1336": -0.5532982349395752,
      "1337": 1.4979547262191772,
      "1338": 0.24643786251544952,
      "1339": -5.040263652801514,
      "1340": -1.4987529516220093,
      "1341": 0.5409756898880005,
      "1342": -0.5081056356430054,
      "1343": 1.8010144233703613,
      "1344": 1.1210377216339111,
      "1345": -1.9023895263671875,
      "1346": -2.0299792289733887,
      "1347": -4.257158279418945,
      "1348": -2.966357469558716,
      "1349": 5.318349838256836,
      "1350": 0.15010027587413788,
      "1351": 0.471684992313385,
      "1352": 2.319844961166382,
      "1353": -0.3063836395740509,
      "1354": -2.425175905227661,
      "1355": -1.7444725036621094,
      "1356": -2.361912965774536,
      "1357": 0.32081282138824463,
      "1358": -3.3649520874023438,
      "1359": -1.866699457168579,
      "1360": -3.7371785640716553,
      "1361": -0.9339760541915894,
      "1362": 0.6143690347671509,
      "1363": -1.8099143505096436,
      "1364": -5.941635608673096,
      "1365": 1.8486844301223755,
      "1366": 1.3962947130203247,
      "1367": -1.0484617948532104,
      "1368": -3.536341428756714,
      "1369": 2.2456579208374023,
      "1370": 3.9622974395751953,
      "1371": 2.2953758239746094,
      "1372": -0.15338240563869476,
      "1373": 0.1682099550962448,
      "1374": 0.9840180277824402,
      "1375": -2.539632558822632,
      "1376": 1.1927425861358643,
      "1377": -3.0709917545318604,
      "1378": -1.8317612409591675,
      "1379": 2.7137482166290283,
      "1380": -2.9980740547180176,
      "1381": -0.6427590250968933,
      "1382": -2.83221697807312,
      "1383": -1.0731956958770752,
      "1384": 0.47034522891044617,
      "1385": 2.542876958847046,
      "1386": 0.47642725706100464,
      "1387": 1.7901746034622192,
      "1388": 2.2089920043945312,
      "1389": 4.9955267906188965,
      "1390": 3.32709002494812,
      "1391": -1.45539128780365,
      "1392": 3.557337522506714,
      "1393": 3.894378900527954,
      "1394": -1.620779275894165,
      "1395": 1.3843961954116821,
      "1396": 0.028118357062339783,
      "1397": 5.937652587890625,
      "1398": 6.378413677215576,
      "1399": -1.57987642288208,
      "1400": 4.107905864715576,
      "1401": -0.16937433183193207,
      "1402": -1.2627627849578857,
      "1403": 2.3252334594726562,
      "1404": -3.4051640033721924,
      "1405": 0.7985066175460815,
      "1406": 2.6920676231384277,
      "1407": -0.0536385104060173,
      "1408": 1.0058504343032837,
      "1409": -1.5676878690719604,
      "1410": -2.6075472831726074,
      "1411": -3.170973300933838,
      "1412": -0.8212569355964661,
      "1413": 0.5238572359085083,
      "1414": -0.6258154511451721,
      "1415": 3.4723148345947266,
      "1416": -0.1431974172592163,
      "1417": -1.0621222257614136,
      "1418": 5.126485824584961,
      "1419": 0.5363318920135498,
      "1420": 0.5518022179603577,
      "1421": 1.4231250286102295,
      "1422": 1.6646934747695923,
      "1423": 5.39699649810791,
      "1424": 2.6254324913024902,
      "1425": 1.8160024881362915,
      "1426": 2.683060884475708,
      "1427": -1.6641794443130493,
      "1428": 2.138913154602051,
      "1429": 0.525217592716217,
      "1430": -1.3472933769226074,
      "1431": 0.86915522813797,
      "1432": 4.821817398071289,
      "1433": -0.691805899143219,
      "1434": -0.8519346117973328,
      "1435": 2.096102714538574,
      "1436": -2.5704071521759033,
      "1437": 0.7194873094558716,
      "1438": -0.9397091865539551,
      "1439": -2.072011709213257,
      "1440": 1.2172377109527588,
      "1441": -1.655625820159912,
      "1442": 1.9419033527374268,
      "1443": 1.7139164209365845,
      "1444": -1.8074599504470825,
      "1445": -2.8637988567352295,
      "1446": 1.8710353374481201,
      "1447": -0.06801404058933258,
      "1448": -0.5865720510482788,
      "1449": -3.9665119647979736,
      "1450": 3.9433772563934326,
      "1451": 2.8813366889953613,
      "1452": 6.7640299797058105,
      "1453": 2.9323363304138184,
      "1454": 5.373257160186768,
      "1455": -2.43267822265625,
      "1456": 3.3267557621002197,
      "1457": 0.6827498078346252,
      "1458": 4.9412336349487305,
      "1459": -3.8133552074432373,
      "1460": 0.08667898178100586,
      "1461": 1.8063336610794067,
      "1462": 5.451706886291504,
      "1463": -0.14634113013744354,
      "1464": -1.4923728704452515,
      "1465": -5.259979724884033,
      "1466": 1.3568187952041626,
      "1467": -0.7684444785118103,
      "1468": 1.0539672374725342,
      "1469": 2.085714101791382,
      "1470": -4.433470726013184,
      "1471": 2.598345994949341,
      "1472": 1.6648956537246704,
      "1473": -4.614492416381836,
      "1474": 4.639374732971191,
      "1475": -1.7073193788528442,
      "1476": 0.19436396658420563,
      "1477": 0.5155960917472839,
      "1478": -1.5847632884979248,
      "1479": -1.3709404468536377,
      "1480": -0.8751450777053833,
      "1481": -1.7592123746871948,
      "1482": -9.470884323120117,
      "1483": -5.759689807891846,
      "1484": -6.179739475250244,
      "1485": -0.019553329795598984,
      "1486": -2.4693174362182617,
      "1487": -4.958705425262451,
      "1488": 4.518767356872559,
      "1489": 1.1372908353805542,
      "1490": -1.861698865890503,
      "1491": -2.9542109966278076,
      "1492": 0.8285368084907532,
      "1493": 0.012275888584554195,
      "1494": -6.1062235832214355,
      "1495": 1.5720624923706055,
      "1496": 7.9991230964660645,
      "1497": -1.8533601760864258,
      "1498": -0.7971674799919128,
      "1499": -1.6356724500656128,
      "1500": 1.0614601373672485,
      "1501": -0.8988038301467896,
      "1502": 0.09847420454025269,
      "1503": 1.0204176902770996,
      "1504": -1.7453327178955078,
      "1505": -3.254693031311035,
      "1506": 2.9501874446868896,
      "1507": 3.50052809715271,
      "1508": -3.057138204574585,
      "1509": -1.0390846729278564,
      "1510": 5.185765266418457,
      "1511": 2.832597494125366,
      "1512": 4.687141418457031,
      "1513": 2.6853926181793213,
      "1514": -0.7685686349868774,
      "1515": 0.6594730615615845,
      "1516": -5.158294200897217,
      "1517": 3.2948970794677734,
      "1518": 3.522444248199463,
      "1519": -3.2183825969696045,
      "1520": 6.41977596282959,
      "1521": -3.253787040710449,
      "1522": -1.5754096508026123,
      "1523": 0.23973646759986877,
      "1524": 1.0162755250930786,
      "1525": -0.7082486748695374,
      "1526": 3.343590021133423,
      "1527": 2.835421323776245,
      "1528": 3.991159200668335,
      "1529": 2.621347188949585,
      "1530": 2.5437185764312744,
      "1531": 5.120244026184082,
      "1532": -3.8048765659332275,
      "1533": 1.2050431966781616,
      "1534": 0.7603632807731628,
      "1535": 1.994197964668274,
      "1536": 1.9290493726730347,
      "1537": -1.5313225984573364,
      "1538": 2.0566630363464355,
      "1539": 0.8277566432952881,
      "1540": -2.7741739749908447,
      "1541": 1.141469955444336,
      "1542": 2.154005289077759,
      "1543": -0.26763468980789185,
      "1544": 3.204803943634033,
      "1545": 0.12249848246574402,
      "1546": 1.8870959281921387,
      "1547": -0.4171984791755676,
      "1548": 3.7546751499176025,
      "1549": 1.2160842418670654,
      "1550": -1.668318271636963,
      "1551": 1.3937591314315796,
      "1552": 0.275502473115921,
      "1553": 1.5492002964019775,
      "1554": -2.0218122005462646,
      "1555": 0.5731880068778992,
      "1556": 2.447352886199951,
      "1557": -4.884453773498535,
      "1558": -4.391361713409424,
      "1559": 0.865668773651123,
      "1560": -1.166201114654541,
      "1561": 0.7605207562446594,
      "1562": -1.2941174507141113,
      "1563": 2.826171875,
      "1564": -0.8193485140800476,
      "1565": -3.168407440185547,
      "1566": 4.022129535675049,
      "1567": 1.673636794090271,
      "1568": 1.2791403532028198,
      "1569": 2.397064208984375,
      "1570": -1.6966257095336914,
      "1571": -1.0334007740020752,
      "1572": -0.2970867455005646,
      "1573": -5.623759746551514,
      "1574": -2.5811784267425537,
      "1575": 1.159128189086914,
      "1576": -2.2057952880859375,
      "1577": -0.6562343835830688,
      "1578": -0.893608808517456,
      "1579": 3.335296154022217,
      "1580": -2.4364118576049805,
      "1581": -1.1260361671447754,
      "1582": 0.1588074117898941,
      "1583": -2.671156406402588,
      "1584": 3.2212717533111572,
      "1585": -1.176985502243042,
      "1586": 0.7534563541412354,
      "1587": 4.680916786193848,
      "1588": 0.7836242914199829,
      "1589": -0.7540373802185059,
      "1590": -0.5194002389907837,
      "1591": -0.8885871767997742,
      "1592": -1.2585176229476929,
      "1593": -4.185170650482178,
      "1594": -1.0747158527374268,
      "1595": -4.036065578460693,
      "1596": -1.2969987392425537,
      "1597": 0.22997958958148956,
      "1598": 4.097109317779541,
      "1599": 5.974681854248047,
      "1600": -3.114988327026367,
      "1601": -0.6432664394378662,
      "1602": 2.445972204208374,
      "1603": 2.923753499984741,
      "1604": -1.4327510595321655,
      "1605": 3.9941482543945312,
      "1606": -4.084286212921143,
      "1607": 1.7720586061477661,
      "1608": -1.9886560440063477,
      "1609": -0.44986099004745483,
      "1610": 3.4354424476623535,
      "1611": -3.570679187774658,
      "1612": 0.5121683478355408,
      "1613": 4.2555460929870605,
      "1614": -5.019469738006592,
      "1615": 3.2438230514526367,
      "1616": 0.21188461780548096,
      "1617": -0.5637376308441162,
      "1618": 0.907458484172821,
      "1619": -0.30959850549697876,
      "1620": -0.8140827417373657,
      "1621": -3.6803643703460693,
      "1622": -3.7730777263641357,
      "1623": -3.635425329208374,
      "1624": -4.273370742797852,
      "1625": -3.3452248573303223,
      "1626": 5.260756015777588,
      "1627": -2.044332265853882,
      "1628": -3.0199501514434814,
      "1629": -0.26225271821022034,
      "1630": -2.5377838611602783,
      "1631": 0.8539010286331177,
      "1632": -2.1381797790527344,
      "1633": -4.3625335693359375,
      "1634": 1.2736482620239258,
      "1635": -6.560380458831787,
      "1636": -2.2644577026367188,
      "1637": 4.564869403839111,
      "1638": -5.9458136558532715,
      "1639": 1.045060634613037,
      "1640": 1.70822012424469,
      "1641": 3.5875606536865234,
      "1642": 0.48831185698509216,
      "1643": -2.7556374073028564,
      "1644": 3.197606086730957,
      "1645": -1.074682593345642,
      "1646": -7.64854621887207,
      "1647": -1.250179409980774,
      "1648": -0.3455294966697693,
      "1649": -3.3177833557128906,
      "1650": -3.402893543243408,
      "1651": 2.418156385421753,
      "1652": 4.782391548156738,
      "1653": 4.19535493850708,
      "1654": -1.5058859586715698,
      "1655": 5.666339874267578,
      "1656": -2.101259469985962,
      "1657": -2.6038568019866943,
      "1658": 1.6486625671386719,
      "1659": -0.35471516847610474,
      "1660": -0.8460261225700378,
      "1661": 3.2795608043670654,
      "1662": -2.3871920108795166,
      "1663": 2.46791672706604,
      "1664": 4.889886379241943,
      "1665": -1.9171627759933472,
      "1666": 1.9278512001037598,
      "1667": 1.0202893018722534,
      "1668": 2.7996761798858643,
      "1669": -0.7260512709617615,
      "1670": 0.42769166827201843,
      "1671": -0.5483251810073853,
      "1672": 0.66766756772995,
      "1673": -0.054699063301086426,
      "1674": 5.163248062133789,
      "1675": -0.8905657529830933,
      "1676": 2.7612719535827637,
      "1677": 0.7619121074676514,
      "1678": -3.7417120933532715,
      "1679": 0.6226887106895447,
      "1680": 0.2830295264720917,
      "1681": -0.15088605880737305,
      "1682": 3.5858731269836426,
      "1683": 0.6363365054130554,
      "1684": -2.5597784519195557,
      "1685": 6.022617816925049,
      "1686": 2.5085341930389404,
      "1687": 2.3749499320983887,
      "1688": -0.8824649453163147,
      "1689": 1.5471625328063965,
      "1690": -0.4471621811389923,
      "1691": -0.17921820282936096,
      "1692": 1.1095143556594849,
      "1693": 1.1593941450119019,
      "1694": -2.0578200817108154,
      "1695": -1.4216665029525757,
      "1696": 0.6788136959075928,
      "1697": 2.0279290676116943,
      "1698": -0.4043313264846802,
      "1699": 2.694483995437622,
      "1700": -2.45597767829895,
      "1701": -0.035584066063165665,
      "1702": 0.8753719329833984,
      "1703": 0.5412972569465637,
      "1704": 0.40379050374031067,
      "1705": -1.3674348592758179,
      "1706": -0.7063911557197571,
      "1707": 0.035462964326143265,
      "1708": -2.3493783473968506,
      "1709": 1.5913456678390503,
      "1710": 0.46514904499053955,
      "1711": 2.823514938354492,
      "1712": -2.1060783863067627,
      "1713": 3.0491762161254883,
      "1714": 0.39908450841903687,
      "1715": 2.2653980255126953,
      "1716": -2.3981616497039795,
      "1717": -2.082005023956299,
      "1718": -2.349895477294922,
      "1719": -4.142764091491699,
      "1720": 2.673659324645996,
      "1721": -1.8196882009506226,
      "1722": 0.3230602443218231,
      "1723": 0.8542714715003967,
      "1724": -0.12869295477867126,
      "1725": -2.2747793197631836,
      "1726": 0.19994421303272247,
      "1727": -2.9548959732055664,
      "1728": 0.22321034967899323,
      "1729": -1.8361899852752686,
      "1730": -2.8582868576049805,
      "1731": 1.8278288841247559,
      "1732": 0.3525560796260834,
      "1733": 2.757392644882202,
      "1734": 0.47431254386901855,
      "1735": -0.002057344652712345,
      "1736": -1.163152813911438,
      "1737": -0.14104102551937103,
      "1738": 2.4423105716705322,
      "1739": -0.9602085947990417,
      "1740": 0.21848176419734955,
      "1741": -0.5754694938659668,
      "1742": -2.24428653717041,
      "1743": 1.4767478704452515,
      "1744": -0.9920386075973511,
      "1745": -4.259912967681885,
      "1746": -4.772096157073975,
      "1747": 0.4411962926387787,
      "1748": -2.3635807037353516,
      "1749": 2.8760664463043213,
      "1750": -3.3371963500976562,
      "1751": 3.6444597244262695,
      "1752": -0.15480493009090424,
      "1753": 1.2587517499923706,
      "1754": 2.907059907913208,
      "1755": -0.527810275554657,
      "1756": 1.108243465423584,
      "1757": 0.3293645977973938,
      "1758": -0.7295032739639282,
      "1759": 0.9832921624183655,
      "1760": 0.031138358637690544,
      "1761": -2.5184407234191895,
      "1762": -2.2838950157165527,
      "1763": -0.7701427340507507,
      "1764": -2.5027122497558594,
      "1765": -1.8290693759918213,
      "1766": -0.24529261887073517,
      "1767": 0.1793520599603653,
      "1768": 2.207766532897949,
      "1769": -4.122254371643066,
      "1770": 1.2942354679107666,
      "1771": -3.717650890350342,
      "1772": 1.1813938617706299,
      "1773": -1.8572323322296143,
      "1774": 0.31575772166252136,
      "1775": 3.870814561843872,
      "1776": 1.4400798082351685,
      "1777": 2.71649432182312,
      "1778": 0.05681769549846649,
      "1779": -1.577702283859253,
      "1780": -0.08259458839893341,
      "1781": -0.47766655683517456,
      "1782": -1.029857873916626,
      "1783": 0.16577735543251038,
      "1784": -4.0540008544921875,
      "1785": 1.5820868015289307,
      "1786": -1.3113335371017456,
      "1787": -2.593552589416504,
      "1788": 0.9363179206848145,
      "1789": -2.0442211627960205,
      "1790": -2.1632752418518066,
      "1791": 0.12311065196990967,
      "1792": -3.4168782234191895,
      "1793": -1.915179967880249,
      "1794": 1.8174400329589844,
      "1795": -1.149033546447754,
      "1796": 1.7461119890213013,
      "1797": -2.1248600482940674,
      "1798": 4.344641208648682,
      "1799": 1.0927306413650513,
      "1800": -1.966957926750183,
      "1801": 3.5901269912719727,
      "1802": 3.716564178466797,
      "1803": -1.1297160387039185,
      "1804": 1.010575532913208,
      "1805": 0.1778629571199417,
      "1806": -1.3981329202651978,
      "1807": 0.09921837598085403,
      "1808": -1.6959739923477173,
      "1809": -0.07406716793775558,
      "1810": 0.2512292265892029,
      "1811": 0.9114744067192078,
      "1812": 0.5656082034111023,
      "1813": 0.8692470192909241,
      "1814": 1.2262037992477417,
      "1815": 1.1646809577941895,
      "1816": 1.3266518115997314,
      "1817": -0.7506186962127686,
      "1818": -2.5254459381103516,
      "1819": 3.9031007289886475,
      "1820": -0.21521306037902832,
      "1821": -0.3096350431442261,
      "1822": 1.9069082736968994,
      "1823": 1.642246961593628,
      "1824": -0.06518997251987457,
      "1825": -1.3596019744873047,
      "1826": 3.617351531982422,
      "1827": -0.552352786064148,
      "1828": -3.013460397720337,
      "1829": -1.7715928554534912,
      "1830": -2.2086305618286133,
      "1831": -2.07909893989563,
      "1832": 1.4990164041519165,
      "1833": 2.2450273036956787,
      "1834": -1.396481990814209,
      "1835": -0.8479710817337036,
      "1836": -2.811427116394043,
      "1837": -1.7172235250473022,
      "1838": -6.288740634918213,
      "1839": -3.172415256500244,
      "1840": -0.6719009280204773,
      "1841": 2.4734151363372803,
      "1842": -4.192455768585205,
      "1843": 2.573415517807007,
      "1844": -3.8133344650268555,
      "1845": 2.0591092109680176,
      "1846": -1.5352346897125244,
      "1847": -2.0711729526519775,
      "1848": 2.414691209793091,
      "1849": 0.8447619080543518,
      "1850": -0.9714276194572449,
      "1851": -0.29732370376586914,
      "1852": 2.496840476989746,
      "1853": -0.5816561579704285,
      "1854": 1.417325496673584,
      "1855": -4.29410982131958,
      "1856": -3.788893938064575,
      "1857": 0.5963342189788818,
      "1858": -0.40096572041511536,
      "1859": 0.10193232446908951,
      "1860": 0.5557582974433899,
      "1861": 4.449653148651123,
      "1862": 4.0697245597839355,
      "1863": 1.674060344696045,
      "1864": -3.9003117084503174,
      "1865": -4.392128944396973,
      "1866": -1.1898589134216309,
      "1867": 6.75712776184082,
      "1868": -1.525739073753357,
      "1869": 1.766544222831726,
      "1870": -1.5282130241394043,
      "1871": -0.1658775806427002,
      "1872": 2.284292459487915,
      "1873": 2.6478726863861084,
      "1874": 1.0873119831085205,
      "1875": -0.25994178652763367,
      "1876": -3.5704550743103027,
      "1877": 1.0341432094573975,
      "1878": -3.9924890995025635,
      "1879": 2.978940725326538,
      "1880": 2.9872031211853027,
      "1881": 1.2476255893707275,
      "1882": -2.1383707523345947,
      "1883": -1.6273348331451416,
      "1884": 0.8446906208992004,
      "1885": 1.4783384799957275,
      "1886": 1.3799927234649658,
      "1887": -5.833151817321777,
      "1888": 1.3665763139724731,
      "1889": -2.1872057914733887,
      "1890": 1.6925430297851562,
      "1891": -1.6861876249313354,
      "1892": -1.3490419387817383,
      "1893": 1.2937414646148682,
      "1894": 2.2166998386383057,
      "1895": -1.3568897247314453,
      "1896": -2.4091618061065674,
      "1897": -1.1409887075424194,
      "1898": 3.8729941844940186,
      "1899": 1.6528217792510986,
      "1900": -3.732438325881958,
      "1901": 5.76664924621582,
      "1902": 3.7160327434539795,
      "1903": 1.631875991821289,
      "1904": -1.7302130460739136,
      "1905": 0.5501432418823242,
      "1906": -4.663368225097656,
      "1907": -1.2381229400634766,
      "1908": 2.7031657695770264,
      "1909": 0.23481298983097076,
      "1910": 3.93975567817688,
      "1911": -4.801755428314209,
      "1912": -5.758857727050781,
      "1913": 0.26974695920944214,
      "1914": -2.317487955093384,
      "1915": -8.999638557434082,
      "1916": 5.200608730316162,
      "1917": -2.6208436489105225,
      "1918": -5.714705944061279,
      "1919": 2.0216941833496094,
      "1920": -0.16127702593803406,
      "1921": 8.263397216796875,
      "1922": -4.941387176513672,
      "1923": -3.463113784790039,
      "1924": -1.6235860586166382,
      "1925": -2.6211397647857666,
      "1926": 7.429593563079834,
      "1927": 0.22951547801494598,
      "1928": -1.009365439414978,
      "1929": -1.6195006370544434,
      "1930": -2.7662041187286377,
      "1931": 2.3062403202056885,
      "1932": -0.5248695611953735,
      "1933": -0.6780170798301697,
      "1934": -3.5194900035858154,
      "1935": -2.059300184249878,
      "1936": -8.738266944885254,
      "1937": 4.922529220581055,
      "1938": -5.710426330566406,
      "1939": 3.2462828159332275,
      "1940": -1.0410665273666382,
      "1941": -0.3170342445373535,
      "1942": 0.22057437896728516,
      "1943": -2.694082736968994,
      "1944": 2.083972215652466,
      "1945": -0.15101855993270874,
      "1946": 2.1376209259033203,
      "1947": -1.5088834762573242,
      "1948": 4.41010046005249,
      "1949": -3.564051866531372,
      "1950": -1.10971999168396,
      "1951": -2.3006486892700195,
      "1952": -1.2775384187698364,
      "1953": -1.2564862966537476,
      "1954": -0.706575334072113,
      "1955": 0.6456212401390076,
      "1956": -0.07078448683023453,
      "1957": -6.078426837921143,
      "1958": 1.7508087158203125,
      "1959": -4.345400810241699,
      "1960": 1.8574222326278687,
      "1961": 0.017272282391786575,
      "1962": -6.228358745574951,
      "1963": 2.8019614219665527,
      "1964": 4.416951656341553,
      "1965": -3.3149092197418213,
      "1966": -6.568966865539551,
      "1967": -0.26714739203453064,
      "1968": 2.6587586402893066,
      "1969": -3.635376214981079,
      "1970": -3.478376626968384,
      "1971": -1.688563585281372,
      "1972": -3.795912504196167,
      "1973": 0.45035192370414734,
      "1974": -2.340357542037964,
      "1975": -0.1653057485818863,
      "1976": 2.395085096359253,
      "1977": -0.37589922547340393,
      "1978": -0.9515495896339417,
      "1979": 3.9793617725372314,
      "1980": 0.3728284537792206,
      "1981": 1.5637131929397583,
      "1982": 0.04892581328749657,
      "1983": 0.8293973207473755,
      "1984": 0.09704713523387909,
      "1985": 1.3088114261627197,
      "1986": 0.03071638010442257,
      "1987": -1.9761903285980225,
      "1988": 1.1553620100021362,
      "1989": -1.1687755584716797,
      "1990": 3.186772108078003,
      "1991": -1.6883699893951416,
      "1992": -6.857406139373779,
      "1993": -2.717254877090454,
      "1994": 4.826840877532959,
      "1995": -0.9835862517356873,
      "1996": -5.935111999511719,
      "1997": -2.07108211517334,
      "1998": 2.485673189163208,
      "1999": 2.3897459506988525,
      "2000": 6.333377361297607,
      "2001": 3.6254987716674805,
      "2002": 2.5100510120391846,
      "2003": -0.3538449704647064,
      "2004": -0.60256028175354,
      "2005": -2.236823797225952,
      "2006": -0.7659451961517334,
      "2007": 6.169020175933838,
      "2008": -2.503307580947876,
      "2009": 5.079214572906494,
      "2010": 1.3748513460159302,
      "2011": 3.027261257171631,
      "2012": 1.9050090312957764,
      "2013": -4.201816558837891,
      "2014": -4.956169128417969,
      "2015": -5.642040252685547,
      "2016": -4.592227458953857,
      "2017": -1.1334549188613892,
      "2018": -5.545388221740723,
      "2019": 5.4038472175598145,
      "2020": -2.5202081203460693,
      "2021": -1.7772692441940308,
      "2022": -6.117254257202148,
      "2023": 2.2213714122772217,
      "2024": 0.6477032899856567,
      "2025": -3.5565593242645264,
      "2026": -3.9081292152404785,
      "2027": 2.0804789066314697,
      "2028": 1.5461500883102417,
      "2029": 7.914571285247803,
      "2030": 2.4764740467071533,
      "2031": 0.8001391887664795,
      "2032": 1.500214695930481,
      "2033": -2.201298952102661,
      "2034": 5.5277557373046875,
      "2035": 1.9096814393997192,
      "2036": -2.4691402912139893,
      "2037": 7.5950493812561035,
      "2038": -5.27362585067749,
      "2039": 1.0547914505004883,
      "2040": 1.1733876466751099,
      "2041": -0.20523694157600403,
      "2042": -0.1864902824163437,
      "2043": 4.931311130523682,
      "2044": 2.6498923301696777,
      "2045": 0.7163522839546204,
      "2046": 4.239346981048584,
      "2047": 3.792393684387207,
      "2048": 5.232935905456543,
      "2049": -3.2797155380249023,
      "2050": 3.4492924213409424,
      "2051": 5.001123905181885,
      "2052": -0.331476092338562,
      "2053": 4.285686492919922,
      "2054": -2.0613255500793457,
      "2055": 2.270321846008301,
      "2056": 1.7018297910690308,
      "2057": -0.2550579011440277,
      "2058": 3.1900899410247803,
      "2059": 2.3622751235961914,
      "2060": -4.748626708984375,
      "2061": 4.867049694061279,
      "2062": 0.24369120597839355,
      "2063": 3.7022480964660645,
      "2064": -0.14535199105739594,
      "2065": 4.4909539222717285,
      "2066": 0.7112321853637695,
      "2067": 0.07148320227861404,
      "2068": 3.796703815460205,
      "2069": -5.128851413726807,
      "2070": -2.4488980770111084,
      "2071": 0.5976160168647766,
      "2072": -2.9452171325683594,
      "2073": -4.538262367248535,
      "2074": -0.43010613322257996,
      "2075": 0.714153528213501,
      "2076": 0.4122055172920227,
      "2077": -4.279396057128906,
      "2078": 6.542661666870117,
      "2079": -3.987246036529541,
      "2080": -2.1963889598846436,
      "2081": 1.363448977470398,
      "2082": -1.3990893363952637,
      "2083": -1.8466485738754272,
      "2084": 2.2264604568481445,
      "2085": -2.150258779525757,
      "2086": -1.4597241878509521,
      "2087": 1.7178219556808472,
      "2088": -0.4141143262386322,
      "2089": 6.488765239715576,
      "2090": -1.3882465362548828,
      "2091": 1.260872483253479,
      "2092": -1.27798330783844,
      "2093": 2.021912097930908,
      "2094": -3.016859292984009,
      "2095": 2.5023956298828125,
      "2096": 0.836591899394989,
      "2097": 5.916238784790039,
      "2098": 0.6556704044342041,
      "2099": -0.2327306866645813,
      "2100": -6.4699907302856445,
      "2101": -1.779746413230896,
      "2102": 5.2511091232299805,
      "2103": -0.8631563782691956,
      "2104": 0.7066645622253418,
      "2105": 5.075004577636719,
      "2106": -1.8110487461090088,
      "2107": -2.3843488693237305,
      "2108": 2.6113054752349854,
      "2109": 2.713681697845459,
      "2110": -4.679304599761963,
      "2111": -10.287409782409668,
      "2112": 1.8686217069625854,
      "2113": -8.384705543518066,
      "2114": 4.785356044769287,
      "2115": -1.3458538055419922,
      "2116": -0.4247705638408661,
      "2117": 0.6351433992385864,
      "2118": 0.3143202066421509,
      "2119": -0.21928980946540833,
      "2120": 0.6491856575012207,
      "2121": -1.253719687461853,
      "2122": -1.676538348197937,
      "2123": 0.8605726957321167,
      "2124": 1.1343969106674194,
      "2125": -2.706601142883301,
      "2126": 0.8970969319343567,
      "2127": 1.8147555589675903,
      "2128": 1.032851219177246,
      "2129": 0.13078224658966064,
      "2130": 1.5877472162246704,
      "2131": -0.6954665780067444,
      "2132": -0.6825253963470459,
      "2133": 0.14748837053775787,
      "2134": -0.866239607334137,
      "2135": 0.6392035484313965,
      "2136": -0.5996419787406921,
      "2137": 0.16814438998699188,
      "2138": -3.391916275024414,
      "2139": 1.906786561012268,
      "2140": -0.2057165801525116,
      "2141": -0.41724464297294617,
      "2142": 2.5132734775543213,
      "2143": -1.4838114976882935,
      "2144": 2.0209970474243164,
      "2145": -0.36966991424560547,
      "2146": 1.4596530199050903,
      "2147": 0.19485187530517578,
      "2148": 0.7088539600372314,
      "2149": -2.241877794265747,
      "2150": -0.520119309425354,
      "2151": 0.7421308755874634,
      "2152": 0.4622364938259125,
      "2153": -0.3055936098098755,
      "2154": 0.17035280168056488,
      "2155": 1.152700424194336,
      "2156": -0.09989015758037567,
      "2157": 3.2232394218444824,
      "2158": 2.8761563301086426,
      "2159": 0.4046522080898285,
      "2160": -2.00685715675354,
      "2161": 1.303801417350769,
      "2162": 0.06489383429288864,
      "2163": 1.6135480403900146,
      "2164": -1.0071916580200195,
      "2165": -0.011755608953535557,
      "2166": 1.7045398950576782,
      "2167": 0.9815725088119507,
      "2168": 0.02565165050327778,
      "2169": -1.3505045175552368,
      "2170": -1.3445640802383423,
      "2171": 0.1943056732416153,
      "2172": -0.6942549347877502,
      "2173": -0.013653399422764778,
      "2174": 0.32571741938591003,
      "2175": -0.6388749480247498,
      "2176": -0.5419520735740662,
      "2177": 0.12108133733272552,
      "2178": -1.4769834280014038,
      "2179": 1.1451303958892822,
      "2180": 0.1450653076171875,
      "2181": -0.5397282838821411,
      "2182": 0.31114593148231506,
      "2183": 0.8532355427742004,
      "2184": -0.9268288612365723,
      "2185": -0.5844030380249023,
      "2186": -1.173173427581787,
      "2187": -0.30231738090515137,
      "2188": -1.2148529291152954,
      "2189": -1.2477376461029053,
      "2190": -1.3772331476211548,
      "2191": 0.17378872632980347,
      "2192": -0.15150845050811768,
      "2193": -0.46948033571243286,
      "2194": 0.4842141270637512,
      "2195": -0.6848082542419434,
      "2196": -0.4217415452003479,
      "2197": -0.1898769587278366,
      "2198": -0.08252990990877151,
      "2199": -1.3569231033325195,
      "2200": -0.3127730190753937,
      "2201": 0.8797520995140076,
      "2202": -0.1292121708393097,
      "2203": 0.7071558833122253,
      "2204": 0.8955720663070679,
      "2205": 1.088379979133606,
      "2206": -0.5415676236152649,
      "2207": 0.302091121673584,
      "2208": -0.2263074517250061,
      "2209": -0.06638827174901962,
      "2210": -0.05902958661317825,
      "2211": 0.041070666164159775,
      "2212": -0.02275140769779682,
      "2213": 0.026724671944975853,
      "2214": -0.005529268179088831,
      "2215": 0.0486740879714489,
      "2216": 0.06164516136050224,
      "2217": -0.04604778811335564,
      "2218": -0.04891100153326988,
      "2219": 0.05685369670391083,
      "2220": 0.07162642478942871,
      "2221": 0.061531875282526016,
      "2222": 0.02781451866030693,
      "2223": -0.03386828303337097,
      "2224": 0.03740695118904114,
      "2225": 0.033474862575531006,
      "2226": -0.038888316601514816,
      "2227": 0.048927389085292816,
      "2228": -0.008581278845667839,
      "2229": -0.07196950167417526,
      "2230": 0.06329509615898132,
      "2231": -0.060900188982486725,
      "2232": 0.04778280854225159,
      "2233": 0.015355559065937996,
      "2234": -0.002449609339237213,
      "2235": -0.06798206269741058,
      "2236": 0.0669722706079483,
      "2237": 0.006801161449402571,
      "2238": 0.051842715591192245,
      "2239": -0.055924125015735626,
      "2240": 0.007123737595975399,
      "2241": 0.01175177562981844,
      "2242": 0.05067194625735283,
      "2243": -0.00502014672383666,
      "2244": 0.01954127475619316,
      "2245": 0.07586275786161423,
      "2246": 0.03358769044280052,
      "2247": 0.053666308522224426,
      "2248": -0.07110650837421417,
      "2249": -0.022001270204782486,
      "2250": -0.014355807565152645,
      "2251": -0.07596283406019211,
      "2252": 0.0686597004532814,
      "2253": 0.030293641611933708,
      "2254": 0.02445160783827305,
      "2255": -0.06592340767383575
    }
  },
  "hiddenLayers": [
    {
      "inputMatrix": {
        "rows": 20,
        "columns": 47,
        "weights": {
          "0": -0.531757116317749,
          "1": -1.2993637323379517,
          "2": -0.2170107513666153,
          "3": -1.3626655340194702,
          "4": -0.48667556047439575,
          "5": 0.6286126375198364,
          "6": -0.8821535110473633,
          "7": 0.9210333228111267,
          "8": 0.6290723085403442,
          "9": -0.9884696006774902,
          "10": 1.2064234018325806,
          "11": -0.9121986031532288,
          "12": 0.511165201663971,
          "13": -0.3811784088611603,
          "14": -0.041713837534189224,
          "15": 0.56156986951828,
          "16": 0.21569959819316864,
          "17": -0.22144028544425964,
          "18": -0.2427171915769577,
          "19": 0.9772109389305115,
          "20": 0.08325719833374023,
          "21": 0.5947958827018738,
          "22": -2.0282862186431885,
          "23": -1.9034745693206787,
          "24": -0.4554978013038635,
          "25": 0.43111279606819153,
          "26": -0.5298541784286499,
          "27": 0.8688251972198486,
          "28": 1.7336561679840088,
          "29": 0.4133395254611969,
          "30": -1.4647430181503296,
          "31": 0.3795693516731262,
          "32": -1.1524144411087036,
          "33": 1.4567716121673584,
          "34": -0.6317343711853027,
          "35": -0.21262973546981812,
          "36": 2.023615837097168,
          "37": 1.045580267906189,
          "38": 0.5384479761123657,
          "39": -1.483097791671753,
          "40": 0.20851515233516693,
          "41": 0.33888381719589233,
          "42": 0.9236149191856384,
          "43": -0.0739501342177391,
          "44": 0.4115770757198334,
          "45": -0.4779830873012543,
          "46": 1.3591328859329224,
          "47": -1.56613290309906,
          "48": -0.14194722473621368,
          "49": 0.7770021557807922,
          "50": 0.5629563927650452,
          "51": 0.04004727676510811,
          "52": 0.051941879093647,
          "53": 1.4854665994644165,
          "54": -0.23216795921325684,
          "55": 0.5122499465942383,
          "56": -0.16875317692756653,
          "57": -0.13912267982959747,
          "58": 1.043122410774231,
          "59": -0.8272680044174194,
          "60": 0.005795969627797604,
          "61": 0.9498978853225708,
          "62": -0.5244168639183044,
          "63": -0.1716778576374054,
          "64": 0.038548629730939865,
          "65": 0.16754047572612762,
          "66": -0.9495728611946106,
          "67": 0.6363411545753479,
          "68": 0.24721340835094452,
          "69": 1.0803108215332031,
          "70": 0.8514297604560852,
          "71": 0.3175480365753174,
          "72": 0.3918329179286957,
          "73": 0.2570648789405823,
          "74": 1.8721730709075928,
          "75": -1.9818168878555298,
          "76": 0.10559557378292084,
          "77": -0.035975661128759384,
          "78": 0.6672066450119019,
          "79": 2.0375311374664307,
          "80": 0.8395088315010071,
          "81": -0.6421920657157898,
          "82": 1.7706433534622192,
          "83": -1.5663262605667114,
          "84": 0.9240949153900146,
          "85": 0.4150541126728058,
          "86": -0.21407504379749298,
          "87": 1.0810620784759521,
          "88": -0.9554920196533203,
          "89": 0.6704291105270386,
          "90": 0.9763038754463196,
          "91": 1.0087769031524658,
          "92": 1.3883204460144043,
          "93": -1.077191710472107,
          "94": -1.0389387607574463,
          "95": -0.6413741707801819,
          "96": -0.009833687916398048,
          "97": -0.505537211894989,
          "98": -1.3678480386734009,
          "99": -0.9312034845352173,
          "100": -2.1062228679656982,
          "101": 0.9532129764556885,
          "102": 0.3137471079826355,
          "103": -1.1839544773101807,
          "104": 0.04609059542417526,
          "105": -0.6995126605033875,
          "106": 0.9834080934524536,
          "107": 0.9451379179954529,
          "108": -1.066848635673523,
          "109": 1.4995378255844116,
          "110": -0.14415721595287323,
          "111": -0.7532581686973572,
          "112": -0.22717367112636566,
          "113": -0.7015025019645691,
          "114": 0.5469955801963806,
          "115": -0.6534826159477234,
          "116": -1.3653508424758911,
          "117": -1.8556339740753174,
          "118": 0.6426546573638916,
          "119": 0.5613351464271545,
          "120": 0.013694051653146744,
          "121": 0.10448849946260452,
          "122": 1.101976752281189,
          "123": 0.6366788148880005,
          "124": -0.24353042244911194,
          "125": 0.14998242259025574,
          "126": -1.4022539854049683,
          "127": 0.9452987909317017,
          "128": 1.0421924591064453,
          "129": 0.3636769652366638,
          "130": -0.2642362117767334,
          "131": 0.6790239214897156,
          "132": 0.655565619468689,
          "133": 0.09299039840698242,
          "134": -0.5758257508277893,
          "135": -0.6493719816207886,
          "136": 0.4811634421348572,
          "137": 0.5812113285064697,
          "138": 0.11741378158330917,
          "139": -0.6542139649391174,
          "140": -0.037715863436460495,
          "141": -0.3353663980960846,
          "142": -3.113919496536255,
          "143": -0.22827699780464172,
          "144": -1.2676360607147217,
          "145": -0.6649659276008606,
          "146": -0.0305780079215765,
          "147": 0.4268401563167572,
          "148": -0.12094788253307343,
          "149": 0.5842196345329285,
          "150": -0.37719595432281494,
          "151": 2.1639370918273926,
          "152": -0.04890423268079758,
          "153": 0.6929455399513245,
          "154": 1.0104541778564453,
          "155": 0.36228883266448975,
          "156": 0.062073964625597,
          "157": 0.4156516194343567,
          "158": -0.7533237338066101,
          "159": 0.8047481179237366,
          "160": 1.7006162405014038,
          "161": -1.0909268856048584,
          "162": 0.5806602835655212,
          "163": 0.9049261212348938,
          "164": -1.1519778966903687,
          "165": 0.026707731187343597,
          "166": 1.1301053762435913,
          "167": -0.526521623134613,
          "168": 0.27853479981422424,
          "169": 0.7631394863128662,
          "170": 0.31848016381263733,
          "171": -0.08750046789646149,
          "172": -0.3107393682003021,
          "173": 0.010775025002658367,
          "174": -0.8994189500808716,
          "175": 0.927862286567688,
          "176": -0.6502164602279663,
          "177": 1.04440438747406,
          "178": 0.8360223174095154,
          "179": -0.13708694279193878,
          "180": -1.3938835859298706,
          "181": 1.9862641096115112,
          "182": 0.9053764343261719,
          "183": 1.6090298891067505,
          "184": -0.778833270072937,
          "185": 1.2691755294799805,
          "186": -1.4262791872024536,
          "187": 1.7073652744293213,
          "188": 0.3542481064796448,
          "189": 0.28936418890953064,
          "190": 0.6580696105957031,
          "191": -0.25914430618286133,
          "192": 0.8007872700691223,
          "193": 0.46575143933296204,
          "194": -0.301919549703598,
          "195": -1.1996883153915405,
          "196": 0.4197976291179657,
          "197": -0.20076513290405273,
          "198": 0.5181874632835388,
          "199": -0.21459877490997314,
          "200": 0.637289822101593,
          "201": 0.38748568296432495,
          "202": 0.9753394722938538,
          "203": 0.8492406010627747,
          "204": 0.3093310594558716,
          "205": 0.5299265384674072,
          "206": 1.400856375694275,
          "207": 0.20690903067588806,
          "208": -2.7535462379455566,
          "209": 1.6216342449188232,
          "210": 0.6229780912399292,
          "211": 0.0736842155456543,
          "212": -0.26194319128990173,
          "213": -1.1063519716262817,
          "214": -0.5234069228172302,
          "215": -0.6595412492752075,
          "216": 0.9242693781852722,
          "217": -0.35099416971206665,
          "218": -0.3436480760574341,
          "219": -0.3373221755027771,
          "220": 0.3665667474269867,
          "221": 0.7670450210571289,
          "222": -0.17337200045585632,
          "223": -2.213127613067627,
          "224": 1.184332251548767,
          "225": -1.2833585739135742,
          "226": -2.1588454246520996,
          "227": 0.5011115074157715,
          "228": -0.0306374654173851,
          "229": 1.4127590656280518,
          "230": 0.6450858116149902,
          "231": 0.6578299403190613,
          "232": -0.08292044699192047,
          "233": -1.1474158763885498,
          "234": 1.9199535846710205,
          "235": -0.24521979689598083,
          "236": -0.4379790127277374,
          "237": 0.5775145888328552,
          "238": -0.45908617973327637,
          "239": -0.7846962213516235,
          "240": 0.9796362519264221,
          "241": 0.15658685564994812,
          "242": 1.0066574811935425,
          "243": 0.4820954203605652,
          "244": -0.09147677570581436,
          "245": -0.03186577931046486,
          "246": 0.26878318190574646,
          "247": 0.7442176342010498,
          "248": 1.659073829650879,
          "249": -0.3160635530948639,
          "250": 0.35719361901283264,
          "251": 1.2417545318603516,
          "252": -2.480342149734497,
          "253": 0.06858503073453903,
          "254": -0.24467283487319946,
          "255": 0.11723662912845612,
          "256": -1.0384047031402588,
          "257": -0.039200324565172195,
          "258": -0.502617359161377,
          "259": 1.7545559406280518,
          "260": 1.9414327144622803,
          "261": 1.6293386220932007,
          "262": 1.835505485534668,
          "263": -0.0703020766377449,
          "264": -1.2355320453643799,
          "265": -0.07438644021749496,
          "266": -0.5748264193534851,
          "267": 0.9793367385864258,
          "268": 1.5178972482681274,
          "269": 0.713853657245636,
          "270": 0.9683046340942383,
          "271": -0.7111798524856567,
          "272": 0.06651096791028976,
          "273": -0.5160661339759827,
          "274": -0.6396157741546631,
          "275": -1.2301887273788452,
          "276": -1.7112535238265991,
          "277": -0.8077303767204285,
          "278": -0.16935694217681885,
          "279": -0.698310911655426,
          "280": 1.0267764329910278,
          "281": -1.0652233362197876,
          "282": -0.8286899924278259,
          "283": 0.5428240299224854,
          "284": -0.7892525792121887,
          "285": 0.7124325633049011,
          "286": 1.073426365852356,
          "287": 1.1551474332809448,
          "288": 0.2559519410133362,
          "289": -1.7223682403564453,
          "290": 0.5255730748176575,
          "291": -0.022490505129098892,
          "292": -0.08542164415121078,
          "293": 1.0578099489212036,
          "294": 1.337486982345581,
          "295": 0.6447365283966064,
          "296": 0.6282885670661926,
          "297": 0.9106418490409851,
          "298": -0.20244963467121124,
          "299": 0.7786434888839722,
          "300": 1.375896692276001,
          "301": -0.2784483730792999,
          "302": -0.6327701210975647,
          "303": 1.0735586881637573,
          "304": 0.4097091555595398,
          "305": -0.4991720914840698,
          "306": -1.376035451889038,
          "307": -1.562472939491272,
          "308": -1.2258796691894531,
          "309": -0.7733678221702576,
          "310": 0.07501746714115143,
          "311": -0.6614457964897156,
          "312": -1.0053266286849976,
          "313": 0.2054498940706253,
          "314": 0.9702804088592529,
          "315": 0.7787554860115051,
          "316": -1.2971038818359375,
          "317": -1.4386632442474365,
          "318": 0.4410417079925537,
          "319": -0.1102859154343605,
          "320": -1.317290186882019,
          "321": -0.09647522866725922,
          "322": -0.4832850694656372,
          "323": 0.9609781503677368,
          "324": 1.2943905591964722,
          "325": 1.0075629949569702,
          "326": 0.7886404395103455,
          "327": -1.1045092344284058,
          "328": 0.9288192391395569,
          "329": -1.5307048559188843,
          "330": -0.6404886841773987,
          "331": 0.2489691525697708,
          "332": 0.19589033722877502,
          "333": -0.9059587121009827,
          "334": 1.7151473760604858,
          "335": -0.6344351768493652,
          "336": -1.0011307001113892,
          "337": 1.0263046026229858,
          "338": 0.24404583871364594,
          "339": -0.38295385241508484,
          "340": -0.04659537598490715,
          "341": 0.4295775592327118,
          "342": 0.21882809698581696,
          "343": 0.09019825607538223,
          "344": 0.2925024628639221,
          "345": 1.1846767663955688,
          "346": 0.1265822798013687,
          "347": -0.5383225083351135,
          "348": -0.9535036087036133,
          "349": 0.8180055618286133,
          "350": -1.3479704856872559,
          "351": 0.33591189980506897,
          "352": 0.6774683594703674,
          "353": -0.6586841940879822,
          "354": -0.20673002302646637,
          "355": -0.4178265333175659,
          "356": 0.3622892200946808,
          "357": -0.795824408531189,
          "358": -0.9894616603851318,
          "359": -0.1437014937400818,
          "360": 0.7910846471786499,
          "361": -0.22801046073436737,
          "362": 1.5696051120758057,
          "363": -2.4121742248535156,
          "364": 1.8313766717910767,
          "365": 0.03815335035324097,
          "366": 0.7316951751708984,
          "367": 1.6595683097839355,
          "368": -0.34676557779312134,
          "369": 1.2778730392456055,
          "370": -1.2801463603973389,
          "371": -0.24935252964496613,
          "372": 0.5452483892440796,
          "373": -0.05439479649066925,
          "374": 0.18400098383426666,
          "375": -0.19765837490558624,
          "376": -0.3861789405345917,
          "377": 1.0774189233779907,
          "378": 0.7795847654342651,
          "379": 1.8871047496795654,
          "380": 0.3451465368270874,
          "381": -0.29248419404029846,
          "382": 1.0583539009094238,
          "383": 0.44841378927230835,
          "384": -0.28593242168426514,
          "385": 1.6388622522354126,
          "386": -3.367913007736206,
          "387": 2.083172559738159,
          "388": -0.7232329249382019,
          "389": -0.07877529412508011,
          "390": 0.035165153443813324,
          "391": -1.2739524841308594,
          "392": -0.5453801155090332,
          "393": 0.4039436876773834,
          "394": -0.13801182806491852,
          "395": -2.3414320945739746,
          "396": 0.3640378415584564,
          "397": 0.03244398161768913,
          "398": 0.5009656548500061,
          "399": 1.4561936855316162,
          "400": 0.222295880317688,
          "401": 0.38076961040496826,
          "402": 0.9251366853713989,
          "403": 0.3016600012779236,
          "404": -1.578676700592041,
          "405": -0.7376410365104675,
          "406": 0.19236460328102112,
          "407": 0.4694870114326477,
          "408": 1.465928316116333,
          "409": 0.5649943947792053,
          "410": -1.26475989818573,
          "411": 1.511216402053833,
          "412": -1.2734251022338867,
          "413": 0.23255032300949097,
          "414": -0.28322336077690125,
          "415": -0.13160113990306854,
          "416": -0.186172753572464,
          "417": -1.062103509902954,
          "418": -0.5466820001602173,
          "419": 0.22409594058990479,
          "420": -0.4130912721157074,
          "421": 2.5532641410827637,
          "422": -2.1225786209106445,
          "423": -0.564604640007019,
          "424": 0.7495520114898682,
          "425": 0.2446933090686798,
          "426": 0.0029680856969207525,
          "427": -0.5439224243164062,
          "428": -0.03990757465362549,
          "429": 0.6610801815986633,
          "430": -2.5659732818603516,
          "431": 0.7441637516021729,
          "432": 0.914462685585022,
          "433": -0.15610596537590027,
          "434": 0.0026093097403645515,
          "435": 0.1028011292219162,
          "436": 0.33173635601997375,
          "437": 1.1265195608139038,
          "438": 0.07307576388120651,
          "439": 0.663904070854187,
          "440": 0.40923893451690674,
          "441": 1.5019303560256958,
          "442": 0.41692879796028137,
          "443": -0.3540530502796173,
          "444": 0.13335508108139038,
          "445": 0.36483287811279297,
          "446": 1.3615039587020874,
          "447": 0.6058146953582764,
          "448": 0.13059000670909882,
          "449": 0.0624789297580719,
          "450": 0.6017550230026245,
          "451": -2.3918275833129883,
          "452": 0.3015599846839905,
          "453": 1.8332691192626953,
          "454": -0.21660755574703217,
          "455": 0.7500646710395813,
          "456": 0.318085253238678,
          "457": -0.9021574258804321,
          "458": -0.30708324909210205,
          "459": -0.009590128436684608,
          "460": -0.1256389021873474,
          "461": 0.06338302046060562,
          "462": 0.01639643870294094,
          "463": -0.4300251007080078,
          "464": 0.5841826796531677,
          "465": -0.37568819522857666,
          "466": 0.009564646519720554,
          "467": -0.11526186764240265,
          "468": 0.4431382119655609,
          "469": -0.031130986288189888,
          "470": -0.6469672322273254,
          "471": -0.05857618898153305,
          "472": -0.5205062031745911,
          "473": -1.0914371013641357,
          "474": 0.0120420316234231,
          "475": -0.7655613422393799,
          "476": -0.3881660997867584,
          "477": -0.8389959335327148,
          "478": -0.27177152037620544,
          "479": -0.5089119076728821,
          "480": 0.4182334542274475,
          "481": -0.35967299342155457,
          "482": 2.4162392616271973,
          "483": 0.9733237028121948,
          "484": -0.4556105434894562,
          "485": 1.4091418981552124,
          "486": -0.6910019516944885,
          "487": -2.1220054626464844,
          "488": 0.4442650377750397,
          "489": -0.6148315668106079,
          "490": 0.048986367881298065,
          "491": 0.3321014642715454,
          "492": -2.4202048778533936,
          "493": -0.8419546484947205,
          "494": 0.11362555623054504,
          "495": 0.7222403883934021,
          "496": 0.03804042935371399,
          "497": -0.10077468305826187,
          "498": 0.0903574749827385,
          "499": 1.1338891983032227,
          "500": 0.7691673636436462,
          "501": -2.4838733673095703,
          "502": -0.7960245013237,
          "503": 0.30891549587249756,
          "504": 0.3936128616333008,
          "505": 0.08818134665489197,
          "506": 0.6527488231658936,
          "507": 0.9474481344223022,
          "508": -0.7351682782173157,
          "509": -1.0129824876785278,
          "510": -1.3230687379837036,
          "511": -0.1837843954563141,
          "512": -2.4112331867218018,
          "513": -0.8242270350456238,
          "514": -1.5810104608535767,
          "515": -0.456025630235672,
          "516": 0.63481205701828,
          "517": 0.3748321533203125,
          "518": -0.3897002041339874,
          "519": 0.8921806812286377,
          "520": 1.6804670095443726,
          "521": 0.18954454362392426,
          "522": -0.1509096622467041,
          "523": 0.4145197868347168,
          "524": 1.0976558923721313,
          "525": 0.23543277382850647,
