{
  "type": "LSTM",
  "options": {
    "inputSize": 47,
    "inputRange": 47,
    "hiddenLayers": [
      20,
      20
    ],
    "outputSize": 47,
    "decayRate": 0.999,
    "smoothEps": 1e-8,
    "regc": 0.000001,
    "clipval": 5,
    "maxPredictionLength": 100,
    "dataFormatter": {
      "values": [
        "Adobe",
        "Appreciate every day",
        "What is the meaning of life?",
        "boston",
        "copy file into docker container",
        "docker cp ./some_file CONTAINER:/work",
        "favorite city",
        "favorite cloud",
        "favorite company to work for",
        "favorite food",
        "favorite rock",
        "favorite state",
        "git pull origin --rebase",
        "how to clean node cache",
        "how to rebase in git",
        "how to run nodejs file on command line",
        "how to view all ports being used on mac",
        "igneous",
        "mass",
        "node --experimental-modules src/file.js",
        "npm cache clean --force",
        "pizza",
        "stratus",
        "sudo lsof -iTCP -sTCP:LISTEN -n -P"
      ],
      "indexTable": {
        "A": 0,
        "d": 1,
        "o": 2,
        "b": 3,
        "e": 4,
        "p": 5,
        "r": 6,
        "c": 7,
        "i": 8,
        "a": 9,
        "t": 10,
        " ": 11,
        "v": 12,
        "y": 13,
        "W": 14,
        "h": 15,
        "s": 16,
        "m": 17,
        "n": 18,
        "g": 19,
        "f": 20,
        "l": 21,
        "?": 22,
        "k": 23,
        ".": 24,
        "/": 25,
        "_": 26,
        "C": 27,
        "O": 28,
        "N": 29,
        "T": 30,
        "I": 31,
        "E": 32,
        "R": 33,
        ":": 34,
        "w": 35,
        "u": 36,
        "-": 37,
        "j": 38,
        "x": 39,
        "z": 40,
        "P": 41,
        "L": 42,
        "S": 43,
        "stop-input": 44,
        "start-output": 45,
        "unrecognized": 46
      },
      "characterTable": {
        "0": "A",
        "1": "d",
        "2": "o",
        "3": "b",
        "4": "e",
        "5": "p",
        "6": "r",
        "7": "c",
        "8": "i",
        "9": "a",
        "10": "t",
        "11": " ",
        "12": "v",
        "13": "y",
        "14": "W",
        "15": "h",
        "16": "s",
        "17": "m",
        "18": "n",
        "19": "g",
        "20": "f",
        "21": "l",
        "22": "?",
        "23": "k",
        "24": ".",
        "25": "/",
        "26": "_",
        "27": "C",
        "28": "O",
        "29": "N",
        "30": "T",
        "31": "I",
        "32": "E",
        "33": "R",
        "34": ":",
        "35": "w",
        "36": "u",
        "37": "-",
        "38": "j",
        "39": "x",
        "40": "z",
        "41": "P",
        "42": "L",
        "43": "S",
        "44": null,
        "45": null,
        "46": null
      },
      "characters": [
        "A",
        "d",
        "o",
        "b",
        "e",
        "p",
        "r",
        "c",
        "i",
        "a",
        "t",
        " ",
        "v",
        "y",
        "W",
        "h",
        "s",
        "m",
        "n",
        "g",
        "f",
        "l",
        "?",
        "k",
        ".",
        "/",
        "_",
        "C",
        "O",
        "N",
        "T",
        "I",
        "E",
        "R",
        ":",
        "w",
        "u",
        "-",
        "j",
        "x",
        "z",
        "P",
        "L",
        "S",
        "stop-input",
        "start-output",
        "unrecognized"
      ],
      "specialIndexes": [
        44,
        45,
        46
      ]
    }
  },
  "input": {
    "rows": 48,
    "columns": 47,
    "weights": {
      "0": -0.433575838804245,
      "1": 0.9082658886909485,
      "2": -0.05615991726517677,
      "3": -0.1840600073337555,
      "4": -0.037921421229839325,
      "5": 0.5627582669258118,
      "6": -0.47602251172065735,
      "7": 0.3009282946586609,
      "8": -0.5217468738555908,
      "9": -0.30118972063064575,
      "10": 0.11919544637203217,
      "11": 0.08014024049043655,
      "12": -0.4149613380432129,
      "13": -0.08584893494844437,
      "14": -0.36877068877220154,
      "15": 0.10340503603219986,
      "16": 0.4072718918323517,
      "17": -0.06529809534549713,
      "18": -0.9358379244804382,
      "19": 1.025195598602295,
      "20": -0.283623069524765,
      "21": 0.6053113341331482,
      "22": -0.388983815908432,
      "23": -0.9232327342033386,
      "24": -0.06768091768026352,
      "25": 0.004983588587492704,
      "26": 0.685650646686554,
      "27": -1.0211414098739624,
      "28": -0.12257806956768036,
      "29": 1.2045278549194336,
      "30": 0.028306128457188606,
      "31": -0.6797192096710205,
      "32": -0.9638373851776123,
      "33": -0.8809192776679993,
      "34": 0.14260399341583252,
      "35": -0.3175579607486725,
      "36": 0.3459181785583496,
      "37": 0.5039153695106506,
      "38": -0.9331023097038269,
      "39": 1.2722153663635254,
      "40": -0.19296525418758392,
      "41": 0.40204188227653503,
      "42": 0.8571280241012573,
      "43": 0.6853117942810059,
      "44": 0.5241034030914307,
      "45": -0.1559639424085617,
      "46": -0.7084488272666931,
      "47": -2.227980375289917,
      "48": -1.288730502128601,
      "49": 0.18310977518558502,
      "50": -2.7503628730773926,
      "51": 3.051661729812622,
      "52": 0.6184870600700378,
      "53": -0.6038557291030884,
      "54": 0.7462852597236633,
      "55": 1.8289802074432373,
      "56": -1.227931022644043,
      "57": -1.1618998050689697,
      "58": -1.0021123886108398,
      "59": -1.1749778985977173,
      "60": -3.1493630409240723,
      "61": -1.6223323345184326,
      "62": -3.5946907997131348,
      "63": -0.18877163529396057,
      "64": -2.417628288269043,
      "65": 0.9220868945121765,
      "66": 3.186880350112915,
      "67": -3.5146119594573975,
      "68": 1.7350492477416992,
      "69": -2.554076671600342,
      "70": -1.2140262126922607,
      "71": -0.9527424573898315,
      "72": 3.0040769577026367,
      "73": -1.929672360420227,
      "74": 2.1329596042633057,
      "75": -0.48422977328300476,
      "76": 1.2132792472839355,
      "77": 0.4977308213710785,
      "78": -0.4254808723926544,
      "79": -1.8772757053375244,
      "80": 1.0963460206985474,
      "81": 0.43926751613616943,
      "82": -1.0773329734802246,
      "83": -1.8963532447814941,
      "84": 0.5302935242652893,
      "85": -1.5787681341171265,
      "86": -2.072852611541748,
      "87": 3.6478428840637207,
      "88": 0.3364613652229309,
      "89": 1.5451955795288086,
      "90": 0.6603168845176697,
      "91": 1.3598496913909912,
      "92": -1.5784772634506226,
      "93": -0.3865166902542114,
      "94": 0.23858170211315155,
      "95": 0.17718447744846344,
      "96": 1.137546181678772,
      "97": -0.2520635724067688,
      "98": 1.2682327032089233,
      "99": -2.6577675342559814,
      "100": -1.0660474300384521,
      "101": -1.606750726699829,
      "102": -0.728327214717865,
      "103": -0.46045199036598206,
      "104": -0.03430221602320671,
      "105": 0.08691921085119247,
      "106": 1.066104531288147,
      "107": 0.39504459500312805,
      "108": 0.3125322163105011,
      "109": -0.22050043940544128,
      "110": -1.2200167179107666,
      "111": 0.02010846510529518,
      "112": -0.6669380068778992,
      "113": -0.4173603057861328,
      "114": -0.6363420486450195,
      "115": 1.5289570093154907,
      "116": -0.39043331146240234,
      "117": 1.8855507373809814,
      "118": -0.540162980556488,
      "119": 0.7801753282546997,
      "120": 0.40555503964424133,
      "121": 0.6711627244949341,
      "122": -0.9137147068977356,
      "123": -1.1706292629241943,
      "124": 0.5523807406425476,
      "125": 3.0687296390533447,
      "126": -0.47780701518058777,
      "127": 0.3315666913986206,
      "128": 0.6563377380371094,
      "129": -1.7309879064559937,
      "130": 0.3306294083595276,
      "131": 0.28517472743988037,
      "132": 0.16022440791130066,
      "133": 0.7871649265289307,
      "134": 0.6811123490333557,
      "135": -1.560893177986145,
      "136": -1.2763619422912598,
      "137": -2.636715888977051,
      "138": -1.2448406219482422,
      "139": 0.7364967465400696,
      "140": 0.027246616780757904,
      "141": 0.9901347160339355,
      "142": -0.8069987893104553,
      "143": 0.10839267075061798,
      "144": -0.06765364110469818,
      "145": -0.37586140632629395,
      "146": 0.02937975525856018,
      "147": -0.07481822371482849,
      "148": -0.4363126754760742,
      "149": 1.0210776329040527,
      "150": 0.1589842587709427,
      "151": 0.11253289878368378,
      "152": 0.39945709705352783,
      "153": -0.2317866086959839,
      "154": -0.24409006536006927,
      "155": -0.9136170148849487,
      "156": -0.9673814177513123,
      "157": 0.38507238030433655,
      "158": 0.7585112452507019,
      "159": 1.7252904176712036,
      "160": -0.049605030566453934,
      "161": 0.15727965533733368,
      "162": -1.0003666877746582,
      "163": 0.033377520740032196,
      "164": 0.10339762270450592,
      "165": -0.5669950246810913,
      "166": 0.19762089848518372,
      "167": -1.3966745138168335,
      "168": -0.3632412552833557,
      "169": 0.18570321798324585,
      "170": 0.12931570410728455,
      "171": 0.03264510631561279,
      "172": -0.1467190384864807,
      "173": -0.11117751896381378,
      "174": 0.2217961847782135,
      "175": -0.10693646222352982,
      "176": 1.0583155155181885,
      "177": -0.22816084325313568,
      "178": 0.019477495923638344,
      "179": 0.40142279863357544,
      "180": -1.1521391868591309,
      "181": 0.3213321566581726,
      "182": 0.19932907819747925,
      "183": -0.2895199656486511,
      "184": 0.03300539404153824,
      "185": 0.25227442383766174,
      "186": 0.36877235770225525,
      "187": 0.30550289154052734,
      "188": -1.0614631175994873,
      "189": 1.3576345443725586,
      "190": -0.5854899287223816,
      "191": -2.6801488399505615,
      "192": 3.0107481479644775,
      "193": 1.6305387020111084,
      "194": 0.20816849172115326,
      "195": -1.3589057922363281,
      "196": -1.656129002571106,
      "197": -1.2197345495224,
      "198": 0.4079456031322479,
      "199": -1.6396112442016602,
      "200": -1.2083572149276733,
      "201": 2.5577797889709473,
      "202": -1.1119940280914307,
      "203": -0.9601622819900513,
      "204": 0.9730741381645203,
      "205": -1.8846629858016968,
      "206": -0.8182781338691711,
      "207": 1.6938492059707642,
      "208": -1.6837879419326782,
      "209": 0.568737268447876,
      "210": 1.0777660608291626,
      "211": -0.6339372992515564,
      "212": 1.022398829460144,
      "213": -1.370882272720337,
      "214": 0.8253814578056335,
      "215": -0.13939383625984192,
      "216": -2.0021016597747803,
      "217": 1.0782818794250488,
      "218": 0.5980507731437683,
      "219": -2.3984785079956055,
      "220": -2.246797561645508,
      "221": 0.4147915840148926,
      "222": -1.1382296085357666,
      "223": 1.8510197401046753,
      "224": -1.6675454378128052,
      "225": 2.265960216522217,
      "226": -3.139878273010254,
      "227": 2.053107738494873,
      "228": -1.3252605199813843,
      "229": 2.1848278045654297,
      "230": 0.6516968011856079,
      "231": 0.15193523466587067,
      "232": 0.2794922888278961,
      "233": 1.2427352666854858,
      "234": -0.9638845324516296,
      "235": 0.06732061505317688,
      "236": 0.812008798122406,
      "237": -0.6042380332946777,
      "238": 0.919748842716217,
      "239": 0.40702158212661743,
      "240": -0.020856240764260292,
      "241": -0.3019965589046478,
      "242": 0.17091894149780273,
      "243": -1.2674434185028076,
      "244": 1.383405089378357,
      "245": -0.17374645173549652,
      "246": 0.5263370871543884,
      "247": 0.16126973927021027,
      "248": -0.9225283861160278,
      "249": 0.3695008456707001,
      "250": 1.395978331565857,
      "251": 0.2315601110458374,
      "252": 1.0556118488311768,
      "253": -1.8769723176956177,
      "254": -0.2849327623844147,
      "255": -0.241047203540802,
      "256": -0.39566314220428467,
      "257": 1.9809279441833496,
      "258": 0.4405650496482849,
      "259": 0.7504420280456543,
      "260": -0.5243659019470215,
      "261": 0.3013041019439697,
      "262": -0.08448895812034607,
      "263": 0.976689875125885,
      "264": -1.0003238916397095,
      "265": 1.1258634328842163,
      "266": 1.2835742235183716,
      "267": 1.3617196083068848,
      "268": -0.9864999055862427,
      "269": 1.552540898323059,
      "270": -1.7029346227645874,
      "271": -0.5929825305938721,
      "272": -0.6780531406402588,
      "273": -0.4543571174144745,
      "274": 1.8598668575286865,
      "275": 0.665463924407959,
      "276": -0.06585118919610977,
      "277": -0.05496302992105484,
      "278": -0.060824234038591385,
      "279": 0.25433632731437683,
      "280": -1.0856417417526245,
      "281": -0.8037537932395935,
      "282": -1.0149768590927124,
      "283": -0.1988414227962494,
      "284": -0.7363319396972656,
      "285": -1.1082830429077148,
      "286": 1.8169373273849487,
      "287": 0.13862910866737366,
      "288": -0.7374021410942078,
      "289": -2.3165194988250732,
      "290": 0.1663663387298584,
      "291": -0.6393488049507141,
      "292": 0.2878527343273163,
      "293": -0.01406643446534872,
      "294": -0.9014982581138611,
      "295": 3.141145706176758,
      "296": -1.986843466758728,
      "297": 0.41389283537864685,
      "298": 1.146976113319397,
      "299": -0.17321299016475677,
      "300": 0.34801343083381653,
      "301": 0.9738765358924866,
      "302": -0.33667585253715515,
      "303": 0.4847332239151001,
      "304": 1.9796358346939087,
      "305": 0.1352987438440323,
      "306": 0.43212980031967163,
      "307": -1.213125228881836,
      "308": -0.180773064494133,
      "309": 0.6348986625671387,
      "310": -0.18330827355384827,
      "311": 0.7439463138580322,
      "312": 1.60793936252594,
      "313": -1.7333530187606812,
      "314": -1.6558765172958374,
      "315": 1.098940372467041,
      "316": -0.738057017326355,
      "317": 0.4538675844669342,
      "318": -0.17672237753868103,
      "319": 0.42691653966903687,
      "320": -0.09196560084819794,
      "321": -0.1852179765701294,
      "322": -1.0601112842559814,
      "323": 1.5188889503479004,
      "324": -0.5420665740966797,
      "325": 0.35865840315818787,
      "326": 1.0569504499435425,
      "327": -0.008576036430895329,
      "328": -0.29532909393310547,
      "329": -0.03402319923043251,
      "330": 0.29718083143234253,
      "331": -0.8144710063934326,
      "332": -0.8622614145278931,
      "333": 2.385727882385254,
      "334": 1.1265473365783691,
      "335": 1.1493998765945435,
      "336": -0.17592497169971466,
      "337": 0.7699240446090698,
      "338": -1.5918129682540894,
      "339": -0.07420466840267181,
      "340": -1.2929555177688599,
      "341": -0.3123696744441986,
      "342": 0.10392576456069946,
      "343": -1.7001925706863403,
      "344": 0.6042287349700928,
      "345": 0.41039708256721497,
      "346": -0.6349391937255859,
      "347": 1.267235279083252,
      "348": -0.5041348934173584,
      "349": -1.8553739786148071,
      "350": 0.8036350607872009,
      "351": -0.7218262553215027,
      "352": -0.9270614981651306,
      "353": 0.09937164932489395,
      "354": -0.16676995158195496,
      "355": 0.7907111048698425,
      "356": 0.5120198130607605,
      "357": -1.1252995729446411,
      "358": 1.4689935445785522,
      "359": -0.2938077747821808,
      "360": -1.746461272239685,
      "361": -1.7582793235778809,
      "362": -0.6474283337593079,
      "363": -2.336865186691284,
      "364": 2.298119068145752,
      "365": -0.9153996706008911,
      "366": 1.611798882484436,
      "367": -0.3947281539440155,
      "368": -0.3540945053100586,
      "369": -1.4104723930358887,
      "370": 0.5570132732391357,
      "371": 0.5616737008094788,
      "372": 0.7293592095375061,
      "373": 0.8254790902137756,
      "374": -0.1258927881717682,
      "375": 0.1569805145263672,
      "376": 0.07692649215459824,
      "377": -0.9029452800750732,
      "378": -0.9657200574874878,
      "379": -2.1480448246002197,
      "380": -0.36073997616767883,
      "381": -0.8700016736984253,
      "382": 1.0402568578720093,
      "383": 0.9941777586936951,
      "384": -0.06918736547231674,
      "385": -0.2961697280406952,
      "386": -0.12925474345684052,
      "387": 0.8323449492454529,
      "388": -1.0341979265213013,
      "389": -0.9710343480110168,
      "390": -0.054260700941085815,
      "391": -1.0610400438308716,
      "392": 0.13637827336788177,
      "393": 1.0814012289047241,
      "394": -0.5658761262893677,
      "395": 0.1351708471775055,
      "396": 0.9069962501525879,
      "397": -0.5661240816116333,
      "398": 0.18962663412094116,
      "399": 1.2658984661102295,
      "400": -0.27826380729675293,
      "401": 0.450320303440094,
      "402": 0.024357309564948082,
      "403": 1.2780345678329468,
      "404": 0.2039167582988739,
      "405": -1.1528255939483643,
      "406": 1.3352504968643188,
      "407": 0.8388484120368958,
      "408": -1.0198018550872803,
      "409": 0.7671327590942383,
      "410": -0.20808149874210358,
      "411": 0.42557093501091003,
      "412": -1.256769061088562,
      "413": 0.6499575972557068,
      "414": 2.1445937156677246,
      "415": -0.4267350435256958,
      "416": 1.2425177097320557,
      "417": 2.4180736541748047,
      "418": 0.2731781303882599,
      "419": -0.3216484487056732,
      "420": -0.0163186676800251,
      "421": 0.3562568724155426,
      "422": 0.6282682418823242,
      "423": 0.1843159794807434,
      "424": -0.02395649626851082,
      "425": -2.4559428691864014,
      "426": -1.2407535314559937,
      "427": -1.0355207920074463,
      "428": 0.7654313445091248,
      "429": 2.0172488689422607,
      "430": 0.9571962952613831,
      "431": -0.32369688153266907,
      "432": -0.35008928179740906,
      "433": 0.22488756477832794,
      "434": -1.030090570449829,
      "435": 1.1324920654296875,
      "436": -1.5385769605636597,
      "437": 0.5510252118110657,
      "438": -0.14410823583602905,
      "439": 0.6771144270896912,
      "440": 0.9153834581375122,
      "441": 1.0770173072814941,
      "442": 1.5712590217590332,
      "443": 0.4889758825302124,
      "444": -0.44910600781440735,
      "445": 0.15141181647777557,
      "446": 0.05087270960211754,
      "447": -0.4950302541255951,
      "448": 0.3008482754230499,
      "449": 0.08725626766681671,
      "450": 0.4489395022392273,
      "451": -2.3167338371276855,
      "452": -0.3327782154083252,
      "453": 1.1297621726989746,
      "454": -0.6539813280105591,
      "455": -0.39069420099258423,
      "456": -1.4992821216583252,
      "457": -1.6513950824737549,
      "458": 1.4116768836975098,
      "459": -1.2459638118743896,
      "460": 1.0368962287902832,
      "461": 1.3427602052688599,
      "462": 0.03594266250729561,
      "463": -0.1444227397441864,
      "464": 1.8418291807174683,
      "465": 1.7344353199005127,
      "466": -0.10901906341314316,
      "467": 1.1613603830337524,
      "468": -1.398023247718811,
      "469": 0.6028025150299072,
      "470": 2.0382771492004395,
      "471": -0.3132530450820923,
      "472": 1.0579842329025269,
      "473": 0.4388389587402344,
      "474": 0.8491159081459045,
      "475": -0.5646836757659912,
      "476": -0.1462264060974121,
      "477": 0.14174726605415344,
      "478": -0.29797792434692383,
      "479": 1.68401038646698,
      "480": -0.6964978575706482,
      "481": -0.015393709763884544,
      "482": 0.5282819867134094,
      "483": -1.2858741283416748,
      "484": 0.8190106749534607,
      "485": 0.2150294929742813,
      "486": -0.4206533133983612,
      "487": 1.2488664388656616,
      "488": -0.9614959955215454,
      "489": -0.5261855721473694,
      "490": -0.46287810802459717,
      "491": -1.6060285568237305,
      "492": -0.20126403868198395,
      "493": 0.2241535782814026,
      "494": -0.226610004901886,
      "495": -0.24604329466819763,
      "496": -0.35114482045173645,
      "497": -1.8247284889221191,
      "498": -0.24906808137893677,
      "499": -0.13387919962406158,
      "500": -0.26328346133232117,
      "501": 2.6256186962127686,
      "502": 1.7320765256881714,
      "503": -0.31639066338539124,
      "504": 0.5631024241447449,
      "505": 0.3115035891532898,
      "506": -0.842864990234375,
      "507": 1.1596314907073975,
      "508": -0.9696717262268066,
      "509": 0.6328173279762268,
      "510": 0.5331289172172546,
      "511": -0.4615784287452698,
      "512": 0.2452785223722458,
      "513": -1.8794625997543335,
      "514": -1.7092679738998413,
      "515": 1.4524869918823242,
      "516": -0.11476653069257736,
      "517": 1.377860188484192,
      "518": -0.5671350955963135,
      "519": 0.3552086353302002,
      "520": 1.6847577095031738,
      "521": -1.846053123474121,
      "522": 0.593145489692688,
      "523": -1.3836851119995117,
      "524": 0.11324837058782578,
      "525": 1.358572244644165,
      "526": 0.9173493981361389,
      "527": 1.498153567314148,
      "528": 1.9927268028259277,
      "529": 0.8647131323814392,
      "530": 1.7156203985214233,
      "531": -0.5250678658485413,
      "532": -0.4812980592250824,
      "533": -0.08740181475877762,
      "534": 1.8924206495285034,
      "535": -0.8952267169952393,
      "536": -0.7425034642219543,
      "537": 2.466459274291992,
      "538": -1.611398458480835,
      "539": 0.42909500002861023,
      "540": -0.6799549460411072,
      "541": -0.28709477186203003,
      "542": 0.7036871910095215,
      "543": 0.021963145583868027,
      "544": -0.7702857851982117,
      "545": 1.4278517961502075,
      "546": 0.6181219816207886,
      "547": -0.13376936316490173,
      "548": -2.065171003341675,
      "549": 0.7372068762779236,
      "550": 0.6958547830581665,
      "551": -0.4364188313484192,
      "552": 0.6128762364387512,
      "553": 2.1070735454559326,
      "554": -1.596349835395813,
      "555": 0.022235499694943428,
      "556": -1.416135311126709,
      "557": 0.3619650602340698,
      "558": -1.2958297729492188,
      "559": -1.3676327466964722,
      "560": 0.5183241367340088,
      "561": 0.4820319414138794,
      "562": 0.1796630620956421,
      "563": 1.1847624778747559,
      "564": -0.1067722961306572,
      "565": 0.7222750782966614,
      "566": 0.1805456280708313,
      "567": -0.2874397337436676,
      "568": -0.03525935858488083,
      "569": -0.02603474259376526,
      "570": -0.5222619771957397,
      "571": -0.8038373589515686,
      "572": -1.1201601028442383,
      "573": 0.6080943942070007,
      "574": 1.6301321983337402,
      "575": 0.08034460246562958,
      "576": 0.06163545697927475,
      "577": -0.5580465793609619,
      "578": 0.3309301435947418,
      "579": 0.41962388157844543,
      "580": -0.2881819009780884,
      "581": 0.7822396755218506,
      "582": -1.0056039094924927,
      "583": 1.6095068454742432,
      "584": 0.004603961482644081,
      "585": -0.5456047058105469,
      "586": -0.3074326813220978,
      "587": -1.2297954559326172,
      "588": -0.05709698051214218,
      "589": -0.09818742424249649,
      "590": 1.4739136695861816,
      "591": -0.8775836825370789,
      "592": -0.8703253865242004,
      "593": 1.3970578908920288,
      "594": -0.8489469289779663,
      "595": 0.9917700886726379,
      "596": -0.3282370865345001,
      "597": -0.5957129001617432,
      "598": 1.2863856554031372,
      "599": -1.6942601203918457,
      "600": -0.7442983388900757,
      "601": 1.0543880462646484,
      "602": -1.853894591331482,
      "603": 1.5163401365280151,
      "604": 0.19262944161891937,
      "605": -0.5092648267745972,
      "606": 1.1194815635681152,
      "607": -0.6510509848594666,
      "608": -0.29518821835517883,
      "609": 0.9785497784614563,
      "610": -0.4011422097682953,
      "611": 1.7897217273712158,
      "612": -0.7086014151573181,
      "613": 1.06855046749115,
      "614": 1.1554551124572754,
      "615": -0.4732956886291504,
      "616": -0.4009217619895935,
      "617": -0.16179168224334717,
      "618": 0.7386462092399597,
      "619": 0.48446395993232727,
      "620": -0.1122196614742279,
      "621": -0.0814649760723114,
      "622": 0.461089164018631,
      "623": 1.7038570642471313,
      "624": -1.6322745084762573,
      "625": 1.43185555934906,
      "626": -0.3414555788040161,
      "627": 0.4765528738498688,
      "628": 0.7986065745353699,
      "629": 0.2787569761276245,
      "630": -1.395891785621643,
      "631": 0.30038613080978394,
      "632": 0.00881936214864254,
      "633": -0.9049417972564697,
      "634": 0.008841758593916893,
      "635": -1.023817539215088,
      "636": 0.7977737188339233,
      "637": -1.2093027830123901,
      "638": 0.43532446026802063,
      "639": 0.05792248249053955,
      "640": -0.854718804359436,
      "641": -0.9147607684135437,
      "642": 0.7222397923469543,
      "643": 0.5601908564567566,
      "644": 0.907355010509491,
      "645": 0.05805967375636101,
      "646": 0.07871997356414795,
      "647": 1.928120732307434,
      "648": -1.4060863256454468,
      "649": 0.6314504146575928,
      "650": -0.22999098896980286,
      "651": 1.0135139226913452,
      "652": -0.7618659138679504,
      "653": -1.1417653560638428,
      "654": -1.0799028873443604,
      "655": -0.6678220629692078,
      "656": -1.5924692153930664,
      "657": 0.8283321261405945,
      "658": -1.190435767173767,
      "659": -0.4304567575454712,
      "660": -1.2787747383117676,
      "661": -0.07899346202611923,
      "662": 0.863684356212616,
      "663": 1.4138150215148926,
      "664": 0.5189666152000427,
      "665": 1.7965996265411377,
      "666": 0.17715716361999512,
      "667": -0.42521902918815613,
      "668": -1.528055191040039,
      "669": -0.9011815190315247,
      "670": -1.108860969543457,
      "671": -1.4043760299682617,
      "672": -0.7666715383529663,
      "673": 1.0561825037002563,
      "674": 0.5245087742805481,
      "675": -1.3389625549316406,
      "676": -0.30183306336402893,
      "677": 1.8771393299102783,
      "678": -0.9719541072845459,
      "679": 0.5100499391555786,
      "680": 1.43985116481781,
      "681": -1.4245628118515015,
      "682": 0.7856113910675049,
      "683": -0.6339568495750427,
      "684": -0.3985430598258972,
      "685": -0.7704241871833801,
      "686": -0.7695547938346863,
      "687": 1.2479511499404907,
      "688": 0.6963992714881897,
      "689": -0.8866562247276306,
      "690": 0.06430565565824509,
      "691": 0.5001916885375977,
      "692": 0.2019413262605667,
      "693": -0.23660908639431,
      "694": -1.2622966766357422,
      "695": 0.6751943230628967,
      "696": -1.7562435865402222,
      "697": -0.36722227931022644,
      "698": 1.0129461288452148,
      "699": 0.10713519155979156,
      "700": 1.8612257242202759,
      "701": 1.4776170253753662,
      "702": 1.4869656562805176,
      "703": -0.2716882526874542,
      "704": 0.3174390196800232,
      "705": 0.20360416173934937,
      "706": -3.748246192932129,
      "707": 3.3862712383270264,
      "708": 0.1250864863395691,
      "709": 0.5216424465179443,
      "710": -2.178053379058838,
      "711": -0.10421787202358246,
      "712": -0.02295617386698723,
      "713": -1.8059943914413452,
      "714": 1.1137800216674805,
      "715": 0.012760186567902565,
      "716": -0.651858389377594,
      "717": 2.0594940185546875,
      "718": -4.60860538482666,
      "719": 5.399200916290283,
      "720": -3.704569101333618,
      "721": -5.131978511810303,
      "722": 0.1858561784029007,
      "723": 0.9442383050918579,
      "724": -1.8289684057235718,
      "725": -0.3793550133705139,
      "726": -1.949597716331482,
      "727": -4.675370216369629,
      "728": 1.5825294256210327,
      "729": -4.453913688659668,
      "730": 6.486207008361816,
      "731": -1.974189043045044,
      "732": 5.013751029968262,
      "733": 0.8945520520210266,
      "734": -1.7212477922439575,
      "735": -5.397572040557861,
      "736": 3.026543378829956,
      "737": -0.38209688663482666,
      "738": 1.4701007604599,
      "739": 1.0146452188491821,
      "740": -3.399531602859497,
      "741": 0.07816807925701141,
      "742": 0.5941627621650696,
      "743": -0.6754800081253052,
      "744": 1.222713589668274,
      "745": -0.8701950907707214,
      "746": -0.8013047575950623,
      "747": -0.8546677827835083,
      "748": -2.653252124786377,
      "749": -2.09488844871521,
      "750": -4.310848236083984,
      "751": 1.2414371967315674,
      "752": 0.34511131048202515,
      "753": -0.004167584236711264,
      "754": 1.7591897249221802,
      "755": 1.5952714681625366,
      "756": -2.246736764907837,
      "757": -1.5270591974258423,
      "758": -1.900355577468872,
      "759": 0.7888283133506775,
      "760": 0.5849855542182922,
      "761": 3.137068033218384,
      "762": 1.207141637802124,
      "763": 2.474923610687256,
      "764": 0.18382824957370758,
      "765": 1.7926959991455078,
      "766": 0.2223932147026062,
      "767": 0.3430519104003906,
      "768": -0.15163861215114594,
      "769": 2.0763347148895264,
      "770": 0.6335053443908691,
      "771": -2.650338888168335,
      "772": 0.6021633744239807,
      "773": -0.04220406711101532,
      "774": 0.0815746933221817,
      "775": 3.416659116744995,
      "776": 0.7661360502243042,
      "777": -0.989081621170044,
      "778": -0.4558919370174408,
      "779": -0.8899335265159607,
      "780": 2.6723458766937256,
      "781": -2.944086790084839,
      "782": -0.7848333716392517,
      "783": 0.8665755987167358,
      "784": 2.127086877822876,
      "785": -0.37220051884651184,
      "786": -1.2492961883544922,
      "787": 0.9087817072868347,
      "788": 1.4373270273208618,
      "789": -2.0935158729553223,
      "790": 4.038286209106445,
      "791": -0.9226322770118713,
      "792": 0.214494988322258,
      "793": 0.6158503293991089,
      "794": -2.967386484146118,
      "795": -0.25185537338256836,
      "796": -1.6211515665054321,
      "797": 1.614144206047058,
      "798": -0.27009117603302,
      "799": 0.04049418866634369,
      "800": -0.2098536342382431,
      "801": -0.1391114592552185,
      "802": 0.40437719225883484,
      "803": 1.7432085275650024,
      "804": -0.5154200196266174,
      "805": 0.6305342316627502,
      "806": -2.097111940383911,
      "807": 0.20960325002670288,
      "808": -0.5293309092521667,
      "809": -1.243390440940857,
      "810": -0.2860114872455597,
      "811": -1.5203648805618286,
      "812": 0.4337487518787384,
      "813": -3.184741973876953,
      "814": 0.4701099395751953,
      "815": 1.365686297416687,
      "816": -0.98137366771698,
      "817": -0.28155088424682617,
      "818": -0.9228142499923706,
      "819": -0.7351504564285278,
      "820": 1.9245785474777222,
      "821": 2.653291702270508,
      "822": 0.26821938157081604,
      "823": 1.5846827030181885,
      "824": -0.9947926998138428,
      "825": -0.8921574950218201,
      "826": -0.10693367570638657,
      "827": -0.10640183091163635,
      "828": 0.24942907691001892,
      "829": 2.4546658992767334,
      "830": 0.0075149028562009335,
      "831": 0.6040601134300232,
      "832": 0.8118931651115417,
      "833": -0.06784673780202866,
      "834": 0.18931619822978973,
      "835": -0.6314535140991211,
      "836": -0.3143373131752014,
      "837": -1.7921712398529053,
      "838": -0.1463974118232727,
      "839": -0.19386166334152222,
      "840": -0.40752434730529785,
      "841": 0.029094483703374863,
      "842": 0.005351115483790636,
      "843": 1.3546228408813477,
      "844": 0.624356210231781,
      "845": -0.3204163908958435,
      "846": -0.8614767789840698,
      "847": 0.09449604898691177,
      "848": -0.3335956633090973,
      "849": -0.807238757610321,
      "850": 1.802095890045166,
      "851": 0.5625351667404175,
      "852": -0.5076896548271179,
      "853": -1.516690969467163,
      "854": -0.012210514396429062,
      "855": -0.276074081659317,
      "856": -0.5105375647544861,
      "857": -0.2515008747577667,
      "858": -1.651138186454773,
      "859": 1.9396395683288574,
      "860": -2.139164447784424,
      "861": 1.3474438190460205,
      "862": 0.3922053575515747,
      "863": -0.376033216714859,
      "864": -0.7109513878822327,
      "865": 1.4780429601669312,
      "866": -0.40627574920654297,
      "867": -0.006388968788087368,
      "868": 2.5043578147888184,
      "869": -0.15483859181404114,
      "870": 0.9781140089035034,
      "871": -0.4888068437576294,
      "872": 0.6610056161880493,
      "873": -0.7334533929824829,
      "874": -0.9517483115196228,
      "875": 0.9831323027610779,
      "876": 1.240274429321289,
      "877": -1.1871198415756226,
      "878": -0.7795698642730713,
      "879": 0.26342135667800903,
      "880": 0.13903668522834778,
      "881": 0.2789694368839264,
      "882": -0.905695915222168,
      "883": 0.33000633120536804,
      "884": -0.4905639588832855,
      "885": -0.3985498547554016,
      "886": 0.31407275795936584,
      "887": 0.010958191938698292,
      "888": 0.6824842095375061,
      "889": 0.9530323147773743,
      "890": 0.5991519093513489,
      "891": 1.3335731029510498,
      "892": -0.2718910872936249,
      "893": -0.6315504312515259,
      "894": 0.24691081047058105,
      "895": -0.8653936386108398,
      "896": 1.0853298902511597,
      "897": 1.1890153884887695,
      "898": 0.38089191913604736,
      "899": 0.6068062782287598,
      "900": 0.27022024989128113,
      "901": 0.8198995590209961,
      "902": -1.753630518913269,
      "903": -1.2220611572265625,
      "904": -0.7479866147041321,
      "905": -0.4229353964328766,
      "906": -1.4052255153656006,
      "907": -1.7461258172988892,
      "908": 1.4502185583114624,
      "909": 0.6533517837524414,
      "910": -1.4948171377182007,
      "911": -0.2584097385406494,
      "912": -0.0035933766048401594,
      "913": -1.9913239479064941,
      "914": 2.8146865367889404,
      "915": 0.5758286118507385,
      "916": -1.5173149108886719,
      "917": 0.3823051452636719,
      "918": -0.7966485023498535,
      "919": 0.8545979857444763,
      "920": 0.9833119511604309,
      "921": -0.17007283866405487,
      "922": 0.5651735067367554,
      "923": 1.5921485424041748,
      "924": -0.20876549184322357,
      "925": -0.02295643836259842,
      "926": -0.737229585647583,
      "927": 0.13502122461795807,
      "928": -0.3488098382949829,
      "929": -0.8099883794784546,
      "930": 0.91511470079422,
      "931": -0.6406384706497192,
      "932": -0.6228268146514893,
      "933": 1.060571312904358,
      "934": -0.4208630621433258,
      "935": 0.14545536041259766,
      "936": 1.0475249290466309,
      "937": 0.983449399471283,
      "938": -1.39434814453125,
      "939": -0.06442127376794815,
      "940": 0.9382531642913818,
      "941": 1.010003924369812,
      "942": -0.9065237641334534,
      "943": 0.3430357277393341,
      "944": -0.7522065043449402,
      "945": -1.7834776639938354,
      "946": 0.269854336977005,
      "947": -0.9380582571029663,
      "948": 0.3659462034702301,
      "949": -0.18828974664211273,
      "950": 0.09997060149908066,
      "951": 0.6540849208831787,
      "952": 0.7126672267913818,
      "953": 2.555398464202881,
      "954": 1.269423246383667,
      "955": 0.7688001394271851,
      "956": -1.67521333694458,
      "957": -1.539038062095642,
      "958": -2.3964719772338867,
      "959": -0.4045459032058716,
      "960": 0.35462141036987305,
      "961": 0.4970547556877136,
      "962": 2.6228137016296387,
      "963": 1.8096691370010376,
      "964": 2.2322497367858887,
      "965": -1.292473554611206,
      "966": -0.44325441122055054,
      "967": -2.2445130348205566,
      "968": 0.06258869171142578,
      "969": -1.2048896551132202,
      "970": 2.1885082721710205,
      "971": 1.1910642385482788,
      "972": 1.5088911056518555,
      "973": 1.9476978778839111,
      "974": 0.4545665681362152,
      "975": -0.5905425548553467,
      "976": -0.1893255114555359,
      "977": -2.4924097061157227,
      "978": -0.5684673190116882,
      "979": 0.7564553022384644,
      "980": -0.4592917263507843,
      "981": -0.5077054500579834,
      "982": 0.5647306442260742,
      "983": -1.4893828630447388,
      "984": 0.37082579731941223,
      "985": 1.838577389717102,
      "986": -0.34752076864242554,
      "987": -0.13212330639362335,
      "988": -0.3408938944339752,
      "989": 0.5418602824211121,
      "990": 0.2133513242006302,
      "991": 1.1221792697906494,
      "992": -1.1347793340682983,
      "993": -0.04836216941475868,
      "994": -1.3045140504837036,
      "995": -0.26709723472595215,
      "996": -0.1643696278333664,
      "997": -0.5152056217193604,
      "998": 0.019968749955296516,
      "999": 0.24449388682842255,
      "1000": -0.42139914631843567,
      "1001": 0.4234509766101837,
      "1002": 1.354379653930664,
      "1003": -1.4164624214172363,
      "1004": -0.3252573311328888,
      "1005": -0.7676500082015991,
      "1006": -2.3707263469696045,
      "1007": -0.44734010100364685,
      "1008": 0.5131624937057495,
      "1009": 3.124326467514038,
      "1010": 2.1620142459869385,
      "1011": 2.528902769088745,
      "1012": -1.0877950191497803,
      "1013": -0.38522469997406006,
      "1014": 0.502845048904419,
      "1015": -1.8789714574813843,
      "1016": -2.3567698001861572,
      "1017": 2.3359580039978027,
      "1018": 0.8296094536781311,
      "1019": 0.10702244937419891,
      "1020": 1.1360541582107544,
      "1021": -0.17089183628559113,
      "1022": 0.2344139963388443,
      "1023": 0.21642297506332397,
      "1024": -0.4769535958766937,
      "1025": 1.69802725315094,
      "1026": -0.03472312539815903,
      "1027": 1.4558782577514648,
      "1028": -0.5590235590934753,
      "1029": 0.08895345777273178,
      "1030": -1.3477102518081665,
      "1031": 0.1131301075220108,
      "1032": 0.7005021572113037,
      "1033": 0.7554126977920532,
      "1034": -0.0256165973842144,
      "1035": 0.7874731421470642,
      "1036": 0.38622763752937317,
      "1037": 0.5150784254074097,
      "1038": -0.9923203587532043,
      "1039": -0.3583993911743164,
      "1040": 0.04429745674133301,
      "1041": -0.5454535484313965,
      "1042": 0.6483079195022583,
      "1043": 0.31887686252593994,
      "1044": 2.159019708633423,
      "1045": -0.11049799621105194,
      "1046": -0.35587963461875916,
      "1047": -0.12758049368858337,
      "1048": -0.3210160434246063,
      "1049": 0.1283816546201706,
      "1050": -0.6583310961723328,
      "1051": 1.3647375106811523,
      "1052": -0.18236665427684784,
      "1053": 0.11167717725038528,
      "1054": 0.03817221149802208,
      "1055": 1.264363408088684,
      "1056": 0.958354115486145,
      "1057": 1.6523187160491943,
      "1058": 0.14857171475887299,
      "1059": 0.05826076865196228,
      "1060": 1.408752202987671,
      "1061": -1.7250723838806152,
      "1062": -0.948000431060791,
      "1063": -1.500912070274353,
      "1064": 1.0317853689193726,
      "1065": 0.06403980404138565,
      "1066": -0.5773279070854187,
      "1067": -0.8957052230834961,
      "1068": -0.17789340019226074,
      "1069": 0.5530480742454529,
      "1070": 0.5601295232772827,
      "1071": 0.8933761715888977,
      "1072": 5.631973743438721,
      "1073": 0.3228354752063751,
      "1074": 0.18477730453014374,
      "1075": 0.15983512997627258,
      "1076": -0.14995011687278748,
      "1077": 0.012429856695234776,
      "1078": -0.6202430129051208,
      "1079": 2.622777223587036,
      "1080": 0.010287557728588581,
      "1081": -1.8544076681137085,
      "1082": 0.4899197518825531,
      "1083": -4.367551326751709,
      "1084": -1.5353689193725586,
      "1085": 1.7603811025619507,
      "1086": 1.091363549232483,
      "1087": 2.8985090255737305,
      "1088": 4.636417388916016,
      "1089": -2.2046172618865967,
      "1090": -2.623789072036743,
      "1091": -4.4420576095581055,
      "1092": -2.2000255584716797,
      "1093": -2.6533570289611816,
      "1094": -3.030161142349243,
      "1095": -2.944291591644287,
      "1096": 3.1451566219329834,
      "1097": 4.255212783813477,
      "1098": -3.330371856689453,
      "1099": 2.1542680263519287,
      "1100": 2.7897238731384277,
      "1101": -1.9715607166290283,
      "1102": 1.3963500261306763,
      "1103": 4.186089515686035,
      "1104": -1.7381657361984253,
      "1105": 4.100212574005127,
      "1106": -3.9867734909057617,
      "1107": 0.22547271847724915,
      "1108": -3.4293665885925293,
      "1109": -0.31746557354927063,
      "1110": 1.7813937664031982,
      "1111": 3.2277448177337646,
      "1112": -0.9424284100532532,
      "1113": 0.8631493449211121,
      "1114": 0.10034628957509995,
      "1115": -0.8065178990364075,
      "1116": 1.1081293821334839,
      "1117": -3.9058902263641357,
      "1118": 1.2327970266342163,
      "1119": -3.9940521717071533,
      "1120": 2.7291581630706787,
      "1121": -1.539014458656311,
      "1122": 2.6557939052581787,
      "1123": 4.014822959899902,
      "1124": 3.8397223949432373,
      "1125": 4.804960250854492,
      "1126": 2.6756269931793213,
      "1127": -2.546437978744507,
      "1128": -0.565094530582428,
      "1129": -3.338500499725342,
      "1130": -0.8502877354621887,
      "1131": -0.9817394018173218,
      "1132": 2.0540990829467773,
      "1133": -1.8635568618774414,
      "1134": -0.2856317162513733,
      "1135": 2.101407766342163,
      "1136": 4.509515285491943,
      "1137": -0.8221961855888367,
      "1138": -2.03401517868042,
      "1139": -1.0694187879562378,
      "1140": -0.8623847961425781,
      "1141": -0.8674473166465759,
      "1142": -1.0864191055297852,
      "1143": -0.07150029391050339,
      "1144": 0.7218397855758667,
      "1145": -1.7922089099884033,
      "1146": -0.34497344493865967,
      "1147": 0.5311803221702576,
      "1148": 0.6455573439598083,
      "1149": 0.9177826046943665,
      "1150": 6.028497219085693,
      "1151": 0.46341270208358765,
      "1152": -0.13132132589817047,
      "1153": 1.1837522983551025,
      "1154": -3.120532751083374,
      "1155": 1.4468481540679932,
      "1156": 1.0745912790298462,
      "1157": 0.02220870554447174,
      "1158": 4.094193935394287,
      "1159": -0.35791951417922974,
      "1160": 1.4362835884094238,
      "1161": 4.246768951416016,
      "1162": 1.7375288009643555,
      "1163": -1.727177619934082,
      "1164": -0.5872220993041992,
      "1165": -2.202160120010376,
      "1166": -4.29740571975708,
      "1167": -4.422743797302246,
      "1168": 2.879274845123291,
      "1169": -2.25705885887146,
      "1170": -0.0012896991102024913,
      "1171": -0.43728575110435486,
      "1172": 2.13295841217041,
      "1173": -0.789506196975708,
      "1174": 3.80450177192688,
      "1175": 2.4203078746795654,
      "1176": 2.673349142074585,
      "1177": 1.306581735610962,
      "1178": 1.0992403030395508,
      "1179": 0.6916804909706116,
      "1180": 0.3513881266117096,
      "1181": -0.7931777834892273,
      "1182": -1.5205661058425903,
      "1183": -0.7518877983093262,
      "1184": 0.7086519002914429,
      "1185": -0.19068489968776703,
      "1186": -1.5933377742767334,
      "1187": 2.7553579807281494,
      "1188": 1.6819541454315186,
      "1189": 2.319495439529419,
      "1190": 0.9392026662826538,
      "1191": -1.884589672088623,
      "1192": 0.19452737271785736,
      "1193": -1.381425380706787,
      "1194": 4.6743245124816895,
      "1195": -1.6132843494415283,
      "1196": -0.2718127965927124,
      "1197": -1.482810616493225,
      "1198": -3.8432607650756836,
      "1199": -0.06472167372703552,
      "1200": -0.41974833607673645,
      "1201": 1.850809097290039,
      "1202": -4.577251434326172,
      "1203": -1.183813214302063,
      "1204": 5.317836284637451,
      "1205": -3.330052137374878,
      "1206": 0.7480082511901855,
      "1207": 0.45255643129348755,
      "1208": -2.3279197216033936,
      "1209": 0.5404543876647949,
      "1210": -1.62841796875,
      "1211": -1.7039754390716553,
      "1212": 0.6928910613059998,
      "1213": -5.042021751403809,
      "1214": 4.848748207092285,
      "1215": -1.5787349939346313,
      "1216": -2.564051866531372,
      "1217": 2.385075330734253,
      "1218": -1.5303266048431396,
      "1219": -0.9750987887382507,
      "1220": 2.5019636154174805,
      "1221": -1.9230546951293945,
      "1222": -0.08633013814687729,
      "1223": 0.1428791880607605,
      "1224": 1.5178825855255127,
      "1225": -0.12123340368270874,
      "1226": 5.906289577484131,
      "1227": -0.5999417901039124,
      "1228": -0.17458242177963257,
      "1229": -0.6620609164237976,
      "1230": -4.290468692779541,
      "1231": -0.38518276810646057,
      "1232": -2.3243303298950195,
      "1233": -3.4383630752563477,
      "1234": 0.5007461309432983,
      "1235": 0.4037114083766937,
      "1236": -1.2806895971298218,
      "1237": -3.245035171508789,
      "1238": 1.626813530921936,
      "1239": -2.658428907394409,
      "1240": -0.004807252902537584,
      "1241": 0.8751656413078308,
      "1242": -4.840261936187744,
      "1243": 1.6090881824493408,
      "1244": -4.617646217346191,
      "1245": -2.881917715072632,
      "1246": -5.016867637634277,
      "1247": 2.5619895458221436,
      "1248": 0.8276914358139038,
      "1249": -1.3974945545196533,
      "1250": 1.2717701196670532,
      "1251": 2.555572509765625,
      "1252": -7.1150102615356445,
      "1253": 2.8237833976745605,
      "1254": -0.9705109000205994,
      "1255": -1.5843499898910522,
      "1256": 0.46715739369392395,
      "1257": -0.8730431199073792,
      "1258": -0.9085822105407715,
      "1259": 2.6634466648101807,
      "1260": -3.4078638553619385,
      "1261": 2.7888805866241455,
      "1262": -0.6098032593727112,
      "1263": -1.1768958568572998,
      "1264": -1.0195529460906982,
      "1265": -1.1878581047058105,
      "1266": -1.0617870092391968,
      "1267": -1.1509121656417847,
      "1268": -3.5719339847564697,
      "1269": -3.9501264095306396,
      "1270": 4.496818542480469,
      "1271": 1.6347472667694092,
      "1272": -1.8860644102096558,
      "1273": 1.916260838508606,
      "1274": 1.9419044256210327,
      "1275": -2.445829391479492,
      "1276": -1.5374679565429688,
      "1277": -3.5035622119903564,
      "1278": -1.5382593870162964,
      "1279": 5.111379623413086,
      "1280": 0.22998934984207153,
      "1281": -0.007714210078120232,
      "1282": 5.014742374420166,
      "1283": -1.4958714246749878,
      "1284": 0.14385341107845306,
      "1285": -2.3150739669799805,
      "1286": -2.79374623298645,
      "1287": -2.373368978500366,
      "1288": 7.535502910614014,
      "1289": -2.124008893966675,
      "1290": -0.22783489525318146,
      "1291": -1.8863362073898315,
      "1292": -3.9558746814727783,
      "1293": 1.2100063562393188,
      "1294": -1.4637576341629028,
      "1295": 3.409393072128296,
      "1296": -2.1234004497528076,
      "1297": -1.9598478078842163,
      "1298": 5.94744873046875,
      "1299": -1.1947925090789795,
      "1300": -1.5827819108963013,
      "1301": -6.328581809997559,
      "1302": -4.681797504425049,
      "1303": 2.4723317623138428,
      "1304": -4.096683502197266,
      "1305": -0.023010773584246635,
      "1306": 1.5733006000518799,
      "1307": -3.8107833862304688,
      "1308": 5.427082061767578,
      "1309": -1.4006024599075317,
      "1310": -4.743314266204834,
      "1311": 1.1976321935653687,
      "1312": -2.0476090908050537,
      "1313": -1.1789473295211792,
      "1314": 3.1268420219421387,
      "1315": -4.1912522315979,
      "1316": 3.5725913047790527,
      "1317": -1.1591984033584595,
      "1318": 0.5817115306854248,
      "1319": 0.7582101821899414,
      "1320": -1.3931822776794434,
      "1321": -2.0826382637023926,
      "1322": 0.8412942886352539,
      "1323": -2.414173126220703,
      "1324": 2.5225770473480225,
      "1325": 0.5986989140510559,
      "1326": -0.5040504336357117,
      "1327": 2.2245945930480957,
      "1328": 2.2029597759246826,
      "1329": 3.551271915435791,
      "1330": 1.5516525506973267,
      "1331": 3.551699161529541,
      "1332": -1.5548617839813232,
      "1333": -0.41293516755104065,
      "1334": -0.511361300945282,
      "1335": -2.0772900581359863,
      "1336": 0.4425737261772156,
      "1337": -1.6865781545639038,
      "1338": 3.574256658554077,
      "1339": 1.4265272617340088,
      "1340": 3.885464906692505,
      "1341": -2.3268449306488037,
      "1342": 2.6660611629486084,
      "1343": -1.668148398399353,
      "1344": 1.4482696056365967,
      "1345": -1.7544878721237183,
      "1346": -2.532999277114868,
      "1347": 1.6540368795394897,
      "1348": 1.9171150922775269,
      "1349": 2.0725231170654297,
      "1350": 0.382358580827713,
      "1351": 0.6751477122306824,
      "1352": -0.7284754514694214,
      "1353": -2.6273460388183594,
      "1354": 0.27356940507888794,
      "1355": -2.2632267475128174,
      "1356": 1.175678014755249,
      "1357": -1.9689912796020508,
      "1358": -0.7629881501197815,
      "1359": -2.1449694633483887,
      "1360": -0.941168487071991,
      "1361": 1.0250918865203857,
      "1362": 2.6194541454315186,
      "1363": 2.504739284515381,
      "1364": -3.197150230407715,
      "1365": 3.6538197994232178,
      "1366": 0.6789002418518066,
      "1367": 3.8487234115600586,
      "1368": -3.283820867538452,
      "1369": -3.6570169925689697,
      "1370": -2.0057032108306885,
      "1371": -2.70232892036438,
      "1372": 2.302940845489502,
      "1373": 1.598226547241211,
      "1374": -3.6791977882385254,
      "1375": 4.209848403930664,
      "1376": -3.204486608505249,
      "1377": 3.0259785652160645,
      "1378": -2.3950603008270264,
      "1379": -2.8960485458374023,
      "1380": 2.1915931701660156,
      "1381": 0.04646597057580948,
      "1382": 0.623412549495697,
      "1383": -2.528675079345703,
      "1384": -3.064796209335327,
      "1385": -2.4895920753479004,
      "1386": 4.108539581298828,
      "1387": -3.123443126678467,
      "1388": 3.3364877700805664,
      "1389": -2.2773211002349854,
      "1390": 0.8175087571144104,
      "1391": 0.6038615107536316,
      "1392": -4.069148063659668,
      "1393": -1.1868489980697632,
      "1394": 3.6479380130767822,
      "1395": -0.5595314502716064,
      "1396": 1.6109975576400757,
      "1397": 5.045588970184326,
      "1398": -4.909987449645996,
      "1399": -1.7103878259658813,
      "1400": 0.6851378083229065,
      "1401": -0.6828534007072449,
      "1402": -1.8346343040466309,
      "1403": 3.7573559284210205,
      "1404": -3.664248466491699,
      "1405": 3.061021089553833,
      "1406": -5.896721363067627,
      "1407": -5.096879959106445,
      "1408": -1.6991740465164185,
      "1409": 3.1181139945983887,
      "1410": -0.6017081141471863,
      "1411": 1.5519095659255981,
      "1412": 1.3320270776748657,
      "1413": 1.0796339511871338,
      "1414": 0.8170416355133057,
      "1415": -1.5511200428009033,
      "1416": -2.686924457550049,
      "1417": -2.5482547283172607,
      "1418": -1.7851548194885254,
      "1419": 0.08303853124380112,
      "1420": 2.7330925464630127,
      "1421": 2.8761403560638428,
      "1422": 0.3024916350841522,
      "1423": 3.0583174228668213,
      "1424": 0.06408537179231644,
      "1425": 1.4496780633926392,
      "1426": -1.2200566530227661,
      "1427": 2.9453423023223877,
      "1428": -4.588425159454346,
      "1429": 0.2608851492404938,
      "1430": -1.4050670862197876,
      "1431": 2.5997672080993652,
      "1432": 3.9085123538970947,
      "1433": 1.32500159740448,
      "1434": 1.8532744646072388,
      "1435": -0.8649649024009705,
      "1436": 3.3325581550598145,
      "1437": -1.5710420608520508,
      "1438": 3.1986541748046875,
      "1439": -0.6495645642280579,
      "1440": -0.1301506608724594,
      "1441": 1.9192466735839844,
      "1442": 0.4307307302951813,
      "1443": -3.1451504230499268,
      "1444": 3.54467511177063,
      "1445": -3.484973669052124,
      "1446": 1.0303518772125244,
      "1447": -1.209864854812622,
      "1448": 1.736679196357727,
      "1449": 1.6509186029434204,
      "1450": 0.3255387246608734,
      "1451": -0.5524014234542847,
      "1452": -2.0962352752685547,
      "1453": -1.3699332475662231,
      "1454": -1.9968189001083374,
      "1455": 0.819932222366333,
      "1456": -1.0930336713790894,
      "1457": -2.396822214126587,
      "1458": -2.1513471603393555,
      "1459": -0.9603996276855469,
      "1460": -2.4097914695739746,
      "1461": 2.945755958557129,
      "1462": 0.2605067789554596,
      "1463": 1.3484859466552734,
      "1464": 1.9671379327774048,
      "1465": 0.6352363228797913,
      "1466": -1.226075530052185,
      "1467": -1.4658892154693604,
      "1468": -1.397977590560913,
      "1469": -1.9494541883468628,
      "1470": -2.157491445541382,
      "1471": -0.7249211072921753,
      "1472": -2.3614540100097656,
      "1473": 0.46136847138404846,
      "1474": -1.9903464317321777,
      "1475": 0.7668697237968445,
      "1476": 2.5880820751190186,
      "1477": -2.9650886058807373,
      "1478": 2.7852494716644287,
      "1479": -2.228649139404297,
      "1480": -0.5759511590003967,
      "1481": -2.1386003494262695,
      "1482": 2.2061679363250732,
      "1483": -2.4795985221862793,
      "1484": 1.4524140357971191,
      "1485": -1.4441900253295898,
      "1486": 0.6419304609298706,
      "1487": -0.4680565893650055,
      "1488": -0.004842942114919424,
      "1489": -2.361457109451294,
      "1490": 3.0952367782592773,
      "1491": -0.33709344267845154,
      "1492": -0.09066381305456161,
      "1493": -2.453725576400757,
      "1494": 1.7957465648651123,
      "1495": -1.5166471004486084,
      "1496": -1.0817835330963135,
      "1497": 2.0240907669067383,
      "1498": 1.9269577264785767,
      "1499": 2.3265697956085205,
      "1500": 0.8420302271842957,
      "1501": 0.9436889290809631,
      "1502": -1.0449024438858032,
      "1503": 1.4648793935775757,
      "1504": -2.2817769050598145,
      "1505": 2.136584758758545,
      "1506": 0.5034593939781189,
      "1507": 0.5524211525917053,
      "1508": 0.7102115154266357,
      "1509": 0.858374834060669,
      "1510": 0.2954331338405609,
      "1511": -3.9014272689819336,
      "1512": 1.9478914737701416,
      "1513": -5.017969608306885,
      "1514": -2.457040786743164,
      "1515": -3.7521066665649414,
      "1516": 1.102123737335205,
      "1517": 3.5485548973083496,
      "1518": -0.006415898445993662,
      "1519": -2.8340365886688232,
      "1520": -3.263779878616333,
      "1521": -5.650147914886475,
      "1522": 1.3779256343841553,
      "1523": 0.3435531258583069,
      "1524": -2.9436850547790527,
      "1525": 4.232961654663086,
      "1526": 0.9662809371948242,
      "1527": 0.23528821766376495,
      "1528": 0.21267497539520264,
      "1529": -1.6200251579284668,
      "1530": -1.3383877277374268,
      "1531": -3.5919790267944336,
      "1532": -4.585794448852539,
      "1533": 0.04111023619771004,
      "1534": 4.943723678588867,
      "1535": -2.9884562492370605,
      "1536": -3.259242534637451,
      "1537": -2.6216320991516113,
      "1538": -4.271734714508057,
      "1539": 1.82675039768219,
      "1540": 3.547327995300293,
      "1541": 0.8974426984786987,
      "1542": 1.7106096744537354,
      "1543": -2.581512928009033,
      "1544": -2.0994997024536133,
      "1545": 0.7453458905220032,
      "1546": -0.6326505541801453,
      "1547": 0.3475450575351715,
      "1548": 3.079176187515259,
      "1549": 4.3111796379089355,
      "1550": -1.3017576932907104,
      "1551": 1.6614471673965454,
      "1552": 1.2957253456115723,
      "1553": 1.7837200164794922,
      "1554": 0.4559849202632904,
      "1555": -1.6819573640823364,
      "1556": -2.07098388671875,
      "1557": -0.3516102433204651,
      "1558": -1.342286467552185,
      "1559": 1.4080702066421509,
      "1560": 0.7573313117027283,
      "1561": 1.5331003665924072,
      "1562": 2.226696014404297,
      "1563": 0.06643187999725342,
      "1564": 4.360426902770996,
      "1565": 1.1748859882354736,
      "1566": 3.11445951461792,
      "1567": -0.36843475699424744,
      "1568": 0.41400763392448425,
      "1569": -1.094115138053894,
      "1570": -2.7313530445098877,
      "1571": 1.865221619606018,
      "1572": -1.030383825302124,
      "1573": 2.859511375427246,
      "1574": 2.0140159130096436,
      "1575": 4.316981792449951,
      "1576": -3.397183895111084,
      "1577": 4.5969085693359375,
      "1578": -1.5925722122192383,
      "1579": 3.381965160369873,
      "1580": -1.7152495384216309,
      "1581": 0.35276365280151367,
      "1582": -0.21452577412128448,
      "1583": 1.0219827890396118,
      "1584": 1.463887095451355,
      "1585": 0.6354451775550842,
      "1586": -0.7966325879096985,
      "1587": -0.09055615961551666,
      "1588": -2.8177216053009033,
      "1589": 2.4911630153656006,
      "1590": -0.5769086480140686,
      "1591": -0.04499305039644241,
      "1592": -0.4463265538215637,
      "1593": -2.8159124851226807,
      "1594": -0.28090277314186096,
      "1595": -1.2182705402374268,
      "1596": 3.0858242511749268,
      "1597": 0.06884537637233734,
      "1598": -0.5376642346382141,
      "1599": 0.6017506718635559,
      "1600": -0.6407995223999023,
      "1601": 0.08461007475852966,
      "1602": -1.3650790452957153,
      "1603": -0.9201106429100037,
      "1604": 0.7059010863304138,
      "1605": -4.541783809661865,
      "1606": -1.566922664642334,
      "1607": 1.2591148614883423,
      "1608": -1.9069700241088867,
      "1609": 2.0775978565216064,
      "1610": 4.7105536460876465,
      "1611": -2.9213008880615234,
      "1612": 1.0001386404037476,
      "1613": 4.740642070770264,
      "1614": -3.422281503677368,
      "1615": 1.4243814945220947,
      "1616": -4.41026496887207,
      "1617": 0.821971595287323,
      "1618": -1.1470524072647095,
      "1619": -2.5455288887023926,
      "1620": 5.146897315979004,
      "1621": -2.0790810585021973,
      "1622": 5.318323135375977,
      "1623": -4.600831031799316,
      "1624": 4.679863929748535,
      "1625": -4.523808002471924,
      "1626": 2.257807731628418,
      "1627": 1.111673355102539,
      "1628": 4.9720988273620605,
      "1629": 2.7924468517303467,
      "1630": 0.9598228335380554,
      "1631": -0.89762282371521,
      "1632": 4.33370304107666,
      "1633": -4.161054611206055,
      "1634": -4.049152851104736,
      "1635": -4.826860427856445,
      "1636": -3.4069716930389404,
      "1637": 3.554278612136841,
      "1638": 2.578930616378784,
      "1639": -3.8384735584259033,
      "1640": 4.3961358070373535,
      "1641": -3.960965394973755,
      "1642": 1.5243110656738281,
      "1643": -0.31945353746414185,
      "1644": 0.34398841857910156,
      "1645": 2.961888074874878,
      "1646": -1.769637942314148,
      "1647": -0.565048098564148,
      "1648": -2.5678255558013916,
      "1649": 0.20192308723926544,
      "1650": 0.18149612843990326,
      "1651": 2.9331493377685547,
      "1652": 1.4877039194107056,
      "1653": 0.991749107837677,
      "1654": 4.049476146697998,
      "1655": -3.278024673461914,
      "1656": 0.03449985757470131,
      "1657": -2.369499683380127,
      "1658": -4.314884662628174,
      "1659": -2.3802034854888916,
      "1660": -2.515486001968384,
      "1661": 1.2644323110580444,
      "1662": 3.943796157836914,
      "1663": 3.362457036972046,
      "1664": 4.109879970550537,
      "1665": 0.05705391988158226,
      "1666": -3.6953256130218506,
      "1667": -1.6346631050109863,
      "1668": 0.034058935940265656,
      "1669": -4.44680643081665,
      "1670": 4.566108226776123,
      "1671": -1.860141634941101,
      "1672": 0.03234634920954704,
      "1673": 0.22920416295528412,
      "1674": 0.737174928188324,
      "1675": -2.8567850589752197,
      "1676": 1.226502776145935,
      "1677": 1.7540040016174316,
      "1678": 1.7985033988952637,
      "1679": 2.171269178390503,
      "1680": 4.0316243171691895,
      "1681": -4.919732570648193,
      "1682": 1.3236148357391357,
      "1683": -1.7439786195755005,
      "1684": -1.2091418504714966,
      "1685": 0.846294641494751,
      "1686": 2.0290751457214355,
      "1687": 4.996776580810547,
      "1688": 0.8955884575843811,
      "1689": -1.4329067468643188,
      "1690": 0.3150354325771332,
      "1691": 2.8163087368011475,
      "1692": 2.135249376296997,
      "1693": 0.7897112965583801,
      "1694": -0.24928486347198486,
      "1695": 1.8704279661178589,
      "1696": -2.683985471725464,
      "1697": -3.003889322280884,
      "1698": 0.11940561980009079,
      "1699": 0.6428418159484863,
      "1700": 3.1492724418640137,
      "1701": 0.6181355118751526,
      "1702": -1.4756057262420654,
      "1703": 1.1862581968307495,
      "1704": 3.2404232025146484,
      "1705": -0.9990919828414917,
      "1706": 3.6178696155548096,
      "1707": 2.355923891067505,
      "1708": -2.173811197280884,
      "1709": -0.9656475186347961,
      "1710": 0.743675172328949,
      "1711": -0.12808933854103088,
      "1712": 1.984645962715149,
      "1713": -2.6883504390716553,
      "1714": -2.4567830562591553,
      "1715": 1.915697693824768,
      "1716": 0.01691594161093235,
      "1717": 1.4566855430603027,
      "1718": 0.5614417195320129,
      "1719": 1.4307373762130737,
      "1720": 1.8291726112365723,
      "1721": -3.080080986022949,
      "1722": -0.5843380689620972,
      "1723": 2.08263897895813,
      "1724": 1.390207052230835,
      "1725": 2.7109551429748535,
      "1726": -0.7325577735900879,
      "1727": 1.1720399856567383,
      "1728": -1.327001690864563,
      "1729": -1.2101432085037231,
      "1730": -1.2064446210861206,
      "1731": 0.11407658457756042,
      "1732": 2.8807897567749023,
      "1733": -2.428302764892578,
      "1734": 0.09361274540424347,
      "1735": -0.4462851881980896,
      "1736": -2.0709550380706787,
      "1737": -1.4468497037887573,
      "1738": 1.4881058931350708,
      "1739": -0.49164193868637085,
      "1740": 1.8668214082717896,
      "1741": -2.3602209091186523,
      "1742": -4.285933971405029,
      "1743": 0.26899367570877075,
      "1744": -1.9112995862960815,
      "1745": 4.420976161956787,
      "1746": -0.3741414248943329,
      "1747": -2.1924939155578613,
      "1748": -1.174410104751587,
      "1749": 0.6199505925178528,
      "1750": 0.1502460092306137,
      "1751": -0.9671630263328552,
      "1752": -0.7046520113945007,
      "1753": -0.4467482268810272,
      "1754": 0.6009418964385986,
      "1755": -0.7896830439567566,
      "1756": 0.9489703178405762,
      "1757": 4.742959976196289,
      "1758": 0.02892727218568325,
      "1759": 0.10228170454502106,
      "1760": 1.1101373434066772,
      "1761": -0.28653621673583984,
      "1762": 1.9716483354568481,
      "1763": 0.6256228685379028,
      "1764": -0.6734617948532104,
      "1765": 0.0006682138191536069,
      "1766": 1.7151007652282715,
      "1767": -1.0843347311019897,
      "1768": -1.0343971252441406,
      "1769": 0.24469342827796936,
      "1770": -0.10131742060184479,
      "1771": -2.524148941040039,
      "1772": -0.42803457379341125,
      "1773": -3.7557311058044434,
      "1774": 3.862842321395874,
      "1775": -1.1028623580932617,
      "1776": 0.40497973561286926,
      "1777": 1.5108681917190552,
      "1778": 3.0557620525360107,
      "1779": -2.36382794380188,
      "1780": 4.361156463623047,
      "1781": 2.595973491668701,
      "1782": 0.7347928285598755,
      "1783": 0.9812784790992737,
      "1784": -0.5119152069091797,
      "1785": -0.6249989867210388,
      "1786": -1.484787106513977,
      "1787": 0.8266009092330933,
      "1788": -0.7665720582008362,
      "1789": -2.8053181171417236,
      "1790": 2.8426122665405273,
      "1791": 1.1940819025039673,
      "1792": 0.5839791893959045,
      "1793": -0.7078970074653625,
      "1794": -1.1708766222000122,
      "1795": -1.9586392641067505,
      "1796": -1.1786143779754639,
      "1797": -1.6827691793441772,
      "1798": -2.7310705184936523,
      "1799": 1.4982768297195435,
      "1800": -2.081606864929199,
      "1801": 1.3203092813491821,
      "1802": -0.2959980070590973,
      "1803": -2.61159086227417,
      "1804": -1.1721019744873047,
      "1805": 1.5760027170181274,
      "1806": -2.0889248847961426,
      "1807": 2.0080747604370117,
      "1808": 1.5806807279586792,
      "1809": -0.4527609348297119,
      "1810": 1.7313414812088013,
      "1811": -0.8693860173225403,
      "1812": 0.8878973126411438,
      "1813": -1.656287431716919,
      "1814": -2.5049633979797363,
      "1815": 1.2105666399002075,
      "1816": 2.293555498123169,
      "1817": -1.847164511680603,
      "1818": -1.6785237789154053,
      "1819": -0.9520257711410522,
      "1820": -1.7046048641204834,
      "1821": 1.661394476890564,
      "1822": -2.3698413372039795,
      "1823": 1.7814301252365112,
      "1824": -0.6629329919815063,
      "1825": 0.9652982354164124,
      "1826": -0.38209426403045654,
      "1827": 1.486112356185913,
      "1828": 1.751633882522583,
      "1829": 1.2777918577194214,
      "1830": 1.3542979955673218,
      "1831": 1.6786067485809326,
      "1832": -1.142448902130127,
      "1833": -0.5056148171424866,
      "1834": -1.325811743736267,
      "1835": -6.1932783126831055,
      "1836": -6.2978410720825195,
      "1837": 0.717848539352417,
      "1838": 2.325072765350342,
      "1839": 5.248054027557373,
      "1840": -0.02866320312023163,
      "1841": -0.3754844665527344,
      "1842": -5.337520599365234,
      "1843": -3.7932825088500977,
      "1844": -3.8651578426361084,
      "1845": -0.10120633244514465,
      "1846": -6.839715957641602,
      "1847": -0.7398169040679932,
      "1848": -0.07608490437269211,
      "1849": 2.750722885131836,
      "1850": 0.9251338839530945,
      "1851": 1.43061101436615,
      "1852": 3.214616537094116,
      "1853": -1.121924638748169,
      "1854": 0.7727932333946228,
      "1855": 1.9731419086456299,
      "1856": -1.5640132427215576,
      "1857": 0.7225999236106873,
      "1858": -0.22498996555805206,
      "1859": -1.0391145944595337,
      "1860": 2.8658149242401123,
      "1861": -6.380210876464844,
      "1862": -1.5974738597869873,
      "1863": 6.1568474769592285,
      "1864": -3.0254147052764893,
      "1865": -5.59576416015625,
      "1866": -0.3593621253967285,
      "1867": -6.006112575531006,
      "1868": 4.919045925140381,
      "1869": -2.2263031005859375,
      "1870": 2.5275676250457764,
      "1871": 4.099400043487549,
      "1872": -0.3937181830406189,
      "1873": 4.706356525421143,
      "1874": 6.675304889678955,
      "1875": 3.82161545753479,
      "1876": 3.2035634517669678,
      "1877": 4.363521099090576,
      "1878": -3.466782808303833,
      "1879": 1.6182142496109009,
      "1880": -3.1943628787994385,
      "1881": 2.324335813522339,
      "1882": 0.5258593559265137,
      "1883": 0.9968892335891724,
      "1884": -1.4399609565734863,
      "1885": -2.0226123332977295,
      "1886": -3.296355962753296,
      "1887": 0.30056628584861755,
      "1888": -0.8501509428024292,
      "1889": 2.2627315521240234,
      "1890": 0.9671587944030762,
      "1891": 1.625031590461731,
      "1892": -3.958982467651367,
      "1893": -3.2926650047302246,
      "1894": 1.2186744213104248,
      "1895": 3.9926109313964844,
      "1896": -6.39625358581543,
      "1897": 1.1416817903518677,
      "1898": -5.378848552703857,
      "1899": 1.1358896493911743,
      "1900": 0.314577579498291,
      "1901": -1.0250260829925537,
      "1902": 0.8193939328193665,
      "1903": -2.9467597007751465,
      "1904": 2.667559862136841,
      "1905": -1.4521812200546265,
      "1906": 5.193483352661133,
      "1907": -1.8049222230911255,
      "1908": 1.4535356760025024,
      "1909": 2.370044231414795,
      "1910": 2.8160040378570557,
      "1911": 4.323885917663574,
      "1912": 1.8029731512069702,
      "1913": -0.6646273136138916,
      "1914": 12.072519302368164,
      "1915": -6.181819438934326,
      "1916": 2.290735960006714,
      "1917": -1.1982403993606567,
      "1918": -2.134948968887329,
      "1919": 0.6698598861694336,
      "1920": 6.378608703613281,
      "1921": -4.263388633728027,
      "1922": 3.874843120574951,
      "1923": 1.2311468124389648,
      "1924": -0.44375574588775635,
      "1925": -0.19994229078292847,
      "1926": -2.264547109603882,
      "1927": -3.753237247467041,
      "1928": 4.392373085021973,
      "1929": 0.9057539105415344,
      "1930": -3.4994688034057617,
      "1931": 1.0343447923660278,
      "1932": 3.7619035243988037,
      "1933": -0.6822510361671448,
      "1934": -4.915274620056152,
      "1935": -1.6430633068084717,
      "1936": -5.169861316680908,
      "1937": -3.334327220916748,
      "1938": -3.8376996517181396,
      "1939": -6.016864776611328,
      "1940": -0.15251998603343964,
      "1941": -3.942852020263672,
      "1942": 1.713643193244934,
      "1943": -1.287031888961792,
      "1944": -3.994852066040039,
      "1945": -2.6631295680999756,
      "1946": 1.673376202583313,
      "1947": -3.610870838165283,
      "1948": 0.9135558009147644,
      "1949": 0.4283796548843384,
      "1950": -4.104825019836426,
      "1951": 1.7899630069732666,
      "1952": -1.0580596923828125,
      "1953": 3.0990331172943115,
      "1954": -6.718677043914795,
      "1955": -3.4845359325408936,
      "1956": 1.9927034378051758,
      "1957": -4.024953842163086,
      "1958": -3.794863224029541,
      "1959": -6.720675945281982,
      "1960": -3.253023147583008,
      "1961": -2.057682514190674,
      "1962": 0.36379870772361755,
      "1963": -5.002607345581055,
      "1964": 5.339991569519043,
      "1965": -0.344942569732666,
      "1966": 2.8912065029144287,
      "1967": -0.8844456076622009,
      "1968": -0.33032703399658203,
      "1969": 3.216801404953003,
      "1970": 6.885478973388672,
      "1971": -0.4176323711872101,
      "1972": 7.006301403045654,
      "1973": -3.0981252193450928,
      "1974": -0.6007854342460632,
      "1975": 2.6634204387664795,
      "1976": -8.7578125,
      "1977": 3.0296802520751953,
      "1978": -0.6008554100990295,
      "1979": 1.4319424629211426,
      "1980": 4.698240280151367,
      "1981": 2.401977062225342,
      "1982": -2.570357084274292,
      "1983": -0.6411551237106323,
      "1984": -1.233170747756958,
      "1985": 1.1818406581878662,
      "1986": 1.1653099060058594,
      "1987": -0.3365810215473175,
      "1988": -1.7435861825942993,
      "1989": 4.3068318367004395,
      "1990": 7.782782554626465,
      "1991": -0.41820257902145386,
      "1992": 4.277339935302734,
      "1993": -4.543258190155029,
      "1994": -0.014989625662565231,
      "1995": 0.6439194679260254,
      "1996": 4.00645637512207,
      "1997": 2.392409086227417,
      "1998": 3.943209648132324,
      "1999": -3.663447141647339,
      "2000": 2.818542957305908,
      "2001": 1.6484780311584473,
      "2002": 1.5199025869369507,
      "2003": -2.810767650604248,
      "2004": 5.354071617126465,
      "2005": -3.380006790161133,
      "2006": 1.535560965538025,
      "2007": -0.9114317893981934,
      "2008": -2.239603042602539,
      "2009": 2.557530164718628,
      "2010": -0.6363080739974976,
      "2011": -1.3835127353668213,
      "2012": 4.820145606994629,
      "2013": 2.2429580688476562,
      "2014": -2.1006484031677246,
      "2015": 2.283884286880493,
      "2016": -2.882528305053711,
      "2017": 5.137164115905762,
      "2018": 7.417311191558838,
      "2019": -3.8535542488098145,
      "2020": -2.5223658084869385,
      "2021": 1.0231503248214722,
      "2022": 3.528754472732544,
      "2023": 2.90613055229187,
      "2024": 3.938957452774048,
      "2025": -3.037229537963867,
      "2026": -3.3914382457733154,
      "2027": -1.9593384265899658,
      "2028": -1.3844859600067139,
      "2029": 2.6037397384643555,
      "2030": 2.158182382583618,
      "2031": 1.0285592079162598,
      "2032": 2.239917278289795,
      "2033": 1.6519591808319092,
      "2034": 1.517863154411316,
      "2035": 4.803596496582031,
      "2036": 3.0536577701568604,
      "2037": -3.934875011444092,
      "2038": 1.0206599235534668,
      "2039": -1.4328237771987915,
      "2040": -2.477419376373291,
      "2041": 0.3080669045448303,
      "2042": -0.364108145236969,
      "2043": 2.4691171646118164,
      "2044": 2.325103759765625,
      "2045": 4.823648452758789,
      "2046": -3.147829294204712,
      "2047": 2.7473740577697754,
      "2048": -2.1895177364349365,
      "2049": 1.7545031309127808,
      "2050": -1.3035526275634766,
      "2051": -1.973963737487793,
      "2052": 3.0411815643310547,
      "2053": 2.798110246658325,
      "2054": 1.1457797288894653,
      "2055": 3.738452911376953,
      "2056": -2.53501558303833,
      "2057": 2.576312303543091,
      "2058": -3.322277307510376,
      "2059": 1.2985349893569946,
      "2060": -1.8376812934875488,
      "2061": 2.5634942054748535,
      "2062": -4.698858737945557,
      "2063": -1.9857786893844604,
      "2064": -2.0596201419830322,
      "2065": -2.8684465885162354,
      "2066": 1.5829836130142212,
      "2067": 1.9039576053619385,
      "2068": -0.6117106080055237,
      "2069": -2.9281835556030273,
      "2070": -0.717961847782135,
      "2071": -1.7133524417877197,
      "2072": 0.7727285027503967,
      "2073": 0.3361719250679016,
      "2074": 2.7238104343414307,
      "2075": 2.623507022857666,
      "2076": -0.5660918354988098,
      "2077": -1.5661563873291016,
      "2078": -2.3786680698394775,
      "2079": -1.8202875852584839,
      "2080": -0.37685999274253845,
      "2081": -3.0299580097198486,
      "2082": 0.4042362868785858,
      "2083": -2.599592685699463,
      "2084": 0.05600055679678917,
      "2085": -1.1156073808670044,
      "2086": 3.823106050491333,
      "2087": 0.48294946551322937,
      "2088": -0.7143588066101074,
      "2089": 0.6242761611938477,
      "2090": -3.484543800354004,
      "2091": -0.7121764421463013,
      "2092": -3.2772679328918457,
      "2093": 3.1803174018859863,
      "2094": -3.043471574783325,
      "2095": 3.5039048194885254,
      "2096": -2.701692581176758,
      "2097": 0.9636299014091492,
      "2098": -0.727418839931488,
      "2099": -0.7790374755859375,
      "2100": -2.1502199172973633,
      "2101": -1.6031397581100464,
      "2102": -2.294304609298706,
      "2103": 3.008549451828003,
      "2104": -1.5830456018447876,
      "2105": 1.3230171203613281,
      "2106": 0.004455537535250187,
      "2107": 0.354775071144104,
      "2108": -0.9179336428642273,
      "2109": 1.2611455917358398,
      "2110": 1.8517913818359375,
      "2111": 0.4444602429866791,
      "2112": 0.6509976387023926,
      "2113": -3.422631025314331,
      "2114": -0.5277773141860962,
      "2115": 1.8695837259292603,
      "2116": -1.0343234539031982,
      "2117": 0.35985225439071655,
      "2118": -0.4803535044193268,
      "2119": -0.12604814767837524,
      "2120": 0.4398840367794037,
      "2121": 1.003745675086975,
      "2122": 0.4636971652507782,
      "2123": 2.2959706783294678,
      "2124": 0.9148629903793335,
      "2125": -0.2746586799621582,
      "2126": -0.049875810742378235,
      "2127": 0.6155627369880676,
      "2128": 1.4945422410964966,
      "2129": 0.13117054104804993,
      "2130": -0.3874337375164032,
      "2131": 0.6930791139602661,
      "2132": 0.5929465293884277,
      "2133": 3.0286083221435547,
      "2134": -1.6050692796707153,
      "2135": 1.4035289287567139,
      "2136": -1.7179814577102661,
      "2137": -1.4186842441558838,
      "2138": -1.6795390844345093,
      "2139": -0.7729332447052002,
      "2140": 0.15485268831253052,
      "2141": -1.2071856260299683,
      "2142": -0.5033157467842102,
      "2143": 0.23653429746627808,
      "2144": 2.3291754722595215,
      "2145": -0.3280644714832306,
      "2146": -0.8092013597488403,
      "2147": 0.3931288719177246,
      "2148": 1.5357890129089355,
      "2149": -2.288027286529541,
      "2150": 3.5312235355377197,
      "2151": 0.3125300705432892,
      "2152": 0.6749575734138489,
      "2153": -2.735921621322632,
      "2154": -1.788907527923584,
      "2155": -0.9420261383056641,
      "2156": 0.1125810295343399,
      "2157": -0.16286039352416992,
      "2158": -0.5115057826042175,
      "2159": -0.1903901845216751,
      "2160": 0.7179321646690369,
      "2161": 0.9958982467651367,
      "2162": -1.3794505596160889,
      "2163": 1.4421138763427734,
      "2164": -0.1961316615343094,
      "2165": -0.7811808586120605,
      "2166": 0.32493075728416443,
      "2167": 0.5235416293144226,
      "2168": 0.21617688238620758,
      "2169": 1.5009407997131348,
      "2170": -2.6584067344665527,
      "2171": 0.23963341116905212,
      "2172": -0.17280791699886322,
      "2173": -0.6001519560813904,
      "2174": -1.6398100852966309,
      "2175": -0.6497208476066589,
      "2176": -0.1828845590353012,
      "2177": 0.3522977828979492,
      "2178": 1.1468539237976074,
      "2179": -0.8025481104850769,
      "2180": -0.4536287188529968,
      "2181": 0.08895735442638397,
      "2182": -0.04928891733288765,
      "2183": 0.3001125156879425,
      "2184": 1.332913875579834,
      "2185": 0.2560129463672638,
      "2186": 1.0669114589691162,
      "2187": -0.8814603090286255,
      "2188": 0.622268795967102,
      "2189": -1.7969677448272705,
      "2190": -0.055785324424505234,
      "2191": -0.3896982669830322,
      "2192": 0.675805926322937,
      "2193": -0.3041203022003174,
      "2194": -0.22158627212047577,
      "2195": -1.3281936645507812,
      "2196": -0.493130087852478,
      "2197": 0.5260889530181885,
      "2198": -0.5863320231437683,
      "2199": -0.01764787919819355,
      "2200": -0.3936525583267212,
      "2201": 1.610161542892456,
      "2202": -0.8515594005584717,
      "2203": 0.5749474167823792,
      "2204": 0.9547134041786194,
      "2205": 0.9725701212882996,
      "2206": 0.29461437463760376,
      "2207": 1.3245058059692383,
      "2208": -1.6795217990875244,
      "2209": -0.045882295817136765,
      "2210": 0.06119127944111824,
      "2211": -0.02396676130592823,
      "2212": 0.04902341216802597,
      "2213": -0.03840621933341026,
      "2214": 0.07936669886112213,
      "2215": 0.015389918349683285,
      "2216": -0.00910760648548603,
      "2217": -0.031974226236343384,
      "2218": 0.06635057181119919,
      "2219": -0.012863253243267536,
      "2220": 0.009027786552906036,
      "2221": 0.06591878831386566,
      "2222": -0.0699809193611145,
      "2223": 0.06968136131763458,
      "2224": -0.0431322380900383,
      "2225": -0.05060224607586861,
      "2226": -0.06586258113384247,
      "2227": -0.052572667598724365,
      "2228": 0.01868641935288906,
      "2229": 0.07119669020175934,
      "2230": 0.07002429664134979,
      "2231": 0.01773911528289318,
      "2232": 0.012754034250974655,
      "2233": 0.01617756113409996,
      "2234": 0.04685424640774727,
      "2235": 0.004843315575271845,
      "2236": -0.0730920135974884,
      "2237": -0.05078573897480965,
      "2238": 0.044314637780189514,
      "2239": 0.05557212606072426,
      "2240": 0.04190468788146973,
      "2241": 0.06616435945034027,
      "2242": 0.0168783999979496,
      "2243": -0.07333586364984512,
      "2244": -0.014524653553962708,
      "2245": 0.0063707116059958935,
      "2246": 0.03761007636785507,
      "2247": 0.07937142997980118,
      "2248": 0.06009557843208313,
      "2249": 0.015480009838938713,
      "2250": 0.04383055120706558,
      "2251": 0.07931028306484222,
      "2252": -0.007882695645093918,
      "2253": -0.02727195806801319,
      "2254": -0.025405846536159515,
      "2255": 0.07144885510206223
    }
  },
  "hiddenLayers": [
    {
      "inputMatrix": {
        "rows": 20,
        "columns": 47,
        "weights": {
          "0": -0.26336559653282166,
          "1": 0.4548514187335968,
          "2": 0.8653398156166077,
          "3": -0.5886135101318359,
          "4": -0.35752713680267334,
          "5": 0.5952462553977966,
          "6": -0.9263853430747986,
          "7": 0.14970923960208893,
          "8": -0.8211201429367065,
          "9": 0.7624412775039673,
          "10": 1.417617678642273,
          "11": 0.3944762945175171,
          "12": -0.03789898753166199,
          "13": 1.5946829319000244,
          "14": 0.9065325260162354,
          "15": -0.5241446495056152,
          "16": -0.9430694580078125,
          "17": 0.33620986342430115,
          "18": -2.805163860321045,
          "19": 1.1189584732055664,
          "20": 0.5002907514572144,
          "21": -0.7114703059196472,
          "22": 0.9201939105987549,
          "23": 0.39120882749557495,
          "24": 0.12910616397857666,
          "25": -0.40157759189605713,
          "26": 0.05645744130015373,
          "27": -1.937263011932373,
          "28": 0.04016852751374245,
          "29": -0.4334145188331604,
          "30": -0.3223729431629181,
          "31": -0.20176184177398682,
          "32": -0.4936050772666931,
          "33": 0.052123911678791046,
          "34": 0.7200356721878052,
          "35": -0.6156322360038757,
          "36": 0.7312493920326233,
          "37": -0.30825987458229065,
          "38": 1.0992869138717651,
          "39": 0.5711777806282043,
          "40": 0.016506822779774666,
          "41": 0.7301790118217468,
          "42": -0.5937957167625427,
          "43": -0.26339033246040344,
          "44": -0.9862695336341858,
          "45": 2.2639520168304443,
          "46": -0.7262049913406372,
          "47": -0.12738214433193207,
          "48": -0.3732776343822479,
          "49": 0.9638181328773499,
          "50": 0.9551815390586853,
          "51": 0.1987752616405487,
          "52": -1.2562898397445679,
          "53": -0.9956187605857849,
          "54": -0.3791689872741699,
          "55": 0.3965088129043579,
          "56": 0.4140465557575226,
          "57": 1.3982398509979248,
          "58": 0.29012203216552734,
          "59": 0.7087130546569824,
          "60": 1.3747848272323608,
          "61": 0.43584734201431274,
          "62": -0.1503455638885498,
          "63": -1.1150048971176147,
          "64": 0.5036195516586304,
          "65": -1.6052287817001343,
          "66": -1.2625608444213867,
          "67": 0.9161291122436523,
          "68": 0.6934438943862915,
          "69": 0.17913563549518585,
          "70": 1.433796763420105,
          "71": 0.5316364765167236,
          "72": 0.05553605407476425,
          "73": -0.06017998978495598,
          "74": 0.13156718015670776,
          "75": 0.5665733218193054,
          "76": -0.7722521424293518,
          "77": 0.4840816259384155,
          "78": 0.5926486253738403,
          "79": 1.2813477516174316,
          "80": 0.7805481553077698,
          "81": 0.856456995010376,
          "82": -1.0970041751861572,
          "83": 1.123544692993164,
          "84": -0.5640493631362915,
          "85": -0.22060920298099518,
          "86": -0.34303274750709534,
          "87": 0.08388333767652512,
          "88": -0.5727359056472778,
          "89": -0.7896817326545715,
          "90": -0.780720055103302,
          "91": -0.6857910752296448,
          "92": -0.35448241233825684,
          "93": 0.5704814195632935,
          "94": -0.5695258975028992,
          "95": -0.4600045680999756,
          "96": 0.8308795690536499,
          "97": 0.5310088396072388,
          "98": -1.4532471895217896,
          "99": -1.1098552942276,
          "100": -1.0151599645614624,
          "101": -0.18101030588150024,
          "102": 1.093170166015625,
          "103": -0.32210248708724976,
          "104": 1.0410962104797363,
          "105": 1.1507407426834106,
          "106": 0.2859601378440857,
          "107": 0.8588347434997559,
          "108": 0.3320506513118744,
          "109": -0.08617489039897919,
          "110": -1.6126538515090942,
          "111": 0.3229424059391022,
          "112": 0.26149535179138184,
          "113": -0.693376362323761,
          "114": 0.9118791818618774,
          "115": -0.49367082118988037,
          "116": -0.3428148925304413,
          "117": 0.8118350505828857,
          "118": 0.4987846910953522,
          "119": 0.7305376529693604,
          "120": 0.7426596283912659,
          "121": 1.0549360513687134,
          "122": 1.262407898902893,
          "123": -0.6794717907905579,
          "124": -0.17757783830165863,
          "125": 0.17556898295879364,
          "126": 0.09765173494815826,
          "127": 1.212405800819397,
          "128": 0.07143299281597137,
          "129": -0.21965685486793518,
          "130": 1.272474765777588,
          "131": -1.4558045864105225,
          "132": 1.1295970678329468,
          "133": -1.572960376739502,
          "134": 0.2047439068555832,
          "135": -0.7267258167266846,
          "136": -1.034645915031433,
          "137": -0.26281002163887024,
          "138": -0.9041702151298523,
          "139": 0.7058523893356323,
          "140": 1.005225419998169,
          "141": 0.2822645306587219,
          "142": 0.6804763674736023,
          "143": -0.36893323063850403,
          "144": 0.33372414112091064,
          "145": -0.6057393550872803,
          "146": -0.6265363097190857,
          "147": 0.7033160328865051,
          "148": 0.27056920528411865,
          "149": -1.0392364263534546,
          "150": 0.5109423398971558,
          "151": 0.2959953844547272,
          "152": 0.8355635404586792,
          "153": 0.9187303185462952,
          "154": 0.3924214541912079,
          "155": 0.5074552297592163,
          "156": 0.435047447681427,
          "157": 0.7799355983734131,
          "158": 0.7756078243255615,
          "159": 0.9299379587173462,
          "160": -1.6119742393493652,
          "161": 1.220537781715393,
          "162": -0.13501232862472534,
          "163": 1.6626815795898438,
          "164": 1.5226223468780518,
          "165": 1.5037453174591064,
          "166": -0.9168268442153931,
          "167": 0.24981939792633057,
          "168": 0.01807606779038906,
          "169": 1.4428874254226685,
          "170": -1.6026737689971924,
          "171": 0.8928489089012146,
          "172": 0.783267080783844,
          "173": 0.6376519203186035,
          "174": -0.2263677567243576,
          "175": -0.0369032584130764,
          "176": 0.12307368963956833,
          "177": 0.6346725225448608,
          "178": -1.2062759399414062,
          "179": 1.2740129232406616,
          "180": 1.0387533903121948,
          "181": -1.1326119899749756,
          "182": 0.4484817385673523,
          "183": -1.5010145902633667,
          "184": -0.7919092774391174,
          "185": 0.028113417327404022,
          "186": -0.3210148513317108,
          "187": -0.8006725907325745,
          "188": -0.1949891448020935,
          "189": -0.7579611539840698,
          "190": -0.7538310289382935,
          "191": 0.3881246745586395,
          "192": 1.4114364385604858,
          "193": 0.7028259038925171,
          "194": -0.1437905877828598,
          "195": -1.0952109098434448,
          "196": 0.9637413024902344,
          "197": -0.7976478934288025,
          "198": -0.22171305119991302,
          "199": -0.645615816116333,
          "200": -0.0022451982367783785,
          "201": 0.32437750697135925,
          "202": -1.0541248321533203,
          "203": 0.5974960327148438,
          "204": 0.33641883730888367,
          "205": 0.21261027455329895,
          "206": 2.544456720352173,
          "207": 0.844468891620636,
          "208": -0.6690714955329895,
          "209": 0.18751704692840576,
          "210": 0.5102849006652832,
          "211": -1.0358213186264038,
          "212": -0.6433660984039307,
          "213": 0.5178595781326294,
          "214": -0.5306747555732727,
          "215": 1.1792666912078857,
          "216": -1.5134621858596802,
          "217": 1.7901808023452759,
          "218": 0.7052148580551147,
          "219": -1.0509397983551025,
          "220": -0.28952616453170776,
          "221": 0.34608298540115356,
          "222": -1.023034930229187,
          "223": 0.5329602956771851,
          "224": 0.16416770219802856,
          "225": 0.6582627296447754,
          "226": -0.15853983163833618,
          "227": -1.455812692642212,
          "228": -0.09569402784109116,
          "229": -0.06944144517183304,
          "230": 0.011367102153599262,
          "231": 0.42998433113098145,
          "232": 0.9132688045501709,
          "233": -1.0240768194198608,
          "234": 0.9074136018753052,
          "235": 0.33055579662323,
          "236": 0.13829021155834198,
          "237": 2.243755340576172,
          "238": 1.2795758247375488,
          "239": -0.11240556836128235,
          "240": -1.6304774284362793,
          "241": -1.7566322088241577,
          "242": 0.04805118963122368,
          "243": -0.15949217975139618,
          "244": 1.6109973192214966,
          "245": 0.802433967590332,
          "246": 0.511723518371582,
          "247": 0.8007286787033081,
          "248": 0.2664128243923187,
          "249": 1.1453862190246582,
          "250": 0.233089879155159,
          "251": -0.9555992484092712,
          "252": 0.29131922125816345,
          "253": -1.1840893030166626,
          "254": -0.7494487762451172,
          "255": 0.10946734994649887,
          "256": -0.06441589444875717,
          "257": -0.33733758330345154,
          "258": 0.5426270961761475,
          "259": -0.21366792917251587,
          "260": 0.14247313141822815,
          "261": 0.5738789439201355,
          "262": 0.04465797543525696,
          "263": 1.1685823202133179,
          "264": -0.17133739590644836,
          "265": -1.6438487768173218,
          "266": 1.9021921157836914,
          "267": 1.283281683921814,
          "268": 0.22219610214233398,
          "269": 1.8680591583251953,
          "270": -1.9313137531280518,
          "271": 1.341714859008789,
          "272": -0.4686897099018097,
          "273": 0.19867447018623352,
          "274": 0.5743224024772644,
          "275": -0.25190427899360657,
          "276": -1.3075522184371948,
          "277": -1.0731321573257446,
          "278": -1.21159029006958,
          "279": -1.9363162517547607,
          "280": 0.615155816078186,
          "281": -0.29593372344970703,
          "282": 0.5216361284255981,
          "283": 0.2821294963359833,
          "284": 1.0847725868225098,
          "285": 0.8647697567939758,
          "286": 0.26341843605041504,
          "287": -0.6257480382919312,
          "288": -0.662064254283905,
          "289": -0.29049453139305115,
          "290": 0.019262975081801414,
          "291": 1.407419204711914,
          "292": 1.4808863401412964,
          "293": 0.2071579247713089,
          "294": 1.035637378692627,
          "295": 1.6723212003707886,
          "296": 0.41701367497444153,
          "297": -0.03121020831167698,
          "298": -0.21252448856830597,
          "299": 0.5302601456642151,
          "300": -0.17266979813575745,
          "301": -0.3301166892051697,
          "302": 0.48467308282852173,
          "303": -0.4841443598270416,
          "304": -1.779586672782898,
          "305": -0.27433374524116516,
          "306": -0.3683862090110779,
          "307": 0.6368763446807861,
          "308": 0.31869691610336304,
          "309": -1.0159952640533447,
          "310": 0.605146050453186,
          "311": 0.3870554268360138,
          "312": -1.6873077154159546,
          "313": 1.1208908557891846,
          "314": 0.6925787329673767,
          "315": 0.3483964502811432,
          "316": 0.4255264401435852,
          "317": -0.055524881929159164,
          "318": 0.6137920022010803,
          "319": 0.2609727382659912,
          "320": -0.9267475605010986,
          "321": 0.22315526008605957,
          "322": -0.7225267291069031,
          "323": -0.9008080959320068,
          "324": -0.40854406356811523,
          "325": -0.9349177479743958,
          "326": -1.2540850639343262,
          "327": 1.3713901042938232,
          "328": -0.0817025750875473,
          "329": 0.3014679253101349,
          "330": -0.6526443958282471,
          "331": 0.4199956953525543,
          "332": 0.7548940777778625,
          "333": -0.16117852926254272,
          "334": -1.321920394897461,
          "335": -0.5885003805160522,
          "336": 0.18320997059345245,
          "337": 0.08542262017726898,
          "338": 0.6863738894462585,
          "339": 0.10546758770942688,
          "340": 0.9726040959358215,
          "341": 0.3230920433998108,
          "342": -0.8599041104316711,
          "343": 1.1872807741165161,
          "344": -0.1352841556072235,
          "345": -0.9456871151924133,
          "346": 1.1979405879974365,
          "347": -0.026370819658041,
          "348": -0.6296073198318481,
          "349": 0.20417770743370056,
          "350": -0.6545634865760803,
          "351": 0.545810341835022,
          "352": 1.3777215480804443,
          "353": -0.22262834012508392,
          "354": 0.7232831120491028,
          "355": -0.5204348564147949,
          "356": 0.6763559579849243,
          "357": 1.2071595191955566,
          "358": -1.9722784757614136,
          "359": -0.042146213352680206,
          "360": 1.3912159204483032,
          "361": 0.5908133387565613,
          "362": 0.45459821820259094,
          "363": 1.209702968597412,
          "364": -0.6492949724197388,
          "365": -0.013282086700201035,
          "366": -0.5859715342521667,
          "367": 1.4917155504226685,
          "368": -0.3453114330768585,
          "369": 1.0889180898666382,
          "370": -0.5038998126983643,
          "371": -0.24635572731494904,
          "372": -0.8261501789093018,
          "373": -0.8776752352714539,
          "374": 0.14005610346794128,
          "375": 0.6820709109306335,
          "376": 0.765364408493042,
          "377": 0.22147879004478455,
          "378": -0.550272524356842,
          "379": 0.3784048557281494,
          "380": -0.6485801339149475,
          "381": 0.21356262266635895,
          "382": 0.7697815299034119,
          "383": -0.19757843017578125,
          "384": 0.4001220166683197,
          "385": -0.10076840966939926,
          "386": 0.15344072878360748,
          "387": 0.36121439933776855,
          "388": 0.622308075428009,
          "389": 0.12362776696681976,
          "390": -0.1975104659795761,
          "391": 0.5506651997566223,
          "392": 0.8072920441627502,
          "393": 0.787888765335083,
          "394": 2.256382703781128,
          "395": -1.4941343069076538,
          "396": 0.6865787506103516,
          "397": -0.12834545969963074,
          "398": -0.3937177062034607,
          "399": -0.48506948351860046,
          "400": -0.23225848376750946,
          "401": -0.08785668760538101,
          "402": 0.6755783557891846,
          "403": 1.5410914421081543,
          "404": 0.4717360734939575,
          "405": 0.6231319904327393,
          "406": -0.1998443901538849,
          "407": -0.6380951404571533,
          "408": 0.19062800705432892,
          "409": -0.39764246344566345,
          "410": -1.092442512512207,
          "411": 0.8662201166152954,
          "412": 0.6309819221496582,
          "413": -0.13161663711071014,
          "414": 1.0280797481536865,
          "415": -0.20147617161273956,
          "416": -0.7109521627426147,
          "417": -0.03447948768734932,
          "418": -0.7540961503982544,
          "419": 0.3611038625240326,
          "420": 0.309646874666214,
          "421": -2.2258925437927246,
          "422": 0.27660050988197327,
          "423": 0.2849181294441223,
          "424": 0.0016174714546650648,
          "425": 2.1626503467559814,
          "426": 1.0141096115112305,
          "427": -0.41790148615837097,
          "428": -0.5861268043518066,
          "429": -1.2903953790664673,
          "430": -1.6338880062103271,
          "431": -0.5148647427558899,
          "432": 0.6333119869232178,
          "433": 1.5163469314575195,
          "434": 0.7023442983627319,
          "435": 0.2698515057563782,
          "436": -0.1835959255695343,
          "437": -0.08818384259939194,
          "438": -0.17602962255477905,
          "439": -0.6239191293716431,
          "440": 0.9378661513328552,
          "441": -1.0520581007003784,
          "442": -1.145445704460144,
          "443": -0.13656862080097198,
          "444": -0.08915343135595322,
          "445": 0.2693781554698944,
          "446": 0.23194675147533417,
          "447": 0.17382504045963287,
          "448": -1.0521011352539062,
          "449": 0.06604741513729095,
          "450": -1.0526056289672852,
          "451": -0.32927656173706055,
          "452": -0.14079976081848145,
          "453": -1.1531859636306763,
          "454": 0.9994860291481018,
          "455": 0.550402045249939,
          "456": -0.3299955725669861,
          "457": 1.494823694229126,
          "458": -1.982909917831421,
          "459": 1.2947713136672974,
          "460": -0.11889772862195969,
          "461": 0.8674675226211548,
          "462": 0.854370653629303,
          "463": -0.7257808446884155,
          "464": -0.42753636837005615,
          "465": -1.3182590007781982,
          "466": -0.9178043007850647,
          "467": -0.9665948152542114,
          "468": 1.7064906358718872,
          "469": -0.3576156198978424,
          "470": -0.38538646697998047,
          "471": -0.09129322320222855,
          "472": -1.321889877319336,
          "473": -0.4241034686565399,
          "474": 1.0326155424118042,
          "475": 0.7697576284408569,
          "476": 0.4487032890319824,
          "477": -0.8559764623641968,
          "478": 0.569205105304718,
          "479": -0.9399380683898926,
          "480": -0.6371740698814392,
          "481": -0.7841331958770752,
          "482": -0.45017603039741516,
          "483": -0.16562582552433014,
          "484": -1.5086170434951782,
          "485": 0.3784730136394501,
          "486": 0.6392044425010681,
          "487": -0.7853454351425171,
          "488": 2.0549700260162354,
          "489": 1.2332870960235596,
          "490": -0.8575429320335388,
          "491": 0.7855177521705627,
          "492": 0.161824032664299,
          "493": -0.849746823310852,
          "494": -0.3130412995815277,
          "495": 0.05839276313781738,
          "496": -0.3437400460243225,
          "497": 0.5122889876365662,
          "498": -0.6527659296989441,
          "499": 1.2667402029037476,
          "500": 1.3769094944000244,
          "501": -0.7693554759025574,
          "502": -0.07046765089035034,
          "503": -0.5026766657829285,
          "504": -0.6294159889221191,
          "505": 1.1194663047790527,
          "506": -0.9587290287017822,
          "507": 1.0168683528900146,
          "508": -1.5040215253829956,
          "509": -0.6782054901123047,
          "510": -0.30239585041999817,
          "511": 0.21647010743618011,
          "512": 1.2430832386016846,
          "513": 0.5852205157279968,
          "514": 0.8622797131538391,
          "515": -0.8192725777626038,
          "516": 0.4855428636074066,
          "517": 1.1353191137313843,
          "518": -0.18236929178237915,
          "519": -0.12901699542999268,
          "520": -0.01546513382345438,
          "521": -2.0149290561676025,
          "522": -0.3382572531700134,
