{
  "type": "LSTM",
  "options": {
    "inputSize": 70,
    "inputRange": 70,
    "hiddenLayers": [
      20,
      20
    ],
    "outputSize": 70,
    "decayRate": 0.999,
    "smoothEps": 1e-8,
    "regc": 0.000001,
    "clipval": 5,
    "maxPredictionLength": 100,
    "dataFormatter": {
      "values": [
        "Adobe",
        "Appreciate every day",
        "What is the meaning of life?",
        "boston",
        "const [first, second] = [1, 2];",
        "const add = (a, b) => a + b;",
        "const address = user?.address?.city;",
        "const apiKey = process.env.API_KEY;",
        "const defaultValue = someVariable ?? 'default';",
        "const greeting = `Hello, ${name}!`;",
        "const { name, age } = { name: 'John', age: 25 };",
        "copy file into docker container",
        "create Javascript strings with embedded expressions",
        "create a git alias",
        "destructure a Javascript array",
        "destructure a Javascript object",
        "docker cp ./some_file CONTAINER:/work",
        "example of an arrow function in Javascript",
        "example of optional chaining in Javascript",
        "favorite city",
        "favorite cloud",
        "favorite company to work for",
        "favorite food",
        "favorite rock",
        "favorite state",
        "git config --global alias.co checkout",
        "git pull origin --rebase",
        "how to clean node cache",
        "how to rebase in git",
        "how to run nodejs file on command line",
        "how to view all ports being used on mac",
        "igneous",
        "mass",
        "node --experimental-modules src/file.js",
        "npm cache clean --force",
        "pizza",
        "provide a default value if none is defined in Javascript",
        "retrieving an enviroment variable in Javascript",
        "stratus",
        "sudo lsof -iTCP -sTCP:LISTEN -n -P"
      ],
      "indexTable": {
        "1": 27,
        "2": 28,
        "5": 52,
        "A": 0,
        "d": 1,
        "o": 2,
        "b": 3,
        "e": 4,
        "p": 5,
        "r": 6,
        "c": 7,
        "i": 8,
        "a": 9,
        "t": 10,
        " ": 11,
        "v": 12,
        "y": 13,
        "W": 14,
        "h": 15,
        "s": 16,
        "m": 17,
        "n": 18,
        "g": 19,
        "f": 20,
        "l": 21,
        "?": 22,
        "[": 23,
        ",": 24,
        "]": 25,
        "=": 26,
        ";": 29,
        "(": 30,
        ")": 31,
        ">": 32,
        "+": 33,
        "u": 34,
        ".": 35,
        "K": 36,
        "P": 37,
        "I": 38,
        "_": 39,
        "E": 40,
        "Y": 41,
        "V": 42,
        "'": 43,
        "`": 44,
        "H": 45,
        "$": 46,
        "{": 47,
        "}": 48,
        "!": 49,
        ":": 50,
        "J": 51,
        "k": 53,
        "w": 54,
        "x": 55,
        "j": 56,
        "/": 57,
        "C": 58,
        "O": 59,
        "N": 60,
        "T": 61,
        "R": 62,
        "-": 63,
        "z": 64,
        "L": 65,
        "S": 66,
        "stop-input": 67,
        "start-output": 68,
        "unrecognized": 69
      },
      "characterTable": {
        "0": "A",
        "1": "d",
        "2": "o",
        "3": "b",
        "4": "e",
        "5": "p",
        "6": "r",
        "7": "c",
        "8": "i",
        "9": "a",
        "10": "t",
        "11": " ",
        "12": "v",
        "13": "y",
        "14": "W",
        "15": "h",
        "16": "s",
        "17": "m",
        "18": "n",
        "19": "g",
        "20": "f",
        "21": "l",
        "22": "?",
        "23": "[",
        "24": ",",
        "25": "]",
        "26": "=",
        "27": "1",
        "28": "2",
        "29": ";",
        "30": "(",
        "31": ")",
        "32": ">",
        "33": "+",
        "34": "u",
        "35": ".",
        "36": "K",
        "37": "P",
        "38": "I",
        "39": "_",
        "40": "E",
        "41": "Y",
        "42": "V",
        "43": "'",
        "44": "`",
        "45": "H",
        "46": "$",
        "47": "{",
        "48": "}",
        "49": "!",
        "50": ":",
        "51": "J",
        "52": "5",
        "53": "k",
        "54": "w",
        "55": "x",
        "56": "j",
        "57": "/",
        "58": "C",
        "59": "O",
        "60": "N",
        "61": "T",
        "62": "R",
        "63": "-",
        "64": "z",
        "65": "L",
        "66": "S",
        "67": null,
        "68": null,
        "69": null
      },
      "characters": [
        "A",
        "d",
        "o",
        "b",
        "e",
        "p",
        "r",
        "c",
        "i",
        "a",
        "t",
        " ",
        "v",
        "y",
        "W",
        "h",
        "s",
        "m",
        "n",
        "g",
        "f",
        "l",
        "?",
        "[",
        ",",
        "]",
        "=",
        "1",
        "2",
        ";",
        "(",
        ")",
        ">",
        "+",
        "u",
        ".",
        "K",
        "P",
        "I",
        "_",
        "E",
        "Y",
        "V",
        "'",
        "`",
        "H",
        "$",
        "{",
        "}",
        "!",
        ":",
        "J",
        "5",
        "k",
        "w",
        "x",
        "j",
        "/",
        "C",
        "O",
        "N",
        "T",
        "R",
        "-",
        "z",
        "L",
        "S",
        "stop-input",
        "start-output",
        "unrecognized"
      ],
      "specialIndexes": [
        67,
        68,
        69
      ]
    }
  },
  "input": {
    "rows": 71,
    "columns": 70,
    "weights": {
      "0": 0.7322902083396912,
      "1": -0.578682541847229,
      "2": 0.5584574341773987,
      "3": -1.2665832042694092,
      "4": 1.1628422737121582,
      "5": 2.473396062850952,
      "6": -2.3926756381988525,
      "7": -0.6496276259422302,
      "8": -0.601901650428772,
      "9": -0.20224255323410034,
      "10": 3.882483959197998,
      "11": -1.3219974040985107,
      "12": 1.8923720121383667,
      "13": 0.035438280552625656,
      "14": -3.472421169281006,
      "15": -0.09745665639638901,
      "16": 1.954764723777771,
      "17": 1.504225492477417,
      "18": -0.1669604331254959,
      "19": 1.5800808668136597,
      "20": 0.7054175138473511,
      "21": 1.6092662811279297,
      "22": -2.6145222187042236,
      "23": 0.28171589970588684,
      "24": -1.7216296195983887,
      "25": 0.5519989132881165,
      "26": -0.13530302047729492,
      "27": 0.039298757910728455,
      "28": -0.8084781169891357,
      "29": -0.31740063428878784,
      "30": 3.633923053741455,
      "31": 1.4141173362731934,
      "32": 0.1872142255306244,
      "33": -0.8037298917770386,
      "34": 1.878082513809204,
      "35": 0.6951141357421875,
      "36": 0.5135685801506042,
      "37": 1.0983052253723145,
      "38": 0.22899046540260315,
      "39": -3.123999834060669,
      "40": 0.8396618962287903,
      "41": -0.6073610186576843,
      "42": 0.6069486737251282,
      "43": 0.9068934321403503,
      "44": -0.823632538318634,
      "45": 0.4295853078365326,
      "46": 0.5525016784667969,
      "47": -0.7802509665489197,
      "48": -2.745612621307373,
      "49": -0.006612814497202635,
      "50": 0.4960954487323761,
      "51": 1.4320597648620605,
      "52": 1.1132774353027344,
      "53": 2.62461256980896,
      "54": -1.0045806169509888,
      "55": 2.1224417686462402,
      "56": 1.5483061075210571,
      "57": 1.1659636497497559,
      "58": 0.15225236117839813,
      "59": -3.4492909908294678,
      "60": 2.797781229019165,
      "61": -0.34571123123168945,
      "62": 0.8337283134460449,
      "63": -4.200904846191406,
      "64": -0.4636307656764984,
      "65": -0.42992517352104187,
      "66": -1.356460690498352,
      "67": -1.026071310043335,
      "68": -0.6707565188407898,
      "69": -4.347438812255859,
      "70": -2.4103617668151855,
      "71": -6.134664058685303,
      "72": 0.41076046228408813,
      "73": 5.841914176940918,
      "74": 5.123605728149414,
      "75": -5.2770586013793945,
      "76": -0.9725313782691956,
      "77": -2.5264194011688232,
      "78": -0.11043477803468704,
      "79": 2.0083611011505127,
      "80": -3.7149367332458496,
      "81": 1.2005974054336548,
      "82": -4.3306193351745605,
      "83": 4.354517936706543,
      "84": 5.148094654083252,
      "85": 4.8012261390686035,
      "86": -2.9153451919555664,
      "87": -2.4380273818969727,
      "88": -0.5797298550605774,
      "89": -8.662606239318848,
      "90": 1.9007468223571777,
      "91": 1.9269191026687622,
      "92": 1.8425689935684204,
      "93": -2.415285110473633,
      "94": -0.5714161396026611,
      "95": 3.5621466636657715,
      "96": -1.037143588066101,
      "97": -3.7164604663848877,
      "98": 8.26478385925293,
      "99": 4.569510459899902,
      "100": 0.9636304378509521,
      "101": 3.767165184020996,
      "102": -6.066190242767334,
      "103": 2.3537189960479736,
      "104": -0.965836763381958,
      "105": 1.8103201389312744,
      "106": 0.09476339817047119,
      "107": -6.540062427520752,
      "108": 0.4690362513065338,
      "109": 6.520021915435791,
      "110": 0.9081558585166931,
      "111": -5.001578330993652,
      "112": -0.18221627175807953,
      "113": 3.7170205116271973,
      "114": -2.9530251026153564,
      "115": -4.122060775756836,
      "116": -4.288374900817871,
      "117": 2.0134708881378174,
      "118": 3.9598469734191895,
      "119": -3.7504818439483643,
      "120": 2.939378023147583,
      "121": 5.280113220214844,
      "122": -4.871037483215332,
      "123": 2.94561767578125,
      "124": -2.3698043823242188,
      "125": 1.7454895973205566,
      "126": 1.6004823446273804,
      "127": 3.758342981338501,
      "128": -3.7347490787506104,
      "129": 4.473862648010254,
      "130": -4.986810684204102,
      "131": -3.975724220275879,
      "132": -7.078346252441406,
      "133": 1.2740626335144043,
      "134": 0.0681266263127327,
      "135": -2.750913381576538,
      "136": 3.254175901412964,
      "137": 5.026438236236572,
      "138": 2.0115363597869873,
      "139": 5.490083694458008,
      "140": 0.0784638449549675,
      "141": -3.9991416931152344,
      "142": 0.8219532370567322,
      "143": 3.185619592666626,
      "144": 4.431026935577393,
      "145": -0.5313674807548523,
      "146": -2.204131841659546,
      "147": 1.947707176208496,
      "148": -1.4247841835021973,
      "149": -3.9547810554504395,
      "150": 2.3856239318847656,
      "151": 1.94773268699646,
      "152": -1.8424625396728516,
      "153": -2.2406435012817383,
      "154": 0.4257064759731293,
      "155": -0.09858977049589157,
      "156": 8.085400581359863,
      "157": 1.4598231315612793,
      "158": -1.2567870616912842,
      "159": 4.111765384674072,
      "160": -0.19809632003307343,
      "161": -3.6510629653930664,
      "162": 2.971461772918701,
      "163": -0.9323818683624268,
      "164": 2.935037612915039,
      "165": -4.748132705688477,
      "166": -6.542730331420898,
      "167": -2.7757787704467773,
      "168": 1.2962419986724854,
      "169": -0.3665456473827362,
      "170": -1.0375937223434448,
      "171": 1.0644506216049194,
      "172": 2.935272455215454,
      "173": -5.812919616699219,
      "174": 3.619926691055298,
      "175": 0.8603954911231995,
      "176": 4.0814313888549805,
      "177": -2.87511944770813,
      "178": -4.013844013214111,
      "179": -1.31808340549469,
      "180": -5.455104351043701,
      "181": -1.3905647993087769,
      "182": 5.5997748374938965,
      "183": 1.0674265623092651,
      "184": 5.816715240478516,
      "185": -0.9560715556144714,
      "186": 2.683067560195923,
      "187": -1.222434639930725,
      "188": 0.30910053849220276,
      "189": 1.4118698835372925,
      "190": -4.131292343139648,
      "191": 2.798480749130249,
      "192": -0.44552457332611084,
      "193": -2.000868797302246,
      "194": -4.74888801574707,
      "195": 1.0645686388015747,
      "196": 2.2687480449676514,
      "197": 0.6124204397201538,
      "198": 5.366374492645264,
      "199": -0.18838292360305786,
      "200": -1.69794762134552,
      "201": -0.9310307502746582,
      "202": 2.9657785892486572,
      "203": 1.613311529159546,
      "204": -3.202183485031128,
      "205": -1.961135983467102,
      "206": -3.2154746055603027,
      "207": -0.23404784500598907,
      "208": 2.385864734649658,
      "209": -0.618914783000946,
      "210": 6.504420280456543,
      "211": -2.9998939037323,
      "212": 0.31942832469940186,
      "213": -1.8830727338790894,
      "214": 2.61164927482605,
      "215": 2.503540277481079,
      "216": 5.5931172370910645,
      "217": 0.5567741394042969,
      "218": -0.02079189196228981,
      "219": 2.6220433712005615,
      "220": -2.188030242919922,
      "221": 0.988222599029541,
      "222": -1.6149616241455078,
      "223": 1.87042236328125,
      "224": -0.46493175625801086,
      "225": -3.130903482437134,
      "226": -1.938509464263916,
      "227": 0.061344217509031296,
      "228": 0.6245210766792297,
      "229": 0.625927746295929,
      "230": 0.15172575414180756,
      "231": 0.4901438057422638,
      "232": -1.0680242776870728,
      "233": -3.418152093887329,
      "234": -1.929842233657837,
      "235": -3.842244863510132,
      "236": -0.7281377911567688,
      "237": -2.34770131111145,
      "238": -0.5609831809997559,
      "239": 0.2075730413198471,
      "240": 0.9846261739730835,
      "241": -4.764506816864014,
      "242": -1.6821966171264648,
      "243": -0.5604711174964905,
      "244": 0.8458489179611206,
      "245": -0.7123519778251648,
      "246": 5.103148937225342,
      "247": 0.541958212852478,
      "248": -2.4241726398468018,
      "249": 0.6771054863929749,
      "250": 0.2851124405860901,
      "251": 3.01118540763855,
      "252": 0.8702694177627563,
      "253": -0.15181946754455566,
      "254": 1.452897548675537,
      "255": -1.8856059312820435,
      "256": -0.061273738741874695,
      "257": 6.090318202972412,
      "258": -0.15822672843933105,
      "259": 1.0672858953475952,
      "260": -0.9936677813529968,
      "261": 2.4751574993133545,
      "262": -1.8685723543167114,
      "263": 1.0257428884506226,
      "264": -3.0692124366760254,
      "265": 0.32090944051742554,
      "266": -2.330143451690674,
      "267": -6.813812255859375,
      "268": -1.064420461654663,
      "269": -0.6417084336280823,
      "270": -3.2053236961364746,
      "271": -2.0115535259246826,
      "272": -1.5556038618087769,
      "273": 2.4900574684143066,
      "274": -1.8691904544830322,
      "275": -1.8387422561645508,
      "276": 0.5308889150619507,
      "277": 0.26986435055732727,
      "278": 0.14947368204593658,
      "279": -1.7593404054641724,
      "280": -3.118746519088745,
      "281": -0.6719726324081421,
      "282": 0.78562331199646,
      "283": -0.7713688611984253,
      "284": -5.162403583526611,
      "285": -1.072548508644104,
      "286": -0.6053525805473328,
      "287": 1.7708032131195068,
      "288": 4.779478073120117,
      "289": 8.507848739624023,
      "290": 2.7065505981445312,
      "291": -1.8417929410934448,
      "292": 0.6711605787277222,
      "293": 4.43598747253418,
      "294": 2.924752712249756,
      "295": 1.9422292709350586,
      "296": -2.9462342262268066,
      "297": -3.291553258895874,
      "298": 0.8361330628395081,
      "299": -4.217184066772461,
      "300": 2.265653133392334,
      "301": 3.0453929901123047,
      "302": -2.280573606491089,
      "303": -5.366769790649414,
      "304": -2.485518455505371,
      "305": 1.180199146270752,
      "306": 2.4517576694488525,
      "307": 5.598194122314453,
      "308": -0.13619500398635864,
      "309": 3.755343198776245,
      "310": 4.929864406585693,
      "311": -0.1980125457048416,
      "312": -1.2563990354537964,
      "313": -2.0752480030059814,
      "314": 3.242523670196533,
      "315": -3.3226730823516846,
      "316": -1.5847059488296509,
      "317": 0.02724272385239601,
      "318": 4.158016681671143,
      "319": -1.541258692741394,
      "320": 2.7456812858581543,
      "321": 1.0318806171417236,
      "322": -3.1083106994628906,
      "323": 4.8183722496032715,
      "324": -2.743220806121826,
      "325": -1.9776662588119507,
      "326": -1.8836899995803833,
      "327": -3.338073968887329,
      "328": -2.7633700370788574,
      "329": 2.5656943321228027,
      "330": 1.5427725315093994,
      "331": -1.6497116088867188,
      "332": -4.816530704498291,
      "333": 2.018305778503418,
      "334": 2.6019434928894043,
      "335": -0.729245662689209,
      "336": 2.216566801071167,
      "337": 2.216480255126953,
      "338": 0.2704871594905853,
      "339": 2.5441246032714844,
      "340": -4.1743903160095215,
      "341": 4.961070537567139,
      "342": -2.6063597202301025,
      "343": -2.436239242553711,
      "344": -3.582566976547241,
      "345": -3.3227972984313965,
      "346": 1.983704924583435,
      "347": -5.485876560211182,
      "348": 5.30280876159668,
      "349": -1.3785128593444824,
      "350": -3.1821770668029785,
      "351": 0.9665718674659729,
      "352": -5.75050687789917,
      "353": -0.6429629921913147,
      "354": -0.9728066921234131,
      "355": 3.3973822593688965,
      "356": 3.7627243995666504,
      "357": 3.6703667640686035,
      "358": -3.0418286323547363,
      "359": -2.8072614669799805,
      "360": -4.130672454833984,
      "361": 0.3673572242259979,
      "362": -3.213334083557129,
      "363": 2.661587715148926,
      "364": 3.0824694633483887,
      "365": -5.913297653198242,
      "366": -2.8012871742248535,
      "367": -1.6544259786605835,
      "368": -0.8624823093414307,
      "369": 1.6384252309799194,
      "370": -0.32063642144203186,
      "371": -0.06751246005296707,
      "372": 0.8560908436775208,
      "373": 0.2480068802833557,
      "374": -3.8356783390045166,
      "375": -0.9754216074943542,
      "376": 3.058903217315674,
      "377": -1.6577898263931274,
      "378": 2.2413101196289062,
      "379": -1.1472883224487305,
      "380": -0.5526049137115479,
      "381": -2.349691390991211,
      "382": -1.6388099193572998,
      "383": 1.360090732574463,
      "384": -0.17539900541305542,
      "385": -0.8579263091087341,
      "386": -1.2352769374847412,
      "387": 0.39232727885246277,
      "388": 1.4993129968643188,
      "389": 5.545127868652344,
      "390": 3.595116138458252,
      "391": 1.5120770931243896,
      "392": -2.578853130340576,
      "393": -4.984718322753906,
      "394": -1.19448721408844,
      "395": -0.1595154106616974,
      "396": -1.3168292045593262,
      "397": 0.14147362112998962,
      "398": 1.6435184478759766,
      "399": -0.18543767929077148,
      "400": 0.592383861541748,
      "401": -1.0218334197998047,
      "402": -0.6878951787948608,
      "403": -0.6046032905578613,
      "404": -1.0398494005203247,
      "405": -1.9319205284118652,
      "406": -1.69297456741333,
      "407": -1.3504114151000977,
      "408": -1.6941249370574951,
      "409": 3.50319242477417,
      "410": -0.8509821891784668,
      "411": 2.5889194011688232,
      "412": -0.7033042311668396,
      "413": 0.19518354535102844,
      "414": 1.1496645212173462,
      "415": -1.0764535665512085,
      "416": -0.31043481826782227,
      "417": 4.376359939575195,
      "418": 0.8865498304367065,
      "419": 2.3173553943634033,
      "420": 0.424058735370636,
      "421": -3.071312189102173,
      "422": -2.1140177249908447,
      "423": 3.6381633281707764,
      "424": 3.7189788818359375,
      "425": -7.757491588592529,
      "426": 0.22692133486270905,
      "427": -3.739053249359131,
      "428": -2.3553361892700195,
      "429": -2.068619728088379,
      "430": 1.572638750076294,
      "431": -3.452641487121582,
      "432": -2.48228120803833,
      "433": -0.9298089742660522,
      "434": 0.9416620135307312,
      "435": 1.3405715227127075,
      "436": 0.8122813701629639,
      "437": -4.332698822021484,
      "438": -1.7014566659927368,
      "439": -5.083956241607666,
      "440": 0.4184914827346802,
      "441": 2.056978940963745,
      "442": -2.5351877212524414,
      "443": -0.9741243124008179,
      "444": 0.4390651285648346,
      "445": 3.3796777725219727,
      "446": 0.45381391048431396,
      "447": -0.22999998927116394,
      "448": 2.2231736183166504,
      "449": 3.8645708560943604,
      "450": -0.8311881422996521,
      "451": -0.08807497471570969,
      "452": -2.325746774673462,
      "453": -0.5862546563148499,
      "454": -2.233536958694458,
      "455": -1.2172741889953613,
      "456": -0.9435884356498718,
      "457": 0.23811444640159607,
      "458": -0.0321294330060482,
      "459": 4.870479583740234,
      "460": -4.421854019165039,
      "461": -3.256775379180908,
      "462": -0.6658422946929932,
      "463": 0.9159101843833923,
      "464": 0.04018104448914528,
      "465": -1.5965492725372314,
      "466": -4.904294967651367,
      "467": -0.904024064540863,
      "468": 0.5938748717308044,
      "469": -5.87548303604126,
      "470": -0.05139979347586632,
      "471": -0.9158884882926941,
      "472": -0.489261269569397,
      "473": -0.7277826070785522,
      "474": -1.1404623985290527,
      "475": -3.6480953693389893,
      "476": -0.014662687666714191,
      "477": 3.939138412475586,
      "478": 1.8472901582717896,
      "479": 5.969963073730469,
      "480": 0.27597880363464355,
      "481": -2.583984136581421,
      "482": -3.1394174098968506,
      "483": -0.5244259238243103,
      "484": -0.7633753418922424,
      "485": 2.7388622760772705,
      "486": -1.2463207244873047,
      "487": -2.517496347427368,
      "488": 2.26694393157959,
      "489": -0.734495997428894,
      "490": 0.8544961214065552,
      "491": -1.2017797231674194,
      "492": 0.7945626378059387,
      "493": -1.3626266717910767,
      "494": -1.5308544635772705,
      "495": -0.4591781795024872,
      "496": 1.367112398147583,
      "497": 0.4768102467060089,
      "498": 0.7325180172920227,
      "499": 2.6411070823669434,
      "500": -1.7736163139343262,
      "501": 0.027087174355983734,
      "502": 0.43671029806137085,
      "503": -0.775566041469574,
      "504": -0.7027429342269897,
      "505": -0.024567171931266785,
      "506": 0.4664119780063629,
      "507": 1.3127702474594116,
      "508": 1.8311280012130737,
      "509": 1.2623027563095093,
      "510": 0.9226347208023071,
      "511": 1.0309449434280396,
      "512": 0.32743367552757263,
      "513": -1.5826778411865234,
      "514": 1.0586656332015991,
      "515": 0.6541221737861633,
      "516": 0.25912711024284363,
      "517": -0.5765895247459412,
      "518": -0.730140209197998,
      "519": -0.9983258843421936,
      "520": 1.7751579284667969,
      "521": -1.4517451524734497,
      "522": 1.406188726425171,
      "523": 2.3073532581329346,
      "524": -0.7014257311820984,
      "525": -2.1591148376464844,
      "526": -0.5174205303192139,
      "527": 0.432624876499176,
      "528": -1.718639850616455,
      "529": -1.2212550640106201,
      "530": -1.4795382022857666,
      "531": -0.5377624034881592,
      "532": -0.27442243695259094,
      "533": -1.5296502113342285,
      "534": 2.0012104511260986,
      "535": 2.0681874752044678,
      "536": 0.8160911798477173,
      "537": 1.9650603532791138,
      "538": 0.3403235971927643,
      "539": 1.703031301498413,
      "540": 0.2901094853878021,
      "541": 1.0999817848205566,
      "542": -0.946259617805481,
      "543": -0.6559858322143555,
      "544": 3.0643606185913086,
      "545": 0.9179951548576355,
      "546": 0.031395696103572845,
      "547": 0.5183408856391907,
      "548": -0.2815936207771301,
      "549": 0.26047202944755554,
      "550": -1.0937875509262085,
      "551": -0.028628749772906303,
      "552": 0.8898279666900635,
      "553": 0.4328900873661041,
      "554": -1.5499576330184937,
      "555": 3.262932777404785,
      "556": -0.44228440523147583,
      "557": 0.3144885301589966,
      "558": -0.297655314207077,
      "559": -0.7326667904853821,
      "560": 2.7804484367370605,
      "561": 5.675357341766357,
      "562": -4.120574474334717,
      "563": 0.6907892227172852,
      "564": -0.7554792165756226,
      "565": -0.46905219554901123,
      "566": 1.1700533628463745,
      "567": 2.5934507846832275,
      "568": 3.374098777770996,
      "569": 4.371562957763672,
      "570": -0.8475460410118103,
      "571": 0.8383734226226807,
      "572": -3.8606958389282227,
      "573": 1.0828570127487183,
      "574": 1.873634934425354,
      "575": -0.9262785911560059,
      "576": 0.43223750591278076,
      "577": 2.109163761138916,
      "578": 1.9627329111099243,
      "579": 2.4179368019104004,
      "580": -0.9025525450706482,
      "581": 0.1092812791466713,
      "582": 1.0339927673339844,
      "583": -1.024556040763855,
      "584": 3.8676846027374268,
      "585": 0.2341097742319107,
      "586": -1.75638747215271,
      "587": 0.786471962928772,
      "588": -5.123656749725342,
      "589": 0.22085478901863098,
      "590": -0.1647006720304489,
      "591": 2.456782102584839,
      "592": -1.0837353467941284,
      "593": 0.8605059385299683,
      "594": -0.08414025604724884,
      "595": -0.5682733058929443,
      "596": -1.2949302196502686,
      "597": 5.341220378875732,
      "598": 1.9090230464935303,
      "599": 0.3153313398361206,
      "600": 1.7674964666366577,
      "601": 1.4586244821548462,
      "602": -3.7494051456451416,
      "603": 2.6416056156158447,
      "604": -2.02931547164917,
      "605": 1.3638970851898193,
      "606": 1.9908437728881836,
      "607": 0.8266673684120178,
      "608": 2.488727569580078,
      "609": -0.1544511765241623,
      "610": -0.881221354007721,
      "611": -2.7743537425994873,
      "612": -4.545638084411621,
      "613": 1.5593184232711792,
      "614": 1.8379608392715454,
      "615": -2.5977563858032227,
      "616": -5.9189276695251465,
      "617": 0.16607771813869476,
      "618": 0.08943696320056915,
      "619": 0.854039192199707,
      "620": 1.5634804964065552,
      "621": -3.142439365386963,
      "622": -6.208763122558594,
      "623": 1.7936652898788452,
      "624": -3.229389190673828,
      "625": -1.300282597541809,
      "626": 4.15080451965332,
      "627": 0.04736235737800598,
      "628": 0.5441513657569885,
      "629": 5.329526901245117,
      "630": -1.5219192504882812,
      "631": 2.0713887214660645,
      "632": -0.698399543762207,
      "633": -1.5765300989151,
      "634": -2.662411689758301,
      "635": 1.160025954246521,
      "636": -1.4280030727386475,
      "637": 1.2028733491897583,
      "638": 1.2604169845581055,
      "639": -0.9161162376403809,
      "640": 2.1188974380493164,
      "641": -0.3085046708583832,
      "642": 0.6030811667442322,
      "643": 2.162660598754883,
      "644": 0.4548273980617523,
      "645": 2.415834903717041,
      "646": -2.722153902053833,
      "647": -1.2547053098678589,
      "648": 2.1369175910949707,
      "649": -3.9386208057403564,
      "650": 2.655287981033325,
      "651": 1.3243498802185059,
      "652": 2.3241288661956787,
      "653": -2.0046920776367188,
      "654": -1.3019450902938843,
      "655": 3.404451370239258,
      "656": 3.5431952476501465,
      "657": -0.4835957884788513,
      "658": 0.2089693546295166,
      "659": 2.165029287338257,
      "660": 3.923441171646118,
      "661": -2.4672324657440186,
      "662": -3.327332019805908,
      "663": 0.01721814274787903,
      "664": 1.1179269552230835,
      "665": -1.4116827249526978,
      "666": -1.8712103366851807,
      "667": -1.8573262691497803,
      "668": 1.267128348350525,
      "669": -1.0822244882583618,
      "670": 1.0579347610473633,
      "671": -0.16783803701400757,
      "672": -0.9907808899879456,
      "673": 1.849176049232483,
      "674": -1.0311288833618164,
      "675": 0.4662574529647827,
      "676": -1.180457592010498,
      "677": -2.810396671295166,
      "678": -0.41148388385772705,
      "679": -0.0634145438671112,
      "680": 0.2777540683746338,
      "681": -2.8224844932556152,
      "682": 0.5589482188224792,
      "683": 1.2331475019454956,
      "684": 0.19345960021018982,
      "685": 0.5764106512069702,
      "686": 2.285703182220459,
      "687": 2.265254259109497,
      "688": 0.7187861204147339,
      "689": -2.4383864402770996,
      "690": -1.9528024196624756,
      "691": -0.24123907089233398,
      "692": 2.547189950942993,
      "693": -2.3884406089782715,
      "694": 1.6289424896240234,
      "695": -0.026592418551445007,
      "696": -2.070526361465454,
      "697": -0.7907392978668213,
      "698": 2.218789577484131,
      "699": -1.4483205080032349,
      "700": 0.20958411693572998,
      "701": 0.4902254343032837,
      "702": 0.5328109860420227,
      "703": 4.203136444091797,
      "704": 0.24063101410865784,
      "705": -0.792300283908844,
      "706": -1.3804937601089478,
      "707": 0.0871933102607727,
      "708": -2.6073968410491943,
      "709": -4.312678813934326,
      "710": -1.9307279586791992,
      "711": 0.8684580326080322,
      "712": -0.9724026918411255,
      "713": 0.4135624170303345,
      "714": -1.2923728227615356,
      "715": -0.9056512117385864,
      "716": 1.0053614377975464,
      "717": -3.543498992919922,
      "718": -3.2096822261810303,
      "719": -0.9270082116127014,
      "720": 0.6237241625785828,
      "721": 0.8247197270393372,
      "722": 1.4853980541229248,
      "723": 0.5036189556121826,
      "724": -0.5194548964500427,
      "725": -0.13382674753665924,
      "726": -0.5214479565620422,
      "727": -0.6470575332641602,
      "728": 0.9087698459625244,
      "729": 0.36109745502471924,
      "730": 0.07811131328344345,
      "731": 0.4597095251083374,
      "732": -0.8690978288650513,
      "733": -0.6025568246841431,
      "734": 0.9042552709579468,
      "735": 2.7087624073028564,
      "736": -1.8297475576400757,
      "737": -0.6180694699287415,
      "738": 1.8841400146484375,
      "739": 0.001529818749986589,
      "740": 0.07457594573497772,
      "741": 0.3037840723991394,
      "742": 0.1351967751979828,
      "743": -2.613389015197754,
      "744": 0.06359436362981796,
      "745": 0.2443043738603592,
      "746": 1.5454403162002563,
      "747": -0.5076781511306763,
      "748": -0.7756358981132507,
      "749": -2.5833113193511963,
      "750": -0.3879006803035736,
      "751": 0.5215086340904236,
      "752": 1.1402535438537598,
      "753": -0.7420086860656738,
      "754": -1.6312670707702637,
      "755": -1.016294240951538,
      "756": -0.060730062425136566,
      "757": -1.4662541151046753,
      "758": 0.24733121693134308,
      "759": -0.5247373580932617,
      "760": 0.4695390462875366,
      "761": -0.21341939270496368,
      "762": 0.5309476256370544,
      "763": -0.24760933220386505,
      "764": 0.16451968252658844,
      "765": -0.6271955370903015,
      "766": 0.6209394335746765,
      "767": 2.311713457107544,
      "768": 0.7184555530548096,
      "769": 0.6315188407897949,
      "770": 0.4376005232334137,
      "771": -0.4132934808731079,
      "772": 2.7735755443573,
      "773": -0.5580907464027405,
      "774": -0.5700280666351318,
      "775": 0.6398993134498596,
      "776": -2.0791311264038086,
      "777": -0.4686160385608673,
      "778": -5.203917503356934,
      "779": 1.3776664733886719,
      "780": -1.7265896797180176,
      "781": 3.029020309448242,
      "782": -1.404339075088501,
      "783": -1.7370959520339966,
      "784": -3.066448926925659,
      "785": -1.7202881574630737,
      "786": 2.6864123344421387,
      "787": -0.8105997443199158,
      "788": -2.327516555786133,
      "789": 0.5837727785110474,
      "790": -1.0656498670578003,
      "791": -1.1595451831817627,
      "792": 0.34492069482803345,
      "793": -3.2315454483032227,
      "794": -1.5080161094665527,
      "795": -1.7187621593475342,
      "796": -2.729597568511963,
      "797": 2.9900548458099365,
      "798": -0.429116815328598,
      "799": 0.3543632924556732,
      "800": 0.6812497973442078,
      "801": 2.782921314239502,
      "802": 1.5880829095840454,
      "803": 0.5658991932868958,
      "804": 1.9730470180511475,
      "805": 0.8240333199501038,
      "806": -6.88016939163208,
      "807": -1.8647507429122925,
      "808": 4.134454727172852,
      "809": -3.066288948059082,
      "810": -0.2421410232782364,
      "811": 0.8314546942710876,
      "812": 0.46280086040496826,
      "813": -2.101024866104126,
      "814": 2.0292701721191406,
      "815": -0.9073784947395325,
      "816": 0.09603842347860336,
      "817": 1.821026086807251,
      "818": -0.20631268620491028,
      "819": 0.3949717879295349,
      "820": -2.7639410495758057,
      "821": 2.2885489463806152,
      "822": 0.9103450775146484,
      "823": -3.5260531902313232,
      "824": -0.45890334248542786,
      "825": 2.357537031173706,
      "826": 2.046973705291748,
      "827": -0.9523721933364868,
      "828": -0.5129954814910889,
      "829": -2.8198294639587402,
      "830": 0.44389036297798157,
      "831": 1.4864768981933594,
      "832": -0.7729928493499756,
      "833": 0.10820744186639786,
      "834": 2.0665621757507324,
      "835": 2.8481478691101074,
      "836": 2.184791088104248,
      "837": -1.1625169515609741,
      "838": -2.094909906387329,
      "839": -1.8236138820648193,
      "840": 1.1376540660858154,
      "841": 0.4316819906234741,
      "842": -0.7243155241012573,
      "843": -2.6378090381622314,
      "844": -0.48625802993774414,
      "845": 1.3015223741531372,
      "846": 4.338276386260986,
      "847": -0.40384313464164734,
      "848": 2.814831018447876,
      "849": 2.715618371963501,
      "850": 0.4524044990539551,
      "851": 0.22717207670211792,
      "852": -1.4251842498779297,
      "853": -2.1658129692077637,
      "854": 0.5512564182281494,
      "855": -1.2722152471542358,
      "856": -0.3108386993408203,
      "857": -0.02882237732410431,
      "858": 0.6676690578460693,
      "859": -0.671395480632782,
      "860": 0.4185328483581543,
      "861": -1.4582105875015259,
      "862": 0.17601285874843597,
      "863": -2.11301326751709,
      "864": 2.625155448913574,
      "865": -2.894592046737671,
      "866": 0.9449819922447205,
      "867": -1.0489596128463745,
      "868": -0.7452794313430786,
      "869": 0.4057702422142029,
      "870": 0.4730399549007416,
      "871": -2.80721378326416,
      "872": 1.869149923324585,
      "873": -0.01366393268108368,
      "874": 0.1334937959909439,
      "875": -0.2137022465467453,
      "876": 1.5903708934783936,
      "877": 1.3856319189071655,
      "878": -1.6455199718475342,
      "879": 0.9310842156410217,
      "880": 0.019158128648996353,
      "881": 0.055545371025800705,
      "882": 0.267748087644577,
      "883": -2.1399738788604736,
      "884": 0.7193795442581177,
      "885": 2.773953437805176,
      "886": -0.09108385443687439,
      "887": 2.180302619934082,
      "888": -0.6620172262191772,
      "889": 0.2284439653158188,
      "890": 1.1904070377349854,
      "891": 1.3745758533477783,
      "892": -3.0855660438537598,
      "893": -1.3531004190444946,
      "894": 0.3640088438987732,
      "895": 2.7018322944641113,
      "896": -3.3160343170166016,
      "897": -0.46397650241851807,
      "898": -0.04819588363170624,
      "899": 3.0084919929504395,
      "900": 0.0796165019273758,
      "901": -2.527578830718994,
      "902": -1.327911615371704,
      "903": 2.8916938304901123,
      "904": -2.5081589221954346,
      "905": -2.649304151535034,
      "906": 0.5794588923454285,
      "907": 1.8093115091323853,
      "908": 0.5928152799606323,
      "909": 0.558404803276062,
      "910": -1.8490103483200073,
      "911": -5.926286697387695,
      "912": 2.610680103302002,
      "913": 4.464182376861572,
      "914": -1.6678870916366577,
      "915": -1.659319281578064,
      "916": -2.7633399963378906,
      "917": -5.610324382781982,
      "918": -1.8069007396697998,
      "919": -5.053956031799316,
      "920": -5.705545902252197,
      "921": 5.818052768707275,
      "922": -2.6253247261047363,
      "923": -1.2180198431015015,
      "924": 1.8390283584594727,
      "925": -4.094359874725342,
      "926": 6.242798328399658,
      "927": 2.260941743850708,
      "928": -1.3985042572021484,
      "929": 0.7177714705467224,
      "930": 0.7317172288894653,
      "931": -3.3179752826690674,
      "932": 5.623055458068848,
      "933": -9.699667930603027,
      "934": 3.436044216156006,
      "935": -1.4676941633224487,
      "936": -1.330356240272522,
      "937": 3.2248027324676514,
      "938": 7.597104549407959,
      "939": 3.154573678970337,
      "940": 2.636049747467041,
      "941": 6.300579071044922,
      "942": -2.9941353797912598,
      "943": 2.1319644451141357,
      "944": 11.02164363861084,
      "945": 6.036130905151367,
      "946": 1.5697418451309204,
      "947": -4.981484889984131,
      "948": 2.116950750350952,
      "949": 0.6301516890525818,
      "950": -0.5402933955192566,
      "951": 0.3028342127799988,
      "952": 1.3438222408294678,
      "953": -0.9312146902084351,
      "954": 1.742492437362671,
      "955": -7.949195861816406,
      "956": 1.5990387201309204,
      "957": -4.769555568695068,
      "958": 0.00021960014419164509,
      "959": -2.3567261695861816,
      "960": -2.857064962387085,
      "961": -0.08445070683956146,
      "962": 0.5832675099372864,
      "963": -1.5369081497192383,
      "964": -2.6341371536254883,
      "965": 1.242510199546814,
      "966": -1.7166978120803833,
      "967": 1.0614882707595825,
      "968": -2.319171190261841,
      "969": 0.1690666228532791,
      "970": -4.588776111602783,
      "971": -0.14692172408103943,
      "972": -0.3359914720058441,
      "973": 5.8133087158203125,
      "974": -2.4441709518432617,
      "975": 0.20956972241401672,
      "976": 4.097549915313721,
      "977": 0.6932685375213623,
      "978": -3.695887565612793,
      "979": -0.9827881455421448,
      "980": 0.4954614043235779,
      "981": -2.192828416824341,
      "982": 0.9564743041992188,
      "983": 0.5046896934509277,
      "984": -5.12617826461792,
      "985": 3.1973717212677,
      "986": 2.390794038772583,
      "987": -0.25306686758995056,
      "988": -2.506100654602051,
      "989": 2.472123622894287,
      "990": 3.0047414302825928,
      "991": -1.7626726627349854,
      "992": 0.902610719203949,
      "993": -0.7089108228683472,
      "994": 2.467805862426758,
      "995": -2.2366693019866943,
      "996": 0.32052817940711975,
      "997": -5.796775817871094,
      "998": -1.2735477685928345,
      "999": 2.1142165660858154,
      "1000": 2.970510959625244,
      "1001": 1.9570709466934204,
      "1002": -3.2098257541656494,
      "1003": 2.4657890796661377,
      "1004": -0.8788868188858032,
      "1005": 0.8106792569160461,
      "1006": 3.632408380508423,
      "1007": 3.7399957180023193,
      "1008": -0.5872657895088196,
      "1009": -1.208999752998352,
      "1010": 2.4953322410583496,
      "1011": -1.3298927545547485,
      "1012": -5.953121662139893,
      "1013": -0.9349808096885681,
      "1014": -3.457730531692505,
      "1015": -3.603914499282837,
      "1016": -1.9721400737762451,
      "1017": 7.126713275909424,
      "1018": -0.13170866668224335,
      "1019": -3.288689136505127,
      "1020": -3.111281633377075,
      "1021": -3.6323323249816895,
      "1022": -3.3264544010162354,
      "1023": 2.5436291694641113,
      "1024": -1.4421513080596924,
      "1025": 7.200376987457275,
      "1026": -2.431445837020874,
      "1027": 3.821385622024536,
      "1028": 2.133021116256714,
      "1029": -0.7493339776992798,
      "1030": 2.811389207839966,
      "1031": 5.4398088455200195,
      "1032": 2.117835760116577,
      "1033": 3.218517780303955,
      "1034": -1.3227670192718506,
      "1035": 4.822817325592041,
      "1036": 1.478715181350708,
      "1037": -6.018005847930908,
      "1038": 4.9506659507751465,
      "1039": -0.27091363072395325,
      "1040": 2.9716219902038574,
      "1041": 2.8952765464782715,
      "1042": 5.670590877532959,
      "1043": 1.6157971620559692,
      "1044": -1.4495004415512085,
      "1045": -0.3947197496891022,
      "1046": -4.130096912384033,
      "1047": 2.917085886001587,
      "1048": 4.786290645599365,
      "1049": 0.5598430633544922,
      "1050": -4.200420379638672,
      "1051": -10.214802742004395,
      "1052": 4.923840045928955,
      "1053": 14.342755317687988,
      "1054": -3.8078277111053467,
      "1055": -4.558438777923584,
      "1056": 4.175704479217529,
      "1057": 21.195825576782227,
      "1058": -6.272648811340332,
      "1059": 8.269858360290527,
      "1060": -3.0306832790374756,
      "1061": 10.505117416381836,
      "1062": -6.455427646636963,
      "1063": -9.34150505065918,
      "1064": 7.702538967132568,
      "1065": 5.172672271728516,
      "1066": 5.429714679718018,
      "1067": 2.5816714763641357,
      "1068": -16.61363983154297,
      "1069": 7.978360652923584,
      "1070": 3.590027332305908,
      "1071": 10.492472648620605,
      "1072": -15.720017433166504,
      "1073": -7.801526069641113,
      "1074": 13.52988338470459,
      "1075": 2.6469597816467285,
      "1076": -10.347412109375,
      "1077": 15.279288291931152,
      "1078": -7.814059734344482,
      "1079": 3.1946964263916016,
      "1080": 0.11545101553201675,
      "1081": 1.322995901107788,
      "1082": -5.3619866371154785,
      "1083": 8.19088363647461,
      "1084": 14.415473937988281,
      "1085": 8.44896125793457,
      "1086": -3.471778392791748,
      "1087": -3.8295328617095947,
      "1088": 0.7055751085281372,
      "1089": 1.5597044229507446,
      "1090": 11.38276481628418,
      "1091": -11.030308723449707,
      "1092": 6.833863735198975,
      "1093": -4.283641815185547,
      "1094": 1.0077542066574097,
      "1095": -4.270035743713379,
      "1096": -1.252764105796814,
      "1097": -7.014674186706543,
      "1098": 13.90133285522461,
      "1099": 5.684058666229248,
      "1100": 0.6463862061500549,
      "1101": -7.650608539581299,
      "1102": 4.875186920166016,
      "1103": -4.941749572753906,
      "1104": 10.867400169372559,
      "1105": -8.49876880645752,
      "1106": -5.358331680297852,
      "1107": 18.871381759643555,
      "1108": 3.9546399116516113,
      "1109": 10.453008651733398,
      "1110": 1.4826501607894897,
      "1111": -2.1873137950897217,
      "1112": -3.8864004611968994,
      "1113": 7.409214496612549,
      "1114": -19.372072219848633,
      "1115": -5.938634872436523,
      "1116": 6.722718238830566,
      "1117": 4.745167255401611,
      "1118": 3.0150444507598877,
      "1119": 10.56736946105957,
      "1120": 1.5696099996566772,
      "1121": 0.7513167262077332,
      "1122": -3.0784223079681396,
      "1123": 1.6835771799087524,
      "1124": 1.9772446155548096,
      "1125": 0.41625964641571045,
      "1126": 0.34436360001564026,
      "1127": 2.044698476791382,
      "1128": -0.3460123538970947,
      "1129": -4.696247100830078,
      "1130": -7.879248142242432,
      "1131": 2.5837223529815674,
      "1132": 0.6084563136100769,
      "1133": -1.046360969543457,
      "1134": -2.0055136680603027,
      "1135": -8.04066276550293,
      "1136": 0.11468853056430817,
      "1137": 1.2526439428329468,
      "1138": -5.370258331298828,
      "1139": 2.6962788105010986,
      "1140": 0.8380170464515686,
      "1141": -0.09823280572891235,
      "1142": 6.782595634460449,
      "1143": -2.787797212600708,
      "1144": -2.527642250061035,
      "1145": -2.4268054962158203,
      "1146": -4.708619117736816,
      "1147": 2.0417120456695557,
      "1148": 0.7538498044013977,
      "1149": 1.4601765871047974,
      "1150": -8.169259071350098,
      "1151": -3.1540651321411133,
      "1152": 4.52786111831665,
      "1153": 1.4338423013687134,
      "1154": 3.301668643951416,
      "1155": 3.2462339401245117,
      "1156": -1.5292885303497314,
      "1157": -1.6921888589859009,
      "1158": 2.459343671798706,
      "1159": 4.699883937835693,
      "1160": 2.5623860359191895,
      "1161": 2.444197416305542,
      "1162": 1.9476650953292847,
      "1163": 0.2117709368467331,
      "1164": 6.32747745513916,
      "1165": -5.492713928222656,
      "1166": -0.28945136070251465,
      "1167": -5.2058939933776855,
      "1168": -2.231067180633545,
      "1169": -3.5714430809020996,
      "1170": -4.454801082611084,
      "1171": 7.236833095550537,
      "1172": -2.469329833984375,
      "1173": -5.010417461395264,
      "1174": -1.2079700231552124,
      "1175": 0.9684721231460571,
      "1176": 1.9228105545043945,
      "1177": -1.8283812999725342,
      "1178": -4.57028341293335,
      "1179": 2.5468437671661377,
      "1180": -0.7906007170677185,
      "1181": 1.3201099634170532,
      "1182": -5.442456245422363,
      "1183": 3.430746555328369,
      "1184": -2.813797950744629,
      "1185": 1.0914827585220337,
      "1186": 4.836721420288086,
      "1187": 1.9018561840057373,
      "1188": -6.089548587799072,
      "1189": 2.199625015258789,
      "1190": 1.3612993955612183,
      "1191": 0.5784035921096802,
      "1192": 1.0448271036148071,
      "1193": 2.598210573196411,
      "1194": -1.6677614450454712,
      "1195": 3.3568062782287598,
      "1196": 0.86684650182724,
      "1197": 3.7343482971191406,
      "1198": -1.9719536304473877,
      "1199": -2.9342241287231445,
      "1200": -1.5736218690872192,
      "1201": 0.3961562514305115,
      "1202": 1.0237975120544434,
      "1203": 0.4347338378429413,
      "1204": 0.9990974068641663,
      "1205": 1.3982573747634888,
      "1206": -3.402801036834717,
      "1207": -3.7526326179504395,
      "1208": -0.581714928150177,
      "1209": 0.28766512870788574,
      "1210": 3.5894315242767334,
      "1211": 2.1473352909088135,
      "1212": -2.315349578857422,
      "1213": 2.71209454536438,
      "1214": -0.4260057210922241,
      "1215": -3.58182692527771,
      "1216": 1.9010432958602905,
      "1217": -2.79184627532959,
      "1218": 3.970982313156128,
      "1219": 3.012303590774536,
      "1220": -0.5385853052139282,
      "1221": -1.316892147064209,
      "1222": -5.816521167755127,
      "1223": -2.4201390743255615,
      "1224": 0.6832605004310608,
      "1225": 5.486513614654541,
      "1226": 2.6420156955718994,
      "1227": 2.345522165298462,
      "1228": 1.817609190940857,
      "1229": 0.666426956653595,
      "1230": 1.5918052196502686,
      "1231": -0.7886437773704529,
      "1232": 0.747299313545227,
      "1233": -0.6081995964050293,
      "1234": 0.5615965127944946,
      "1235": 0.2149738222360611,
      "1236": 2.5417447090148926,
      "1237": -1.1483933925628662,
      "1238": 1.2741867303848267,
      "1239": -3.7427663803100586,
      "1240": -2.310497760772705,
      "1241": -3.998581886291504,
      "1242": -0.06585623323917389,
      "1243": -2.8017053604125977,
      "1244": -3.1826229095458984,
      "1245": -2.2301619052886963,
      "1246": -2.580925941467285,
      "1247": -5.217586040496826,
      "1248": -1.1490031480789185,
      "1249": 4.031548023223877,
      "1250": -1.1075831651687622,
      "1251": 1.9088927507400513,
      "1252": 1.3751542568206787,
      "1253": -0.8242650628089905,
      "1254": 0.2527904808521271,
      "1255": -3.914240598678589,
      "1256": -0.8439437747001648,
      "1257": 1.6521739959716797,
      "1258": 3.424938678741455,
      "1259": -2.3572487831115723,
      "1260": 1.3854368925094604,
      "1261": 0.21722623705863953,
      "1262": -2.4613640308380127,
      "1263": 1.6635923385620117,
      "1264": -1.650475025177002,
      "1265": -1.1715764999389648,
      "1266": -3.02956223487854,
      "1267": 6.456444263458252,
      "1268": 3.8554611206054688,
      "1269": 0.7152027487754822,
      "1270": -2.4162306785583496,
      "1271": -0.18124215304851532,
      "1272": -4.559286117553711,
      "1273": -0.4050370752811432,
      "1274": 0.28480908274650574,
      "1275": -5.484020709991455,
      "1276": 4.382553577423096,
      "1277": 2.4553065299987793,
      "1278": 0.08264759182929993,
      "1279": 1.8000738620758057,
      "1280": -2.628910541534424,
      "1281": -2.720825433731079,
      "1282": 0.22167035937309265,
      "1283": -2.0265090465545654,
      "1284": -0.6674520969390869,
      "1285": -5.256455421447754,
      "1286": -0.8885210752487183,
      "1287": 1.2956254482269287,
      "1288": 2.590193033218384,
      "1289": 1.7290968894958496,
      "1290": -2.075132131576538,
      "1291": 1.8005114793777466,
      "1292": 4.0697922706604,
      "1293": -0.278752863407135,
      "1294": 3.4508917331695557,
      "1295": 0.5028072595596313,
      "1296": 9.026311874389648,
      "1297": -0.39737820625305176,
      "1298": 0.09259533137083054,
      "1299": -2.711172342300415,
      "1300": 7.448873043060303,
      "1301": -0.8964440822601318,
      "1302": 2.426536798477173,
      "1303": 0.6147473454475403,
      "1304": 1.3801188468933105,
      "1305": -2.3680806159973145,
      "1306": 1.2711920738220215,
      "1307": 1.742687463760376,
      "1308": 0.9853760600090027,
      "1309": 2.3197097778320312,
      "1310": -3.235703468322754,
      "1311": 2.15952467918396,
      "1312": 0.5607240200042725,
      "1313": -0.8335295915603638,
      "1314": 0.06272457540035248,
      "1315": 1.17836332321167,
      "1316": -3.44514536857605,
      "1317": -0.8551828265190125,
      "1318": 0.18348444998264313,
      "1319": 2.3121390342712402,
      "1320": 0.7963478565216064,
      "1321": -3.885218858718872,
      "1322": -2.3189945220947266,
      "1323": 3.932326555252075,
      "1324": -1.5569286346435547,
      "1325": 1.0102288722991943,
      "1326": 2.845964193344116,
      "1327": 1.6712836027145386,
      "1328": -3.71903133392334,
      "1329": -0.06384696066379547,
      "1330": -6.259227752685547,
      "1331": -1.6769075393676758,
      "1332": 2.5061988830566406,
      "1333": -1.2544053792953491,
      "1334": -2.2167696952819824,
      "1335": -2.458958864212036,
      "1336": -1.067352056503296,
      "1337": -1.6177603006362915,
      "1338": -0.5828620791435242,
      "1339": -0.2873247563838959,
      "1340": -0.23477934300899506,
      "1341": 0.6758055686950684,
      "1342": 1.8222041130065918,
      "1343": -0.8495082259178162,
      "1344": -1.0923423767089844,
      "1345": 1.443914532661438,
      "1346": 1.6545861959457397,
      "1347": -1.078552007675171,
      "1348": -1.5141915082931519,
      "1349": -3.041107654571533,
      "1350": 1.414932370185852,
      "1351": 1.5309776067733765,
      "1352": 1.7431014776229858,
      "1353": 2.6763861179351807,
      "1354": -0.33381086587905884,
      "1355": 2.3405911922454834,
      "1356": 0.9363449811935425,
      "1357": -0.33081382513046265,
      "1358": 2.5560355186462402,
      "1359": 0.3104189336299896,
      "1360": 0.5047937035560608,
      "1361": -0.0731620118021965,
      "1362": 0.021083835512399673,
      "1363": 1.0995426177978516,
      "1364": 0.39093488454818726,
      "1365": 0.173605278134346,
      "1366": -2.463775634765625,
      "1367": -3.156431198120117,
      "1368": -0.19148987531661987,
      "1369": 0.7194144129753113,
      "1370": 1.3756839036941528,
      "1371": -3.5101637840270996,
      "1372": -0.6820684671401978,
      "1373": -1.4664702415466309,
      "1374": -4.228753566741943,
      "1375": -0.6061038374900818,
      "1376": -2.0041329860687256,
      "1377": -1.9541869163513184,
      "1378": 2.6341536045074463,
      "1379": -3.0156502723693848,
      "1380": 1.963003158569336,
      "1381": 2.2054195404052734,
      "1382": 1.3639235496520996,
      "1383": 0.25944074988365173,
      "1384": 0.5697046518325806,
      "1385": -1.7320783138275146,
      "1386": 3.2597227096557617,
      "1387": 3.629976272583008,
      "1388": 1.2168842554092407,
      "1389": -0.3014625310897827,
      "1390": 2.178239107131958,
      "1391": 1.3032939434051514,
      "1392": 4.277548789978027,
      "1393": -2.833895444869995,
      "1394": 1.3152267932891846,
      "1395": -0.8499807715415955,
      "1396": 0.3991808295249939,
      "1397": 0.6834596395492554,
      "1398": 0.6665390729904175,
      "1399": 1.5376482009887695,
      "1400": 5.647179126739502,
      "1401": -0.9159862995147705,
      "1402": -0.2026890516281128,
      "1403": 6.981965065002441,
      "1404": -1.593172550201416,
      "1405": 0.33103203773498535,
      "1406": 5.495325565338135,
      "1407": 3.4465503692626953,
      "1408": -1.5289232730865479,
      "1409": -5.067038536071777,
      "1410": -1.8212002515792847,
      "1411": -2.7623465061187744,
      "1412": 2.3437201976776123,
      "1413": -2.960024356842041,
      "1414": -1.745463252067566,
      "1415": 3.370473623275757,
      "1416": 2.6272847652435303,
      "1417": 5.77008581161499,
      "1418": 5.753260612487793,
      "1419": 3.198948621749878,
      "1420": 0.9693183302879333,
      "1421": -3.4528214931488037,
      "1422": -2.0233633518218994,
      "1423": -1.8491833209991455,
      "1424": 3.0567805767059326,
      "1425": 3.9506335258483887,
      "1426": -0.41259750723838806,
      "1427": 1.188353180885315,
      "1428": -3.4666483402252197,
      "1429": 0.347186803817749,
      "1430": 2.851611614227295,
      "1431": 3.3622076511383057,
      "1432": 6.399589538574219,
      "1433": 3.5845956802368164,
      "1434": -6.577877044677734,
      "1435": -1.3455473184585571,
      "1436": -2.712289333343506,
      "1437": 0.9730578660964966,
      "1438": -3.6823654174804688,
      "1439": 1.169812560081482,
      "1440": 1.8552560806274414,
      "1441": -1.6457465887069702,
      "1442": 3.212202787399292,
      "1443": 0.04764102026820183,
      "1444": 1.126893162727356,
      "1445": -0.8724859952926636,
      "1446": 3.351515054702759,
      "1447": 7.498467445373535,
      "1448": -1.8013262748718262,
      "1449": 0.8716482520103455,
      "1450": 0.3997998535633087,
      "1451": 8.653759956359863,
      "1452": -4.356726169586182,
      "1453": 0.07223370671272278,
      "1454": 0.06940189003944397,
      "1455": -0.4708285331726074,
      "1456": 2.783329725265503,
      "1457": -3.4391298294067383,
      "1458": -0.030084343627095222,
      "1459": 1.2346234321594238,
      "1460": 0.1264171600341797,
      "1461": 1.1540156602859497,
      "1462": -0.5295825004577637,
      "1463": 5.9225664138793945,
      "1464": 0.3561556041240692,
      "1465": 6.7654290199279785,
      "1466": -2.7276220321655273,
      "1467": -3.2454183101654053,
      "1468": 2.3126578330993652,
      "1469": -0.4715985357761383,
      "1470": -0.13164256513118744,
      "1471": -0.2337217777967453,
      "1472": 2.374359369277954,
      "1473": 3.5796797275543213,
      "1474": 3.9011409282684326,
      "1475": -2.5302810668945312,
      "1476": -0.6969501972198486,
      "1477": 1.2640653848648071,
      "1478": -5.231282711029053,
      "1479": -5.3021559715271,
      "1480": 1.260208249092102,
      "1481": -1.1847530603408813,
      "1482": 0.7695629596710205,
      "1483": 0.7918493747711182,
      "1484": -0.6673558950424194,
      "1485": 2.4401283264160156,
      "1486": 3.194049596786499,
      "1487": -0.5116865634918213,
      "1488": 2.9489057064056396,
      "1489": -1.156407356262207,
      "1490": 1.2645325660705566,
      "1491": -0.26820769906044006,
      "1492": -1.376308798789978,
      "1493": -0.7931919693946838,
      "1494": 0.16965080797672272,
      "1495": 0.7166380882263184,
      "1496": 2.9543614387512207,
      "1497": 0.2806783616542816,
      "1498": -2.1161603927612305,
      "1499": -1.2124066352844238,
      "1500": 2.287783145904541,
      "1501": 3.9875147342681885,
      "1502": -1.5894253253936768,
      "1503": 0.5062681436538696,
      "1504": 1.0019738674163818,
      "1505": 0.6346496939659119,
      "1506": -4.42162561416626,
      "1507": -0.35755449533462524,
      "1508": 2.8836848735809326,
      "1509": 0.1978655606508255,
      "1510": -4.272555828094482,
      "1511": -3.573700428009033,
      "1512": 0.6628276109695435,
      "1513": 3.070481300354004,
      "1514": 0.2795696556568146,
      "1515": 0.7726115584373474,
      "1516": -1.259345531463623,
      "1517": -4.9018707275390625,
      "1518": -0.5906680226325989,
      "1519": -1.6536058187484741,
      "1520": 3.583791732788086,
      "1521": -0.3303925096988678,
      "1522": 1.970723032951355,
      "1523": -0.16026586294174194,
      "1524": -2.543220043182373,
      "1525": -1.6164453029632568,
      "1526": 1.8277194499969482,
      "1527": 1.6526132822036743,
      "1528": 0.20840436220169067,
      "1529": -0.04100239649415016,
      "1530": 3.9997828006744385,
      "1531": -0.29046356678009033,
      "1532": 1.9168732166290283,
      "1533": -1.3329989910125732,
      "1534": -0.9724474549293518,
      "1535": 4.839758396148682,
      "1536": -2.950084686279297,
      "1537": 0.8960103988647461,
      "1538": 2.889467716217041,
      "1539": -2.0640616416931152,
      "1540": 0.2293398231267929,
      "1541": 3.552128791809082,
      "1542": -4.111423969268799,
      "1543": -0.15489661693572998,
      "1544": -0.05518475919961929,
      "1545": -11.561888694763184,
      "1546": 4.889115333557129,
      "1547": 0.4779703915119171,
      "1548": 2.3146610260009766,
      "1549": -9.723434448242188,
      "1550": 1.2148183584213257,
      "1551": -1.3937957286834717,
      "1552": -8.525460243225098,
      "1553": 6.077807426452637,
      "1554": -1.5772011280059814,
      "1555": -2.497591257095337,
      "1556": 3.409330368041992,
      "1557": 0.4679871201515198,
      "1558": -6.111771106719971,
      "1559": -1.5866625308990479,
      "1560": -0.8635856509208679,
      "1561": 0.5653809309005737,
      "1562": 2.933651924133301,
      "1563": 1.3495993614196777,
      "1564": 1.210720181465149,
      "1565": 1.4244085550308228,
      "1566": 0.24425539374351501,
      "1567": -0.6949590444564819,
      "1568": 4.0649495124816895,
      "1569": -5.357461929321289,
      "1570": -4.53919792175293,
      "1571": -0.12969566881656647,
      "1572": -0.6120976805686951,
      "1573": -4.5716023445129395,
      "1574": -0.10014067590236664,
      "1575": 3.0193264484405518,
      "1576": -0.36727362871170044,
      "1577": -5.048085689544678,
      "1578": 0.5021814107894897,
      "1579": 2.049553632736206,
      "1580": -0.5473204851150513,
      "1581": 1.8408184051513672,
      "1582": 3.631265640258789,
      "1583": 1.4215327501296997,
      "1584": 1.2291961908340454,
      "1585": -0.040936633944511414,
      "1586": 4.729196548461914,
      "1587": -3.083406925201416,
      "1588": -1.251826286315918,
      "1589": -1.7036558389663696,
      "1590": -2.611158847808838,
      "1591": -5.431166172027588,
      "1592": -0.6881870627403259,
      "1593": -0.6793762445449829,
      "1594": -1.4208142757415771,
      "1595": 5.654676914215088,
      "1596": -1.6920830011367798,
      "1597": 4.73928689956665,
      "1598": -0.2179085910320282,
      "1599": 3.157648801803589,
      "1600": 5.318475723266602,
      "1601": -2.467423677444458,
      "1602": -3.888906240463257,
      "1603": -0.6734307408332825,
      "1604": -3.336042642593384,
      "1605": 0.3198201656341553,
      "1606": 1.0387362241744995,
      "1607": 3.1873323917388916,
      "1608": -5.290674209594727,
      "1609": 2.780980348587036,
      "1610": 0.9403437376022339,
      "1611": 7.056093692779541,
      "1612": 2.64327335357666,
      "1613": -7.358286380767822,
      "1614": -1.2416614294052124,
      "1615": 8.46216106414795,
      "1616": -2.2750532627105713,
      "1617": 6.990917682647705,
      "1618": 6.642815113067627,
      "1619": -2.7503297328948975,
      "1620": -3.1873908042907715,
      "1621": -0.1674433946609497,
      "1622": -0.7103301286697388,
      "1623": -6.06951904296875,
      "1624": -5.123722076416016,
      "1625": 2.9866034984588623,
      "1626": 1.8570178747177124,
      "1627": 11.205201148986816,
      "1628": 9.826329231262207,
      "1629": 3.3124449253082275,
      "1630": -4.818366527557373,
      "1631": -12.082845687866211,
      "1632": 5.7098708152771,
      "1633": -3.382432222366333,
      "1634": -1.9847984313964844,
      "1635": -1.5872492790222168,
      "1636": -5.793755054473877,
      "1637": -12.237250328063965,
      "1638": 3.7657620906829834,
      "1639": 9.474188804626465,
      "1640": -0.6558610796928406,
      "1641": -18.621469497680664,
      "1642": 12.063556671142578,
      "1643": 5.260615348815918,
      "1644": 0.07025590538978577,
      "1645": -7.082302570343018,
      "1646": -6.36622428894043,
      "1647": -1.4670374393463135,
      "1648": 15.147953987121582,
      "1649": 1.4564231634140015,
      "1650": 5.150460243225098,
      "1651": 2.1532094478607178,
      "1652": 1.808452844619751,
      "1653": -13.823984146118164,
      "1654": 2.8175275325775146,
      "1655": -2.513338804244995,
      "1656": 8.297552108764648,
      "1657": -0.8203372955322266,
      "1658": -2.6923325061798096,
      "1659": 2.222707748413086,
      "1660": -5.848367691040039,
      "1661": -5.0527663230896,
      "1662": 1.168130874633789,
      "1663": 0.37718483805656433,
      "1664": 3.760258197784424,
      "1665": 4.815143585205078,
      "1666": 2.9723687171936035,
      "1667": 1.8360041379928589,
      "1668": -2.1596436500549316,
      "1669": -1.664632797241211,
      "1670": -9.35689640045166,
      "1671": 12.526453018188477,
      "1672": -6.964261054992676,
      "1673": -1.5173619985580444,
      "1674": 2.2175052165985107,
      "1675": 5.612856388092041,
      "1676": 6.1471967697143555,
      "1677": -1.928297996520996,
      "1678": -4.1121392250061035,
      "1679": -3.60475754737854,
      "1680": -0.4191112518310547,
      "1681": -10.583650588989258,
      "1682": 12.450143814086914,
      "1683": -4.994140148162842,
      "1684": 1.4034371376037598,
      "1685": -6.284257411956787,
      "1686": -8.422676086425781,
      "1687": -3.632352828979492,
      "1688": -13.809489250183105,
      "1689": 4.121474266052246,
      "1690": 14.853524208068848,
      "1691": 5.384270668029785,
      "1692": 4.486074447631836,
      "1693": -1.5826467275619507,
      "1694": 15.05031967163086,
      "1695": 10.492377281188965,
      "1696": 4.031612396240234,
      "1697": 3.4337997436523438,
      "1698": -3.1231095790863037,
      "1699": -0.5277592539787292,
      "1700": -10.864579200744629,
      "1701": 0.5596981048583984,
      "1702": -12.067769050598145,
      "1703": 0.28683239221572876,
      "1704": -3.154557704925537,
      "1705": 2.572166681289673,
      "1706": 7.056329250335693,
      "1707": 3.8875081539154053,
      "1708": -13.619451522827148,
      "1709": 6.054111480712891,
      "1710": 16.37629508972168,
      "1711": 7.494451522827148,
      "1712": -6.647879600524902,
      "1713": 6.974248886108398,
      "1714": 5.137665271759033,
      "1715": -7.672037601470947,
      "1716": 9.905266761779785,
      "1717": 16.98162269592285,
      "1718": 4.7787556648254395,
      "1719": -8.571301460266113,
      "1720": -13.669485092163086,
      "1721": -1.6837865114212036,
      "1722": -7.7486138343811035,
      "1723": 6.855154991149902,
      "1724": -0.478693425655365,
      "1725": 5.360288143157959,
      "1726": -13.514516830444336,
      "1727": -11.548420906066895,
      "1728": -4.268064498901367,
      "1729": -5.29033899307251,
      "1730": 9.550616264343262,
      "1731": -12.029472351074219,
      "1732": 12.658381462097168,
      "1733": -2.3912689685821533,
      "1734": -10.439725875854492,
      "1735": 8.036998748779297,
      "1736": 11.928744316101074,
      "1737": 15.099566459655762,
      "1738": -8.899942398071289,
      "1739": -15.495672225952148,
      "1740": 23.942842483520508,
      "1741": -5.134098529815674,
      "1742": 11.928750991821289,
      "1743": -11.321097373962402,
      "1744": -6.805616855621338,
      "1745": -13.32841682434082,
      "1746": -1.4160277843475342,
      "1747": -5.215638637542725,
      "1748": 5.990250587463379,
      "1749": -23.365598678588867,
      "1750": 10.682235717773438,
      "1751": 0.5019777417182922,
      "1752": 1.115225076675415,
      "1753": 7.870605945587158,
      "1754": -6.816033840179443,
      "1755": 6.70538330078125,
      "1756": -1.4748597145080566,
      "1757": -4.484273433685303,
      "1758": 1.2640353441238403,
      "1759": 0.18898409605026245,
      "1760": 0.9732504487037659,
      "1761": -10.219021797180176,
      "1762": 4.652977466583252,
      "1763": 1.7317159175872803,
      "1764": -7.393947124481201,
      "1765": -0.9505888819694519,
      "1766": 7.389883041381836,
      "1767": 2.249582529067993,
      "1768": -3.064026355743408,
      "1769": 5.415279388427734,
      "1770": -5.49816370010376,
      "1771": 2.662445068359375,
      "1772": 3.5114426612854004,
      "1773": 6.806793212890625,
      "1774": 1.7696943283081055,
      "1775": -9.482438087463379,
      "1776": -7.896218776702881,
      "1777": -7.100291728973389,
      "1778": 9.810826301574707,
      "1779": -8.981757164001465,
      "1780": -1.63152015209198,
      "1781": -6.845358848571777,
      "1782": 0.23233044147491455,
      "1783": 5.506605625152588,
      "1784": -1.970521092414856,
      "1785": -4.306553363800049,
      "1786": -5.647897243499756,
      "1787": 6.737374305725098,
      "1788": 2.3064327239990234,
      "1789": 2.3725717067718506,
      "1790": -2.057394027709961,
      "1791": 4.6839423179626465,
      "1792": 6.658318519592285,
      "1793": -0.8294905424118042,
      "1794": -0.13738051056861877,
      "1795": 3.7335305213928223,
      "1796": 6.802129745483398,
      "1797": 12.860228538513184,
      "1798": -10.153239250183105,
      "1799": 7.776091575622559,
      "1800": -4.218438625335693,
      "1801": 22.523479461669922,
      "1802": 8.874503135681152,
      "1803": 6.544845104217529,
      "1804": -9.5210599899292,
      "1805": 18.353464126586914,
      "1806": -2.7713749408721924,
      "1807": -14.659040451049805,
      "1808": 1.7717570066452026,
      "1809": -7.757568836212158,
      "1810": -5.719447612762451,
      "1811": 2.858745813369751,
      "1812": 3.157839298248291,
      "1813": 1.9400889873504639,
      "1814": 10.03300666809082,
      "1815": 3.1979432106018066,
      "1816": -0.46091580390930176,
      "1817": 0.9861797094345093,
      "1818": 3.4667251110076904,
      "1819": 1.7845646142959595,
      "1820": -4.991909027099609,
      "1821": 4.858767032623291,
      "1822": -11.123384475708008,
      "1823": -5.587769985198975,
      "1824": -4.3072309494018555,
      "1825": 2.3029966354370117,
      "1826": -4.305760860443115,
      "1827": -3.399829149246216,
      "1828": -1.9630062580108643,
      "1829": 1.635750651359558,
      "1830": 8.15752124786377,
      "1831": 6.749063968658447,
      "1832": 15.541446685791016,
      "1833": 2.9145803451538086,
      "1834": -21.39434051513672,
      "1835": 10.201022148132324,
      "1836": -1.5238577127456665,
      "1837": -0.13053418695926666,
      "1838": -4.265162944793701,
      "1839": -0.689669132232666,
      "1840": -12.952083587646484,
      "1841": -3.3323092460632324,
      "1842": -12.901176452636719,
      "1843": 5.262510776519775,
      "1844": -1.9992212057113647,
      "1845": -0.2894241511821747,
      "1846": -2.296083927154541,
      "1847": 8.615283966064453,
      "1848": -5.100405216217041,
      "1849": -1.2869712114334106,
      "1850": 10.883216857910156,
      "1851": 1.6524782180786133,
      "1852": -13.293907165527344,
      "1853": -17.111906051635742,
      "1854": -6.60111141204834,
      "1855": 1.6358838081359863,
      "1856": -6.281590938568115,
      "1857": -7.440174579620361,
      "1858": -4.47273063659668,
      "1859": -24.195667266845703,
      "1860": 5.2839741706848145,
      "1861": -7.578221797943115,
      "1862": -6.49453067779541,
      "1863": -1.8054636716842651,
      "1864": -0.03169822692871094,
      "1865": 13.442525863647461,
      "1866": 8.65396499633789,
      "1867": 0.7641196250915527,
      "1868": 1.0750120878219604,
      "1869": 5.708337783813477,
      "1870": 2.4769606590270996,
      "1871": -14.790388107299805,
      "1872": 6.493433475494385,
      "1873": 7.797059059143066,
      "1874": 4.840846538543701,
      "1875": 3.8691399097442627,
      "1876": 1.4596492052078247,
      "1877": -9.601207733154297,
      "1878": -6.806273937225342,
      "1879": -3.77793288230896,
      "1880": -6.208502292633057,
      "1881": 1.1182304620742798,
      "1882": 13.159693717956543,
      "1883": -18.587430953979492,
      "1884": 10.644292831420898,
      "1885": -11.993730545043945,
      "1886": -3.667729377746582,
      "1887": -7.62717866897583,
      "1888": 7.568441390991211,
      "1889": -11.755045890808105,
      "1890": 2.5205140113830566,
      "1891": -1.1749159097671509,
      "1892": 1.6975269317626953,
      "1893": 6.999091148376465,
      "1894": 1.4250673055648804,
      "1895": -2.345029830932617,
      "1896": 1.5387358665466309,
      "1897": 3.6244382858276367,
      "1898": 0.7046496272087097,
      "1899": -5.992640018463135,
      "1900": -1.861161231994629,
      "1901": 4.7007856369018555,
      "1902": 0.6880113482475281,
      "1903": 0.49484848976135254,
      "1904": -2.2981414794921875,
      "1905": -2.982827663421631,
      "1906": 0.10558530688285828,
      "1907": -6.3431549072265625,
      "1908": -4.40084171295166,
      "1909": -0.9846609234809875,
      "1910": -0.20622164011001587,
      "1911": 0.3813980221748352,
      "1912": -2.0144460201263428,
      "1913": -3.4062747955322266,
      "1914": -1.0905506610870361,
      "1915": 3.260678768157959,
      "1916": -1.568074107170105,
      "1917": -1.529524564743042,
      "1918": 4.250136375427246,
      "1919": 1.687516450881958,
      "1920": -2.83052134513855,
      "1921": 6.762529373168945,
      "1922": -1.6493629217147827,
      "1923": 0.18009139597415924,
      "1924": 2.140364170074463,
      "1925": 2.3280632495880127,
      "1926": -0.0348348505795002,
      "1927": 1.6097040176391602,
      "1928": 5.114462375640869,
      "1929": 0.014332818798720837,
      "1930": -0.9770159125328064,
      "1931": -1.6143780946731567,
      "1932": -0.118870310485363,
      "1933": 1.3806605339050293,
      "1934": 0.136636883020401,
      "1935": 0.9809578061103821,
      "1936": -1.1154624223709106,
      "1937": -3.8760879039764404,
      "1938": -1.2571550607681274,
      "1939": -2.68971586227417,
      "1940": 3.310457706451416,
      "1941": -0.8282888531684875,
      "1942": 1.9550058841705322,
      "1943": -7.64548397064209,
      "1944": 2.5364511013031006,
      "1945": -0.7292823791503906,
      "1946": 0.14888976514339447,
      "1947": 1.0281354188919067,
      "1948": 2.035236120223999,
      "1949": 3.4841954708099365,
      "1950": 7.159184455871582,
      "1951": -0.5009448528289795,
      "1952": 3.2637856006622314,
      "1953": 0.5090126991271973,
      "1954": -2.182267665863037,
      "1955": -0.6104007959365845,
      "1956": 0.44310635328292847,
      "1957": 1.7865586280822754,
      "1958": -0.4474959969520569,
      "1959": -0.9111806750297546,
      "1960": -8.59970760345459,
      "1961": -15.839437484741211,
      "1962": 12.888561248779297,
      "1963": -10.993232727050781,
      "1964": -7.256307125091553,
      "1965": 6.846561431884766,
      "1966": 0.4539875388145447,
      "1967": -3.439250946044922,
      "1968": 3.8684895038604736,
      "1969": -3.562173366546631,
      "1970": 14.012190818786621,
      "1971": 1.3942958116531372,
      "1972": 13.650672912597656,
      "1973": 5.825379371643066,
      "1974": -4.302272796630859,
      "1975": -3.1289594173431396,
      "1976": -3.423572301864624,
      "1977": 1.1834696531295776,
      "1978": -0.24091823399066925,
      "1979": -7.90744686126709,
      "1980": 8.771076202392578,
      "1981": 2.5148167610168457,
      "1982": -0.9386979341506958,
      "1983": 4.283199787139893,
      "1984": -5.427894115447998,
      "1985": 1.1747251749038696,
      "1986": 1.5244531631469727,
      "1987": 3.0270206928253174,
      "1988": 6.927245140075684,
      "1989": -1.0717053413391113,
      "1990": -3.3716938495635986,
      "1991": 0.8366178870201111,
      "1992": -9.794384002685547,
      "1993": -5.000889301300049,
      "1994": -8.445633888244629,
      "1995": -7.792041301727295,
      "1996": 7.224189758300781,
      "1997": -10.899821281433105,
      "1998": -5.068609714508057,
      "1999": -4.923860549926758,
      "2000": 6.666874408721924,
      "2001": 0.06583409756422043,
      "2002": 0.9075784087181091,
      "2003": -0.5939171314239502,
      "2004": -1.7387473583221436,
      "2005": 4.567269802093506,
      "2006": -5.9374189376831055,
      "2007": -15.622053146362305,
      "2008": 3.8802435398101807,
      "2009": 0.9398458003997803,
      "2010": -3.3272037506103516,
      "2011": 6.14565896987915,
      "2012": 15.502397537231445,
      "2013": 0.34781545400619507,
      "2014": 11.69148063659668,
      "2015": -3.610711097717285,
      "2016": 0.8974549770355225,
      "2017": 9.360339164733887,
      "2018": 8.37133502960205,
      "2019": 1.1660950183868408,
      "2020": 10.132060050964355,
      "2021": 3.983144521713257,
      "2022": 13.446610450744629,
      "2023": -14.12693977355957,
      "2024": 2.0380780696868896,
      "2025": -4.6816792488098145,
      "2026": 1.0812443494796753,
      "2027": -3.353652238845825,
      "2028": -4.090592861175537,
      "2029": 1.2870745658874512,
      "2030": 9.86648941040039,
      "2031": 5.382620811462402,
      "2032": -9.700363159179688,
      "2033": 2.97163462638855,
      "2034": -6.822402477264404,
      "2035": -7.922697067260742,
      "2036": 6.379446983337402,
      "2037": 3.5298385620117188,
      "2038": -4.666443347930908,
      "2039": -1.9480984210968018,
      "2040": -0.16606751084327698,
      "2041": 7.233585357666016,
      "2042": 4.865994930267334,
      "2043": -7.273845195770264,
      "2044": -4.308535099029541,
      "2045": 2.040235757827759,
      "2046": 3.4546592235565186,
      "2047": -8.764704704284668,
      "2048": -17.926799774169922,
      "2049": 9.630834579467773,
      "2050": 7.081660747528076,
      "2051": 1.2947160005569458,
      "2052": -8.03663444519043,
      "2053": -0.928400456905365,
      "2054": 11.860233306884766,
      "2055": 2.4705252647399902,
      "2056": -2.5388083457946777,
      "2057": 11.579505920410156,
      "2058": -7.794530868530273,
      "2059": -4.037092685699463,
      "2060": 1.5432337522506714,
      "2061": 1.7038809061050415,
      "2062": 2.0186569690704346,
      "2063": 2.8377749919891357,
      "2064": -3.2497758865356445,
      "2065": 4.5233235359191895,
      "2066": -8.44074535369873,
      "2067": -1.822853446006775,
      "2068": -4.201473712921143,
      "2069": -11.317853927612305,
      "2070": -0.6394517421722412,
      "2071": -13.111059188842773,
      "2072": -8.336051940917969,
      "2073": -5.044407367706299,
      "2074": 0.6110183000564575,
      "2075": 5.8629608154296875,
      "2076": 5.335006237030029,
      "2077": 0.24138954281806946,
      "2078": -2.542714834213257,
      "2079": -10.148918151855469,
      "2080": 3.836705207824707,
      "2081": -0.8388956785202026,
      "2082": 9.193832397460938,
      "2083": -8.298421859741211,
      "2084": 0.8389533758163452,
      "2085": 0.11267448961734772,
      "2086": -1.2209134101867676,
      "2087": 0.08651283383369446,
      "2088": 4.397031784057617,
      "2089": -3.999706506729126,
      "2090": 7.299654006958008,
      "2091": -4.668432712554932,
      "2092": 5.002200603485107,
      "2093": -8.327242851257324,
      "2094": 11.847108840942383,
      "2095": 2.5076675415039062,
      "2096": -3.6173617839813232,
      "2097": -4.283205509185791,
      "2098": -1.561780571937561,
      "2099": -0.815313458442688,
      "2100": -4.270779132843018,
      "2101": 2.5931928157806396,
      "2102": 3.2010974884033203,
      "2103": -5.798198223114014,
      "2104": -8.859856605529785,
      "2105": 2.7967865467071533,
      "2106": 4.2398295402526855,
      "2107": -2.955103874206543,
      "2108": -4.475628852844238,
      "2109": -4.406426429748535,
      "2110": -6.150224685668945,
      "2111": -3.6144800186157227,
      "2112": 2.1884186267852783,
      "2113": 8.424480438232422,
      "2114": 3.6912009716033936,
      "2115": -2.6767001152038574,
      "2116": -6.792266368865967,
      "2117": -1.5419739484786987,
      "2118": -0.3901347815990448,
      "2119": -0.8959620594978333,
      "2120": -1.6996444463729858,
      "2121": 2.5171382427215576,
      "2122": 0.9381157159805298,
      "2123": -2.696148157119751,
      "2124": -5.3145856857299805,
      "2125": -3.533722400665283,
      "2126": -0.47455334663391113,
      "2127": 0.26392650604248047,
      "2128": 5.15184211730957,
      "2129": 4.109209060668945,
      "2130": -2.7177608013153076,
      "2131": -7.321994304656982,
      "2132": -2.9942989349365234,
      "2133": 11.610486030578613,
      "2134": -1.164043664932251,
      "2135": -1.9658465385437012,
      "2136": -7.158857345581055,
      "2137": 5.43688440322876,
      "2138": 4.765007972717285,
      "2139": 6.194502353668213,
      "2140": -6.122732162475586,
      "2141": 6.126645088195801,
      "2142": -7.78826904296875,
      "2143": -1.3871804475784302,
      "2144": -1.2290974855422974,
      "2145": -2.832373857498169,
      "2146": 0.04397117346525192,
      "2147": 1.049879550933838,
      "2148": 0.8977289795875549,
      "2149": 1.2484880685806274,
      "2150": -0.5373542904853821,
      "2151": -2.3284730911254883,
      "2152": -1.4630382061004639,
      "2153": -0.7160167098045349,
      "2154": 0.001004704274237156,
      "2155": 2.1706223487854004,
      "2156": 3.810957908630371,
      "2157": -5.7939839363098145,
      "2158": 1.6953078508377075,
      "2159": -7.7538299560546875,
      "2160": -8.294964790344238,
      "2161": 3.158562183380127,
      "2162": 2.160438299179077,
      "2163": -3.3522489070892334,
      "2164": -3.8851559162139893,
      "2165": 4.980515003204346,
      "2166": -2.3836638927459717,
      "2167": 7.7671051025390625,
      "2168": -3.0459225177764893,
      "2169": 0.8600729703903198,
      "2170": -6.824985027313232,
      "2171": -8.47901439666748,
      "2172": 0.3806874454021454,
      "2173": 2.766324520111084,
      "2174": 26.83979606628418,
      "2175": -9.275318145751953,
      "2176": 14.967793464660645,
      "2177": -1.5982152223587036,
      "2178": 6.193526268005371,
      "2179": -7.592257976531982,
      "2180": -5.723513126373291,
      "2181": -1.5842176675796509,
      "2182": -18.7368221282959,
      "2183": -2.620450973510742,
      "2184": 6.734865188598633,
      "2185": -11.363173484802246,
      "2186": -0.5465167760848999,
      "2187": -6.95620059967041,
      "2188": 5.591708183288574,
      "2189": -14.999637603759766,
      "2190": -5.766517162322998,
      "2191": 19.340349197387695,
      "2192": 4.9643683433532715,
      "2193": -2.0011496543884277,
      "2194": 8.066577911376953,
      "2195": 5.03957462310791,
      "2196": 2.5221617221832275,
      "2197": -10.04210376739502,
      "2198": -8.86235237121582,
      "2199": -4.348209381103516,
      "2200": -13.87820053100586,
      "2201": -15.383506774902344,
      "2202": -7.577587127685547,
      "2203": -1.22080397605896,
      "2204": 1.5966572761535645,
      "2205": -12.632181167602539,
      "2206": 5.1405110359191895,
      "2207": -10.610615730285645,
      "2208": 8.613664627075195,
      "2209": 8.260499954223633,
      "2210": -4.703425407409668,
      "2211": -13.8624849319458,
      "2212": -0.19654741883277893,
      "2213": -6.852294921875,
      "2214": 1.480042576789856,
      "2215": 5.82315731048584,
      "2216": -3.497098684310913,
      "2217": -22.29572105407715,
      "2218": 18.823041915893555,
      "2219": 3.107304096221924,
      "2220": 2.650355577468872,
      "2221": 4.9782915115356445,
      "2222": -5.87661075592041,
      "2223": -1.8591630458831787,
      "2224": -6.8419413566589355,
      "2225": 15.004432678222656,
      "2226": 3.5945944786071777,
      "2227": 10.62839412689209,
      "2228": 6.051573276519775,
      "2229": 14.49531078338623,
      "2230": 0.028982680290937424,
      "2231": 0.7013953328132629,
      "2232": -14.763861656188965,
      "2233": -0.7461508512496948,
      "2234": 11.561979293823242,
      "2235": 11.791446685791016,
      "2236": 2.889873504638672,
      "2237": 4.019940376281738,
      "2238": -2.25704288482666,
      "2239": 14.272884368896484,
      "2240": -10.674782752990723,
      "2241": 2.2408947944641113,
      "2242": 2.8775711059570312,
      "2243": 6.797520637512207,
      "2244": 4.03450870513916,
      "2245": -6.8810882568359375,
      "2246": -4.431597709655762,
      "2247": -0.24538679420948029,
      "2248": 6.045428276062012,
      "2249": 0.5158787369728088,
      "2250": 1.9587936401367188,
      "2251": 15.501518249511719,
      "2252": -20.20719337463379,
      "2253": -3.3692917823791504,
      "2254": -0.504673421382904,
      "2255": 0.02339189499616623,
      "2256": 11.735026359558105,
      "2257": 0.5410712957382202,
      "2258": -10.71613883972168,
      "2259": -2.41801381111145,
      "2260": -8.475531578063965,
      "2261": -9.048210144042969,
      "2262": -8.863852500915527,
      "2263": 31.850086212158203,
      "2264": 4.82073450088501,
      "2265": 9.520529747009277,
      "2266": -13.844230651855469,
      "2267": -1.6610982418060303,
      "2268": 8.300446510314941,
      "2269": -2.816603899002075,
      "2270": 5.10292387008667,
      "2271": 2.1074509620666504,
      "2272": -3.8072192668914795,
      "2273": 2.0679800510406494,
      "2274": 19.448318481445312,
      "2275": -4.11356258392334,
      "2276": 14.31501293182373,
      "2277": -2.6857059001922607,
      "2278": 17.56925392150879,
      "2279": 6.729465961456299,
      "2280": 4.707202434539795,
      "2281": 10.67792797088623,
      "2282": 13.396326065063477,
      "2283": -26.846208572387695,
      "2284": 10.294323921203613,
      "2285": -14.536046981811523,
      "2286": -10.6593656539917,
      "2287": 2.4446020126342773,
      "2288": -10.813831329345703,
      "2289": -4.918508052825928,
      "2290": -10.051373481750488,
      "2291": -21.258846282958984,
      "2292": -3.4540960788726807,
      "2293": 8.251398086547852,
      "2294": 13.844968795776367,
      "2295": -2.6490092277526855,
      "2296": -14.321004867553711,
      "2297": 14.52171516418457,
      "2298": 6.6667070388793945,
      "2299": -0.25860968232154846,
      "2300": 8.214717864990234,
      "2301": -3.0123989582061768,
      "2302": -3.4130871295928955,
      "2303": -0.6160051226615906,
      "2304": -18.37546157836914,
      "2305": -22.743438720703125,
      "2306": 18.09481430053711,
      "2307": -0.026425346732139587,
      "2308": 8.464186668395996,
      "2309": -0.21095412969589233,
      "2310": -1.268648386001587,
      "2311": 1.2763519287109375,
      "2312": -12.030799865722656,
      "2313": 3.0056023597717285,
      "2314": -11.161989212036133,
      "2315": -15.520196914672852,
      "2316": 12.06637191772461,
      "2317": 2.2182397842407227,
      "2318": 10.23867130279541,
      "2319": -8.978271484375,
      "2320": -12.36517333984375,
      "2321": 10.95480728149414,
      "2322": -9.609288215637207,
      "2323": 21.722843170166016,
      "2324": -0.3302946984767914,
      "2325": 1.753790020942688,
      "2326": -7.394657611846924,
      "2327": -4.723372936248779,
      "2328": -13.53032112121582,
      "2329": -1.5546938180923462,
      "2330": 3.0595505237579346,
      "2331": 13.425915718078613,
      "2332": -2.06373929977417,
      "2333": -9.887964248657227,
      "2334": 0.6608380675315857,
      "2335": 10.599395751953125,
      "2336": -2.2369537353515625,
      "2337": 6.558189868927002,
      "2338": 0.8385204672813416,
      "2339": -5.933302402496338,
      "2340": 1.6407912969589233,
      "2341": 0.6514987349510193,
      "2342": -6.853163719177246,
      "2343": -13.412322044372559,
      "2344": 21.355316162109375,
      "2345": 10.52304744720459,
      "2346": 0.38838425278663635,
      "2347": -19.304615020751953,
      "2348": 5.657018661499023,
      "2349": -5.977018356323242,
      "2350": 5.900453090667725,
      "2351": -5.571918964385986,
      "2352": -1.3302576541900635,
      "2353": 6.287806987762451,
      "2354": -6.299537181854248,
      "2355": -11.749529838562012,
      "2356": -4.162404537200928,
      "2357": -17.928142547607422,
      "2358": 3.349442481994629,
      "2359": -2.5940933227539062,
      "2360": 5.302801132202148,
      "2361": -2.005825996398926,
      "2362": -8.637690544128418,
      "2363": -7.693084716796875,
      "2364": 7.857515811920166,
      "2365": -16.035282135009766,
      "2366": 2.7980434894561768,
      "2367": 26.991138458251953,
      "2368": -4.888516426086426,
      "2369": -6.5140910148620605,
      "2370": 5.154498100280762,
      "2371": -3.5613203048706055,
      "2372": -4.800637245178223,
      "2373": 16.1591796875,
      "2374": 2.722531795501709,
      "2375": -3.637901782989502,
      "2376": 9.391014099121094,
      "2377": 0.17914539575576782,
      "2378": -3.8960607051849365,
      "2379": 2.738227605819702,
      "2380": 2.5139806270599365,
      "2381": -20.18259620666504,
      "2382": 11.96878433227539,
      "2383": -11.51007080078125,
      "2384": 10.232973098754883,
      "2385": 6.763674736022949,
      "2386": 3.3473446369171143,
      "2387": -6.437314033508301,
      "2388": -14.90334415435791,
      "2389": 5.54279088973999,
      "2390": -7.233017921447754,
      "2391": -8.82477855682373,
      "2392": 3.2343595027923584,
      "2393": -6.505599498748779,
      "2394": -7.393651485443115,
      "2395": 14.411993980407715,
      "2396": 4.233667373657227,
      "2397": 17.21376609802246,
      "2398": 9.932238578796387,
      "2399": 4.027527332305908,
      "2400": -19.468801498413086,
      "2401": -8.096992492675781,
      "2402": 1.605733871459961,
      "2403": 7.668123722076416,
      "2404": 0.1261519193649292,
      "2405": -6.751160621643066,
      "2406": 1.0093955993652344,
      "2407": -1.0299514532089233,
      "2408": -10.122617721557617,
      "2409": -4.975095272064209,
      "2410": 7.154765605926514,
      "2411": -8.16649341583252,
      "2412": -4.795896530151367,
      "2413": 14.727545738220215,
      "2414": -3.688188314437866,
      "2415": -4.180845737457275,
      "2416": -12.161835670471191,
      "2417": -8.552793502807617,
      "2418": 9.43635082244873,
      "2419": -6.7160210609436035,
      "2420": -6.831177234649658,
      "2421": -1.8149470090866089,
      "2422": -4.3198065757751465,
      "2423": -13.529801368713379,
      "2424": 8.730570793151855,
      "2425": 2.2787842750549316,
      "2426": 5.762190818786621,
      "2427": -0.471358060836792,
      "2428": -17.135074615478516,
      "2429": 6.504692077636719,
      "2430": 4.710097789764404,
      "2431": 1.9670902490615845,
      "2432": 15.323392868041992,
      "2433": 10.69444751739502,
      "2434": -0.13846972584724426,
      "2435": 17.128646850585938,
      "2436": 1.4589513540267944,
      "2437": -2.4902901649475098,
      "2438": -0.0034379148855805397,
      "2439": -17.718170166015625,
      "2440": -4.054140567779541,
      "2441": -3.7643942832946777,
      "2442": 10.913102149963379,
      "2443": -11.887489318847656,
      "2444": -12.092568397521973,
      "2445": 13.06460952758789,
      "2446": -5.118634223937988,
      "2447": -8.353532791137695,
      "2448": -6.10062837600708,
      "2449": -14.606013298034668,
      "2450": 2.409846544265747,
      "2451": -3.8104782104492188,
      "2452": 5.5797343254089355,
      "2453": 4.188705921173096,
      "2454": -0.26340922713279724,
      "2455": 3.775683641433716,
      "2456": -6.2668137550354,
      "2457": 2.548879623413086,
      "2458": -3.2884018421173096,
      "2459": 2.342322587966919,
      "2460": -3.380589008331299,
      "2461": 1.719574213027954,
      "2462": 2.7973854541778564,
      "2463": -0.4016777276992798,
      "2464": -1.0097486972808838,
      "2465": 7.650025844573975,
      "2466": 5.429204940795898,
      "2467": 4.872272491455078,
      "2468": -3.9697017669677734,
      "2469": 0.2959315776824951,
      "2470": -0.22908739745616913,
      "2471": -0.3393852114677429,
      "2472": -5.5179443359375,
      "2473": 3.4878780841827393,
      "2474": -0.2984744906425476,
      "2475": -0.07965832948684692,
      "2476": 1.830973505973816,
      "2477": 1.9631685018539429,
      "2478": 1.130815863609314,
      "2479": 2.0262904167175293,
      "2480": 4.546721458435059,
      "2481": 2.7502858638763428,
      "2482": 1.896173119544983,
      "2483": -1.3840867280960083,
      "2484": 7.838348388671875,
      "2485": 2.5625414848327637,
      "2486": 2.7410342693328857,
      "2487": 1.9814529418945312,
      "2488": -0.044880352914333344,
      "2489": -3.4607620239257812,
      "2490": 0.2603309154510498,
      "2491": -3.1636085510253906,
      "2492": 2.6707606315612793,
      "2493": -3.2089452743530273,
      "2494": 3.8594484329223633,
      "2495": -5.197306156158447,
      "2496": -1.6160571575164795,
      "2497": 1.7757185697555542,
      "2498": -5.2306342124938965,
      "2499": -0.8027586936950684,
      "2500": 1.9999029636383057,
      "2501": 2.457014322280884,
      "2502": 6.478682518005371,
      "2503": -2.4502673149108887,
      "2504": 0.6415320634841919,
      "2505": 1.603851556777954,
      "2506": 0.774520218372345,
      "2507": 2.115778923034668,
      "2508": 1.706384539604187,
      "2509": -2.9336321353912354,
      "2510": 2.139000654220581,
      "2511": -0.15971225500106812,
      "2512": 4.967010021209717,
      "2513": -1.7803945541381836,
      "2514": -1.1266785860061646,
      "2515": -0.905318021774292,
      "2516": 0.8755870461463928,
      "2517": -0.8508851528167725,
      "2518": 1.6753956079483032,
      "2519": -0.9588978886604309,
      "2520": -2.5604960918426514,
      "2521": -0.06157100945711136,
      "2522": 1.857236623764038,
      "2523": -2.7859129905700684,
      "2524": -2.354055166244507,
      "2525": -4.494053363800049,
      "2526": -1.1228314638137817,
      "2527": 4.252959251403809,
      "2528": -3.8985729217529297,
      "2529": -2.133378028869629,
      "2530": 5.576338291168213,
      "2531": -6.404817581176758,
      "2532": 3.5197343826293945,
      "2533": 8.341605186462402,
      "2534": -5.543628692626953,
      "2535": 2.0719478130340576,
      "2536": 3.652041435241699,
      "2537": -3.8453457355499268,
      "2538": -6.171613693237305,
      "2539": -0.08917659521102905,
      "2540": 1.7863889932632446,
      "2541": 8.195775032043457,
      "2542": -3.4769554138183594,
      "2543": 1.1162283420562744,
      "2544": 3.390805244445801,
      "2545": 2.700756311416626,
      "2546": 6.43678617477417,
      "2547": 3.606353282928467,
      "2548": -1.3087778091430664,
      "2549": -1.8249865770339966,
      "2550": 6.753265857696533,
      "2551": 2.663989305496216,
      "2552": -6.904089450836182,
      "2553": -0.2228318452835083,
      "2554": 0.9753099679946899,
      "2555": 0.49765393137931824,
      "2556": 0.27177882194519043,
      "2557": -6.580348968505859,
      "2558": 2.091477632522583,
      "2559": 1.228920578956604,
      "2560": 3.106964588165283,
      "2561": 0.5560328364372253,
      "2562": 1.9509913921356201,
      "2563": -1.2874112129211426,
      "2564": 1.1399033069610596,
      "2565": 2.542804718017578,
      "2566": -1.2686444520950317,
      "2567": -6.20914363861084,
      "2568": -7.311500549316406,
      "2569": -4.794478416442871,
      "2570": -0.8066152334213257,
      "2571": -2.54162859916687,
      "2572": 5.289115905761719,
      "2573": 1.3399494886398315,
      "2574": -1.9209684133529663,
      "2575": -2.198838949203491,
      "2576": 0.31217581033706665,
      "2577": 5.768163204193115,
      "2578": -0.6677253246307373,
      "2579": -1.1297669410705566,
      "2580": -0.24048715829849243,
      "2581": 0.931150496006012,
      "2582": 5.576982021331787,
      "2583": -4.222054481506348,
      "2584": 2.380650043487549,
      "2585": -3.19071626663208,
      "2586": -5.684313774108887,
      "2587": -3.881438970565796,
      "2588": 4.628530979156494,
      "2589": -8.604674339294434,
      "2590": -2.4901680946350098,
      "2591": -10.943548202514648,
      "2592": 11.93696403503418,
      "2593": 8.689446449279785,
      "2594": 8.053742408752441,
      "2595": 7.956808567047119,
      "2596": 2.440765380859375,
      "2597": 14.563973426818848,
      "2598": -17.838424682617188,
      "2599": -10.80532455444336,
      "2600": 1.0341311693191528,
      "2601": 9.073413848876953,
      "2602": 7.7965874671936035,
      "2603": 7.774111270904541,
      "2604": -0.6541805863380432,
      "2605": 3.4563472270965576,
      "2606": 9.279946327209473,
      "2607": 2.9135141372680664,
      "2608": 12.78295612335205,
      "2609": -9.893515586853027,
      "2610": 5.52890157699585,
      "2611": 8.476037979125977,
      "2612": -9.983743667602539,
      "2613": -11.006043434143066,
      "2614": -0.6325411796569824,
      "2615": 7.918129920959473,
      "2616": 12.748322486877441,
      "2617": 16.96581268310547,
      "2618": -2.636887788772583,
      "2619": -1.2318035364151,
      "2620": 16.094398498535156,
      "2621": 10.775324821472168,
      "2622": -11.085570335388184,
      "2623": 3.15297532081604,
      "2624": -1.1041877269744873,
      "2625": 14.786589622497559,
      "2626": -7.3133649826049805,
      "2627": 9.034523963928223,
      "2628": 4.354400634765625,
      "2629": -14.33464527130127,
      "2630": 6.1784749031066895,
      "2631": -15.790043830871582,
      "2632": 5.516299724578857,
      "2633": 5.1354475021362305,
      "2634": -16.155000686645508,
      "2635": -8.051048278808594,
      "2636": -5.207870960235596,
      "2637": 0.5250140428543091,
      "2638": -13.759639739990234,
      "2639": -1.9470306634902954,
      "2640": 11.80996322631836,
      "2641": 12.996647834777832,
      "2642": 3.194861888885498,
      "2643": -2.9202396869659424,
      "2644": -2.1488776206970215,
      "2645": 3.3649840354919434,
      "2646": 6.909823417663574,
      "2647": 4.965277671813965,
      "2648": 7.166111469268799,
      "2649": -2.7042853832244873,
      "2650": 2.2869842052459717,
      "2651": 6.864228248596191,
      "2652": 4.977218151092529,
      "2653": 8.056777954101562,
      "2654": -5.715579509735107,
      "2655": 14.987892150878906,
      "2656": -18.64794921875,
      "2657": -2.6594810485839844,
      "2658": 3.692410945892334,
      "2659": -8.67960262298584,
      "2660": -4.176426410675049,
      "2661": 7.056222438812256,
      "2662": -7.177829742431641,
      "2663": -3.017296552658081,
      "2664": -13.220757484436035,
      "2665": -2.8405845165252686,
      "2666": 4.758919715881348,
      "2667": -5.338538646697998,
      "2668": 2.977428436279297,
      "2669": -6.408957004547119,
      "2670": -7.804264545440674,
      "2671": -0.8669717311859131,
      "2672": -6.111728668212891,
      "2673": -6.772343635559082,
      "2674": 16.084383010864258,
      "2675": -8.051981925964355,
      "2676": -1.076404094696045,
      "2677": -0.38730359077453613,
      "2678": 0.8590330481529236,
      "2679": 6.971243381500244,
      "2680": -4.520410537719727,
      "2681": 0.15611054003238678,
      "2682": 18.879507064819336,
      "2683": -9.556329727172852,
      "2684": -1.903294563293457,
      "2685": 3.7264158725738525,
      "2686": -8.704215049743652,
      "2687": 2.63258695602417,
      "2688": 3.567305088043213,
      "2689": -3.547988176345825,
      "2690": -10.313140869140625,
      "2691": -12.66135025024414,
      "2692": 9.237812042236328,
      "2693": -7.271989822387695,
      "2694": -7.313352584838867,
      "2695": 8.507746696472168,
      "2696": -4.432645797729492,
      "2697": -1.3641854524612427,
      "2698": -3.758668899536133,
      "2699": 11.014128684997559,
      "2700": -5.004622936248779,
      "2701": -1.8867040872573853,
      "2702": -3.7841978073120117,
      "2703": 1.9891468286514282,
      "2704": -2.682849884033203,
      "2705": -0.549829363822937,
      "2706": 12.440266609191895,
      "2707": 16.128475189208984,
      "2708": 4.133691310882568,
      "2709": 6.829634189605713,
      "2710": -9.591108322143555,
      "2711": 0.3735015392303467,
      "2712": -9.802416801452637,
      "2713": 0.0759933590888977,
      "2714": -4.567615985870361,
      "2715": 1.2552472352981567,
      "2716": 11.218996047973633,
      "2717": -15.260279655456543,
      "2718": -1.7770732641220093,
      "2719": 3.7466025352478027,
      "2720": -2.5264830589294434,
      "2721": 6.375136852264404,
      "2722": -2.843722105026245,
      "2723": 1.5633022785186768,
      "2724": -5.060018539428711,
      "2725": -3.997467517852783,
      "2726": 5.774194717407227,
      "2727": 10.874160766601562,
      "2728": -6.851640701293945,
      "2729": 7.244145393371582,
      "2730": -1.986295223236084,
      "2731": -3.0242598056793213,
      "2732": -4.57257080078125,
      "2733": 1.570313572883606,
      "2734": -2.097440242767334,
      "2735": 7.145650863647461,
      "2736": 9.826057434082031,
      "2737": 2.1707890033721924,
      "2738": 1.8231748342514038,
      "2739": 11.226372718811035,
      "2740": 0.4313170909881592,
      "2741": 2.662729024887085,
      "2742": -2.7656991481781006,
      "2743": 4.809691429138184,
      "2744": 7.846574306488037,
      "2745": -7.440960884094238,
      "2746": -7.488378524780273,
      "2747": 0.520479679107666,
      "2748": -1.4016940593719482,
      "2749": -6.547476291656494,
      "2750": 4.225554466247559,
      "2751": 8.743619918823242,
      "2752": -8.034383773803711,
      "2753": -7.999594211578369,
      "2754": -4.977111339569092,
      "2755": -4.0235981941223145,
      "2756": 1.4237518310546875,
      "2757": 6.125006675720215,
      "2758": -3.1236939430236816,
      "2759": 5.139685153961182,
      "2760": -7.070354461669922,
      "2761": -1.9499465227127075,
      "2762": -10.02927303314209,
      "2763": 2.643892526626587,
      "2764": 2.162640333175659,
      "2765": 0.18752437829971313,
      "2766": 0.21844416856765747,
      "2767": 0.35134318470954895,
      "2768": 1.690314531326294,
      "2769": 2.1984026432037354,
      "2770": 4.803175449371338,
      "2771": 1.908962368965149,
      "2772": -10.580183982849121,
      "2773": 6.945761680603027,
      "2774": -7.681368350982666,
      "2775": 5.156749725341797,
      "2776": -11.2009859085083,
      "2777": -8.991353988647461,
      "2778": 6.272253036499023,
      "2779": 6.028838157653809,
      "2780": 8.295774459838867,
      "2781": 1.132179856300354,
      "2782": 4.546234130859375,
      "2783": 0.06824108958244324,
      "2784": 12.033576965332031,
      "2785": -3.717362642288208,
      "2786": -4.975579738616943,
      "2787": -0.3201455771923065,
      "2788": 4.505293369293213,
      "2789": -0.29698601365089417,
      "2790": 2.1708695888519287,
      "2791": 1.1613752841949463,
      "2792": -3.9119296073913574,
      "2793": 0.6779729723930359,
      "2794": -1.1448779106140137,
      "2795": -3.8557398319244385,
      "2796": -0.4041667878627777,
      "2797": 5.673640251159668,
      "2798": -2.943910837173462,
