{
  "type": "LSTM",
  "options": {
    "inputSize": 47,
    "inputRange": 47,
    "hiddenLayers": [
      20,
      20
    ],
    "outputSize": 47,
    "decayRate": 0.999,
    "smoothEps": 1e-8,
    "regc": 0.000001,
    "clipval": 5,
    "maxPredictionLength": 100,
    "dataFormatter": {
      "values": [
        "Appreciate every day",
        "What is the meaning of life?",
        "copy file into docker container",
        "docker cp ./some_file CONTAINER:/work",
        "favorite food",
        "git pull origin --rebase ",
        "how to clean node cache",
        "how to rebase in git",
        "how to run nodejs file on command line",
        "how to view all ports being used on mac",
        "node --experimental-modules src/file.js",
        "npm cache clean --force",
        "pizza",
        "sudo lsof -iTCP -sTCP:LISTEN -n -P"
      ],
      "indexTable": {
        "A": 0,
        "p": 1,
        "r": 2,
        "e": 3,
        "c": 4,
        "i": 5,
        "a": 6,
        "t": 7,
        " ": 8,
        "v": 9,
        "y": 10,
        "d": 11,
        "W": 12,
        "h": 13,
        "s": 14,
        "m": 15,
        "n": 16,
        "g": 17,
        "o": 18,
        "f": 19,
        "l": 20,
        "?": 21,
        "k": 22,
        ".": 23,
        "/": 24,
        "_": 25,
        "C": 26,
        "O": 27,
        "N": 28,
        "T": 29,
        "I": 30,
        "E": 31,
        "R": 32,
        ":": 33,
        "w": 34,
        "u": 35,
        "-": 36,
        "b": 37,
        "j": 38,
        "x": 39,
        "z": 40,
        "P": 41,
        "L": 42,
        "S": 43,
        "stop-input": 44,
        "start-output": 45,
        "unrecognized": 46
      },
      "characterTable": {
        "0": "A",
        "1": "p",
        "2": "r",
        "3": "e",
        "4": "c",
        "5": "i",
        "6": "a",
        "7": "t",
        "8": " ",
        "9": "v",
        "10": "y",
        "11": "d",
        "12": "W",
        "13": "h",
        "14": "s",
        "15": "m",
        "16": "n",
        "17": "g",
        "18": "o",
        "19": "f",
        "20": "l",
        "21": "?",
        "22": "k",
        "23": ".",
        "24": "/",
        "25": "_",
        "26": "C",
        "27": "O",
        "28": "N",
        "29": "T",
        "30": "I",
        "31": "E",
        "32": "R",
        "33": ":",
        "34": "w",
        "35": "u",
        "36": "-",
        "37": "b",
        "38": "j",
        "39": "x",
        "40": "z",
        "41": "P",
        "42": "L",
        "43": "S",
        "44": null,
        "45": null,
        "46": null
      },
      "characters": [
        "A",
        "p",
        "r",
        "e",
        "c",
        "i",
        "a",
        "t",
        " ",
        "v",
        "y",
        "d",
        "W",
        "h",
        "s",
        "m",
        "n",
        "g",
        "o",
        "f",
        "l",
        "?",
        "k",
        ".",
        "/",
        "_",
        "C",
        "O",
        "N",
        "T",
        "I",
        "E",
        "R",
        ":",
        "w",
        "u",
        "-",
        "b",
        "j",
        "x",
        "z",
        "P",
        "L",
        "S",
        "stop-input",
        "start-output",
        "unrecognized"
      ],
      "specialIndexes": [
        44,
        45,
        46
      ]
    }
  },
  "input": {
    "rows": 48,
    "columns": 47,
    "weights": {
      "0": -1.6131564378738403,
      "1": 0.9765105247497559,
      "2": -1.7433269023895264,
      "3": 1.5843491554260254,
      "4": -1.5780010223388672,
      "5": -0.27765196561813354,
      "6": -0.9143505096435547,
      "7": 0.13025623559951782,
      "8": -0.3387804925441742,
      "9": -0.2433004528284073,
      "10": -0.3279402554035187,
      "11": 0.07367148995399475,
      "12": 0.24065595865249634,
      "13": -0.03027932345867157,
      "14": -1.206084132194519,
      "15": -0.6179258823394775,
      "16": 1.7099899053573608,
      "17": -1.9291126728057861,
      "18": -1.3446425199508667,
      "19": -0.2598060369491577,
      "20": -0.5741188526153564,
      "21": 0.3899536430835724,
      "22": 0.04014524072408676,
      "23": -0.09395809471607208,
      "24": 0.39367780089378357,
      "25": 0.7421425580978394,
      "26": 0.6182702779769897,
      "27": 0.8723724484443665,
      "28": -1.267063021659851,
      "29": 0.8464152216911316,
      "30": -0.6873321533203125,
      "31": -0.14015766978263855,
      "32": 1.2224905490875244,
      "33": -0.8830527663230896,
      "34": -0.1116277202963829,
      "35": 0.5108458399772644,
      "36": -0.9901642203330994,
      "37": -0.3410339951515198,
      "38": 0.09572286158800125,
      "39": -0.13451457023620605,
      "40": -0.06486597657203674,
      "41": 0.10588186234235764,
      "42": -0.7318094372749329,
      "43": -0.0025704270228743553,
      "44": 0.8581743240356445,
      "45": 2.599724292755127,
      "46": 0.014028062112629414,
      "47": -0.15971529483795166,
      "48": -0.5807787179946899,
      "49": 0.9058239459991455,
      "50": 0.9048455357551575,
      "51": 1.208388328552246,
      "52": -0.7393664717674255,
      "53": 0.36017173528671265,
      "54": 1.8322237730026245,
      "55": -2.9773802757263184,
      "56": -0.9881730079650879,
      "57": -0.871181070804596,
      "58": 3.34027361869812,
      "59": -1.2327558994293213,
      "60": 3.218900680541992,
      "61": 3.4955267906188965,
      "62": -0.2173445224761963,
      "63": 0.23191297054290771,
      "64": -1.083282709121704,
      "65": -1.826338768005371,
      "66": -0.6228235960006714,
      "67": -3.897467851638794,
      "68": 0.5883011221885681,
      "69": -1.5151300430297852,
      "70": -1.1849677562713623,
      "71": 0.08554863184690475,
      "72": 0.49171411991119385,
      "73": 0.5233200192451477,
      "74": 0.9592109322547913,
      "75": 0.5586211085319519,
      "76": 1.5823321342468262,
      "77": 1.378286361694336,
      "78": -0.32775261998176575,
      "79": 2.3334460258483887,
      "80": 2.787564516067505,
      "81": 1.733527421951294,
      "82": -1.4626706838607788,
      "83": 0.7507488131523132,
      "84": 2.498404026031494,
      "85": 0.2422008365392685,
      "86": -0.607058584690094,
      "87": -0.40133851766586304,
      "88": -0.36546260118484497,
      "89": 0.2301495373249054,
      "90": 4.359553813934326,
      "91": -0.3659093976020813,
      "92": 1.123619794845581,
      "93": -0.5816124677658081,
      "94": 0.19954413175582886,
      "95": 0.8574575185775757,
      "96": -1.3832085132598877,
      "97": 0.2791230082511902,
      "98": 0.38053587079048157,
      "99": 0.09078580141067505,
      "100": -0.9539815187454224,
      "101": 0.4170447885990143,
      "102": 0.6576173305511475,
      "103": -1.2958364486694336,
      "104": 0.6330420970916748,
      "105": -1.1367557048797607,
      "106": 0.5467641353607178,
      "107": 0.42085835337638855,
      "108": -1.6596297025680542,
      "109": 0.03831273689866066,
      "110": -0.2749115824699402,
      "111": -0.04842081293463707,
      "112": -0.041818443685770035,
      "113": -0.7206857204437256,
      "114": -1.596412181854248,
      "115": -1.1491013765335083,
      "116": 1.4961026906967163,
      "117": -0.5265440940856934,
      "118": 1.1725612878799438,
      "119": -0.8495867848396301,
      "120": 0.41701653599739075,
      "121": -0.4588779807090759,
      "122": -0.29269424080848694,
      "123": 0.3986188769340515,
      "124": -0.36193400621414185,
      "125": 0.35401636362075806,
      "126": 0.016338689252734184,
      "127": 0.5459117293357849,
      "128": -1.4366449117660522,
      "129": -0.5408186912536621,
      "130": 0.6337775588035583,
      "131": 0.2658824026584625,
      "132": 0.7676147222518921,
      "133": 0.2060461789369583,
      "134": -1.0489928722381592,
      "135": -0.8344889879226685,
      "136": -0.6371099352836609,
      "137": -0.739760160446167,
      "138": -0.30491915345191956,
      "139": 0.06653768569231033,
      "140": 1.885327935218811,
      "141": 3.8417270183563232,
      "142": 4.540069103240967,
      "143": 0.019295327365398407,
      "144": 0.057554010301828384,
      "145": -3.2775301933288574,
      "146": -0.2802516520023346,
      "147": -4.190549850463867,
      "148": 1.326803207397461,
      "149": 1.7323968410491943,
      "150": 1.405949592590332,
      "151": 4.851621150970459,
      "152": 5.879303932189941,
      "153": 0.22092093527317047,
      "154": -4.030224323272705,
      "155": 0.9033474922180176,
      "156": 2.9990041255950928,
      "157": -0.6443126201629639,
      "158": 0.6197205185890198,
      "159": 0.047169335186481476,
      "160": -1.795871615409851,
      "161": 1.0861310958862305,
      "162": 1.2446647882461548,
      "163": -1.442867636680603,
      "164": 1.1010255813598633,
      "165": -1.6007866859436035,
      "166": 0.6478359699249268,
      "167": -0.038885049521923065,
      "168": -7.905181884765625,
      "169": -0.2815988063812256,
      "170": 1.6981480121612549,
      "171": 1.7862650156021118,
      "172": 3.161261558532715,
      "173": -3.6759636402130127,
      "174": -6.298818588256836,
      "175": 1.9818886518478394,
      "176": 2.1019864082336426,
      "177": -2.531809091567993,
      "178": 0.8413721323013306,
      "179": -0.8547489047050476,
      "180": -1.1553521156311035,
      "181": 2.8862178325653076,
      "182": -0.42243263125419617,
      "183": 0.1998496651649475,
      "184": -3.2927496433258057,
      "185": -5.279752731323242,
      "186": 0.8645164370536804,
      "187": 0.038267284631729126,
      "188": 0.2195894569158554,
      "189": 0.06688904762268066,
      "190": -0.27430084347724915,
      "191": 0.5405734181404114,
      "192": -0.2831118404865265,
      "193": -0.25956857204437256,
      "194": -0.5776654481887817,
      "195": -0.07266490906476974,
      "196": 0.5075690150260925,
      "197": 0.3202311396598816,
      "198": 1.6107959747314453,
      "199": 0.029129570350050926,
      "200": 1.7256160974502563,
      "201": -2.779707431793213,
      "202": -0.3519785702228546,
      "203": 0.8160194754600525,
      "204": -0.10200604796409607,
      "205": -0.5454081892967224,
      "206": -0.8535462617874146,
      "207": -0.43480056524276733,
      "208": -0.8054138422012329,
      "209": 0.41485291719436646,
      "210": -0.69347083568573,
      "211": 2.584383010864258,
      "212": 1.3673086166381836,
      "213": -0.18675188720226288,
      "214": 0.48611485958099365,
      "215": -0.405670702457428,
      "216": -0.4407964050769806,
      "217": -0.39272674918174744,
      "218": -0.06879648566246033,
      "219": 1.6854853630065918,
      "220": 1.2642608880996704,
      "221": -0.8183153867721558,
      "222": -0.35017746686935425,
      "223": 0.7867895364761353,
      "224": 2.057633399963379,
      "225": -0.4097273051738739,
      "226": 0.8701234459877014,
      "227": -1.2956651449203491,
      "228": -0.8215278387069702,
      "229": 0.4988406300544739,
      "230": -0.23314383625984192,
      "231": -0.21230925619602203,
      "232": -0.2149670273065567,
      "233": 0.25194069743156433,
      "234": 1.417829155921936,
      "235": -0.4641403555870056,
      "236": -1.9227794408798218,
      "237": 3.9310903549194336,
      "238": -0.1653524488210678,
      "239": 0.2431495636701584,
      "240": 1.5780597925186157,
      "241": 2.9866931438446045,
      "242": -1.1709665060043335,
      "243": 1.2492777109146118,
      "244": -0.330721914768219,
      "245": -0.24077890813350677,
      "246": -0.3379289209842682,
      "247": 0.03297313675284386,
      "248": 0.01863788440823555,
      "249": -0.5353402495384216,
      "250": -0.32359805703163147,
      "251": 0.18840183317661285,
      "252": 1.0104249715805054,
      "253": 0.9558147192001343,
      "254": -0.22745156288146973,
      "255": 1.1517055034637451,
      "256": 0.42267295718193054,
      "257": 0.691649854183197,
      "258": -0.20547233521938324,
      "259": -0.4810812473297119,
      "260": -0.1399592161178589,
      "261": 1.0188912153244019,
      "262": -0.5065286755561829,
      "263": 0.42654797434806824,
      "264": 0.14097124338150024,
      "265": 0.5339400768280029,
      "266": -0.26812025904655457,
      "267": -0.4461248517036438,
      "268": -0.7068558931350708,
      "269": -0.14584943652153015,
      "270": -0.8430581092834473,
      "271": -0.9641128182411194,
      "272": 0.06851981580257416,
      "273": 0.5408688187599182,
      "274": -0.6418908834457397,
      "275": 0.5358887314796448,
      "276": -0.8466901183128357,
      "277": 0.31258371472358704,
      "278": 0.49743330478668213,
      "279": -0.005510745104402304,
      "280": -0.7342102527618408,
      "281": -0.7486665844917297,
      "282": -0.8111562728881836,
      "283": -0.8450653553009033,
      "284": -0.9575612545013428,
      "285": 0.04815793037414551,
      "286": 0.4939804971218109,
      "287": -0.5975237488746643,
      "288": 0.6177352666854858,
      "289": 0.07677869498729706,
      "290": -0.5664970874786377,
      "291": 0.035372477024793625,
      "292": -1.984674334526062,
      "293": -1.7538214921951294,
      "294": -0.9975348711013794,
      "295": 1.8273587226867676,
      "296": -0.3826390206813812,
      "297": -1.3229001760482788,
      "298": 0.653435468673706,
      "299": 0.8574181199073792,
      "300": 0.16687437891960144,
      "301": 0.38593512773513794,
      "302": -0.03811219334602356,
      "303": -0.29422807693481445,
      "304": -0.24873846769332886,
      "305": -0.7531017661094666,
      "306": -0.5547598600387573,
      "307": 0.2572856843471527,
      "308": -0.5866539478302002,
      "309": 1.2045668363571167,
      "310": -0.291879266500473,
      "311": -0.25084322690963745,
      "312": -0.1913943886756897,
      "313": -1.7999098300933838,
      "314": -0.8870236277580261,
      "315": -0.2051013857126236,
      "316": 1.0268868207931519,
      "317": -0.40035098791122437,
      "318": -0.6019818186759949,
      "319": -0.41582024097442627,
      "320": -0.4900808334350586,
      "321": 1.2136366367340088,
      "322": 1.2515441179275513,
      "323": 0.4272485077381134,
      "324": 0.12753240764141083,
      "325": 0.7513921856880188,
      "326": 1.35060715675354,
      "327": -0.5873738527297974,
      "328": -0.4836951792240143,
      "329": 0.12557446956634521,
      "330": 0.12270341068506241,
      "331": -0.694980800151825,
      "332": -0.2364448755979538,
      "333": -0.3337533473968506,
      "334": -0.6127681732177734,
      "335": -0.04765646904706955,
      "336": 0.3503926992416382,
      "337": 1.5757317543029785,
      "338": -0.863375723361969,
      "339": 1.2896857261657715,
      "340": 0.544129490852356,
      "341": 1.6819742918014526,
      "342": -1.9034790992736816,
      "343": -1.331404685974121,
      "344": 0.5035337805747986,
      "345": -1.3206368684768677,
      "346": 0.8486900925636292,
      "347": -0.6376294493675232,
      "348": 0.07408115267753601,
      "349": -0.2161063849925995,
      "350": -0.110568568110466,
      "351": 1.1235215663909912,
      "352": 0.08868400007486343,
      "353": 2.5509400367736816,
      "354": -0.1422601193189621,
      "355": 0.45236724615097046,
      "356": -0.39852747321128845,
      "357": -2.0349414348602295,
      "358": 2.03176212310791,
      "359": -0.5776038765907288,
      "360": 2.1001760959625244,
      "361": -1.4015122652053833,
      "362": -0.8892693519592285,
      "363": -2.1341423988342285,
      "364": 0.7596022486686707,
      "365": 0.11705274134874344,
      "366": 0.12857480347156525,
      "367": 0.9431148171424866,
      "368": -1.6559805870056152,
      "369": -1.6614373922348022,
      "370": -0.6915588974952698,
      "371": 0.3363436460494995,
      "372": -2.8722035884857178,
      "373": -0.8870648741722107,
      "374": 1.208302617073059,
      "375": 2.359708786010742,
      "376": -1.040942668914795,
      "377": -0.9424830675125122,
      "378": -0.19601649045944214,
      "379": 0.6487583518028259,
      "380": 1.2171671390533447,
      "381": 1.6563529968261719,
      "382": -0.4208706021308899,
      "383": -1.1054089069366455,
      "384": 0.08293132483959198,
      "385": 1.7186640501022339,
      "386": 0.1331814080476761,
      "387": -1.3437176942825317,
      "388": -1.3679836988449097,
      "389": 1.399066686630249,
      "390": -0.3034704327583313,
      "391": -0.5642759799957275,
      "392": 1.679256558418274,
      "393": -0.23686964809894562,
      "394": 0.9775863289833069,
      "395": 0.5900097489356995,
      "396": 1.0672470331192017,
      "397": -1.3928126096725464,
      "398": -1.399505853652954,
      "399": 1.6915980577468872,
      "400": -1.4738236665725708,
      "401": 1.7928657531738281,
      "402": -1.2177600860595703,
      "403": -0.778144896030426,
      "404": 1.3795486688613892,
      "405": -1.2407201528549194,
      "406": -0.36128902435302734,
      "407": -1.5476828813552856,
      "408": -0.4929119944572449,
      "409": -0.11393813788890839,
      "410": 0.8766257762908936,
      "411": -0.42312702536582947,
      "412": 2.0261952877044678,
      "413": -1.4248548746109009,
      "414": -0.254802942276001,
      "415": 0.7367376089096069,
      "416": 1.0649235248565674,
      "417": 0.5041553378105164,
      "418": -0.8670647740364075,
      "419": 2.8922550678253174,
      "420": 0.03448464721441269,
      "421": -0.5548034906387329,
      "422": -1.4346014261245728,
      "423": -0.770017683506012,
      "424": 0.38116881251335144,
      "425": 1.2117358446121216,
      "426": -0.35710543394088745,
      "427": 0.24508358538150787,
      "428": -1.2864457368850708,
      "429": -0.2668215036392212,
      "430": 2.0427005290985107,
      "431": 0.06259235739707947,
      "432": 0.04246450960636139,
      "433": 0.20453667640686035,
      "434": 1.4808859825134277,
      "435": 1.4985764026641846,
      "436": -1.5729806423187256,
      "437": 1.1092597246170044,
      "438": 0.08556966483592987,
      "439": -0.5183196067810059,
      "440": 0.17260302603244781,
      "441": -2.200031042098999,
      "442": -0.5828482508659363,
      "443": 0.2450794279575348,
      "444": 1.3273749351501465,
      "445": -0.31857696175575256,
      "446": -0.3962016701698303,
      "447": 1.926355242729187,
      "448": -1.2886691093444824,
      "449": -0.04894663766026497,
      "450": 0.5942007899284363,
      "451": -1.2627899646759033,
      "452": 0.46326693892478943,
      "453": -0.05791661515831947,
      "454": 1.8059881925582886,
      "455": 1.2128618955612183,
      "456": -1.8761169910430908,
      "457": 0.2003530114889145,
      "458": 1.8799192905426025,
      "459": -1.5599876642227173,
      "460": -1.137710690498352,
      "461": -0.596641480922699,
      "462": 0.03639189526438713,
      "463": -0.39179062843322754,
      "464": -1.5207010507583618,
      "465": -1.6108547449111938,
      "466": 0.563588559627533,
      "467": 0.006769848987460136,
      "468": -0.507284939289093,
      "469": 0.10590220987796783,
      "470": 1.9700931310653687,
      "471": 1.5450838804244995,
      "472": -1.3039863109588623,
      "473": 0.4421404004096985,
      "474": -0.006182441953569651,
      "475": 0.23790010809898376,
      "476": -2.1143112182617188,
      "477": 0.38608917593955994,
      "478": 0.6365415453910828,
      "479": -0.9474606513977051,
      "480": 1.8165918588638306,
      "481": 1.1965337991714478,
      "482": 0.9773305654525757,
      "483": -1.1119102239608765,
      "484": -0.9191089868545532,
      "485": 2.3666651248931885,
      "486": -0.8857014179229736,
      "487": -0.7242476344108582,
      "488": -0.3214298486709595,
      "489": -1.0585522651672363,
      "490": -2.0234830379486084,
      "491": 0.057903971523046494,
      "492": 1.865409255027771,
      "493": 0.020494332537055016,
      "494": 2.419787883758545,
      "495": -2.8722074031829834,
      "496": 1.0873680114746094,
      "497": -2.2270498275756836,
      "498": -0.3607027530670166,
      "499": 0.15375186502933502,
      "500": 0.6231266856193542,
      "501": 1.3584009408950806,
      "502": 0.0705513060092926,
      "503": 0.20358113944530487,
      "504": -0.4336044490337372,
      "505": -0.49422815442085266,
      "506": 1.7170146703720093,
      "507": 1.7798254489898682,
      "508": -0.055364083498716354,
      "509": 0.7108386754989624,
      "510": 0.2895872890949249,
      "511": -0.36417898535728455,
      "512": -0.09276583045721054,
      "513": -2.1777546405792236,
      "514": -1.241257667541504,
      "515": -0.6927728056907654,
      "516": 2.0323212146759033,
      "517": 1.7228248119354248,
      "518": -0.58591628074646,
      "519": -0.3994106948375702,
      "520": 0.48834413290023804,
      "521": -0.09721219539642334,
      "522": 2.287386894226074,
      "523": 1.2816773653030396,
      "524": -1.895033836364746,
      "525": -0.8462360501289368,
      "526": -1.9549027681350708,
      "527": -2.4367361068725586,
      "528": -0.6261280179023743,
      "529": -2.8601956367492676,
      "530": 4.512062072753906,
      "531": -1.4507083892822266,
      "532": -2.1273975372314453,
      "533": -1.3235278129577637,
      "534": -1.3428051471710205,
      "535": 2.271601676940918,
      "536": -1.9888249635696411,
      "537": -1.1058374643325806,
      "538": -0.6467196345329285,
      "539": 3.075591802597046,
      "540": -0.7129675149917603,
      "541": -5.640394687652588,
      "542": -1.8212858438491821,
      "543": 3.46191143989563,
      "544": -0.37379199266433716,
      "545": 0.9022886157035828,
      "546": -0.38379207253456116,
      "547": -1.2129085063934326,
      "548": -3.980262517929077,
      "549": 0.07793650776147842,
      "550": 0.8498727679252625,
      "551": -0.0580250509083271,
      "552": -0.7808495163917542,
      "553": 2.007312059402466,
      "554": 2.8910634517669678,
      "555": 1.4435341358184814,
      "556": 0.5239139199256897,
      "557": -0.25778552889823914,
      "558": -0.4326111078262329,
      "559": 2.187347173690796,
      "560": -1.4557442665100098,
      "561": -0.7704681158065796,
      "562": 0.9348406791687012,
      "563": 1.318364143371582,
      "564": -0.5940181016921997,
      "565": -0.7493606805801392,
      "566": 0.09234867990016937,
      "567": -0.4051586985588074,
      "568": 0.2599449157714844,
      "569": -0.5678194165229797,
      "570": 0.2651393413543701,
      "571": 0.7199877500534058,
      "572": 0.2894169092178345,
      "573": 0.14065441489219666,
      "574": 0.0028808729257434607,
      "575": 0.3856157064437866,
      "576": -0.7742384672164917,
      "577": 0.8649424910545349,
      "578": 0.640784502029419,
      "579": -0.323138564825058,
      "580": -0.3099212944507599,
      "581": 0.5811610817909241,
      "582": -0.376992404460907,
      "583": 0.32895079255104065,
      "584": -0.41076165437698364,
      "585": -0.18159812688827515,
      "586": -0.2774897813796997,
      "587": -2.82157301902771,
      "588": 0.3270077407360077,
      "589": -0.15906132757663727,
      "590": -0.5503208637237549,
      "591": 0.44337767362594604,
      "592": 0.011936010792851448,
      "593": 1.4059512615203857,
      "594": -0.20021960139274597,
      "595": -0.2464536875486374,
      "596": 3.5077593326568604,
      "597": 0.6551063060760498,
      "598": -0.19605834782123566,
      "599": -0.24233102798461914,
      "600": -1.8831347227096558,
      "601": -0.7608780264854431,
      "602": -0.013315499760210514,
      "603": -0.23266129195690155,
      "604": -0.36922648549079895,
      "605": -0.09734804928302765,
      "606": -0.722676694393158,
      "607": 1.1174521446228027,
      "608": 0.0480591356754303,
      "609": 0.0694417878985405,
      "610": -0.2892431318759918,
      "611": 2.4001078605651855,
      "612": 1.819977879524231,
      "613": 2.884368896484375,
      "614": 0.12692227959632874,
      "615": -1.9611144065856934,
      "616": 1.2654075622558594,
      "617": -0.8450271487236023,
      "618": -1.2324752807617188,
      "619": 0.5279853940010071,
      "620": -2.167123794555664,
      "621": -1.5812580585479736,
      "622": 1.1705327033996582,
      "623": 1.8668311834335327,
      "624": -1.0519293546676636,
      "625": 0.47710996866226196,
      "626": -2.5552608966827393,
      "627": -3.6579933166503906,
      "628": 0.6933256387710571,
      "629": 3.880098819732666,
      "630": -2.4161124229431152,
      "631": -2.7920801639556885,
      "632": 1.055427074432373,
      "633": 3.9507765769958496,
      "634": -0.7499727010726929,
      "635": 0.9046574234962463,
      "636": -2.004889726638794,
      "637": 2.447465419769287,
      "638": 0.6059666275978088,
      "639": 3.382746934890747,
      "640": 1.4883650541305542,
      "641": 0.8238701224327087,
      "642": 1.9051077365875244,
      "643": -0.6869964003562927,
      "644": 2.954711437225342,
      "645": -0.07438554614782333,
      "646": 2.3628406524658203,
      "647": -0.6673291921615601,
      "648": 0.962387204170227,
      "649": -0.9436902403831482,
      "650": 0.36204326152801514,
      "651": -0.7021917104721069,
      "652": -1.760010838508606,
      "653": 1.675870656967163,
      "654": -0.9949814081192017,
      "655": 1.9142652750015259,
      "656": -1.2398484945297241,
      "657": 2.0834548473358154,
      "658": -1.0206836462020874,
      "659": 0.9349945783615112,
      "660": -0.6102616190910339,
      "661": 0.0010666496818885207,
      "662": -0.09682373702526093,
      "663": -0.016269560903310776,
      "664": 0.02475646883249283,
      "665": 0.21102192997932434,
      "666": -0.4614430367946625,
      "667": 1.2010606527328491,
      "668": 0.3445203900337219,
      "669": -1.931789517402649,
      "670": -2.2590017318725586,
      "671": 2.6142375469207764,
      "672": 1.4250566959381104,
      "673": 1.2276840209960938,
      "674": 0.42757153511047363,
      "675": 0.01771409623324871,
      "676": -1.6034700870513916,
      "677": -0.46052348613739014,
      "678": -0.04119877144694328,
      "679": 1.1309561729431152,
      "680": -0.1398218721151352,
      "681": 1.9632779359817505,
      "682": -0.5020248889923096,
      "683": 0.03697561100125313,
      "684": -0.4354872405529022,
      "685": -0.2891092598438263,
      "686": -0.6074470281600952,
      "687": -2.448286771774292,
      "688": 1.123863935470581,
      "689": -1.1789965629577637,
      "690": -1.5013444423675537,
      "691": -1.5512655973434448,
      "692": 2.080641031265259,
      "693": 0.03962913155555725,
      "694": 1.6159635782241821,
      "695": -0.18497736752033234,
      "696": -1.2139748334884644,
      "697": 1.123297095298767,
      "698": 2.006152868270874,
      "699": 1.2367613315582275,
      "700": 0.3018666207790375,
      "701": 0.8828449845314026,
      "702": -0.10852161049842834,
      "703": 1.1983827352523804,
      "704": -3.012120008468628,
      "705": 0.37509122490882874,
      "706": -0.2537437379360199,
      "707": -1.5888084173202515,
      "708": 0.640809953212738,
      "709": -1.0017212629318237,
      "710": -0.17842990159988403,
      "711": 0.5683253407478333,
      "712": -0.9282453060150146,
      "713": 0.06753620505332947,
      "714": -1.0444046258926392,
      "715": 0.7467811703681946,
      "716": -2.850658893585205,
      "717": 0.5876837968826294,
      "718": -0.443174809217453,
      "719": -0.8385089635848999,
      "720": 1.5796314477920532,
      "721": 1.1149588823318481,
      "722": 0.4714471995830536,
      "723": 1.4858896732330322,
      "724": -0.8705225586891174,
      "725": -3.3504085540771484,
      "726": -1.0778119564056396,
      "727": 0.721625804901123,
      "728": 3.1655187606811523,
      "729": 1.9606715440750122,
      "730": -0.6275115609169006,
      "731": 2.78045392036438,
      "732": 0.44995924830436707,
      "733": 0.12812015414237976,
      "734": 1.2525124549865723,
      "735": 0.2713794410228729,
      "736": -0.545113205909729,
      "737": 1.345175862312317,
      "738": 0.7940453886985779,
      "739": -0.6913511753082275,
      "740": -1.7231724262237549,
      "741": 2.202773332595825,
      "742": 1.6836849451065063,
      "743": 1.192426085472107,
      "744": -1.3111990690231323,
      "745": -0.3074411153793335,
      "746": -0.5988203883171082,
      "747": 2.5342140197753906,
      "748": -3.1248838901519775,
      "749": -0.5093029737472534,
      "750": -0.5786450505256653,
      "751": 3.2724432945251465,
      "752": -1.0199975967407227,
      "753": 0.4889310300350189,
      "754": -0.47548988461494446,
      "755": 0.967197597026825,
      "756": 0.13256514072418213,
      "757": 0.41793298721313477,
      "758": 1.9321118593215942,
      "759": -0.3922049105167389,
      "760": -0.6729421019554138,
      "761": 0.8678816556930542,
      "762": -1.246870994567871,
      "763": -1.021327018737793,
      "764": -3.574769973754883,
      "765": 5.152977466583252,
      "766": -0.5141433477401733,
      "767": -0.2806580662727356,
      "768": 1.4530987739562988,
      "769": -0.4047529995441437,
      "770": -1.8547853231430054,
      "771": 1.4637527465820312,
      "772": 1.4944260120391846,
      "773": 0.5688046216964722,
      "774": 0.6028780937194824,
      "775": -0.47673386335372925,
      "776": -0.16160036623477936,
      "777": 1.5945347547531128,
      "778": -0.48974063992500305,
      "779": 0.35300424695014954,
      "780": -0.9312246441841125,
      "781": -0.9361737370491028,
      "782": -0.5329574942588806,
      "783": -1.945260763168335,
      "784": -0.4531749486923218,
      "785": 1.2402113676071167,
      "786": 0.6889250874519348,
      "787": -1.4088878631591797,
      "788": -0.08957561105489731,
      "789": -0.101056307554245,
      "790": -0.20556853711605072,
      "791": 0.6299097537994385,
      "792": 0.9058482646942139,
      "793": 1.2407680749893188,
      "794": -0.5705904960632324,
      "795": -0.39041635394096375,
      "796": -0.17179124057292938,
      "797": 1.5009067058563232,
      "798": -2.499178886413574,
      "799": 0.9424437284469604,
      "800": 1.5381875038146973,
      "801": 1.3299905061721802,
      "802": 0.1583627462387085,
      "803": 0.21827486157417297,
      "804": -0.24108779430389404,
      "805": -1.321596622467041,
      "806": 0.45382601022720337,
      "807": -1.6322952508926392,
      "808": -0.5575851798057556,
      "809": -0.7777143716812134,
      "810": 0.4130930006504059,
      "811": -1.3289735317230225,
      "812": 0.15798433125019073,
      "813": 2.2395341396331787,
      "814": 0.5323435068130493,
      "815": -0.8042525053024292,
      "816": -0.5159440040588379,
      "817": 0.004074843600392342,
      "818": -2.236635208129883,
      "819": -1.2434089183807373,
      "820": 1.3716946840286255,
      "821": 2.2552642822265625,
      "822": -0.9835299849510193,
      "823": -1.0211960077285767,
      "824": -0.3147994577884674,
      "825": 2.1104867458343506,
      "826": -0.40271106362342834,
      "827": 0.34137439727783203,
      "828": 1.792893648147583,
      "829": 1.655511498451233,
      "830": 0.5050952434539795,
      "831": 0.6940791010856628,
      "832": 3.4001657962799072,
      "833": 1.5351967811584473,
      "834": 1.3588552474975586,
      "835": -2.105437994003296,
      "836": 1.4748762845993042,
      "837": -2.6147327423095703,
      "838": 2.230526924133301,
      "839": 1.8098214864730835,
      "840": -0.3678971230983734,
      "841": -0.13554835319519043,
      "842": 1.6722415685653687,
      "843": -1.1616085767745972,
      "844": 0.4622163474559784,
      "845": -1.8760578632354736,
      "846": -0.2649485766887665,
      "847": 0.5576392412185669,
      "848": -0.6332054734230042,
      "849": 0.5040637850761414,
      "850": -0.24119168519973755,
      "851": 0.2836180627346039,
      "852": -0.8559320569038391,
      "853": -0.3584424555301666,
      "854": -3.6861062049865723,
      "855": -0.13053613901138306,
      "856": -2.8839244842529297,
      "857": -1.194053292274475,
      "858": -1.6380406618118286,
      "859": 0.9705055356025696,
      "860": 1.370269775390625,
      "861": 0.1944759339094162,
      "862": 0.5546218752861023,
      "863": -0.7360591888427734,
      "864": 1.1489102840423584,
      "865": 0.3075307011604309,
      "866": -1.5819205045700073,
      "867": 0.47850507497787476,
      "868": -0.22089633345603943,
      "869": 0.055222153663635254,
      "870": -2.0849807262420654,
      "871": 0.8184168338775635,
      "872": -0.07132498919963837,
      "873": 3.24894118309021,
      "874": 1.5632874965667725,
      "875": 0.5549332499504089,
      "876": 0.49013301730155945,
      "877": -1.0779162645339966,
      "878": 0.885399580001831,
      "879": 3.757261276245117,
      "880": 2.461014986038208,
      "881": 0.03318725526332855,
      "882": -0.23556259274482727,
      "883": 0.10027708113193512,
      "884": -2.280517339706421,
      "885": 2.3019206523895264,
      "886": 1.7480785846710205,
      "887": 0.5486129522323608,
      "888": 0.2836476266384125,
      "889": 2.1343939304351807,
      "890": 2.089946746826172,
      "891": -0.07750559598207474,
      "892": 0.11741070449352264,
      "893": 0.09445855021476746,
      "894": 0.0628303661942482,
      "895": 0.8315731883049011,
      "896": 0.25705093145370483,
      "897": -0.5127702355384827,
      "898": -0.8828190565109253,
      "899": 0.13611653447151184,
      "900": 1.0059947967529297,
      "901": 1.0253092050552368,
      "902": 0.350972443819046,
      "903": 0.9164600372314453,
      "904": 1.8145843744277954,
      "905": 2.065768003463745,
      "906": -1.4805498123168945,
      "907": -0.19336892664432526,
      "908": 0.27164196968078613,
      "909": -0.7114883065223694,
      "910": 0.3192947804927826,
      "911": -1.8886932134628296,
      "912": 0.6241664886474609,
      "913": 1.0459274053573608,
      "914": 0.698993980884552,
      "915": -1.0911370515823364,
      "916": -0.3960837423801422,
      "917": 1.0476404428482056,
      "918": -0.3136913776397705,
      "919": -0.8736472725868225,
      "920": -0.16640742123126984,
      "921": -0.48469164967536926,
      "922": 0.163632333278656,
      "923": -0.5647811889648438,
      "924": 1.3520047664642334,
      "925": 0.23629026114940643,
      "926": -0.4602261483669281,
      "927": -0.7155383825302124,
      "928": 1.0851515531539917,
      "929": -0.5307915210723877,
      "930": -1.0221986770629883,
      "931": 0.5871502757072449,
      "932": -1.1149275302886963,
      "933": -0.4320160448551178,
      "934": -0.7276296019554138,
      "935": -0.6249226331710815,
      "936": 0.07733458280563354,
      "937": -0.8369137644767761,
      "938": -0.6505601406097412,
      "939": 0.627893328666687,
      "940": 1.8246806859970093,
      "941": -1.7274409532546997,
      "942": 0.18864302337169647,
      "943": -2.139864444732666,
      "944": 0.7395548820495605,
      "945": 2.2389566898345947,
      "946": 2.1924734115600586,
      "947": -2.0772786140441895,
      "948": -0.576154887676239,
      "949": -0.44752979278564453,
      "950": -0.22535595297813416,
      "951": -0.6892507672309875,
      "952": -0.7383248805999756,
      "953": 0.8260224461555481,
      "954": 0.5568941831588745,
      "955": 0.7915031313896179,
      "956": -0.9205524325370789,
      "957": 0.09196154028177261,
      "958": 2.866548776626587,
      "959": -0.011558898724615574,
      "960": 0.26999735832214355,
      "961": -2.229257106781006,
      "962": -0.9756513833999634,
      "963": -0.5005527138710022,
      "964": -1.7846373319625854,
      "965": -1.2362538576126099,
      "966": 0.08144056797027588,
      "967": 0.286679744720459,
      "968": 2.159989356994629,
      "969": -0.062191564589738846,
      "970": 0.31425735354423523,
      "971": -0.11032932996749878,
      "972": -0.22769898176193237,
      "973": 0.22972893714904785,
      "974": 1.489830493927002,
      "975": -2.897977113723755,
      "976": -0.5705610513687134,
      "977": 0.6678892374038696,
      "978": -0.44178956747055054,
      "979": 0.46635404229164124,
      "980": 0.9328670501708984,
      "981": -0.13113588094711304,
      "982": 2.8461735248565674,
      "983": 1.101788878440857,
      "984": -0.3145388662815094,
      "985": -0.679038941860199,
      "986": -0.3195372223854065,
      "987": -0.5069209337234497,
      "988": 0.610417366027832,
      "989": 1.3656188249588013,
      "990": 0.17764973640441895,
      "991": -0.6782099008560181,
      "992": 1.071234107017517,
      "993": 0.1811286360025406,
      "994": -1.3143987655639648,
      "995": 2.291308879852295,
      "996": 0.3227744400501251,
      "997": 0.1638270616531372,
      "998": -2.2092623710632324,
      "999": -1.1284677982330322,
      "1000": 2.9416768550872803,
      "1001": 0.19958829879760742,
      "1002": 1.202752947807312,
      "1003": 0.24941056966781616,
      "1004": 0.05896594002842903,
      "1005": 0.14000602066516876,
      "1006": 0.005342711694538593,
      "1007": 0.4192143976688385,
      "1008": 0.48626479506492615,
      "1009": 0.6743764281272888,
      "1010": 1.541601300239563,
      "1011": -2.007718324661255,
      "1012": 0.4256923496723175,
      "1013": 0.3175225853919983,
      "1014": -1.1666264533996582,
      "1015": 0.6834704875946045,
      "1016": -1.8689075708389282,
      "1017": 0.3316616415977478,
      "1018": -1.138956069946289,
      "1019": -0.45378172397613525,
      "1020": -1.0232810974121094,
      "1021": 1.3731094598770142,
      "1022": 0.21515175700187683,
      "1023": 1.1784273386001587,
      "1024": -0.42041659355163574,
      "1025": -0.35893377661705017,
      "1026": -0.4825116991996765,
      "1027": 0.5808480978012085,
      "1028": -0.8336243629455566,
      "1029": 0.41668829321861267,
      "1030": -0.6410938501358032,
      "1031": -1.1537151336669922,
      "1032": 0.40503883361816406,
      "1033": -1.4600361585617065,
      "1034": 0.19717462360858917,
      "1035": 1.6458834409713745,
      "1036": 1.4149094820022583,
      "1037": 0.1611778736114502,
      "1038": 2.4435200691223145,
      "1039": 0.10362310707569122,
      "1040": -0.8228773474693298,
      "1041": 0.9193490147590637,
      "1042": 1.4752998352050781,
      "1043": -0.5776028633117676,
      "1044": 3.2542672157287598,
      "1045": -0.7572054862976074,
      "1046": 1.30845308303833,
      "1047": -3.024298667907715,
      "1048": 2.836160898208618,
      "1049": 1.6781394481658936,
      "1050": 0.13944734632968903,
      "1051": 2.1292574405670166,
      "1052": 2.229254722595215,
      "1053": -0.8746011853218079,
      "1054": 1.2203483581542969,
      "1055": -2.1190171241760254,
      "1056": -1.37662935256958,
      "1057": -0.9423573017120361,
      "1058": 1.4632086753845215,
      "1059": -0.1415684074163437,
      "1060": 1.1731325387954712,
      "1061": -2.2496745586395264,
      "1062": 0.7078337073326111,
      "1063": -2.1776907444000244,
      "1064": -0.8636139631271362,
      "1065": 2.932588577270508,
      "1066": 1.3685002326965332,
      "1067": -4.050047397613525,
      "1068": -2.540830135345459,
      "1069": -1.6868411302566528,
      "1070": 1.1001180410385132,
      "1071": 1.8415297269821167,
      "1072": 2.1435563564300537,
      "1073": -1.9629931449890137,
      "1074": -0.4076659679412842,
      "1075": 2.574829578399658,
      "1076": 2.357913017272949,
      "1077": 0.40210041403770447,
      "1078": -1.5323971509933472,
      "1079": -2.7742228507995605,
      "1080": 2.690808057785034,
      "1081": 0.033440619707107544,
      "1082": -6.198141098022461,
      "1083": -2.427794933319092,
      "1084": -4.667309284210205,
      "1085": 5.579132080078125,
      "1086": 1.6412105560302734,
      "1087": 4.059769153594971,
      "1088": -1.2562477588653564,
      "1089": 1.4117519855499268,
      "1090": -3.739888906478882,
      "1091": -0.6852771043777466,
      "1092": -6.08908224105835,
      "1093": -2.125753164291382,
      "1094": 3.1994478702545166,
      "1095": -4.942015647888184,
      "1096": -1.1517611742019653,
      "1097": 1.314607858657837,
      "1098": 0.9265223145484924,
      "1099": 4.803250789642334,
      "1100": 1.7174692153930664,
      "1101": 1.3747971057891846,
      "1102": -6.668092250823975,
      "1103": 0.7785830497741699,
      "1104": 0.29581373929977417,
      "1105": -4.434047698974609,
      "1106": 0.24150243401527405,
      "1107": 0.9526599049568176,
      "1108": -0.6930750608444214,
      "1109": 0.28564023971557617,
      "1110": 2.0561845302581787,
      "1111": 0.6332623958587646,
      "1112": -2.964913845062256,
      "1113": 2.646606683731079,
      "1114": 0.4843282997608185,
      "1115": -0.0783182829618454,
      "1116": -5.484780788421631,
      "1117": -1.1592826843261719,
      "1118": 0.13182048499584198,
      "1119": 1.1429164409637451,
      "1120": -0.27306726574897766,
      "1121": -0.27938786149024963,
      "1122": -2.9000189304351807,
      "1123": -0.600652277469635,
      "1124": -0.8818836808204651,
      "1125": -0.801112949848175,
      "1126": -2.99263334274292,
      "1127": -0.7649710774421692,
      "1128": -1.92912757396698,
      "1129": 0.7324975728988647,
      "1130": -1.83597731590271,
      "1131": 0.9369470477104187,
      "1132": 1.4153597354888916,
      "1133": -0.6269359588623047,
      "1134": -2.005481004714966,
      "1135": 0.9605736136436462,
      "1136": 0.9172688126564026,
      "1137": 1.8122235536575317,
      "1138": 0.4164416790008545,
      "1139": -0.2590469419956207,
      "1140": 1.3259937763214111,
      "1141": -0.2625071704387665,
      "1142": -1.6422889232635498,
      "1143": -1.645171046257019,
      "1144": 1.051018476486206,
      "1145": 0.32419848442077637,
      "1146": 0.9184482097625732,
      "1147": 3.264766216278076,
      "1148": 1.6450920104980469,
      "1149": -0.4737224876880646,
      "1150": -2.1594836711883545,
      "1151": -0.8245275020599365,
      "1152": 1.1316250562667847,
      "1153": 1.030580759048462,
      "1154": -3.49540114402771,
      "1155": 1.1589032411575317,
      "1156": 2.9564173221588135,
      "1157": -2.0939581394195557,
      "1158": -1.394921898841858,
      "1159": 0.1776597797870636,
      "1160": -2.438605308532715,
      "1161": -1.3967304229736328,
      "1162": -0.06143786013126373,
      "1163": 1.7778619527816772,
      "1164": 0.26764780282974243,
      "1165": -2.8121204376220703,
      "1166": 0.046251021325588226,
      "1167": -0.38356661796569824,
      "1168": -1.7437076568603516,
      "1169": 2.318878173828125,
      "1170": -3.2885046005249023,
      "1171": 2.456228494644165,
      "1172": 1.2809284925460815,
      "1173": -1.1453653573989868,
      "1174": 1.5572178363800049,
      "1175": -0.7003463506698608,
      "1176": -1.568739652633667,
      "1177": -1.043882131576538,
      "1178": -1.2540565729141235,
      "1179": 0.044048357754945755,
      "1180": 1.4377080202102661,
      "1181": 0.905195951461792,
      "1182": -1.3798102140426636,
      "1183": 1.6946266889572144,
      "1184": 2.8669936656951904,
      "1185": 4.9239182472229,
      "1186": -2.40281343460083,
      "1187": 0.3627031147480011,
      "1188": -5.575239658355713,
      "1189": -0.48603659868240356,
      "1190": 4.861752033233643,
      "1191": 2.3242058753967285,
      "1192": -1.246986985206604,
      "1193": -0.165162593126297,
      "1194": 2.8996477127075195,
      "1195": -0.17675967514514923,
      "1196": -0.5253424644470215,
      "1197": -2.2476282119750977,
      "1198": 5.335794448852539,
      "1199": -0.4269550144672394,
      "1200": 2.2700092792510986,
      "1201": -2.771604537963867,
      "1202": -1.8096728324890137,
      "1203": -1.6893869638442993,
      "1204": -5.058010101318359,
      "1205": -0.7015085816383362,
      "1206": 3.0094425678253174,
      "1207": -5.914605617523193,
      "1208": 0.45703133940696716,
      "1209": 1.2477796077728271,
      "1210": -1.3086458444595337,
      "1211": 3.261824369430542,
      "1212": -2.285735845565796,
      "1213": -0.8512092232704163,
      "1214": -1.1627458333969116,
      "1215": 1.9139430522918701,
      "1216": 3.4214086532592773,
      "1217": 0.30646562576293945,
      "1218": 0.5720048546791077,
      "1219": -3.9248363971710205,
      "1220": -0.2002718299627304,
      "1221": -0.6831920146942139,
      "1222": -4.198619842529297,
      "1223": 0.5899425745010376,
      "1224": -0.6008555889129639,
      "1225": 0.10902527719736099,
      "1226": -1.91220223903656,
      "1227": 2.551478147506714,
      "1228": 1.4374383687973022,
      "1229": -0.5796316266059875,
      "1230": 3.8572473526000977,
      "1231": 5.377967834472656,
      "1232": 2.3684396743774414,
      "1233": -0.23814840614795685,
      "1234": 4.092781066894531,
      "1235": -1.0935035943984985,
      "1236": -2.547316789627075,
      "1237": 2.021090030670166,
      "1238": 4.047956466674805,
      "1239": -3.604569673538208,
      "1240": -4.298055648803711,
      "1241": 1.745142936706543,
      "1242": 2.8317337036132812,
      "1243": -1.3642107248306274,
      "1244": -3.5460329055786133,
      "1245": 2.643070936203003,
      "1246": 7.236753940582275,
      "1247": 2.818971872329712,
      "1248": -7.5222063064575195,
      "1249": -1.0767310857772827,
      "1250": -7.0720906257629395,
      "1251": -4.392850875854492,
      "1252": 0.09856703877449036,
      "1253": 3.983572244644165,
      "1254": -8.93065357208252,
      "1255": -3.1834075450897217,
      "1256": 0.6527870297431946,
      "1257": 0.8961635231971741,
      "1258": 0.608432412147522,
      "1259": -2.0811550617218018,
      "1260": -2.2649240493774414,
      "1261": -0.4939080774784088,
      "1262": 2.939690589904785,
      "1263": 1.0432628393173218,
      "1264": -3.0334525108337402,
      "1265": -3.291224956512451,
      "1266": -0.4954396188259125,
      "1267": 0.13907228410243988,
      "1268": 3.468074083328247,
      "1269": -1.3063791990280151,
      "1270": 1.5414458513259888,
      "1271": -0.6353909969329834,
      "1272": 0.6900390982627869,
      "1273": -1.3132288455963135,
      "1274": -1.5726977586746216,
      "1275": -1.8701876401901245,
      "1276": 1.4291719198226929,
      "1277": -1.701743245124817,
      "1278": 2.5449371337890625,
      "1279": -0.7544602155685425,
      "1280": 3.489295482635498,
      "1281": -2.1863412857055664,
      "1282": 0.7319060564041138,
      "1283": -1.1741747856140137,
      "1284": -2.401742458343506,
      "1285": 1.0622165203094482,
      "1286": -0.7630361914634705,
      "1287": -0.5032677054405212,
      "1288": 0.667934775352478,
      "1289": 1.5264660120010376,
      "1290": 0.17867204546928406,
      "1291": -1.6061140298843384,
      "1292": -0.5974736213684082,
      "1293": -1.6688246726989746,
      "1294": 1.6859287023544312,
      "1295": -1.633342981338501,
      "1296": 1.5640642642974854,
      "1297": -0.8639363646507263,
      "1298": 2.8031082153320312,
      "1299": -0.9749237895011902,
      "1300": -0.43858814239501953,
      "1301": -0.1094403937458992,
      "1302": 1.1629770994186401,
      "1303": 0.6379320621490479,
      "1304": 1.3766107559204102,
      "1305": -1.1021993160247803,
      "1306": -1.0971581935882568,
      "1307": -1.5280046463012695,
      "1308": 0.5042839646339417,
      "1309": 0.9131923913955688,
      "1310": 1.5678658485412598,
      "1311": -1.0814316272735596,
      "1312": 1.8302513360977173,
      "1313": 2.0741946697235107,
      "1314": 2.212090015411377,
      "1315": -1.491520643234253,
      "1316": -1.840286135673523,
      "1317": 5.570715427398682,
      "1318": 0.2503802180290222,
      "1319": 4.740002632141113,
      "1320": -0.19111621379852295,
      "1321": -5.395350933074951,
      "1322": -5.944112777709961,
      "1323": 4.839804649353027,
      "1324": -1.9494173526763916,
      "1325": 2.2757420539855957,
      "1326": -0.22303283214569092,
      "1327": 2.7406959533691406,
      "1328": 3.2621405124664307,
      "1329": -1.168639063835144,
      "1330": 2.84666109085083,
      "1331": -0.75172358751297,
      "1332": 0.3072499930858612,
      "1333": -0.7683674693107605,
      "1334": -1.1646060943603516,
      "1335": -0.1944853812456131,
      "1336": -2.9308576583862305,
      "1337": 5.168343544006348,
      "1338": 0.869905412197113,
      "1339": -0.03796302527189255,
      "1340": 6.334342002868652,
      "1341": 2.3735196590423584,
      "1342": -0.003915951121598482,
      "1343": 2.8514907360076904,
      "1344": 1.593585729598999,
      "1345": -2.047316312789917,
      "1346": 0.8689919710159302,
      "1347": 1.018599510192871,
      "1348": 2.416403293609619,
      "1349": 1.6846293210983276,
      "1350": 3.01257586479187,
      "1351": 4.107380390167236,
      "1352": -1.8758240938186646,
      "1353": -0.7479760050773621,
      "1354": -3.8661773204803467,
      "1355": 2.2686972618103027,
      "1356": 1.9957122802734375,
      "1357": 0.12735536694526672,
      "1358": -0.6625865697860718,
      "1359": -0.7996021509170532,
      "1360": 0.20596477389335632,
      "1361": 2.0185604095458984,
      "1362": 0.4925648868083954,
      "1363": -0.8369265794754028,
      "1364": -0.6528599858283997,
      "1365": 0.40758952498435974,
      "1366": 2.185734987258911,
      "1367": -1.791140079498291,
      "1368": 0.2554284334182739,
      "1369": 0.563227653503418,
      "1370": -0.5454185009002686,
      "1371": -2.4037539958953857,
      "1372": 0.9962244033813477,
      "1373": -2.005319595336914,
      "1374": 0.6450907588005066,
      "1375": -2.4568567276000977,
      "1376": 2.706468343734741,
      "1377": -2.1140010356903076,
      "1378": -1.517960786819458,
      "1379": 3.1089792251586914,
      "1380": -1.7129607200622559,
      "1381": -0.928902268409729,
      "1382": 0.34644773602485657,
      "1383": 1.0564979314804077,
      "1384": 1.5737228393554688,
      "1385": -0.64947909116745,
      "1386": -1.4154609441757202,
      "1387": -1.9217559099197388,
      "1388": 0.5408138036727905,
      "1389": -0.5439916849136353,
      "1390": 1.4211547374725342,
      "1391": -2.159167766571045,
      "1392": 2.7669174671173096,
      "1393": -0.1302763670682907,
      "1394": -2.5668320655822754,
      "1395": -4.440743446350098,
      "1396": 2.1678733825683594,
      "1397": 2.0557355880737305,
      "1398": -0.6411042809486389,
      "1399": -3.0951099395751953,
      "1400": -0.32974597811698914,
      "1401": -2.4107961654663086,
      "1402": 2.0986502170562744,
      "1403": 3.5855650901794434,
      "1404": 1.379111647605896,
      "1405": -0.3711130917072296,
      "1406": -0.6131826043128967,
      "1407": 1.9242717027664185,
      "1408": 2.0117099285125732,
      "1409": -1.8666459321975708,
      "1410": -0.46487516164779663,
      "1411": 1.5734437704086304,
      "1412": -1.1262019872665405,
      "1413": 0.4063999056816101,
      "1414": -2.1380696296691895,
      "1415": -1.0948246717453003,
      "1416": -0.7840409874916077,
      "1417": 1.2897809743881226,
      "1418": -2.101067543029785,
      "1419": 0.6270559430122375,
      "1420": -1.6349172592163086,
      "1421": 4.1339030265808105,
      "1422": -0.9056679606437683,
      "1423": 1.725421667098999,
      "1424": -0.564067542552948,
      "1425": -3.210996627807617,
      "1426": 0.7261893153190613,
      "1427": -1.7048649787902832,
      "1428": 0.3935677409172058,
      "1429": 1.26149320602417,
      "1430": 2.251783847808838,
      "1431": 0.6145914196968079,
      "1432": -1.7232640981674194,
      "1433": -2.282254695892334,
      "1434": -1.6430835723876953,
      "1435": 0.5381342768669128,
      "1436": -2.1649398803710938,
      "1437": 1.433218002319336,
      "1438": -0.7540273070335388,
      "1439": 3.0238075256347656,
      "1440": 0.19444626569747925,
      "1441": -0.9070261120796204,
      "1442": -2.2418906688690186,
      "1443": 0.5776583552360535,
      "1444": 1.5472732782363892,
      "1445": 1.09717857837677,
      "1446": -2.1194350719451904,
      "1447": -0.2527753412723541,
      "1448": -1.9322288036346436,
      "1449": 2.377624750137329,
      "1450": 0.341627299785614,
      "1451": 2.0442748069763184,
      "1452": -0.13014090061187744,
      "1453": 1.5626875162124634,
      "1454": 2.3056063652038574,
      "1455": 0.44000640511512756,
      "1456": -0.9582569003105164,
      "1457": -0.48610466718673706,
      "1458": 0.929482102394104,
      "1459": -2.7161459922790527,
      "1460": -0.6176217794418335,
      "1461": -0.6953983902931213,
      "1462": -0.5345432162284851,
      "1463": -1.000317931175232,
      "1464": 2.3509280681610107,
      "1465": 1.0365691184997559,
      "1466": 2.0744824409484863,
      "1467": -0.040359023958444595,
      "1468": 5.515410900115967,
      "1469": 1.3628593683242798,
      "1470": 2.076820135116577,
      "1471": -2.162360429763794,
      "1472": -4.95083475112915,
      "1473": -0.8096117377281189,
      "1474": -0.8166516423225403,
      "1475": -3.440624237060547,
      "1476": 2.0908584594726562,
      "1477": -0.46830761432647705,
      "1478": 0.2543400228023529,
      "1479": -0.7909815311431885,
      "1480": -4.0311455726623535,
      "1481": 0.49113401770591736,
      "1482": -1.4183084964752197,
      "1483": -1.730414628982544,
      "1484": 1.0558249950408936,
      "1485": -2.0761635303497314,
      "1486": 1.078633427619934,
      "1487": -3.174386978149414,
      "1488": -0.5901950597763062,
      "1489": -1.7827876806259155,
      "1490": -1.9771112203598022,
      "1491": 1.3949326276779175,
      "1492": 1.0674865245819092,
      "1493": -2.9156548976898193,
      "1494": -2.4092745780944824,
      "1495": 0.22195258736610413,
      "1496": -0.7263365387916565,
      "1497": -1.3095099925994873,
      "1498": -0.11903944611549377,
      "1499": -2.7925822734832764,
      "1500": -0.6534752249717712,
      "1501": 1.4292914867401123,
      "1502": 1.1736189126968384,
      "1503": 2.8818130493164062,
      "1504": -1.3709659576416016,
      "1505": 1.5285184383392334,
      "1506": -1.4425206184387207,
      "1507": 1.9682339429855347,
      "1508": -1.7357373237609863,
      "1509": -3.4010791778564453,
      "1510": -3.756676435470581,
      "1511": 2.927076816558838,
      "1512": 0.691929817199707,
      "1513": 1.04134202003479,
      "1514": -0.8437024354934692,
      "1515": 4.041454792022705,
      "1516": 2.4804649353027344,
      "1517": -1.9939301013946533,
      "1518": -0.4470849633216858,
      "1519": -0.26989760994911194,
      "1520": 0.5337061882019043,
      "1521": -2.836013078689575,
      "1522": -4.305403232574463,
      "1523": 0.03929653391242027,
      "1524": -1.1579352617263794,
      "1525": 2.3541135787963867,
      "1526": -0.48284485936164856,
      "1527": -2.2236239910125732,
      "1528": 2.7381632328033447,
      "1529": 0.9351645708084106,
      "1530": -0.1958247721195221,
      "1531": 1.1171211004257202,
      "1532": -3.793018341064453,
      "1533": 2.272275924682617,
      "1534": 0.17273548245429993,
      "1535": 3.3517677783966064,
      "1536": -0.9645506739616394,
      "1537": -0.776776134967804,
      "1538": -1.7175586223602295,
      "1539": 4.4656081199646,
      "1540": -2.442225694656372,
      "1541": -0.15867209434509277,
      "1542": 1.2114074230194092,
      "1543": -1.1393448114395142,
      "1544": -1.9476739168167114,
      "1545": 1.5680335760116577,
      "1546": -2.0337581634521484,
      "1547": -3.543135404586792,
      "1548": -1.1008641719818115,
      "1549": 0.7404292225837708,
      "1550": 2.3782083988189697,
      "1551": 2.1574325561523438,
      "1552": 0.6993259787559509,
      "1553": 4.069763660430908,
      "1554": -2.0267696380615234,
      "1555": -2.129711389541626,
      "1556": -0.2822627127170563,
      "1557": 0.5189120173454285,
      "1558": -0.25447434186935425,
      "1559": -1.1272037029266357,
      "1560": -3.3583734035491943,
      "1561": -4.100770473480225,
      "1562": 0.11760690808296204,
      "1563": -0.00810309685766697,
      "1564": 0.2630539536476135,
      "1565": 3.5060155391693115,
      "1566": -3.5432939529418945,
      "1567": -2.123173475265503,
      "1568": -1.6659849882125854,
      "1569": 2.933411121368408,
      "1570": -3.286907434463501,
      "1571": 0.8069047927856445,
      "1572": 1.082776665687561,
      "1573": 3.371565341949463,
      "1574": -5.418407440185547,
      "1575": -2.6650846004486084,
      "1576": -2.3380939960479736,
      "1577": 3.1991982460021973,
      "1578": 3.6092309951782227,
      "1579": 2.255838394165039,
      "1580": 2.246612548828125,
      "1581": 3.4291954040527344,
      "1582": 1.6127549409866333,
      "1583": 1.325888991355896,
      "1584": 3.4657645225524902,
      "1585": 3.203904151916504,
      "1586": 0.927963137626648,
      "1587": -8.390809059143066,
      "1588": 2.954407215118408,
      "1589": -2.7970590591430664,
      "1590": 2.4045963287353516,
      "1591": 3.3594517707824707,
      "1592": -2.57659649848938,
      "1593": 3.332021713256836,
      "1594": 0.7267965078353882,
      "1595": 3.488229513168335,
      "1596": -0.4115698039531708,
      "1597": -0.6976755261421204,
      "1598": -1.59015691280365,
      "1599": 0.9434049725532532,
      "1600": -1.2109911441802979,
      "1601": -0.02846696600317955,
      "1602": -1.196190595626831,
      "1603": -1.1024813652038574,
      "1604": -0.9610971808433533,
      "1605": 1.6118459701538086,
      "1606": -1.3766669034957886,
      "1607": 2.3560822010040283,
      "1608": -0.32402971386909485,
      "1609": 2.6079821586608887,
      "1610": -1.9034168720245361,
      "1611": 1.9580047130584717,
      "1612": -0.42981624603271484,
      "1613": -2.6406049728393555,
      "1614": 1.4072109460830688,
      "1615": 0.008548284880816936,
      "1616": -0.728361189365387,
      "1617": 1.3917129039764404,
      "1618": 1.0215153694152832,
      "1619": 0.1876663714647293,
      "1620": -2.179711103439331,
      "1621": -1.3552610874176025,
      "1622": -2.502828359603882,
      "1623": 1.834743618965149,
      "1624": -2.105431318283081,
      "1625": 0.4548744261264801,
      "1626": -1.3476613759994507,
      "1627": 2.309140920639038,
      "1628": -0.8658750057220459,
      "1629": -1.194791316986084,
      "1630": -2.0311572551727295,
      "1631": 0.016007674857974052,
      "1632": 1.4608262777328491,
      "1633": 0.984455943107605,
      "1634": -2.0007338523864746,
      "1635": -1.2552145719528198,
      "1636": -1.5845905542373657,
      "1637": 1.4437583684921265,
      "1638": 0.9738513231277466,
      "1639": 2.3196535110473633,
      "1640": -0.8385981321334839,
      "1641": 2.369748830795288,
      "1642": 1.2914888858795166,
      "1643": 1.0210325717926025,
      "1644": -1.9260581731796265,
      "1645": 0.3408525884151459,
      "1646": 0.1777227520942688,
      "1647": -1.4441592693328857,
      "1648": -0.7662501931190491,
      "1649": 0.09592237323522568,
      "1650": -0.18477243185043335,
      "1651": 0.08028455078601837,
      "1652": 0.2118808627128601,
      "1653": 0.7144922614097595,
      "1654": 0.651736319065094,
      "1655": -0.12702709436416626,
      "1656": -0.6408280730247498,
      "1657": -0.28754082322120667,
      "1658": 0.4941270351409912,
      "1659": -0.10152359306812286,
      "1660": 0.4415845572948456,
      "1661": 0.3003233075141907,
      "1662": 0.7995745539665222,
      "1663": 0.04845404624938965,
      "1664": 0.13018569350242615,
      "1665": 0.7789812684059143,
      "1666": -0.8743348121643066,
      "1667": -1.0583394765853882,
      "1668": 0.6878095865249634,
      "1669": -0.5598320364952087,
      "1670": 0.04295813664793968,
      "1671": -0.691694974899292,
      "1672": -0.673969030380249,
      "1673": 1.0493568181991577,
      "1674": -1.3794224262237549,
      "1675": -1.3169974088668823,
      "1676": -0.15975767374038696,
      "1677": -0.5862706303596497,
      "1678": -1.4978235960006714,
      "1679": -0.1452471762895584,
      "1680": -0.3982941806316376,
      "1681": 1.7240854501724243,
      "1682": -0.04599611833691597,
      "1683": 0.5373199582099915,
      "1684": -0.5523643493652344,
      "1685": -0.7913009524345398,
      "1686": 1.1085306406021118,
      "1687": -0.02495701238512993,
      "1688": 0.23832181096076965,
      "1689": -0.26085346937179565,
      "1690": 0.0039735701866447926,
      "1691": -0.23761104047298431,
      "1692": -2.546627998352051,
      "1693": 2.618171453475952,
      "1694": -0.45651888847351074,
      "1695": 3.285647392272949,
      "1696": -1.4516024589538574,
      "1697": -2.621978521347046,
      "1698": -1.6374878883361816,
      "1699": 2.801164388656616,
      "1700": 1.6229106187820435,
      "1701": 1.2127411365509033,
      "1702": 0.520440936088562,
      "1703": -0.46223950386047363,
      "1704": 0.6095981001853943,
      "1705": -1.1768100261688232,
      "1706": -1.0651065111160278,
      "1707": 0.18449492752552032,
      "1708": 0.11692164093255997,
      "1709": -0.6774375438690186,
      "1710": -4.347458362579346,
      "1711": -0.08165623247623444,
      "1712": 0.3447009325027466,
      "1713": 3.790130138397217,
      "1714": -0.41980400681495667,
      "1715": -0.3569076359272003,
      "1716": 2.176358938217163,
      "1717": 1.019803762435913,
      "1718": -0.344705730676651,
      "1719": 0.37906768918037415,
      "1720": -3.0804641246795654,
      "1721": -3.4401731491088867,
      "1722": -0.7425363659858704,
      "1723": 0.6717092990875244,
      "1724": 0.13961400091648102,
      "1725": -0.20540030300617218,
      "1726": -3.1466126441955566,
      "1727": 4.5224995613098145,
      "1728": 0.8182663321495056,
      "1729": -1.6110693216323853,
      "1730": 1.7088693380355835,
      "1731": -0.32271870970726013,
      "1732": -1.558213233947754,
      "1733": 0.7104285955429077,
      "1734": -3.279792308807373,
      "1735": -0.22572140395641327,
      "1736": -2.178112745285034,
      "1737": 3.2317402362823486,
      "1738": -1.905856966972351,
      "1739": -0.9669511914253235,
      "1740": -0.4956517815589905,
      "1741": 1.8012385368347168,
      "1742": -2.1941282749176025,
      "1743": 1.191931128501892,
      "1744": 2.143488883972168,
      "1745": 1.0601446628570557,
      "1746": -2.5550241470336914,
      "1747": 2.3471426963806152,
      "1748": 0.8291905522346497,
      "1749": 1.5294862985610962,
      "1750": -1.8918328285217285,
      "1751": 1.9456948041915894,
      "1752": -0.05777783691883087,
      "1753": 0.788385272026062,
      "1754": 1.2373722791671753,
      "1755": -0.718562126159668,
      "1756": 0.4054868519306183,
      "1757": -1.9123191833496094,
      "1758": 0.593359112739563,
      "1759": 2.246636390686035,
      "1760": 0.9587064981460571,
      "1761": -1.3456920385360718,
      "1762": 4.475844383239746,
      "1763": 0.5693809986114502,
      "1764": 0.07759328186511993,
      "1765": -1.7039388418197632,
      "1766": -1.8989222049713135,
      "1767": -1.037070631980896,
      "1768": -1.3390682935714722,
      "1769": -0.5489142537117004,
      "1770": 1.7261059284210205,
      "1771": -0.5862976312637329,
      "1772": -1.9387670755386353,
      "1773": -1.1619662046432495,
      "1774": 2.0490591526031494,
      "1775": 4.016442775726318,
      "1776": -1.948958396911621,
      "1777": 1.059867024421692,
      "1778": -2.4949238300323486,
      "1779": -1.810007929801941,
      "1780": 0.6783900260925293,
      "1781": -1.5962494611740112,
      "1782": 2.048154354095459,
      "1783": -1.832182765007019,
      "1784": 0.2386353760957718,
      "1785": -1.4715300798416138,
      "1786": 1.3168729543685913,
      "1787": 0.7385608553886414,
      "1788": -0.0491163469851017,
      "1789": -3.976686477661133,
      "1790": -0.2485361099243164,
      "1791": -0.1114518791437149,
      "1792": 1.4005759954452515,
      "1793": -0.7589120864868164,
      "1794": 3.8638226985931396,
      "1795": -0.9395725727081299,
      "1796": 0.014004990458488464,
      "1797": -0.04645070061087608,
      "1798": -1.279564380645752,
      "1799": 5.496898651123047,
      "1800": 1.935394525527954,
      "1801": 1.5835660696029663,
      "1802": -4.636645793914795,
      "1803": 3.0783493518829346,
      "1804": -0.3498677611351013,
      "1805": -3.708822727203369,
      "1806": 0.047034185379743576,
      "1807": -1.2835701704025269,
      "1808": 6.42563533782959,
      "1809": 1.2041231393814087,
      "1810": 3.601588010787964,
      "1811": -4.086697578430176,
      "1812": 0.2102351188659668,
      "1813": -2.509740114212036,
      "1814": -0.6326361298561096,
      "1815": 1.9315621852874756,
      "1816": 0.42347031831741333,
      "1817": -1.889447808265686,
      "1818": -2.319730758666992,
      "1819": 0.2081645429134369,
      "1820": 1.3262150287628174,
      "1821": -0.8301518559455872,
      "1822": 1.5906398296356201,
      "1823": 0.5852105617523193,
      "1824": -2.2656524181365967,
      "1825": 1.4097998142242432,
      "1826": 0.011795880272984505,
      "1827": -2.9281997680664062,
      "1828": 0.7033236622810364,
      "1829": -4.612288475036621,
      "1830": -1.0553125143051147,
      "1831": 2.00890851020813,
      "1832": -0.5933842062950134,
      "1833": 1.7880165576934814,
      "1834": 2.8793327808380127,
      "1835": -0.7153027653694153,
      "1836": -2.8676564693450928,
      "1837": -0.7606547474861145,
      "1838": 4.956821441650391,
      "1839": -2.2045440673828125,
      "1840": -5.552101135253906,
      "1841": 0.5875918865203857,
      "1842": -2.57812237739563,
      "1843": -5.607432842254639,
      "1844": -4.908803939819336,
      "1845": -1.4286985397338867,
      "1846": 6.276651859283447,
      "1847": 0.9765579104423523,
      "1848": -2.5118300914764404,
      "1849": -6.416805744171143,
      "1850": 0.6865043640136719,
      "1851": 1.0134472846984863,
      "1852": -1.0642184019088745,
      "1853": 0.65310138463974,
      "1854": 1.991036295890808,
      "1855": 7.198176860809326,
      "1856": 1.2699612379074097,
      "1857": -3.4800760746002197,
      "1858": -4.528050899505615,
      "1859": 0.9313973188400269,
      "1860": 0.3773910701274872,
      "1861": 1.4866982698440552,
      "1862": -0.12027018517255783,
      "1863": -4.440999984741211,
      "1864": -3.9183433055877686,
      "1865": -2.516294240951538,
      "1866": 3.8784265518188477,
      "1867": 0.8553379774093628,
      "1868": 3.734396457672119,
      "1869": -0.6010931134223938,
      "1870": 0.31622377038002014,
      "1871": -0.8674116134643555,
      "1872": 0.0084086824208498,
      "1873": -0.7637848258018494,
      "1874": 1.3235200643539429,
      "1875": 0.47846004366874695,
      "1876": -3.629352569580078,
      "1877": 0.0733790248632431,
      "1878": 3.7744107246398926,
      "1879": -0.7864707708358765,
      "1880": 5.008395671844482,
      "1881": -1.9012852907180786,
      "1882": 2.8070037364959717,
      "1883": -1.2956678867340088,
      "1884": 2.2859296798706055,
      "1885": -0.7707909941673279,
      "1886": 2.576978921890259,
      "1887": 1.3338329792022705,
      "1888": -2.3878629207611084,
      "1889": -2.701021909713745,
      "1890": -1.1679954528808594,
      "1891": 2.6627037525177,
      "1892": -2.064375400543213,
      "1893": 2.9415035247802734,
      "1894": 6.427910327911377,
      "1895": -2.810807228088379,
      "1896": -5.164424896240234,
      "1897": 4.393274307250977,
      "1898": 2.2835075855255127,
      "1899": -4.101940155029297,
      "1900": 0.20827385783195496,
      "1901": -2.497368812561035,
      "1902": 3.4626243114471436,
      "1903": -2.2289621829986572,
      "1904": -1.6467541456222534,
      "1905": -5.515439033508301,
      "1906": 4.870396137237549,
      "1907": 0.3661244213581085,
      "1908": 2.440796375274658,
      "1909": -1.089870810508728,
      "1910": 2.6240410804748535,
      "1911": -2.513899803161621,
      "1912": -1.121681571006775,
      "1913": 2.3170480728149414,
      "1914": 2.9068315029144287,
      "1915": -5.249349594116211,
      "1916": -0.9814451336860657,
      "1917": 7.43410062789917,
      "1918": -0.5273934602737427,
      "1919": 1.0614322423934937,
      "1920": 2.9109954833984375,
      "1921": -1.686569333076477,
      "1922": 5.154117107391357,
      "1923": 4.021918296813965,
      "1924": 1.0444083213806152,
      "1925": -3.85357403755188,
      "1926": -1.2071651220321655,
      "1927": 2.4519248008728027,
      "1928": -1.530714750289917,
      "1929": -2.3851518630981445,
      "1930": -1.3016997575759888,
      "1931": 2.1423537731170654,
      "1932": 2.755702257156372,
      "1933": 1.1462169885635376,
      "1934": -1.924668550491333,
      "1935": -0.11857998371124268,
      "1936": -5.378301620483398,
      "1937": 1.7858994007110596,
      "1938": 1.0422825813293457,
      "1939": 3.36665415763855,
      "1940": -1.4978456497192383,
      "1941": -2.2225677967071533,
      "1942": 3.7792463302612305,
      "1943": -2.8727872371673584,
      "1944": 0.4207398593425751,
      "1945": 2.8519153594970703,
      "1946": -0.5236995220184326,
      "1947": -3.25703501701355,
      "1948": -4.585740566253662,
      "1949": 4.27499532699585,
      "1950": 1.6748780012130737,
      "1951": 6.371881008148193,
      "1952": -3.9738047122955322,
      "1953": 4.559755325317383,
      "1954": -6.352467060089111,
      "1955": -1.9820152521133423,
      "1956": -0.745197057723999,
      "1957": 1.3069088459014893,
      "1958": 0.5253270268440247,
      "1959": -0.7979788184165955,
      "1960": 0.5361319184303284,
      "1961": -1.1013792753219604,
      "1962": -5.47459077835083,
      "1963": -0.16743960976600647,
      "1964": 4.771845817565918,
      "1965": 0.9226464033126831,
      "1966": 0.9399943351745605,
      "1967": 0.6138409376144409,
      "1968": -0.5680955052375793,
      "1969": 2.135119676589966,
      "1970": -6.021020412445068,
      "1971": -1.5814216136932373,
      "1972": -5.548046588897705,
      "1973": 5.101166725158691,
      "1974": 0.6818574070930481,
      "1975": -0.5027812719345093,
      "1976": -4.531162261962891,
      "1977": -1.7397693395614624,
      "1978": -5.508112907409668,
      "1979": -0.31929659843444824,
      "1980": 0.8174311518669128,
      "1981": -0.6624818444252014,
      "1982": -4.671261787414551,
      "1983": 0.015767373144626617,
      "1984": -6.496563911437988,
      "1985": -0.13001962006092072,
      "1986": -3.1831085681915283,
      "1987": 3.1205787658691406,
      "1988": -0.6681988835334778,
      "1989": -5.994839668273926,
      "1990": -0.40500643849372864,
      "1991": -0.4271243214607239,
      "1992": -3.9837093353271484,
      "1993": 1.3690767288208008,
      "1994": -0.49981141090393066,
      "1995": -1.0402120351791382,
      "1996": 0.11291462928056717,
      "1997": -7.715227127075195,
      "1998": -4.33548641204834,
      "1999": -0.5044260025024414,
      "2000": -1.528418779373169,
      "2001": 5.010798931121826,
      "2002": -2.346742868423462,
      "2003": 3.2881202697753906,
      "2004": -0.45190316438674927,
      "2005": -3.614420175552368,
      "2006": -1.282569408416748,
      "2007": 4.677093982696533,
      "2008": 1.9428417682647705,
      "2009": 2.594230890274048,
      "2010": -2.262089967727661,
      "2011": -0.39549702405929565,
      "2012": -3.5164620876312256,
      "2013": 2.867856740951538,
      "2014": 0.699317991733551,
      "2015": 2.0890369415283203,
      "2016": -0.2301841378211975,
      "2017": 3.8929569721221924,
      "2018": 5.02292013168335,
      "2019": 4.075357913970947,
      "2020": -0.4300728440284729,
      "2021": -2.5270142555236816,
      "2022": 1.229993224143982,
      "2023": -2.9218056201934814,
      "2024": 1.1958154439926147,
      "2025": -2.438523769378662,
      "2026": -1.2787033319473267,
      "2027": -1.5330963134765625,
      "2028": 1.9015281200408936,
      "2029": 0.28994038701057434,
      "2030": 1.431978702545166,
      "2031": -1.5048918724060059,
      "2032": 4.467740058898926,
      "2033": -2.5336508750915527,
      "2034": 3.7523748874664307,
      "2035": -2.8802499771118164,
      "2036": -5.613820552825928,
      "2037": 1.9687426090240479,
      "2038": -1.5888278484344482,
      "2039": -1.2989919185638428,
      "2040": 2.1926095485687256,
      "2041": -2.8475563526153564,
      "2042": 0.7948996424674988,
      "2043": -2.0797808170318604,
      "2044": -3.401456594467163,
      "2045": -3.5112500190734863,
      "2046": 1.351470708847046,
      "2047": -1.477117657661438,
      "2048": 0.5019074082374573,
      "2049": -3.4156014919281006,
      "2050": 3.651500940322876,
      "2051": -2.120368242263794,
      "2052": -1.6954231262207031,
      "2053": -2.51077938079834,
      "2054": 1.8744100332260132,
      "2055": 2.1790945529937744,
      "2056": 0.7254335284233093,
      "2057": -3.2809157371520996,
      "2058": -1.433961272239685,
      "2059": -1.181644082069397,
      "2060": 0.3512120842933655,
      "2061": 0.31974440813064575,
      "2062": 1.2659238576889038,
      "2063": -2.2692532539367676,
      "2064": 0.6225083470344543,
      "2065": 1.9944628477096558,
      "2066": 2.003324031829834,
      "2067": -1.3320503234863281,
      "2068": -4.5292792320251465,
      "2069": 4.425268650054932,
      "2070": -2.018104076385498,
      "2071": 4.228408336639404,
      "2072": -1.6176594495773315,
      "2073": -1.7726236581802368,
      "2074": -4.395665168762207,
      "2075": 1.54879629611969,
      "2076": 2.553286075592041,
      "2077": 0.5351961851119995,
      "2078": -0.5803283452987671,
      "2079": 0.2043900489807129,
      "2080": 2.693249225616455,
      "2081": -3.1191556453704834,
      "2082": -4.747098922729492,
      "2083": -1.923998475074768,
      "2084": 1.8790878057479858,
      "2085": -2.4769928455352783,
      "2086": -5.547824382781982,
      "2087": 1.1254334449768066,
      "2088": -1.3246421813964844,
      "2089": 4.5357537269592285,
      "2090": -1.2475128173828125,
      "2091": -1.9379221200942993,
      "2092": 2.516757011413574,
      "2093": 2.012760639190674,
      "2094": 0.08174494653940201,
      "2095": 0.40069064497947693,
      "2096": -4.819482803344727,
      "2097": 2.2273261547088623,
      "2098": -3.9264309406280518,
      "2099": 3.5132060050964355,
      "2100": 1.6109659671783447,
      "2101": -0.3573541045188904,
      "2102": -2.7362356185913086,
      "2103": 4.603590965270996,
      "2104": -1.6892106533050537,
      "2105": -0.5200283527374268,
      "2106": 2.7993416786193848,
      "2107": -2.763759136199951,
      "2108": -2.689091205596924,
      "2109": 1.1383494138717651,
      "2110": -4.6881232261657715,
      "2111": -2.958696126937866,
      "2112": 0.38500168919563293,
      "2113": 2.010650396347046,
      "2114": 2.608459711074829,
      "2115": 0.6097273230552673,
      "2116": -0.2646656036376953,
      "2117": 1.7634369134902954,
      "2118": -0.6595579385757446,
      "2119": -0.4500707685947418,
      "2120": -0.011050409637391567,
      "2121": 0.466939240694046,
      "2122": 0.049316342920064926,
      "2123": -1.2119083404541016,
      "2124": -0.26950931549072266,
      "2125": -2.8777713775634766,
      "2126": 0.8272965550422668,
      "2127": 0.017926709726452827,
      "2128": -0.31877949833869934,
      "2129": 3.5961389541625977,
      "2130": -2.444153308868408,
      "2131": -0.7335434556007385,
      "2132": 0.27250340580940247,
      "2133": 1.6805816888809204,
      "2134": 0.8865024447441101,
      "2135": -1.1510820388793945,
      "2136": 0.6150804162025452,
      "2137": 0.1490759402513504,
      "2138": -1.1860179901123047,
      "2139": -0.35203978419303894,
      "2140": -0.8035587072372437,
      "2141": 0.6096126437187195,
      "2142": 1.44563889503479,
      "2143": 3.185100793838501,
      "2144": 0.8325625658035278,
      "2145": 1.055385947227478,
      "2146": 0.5562139749526978,
      "2147": 0.1310713291168213,
      "2148": 1.7733039855957031,
      "2149": 3.6102380752563477,
      "2150": -0.08250951021909714,
      "2151": -0.9047675132751465,
      "2152": 1.019188642501831,
      "2153": -1.5237936973571777,
      "2154": 1.2916136980056763,
      "2155": -0.42539313435554504,
      "2156": -0.3220953345298767,
      "2157": 0.9477445483207703,
      "2158": 1.6311464309692383,
      "2159": 2.2941277027130127,
      "2160": 0.015329920686781406,
      "2161": -0.3190748691558838,
      "2162": 0.3812897801399231,
      "2163": -1.053673267364502,
      "2164": 1.3509125709533691,
      "2165": -0.04888572543859482,
      "2166": 0.5973592400550842,
      "2167": 1.1637556552886963,
      "2168": 0.8822933435440063,
      "2169": -0.3110789358615875,
      "2170": 0.42245712876319885,
      "2171": -1.752816081047058,
      "2172": -0.41051381826400757,
      "2173": 0.6545707583427429,
      "2174": 0.7862247228622437,
      "2175": 0.46659111976623535,
      "2176": 2.192183256149292,
      "2177": 0.7925752401351929,
      "2178": -1.621018409729004,
      "2179": 0.46311861276626587,
      "2180": -0.03614930808544159,
      "2181": -0.27881765365600586,
      "2182": -0.824719250202179,
      "2183": 0.44127610325813293,
      "2184": 0.7299736738204956,
      "2185": 0.2805015444755554,
      "2186": 0.6009224653244019,
      "2187": -2.8222596645355225,
      "2188": 2.1137893199920654,
      "2189": -0.559302031993866,
      "2190": -0.5471020340919495,
      "2191": -0.9483440518379211,
      "2192": 1.0494531393051147,
      "2193": -0.41097626090049744,
      "2194": 0.9286097288131714,
      "2195": -0.3162394165992737,
      "2196": 0.4204140603542328,
      "2197": -0.3774791657924652,
      "2198": 0.06078927218914032,
      "2199": 2.0304243564605713,
      "2200": 0.6438546180725098,
      "2201": -1.0280579328536987,
      "2202": -0.017868537455797195,
      "2203": -1.3635553121566772,
      "2204": -0.30676838755607605,
      "2205": 0.10697435587644577,
      "2206": -0.6760438680648804,
      "2207": -1.4080877304077148,
      "2208": 0.9695044159889221,
      "2209": -0.03665400668978691,
      "2210": -0.040403541177511215,
      "2211": -0.04693559929728508,
      "2212": -0.039102040231227875,
      "2213": 0.04660980403423309,
      "2214": 0.005945972166955471,
      "2215": 0.017365528270602226,
      "2216": 0.07205818593502045,
      "2217": -0.04496464133262634,
      "2218": -0.03470335528254509,
      "2219": 0.05663951486349106,
      "2220": -0.06999807804822922,
      "2221": 0.05216177552938461,
      "2222": 0.06373105943202972,
      "2223": -0.022240273654460907,
      "2224": -0.022673537954688072,
      "2225": -0.06098802387714386,
      "2226": -0.030531862750649452,
      "2227": -0.03498614951968193,
      "2228": 0.07326605916023254,
      "2229": 0.020388754084706306,
      "2230": 0.07371984422206879,
      "2231": 0.03385825455188751,
      "2232": 0.02339247800409794,
      "2233": -0.022424640133976936,
      "2234": -0.011902766302227974,
      "2235": 0.00036750035360455513,
      "2236": 0.016716621816158295,
      "2237": 0.019689394161105156,
      "2238": -0.01785547286272049,
      "2239": -0.03730430454015732,
      "2240": -0.06324807554483414,
      "2241": -0.03734273463487625,
      "2242": -0.04801099747419357,
      "2243": 0.03181382268667221,
      "2244": -0.037599410861730576,
      "2245": 0.015165288932621479,
      "2246": 0.059489935636520386,
      "2247": -0.06328922510147095,
      "2248": -0.012346948496997356,
      "2249": -0.0015907947672531009,
      "2250": 0.04374169185757637,
      "2251": -0.005195191595703363,
      "2252": -0.035815656185150146,
      "2253": 0.0016787508502602577,
      "2254": 0.0322447270154953,
      "2255": -0.05889301002025604
    }
  },
  "hiddenLayers": [
    {
      "inputMatrix": {
        "rows": 20,
        "columns": 47,
        "weights": {
          "0": -0.3676784634590149,
          "1": -1.5756129026412964,
          "2": 0.4458346664905548,
          "3": -1.7078288793563843,
          "4": 1.7781027555465698,
          "5": -0.24926447868347168,
          "6": 1.5997387170791626,
          "7": -0.470619797706604,
          "8": 0.7427008748054504,
          "9": -0.49749481678009033,
          "10": 0.9630491733551025,
          "11": -0.5543202757835388,
          "12": 0.5402258634567261,
          "13": -2.576044797897339,
          "14": 1.2823244333267212,
          "15": 1.0620369911193848,
          "16": 0.4047429859638214,
          "17": 1.3602396249771118,
          "18": 0.15408572554588318,
          "19": -0.6217954158782959,
          "20": 0.3954021632671356,
          "21": -1.4963980913162231,
          "22": -0.3994688093662262,
          "23": -0.3450515866279602,
          "24": 1.3858835697174072,
          "25": 0.2078595757484436,
          "26": -0.14295536279678345,
          "27": -0.40395066142082214,
          "28": -0.3737703859806061,
          "29": 0.4831123650074005,
          "30": 0.36579644680023193,
          "31": 0.876419723033905,
          "32": 1.3540112972259521,
          "33": 0.16519881784915924,
          "34": -1.64786696434021,
          "35": -1.6672136783599854,
          "36": -0.5772582292556763,
          "37": -0.20181043446063995,
          "38": 0.7472220063209534,
          "39": -0.5188050866127014,
          "40": -0.7377203106880188,
          "41": -0.0610927939414978,
          "42": 0.3210567831993103,
          "43": -0.28096234798431396,
          "44": -0.4912557601928711,
          "45": -1.4353383779525757,
          "46": -0.07162919640541077,
          "47": -0.21502985060214996,
          "48": -0.9638489484786987,
          "49": 1.5848342180252075,
          "50": 0.057717688381671906,
          "51": 1.0794126987457275,
          "52": 0.6212478280067444,
          "53": 0.6088880896568298,
          "54": -0.7351701855659485,
          "55": 0.15802158415317535,
          "56": -1.2899929285049438,
          "57": 0.03332459181547165,
          "58": -1.812411904335022,
          "59": -0.7292948365211487,
          "60": 1.0982385873794556,
          "61": 0.22537627816200256,
          "62": -0.25033795833587646,
          "63": 0.019450334832072258,
          "64": 0.5909315943717957,
          "65": 0.6904314756393433,
          "66": -1.2980799674987793,
          "67": -1.1499748229980469,
          "68": -0.5404598712921143,
          "69": 1.641251802444458,
          "70": -0.7236071228981018,
          "71": -0.37058836221694946,
          "72": -0.7974088788032532,
          "73": 2.7109155654907227,
          "74": -0.1632726937532425,
          "75": 0.5688381791114807,
          "76": -0.7699472904205322,
          "77": 0.887763261795044,
          "78": -0.6789047122001648,
          "79": 1.9369064569473267,
          "80": 0.055609047412872314,
          "81": 0.12017961591482162,
          "82": -0.7525069117546082,
          "83": -0.528102457523346,
          "84": 1.3029356002807617,
          "85": -0.06082097440958023,
          "86": 0.21002909541130066,
          "87": 0.658942699432373,
          "88": -1.9467774629592896,
          "89": 0.3369739353656769,
          "90": 0.1556539088487625,
          "91": 0.25218725204467773,
          "92": -1.039887547492981,
          "93": -0.19064712524414062,
          "94": 0.7190840840339661,
          "95": -0.20925329625606537,
          "96": -1.1127785444259644,
          "97": -0.7694809436798096,
          "98": -0.06663323193788528,
          "99": -0.40463903546333313,
          "100": 0.35973018407821655,
          "101": 0.8212485909461975,
          "102": -2.3681321144104004,
          "103": -0.6216463446617126,
          "104": -0.9845215082168579,
          "105": -0.5482224225997925,
          "106": -1.623577356338501,
          "107": 0.661892831325531,
          "108": -0.25589582324028015,
          "109": -0.5446907877922058,
          "110": 0.04390653595328331,
          "111": -0.5285193920135498,
          "112": 0.564527153968811,
          "113": 1.0023939609527588,
          "114": -0.556104302406311,
          "115": -0.8205100893974304,
          "116": -1.3228589296340942,
          "117": -1.228956699371338,
          "118": -1.9326151609420776,
          "119": 0.5100576877593994,
          "120": -0.6988189220428467,
          "121": 0.7207896709442139,
          "122": 0.7913306951522827,
          "123": 0.26140427589416504,
          "124": 0.38903120160102844,
          "125": -1.2570621967315674,
          "126": -0.21935409307479858,
          "127": 0.2994677424430847,
          "128": 0.2569894790649414,
          "129": -1.112589716911316,
          "130": -0.46264883875846863,
          "131": 0.5801028609275818,
          "132": -0.27971136569976807,
          "133": 1.4663982391357422,
          "134": 0.4776064455509186,
          "135": 0.8894320726394653,
          "136": 0.1450466364622116,
          "137": 0.8916410207748413,
          "138": 0.22946210205554962,
          "139": -0.116371750831604,
          "140": -0.8087201118469238,
          "141": 0.7970940470695496,
          "142": -0.0368509441614151,
          "143": -0.2241114377975464,
          "144": -1.0983860492706299,
          "145": 0.619449257850647,
          "146": 1.1219364404678345,
          "147": 0.04864664003252983,
          "148": -0.7561565041542053,
          "149": 0.9366445541381836,
          "150": -1.0500231981277466,
          "151": 0.5708845257759094,
          "152": -0.9424370527267456,
          "153": 0.5315287709236145,
          "154": -0.6948238611221313,
          "155": -0.7072807550430298,
          "156": 0.7895907163619995,
          "157": 0.19705256819725037,
          "158": -0.14969061315059662,
          "159": 0.6825387477874756,
          "160": -1.348560094833374,
          "161": 0.28772053122520447,
          "162": -0.5636844038963318,
          "163": 1.8112783432006836,
          "164": 1.5987112522125244,
          "165": 0.8948131203651428,
          "166": -0.6509609818458557,
          "167": 1.7817881107330322,
          "168": -1.7240746021270752,
          "169": -0.7037715911865234,
          "170": -0.6136959791183472,
          "171": 0.16661547124385834,
          "172": 0.5862950086593628,
          "173": -1.3984742164611816,
          "174": -1.7381014823913574,
          "175": 0.12458015978336334,
          "176": -0.6832212805747986,
          "177": 0.6326107382774353,
          "178": 1.5203473567962646,
          "179": -0.10788574814796448,
          "180": -0.43856877088546753,
          "181": 0.739078938961029,
          "182": 0.20292183756828308,
          "183": 1.860120177268982,
          "184": -0.8077350854873657,
          "185": -0.1579650491476059,
          "186": -0.5595382452011108,
          "187": 0.9309303164482117,
          "188": 1.328233242034912,
          "189": -0.1719324290752411,
          "190": 0.2954757809638977,
          "191": -0.20589424669742584,
          "192": 0.05149391293525696,
          "193": 1.286195158958435,
          "194": 1.114206314086914,
          "195": -1.5674748420715332,
          "196": -0.3780131936073303,
          "197": -0.6280258297920227,
          "198": 0.149825781583786,
          "199": -2.666677713394165,
          "200": -0.018055124208331108,
          "201": 1.7937856912612915,
          "202": 0.0932980552315712,
          "203": 0.4197850227355957,
          "204": 0.16944293677806854,
          "205": 0.02178659848868847,
          "206": 0.5143646001815796,
          "207": -0.3631179928779602,
          "208": -0.4432421028614044,
          "209": -0.13231219351291656,
          "210": 0.5569961667060852,
          "211": 0.9909510612487793,
          "212": -0.3298412263393402,
          "213": -0.42855483293533325,
          "214": 0.3564738929271698,
          "215": 0.003347356105223298,
          "216": 0.3498636484146118,
          "217": 0.9995986223220825,
          "218": 0.8590933680534363,
          "219": -0.4253040850162506,
          "220": -1.1908587217330933,
          "221": 1.0263564586639404,
          "222": 0.7513335943222046,
          "223": -0.15201842784881592,
          "224": 0.3136613667011261,
          "225": 0.05327567085623741,
          "226": -0.25110939145088196,
          "227": 0.35870105028152466,
          "228": 0.5490919947624207,
          "229": -0.16491425037384033,
          "230": 1.5956809520721436,
          "231": 0.9641894698143005,
          "232": -0.5429095029830933,
          "233": -0.20340438187122345,
          "234": -0.07192773371934891,
          "235": -0.042534321546554565,
          "236": 0.3753717243671417,
          "237": 1.318655014038086,
          "238": -0.06628020852804184,
          "239": 0.5783572793006897,
          "240": 0.34331345558166504,
          "241": 0.2864643931388855,
          "242": 0.03473987430334091,
          "243": 0.6575596332550049,
          "244": -0.9957575798034668,
          "245": 1.0619871616363525,
          "246": 0.07726363092660904,
          "247": 0.04878125712275505,
          "248": -0.04243183508515358,
          "249": 1.8106046915054321,
          "250": 1.8890150785446167,
          "251": -0.8234894275665283,
          "252": 0.03434473276138306,
          "253": -0.5184662342071533,
          "254": -2.4509758949279785,
          "255": -1.8970924615859985,
          "256": 0.18555912375450134,
          "257": 1.0404176712036133,
          "258": 0.6257754564285278,
          "259": 0.9536049365997314,
          "260": -0.862747311592102,
          "261": 1.6379190683364868,
          "262": -0.28427574038505554,
          "263": -0.6493110060691833,
          "264": 0.5197356343269348,
          "265": 1.1685490608215332,
          "266": 0.6216920018196106,
          "267": 0.731444239616394,
          "268": -0.2560962438583374,
          "269": -0.33847731351852417,
          "270": -0.22531963884830475,
          "271": 0.5163892507553101,
          "272": 0.9675636291503906,
          "273": -0.21280834078788757,
          "274": -0.28692492842674255,
          "275": -0.169183149933815,
          "276": -0.6558932662010193,
          "277": 0.5472778081893921,
          "278": -0.059034451842308044,
          "279": -0.8984521627426147,
          "280": 0.15813161432743073,
          "281": -0.36104151606559753,
          "282": 0.3923208713531494,
          "283": -0.5980072617530823,
          "284": 0.364486962556839,
          "285": 0.5878567099571228,
          "286": 1.205054521560669,
          "287": 1.7281805276870728,
          "288": 0.996009111404419,
          "289": -1.4001896381378174,
          "290": -0.21674634516239166,
          "291": 0.14167967438697815,
          "292": -0.9343567490577698,
          "293": -1.0443599224090576,
          "294": 0.49476557970046997,
          "295": 0.8774808645248413,
          "296": 1.1912801265716553,
          "297": -0.4216180443763733,
          "298": 0.8173689842224121,
          "299": -0.5300138592720032,
          "300": 0.30132487416267395,
          "301": 0.9087287187576294,
          "302": -0.4142880439758301,
          "303": 0.06671608984470367,
          "304": -0.9459958672523499,
          "305": 1.896615743637085,
          "306": -0.009454751387238503,
          "307": 1.184810757637024,
          "308": -0.1275513917207718,
          "309": 0.08074689656496048,
          "310": 1.58979332447052,
          "311": -3.0163516998291016,
          "312": 0.12056094408035278,
          "313": -0.4357011020183563,
          "314": -0.07498566806316376,
          "315": 0.2645350694656372,
          "316": 1.2768621444702148,
          "317": -0.9985342621803284,
          "318": 2.0144190788269043,
          "319": 1.0298620462417603,
          "320": 0.7524534463882446,
          "321": -0.32972657680511475,
          "322": 0.009354895912110806,
          "323": 0.831709623336792,
          "324": 0.06309494376182556,
          "325": 0.5829036831855774,
          "326": -0.27987101674079895,
          "327": -0.10270559042692184,
          "328": 0.4325973391532898,
          "329": 0.2733563184738159,
          "330": -1.186822533607483,
          "331": 0.4891120493412018,
          "332": -1.1740213632583618,
          "333": 0.6415603160858154,
          "334": 0.24200309813022614,
          "335": 0.1775577813386917,
          "336": -0.4051383137702942,
          "337": -0.7822151780128479,
          "338": -1.3597469329833984,
          "339": 0.005222581326961517,
          "340": -0.36306166648864746,
          "341": 0.2710910141468048,
          "342": -1.0583956241607666,
          "343": 1.1693286895751953,
          "344": 0.2153824120759964,
          "345": -0.517700731754303,
          "346": 1.0937010049819946,
          "347": 0.9103302955627441,
          "348": -2.5324738025665283,
          "349": -1.9890401363372803,
          "350": -0.03427509218454361,
          "351": 0.5331762433052063,
          "352": 0.40297040343284607,
          "353": 0.3320510685443878,
          "354": -0.2647666931152344,
          "355": 1.2467635869979858,
          "356": 0.6957080960273743,
          "357": 0.3819243311882019,
          "358": 0.1776527613401413,
          "359": 0.5831888914108276,
          "360": 0.4763948619365692,
          "361": 1.7802642583847046,
          "362": 0.23049332201480865,
          "363": 0.18950673937797546,
          "364": -0.4861079156398773,
          "365": 0.24029229581356049,
          "366": 0.25702211260795593,
          "367": 0.09275254607200623,
          "368": 0.21620160341262817,
          "369": 0.632901132106781,
          "370": -0.5019151568412781,
          "371": 0.3730161488056183,
          "372": 1.3493345975875854,
          "373": 0.8447303175926208,
          "374": -0.6080766320228577,
          "375": 0.5398762226104736,
          "376": -0.2773333191871643,
          "377": -0.9902112483978271,
          "378": -0.033183809369802475,
          "379": -0.3153735399246216,
          "380": 1.0706140995025635,
          "381": 0.5297290682792664,
          "382": 1.2722643613815308,
          "383": -0.8000627160072327,
          "384": 0.10067509859800339,
          "385": 0.852026104927063,
          "386": 0.15161649882793427,
          "387": -0.384710431098938,
          "388": -1.207044005393982,
          "389": 0.1044490858912468,
          "390": 0.5957676768302917,
          "391": 0.8035416603088379,
          "392": 0.3601512014865875,
          "393": -0.304899662733078,
          "394": 0.5100736021995544,
          "395": -0.25276869535446167,
          "396": 0.022802071645855904,
          "397": -0.26605090498924255,
          "398": -1.244861125946045,
          "399": -0.49732112884521484,
          "400": -1.2648231983184814,
          "401": 0.46995219588279724,
          "402": -0.1864759922027588,
          "403": -1.1143594980239868,
          "404": 0.3417905569076538,
          "405": -0.4871867895126343,
          "406": 0.5454785227775574,
          "407": -0.1842556744813919,
          "408": 0.26875725388526917,
          "409": 1.3092997074127197,
          "410": -0.149812251329422,
          "411": -1.1953554153442383,
          "412": 0.2470012903213501,
          "413": 0.1791793406009674,
          "414": 0.045414116233587265,
          "415": -0.004401198122650385,
          "416": 0.11172129213809967,
          "417": 1.6059118509292603,
          "418": -0.29361996054649353,
          "419": 2.4488916397094727,
          "420": -1.0145808458328247,
          "421": 1.027655005455017,
          "422": -0.3309095799922943,
          "423": -0.41877153515815735,
          "424": -1.2869750261306763,
          "425": 0.3970867395401001,
          "426": 0.5488440990447998,
          "427": 0.5978246927261353,
          "428": 0.7196250557899475,
          "429": 1.3259217739105225,
          "430": -1.526876449584961,
          "431": -0.6885116696357727,
          "432": -0.5885254740715027,
          "433": -0.45514121651649475,
          "434": -1.569898009300232,
          "435": -0.7383964657783508,
          "436": 0.7379472255706787,
          "437": -0.573259711265564,
          "438": 0.03882047161459923,
          "439": 0.5032057762145996,
          "440": 0.23643124103546143,
          "441": 0.7763573527336121,
          "442": -0.19198280572891235,
          "443": -1.55842125415802,
          "444": -0.8745346069335938,
          "445": 1.6742388010025024,
          "446": 0.25907349586486816,
          "447": 0.28380218148231506,
          "448": 0.02818276360630989,
          "449": 1.3249013423919678,
          "450": -0.27756747603416443,
          "451": 0.001303448574617505,
          "452": 0.016805658116936684,
          "453": 1.3062154054641724,
          "454": -1.3223503828048706,
          "455": 0.3667735159397125,
          "456": 2.4875829219818115,
          "457": 0.5036747455596924,
          "458": -1.3567909002304077,
          "459": -0.31192997097969055,
          "460": 0.25533953309059143,
          "461": -0.4697961211204529,
          "462": 1.0812467336654663,
          "463": 1.4147164821624756,
          "464": -0.706688642501831,
          "465": -0.13795827329158783,
          "466": -1.1006931066513062,
          "467": -0.0570065975189209,
          "468": -0.41510912775993347,
          "469": 0.006648144219070673,
          "470": 1.1404043436050415,
          "471": -0.5478904247283936,
          "472": 0.8181233406066895,
          "473": -1.3124343156814575,
          "474": -0.0073622758500278,
          "475": 1.1737492084503174,
          "476": 1.546316146850586,
          "477": -0.7910176515579224,
          "478": 0.03864381089806557,
          "479": -0.719819962978363,
          "480": -1.1435420513153076,
          "481": 0.0867079570889473,
          "482": -0.6935691833496094,
          "483": 2.000243663787842,
          "484": 0.6375426650047302,
          "485": -0.3631277084350586,
          "486": -1.2628213167190552,
          "487": 0.6088497042655945,
          "488": 0.8207152485847473,
          "489": 0.25893664360046387,
          "490": 0.5012454986572266,
          "491": -1.106497049331665,
          "492": 0.1954423189163208,
          "493": -0.9916192889213562,
          "494": -1.4057034254074097,
          "495": -1.5314228534698486,
          "496": -0.07533514499664307,
          "497": -0.7551591992378235,
          "498": -0.11011846363544464,
          "499": 0.48098334670066833,
          "500": 0.7299378514289856,
          "501": -0.9817504286766052,
          "502": -0.06765293329954147,
          "503": 0.4627867341041565,
          "504": 0.8624982237815857,
          "505": -1.3336621522903442,
          "506": -1.2948147058486938,
          "507": 0.8953189849853516,
          "508": -0.5050458908081055,
          "509": 0.30607807636260986,
          "510": 0.4901689887046814,
          "511": -0.6294360756874084,
          "512": 0.7447866201400757,
          "513": 1.0282282829284668,
          "514": -0.033052701503038406,
          "515": -1.2826242446899414,
          "516": -1.1178618669509888,
          "517": 0.6253920793533325,
          "518": -0.2724987268447876,
          "519": 0.31997933983802795,
          "520": -0.42532598972320557,
          "521": 0.19023090600967407,
          "522": 0.7795540690422058,
          "523": 0.5335161089897156,
          "524": -0.5310437679290771,
          "525": -0.5570058226585388,
          "526": 0.9785071015357971,
