{
  "type": "LSTM",
  "options": {
    "inputSize": 47,
    "inputRange": 47,
    "hiddenLayers": [
      20,
      20
    ],
    "outputSize": 47,
    "decayRate": 0.999,
    "smoothEps": 1e-8,
    "regc": 0.000001,
    "clipval": 5,
    "maxPredictionLength": 100,
    "dataFormatter": {
      "values": [
        "Adobe",
        "Appreciate every day",
        "What is the meaning of life?",
        "boston",
        "copy file into docker container",
        "docker cp ./some_file CONTAINER:/work",
        "favorite city",
        "favorite cloud",
        "favorite company to work for",
        "favorite food",
        "favorite rock",
        "favorite state",
        "git pull origin --rebase",
        "how to clean node cache",
        "how to rebase in git",
        "how to run nodejs file on command line",
        "how to view all ports being used on mac",
        "igneous",
        "mass",
        "node --experimental-modules src/file.js",
        "npm cache clean --force",
        "pizza",
        "stratus",
        "sudo lsof -iTCP -sTCP:LISTEN -n -P"
      ],
      "indexTable": {
        "A": 0,
        "d": 1,
        "o": 2,
        "b": 3,
        "e": 4,
        "p": 5,
        "r": 6,
        "c": 7,
        "i": 8,
        "a": 9,
        "t": 10,
        " ": 11,
        "v": 12,
        "y": 13,
        "W": 14,
        "h": 15,
        "s": 16,
        "m": 17,
        "n": 18,
        "g": 19,
        "f": 20,
        "l": 21,
        "?": 22,
        "k": 23,
        ".": 24,
        "/": 25,
        "_": 26,
        "C": 27,
        "O": 28,
        "N": 29,
        "T": 30,
        "I": 31,
        "E": 32,
        "R": 33,
        ":": 34,
        "w": 35,
        "u": 36,
        "-": 37,
        "j": 38,
        "x": 39,
        "z": 40,
        "P": 41,
        "L": 42,
        "S": 43,
        "stop-input": 44,
        "start-output": 45,
        "unrecognized": 46
      },
      "characterTable": {
        "0": "A",
        "1": "d",
        "2": "o",
        "3": "b",
        "4": "e",
        "5": "p",
        "6": "r",
        "7": "c",
        "8": "i",
        "9": "a",
        "10": "t",
        "11": " ",
        "12": "v",
        "13": "y",
        "14": "W",
        "15": "h",
        "16": "s",
        "17": "m",
        "18": "n",
        "19": "g",
        "20": "f",
        "21": "l",
        "22": "?",
        "23": "k",
        "24": ".",
        "25": "/",
        "26": "_",
        "27": "C",
        "28": "O",
        "29": "N",
        "30": "T",
        "31": "I",
        "32": "E",
        "33": "R",
        "34": ":",
        "35": "w",
        "36": "u",
        "37": "-",
        "38": "j",
        "39": "x",
        "40": "z",
        "41": "P",
        "42": "L",
        "43": "S",
        "44": null,
        "45": null,
        "46": null
      },
      "characters": [
        "A",
        "d",
        "o",
        "b",
        "e",
        "p",
        "r",
        "c",
        "i",
        "a",
        "t",
        " ",
        "v",
        "y",
        "W",
        "h",
        "s",
        "m",
        "n",
        "g",
        "f",
        "l",
        "?",
        "k",
        ".",
        "/",
        "_",
        "C",
        "O",
        "N",
        "T",
        "I",
        "E",
        "R",
        ":",
        "w",
        "u",
        "-",
        "j",
        "x",
        "z",
        "P",
        "L",
        "S",
        "stop-input",
        "start-output",
        "unrecognized"
      ],
      "specialIndexes": [
        44,
        45,
        46
      ]
    }
  },
  "input": {
    "rows": 48,
    "columns": 47,
    "weights": {
      "0": 1.271547555923462,
      "1": 0.7357429265975952,
      "2": 0.5819230079650879,
      "3": 0.8097164630889893,
      "4": -0.5166506171226501,
      "5": -0.2727416753768921,
      "6": 0.7152172923088074,
      "7": 0.6468732357025146,
      "8": -1.330798864364624,
      "9": 1.0598268508911133,
      "10": 0.28103935718536377,
      "11": -1.4216430187225342,
      "12": -0.6685870289802551,
      "13": 0.2172519564628601,
      "14": -0.45058268308639526,
      "15": 0.6854063868522644,
      "16": 0.46504703164100647,
      "17": 0.8298095464706421,
      "18": -0.012391917407512665,
      "19": 0.8985031247138977,
      "20": 0.04803204908967018,
      "21": -0.11627773195505142,
      "22": -0.3290555477142334,
      "23": 1.8992146253585815,
      "24": 0.5266340970993042,
      "25": 0.6545220613479614,
      "26": -0.319275826215744,
      "27": -1.0367622375488281,
      "28": 0.35918664932250977,
      "29": -0.24004529416561127,
      "30": 1.4905744791030884,
      "31": -1.4601749181747437,
      "32": 0.09323892742395401,
      "33": -0.7860187292098999,
      "34": -0.6942084431648254,
      "35": 0.7679792642593384,
      "36": 1.915855050086975,
      "37": -0.09627028554677963,
      "38": 1.1136025190353394,
      "39": -0.051437437534332275,
      "40": -0.9927316308021545,
      "41": 0.3044649064540863,
      "42": 0.5710994005203247,
      "43": -0.5083021521568298,
      "44": -0.12452437728643417,
      "45": -1.4764125347137451,
      "46": 0.10253936797380447,
      "47": -1.4913396835327148,
      "48": -2.0646729469299316,
      "49": 1.1228243112564087,
      "50": 0.814172625541687,
      "51": -3.610562801361084,
      "52": -1.3540103435516357,
      "53": -1.4454622268676758,
      "54": -0.8906494379043579,
      "55": 1.916490077972412,
      "56": -0.670566737651825,
      "57": 0.43063995242118835,
      "58": 9.382062911987305,
      "59": -1.978851079940796,
      "60": -0.0704628974199295,
      "61": 1.9059785604476929,
      "62": -1.423712134361267,
      "63": 2.3437790870666504,
      "64": 1.0219959020614624,
      "65": 0.38123729825019836,
      "66": -0.7677256464958191,
      "67": -3.893091917037964,
      "68": -1.829689621925354,
      "69": -0.15663684904575348,
      "70": -9.126378059387207,
      "71": -1.1818571090698242,
      "72": -7.636928558349609,
      "73": -0.43839365243911743,
      "74": 0.02970980480313301,
      "75": 1.490581750869751,
      "76": 2.8983986377716064,
      "77": -1.5895158052444458,
      "78": -1.4536547660827637,
      "79": 2.453545570373535,
      "80": -3.6388020515441895,
      "81": 0.19006824493408203,
      "82": -4.838434219360352,
      "83": 3.1618809700012207,
      "84": -2.3246376514434814,
      "85": -1.8359882831573486,
      "86": -0.5725128650665283,
      "87": 2.3650317192077637,
      "88": -0.3509915769100189,
      "89": 0.3162420690059662,
      "90": 1.2204959392547607,
      "91": -0.31597188115119934,
      "92": -2.307741641998291,
      "93": 0.34352436661720276,
      "94": 1.020171046257019,
      "95": -0.3466891944408417,
      "96": -1.8680177927017212,
      "97": -0.6170793771743774,
      "98": 0.42308104038238525,
      "99": -1.3001351356506348,
      "100": -0.6728647947311401,
      "101": 0.34525585174560547,
      "102": -0.14882014691829681,
      "103": -0.27416735887527466,
      "104": -0.4627596139907837,
      "105": 1.4806891679763794,
      "106": 3.3481709957122803,
      "107": -3.1856555938720703,
      "108": -1.973254919052124,
      "109": -2.167613983154297,
      "110": 2.192431926727295,
      "111": -0.28739652037620544,
      "112": -0.140964537858963,
      "113": 1.5818461179733276,
      "114": -0.27292364835739136,
      "115": -0.5054234266281128,
      "116": -0.2549034357070923,
      "117": 0.9538261294364929,
      "118": 2.163655996322632,
      "119": -1.3966617584228516,
      "120": 0.2904023826122284,
      "121": -1.4098104238510132,
      "122": -0.45148423314094543,
      "123": -0.3955806791782379,
      "124": -1.5977610349655151,
      "125": 0.8145661950111389,
      "126": -1.2974978685379028,
      "127": 1.267851710319519,
      "128": -0.6957746148109436,
      "129": 1.0188196897506714,
      "130": -3.039438486099243,
      "131": 0.68867027759552,
      "132": -0.23190003633499146,
      "133": -0.5854679942131042,
      "134": -0.1035381332039833,
      "135": -0.14388565719127655,
      "136": -0.5136932730674744,
      "137": 0.46853381395339966,
      "138": -0.11769834905862808,
      "139": -1.926373839378357,
      "140": 0.11441751569509506,
      "141": 1.022743821144104,
      "142": -0.5690767168998718,
      "143": -0.623010516166687,
      "144": 0.018684864044189453,
      "145": -0.7569519281387329,
      "146": 1.37820303440094,
      "147": 1.3385844230651855,
      "148": 0.5670986175537109,
      "149": 1.1738700866699219,
      "150": -0.2837964594364166,
      "151": 0.06930676102638245,
      "152": -0.4498980939388275,
      "153": -1.1447209119796753,
      "154": -0.15656621754169464,
      "155": -0.7004193663597107,
      "156": 1.7412091493606567,
      "157": 0.43643391132354736,
      "158": -0.36240333318710327,
      "159": 3.1305994987487793,
      "160": -2.18241024017334,
      "161": 0.9995413422584534,
      "162": 0.7126457095146179,
      "163": 0.2300226241350174,
      "164": -1.4842973947525024,
      "165": -0.16319897770881653,
      "166": -0.5358114838600159,
      "167": -0.13509510457515717,
      "168": -1.309847116470337,
      "169": -0.0807913988828659,
      "170": 1.4225753545761108,
      "171": -2.5137031078338623,
      "172": -1.0465840101242065,
      "173": -0.46098098158836365,
      "174": -0.4061740040779114,
      "175": 2.3257598876953125,
      "176": -0.02004197984933853,
      "177": -0.5770635008811951,
      "178": -0.5633383989334106,
      "179": 0.39476680755615234,
      "180": 1.8370702266693115,
      "181": 0.648943305015564,
      "182": 0.6336211562156677,
      "183": 0.654155969619751,
      "184": 1.8219269514083862,
      "185": -0.24267563223838806,
      "186": 1.733172059059143,
      "187": 0.1919923573732376,
      "188": 2.6639060974121094,
      "189": -3.165602207183838,
      "190": -1.5580042600631714,
      "191": 1.4860124588012695,
      "192": -6.0254998207092285,
      "193": -0.8309763669967651,
      "194": 1.9966424703598022,
      "195": 1.4073688983917236,
      "196": 3.477355480194092,
      "197": -3.7582390308380127,
      "198": -1.4718965291976929,
      "199": -0.5039637684822083,
      "200": 0.031463805586099625,
      "201": 3.5940327644348145,
      "202": -3.3016765117645264,
      "203": 0.6329408884048462,
      "204": 3.41228985786438,
      "205": 0.09569976478815079,
      "206": 1.452179193496704,
      "207": -0.6906852126121521,
      "208": 2.429563522338867,
      "209": -0.4197639524936676,
      "210": -1.3233733177185059,
      "211": -2.581516981124878,
      "212": 2.609165906906128,
      "213": 1.923248291015625,
      "214": -0.2796211540699005,
      "215": -3.3160507678985596,
      "216": 0.26259899139404297,
      "217": 2.1600213050842285,
      "218": -3.672743082046509,
      "219": -0.05024661868810654,
      "220": -4.1313886642456055,
      "221": 0.9670175313949585,
      "222": 3.6738874912261963,
      "223": 1.1463251113891602,
      "224": -3.403066396713257,
      "225": -1.589056134223938,
      "226": -0.2560659646987915,
      "227": 0.7561110854148865,
      "228": 0.08445223420858383,
      "229": 1.401556134223938,
      "230": 4.625112533569336,
      "231": 2.4408774375915527,
      "232": -2.3287177085876465,
      "233": 0.6687849760055542,
      "234": -3.2331299781799316,
      "235": -0.08188401907682419,
      "236": 0.0017810958670452237,
      "237": 0.6009717583656311,
      "238": -0.10944874584674835,
      "239": -0.08398814499378204,
      "240": -1.3391070365905762,
      "241": 0.5744028091430664,
      "242": -0.5074171423912048,
      "243": -0.495383083820343,
      "244": -1.068589210510254,
      "245": -0.553192675113678,
      "246": 1.195365071296692,
      "247": 1.6515623331069946,
      "248": -0.06605633348226547,
      "249": -0.14423489570617676,
      "250": -2.7557156085968018,
      "251": 0.7308822274208069,
      "252": 0.06728410720825195,
      "253": -0.6114460229873657,
      "254": 0.3960154950618744,
      "255": 0.30993330478668213,
      "256": -0.1152891293168068,
      "257": 0.4725428819656372,
      "258": 0.76413494348526,
      "259": 0.8048266768455505,
      "260": -0.9166241884231567,
      "261": -0.1592353731393814,
      "262": -0.558473527431488,
      "263": 0.015456954017281532,
      "264": 0.13882951438426971,
      "265": -0.24308156967163086,
      "266": 0.43845364451408386,
      "267": -1.3841431140899658,
      "268": 1.0371475219726562,
      "269": -0.21973441541194916,
      "270": 0.9510877728462219,
      "271": -1.104792833328247,
      "272": 1.4329172372817993,
      "273": 0.10730426758527756,
      "274": -0.49549829959869385,
      "275": -0.7085708379745483,
      "276": 0.09445814043283463,
      "277": 0.8968079686164856,
      "278": -0.2807715833187103,
      "279": -1.7819106578826904,
      "280": -1.3447498083114624,
      "281": 0.9428979754447937,
      "282": 1.2948578596115112,
      "283": -2.0198447704315186,
      "284": 1.0103460550308228,
      "285": -0.3695622980594635,
      "286": 0.3929923176765442,
      "287": -0.32729068398475647,
      "288": -1.9168766736984253,
      "289": 0.6974049806594849,
      "290": -0.5294073820114136,
      "291": 3.2037785053253174,
      "292": -1.1179399490356445,
      "293": 1.9461467266082764,
      "294": -0.10685502737760544,
      "295": 0.6874409317970276,
      "296": 1.957594633102417,
      "297": -0.3340790569782257,
      "298": -0.9167001843452454,
      "299": -1.0465869903564453,
      "300": 1.688716173171997,
      "301": -0.4909019470214844,
      "302": 0.07262565195560455,
      "303": 0.12144394218921661,
      "304": 1.0025371313095093,
      "305": -1.2128407955169678,
      "306": -1.4219857454299927,
      "307": 1.4482237100601196,
      "308": 0.19308972358703613,
      "309": 2.103590965270996,
      "310": -1.361337423324585,
      "311": 1.58769690990448,
      "312": 0.8287686109542847,
      "313": 0.0374966561794281,
      "314": 0.050135333091020584,
      "315": -0.8494076728820801,
      "316": -0.7607982754707336,
      "317": 1.8709534406661987,
      "318": -0.6282787322998047,
      "319": -1.0756622552871704,
      "320": -1.8922157287597656,
      "321": 0.9085187911987305,
      "322": 0.49152177572250366,
      "323": -0.45546820759773254,
      "324": -1.564996361732483,
      "325": 2.778722047805786,
      "326": 0.5128557682037354,
      "327": -0.883664071559906,
      "328": -0.5175471901893616,
      "329": -2.3861374855041504,
      "330": -1.0730265378952026,
      "331": 0.3815072178840637,
      "332": 1.0521658658981323,
      "333": -2.561969518661499,
      "334": 0.5777132511138916,
      "335": 1.3928073644638062,
      "336": 0.4654713571071625,
      "337": 2.2017886638641357,
      "338": -1.6497102975845337,
      "339": -1.1472017765045166,
      "340": 2.424268960952759,
      "341": 1.3008917570114136,
      "342": 0.9761534929275513,
      "343": -0.2463073581457138,
      "344": -1.399255633354187,
      "345": -0.37553727626800537,
      "346": 0.07534650713205338,
      "347": -0.9402427673339844,
      "348": 0.00811910629272461,
      "349": 0.6199865341186523,
      "350": -1.80409574508667,
      "351": 1.8723294734954834,
      "352": -2.564174175262451,
      "353": -0.9529462456703186,
      "354": 0.9475905299186707,
      "355": 0.37746843695640564,
      "356": -0.24636180698871613,
      "357": 2.9512441158294678,
      "358": 0.5612885355949402,
      "359": 0.7062229514122009,
      "360": 0.1988600343465805,
      "361": -0.3615025579929352,
      "362": 0.13505426049232483,
      "363": -0.48829805850982666,
      "364": 0.7281352877616882,
      "365": -0.26943203806877136,
      "366": -1.3556640148162842,
      "367": -1.6345592737197876,
      "368": 0.2904720902442932,
      "369": -0.06138797476887703,
      "370": -0.31463396549224854,
      "371": 0.25244617462158203,
      "372": -0.3048759996891022,
      "373": -1.6807111501693726,
      "374": 1.1013144254684448,
      "375": -0.11658366769552231,
      "376": 0.0444069467484951,
      "377": -1.560225248336792,
      "378": 1.1721265316009521,
      "379": -1.3258099555969238,
      "380": -0.9847522377967834,
      "381": 0.20455779135227203,
      "382": -1.0464993715286255,
      "383": -0.17935903370380402,
      "384": 1.8818293809890747,
      "385": -0.8921399712562561,
      "386": 0.03186282888054848,
      "387": 1.1375490427017212,
      "388": -0.471027135848999,
      "389": 0.610451340675354,
      "390": 1.4578443765640259,
      "391": -0.5682447552680969,
      "392": 0.6601619124412537,
      "393": -0.8978403210639954,
      "394": 0.4196775257587433,
      "395": -0.9953915476799011,
      "396": 0.6504546403884888,
      "397": 3.2811472415924072,
      "398": -0.6329551935195923,
      "399": -3.415736436843872,
      "400": -0.3961743116378784,
      "401": 3.0886356830596924,
      "402": -1.3457610607147217,
      "403": 0.714089572429657,
      "404": 0.06037895008921623,
      "405": -1.3723481893539429,
      "406": -2.6320290565490723,
      "407": -1.4174909591674805,
      "408": 0.18963919579982758,
      "409": 0.20763501524925232,
      "410": 0.7971046566963196,
      "411": -0.37649258971214294,
      "412": 0.7905900478363037,
      "413": 0.8797865509986877,
      "414": -2.8062570095062256,
      "415": -1.2806931734085083,
      "416": 0.6303592920303345,
      "417": 1.057512640953064,
      "418": 0.5568332672119141,
      "419": 0.5278610587120056,
      "420": -0.8583659529685974,
      "421": 0.32931768894195557,
      "422": 0.3332696855068207,
      "423": 0.5840336680412292,
      "424": -1.6416066884994507,
      "425": 0.4040777087211609,
      "426": -1.3106876611709595,
      "427": -2.3656094074249268,
      "428": -1.620320200920105,
      "429": 1.352244257926941,
      "430": 0.8580140471458435,
      "431": 2.604449987411499,
      "432": -3.6408488750457764,
      "433": 1.859689474105835,
      "434": 0.8384356498718262,
      "435": -0.7984631061553955,
      "436": 1.5705931186676025,
      "437": -3.2342844009399414,
      "438": 0.23269540071487427,
      "439": 3.9597694873809814,
      "440": -1.5250167846679688,
      "441": -0.7987900376319885,
      "442": 0.6682501435279846,
      "443": 0.21474261581897736,
      "444": 2.072474241256714,
      "445": -1.390602707862854,
      "446": -0.4299253821372986,
      "447": -0.10754404962062836,
      "448": 0.19695906341075897,
      "449": 0.8440701961517334,
      "450": -2.2628283500671387,
      "451": -1.342883586883545,
      "452": 2.111245632171631,
      "453": -1.6641309261322021,
      "454": -0.09966236352920532,
      "455": -0.8042256236076355,
      "456": -0.7471112608909607,
      "457": 1.2249112129211426,
      "458": -1.6279911994934082,
      "459": -1.1429542303085327,
      "460": 1.8962119817733765,
      "461": -1.045735478401184,
      "462": -1.57887601852417,
      "463": -0.8629316091537476,
      "464": -0.22361694276332855,
      "465": 1.3204425573349,
      "466": 1.6043509244918823,
      "467": -2.1612582206726074,
      "468": -0.5157637596130371,
      "469": 0.5574525594711304,
      "470": 1.0350098609924316,
      "471": -1.5089986324310303,
      "472": -0.7319260835647583,
      "473": -0.5019373297691345,
      "474": 0.24257828295230865,
      "475": -0.7649531364440918,
      "476": -0.18023329973220825,
      "477": 0.24853910505771637,
      "478": -0.5852565765380859,
      "479": -0.04012204334139824,
      "480": 0.09190519154071808,
      "481": -1.27858567237854,
      "482": 0.043341297656297684,
      "483": 1.2839112281799316,
      "484": -0.10483168810606003,
      "485": 0.6835411190986633,
      "486": 2.317797899246216,
      "487": -0.008158575743436813,
      "488": 1.1728898286819458,
      "489": -0.3730999529361725,
      "490": 0.8606104254722595,
      "491": 0.47899603843688965,
      "492": 0.0002111675130436197,
      "493": 2.1079390048980713,
      "494": 0.6468139290809631,
      "495": 0.529254138469696,
      "496": 0.08208904415369034,
      "497": -1.845583438873291,
      "498": -0.2864856421947479,
      "499": -0.11333169788122177,
      "500": -0.24464425444602966,
      "501": 0.05644557252526283,
      "502": -1.0757626295089722,
      "503": -1.209268569946289,
      "504": 0.6291520595550537,
      "505": 0.9727714657783508,
      "506": -0.29084324836730957,
      "507": 2.024911880493164,
      "508": 0.34056732058525085,
      "509": -1.7497234344482422,
      "510": 0.06055162847042084,
      "511": 0.11157398670911789,
      "512": -1.420972466468811,
      "513": -1.5466337203979492,
      "514": 0.7642807364463806,
      "515": 0.15108425915241241,
      "516": 1.1477495431900024,
      "517": -2.3330280780792236,
      "518": 0.08437279611825943,
      "519": 0.11457675695419312,
      "520": -0.4513230621814728,
      "521": 1.4723237752914429,
      "522": 1.5110383033752441,
      "523": -2.1912436485290527,
      "524": 0.6425721049308777,
      "525": -1.3480652570724487,
      "526": 1.0287011861801147,
      "527": -0.47541749477386475,
      "528": 1.7952276468276978,
      "529": 0.1327742636203766,
      "530": -0.8510847687721252,
      "531": 1.843659520149231,
      "532": -1.1796036958694458,
      "533": -1.2051266431808472,
      "534": -1.7858155965805054,
      "535": 0.5839889049530029,
      "536": -0.5468857288360596,
      "537": -2.10115122795105,
      "538": -2.3396754264831543,
      "539": 0.4419283866882324,
      "540": 0.2574504613876343,
      "541": -0.7980026006698608,
      "542": 0.24587039649486542,
      "543": 0.02550124190747738,
      "544": 2.4748268127441406,
      "545": -1.399754524230957,
      "546": 0.2880997955799103,
      "547": 3.420264482498169,
      "548": -1.1947684288024902,
      "549": 1.879974126815796,
      "550": -0.5434429049491882,
      "551": -3.6555306911468506,
      "552": -0.4135289192199707,
      "553": 4.978935718536377,
      "554": -1.4115914106369019,
      "555": -0.29349327087402344,
      "556": -0.9338407516479492,
      "557": 2.2980573177337646,
      "558": -1.305586338043213,
      "559": -2.9372479915618896,
      "560": 1.9361847639083862,
      "561": 2.1876637935638428,
      "562": 0.08801986277103424,
      "563": -2.0714423656463623,
      "564": 1.1152122020721436,
      "565": 0.6651188731193542,
      "566": 1.467225193977356,
      "567": 2.3361077308654785,
      "568": 0.3573392331600189,
      "569": -0.7052441835403442,
      "570": 1.0011436939239502,
      "571": -2.1579113006591797,
      "572": -0.7085212469100952,
      "573": 0.9688213467597961,
      "574": 1.4824910163879395,
      "575": -1.080895185470581,
      "576": 0.9740129709243774,
      "577": -0.6612229943275452,
      "578": -0.29973506927490234,
      "579": -0.3718405067920685,
      "580": -1.2082164287567139,
      "581": 1.3427082300186157,
      "582": -0.646003007888794,
      "583": 1.3940629959106445,
      "584": 0.08148618042469025,
      "585": 0.11608652770519257,
      "586": -0.7478047013282776,
      "587": 0.5330163240432739,
      "588": -0.3747144043445587,
      "589": 0.34063422679901123,
      "590": -1.8478456735610962,
      "591": 0.1316031664609909,
      "592": 1.1110820770263672,
      "593": -2.252159595489502,
      "594": 0.0567842572927475,
      "595": -0.6798951625823975,
      "596": 0.7266868948936462,
      "597": -0.7765804529190063,
      "598": 0.8356664180755615,
      "599": 1.127303123474121,
      "600": -0.3148997128009796,
      "601": 0.5049020051956177,
      "602": 0.25500810146331787,
      "603": -0.3254103660583496,
      "604": -0.41714054346084595,
      "605": 1.257361888885498,
      "606": 0.16511616110801697,
      "607": -0.17807763814926147,
      "608": 0.7927498817443848,
      "609": 0.18623191118240356,
      "610": 0.3771263062953949,
      "611": -0.07280437648296356,
      "612": -1.224053978919983,
      "613": 0.780896782875061,
      "614": -2.3937151432037354,
      "615": 0.13121069967746735,
      "616": -0.5415071845054626,
      "617": -1.291276454925537,
      "618": 0.3942979872226715,
      "619": 0.11335541307926178,
      "620": -0.11454547941684723,
      "621": 1.1882176399230957,
      "622": 1.813798427581787,
      "623": -1.3806639909744263,
      "624": -0.36270564794540405,
      "625": -0.6404476165771484,
      "626": 0.07622234523296356,
      "627": -1.8060314655303955,
      "628": -0.7153152227401733,
      "629": 1.7707899808883667,
      "630": -1.561902642250061,
      "631": -0.5361368060112,
      "632": 1.0713317394256592,
      "633": -0.8597903251647949,
      "634": -2.075983762741089,
      "635": -2.4438724517822266,
      "636": 0.7917656302452087,
      "637": 0.49018973112106323,
      "638": 2.1436097621917725,
      "639": -0.28845059871673584,
      "640": -0.2931821346282959,
      "641": -1.0748813152313232,
      "642": 0.2534564137458801,
      "643": 1.3203325271606445,
      "644": -0.7345837354660034,
      "645": 1.0848236083984375,
      "646": -1.0101896524429321,
      "647": 0.29436197876930237,
      "648": -0.5592610239982605,
      "649": -1.2621601819992065,
      "650": 1.3609719276428223,
      "651": -0.04383563622832298,
      "652": -0.09014427661895752,
      "653": -1.9169749021530151,
      "654": 2.557206153869629,
      "655": 0.893186092376709,
      "656": 3.051809787750244,
      "657": 0.8817710876464844,
      "658": 1.9365280866622925,
      "659": -1.1312490701675415,
      "660": -4.011657238006592,
      "661": -5.560553550720215,
      "662": 2.5598912239074707,
      "663": 0.6769073009490967,
      "664": -1.304990291595459,
      "665": 6.282830238342285,
      "666": -2.1509504318237305,
      "667": 0.9283367395401001,
      "668": -1.3455421924591064,
      "669": 0.5634564161300659,
      "670": -1.87742018699646,
      "671": 0.22623541951179504,
      "672": -1.6586400270462036,
      "673": 2.400881290435791,
      "674": -1.734133243560791,
      "675": -4.993958950042725,
      "676": 3.4166460037231445,
      "677": -0.4298812747001648,
      "678": -1.7136657238006592,
      "679": -3.212155818939209,
      "680": 4.409754276275635,
      "681": 0.23178596794605255,
      "682": 1.1254992485046387,
      "683": -5.807646751403809,
      "684": 3.8041300773620605,
      "685": -0.04793090745806694,
      "686": -2.322754144668579,
      "687": 3.5194883346557617,
      "688": 0.41658133268356323,
      "689": 2.562441349029541,
      "690": -0.4534599184989929,
      "691": -0.009972441010177135,
      "692": 0.6622674465179443,
      "693": -0.8798004984855652,
      "694": 1.062902569770813,
      "695": -0.3151814937591553,
      "696": 0.31566327810287476,
      "697": 2.49469256401062,
      "698": 0.13646721839904785,
      "699": -4.333705902099609,
      "700": -0.63996821641922,
      "701": 3.196355104446411,
      "702": 0.5992114543914795,
      "703": -1.950227975845337,
      "704": -3.0183534622192383,
      "705": -2.2578577995300293,
      "706": 3.7738072872161865,
      "707": 7.060952663421631,
      "708": 8.38710880279541,
      "709": 5.527412414550781,
      "710": 0.5353353023529053,
      "711": -2.0630433559417725,
      "712": 0.724047839641571,
      "713": -4.759185791015625,
      "714": -6.015398025512695,
      "715": -0.7082051038742065,
      "716": -7.002972602844238,
      "717": -1.19101881980896,
      "718": -6.56834602355957,
      "719": 1.382680058479309,
      "720": 3.044600486755371,
      "721": -4.9504618644714355,
      "722": 9.115582466125488,
      "723": -9.125905990600586,
      "724": 5.743712902069092,
      "725": -3.57753586769104,
      "726": 1.9880768060684204,
      "727": 1.460899829864502,
      "728": 4.877682685852051,
      "729": 6.425592422485352,
      "730": -3.7058918476104736,
      "731": -0.265078604221344,
      "732": 3.636085033416748,
      "733": 3.766038417816162,
      "734": -3.4157469272613525,
      "735": 5.326958179473877,
      "736": 2.2164571285247803,
      "737": 1.4116243124008179,
      "738": 3.914590835571289,
      "739": 1.578977346420288,
      "740": -1.5198971033096313,
      "741": 3.5025601387023926,
      "742": 3.650357961654663,
      "743": 2.8453922271728516,
      "744": -6.903695106506348,
      "745": -5.085260391235352,
      "746": -2.6976380348205566,
      "747": 0.4785003066062927,
      "748": -8.31074333190918,
      "749": 1.9913983345031738,
      "750": -0.1341468244791031,
      "751": -1.2963558435440063,
      "752": -2.3417165279388428,
      "753": -1.460737943649292,
      "754": 3.1270923614501953,
      "755": -0.5399184226989746,
      "756": 2.1322224140167236,
      "757": 4.645809173583984,
      "758": -0.4765101969242096,
      "759": 0.8952042460441589,
      "760": -1.4353523254394531,
      "761": 1.012947916984558,
      "762": -0.5409866571426392,
      "763": 0.5621271133422852,
      "764": -0.5262410640716553,
      "765": -4.156155586242676,
      "766": 4.826956272125244,
      "767": 0.3374520242214203,
      "768": -0.7391931414604187,
      "769": -1.0992363691329956,
      "770": -1.059218406677246,
      "771": -0.36132773756980896,
      "772": -4.543281078338623,
      "773": -5.839103698730469,
      "774": -0.031027186661958694,
      "775": -2.074704885482788,
      "776": -1.0326014757156372,
      "777": -2.0186314582824707,
      "778": 2.0535285472869873,
      "779": 1.2968380451202393,
      "780": -1.2117266654968262,
      "781": -1.2596874237060547,
      "782": 0.9551448822021484,
      "783": 3.2162272930145264,
      "784": 3.5931334495544434,
      "785": -1.1584689617156982,
      "786": -3.063101291656494,
      "787": -4.785023212432861,
      "788": 3.538390874862671,
      "789": -0.6494027972221375,
      "790": -2.5855934619903564,
      "791": 1.1974968910217285,
      "792": 0.7009344100952148,
      "793": -3.2142744064331055,
      "794": -2.561558723449707,
      "795": 2.462313652038574,
      "796": 1.2046452760696411,
      "797": 0.9790801405906677,
      "798": -4.6404852867126465,
      "799": -2.805161476135254,
      "800": 1.0413955450057983,
      "801": -3.3764657974243164,
      "802": -3.2065327167510986,
      "803": -0.5681161284446716,
      "804": 3.0753400325775146,
      "805": -0.10779067128896713,
      "806": 1.6063740253448486,
      "807": 1.2483114004135132,
      "808": -0.7341418862342834,
      "809": -3.850130081176758,
      "810": 0.8166434168815613,
      "811": -1.576568365097046,
      "812": 0.03025243431329727,
      "813": -0.6547245383262634,
      "814": 0.7628282904624939,
      "815": 0.27183225750923157,
      "816": -1.7177025079727173,
      "817": 0.5443117022514343,
      "818": -1.8587816953659058,
      "819": -0.09291333705186844,
      "820": -1.0542384386062622,
      "821": 1.7039210796356201,
      "822": 0.24309784173965454,
      "823": 3.078248977661133,
      "824": 1.6230273246765137,
      "825": 2.946617364883423,
      "826": 0.2611561119556427,
      "827": 0.7097874283790588,
      "828": 0.7742481827735901,
      "829": -0.38101574778556824,
      "830": 2.5753777027130127,
      "831": 0.21745887398719788,
      "832": 1.3702023029327393,
      "833": 0.6213927268981934,
      "834": 0.5577946305274963,
      "835": -0.918667733669281,
      "836": -3.4554800987243652,
      "837": 2.6455447673797607,
      "838": 0.7113765478134155,
      "839": 2.6117725372314453,
      "840": -2.795854091644287,
      "841": -1.2453762292861938,
      "842": -0.09867662191390991,
      "843": 0.393830269575119,
      "844": -1.5129984617233276,
      "845": -0.7672908306121826,
      "846": 2.083369493484497,
      "847": -2.565330743789673,
      "848": 0.001000387012027204,
      "849": 1.1495763063430786,
      "850": -2.7427964210510254,
      "851": -1.6973315477371216,
      "852": 0.11414351314306259,
      "853": -1.6194102764129639,
      "854": 0.48150065541267395,
      "855": -0.731636106967926,
      "856": -0.26251718401908875,
      "857": -0.91164231300354,
      "858": 2.024569511413574,
      "859": 1.4670790433883667,
      "860": -1.6193293333053589,
      "861": -0.9092443585395813,
      "862": -0.0037468101363629103,
      "863": 1.4502900838851929,
      "864": 0.42614656686782837,
      "865": -0.061273735016584396,
      "866": -1.2938281297683716,
      "867": 2.184694290161133,
      "868": -0.790269136428833,
      "869": -1.5950647592544556,
      "870": 0.9789450168609619,
      "871": 3.3456315994262695,
      "872": -1.7594547271728516,
      "873": 0.31687095761299133,
      "874": 2.9215810298919678,
      "875": -1.7445484399795532,
      "876": -2.7949507236480713,
      "877": -1.4566558599472046,
      "878": 0.19957740604877472,
      "879": 0.3423086106777191,
      "880": 0.38283899426460266,
      "881": -1.33683180809021,
      "882": -0.9466449022293091,
      "883": 2.2015113830566406,
      "884": -1.1916887760162354,
      "885": 0.10297840088605881,
      "886": 0.6471788883209229,
      "887": 1.817236065864563,
      "888": 1.080712080001831,
      "889": 0.8850861191749573,
      "890": -2.4923548698425293,
      "891": -0.37517049908638,
      "892": 0.029951611533761024,
      "893": 0.5329799056053162,
      "894": 0.5228586196899414,
      "895": -1.2293338775634766,
      "896": -1.3134493827819824,
      "897": 1.6924824714660645,
      "898": 3.1679208278656006,
      "899": -0.06870492547750473,
      "900": 1.9006171226501465,
      "901": -0.3668016791343689,
      "902": 0.530157744884491,
      "903": -0.9288040995597839,
      "904": -1.3158773183822632,
      "905": -3.0561630725860596,
      "906": -0.6978715062141418,
      "907": -0.6287106275558472,
      "908": 3.453662157058716,
      "909": -1.3215957880020142,
      "910": -1.8953592777252197,
      "911": 2.3372747898101807,
      "912": -3.073315382003784,
      "913": -1.0516895055770874,
      "914": -0.4586271047592163,
      "915": 1.5872713327407837,
      "916": 0.05269431322813034,
      "917": 1.046787977218628,
      "918": -0.34725499153137207,
      "919": 2.447158098220825,
      "920": -0.2801860272884369,
      "921": -0.9706226587295532,
      "922": 0.49403828382492065,
      "923": 0.8078933358192444,
      "924": 1.7688496112823486,
      "925": 0.6051193475723267,
      "926": -0.07803155481815338,
      "927": 0.36648431420326233,
      "928": -1.248586654663086,
      "929": 0.5969531536102295,
      "930": 0.6337077021598816,
      "931": 0.06478504836559296,
      "932": 0.7595160007476807,
      "933": 3.5164437294006348,
      "934": -2.6512043476104736,
      "935": 0.6117246747016907,
      "936": -0.11594761162996292,
      "937": 0.40613657236099243,
      "938": 1.7484266757965088,
      "939": -1.4280813932418823,
      "940": -0.2002583146095276,
      "941": -0.23394785821437836,
      "942": 0.5352718234062195,
      "943": -0.6633059978485107,
      "944": -4.457586765289307,
      "945": -1.5452402830123901,
      "946": 3.945521354675293,
      "947": 0.8532333374023438,
      "948": 4.060390472412109,
      "949": -5.540156364440918,
      "950": 1.410150170326233,
      "951": 1.1640063524246216,
      "952": -0.03315151110291481,
      "953": 2.8769218921661377,
      "954": -3.7458932399749756,
      "955": 0.22923292219638824,
      "956": 1.7559973001480103,
      "957": -0.5758251547813416,
      "958": -0.6171815991401672,
      "959": 1.0407037734985352,
      "960": 2.1785895824432373,
      "961": 0.47732651233673096,
      "962": 0.2685863971710205,
      "963": -0.2648646831512451,
      "964": 0.28897789120674133,
      "965": 2.375610828399658,
      "966": -0.5001275539398193,
      "967": -2.5190460681915283,
      "968": 4.185730457305908,
      "969": -0.22485144436359406,
      "970": 0.6045679450035095,
      "971": 2.879671573638916,
      "972": -0.6602249145507812,
      "973": 0.6973010301589966,
      "974": 1.2319517135620117,
      "975": -0.7702620625495911,
      "976": 3.046816110610962,
      "977": 1.4369838237762451,
      "978": 0.29685530066490173,
      "979": 1.741110920906067,
      "980": -0.3135269582271576,
      "981": 0.0028932851273566484,
      "982": 1.311830759048462,
      "983": -1.2146494388580322,
      "984": -3.815929889678955,
      "985": 0.9449298977851868,
      "986": -1.0968388319015503,
      "987": 0.7119019627571106,
      "988": 0.12134841084480286,
      "989": -0.9713510870933533,
      "990": -0.029880674555897713,
      "991": -0.5264284610748291,
      "992": -1.977145791053772,
      "993": 0.5334053039550781,
      "994": 0.6303178071975708,
      "995": 0.3380821943283081,
      "996": -0.0010641298722475767,
      "997": 0.8031039237976074,
      "998": 0.13038195669651031,
      "999": 0.24473658204078674,
      "1000": 1.8990908861160278,
      "1001": -1.9546548128128052,
      "1002": 1.6152063608169556,
      "1003": 0.3601294159889221,
      "1004": -0.010525722056627274,
      "1005": -0.8202599883079529,
      "1006": 1.2085185050964355,
      "1007": -0.9654916524887085,
      "1008": -0.045199137181043625,
      "1009": -0.1243727058172226,
      "1010": 2.3020808696746826,
      "1011": 0.17935539782047272,
      "1012": -0.5961320996284485,
      "1013": 0.2147129327058792,
      "1014": -1.017121434211731,
      "1015": -0.9755663871765137,
      "1016": 0.4397415816783905,
      "1017": -0.5590187311172485,
      "1018": -0.3255119323730469,
      "1019": 0.07557206600904465,
      "1020": -0.51187664270401,
      "1021": -0.14163729548454285,
      "1022": -0.9082793593406677,
      "1023": -0.13887867331504822,
      "1024": 2.89694881439209,
      "1025": 0.2794526219367981,
      "1026": 0.1871575564146042,
      "1027": -1.409472942352295,
      "1028": 0.1128271147608757,
      "1029": 0.1336347609758377,
      "1030": 0.2535862922668457,
      "1031": 0.4188728630542755,
      "1032": -0.4113999605178833,
      "1033": 0.38166308403015137,
      "1034": -4.3246169090271,
      "1035": -1.8038935661315918,
      "1036": -2.981653928756714,
      "1037": -2.3406643867492676,
      "1038": 0.27526605129241943,
      "1039": 0.8147881627082825,
      "1040": -2.1686971187591553,
      "1041": 1.3562026023864746,
      "1042": 1.1944706439971924,
      "1043": -0.39079684019088745,
      "1044": -1.3278385400772095,
      "1045": 2.5811469554901123,
      "1046": -2.608926296234131,
      "1047": 0.16657882928848267,
      "1048": -1.0949008464813232,
      "1049": 1.176256775856018,
      "1050": -1.2336230278015137,
      "1051": 0.26112818717956543,
      "1052": -0.12514957785606384,
      "1053": -0.9269545078277588,
      "1054": -1.100130558013916,
      "1055": -0.5665420889854431,
      "1056": 2.50807785987854,
      "1057": -3.9109086990356445,
      "1058": -3.203293800354004,
      "1059": -1.8689472675323486,
      "1060": 1.7089766263961792,
      "1061": 1.494164228439331,
      "1062": 0.23377545177936554,
      "1063": 1.2227168083190918,
      "1064": -0.44154617190361023,
      "1065": 2.3200244903564453,
      "1066": 1.490456223487854,
      "1067": 0.694568395614624,
      "1068": 0.48766452074050903,
      "1069": -2.8487608432769775,
      "1070": 2.6708953380584717,
      "1071": -0.6478951573371887,
      "1072": -2.7194015979766846,
      "1073": 0.011682605370879173,
      "1074": 1.561478853225708,
      "1075": -1.3124847412109375,
      "1076": -0.3675259053707123,
      "1077": 5.327404975891113,
      "1078": -1.252845048904419,
      "1079": 4.4349751472473145,
      "1080": 0.3221690356731415,
      "1081": 2.8909718990325928,
      "1082": -4.813204765319824,
      "1083": 5.783330917358398,
      "1084": 7.498779296875,
      "1085": 0.8902969360351562,
      "1086": -4.882205486297607,
      "1087": 2.8574280738830566,
      "1088": -4.364334583282471,
      "1089": -3.9567322731018066,
      "1090": 7.547065258026123,
      "1091": 4.544989585876465,
      "1092": -6.82593297958374,
      "1093": 4.279595375061035,
      "1094": -0.7914338111877441,
      "1095": 2.3790760040283203,
      "1096": -1.997671365737915,
      "1097": -3.2148008346557617,
      "1098": 2.499638795852661,
      "1099": 0.2767699360847473,
      "1100": 1.365942358970642,
      "1101": -1.1549679040908813,
      "1102": 3.1650776863098145,
      "1103": -1.2258697748184204,
      "1104": 5.026485919952393,
      "1105": -7.619913578033447,
      "1106": 2.384537935256958,
      "1107": -4.067012786865234,
      "1108": -3.877349376678467,
      "1109": 4.2516984939575195,
      "1110": -5.925494194030762,
      "1111": 9.87842845916748,
      "1112": -6.350057125091553,
      "1113": 4.009711742401123,
      "1114": -4.82546329498291,
      "1115": -1.8695900440216064,
      "1116": 1.2504042387008667,
      "1117": 3.648475170135498,
      "1118": 0.05875504016876221,
      "1119": -5.423158645629883,
      "1120": -1.1429893970489502,
      "1121": -2.2497332096099854,
      "1122": 3.7245609760284424,
      "1123": -3.4423446655273438,
      "1124": -2.0262014865875244,
      "1125": 5.489283561706543,
      "1126": 3.9322099685668945,
      "1127": 3.216599702835083,
      "1128": -5.432913303375244,
      "1129": -3.3964438438415527,
      "1130": -2.8020057678222656,
      "1131": -3.521212577819824,
      "1132": -0.8475960493087769,
      "1133": 3.193358898162842,
      "1134": -6.618484020233154,
      "1135": 2.160612106323242,
      "1136": 2.4754621982574463,
      "1137": -1.1276512145996094,
      "1138": 0.9291533827781677,
      "1139": 3.7821547985076904,
      "1140": -6.047375202178955,
      "1141": 5.459634780883789,
      "1142": 3.736860752105713,
      "1143": 6.786701679229736,
      "1144": -0.4425036311149597,
      "1145": -0.319008469581604,
      "1146": -1.9165940284729004,
      "1147": 1.6915360689163208,
      "1148": -0.225823312997818,
      "1149": -3.0893161296844482,
      "1150": 2.1229326725006104,
      "1151": 0.2538791298866272,
      "1152": -0.836012065410614,
      "1153": -2.155069351196289,
      "1154": 0.45337215065956116,
      "1155": 2.5442678928375244,
      "1156": -0.419585257768631,
      "1157": 4.774748802185059,
      "1158": 1.0191121101379395,
      "1159": -0.8326012492179871,
      "1160": 0.3148709237575531,
      "1161": -1.6155264377593994,
      "1162": -0.7496717572212219,
      "1163": -0.3965139091014862,
      "1164": 2.4073634147644043,
      "1165": -0.8122958540916443,
      "1166": -1.1996779441833496,
      "1167": 1.3230153322219849,
      "1168": -2.657742500305176,
      "1169": -0.41197875142097473,
      "1170": -1.7487818002700806,
      "1171": -0.5557872653007507,
      "1172": 0.19542548060417175,
      "1173": 0.9126814603805542,
      "1174": -2.0188560485839844,
      "1175": -3.340224027633667,
      "1176": 1.1656124591827393,
      "1177": -0.08596304804086685,
      "1178": -0.034283850342035294,
      "1179": 4.986495494842529,
      "1180": 0.9916154742240906,
      "1181": -3.5180881023406982,
      "1182": 0.975492537021637,
      "1183": -5.698874473571777,
      "1184": 4.610245704650879,
      "1185": 0.032838642597198486,
      "1186": -2.4174981117248535,
      "1187": -2.7999370098114014,
      "1188": 1.350419282913208,
      "1189": 0.7868461608886719,
      "1190": 3.0536701679229736,
      "1191": 1.6255351305007935,
      "1192": 0.40205296874046326,
      "1193": -0.7540074586868286,
      "1194": -0.3502645194530487,
      "1195": -3.9108786582946777,
      "1196": -0.5567329525947571,
      "1197": -1.179685115814209,
      "1198": 3.254211902618408,
      "1199": -0.780036449432373,
      "1200": -1.1670866012573242,
      "1201": 1.9394088983535767,
      "1202": 1.5728856325149536,
      "1203": -4.285396099090576,
      "1204": 1.4262821674346924,
      "1205": 7.25653600692749,
      "1206": -1.3396719694137573,
      "1207": 0.8145279884338379,
      "1208": -5.642849922180176,
      "1209": -1.0518107414245605,
      "1210": -3.224187135696411,
      "1211": 3.362255096435547,
      "1212": -1.8439608812332153,
      "1213": 1.780682921409607,
      "1214": -1.5855796337127686,
      "1215": -0.1581469625234604,
      "1216": -2.4630022048950195,
      "1217": -4.103566646575928,
      "1218": 0.12878847122192383,
      "1219": 5.974162578582764,
      "1220": 0.636830747127533,
      "1221": -0.87431800365448,
      "1222": 0.3986256420612335,
      "1223": 4.794138431549072,
      "1224": -3.527249813079834,
      "1225": 1.764143705368042,
      "1226": -1.8495569229125977,
      "1227": 3.732978105545044,
      "1228": -0.4084414839744568,
      "1229": -0.12784957885742188,
      "1230": 4.990486145019531,
      "1231": -2.5882058143615723,
      "1232": 1.0704545974731445,
      "1233": -2.586564064025879,
      "1234": -2.1323812007904053,
      "1235": 2.1636486053466797,
      "1236": -3.2341952323913574,
      "1237": 1.2610440254211426,
      "1238": 3.2965590953826904,
      "1239": 1.5458592176437378,
      "1240": -4.489786148071289,
      "1241": 3.165505886077881,
      "1242": 1.9612810611724854,
      "1243": 1.147032380104065,
      "1244": -0.2314203679561615,
      "1245": 3.0959839820861816,
      "1246": 4.670234680175781,
      "1247": 4.2398576736450195,
      "1248": -1.214772343635559,
      "1249": 1.0573921203613281,
      "1250": 2.805588483810425,
      "1251": -5.311295032501221,
      "1252": 1.1185026168823242,
      "1253": -2.613978624343872,
      "1254": -1.4075891971588135,
      "1255": 3.500247001647949,
      "1256": -0.9074932932853699,
      "1257": 2.0378339290618896,
      "1258": 1.5178414583206177,
      "1259": -0.17851018905639648,
      "1260": 5.655862808227539,
      "1261": 0.6323306560516357,
      "1262": -1.236772060394287,
      "1263": 1.1369671821594238,
      "1264": -0.2559024691581726,
      "1265": -4.250896453857422,
      "1266": -0.8075053691864014,
      "1267": 0.3701993525028229,
      "1268": -2.460238218307495,
      "1269": 1.730381727218628,
      "1270": 1.9563987255096436,
      "1271": -2.996546983718872,
      "1272": 1.7673544883728027,
      "1273": -4.342519760131836,
      "1274": 2.857311964035034,
      "1275": 7.552180767059326,
      "1276": -4.234800338745117,
      "1277": 3.8243963718414307,
      "1278": -8.403435707092285,
      "1279": 5.79095983505249,
      "1280": -3.162029504776001,
      "1281": 3.5627264976501465,
      "1282": 3.017824649810791,
      "1283": -8.804805755615234,
      "1284": -0.5046292543411255,
      "1285": -2.660445213317871,
      "1286": 2.988197088241577,
      "1287": -2.445765733718872,
      "1288": 7.366287708282471,
      "1289": 3.887138843536377,
      "1290": 1.4709128141403198,
      "1291": -4.136380195617676,
      "1292": -0.9616791605949402,
      "1293": -4.859997272491455,
      "1294": 4.900533199310303,
      "1295": -2.814027786254883,
      "1296": -6.200474262237549,
      "1297": 5.53985071182251,
      "1298": -4.824233055114746,
      "1299": -5.978323459625244,
      "1300": -1.670258641242981,
      "1301": 2.4496564865112305,
      "1302": 4.666482448577881,
      "1303": 1.9888161420822144,
      "1304": 2.1889712810516357,
      "1305": 1.9622113704681396,
      "1306": -1.3161510229110718,
      "1307": -0.588071346282959,
      "1308": 3.7359228134155273,
      "1309": -0.7314789891242981,
      "1310": -0.5369598269462585,
      "1311": 6.1229681968688965,
      "1312": -1.417917251586914,
      "1313": -8.15287971496582,
      "1314": 5.6231536865234375,
      "1315": 3.6645779609680176,
      "1316": 2.073535680770874,
      "1317": 4.950218677520752,
      "1318": 1.9231959581375122,
      "1319": 2.5005946159362793,
      "1320": -2.2239081859588623,
      "1321": -4.467722415924072,
      "1322": 3.465254783630371,
      "1323": -0.3847454786300659,
      "1324": 2.3499786853790283,
      "1325": -1.295223593711853,
      "1326": 5.248275279998779,
      "1327": -1.854430913925171,
      "1328": 0.41959357261657715,
      "1329": -0.11871932446956635,
      "1330": -2.3790853023529053,
      "1331": -1.790183424949646,
      "1332": 2.592690944671631,
      "1333": 0.7120349407196045,
      "1334": -1.1169198751449585,
      "1335": 1.7434494495391846,
      "1336": 1.4514585733413696,
      "1337": 1.089835286140442,
      "1338": -3.9373679161071777,
      "1339": 2.5438232421875,
      "1340": 1.2877163887023926,
      "1341": -0.2790164351463318,
      "1342": -1.7881981134414673,
      "1343": -2.0053350925445557,
      "1344": 1.9950575828552246,
      "1345": -0.17946916818618774,
      "1346": 0.7027769088745117,
      "1347": -3.669670820236206,
      "1348": -3.1142759323120117,
      "1349": 1.107480525970459,
      "1350": 0.9997820258140564,
      "1351": 3.3705856800079346,
      "1352": -0.6377398371696472,
      "1353": 0.5581569075584412,
      "1354": 2.8992490768432617,
      "1355": -1.1057158708572388,
      "1356": -2.3114354610443115,
      "1357": 3.648247480392456,
      "1358": 1.6138057708740234,
      "1359": -2.1039462089538574,
      "1360": -1.433966040611267,
      "1361": 0.023585245013237,
      "1362": 0.9796462655067444,
      "1363": 1.0050575733184814,
      "1364": 0.257846862077713,
      "1365": -0.07558523118495941,
      "1366": 3.849735736846924,
      "1367": -6.501880645751953,
      "1368": -0.11392288655042648,
      "1369": 3.926624298095703,
      "1370": -4.360048770904541,
      "1371": 4.953907489776611,
      "1372": -2.2385923862457275,
      "1373": 3.7149507999420166,
      "1374": -0.5948489308357239,
      "1375": 5.1559834480285645,
      "1376": 0.7013142704963684,
      "1377": -7.428766250610352,
      "1378": -0.7171685695648193,
      "1379": -3.499692916870117,
      "1380": 4.404600620269775,
      "1381": -2.6404380798339844,
      "1382": 2.0083930492401123,
      "1383": 0.568635106086731,
      "1384": 6.953083038330078,
      "1385": 1.438058853149414,
      "1386": -0.5127004384994507,
      "1387": -0.11188874393701553,
      "1388": 7.7626848220825195,
      "1389": -5.883709907531738,
      "1390": -4.218527793884277,
      "1391": 7.272189617156982,
      "1392": -5.298648357391357,
      "1393": -5.017751216888428,
      "1394": -3.324491262435913,
      "1395": 2.6730306148529053,
      "1396": 4.148736000061035,
      "1397": 5.328862190246582,
      "1398": 0.3541004955768585,
      "1399": 2.1379854679107666,
      "1400": -1.7603154182434082,
      "1401": -0.24485045671463013,
      "1402": 0.04183591902256012,
      "1403": -1.236126184463501,
      "1404": 3.3731651306152344,
      "1405": 4.362396240234375,
      "1406": 0.13404497504234314,
      "1407": -6.726155757904053,
      "1408": 2.533715009689331,
      "1409": 4.408192157745361,
      "1410": -4.808962345123291,
      "1411": 2.261246681213379,
      "1412": -2.0630197525024414,
      "1413": -2.750046491622925,
      "1414": -2.2634196281433105,
      "1415": 1.7673898935317993,
      "1416": -4.034793376922607,
      "1417": 1.929793357849121,
      "1418": -0.16454918682575226,
      "1419": 1.8605793714523315,
      "1420": -10.648733139038086,
      "1421": 6.92549991607666,
      "1422": -1.0380932092666626,
      "1423": -3.8144171237945557,
      "1424": 1.106522560119629,
      "1425": 2.0207250118255615,
      "1426": 3.2972097396850586,
      "1427": -2.5384445190429688,
      "1428": 5.569528102874756,
      "1429": -2.2035715579986572,
      "1430": -2.5276763439178467,
      "1431": -0.6728604435920715,
      "1432": -2.0037975311279297,
      "1433": -2.7600550651550293,
      "1434": -0.8954606056213379,
      "1435": -0.4331689774990082,
      "1436": 1.7217419147491455,
      "1437": 2.335613965988159,
      "1438": 4.049431800842285,
      "1439": 1.1961807012557983,
      "1440": -1.2280030250549316,
      "1441": 1.9548183679580688,
      "1442": 1.107933521270752,
      "1443": -0.3235272765159607,
      "1444": 2.2175827026367188,
      "1445": -0.429732084274292,
      "1446": 1.4856849908828735,
      "1447": -6.266409397125244,
      "1448": 0.9593700766563416,
      "1449": -0.10778909176588058,
      "1450": 3.7308671474456787,
      "1451": 0.15066739916801453,
      "1452": -4.344226360321045,
      "1453": 2.5319175720214844,
      "1454": 1.6655596494674683,
      "1455": -0.16812478005886078,
      "1456": -3.247863292694092,
      "1457": -1.9187211990356445,
      "1458": -2.7333948612213135,
      "1459": -0.4162275195121765,
      "1460": -3.4980051517486572,
      "1461": -1.113026738166809,
      "1462": 1.1539486646652222,
      "1463": -2.109938621520996,
      "1464": 0.46023106575012207,
      "1465": 1.3583122491836548,
      "1466": 3.779165744781494,
      "1467": 0.5301940441131592,
      "1468": 2.0400583744049072,
      "1469": -5.585414886474609,
      "1470": -1.6070579290390015,
      "1471": 1.9692175388336182,
      "1472": 1.4690732955932617,
      "1473": -0.17497941851615906,
      "1474": -2.3352644443511963,
      "1475": 5.650370121002197,
      "1476": -5.920937538146973,
      "1477": 1.428659200668335,
      "1478": -0.14308230578899384,
      "1479": 1.3487964868545532,
      "1480": -6.649601459503174,
      "1481": -5.812433242797852,
      "1482": -0.9923535585403442,
      "1483": 1.712381362915039,
      "1484": 3.0435361862182617,
      "1485": 2.143369197845459,
      "1486": 2.3100173473358154,
      "1487": -1.9679371118545532,
      "1488": 1.6758559942245483,
      "1489": 1.1381200551986694,
      "1490": -2.314870595932007,
      "1491": 3.2417726516723633,
      "1492": -3.8349106311798096,
      "1493": 1.0967772006988525,
      "1494": -5.3224029541015625,
      "1495": -1.7481799125671387,
      "1496": 4.347957134246826,
      "1497": 4.524814605712891,
      "1498": -0.6973192691802979,
      "1499": -1.745180368423462,
      "1500": 7.316956043243408,
      "1501": 1.2376707792282104,
      "1502": 4.4378533363342285,
      "1503": -1.4215624332427979,
      "1504": -0.08103533834218979,
      "1505": -1.0195668935775757,
      "1506": 0.7682528495788574,
      "1507": -0.6955916881561279,
      "1508": 3.562225103378296,
      "1509": 3.8315186500549316,
      "1510": -1.8447540998458862,
      "1511": 1.9119473695755005,
      "1512": -3.517033815383911,
      "1513": 7.608371734619141,
      "1514": 0.2508804202079773,
      "1515": 1.4593693017959595,
      "1516": -2.1178150177001953,
      "1517": -5.855837345123291,
      "1518": 9.806681632995605,
      "1519": -1.4562233686447144,
      "1520": -0.1979258507490158,
      "1521": -3.6334362030029297,
      "1522": 4.784180641174316,
      "1523": -1.0641379356384277,
      "1524": -1.986260175704956,
      "1525": -3.613212823867798,
      "1526": -0.8226648569107056,
      "1527": -0.8670419454574585,
      "1528": -2.2931485176086426,
      "1529": -1.288001537322998,
      "1530": 2.641630172729492,
      "1531": 1.0903867483139038,
      "1532": -6.738680362701416,
      "1533": 1.4278621673583984,
      "1534": 4.369080066680908,
      "1535": -0.9138116240501404,
      "1536": 1.51860511302948,
      "1537": -3.3100743293762207,
      "1538": -2.0263075828552246,
      "1539": -1.5635731220245361,
      "1540": 1.047521710395813,
      "1541": -7.3187479972839355,
      "1542": -2.3049492835998535,
      "1543": 2.2282729148864746,
      "1544": 3.4283835887908936,
      "1545": -1.1210018396377563,
      "1546": -5.329569339752197,
      "1547": 2.2854158878326416,
      "1548": 9.325425148010254,
      "1549": -0.1660405397415161,
      "1550": -2.969125509262085,
      "1551": 7.607446670532227,
      "1552": 1.5301427841186523,
      "1553": -1.025769829750061,
      "1554": -0.07510685920715332,
      "1555": -2.971322774887085,
      "1556": -2.366605758666992,
      "1557": 4.994173526763916,
      "1558": 1.2070229053497314,
      "1559": 3.3052175045013428,
      "1560": -1.8664132356643677,
      "1561": 4.897620677947998,
      "1562": -2.317636251449585,
      "1563": -1.4663971662521362,
      "1564": 3.3155882358551025,
      "1565": -9.102620124816895,
      "1566": 5.57485294342041,
      "1567": 1.3894695043563843,
      "1568": -1.5435038805007935,
      "1569": 4.258525371551514,
      "1570": -1.5022107362747192,
      "1571": -0.21593807637691498,
      "1572": 0.7252257466316223,
      "1573": -1.3908143043518066,
      "1574": 0.45413869619369507,
      "1575": 3.2567298412323,
      "1576": 1.6427063941955566,
      "1577": -2.0997345447540283,
      "1578": -7.397430419921875,
      "1579": -0.5511201024055481,
      "1580": 3.2924611568450928,
      "1581": -0.7796918749809265,
      "1582": -1.7288864850997925,
      "1583": -0.9478762149810791,
      "1584": -3.2104649543762207,
      "1585": 6.033260345458984,
      "1586": -2.9798827171325684,
      "1587": -3.2748467922210693,
      "1588": 0.5587158203125,
      "1589": 2.993123769760132,
      "1590": 0.2348095178604126,
      "1591": -0.7228842377662659,
      "1592": -1.2912944555282593,
      "1593": 11.587800979614258,
      "1594": 1.1983541250228882,
      "1595": -2.2028112411499023,
      "1596": -0.319928377866745,
      "1597": -2.5943729877471924,
      "1598": -3.218632221221924,
      "1599": 2.033919095993042,
      "1600": 1.3242274522781372,
      "1601": 1.7161040306091309,
      "1602": 8.814494132995605,
      "1603": -2.738712787628174,
      "1604": -8.232160568237305,
      "1605": 2.035691499710083,
      "1606": -6.943840503692627,
      "1607": 2.2512459754943848,
      "1608": -2.3641164302825928,
      "1609": 1.9295212030410767,
      "1610": -3.9301719665527344,
      "1611": 1.5056407451629639,
      "1612": 4.474989414215088,
      "1613": 2.5536880493164062,
      "1614": -0.07161862403154373,
      "1615": -2.949495553970337,
      "1616": 2.113081693649292,
      "1617": -1.163924217224121,
      "1618": -3.9166958332061768,
      "1619": -1.8553998470306396,
      "1620": 3.3016576766967773,
      "1621": 3.8964133262634277,
      "1622": 1.2388941049575806,
      "1623": -1.5746841430664062,
      "1624": 1.6956971883773804,
      "1625": 5.6261725425720215,
      "1626": -8.218526840209961,
      "1627": 1.7949213981628418,
      "1628": 1.8019797801971436,
      "1629": -3.695444107055664,
      "1630": -1.0772818326950073,
      "1631": -3.2470085620880127,
      "1632": -9.634990692138672,
      "1633": -0.06217215582728386,
      "1634": -3.3906655311584473,
      "1635": -0.3343088924884796,
      "1636": 7.287779808044434,
      "1637": 0.6297647356987,
      "1638": -0.948867678642273,
      "1639": -1.255334734916687,
      "1640": -5.756902694702148,
      "1641": -4.751226425170898,
      "1642": 9.050264358520508,
      "1643": -7.475318908691406,
      "1644": 2.204373836517334,
      "1645": 1.9463167190551758,
      "1646": -9.665167808532715,
      "1647": -0.506934404373169,
      "1648": -4.631640911102295,
      "1649": -2.953098773956299,
      "1650": 1.2591383457183838,
      "1651": 2.1132469177246094,
      "1652": 5.804000377655029,
      "1653": 2.3264355659484863,
      "1654": 4.31522798538208,
      "1655": 6.3336639404296875,
      "1656": 6.249020099639893,
      "1657": 2.924696207046509,
      "1658": -2.2692368030548096,
      "1659": 0.05137474834918976,
      "1660": 1.3952292203903198,
      "1661": 4.494584560394287,
      "1662": -3.222195625305176,
      "1663": 5.225165367126465,
      "1664": 0.7933211922645569,
      "1665": 1.2876482009887695,
      "1666": 0.4999067485332489,
      "1667": -0.7462555170059204,
      "1668": -3.6906445026397705,
      "1669": 0.13897135853767395,
      "1670": 3.709911584854126,
      "1671": -0.13142408430576324,
      "1672": -1.1983686685562134,
      "1673": -1.214297890663147,
      "1674": 3.3836636543273926,
      "1675": -6.4276251792907715,
      "1676": -1.1237831115722656,
      "1677": -2.2214343547821045,
      "1678": -0.8945944309234619,
      "1679": -0.701754629611969,
      "1680": -4.189662933349609,
      "1681": -3.079521417617798,
      "1682": -0.9957025647163391,
      "1683": -6.454277038574219,
      "1684": -0.7578867077827454,
      "1685": 0.20905685424804688,
      "1686": 2.079056978225708,
      "1687": -2.3834550380706787,
      "1688": 5.790919303894043,
      "1689": 1.148369550704956,
      "1690": -1.7948567867279053,
      "1691": -2.9151973724365234,
      "1692": -1.4148964881896973,
      "1693": -1.055855631828308,
      "1694": 0.2854751944541931,
      "1695": -1.1883646249771118,
      "1696": -0.027043623849749565,
      "1697": 2.5383129119873047,
      "1698": -1.3582491874694824,
      "1699": 1.1846150159835815,
      "1700": 0.060351092368364334,
      "1701": -0.7287953495979309,
      "1702": -0.9208923578262329,
      "1703": 1.4521081447601318,
      "1704": -1.8213403224945068,
      "1705": -1.4735069274902344,
      "1706": 0.44656890630722046,
      "1707": 0.47123172879219055,
      "1708": -0.17056238651275635,
      "1709": 0.06030147150158882,
      "1710": -0.5137791037559509,
      "1711": 0.07704439014196396,
      "1712": -0.7173747420310974,
      "1713": -2.3115665912628174,
      "1714": 1.0538791418075562,
      "1715": -1.3154115676879883,
      "1716": -0.5732948184013367,
      "1717": -0.562721312046051,
      "1718": 0.4307047426700592,
      "1719": 2.4650936126708984,
      "1720": -0.12436944991350174,
      "1721": 0.08283834159374237,
      "1722": 0.9203194975852966,
      "1723": -0.08032036572694778,
      "1724": 1.0774853229522705,
      "1725": 0.9170888662338257,
      "1726": -1.6333661079406738,
      "1727": -0.7321227788925171,
      "1728": -0.13153491914272308,
      "1729": -1.6766116619110107,
      "1730": -0.7683674693107605,
      "1731": 1.947903037071228,
      "1732": 0.42903682589530945,
      "1733": -1.1976094245910645,
      "1734": -1.188533067703247,
      "1735": 1.4801105260849,
      "1736": 0.48594433069229126,
      "1737": 1.079282522201538,
      "1738": -2.478013277053833,
      "1739": 4.026444911956787,
      "1740": 1.4290317296981812,
      "1741": 4.172966480255127,
      "1742": 1.7322057485580444,
      "1743": -3.157977819442749,
      "1744": -5.6437602043151855,
      "1745": -0.3160884380340576,
      "1746": -1.7536097764968872,
      "1747": 0.26277345418930054,
      "1748": -0.09352608025074005,
      "1749": -0.7190180420875549,
      "1750": -1.1533735990524292,
      "1751": 1.9880350828170776,
      "1752": 0.14994560182094574,
      "1753": 1.1616101264953613,
      "1754": 0.18021614849567413,
      "1755": 1.3296253681182861,
      "1756": 1.103667140007019,
      "1757": 0.7369635701179504,
      "1758": -0.6945858597755432,
      "1759": 0.7427927851676941,
      "1760": 3.2269740104675293,
      "1761": -5.093153953552246,
      "1762": 0.43019869923591614,
      "1763": 2.2697536945343018,
      "1764": 1.735338807106018,
      "1765": -4.4784440994262695,
      "1766": -1.6304746866226196,
      "1767": 1.9573793411254883,
      "1768": 1.3396953344345093,
      "1769": -2.1239430904388428,
      "1770": -2.578794240951538,
      "1771": -1.631922721862793,
      "1772": 1.4147590398788452,
      "1773": 1.5134273767471313,
      "1774": 1.1790567636489868,
      "1775": -3.4948642253875732,
      "1776": -1.8871339559555054,
      "1777": 1.2227412462234497,
      "1778": 0.5199751853942871,
      "1779": -1.8256744146347046,
      "1780": 4.3599371910095215,
      "1781": 3.416652202606201,
      "1782": -0.5728837251663208,
      "1783": -1.4529119729995728,
      "1784": -4.0662031173706055,
      "1785": 1.2751058340072632,
      "1786": -1.3524954319000244,
      "1787": -0.8065252900123596,
      "1788": -1.1336092948913574,
      "1789": -3.1885693073272705,
      "1790": -1.0899860858917236,
      "1791": 0.9166820049285889,
      "1792": -0.7252094149589539,
      "1793": -1.188247799873352,
      "1794": 2.2896358966827393,
      "1795": -0.6325870156288147,
      "1796": -2.1358654499053955,
      "1797": 1.838911533355713,
      "1798": -2.3469772338867188,
      "1799": -0.20884409546852112,
      "1800": 3.4397339820861816,
      "1801": -0.5523284077644348,
      "1802": 3.220754384994507,
      "1803": -1.2446597814559937,
      "1804": 4.235662937164307,
      "1805": -6.055140495300293,
      "1806": 1.5697747468948364,
      "1807": 2.1529481410980225,
      "1808": 2.0599355697631836,
      "1809": -5.371882915496826,
      "1810": -0.3115238547325134,
      "1811": 3.1921098232269287,
      "1812": 1.3094761371612549,
      "1813": 0.7671748995780945,
      "1814": -0.7813863754272461,
      "1815": -1.7161016464233398,
      "1816": -3.2630512714385986,
      "1817": 2.6361489295959473,
      "1818": 0.8673312664031982,
      "1819": -1.9634145498275757,
      "1820": 4.784883499145508,
      "1821": -0.10538700968027115,
      "1822": -4.2819061279296875,
      "1823": -5.822961807250977,
      "1824": -0.35097867250442505,
      "1825": 1.3778268098831177,
      "1826": 8.163090705871582,
      "1827": -2.229283094406128,
      "1828": -2.8483588695526123,
      "1829": 6.077085018157959,
      "1830": 0.5281866788864136,
      "1831": -0.5904346108436584,
      "1832": -2.5322988033294678,
      "1833": -1.6768429279327393,
      "1834": 3.5515429973602295,
      "1835": 0.9670377373695374,
      "1836": 2.2439920902252197,
      "1837": 4.2124199867248535,
      "1838": -3.4612560272216797,
      "1839": -2.3862266540527344,
      "1840": 0.18168437480926514,
      "1841": -2.5983402729034424,
      "1842": -0.5660576224327087,
      "1843": 2.073155164718628,
      "1844": -3.708618640899658,
      "1845": -3.314883232116699,
      "1846": 5.151117324829102,
      "1847": 2.595092535018921,
      "1848": 1.209296464920044,
      "1849": -6.115116119384766,
      "1850": 1.8571873903274536,
      "1851": -1.7896735668182373,
      "1852": 1.1609936952590942,
      "1853": -4.875180721282959,
      "1854": 1.2116779088974,
      "1855": -1.441441535949707,
      "1856": -4.195724964141846,
      "1857": -2.1442172527313232,
      "1858": 6.4460978507995605,
      "1859": -1.0534168481826782,
      "1860": 10.009478569030762,
      "1861": -2.1317570209503174,
      "1862": 0.6128247976303101,
      "1863": 13.382927894592285,
      "1864": -1.176440954208374,
      "1865": 6.065352439880371,
      "1866": 0.2176719605922699,
      "1867": -7.9519758224487305,
      "1868": -3.7760167121887207,
      "1869": 16.6940860748291,
      "1870": -0.5322554707527161,
      "1871": 0.02820095233619213,
      "1872": -3.0188374519348145,
      "1873": -1.292380690574646,
      "1874": 1.2930294275283813,
      "1875": 2.846484422683716,
      "1876": 1.4670078754425049,
      "1877": -0.0685308501124382,
      "1878": 4.1844635009765625,
      "1879": 0.8809086084365845,
      "1880": -7.288501739501953,
      "1881": -6.897937774658203,
      "1882": -1.1265509128570557,
      "1883": 0.6969386339187622,
      "1884": 1.85861337184906,
      "1885": -4.705252647399902,
      "1886": 4.136298656463623,
      "1887": -3.113211154937744,
      "1888": 5.367793560028076,
      "1889": 1.3526595830917358,
      "1890": 1.8499267101287842,
      "1891": 0.32389381527900696,
      "1892": 3.550088405609131,
      "1893": 6.223388671875,
      "1894": 0.6029980778694153,
      "1895": -6.1867194175720215,
      "1896": 0.9480454921722412,
      "1897": 2.151340961456299,
      "1898": -4.1288628578186035,
      "1899": 0.3006196916103363,
      "1900": 3.4521901607513428,
      "1901": 2.9649767875671387,
      "1902": -1.377811312675476,
      "1903": -1.7326922416687012,
      "1904": -8.356294631958008,
      "1905": 9.492197036743164,
      "1906": -0.5850841403007507,
      "1907": -0.11909246444702148,
      "1908": -1.1519749164581299,
      "1909": -8.006976127624512,
      "1910": -2.1938934326171875,
      "1911": -2.1052796840667725,
      "1912": -2.7117433547973633,
      "1913": -5.787367343902588,
      "1914": 0.6446060538291931,
      "1915": -3.6734116077423096,
      "1916": -3.627399444580078,
      "1917": 5.8653059005737305,
      "1918": -13.416274070739746,
      "1919": -0.28669166564941406,
      "1920": -3.730741024017334,
      "1921": 3.7988121509552,
      "1922": -1.189139723777771,
      "1923": -0.9557256102561951,
      "1924": 0.26390236616134644,
      "1925": 8.861187934875488,
      "1926": 4.205697059631348,
      "1927": -6.749157428741455,
      "1928": -1.6358836889266968,
      "1929": 0.28009098768234253,
      "1930": 2.3140082359313965,
      "1931": 4.4810590744018555,
      "1932": -0.5784708857536316,
      "1933": -0.11676602810621262,
      "1934": -5.026885509490967,
      "1935": -2.2966670989990234,
      "1936": 1.348654866218567,
      "1937": -0.7559926509857178,
      "1938": 3.972651958465576,
      "1939": 5.629931449890137,
      "1940": -0.4758184552192688,
      "1941": 2.922520875930786,
      "1942": -5.078860759735107,
      "1943": 0.8933644890785217,
      "1944": 0.18259777128696442,
      "1945": -5.01464319229126,
      "1946": 5.803657531738281,
      "1947": -0.578721284866333,
      "1948": -3.0730888843536377,
      "1949": -3.0933868885040283,
      "1950": 3.434253692626953,
      "1951": -2.6285252571105957,
      "1952": -2.191697359085083,
      "1953": -1.545398235321045,
      "1954": 2.872267484664917,
      "1955": -7.0370893478393555,
      "1956": -6.135222434997559,
      "1957": 5.299254417419434,
      "1958": -3.7950210571289062,
      "1959": 1.0557119846343994,
      "1960": -3.8964738845825195,
      "1961": -8.124739646911621,
      "1962": -5.642918109893799,
      "1963": 6.7636637687683105,
      "1964": 3.2870540618896484,
      "1965": -2.823499917984009,
      "1966": -6.555646896362305,
      "1967": -3.8463563919067383,
      "1968": 0.857205867767334,
      "1969": -5.2845330238342285,
      "1970": -3.7489027976989746,
      "1971": 4.342381477355957,
      "1972": -3.2484517097473145,
      "1973": 5.60580587387085,
      "1974": -1.0622103214263916,
      "1975": -2.771181106567383,
      "1976": 4.109099864959717,
      "1977": -0.1931813359260559,
      "1978": 2.356976270675659,
      "1979": -8.85801887512207,
      "1980": -4.68841552734375,
      "1981": -8.156632423400879,
      "1982": 3.610867738723755,
      "1983": 0.8216928243637085,
      "1984": 6.381330966949463,
      "1985": -0.1479339450597763,
      "1986": 2.1544041633605957,
      "1987": -3.792576551437378,
      "1988": 3.9344725608825684,
      "1989": -2.443572998046875,
      "1990": 5.717739105224609,
      "1991": 4.735569953918457,
      "1992": -9.837262153625488,
      "1993": 11.843292236328125,
      "1994": -0.4757700264453888,
      "1995": 1.754538655281067,
      "1996": -9.696521759033203,
      "1997": 0.2884547710418701,
      "1998": 1.5484955310821533,
      "1999": -2.086817741394043,
      "2000": -6.056353569030762,
      "2001": 5.5314202308654785,
      "2002": -3.6342060565948486,
      "2003": -3.9132614135742188,
      "2004": 0.20554301142692566,
      "2005": -3.266448974609375,
      "2006": -2.208031415939331,
      "2007": 1.5739933252334595,
      "2008": -4.179035186767578,
      "2009": -0.7838559746742249,
      "2010": 3.9310688972473145,
      "2011": 3.7607979774475098,
      "2012": -0.043198730796575546,
      "2013": -4.323215961456299,
      "2014": -7.668315887451172,
      "2015": 3.337479591369629,
      "2016": -3.175947666168213,
      "2017": 1.1078978776931763,
      "2018": 5.438597679138184,
      "2019": 0.4171881377696991,
      "2020": 3.3818681240081787,
      "2021": -2.545728921890259,
      "2022": 7.574514865875244,
      "2023": 1.9874722957611084,
      "2024": -1.516656517982483,
      "2025": 0.9493599534034729,
      "2026": 2.6142690181732178,
      "2027": -0.10755402594804764,
      "2028": 3.075718402862549,
      "2029": -2.0713350772857666,
      "2030": -1.8735175132751465,
      "2031": 0.927879273891449,
      "2032": -5.61055850982666,
      "2033": 0.9415012001991272,
      "2034": 7.587587356567383,
      "2035": -1.3294215202331543,
      "2036": -0.5451290011405945,
      "2037": 2.587505578994751,
      "2038": -0.5675467252731323,
      "2039": 0.7201367616653442,
      "2040": 0.7128568291664124,
      "2041": 4.210435390472412,
      "2042": -5.034980773925781,
      "2043": 0.663640022277832,
      "2044": 7.2608232498168945,
      "2045": 3.0763096809387207,
      "2046": 3.012917995452881,
      "2047": 2.9662160873413086,
      "2048": 0.8427207469940186,
      "2049": 1.5078537464141846,
      "2050": 2.922624349594116,
      "2051": 2.221425771713257,
      "2052": -1.204103708267212,
      "2053": -2.4424333572387695,
      "2054": 5.385627269744873,
      "2055": -4.253252983093262,
      "2056": 8.53203010559082,
      "2057": -0.5441022515296936,
      "2058": 0.3963990807533264,
      "2059": 10.72014045715332,
      "2060": 4.7136125564575195,
      "2061": -4.20015811920166,
      "2062": -2.3751142024993896,
      "2063": -0.9485780000686646,
      "2064": -6.152770042419434,
      "2065": 1.211352825164795,
      "2066": -5.386764049530029,
      "2067": 0.4595859944820404,
      "2068": -1.7314753532409668,
      "2069": -2.3602161407470703,
      "2070": -1.558846354484558,
      "2071": -6.5789475440979,
      "2072": -5.448695659637451,
      "2073": 1.294538974761963,
      "2074": -0.12526315450668335,
      "2075": 6.101540565490723,
      "2076": 6.170468330383301,
      "2077": 6.386701583862305,
      "2078": -6.687163829803467,
      "2079": 10.459769248962402,
      "2080": 4.404977321624756,
      "2081": -5.581613540649414,
      "2082": 2.998922109603882,
      "2083": -4.086531639099121,
      "2084": 8.036333084106445,
      "2085": -5.041870594024658,
      "2086": 1.504341959953308,
      "2087": -4.464447498321533,
      "2088": 0.9686095118522644,
      "2089": 3.9488768577575684,
      "2090": 2.302356004714966,
      "2091": -5.467525959014893,
      "2092": -5.799508571624756,
      "2093": -0.25587373971939087,
      "2094": 4.7343363761901855,
      "2095": -8.505812644958496,
      "2096": 2.618222713470459,
      "2097": 1.081788182258606,
      "2098": -1.855421543121338,
      "2099": 3.9053871631622314,
      "2100": -2.9537723064422607,
      "2101": -6.442506313323975,
      "2102": 3.292184352874756,
      "2103": -0.4466443955898285,
      "2104": -6.984434127807617,
      "2105": -2.429029703140259,
      "2106": -9.758733749389648,
      "2107": -3.599771738052368,
      "2108": 1.7452127933502197,
      "2109": -5.610110282897949,
      "2110": -0.9500043988227844,
      "2111": 3.452453851699829,
      "2112": 1.63556706905365,
      "2113": -6.077002048492432,
      "2114": -4.32089900970459,
      "2115": 1.5407439470291138,
      "2116": -1.3264435529708862,
      "2117": 0.49080324172973633,
      "2118": 1.0832699537277222,
      "2119": -2.5265488624572754,
      "2120": 1.5803948640823364,
      "2121": -0.8550055027008057,
      "2122": -0.18848976492881775,
      "2123": 2.846468448638916,
      "2124": -4.7732696533203125,
      "2125": -0.2981036901473999,
      "2126": 1.6435421705245972,
      "2127": -0.8951627612113953,
      "2128": 0.8600391149520874,
      "2129": -1.4486546516418457,
      "2130": 0.45129212737083435,
      "2131": 1.5708659887313843,
      "2132": 1.396000623703003,
      "2133": 0.6754468083381653,
      "2134": -0.4792157709598541,
      "2135": -0.4519612789154053,
      "2136": -0.06970389187335968,
      "2137": -0.24396544694900513,
      "2138": -4.357285499572754,
      "2139": 2.214761257171631,
      "2140": 0.6396456956863403,
      "2141": 0.1722034513950348,
      "2142": -0.60286945104599,
      "2143": -0.18960094451904297,
      "2144": 0.5766638517379761,
      "2145": -1.2208611965179443,
      "2146": -0.47120535373687744,
      "2147": -1.2104912996292114,
      "2148": 2.66170072555542,
      "2149": -0.09449031203985214,
      "2150": -0.31731557846069336,
      "2151": 0.12812142074108124,
      "2152": -2.31807279586792,
      "2153": -0.12894700467586517,
      "2154": 0.43322718143463135,
      "2155": 0.8048585653305054,
      "2156": -0.09374929219484329,
      "2157": 2.0648818016052246,
      "2158": 1.0883935689926147,
      "2159": -3.231999158859253,
      "2160": 1.9743164777755737,
      "2161": -1.2302981615066528,
      "2162": 1.43984055519104,
      "2163": 1.320174217224121,
      "2164": 1.3718020915985107,
      "2165": 0.3673027753829956,
      "2166": -2.049788475036621,
      "2167": 0.42802694439888,
      "2168": 1.3700274229049683,
      "2169": -0.5115218758583069,
      "2170": 1.6513410806655884,
      "2171": -0.5554060339927673,
      "2172": 0.20636135339736938,
      "2173": 0.1770114153623581,
      "2174": 1.3045227527618408,
      "2175": 0.37009695172309875,
      "2176": 0.039034467190504074,
      "2177": -0.5543050765991211,
      "2178": 0.44744768738746643,
      "2179": 0.9250715374946594,
      "2180": -1.034089207649231,
      "2181": 1.35198175907135,
      "2182": 1.8559993505477905,
      "2183": -0.7434074282646179,
      "2184": -1.1759552955627441,
      "2185": 0.27604940533638,
      "2186": 0.28533023595809937,
      "2187": 1.1014817953109741,
      "2188": -0.6743618249893188,
      "2189": -0.7407658100128174,
      "2190": 0.8919765949249268,
      "2191": 0.8568223118782043,
      "2192": -1.002526044845581,
      "2193": -1.4666489362716675,
      "2194": -1.5458498001098633,
      "2195": 1.4425694942474365,
      "2196": -1.386458158493042,
      "2197": 1.8046380281448364,
      "2198": -0.07961233705282211,
      "2199": -0.3733522593975067,
      "2200": 0.9524585008621216,
      "2201": -0.5818405747413635,
      "2202": -1.506490707397461,
      "2203": 0.5857424736022949,
      "2204": 1.404649019241333,
      "2205": -0.6386380791664124,
      "2206": -1.6490775346755981,
      "2207": -1.1487640142440796,
      "2208": 1.507735013961792,
      "2209": 0.001389460638165474,
      "2210": 0.025366028770804405,
      "2211": 0.0728268176317215,
      "2212": -0.058973528444767,
      "2213": 0.02852604351937771,
      "2214": -0.07666849344968796,
      "2215": -0.038073450326919556,
      "2216": 0.006213151849806309,
      "2217": 0.04812294989824295,
      "2218": -0.04250837862491608,
      "2219": 0.04167908802628517,
      "2220": -0.011459222063422203,
      "2221": 0.036663252860307693,
      "2222": -0.06722142547369003,
      "2223": -0.038961660116910934,
      "2224": -0.057770024985075,
      "2225": 0.03562435507774353,
      "2226": -0.01729716546833515,
      "2227": -0.06327175348997116,
      "2228": 0.019348466768860817,
      "2229": 0.02567356824874878,
      "2230": 0.0005847120191901922,
      "2231": 0.05504469573497772,
      "2232": 0.04172227904200554,
      "2233": -0.04747265204787254,
      "2234": -0.017818672582507133,
      "2235": -0.01211461890488863,
      "2236": 0.039584215730428696,
      "2237": 0.002492754254490137,
      "2238": 0.02256055921316147,
      "2239": -0.0595908984541893,
      "2240": -0.04440288245677948,
      "2241": 0.04666559770703316,
      "2242": 0.07110659778118134,
      "2243": -0.0257762111723423,
      "2244": -0.02297651208937168,
      "2245": 0.009733544662594795,
      "2246": 0.07031038403511047,
      "2247": 0.052158452570438385,
      "2248": -0.01401932816952467,
      "2249": 0.05678858235478401,
      "2250": 0.07486730068922043,
      "2251": 0.05245178937911987,
      "2252": 0.05020211264491081,
      "2253": -0.0012082826578989625,
      "2254": -0.03619597107172012,
      "2255": 0.046782348304986954
    }
  },
  "hiddenLayers": [
    {
      "inputMatrix": {
        "rows": 20,
        "columns": 47,
        "weights": {
          "0": -0.08741706609725952,
          "1": -0.641660749912262,
          "2": 0.6638042330741882,
          "3": 0.42492052912712097,
          "4": 0.8912494778633118,
          "5": -0.9291868805885315,
          "6": -0.11630941927433014,
          "7": -0.6588408350944519,
          "8": -0.004968874156475067,
          "9": 1.111377477645874,
          "10": 2.0541558265686035,
          "11": 1.1206437349319458,
          "12": -0.5599200129508972,
          "13": 0.8014242053031921,
          "14": 1.149053692817688,
          "15": 0.1849634200334549,
          "16": -0.7404837012290955,
          "17": -0.19467812776565552,
          "18": -1.2642104625701904,
          "19": 0.7194646000862122,
          "20": -0.48483961820602417,
          "21": -0.2992993891239166,
          "22": -0.33046188950538635,
          "23": 0.15504680573940277,
          "24": -2.5690982341766357,
          "25": -0.05045713856816292,
          "26": -0.7379186153411865,
          "27": 2.1481218338012695,
          "28": -1.5518630743026733,
          "29": 0.23423980176448822,
          "30": 0.40520384907722473,
          "31": -1.1865311861038208,
          "32": 0.8427051901817322,
          "33": -1.095793604850769,
          "34": -1.3053878545761108,
          "35": -0.6126503348350525,
          "36": 1.204284429550171,
          "37": 0.4470856785774231,
          "38": -1.3129818439483643,
          "39": 0.16190952062606812,
          "40": -1.2429594993591309,
          "41": 0.6853785514831543,
          "42": -1.3994461297988892,
          "43": 0.610136091709137,
          "44": 1.0419632196426392,
          "45": 0.508391261100769,
          "46": 0.2613789141178131,
          "47": -1.0108925104141235,
          "48": -1.9454481601715088,
          "49": -0.7898838520050049,
          "50": -0.052236296236515045,
          "51": 0.31889259815216064,
          "52": 2.67646861076355,
          "53": -0.6609646081924438,
          "54": 0.24475738406181335,
          "55": 0.6473190188407898,
          "56": 0.6964257955551147,
          "57": 0.08939845860004425,
          "58": 0.17538225650787354,
          "59": -1.8655941486358643,
          "60": -0.5712868571281433,
          "61": -0.11051777750253677,
          "62": 0.7778348326683044,
          "63": -1.1351970434188843,
          "64": -0.31874874234199524,
          "65": 0.8394059538841248,
          "66": -1.7194961309432983,
          "67": -0.3698101043701172,
          "68": -0.7384320497512817,
          "69": 0.1585812270641327,
          "70": -1.9845325946807861,
          "71": -0.6867982745170593,
          "72": -1.0093815326690674,
          "73": 0.7847248315811157,
          "74": 1.6213968992233276,
          "75": 0.08119242638349533,
          "76": -0.19037626683712006,
          "77": 0.5719824433326721,
          "78": 0.232679545879364,
          "79": 0.5968670845031738,
          "80": -0.233745276927948,
          "81": -0.1168556734919548,
          "82": -1.7829720973968506,
          "83": 2.192450761795044,
          "84": -2.300886631011963,
          "85": -1.8701808452606201,
          "86": 0.8311461806297302,
          "87": 0.610360324382782,
          "88": 0.6296031475067139,
          "89": -0.5721569657325745,
          "90": 1.7690527439117432,
          "91": 0.31672704219818115,
          "92": 3.5613365173339844,
          "93": -0.9025672674179077,
          "94": -0.474063903093338,
          "95": -1.691732406616211,
          "96": -0.678264856338501,
          "97": -2.2557919025421143,
          "98": 0.7715663909912109,
          "99": -0.14872080087661743,
          "100": -0.6391168236732483,
          "101": 1.955881953239441,
          "102": 0.29870089888572693,
          "103": -0.7985240817070007,
          "104": -1.6462584733963013,
          "105": 1.5238311290740967,
          "106": -1.0098716020584106,
          "107": -0.06518980860710144,
          "108": 2.5509321689605713,
          "109": -0.7027368545532227,
          "110": 2.0609350204467773,
          "111": -1.7256473302841187,
          "112": 2.229630947113037,
          "113": -2.8296456336975098,
          "114": 0.6210333108901978,
          "115": -0.5251716375350952,
          "116": 1.3069220781326294,
          "117": -1.818017601966858,
          "118": -0.8436841368675232,
          "119": -0.3084254860877991,
          "120": 2.2479007244110107,
          "121": -0.5459581613540649,
          "122": -1.569927453994751,
          "123": 1.9354342222213745,
          "124": -2.915173053741455,
          "125": 1.926445484161377,
          "126": -1.3447707891464233,
          "127": 0.20353412628173828,
          "128": 0.5691614747047424,
          "129": 0.43839263916015625,
          "130": -2.875595808029175,
          "131": -0.5200662016868591,
          "132": -0.955401599407196,
          "133": 0.460872620344162,
          "134": 0.5963481664657593,
          "135": -1.128546953201294,
          "136": 0.4386208653450012,
          "137": 0.8204634785652161,
          "138": -0.9952554702758789,
          "139": -1.0297574996948242,
          "140": -0.34548527002334595,
          "141": 0.9491846561431885,
          "142": 0.36208122968673706,
          "143": -0.08097413182258606,
          "144": -0.6279128789901733,
          "145": -2.0902299880981445,
          "146": -0.7057949304580688,
          "147": 0.017067741602659225,
          "148": 0.15449762344360352,
          "149": 2.290886878967285,
          "150": -2.231887102127075,
          "151": 0.05420587956905365,
          "152": 2.090803384780884,
          "153": -0.6826547384262085,
          "154": 0.04320836067199707,
          "155": 0.7452864646911621,
          "156": -1.0421391725540161,
          "157": 1.3718454837799072,
          "158": -0.6827372908592224,
          "159": -0.08968383073806763,
          "160": 0.09975284337997437,
          "161": 0.32974305748939514,
          "162": 0.2985664904117584,
          "163": -0.43978017568588257,
          "164": -1.38746178150177,
          "165": 0.46554121375083923,
          "166": -0.1485380083322525,
          "167": -0.3154497444629669,
          "168": -0.4103718101978302,
          "169": 0.7252771854400635,
          "170": 0.9125711917877197,
          "171": -1.8593138456344604,
          "172": 0.7410891652107239,
          "173": -0.8188155889511108,
          "174": 2.7199082374572754,
          "175": 1.1741108894348145,
          "176": 1.0623387098312378,
          "177": -0.36022475361824036,
          "178": -0.8819077014923096,
          "179": 0.6968989372253418,
          "180": 0.4931875169277191,
          "181": 0.5946913957595825,
          "182": 0.3563372492790222,
          "183": 1.847188115119934,
          "184": 1.049008846282959,
          "185": -1.7467807531356812,
          "186": -0.6808612942695618,
          "187": -0.19254565238952637,
          "188": 0.4417441785335541,
          "189": -1.3892087936401367,
          "190": 1.185430645942688,
          "191": 1.352323055267334,
          "192": -1.0853996276855469,
          "193": -0.7521520256996155,
          "194": 1.441287875175476,
          "195": -0.21937087178230286,
          "196": 0.4402320086956024,
          "197": 0.3477819263935089,
          "198": 1.2183222770690918,
          "199": -0.3756844997406006,
          "200": 0.2241012454032898,
          "201": 2.602952003479004,
          "202": -0.8313820958137512,
          "203": 1.3525139093399048,
          "204": 0.5864802002906799,
          "205": 0.6591643691062927,
          "206": 0.10106992721557617,
          "207": 0.6552107334136963,
          "208": 1.9894644021987915,
          "209": 0.1908029317855835,
          "210": -0.603712260723114,
          "211": 0.2141455113887787,
          "212": -1.1887073516845703,
          "213": 2.2179718017578125,
          "214": -0.6471728682518005,
          "215": -0.9901703000068665,
          "216": 0.2873211205005646,
          "217": 1.2533077001571655,
          "218": -0.7821771502494812,
          "219": -2.8258607387542725,
          "220": -0.3902413845062256,
          "221": -1.2554322481155396,
          "222": 0.5634456276893616,
          "223": 1.2540203332901,
          "224": -1.0605883598327637,
          "225": 1.2763924598693848,
          "226": -0.35876190662384033,
          "227": -0.06669624894857407,
          "228": -1.762423038482666,
          "229": 2.0207736492156982,
          "230": 0.4580778479576111,
          "231": 0.16008713841438293,
          "232": 0.0899965763092041,
          "233": 1.0777220726013184,
          "234": 1.6021878719329834,
          "235": -0.3512636125087738,
          "236": -2.849116325378418,
          "237": -0.9174079895019531,
          "238": -1.6623090505599976,
          "239": 1.654053807258606,
          "240": -0.21726824343204498,
          "241": -1.3652989864349365,
          "242": 0.5073730945587158,
          "243": -0.10721345245838165,
          "244": 2.414841890335083,
          "245": -0.4252127707004547,
          "246": -0.28601905703544617,
          "247": -0.18081317842006683,
          "248": 0.8218588829040527,
          "249": 0.1471477448940277,
          "250": 0.9844585657119751,
          "251": -0.262559711933136,
          "252": -1.259690523147583,
          "253": 1.7030614614486694,
          "254": -0.6433369517326355,
          "255": 0.4887062609195709,
          "256": 0.658087432384491,
          "257": 0.661298930644989,
          "258": 0.5475322604179382,
          "259": -0.3897676467895508,
          "260": 2.077430248260498,
          "261": -0.03143816068768501,
          "262": 0.155127614736557,
          "263": -0.6759175658226013,
          "264": -0.6118994355201721,
          "265": 0.3396240174770355,
          "266": 0.38358476758003235,
          "267": -0.29194194078445435,
          "268": -0.591758131980896,
          "269": -0.09830626845359802,
          "270": 1.0514241456985474,
          "271": -0.8630312085151672,
          "272": 0.3505709767341614,
          "273": -1.1228646039962769,
          "274": 1.7134130001068115,
          "275": -0.47655951976776123,
          "276": 0.4400993287563324,
          "277": -1.6987688541412354,
          "278": 0.9849463701248169,
          "279": 1.3852144479751587,
          "280": 1.1820255517959595,
          "281": -1.0943001508712769,
          "282": 0.4001311659812927,
          "283": 0.34985053539276123,
          "284": 0.7962908744812012,
          "285": -1.1000276803970337,
          "286": 1.6445428133010864,
          "287": 1.0756632089614868,
          "288": 0.22816048562526703,
          "289": 0.19693411886692047,
          "290": -1.8983641862869263,
          "291": 0.10607045888900757,
          "292": -1.0644166469573975,
          "293": -0.20590825378894806,
          "294": 1.0210801362991333,
          "295": -2.318641424179077,
          "296": 0.44460391998291016,
          "297": -0.28981563448905945,
          "298": 0.1390879601240158,
          "299": -0.16892053186893463,
          "300": -0.07102937251329422,
          "301": 0.1035318672657013,
          "302": -0.7637696266174316,
          "303": -1.6948459148406982,
          "304": 0.24714934825897217,
          "305": 2.068180799484253,
          "306": 2.155668020248413,
          "307": -1.5644468069076538,
          "308": 0.8108791708946228,
          "309": -0.3841857612133026,
          "310": -0.18342213332653046,
          "311": -0.6360917687416077,
          "312": 1.3290950059890747,
          "313": 0.9985911250114441,
          "314": -0.022928377613425255,
          "315": 1.96110999584198,
          "316": -0.03320707380771637,
          "317": 1.1004571914672852,
          "318": 0.21196366846561432,
          "319": 0.027652820572257042,
          "320": 1.6457890272140503,
          "321": -1.285720705986023,
          "322": 2.029181957244873,
          "323": -1.6061217784881592,
          "324": -0.5534029006958008,
          "325": -0.48642948269844055,
          "326": 0.1813330054283142,
          "327": -1.7147080898284912,
          "328": -1.039191484451294,
          "329": 0.9470526576042175,
          "330": -0.6745319366455078,
          "331": 0.3808474838733673,
          "332": 0.5224822163581848,
          "333": 2.1678547859191895,
          "334": 0.3773106038570404,
          "335": -1.2974404096603394,
          "336": 0.353270947933197,
          "337": -1.680273175239563,
          "338": 1.505531668663025,
          "339": 0.5480955839157104,
          "340": -0.6240575909614563,
          "341": -1.893607497215271,
          "342": 0.2796621024608612,
          "343": -0.7021398544311523,
          "344": 1.860245943069458,
          "345": -1.9091100692749023,
          "346": -0.09604758024215698,
          "347": 1.1269193887710571,
          "348": -0.5964752435684204,
          "349": -1.7199128866195679,
          "350": -1.001003384590149,
          "351": 0.9661309123039246,
          "352": -0.7445443272590637,
          "353": -1.4454734325408936,
          "354": -2.286118984222412,
          "355": 0.42187902331352234,
          "356": 2.213923454284668,
          "357": -0.6355414390563965,
          "358": 0.9294348359107971,
          "359": 0.9402711987495422,
          "360": -0.882522463798523,
          "361": 1.9787888526916504,
          "362": -0.5043718814849854,
          "363": -1.337066411972046,
          "364": 0.40627720952033997,
          "365": 0.9519857168197632,
          "366": -0.5082003474235535,
          "367": 0.623317539691925,
          "368": 0.6312118172645569,
          "369": 0.15571336448192596,
          "370": 0.7036121487617493,
          "371": -0.5783504247665405,
          "372": 0.9652345180511475,
          "373": 1.2370402812957764,
          "374": 1.843222975730896,
          "375": 1.3043665885925293,
          "376": 2.2425596714019775,
          "377": -0.21139468252658844,
          "378": 1.270024299621582,
          "379": 0.38982513546943665,
          "380": -0.11135192215442657,
          "381": -0.8252906799316406,
          "382": 0.743439793586731,
          "383": -0.5148978233337402,
          "384": 0.3764518201351166,
          "385": -0.8884865641593933,
          "386": 1.6796596050262451,
          "387": -0.43971168994903564,
          "388": -0.03634810447692871,
          "389": 0.7045504450798035,
          "390": 0.19560633599758148,
          "391": 0.16905151307582855,
          "392": 1.3803012371063232,
          "393": 0.5175434350967407,
          "394": -0.38888630270957947,
          "395": 0.9458179473876953,
          "396": 1.3168820142745972,
          "397": 0.6368364691734314,
          "398": -1.733703851699829,
          "399": 0.2850584387779236,
          "400": 1.299878478050232,
          "401": 0.36560970544815063,
          "402": -0.6298384070396423,
          "403": -2.182642698287964,
          "404": -0.010527675971388817,
          "405": -0.39864322543144226,
          "406": -1.4460269212722778,
          "407": -1.2743191719055176,
          "408": -1.7038912773132324,
          "409": 1.0034101009368896,
          "410": 1.1074250936508179,
          "411": 1.0041409730911255,
          "412": -1.8129059076309204,
          "413": 2.519059419631958,
          "414": 0.9998995065689087,
          "415": -1.5392712354660034,
          "416": -1.1376428604125977,
          "417": 1.2996854782104492,
          "418": 0.7996534109115601,
          "419": -0.7244023084640503,
          "420": -0.34116870164871216,
          "421": -0.15195395052433014,
          "422": 0.8945422172546387,
          "423": -0.5185489654541016,
          "424": 0.3069913983345032,
          "425": -0.6653757095336914,
          "426": 0.38257503509521484,
          "427": 0.02225230447947979,
          "428": 2.1690833568573,
          "429": -0.07770530879497528,
          "430": 1.2211313247680664,
          "431": 0.11048375815153122,
          "432": -0.26063376665115356,
          "433": -2.6226460933685303,
          "434": 1.8040473461151123,
          "435": 0.3108028769493103,
          "436": -2.1666524410247803,
          "437": -0.8274332880973816,
          "438": 0.3489513397216797,
          "439": -0.9925357103347778,
          "440": 0.5143454670906067,
          "441": 1.3797966241836548,
          "442": -1.469541072845459,
          "443": -1.4988374710083008,
          "444": -1.7173049449920654,
          "445": 2.0466666221618652,
          "446": -0.8821248412132263,
          "447": 1.3336166143417358,
          "448": -0.6570955514907837,
          "449": 2.2296950817108154,
          "450": 0.13735142350196838,
          "451": 0.2745424211025238,
          "452": 0.46106475591659546,
          "453": 0.37327978014945984,
          "454": 1.30861496925354,
          "455": 1.0117305517196655,
          "456": 0.08685141056776047,
          "457": 0.47619542479515076,
          "458": 0.8549798727035522,
          "459": -0.5588307976722717,
          "460": -3.2276387214660645,
          "461": -0.7583779692649841,
          "462": 0.9684981107711792,
          "463": 2.0393521785736084,
          "464": -2.6329345703125,
          "465": -0.30842331051826477,
          "466": 1.7056832313537598,
          "467": 0.02584124729037285,
          "468": -0.7848110795021057,
          "469": -2.072249412536621,
          "470": 1.2579714059829712,
          "471": -0.6097021102905273,
          "472": 0.1864907294511795,
          "473": 0.7622421383857727,
          "474": -1.6606773138046265,
          "475": -0.26342692971229553,
          "476": 0.9529457092285156,
          "477": 0.22886991500854492,
          "478": 1.571452260017395,
          "479": -0.08103979378938675,
          "480": 0.9729763269424438,
          "481": -1.5289371013641357,
          "482": -1.1214712858200073,
          "483": 0.5452840924263,
          "484": -0.7617749571800232,
          "485": 1.9569863080978394,
          "486": 1.2663131952285767,
          "487": 1.2907321453094482,
          "488": 0.2873144745826721,
          "489": 0.8036212921142578,
          "490": 1.0897058248519897,
          "491": 1.4923195838928223,
          "492": -2.4605066776275635,
          "493": 0.04697485268115997,
          "494": -0.07468520849943161,
          "495": 1.3222546577453613,
          "496": -0.6082620620727539,
          "497": -1.44792902469635,
          "498": -0.2555783689022064,
          "499": -0.20262959599494934,
          "500": 0.0074155558831989765,
          "501": -1.6455496549606323,
          "502": -0.4249088764190674,
          "503": -0.6290899515151978,
          "504": 0.24840517342090607,
          "505": -0.5804632902145386,
          "506": 0.3880118429660797,
          "507": 0.7600111961364746,
          "508": -0.288486123085022,
          "509": -1.120540738105774,
          "510": -0.7494555711746216,
          "511": 1.3270035982131958,
          "512": 0.30823028087615967,
          "513": -0.9421932697296143,
          "514": -0.5711134076118469,
          "515": 1.2759584188461304,
          "516": 1.0073961019515991,
          "517": -0.006740432698279619,
          "518": -1.776240587234497,
          "519": -0.7419314980506897,
          "520": 0.6962180733680725,
          "521": -0.4794297516345978,
          "522": 0.34831976890563965,
          "523": -0.12202612310647964,
          "524": -0.4007991850376129,
          "525": 0.3561508059501648,
          "526": 0.03173237666487694,
          "527": -0.19655609130859375,
          "528": 0.5018934607505798,
          "529": -0.24482548236846924,
          "530": 0.019189802929759026,
