{
  "type": "LSTM",
  "options": {
    "inputSize": 47,
    "inputRange": 47,
    "hiddenLayers": [
      20,
      20
    ],
    "outputSize": 47,
    "decayRate": 0.999,
    "smoothEps": 1e-8,
    "regc": 0.000001,
    "clipval": 5,
    "maxPredictionLength": 100,
    "dataFormatter": {
      "values": [
        "Adobe",
        "Appreciate every day",
        "What is the meaning of life?",
        "boston",
        "copy file into docker container",
        "docker cp ./some_file CONTAINER:/work",
        "favorite book",
        "favorite city",
        "favorite cloud",
        "favorite company to work for",
        "favorite food",
        "favorite rock",
        "favorite state",
        "git pull origin --rebase ",
        "how to clean node cache",
        "how to rebase in git",
        "how to run nodejs file on command line",
        "how to view all ports being used on mac",
        "igeneous",
        "lolita",
        "mass",
        "node --experimental-modules src/file.js",
        "npm cache clean --force",
        "pizza",
        "stratus",
        "sudo lsof -iTCP -sTCP:LISTEN -n -P"
      ],
      "indexTable": {
        "A": 0,
        "d": 1,
        "o": 2,
        "b": 3,
        "e": 4,
        "p": 5,
        "r": 6,
        "c": 7,
        "i": 8,
        "a": 9,
        "t": 10,
        " ": 11,
        "v": 12,
        "y": 13,
        "W": 14,
        "h": 15,
        "s": 16,
        "m": 17,
        "n": 18,
        "g": 19,
        "f": 20,
        "l": 21,
        "?": 22,
        "k": 23,
        ".": 24,
        "/": 25,
        "_": 26,
        "C": 27,
        "O": 28,
        "N": 29,
        "T": 30,
        "I": 31,
        "E": 32,
        "R": 33,
        ":": 34,
        "w": 35,
        "u": 36,
        "-": 37,
        "j": 38,
        "x": 39,
        "z": 40,
        "P": 41,
        "L": 42,
        "S": 43,
        "stop-input": 44,
        "start-output": 45,
        "unrecognized": 46
      },
      "characterTable": {
        "0": "A",
        "1": "d",
        "2": "o",
        "3": "b",
        "4": "e",
        "5": "p",
        "6": "r",
        "7": "c",
        "8": "i",
        "9": "a",
        "10": "t",
        "11": " ",
        "12": "v",
        "13": "y",
        "14": "W",
        "15": "h",
        "16": "s",
        "17": "m",
        "18": "n",
        "19": "g",
        "20": "f",
        "21": "l",
        "22": "?",
        "23": "k",
        "24": ".",
        "25": "/",
        "26": "_",
        "27": "C",
        "28": "O",
        "29": "N",
        "30": "T",
        "31": "I",
        "32": "E",
        "33": "R",
        "34": ":",
        "35": "w",
        "36": "u",
        "37": "-",
        "38": "j",
        "39": "x",
        "40": "z",
        "41": "P",
        "42": "L",
        "43": "S",
        "44": null,
        "45": null,
        "46": null
      },
      "characters": [
        "A",
        "d",
        "o",
        "b",
        "e",
        "p",
        "r",
        "c",
        "i",
        "a",
        "t",
        " ",
        "v",
        "y",
        "W",
        "h",
        "s",
        "m",
        "n",
        "g",
        "f",
        "l",
        "?",
        "k",
        ".",
        "/",
        "_",
        "C",
        "O",
        "N",
        "T",
        "I",
        "E",
        "R",
        ":",
        "w",
        "u",
        "-",
        "j",
        "x",
        "z",
        "P",
        "L",
        "S",
        "stop-input",
        "start-output",
        "unrecognized"
      ],
      "specialIndexes": [
        44,
        45,
        46
      ]
    }
  },
  "input": {
    "rows": 48,
    "columns": 47,
    "weights": {
      "0": 0.18824471533298492,
      "1": -0.043390095233917236,
      "2": 0.6459324359893799,
      "3": 0.5839400887489319,
      "4": 0.596539318561554,
      "5": 0.031468551605939865,
      "6": -0.7125742435455322,
      "7": -0.5635963082313538,
      "8": -0.011649837717413902,
      "9": -0.42526552081108093,
      "10": -0.15428493916988373,
      "11": 1.0002574920654297,
      "12": 0.5245999097824097,
      "13": -0.37429410219192505,
      "14": -0.7739405035972595,
      "15": 2.1145057678222656,
      "16": -0.3123413622379303,
      "17": -0.5773633122444153,
      "18": 0.007828295230865479,
      "19": -0.025335432961583138,
      "20": 0.368316113948822,
      "21": 0.42396724224090576,
      "22": -0.9727914929389954,
      "23": -0.17374897003173828,
      "24": -0.22624588012695312,
      "25": 0.1710333675146103,
      "26": 1.038307785987854,
      "27": 1.2523045539855957,
      "28": 0.18966461718082428,
      "29": 0.15914443135261536,
      "30": 0.130300834774971,
      "31": -0.3440130352973938,
      "32": 0.7279751300811768,
      "33": -0.42082342505455017,
      "34": 0.49385762214660645,
      "35": 0.3707553446292877,
      "36": -0.3745746612548828,
      "37": 1.1569745540618896,
      "38": 0.1750255972146988,
      "39": -0.039576511830091476,
      "40": -1.0753339529037476,
      "41": 0.18587633967399597,
      "42": -0.16546864807605743,
      "43": -0.22100064158439636,
      "44": -0.8492456674575806,
      "45": -0.35781240463256836,
      "46": -0.2771229147911072,
      "47": 2.0061914920806885,
      "48": 2.786830186843872,
      "49": 2.5140788555145264,
      "50": 0.19880539178848267,
      "51": -2.3669259548187256,
      "52": 3.7197365760803223,
      "53": 1.9841063022613525,
      "54": -0.8802880048751831,
      "55": 2.5984482765197754,
      "56": 3.734605312347412,
      "57": -0.5905072689056396,
      "58": 0.13002073764801025,
      "59": 0.8281556367874146,
      "60": -2.1373937129974365,
      "61": -0.5441317558288574,
      "62": 1.0572295188903809,
      "63": 2.1448845863342285,
      "64": -0.6445779800415039,
      "65": -3.7055561542510986,
      "66": -2.9988062381744385,
      "67": 0.8454989790916443,
      "68": 0.21571104228496552,
      "69": -2.586230993270874,
      "70": -1.2381463050842285,
      "71": -0.6307946443557739,
      "72": 0.008901692926883698,
      "73": 0.7296891212463379,
      "74": 2.377049207687378,
      "75": -0.27934086322784424,
      "76": 0.9787387251853943,
      "77": -0.8612295985221863,
      "78": -1.799342393875122,
      "79": 0.6572226881980896,
      "80": -1.2108179330825806,
      "81": -1.8521263599395752,
      "82": 0.8293341398239136,
      "83": 4.471623420715332,
      "84": 0.8030688762664795,
      "85": 0.28427064418792725,
      "86": 0.2897420823574066,
      "87": -1.7445402145385742,
      "88": -1.4266259670257568,
      "89": 5.332617282867432,
      "90": -0.037280209362506866,
      "91": -0.22298996150493622,
      "92": 2.4480998516082764,
      "93": -1.2584203481674194,
      "94": -0.2131292074918747,
      "95": 0.48075541853904724,
      "96": 0.2915649116039276,
      "97": 1.1589341163635254,
      "98": 0.18998584151268005,
      "99": 0.2533378303050995,
      "100": -0.6010460257530212,
      "101": 0.7198116183280945,
      "102": -0.5653712153434753,
      "103": -1.4139631986618042,
      "104": -0.2176651805639267,
      "105": 2.4361789226531982,
      "106": -0.4128548502922058,
      "107": -0.35756346583366394,
      "108": 0.06541737914085388,
      "109": 1.510738492012024,
      "110": -0.7063751220703125,
      "111": 0.07161802798509598,
      "112": 0.2371414303779602,
      "113": -0.9676084518432617,
      "114": 1.3166608810424805,
      "115": -0.7884334921836853,
      "116": -0.49415966868400574,
      "117": -1.0213663578033447,
      "118": 0.3292822241783142,
      "119": -1.8418835401535034,
      "120": 1.8070794343948364,
      "121": 0.2665020823478699,
      "122": 0.38639354705810547,
      "123": -0.18155543506145477,
      "124": 0.25595176219940186,
      "125": -0.8899605870246887,
      "126": 0.7910685539245605,
      "127": 0.3868933916091919,
      "128": 0.49480924010276794,
      "129": 0.7222492694854736,
      "130": -0.7093915343284607,
      "131": -1.0202587842941284,
      "132": 0.061152998358011246,
      "133": 0.4375840127468109,
      "134": -1.9272834062576294,
      "135": -0.5945444107055664,
      "136": 1.1282145977020264,
      "137": 1.699575662612915,
      "138": -0.31705355644226074,
      "139": -1.4153573513031006,
      "140": -1.2821342945098877,
      "141": -0.4888920187950134,
      "142": 0.04087357968091965,
      "143": -0.35680150985717773,
      "144": -0.28526630997657776,
      "145": -0.20815202593803406,
      "146": -0.13263548910617828,
      "147": 0.5259419679641724,
      "148": 0.34736520051956177,
      "149": -0.6374446153640747,
      "150": -0.7900733947753906,
      "151": 0.13854524493217468,
      "152": -0.18116067349910736,
      "153": -0.18589502573013306,
      "154": 0.1220005601644516,
      "155": 0.43398594856262207,
      "156": 0.15950846672058105,
      "157": -0.5504186749458313,
      "158": 0.2008470743894577,
      "159": 0.44725164771080017,
      "160": 0.05218776687979698,
      "161": -0.9972123503684998,
      "162": -0.9764565825462341,
      "163": -0.15333151817321777,
      "164": -0.2301941215991974,
      "165": 0.6813359260559082,
      "166": 0.16993267834186554,
      "167": -0.3024076521396637,
      "168": -0.5790124535560608,
      "169": 2.440809488296509,
      "170": -0.41979366540908813,
      "171": 0.21143625676631927,
      "172": -0.16602306067943573,
      "173": -0.24537712335586548,
      "174": 0.21619363129138947,
      "175": -0.6552963852882385,
      "176": -0.44955864548683167,
      "177": 0.3727276623249054,
      "178": -1.8120468854904175,
      "179": 0.13760529458522797,
      "180": 0.04781331121921539,
      "181": -0.1623331606388092,
      "182": -0.6341436505317688,
      "183": -0.1640024036169052,
      "184": 0.09258710592985153,
      "185": 0.8055907487869263,
      "186": -0.04785978049039841,
      "187": 0.40996816754341125,
      "188": 2.714846134185791,
      "189": 0.3229336738586426,
      "190": 1.5187242031097412,
      "191": -0.4769825041294098,
      "192": 1.8140232563018799,
      "193": 3.9907925128936768,
      "194": 2.2273659706115723,
      "195": -0.3072897791862488,
      "196": -2.8004367351531982,
      "197": 2.613595724105835,
      "198": -0.7023383975028992,
      "199": -0.9425472021102905,
      "200": 1.688803791999817,
      "201": -2.522517442703247,
      "202": -1.1365100145339966,
      "203": 3.0299770832061768,
      "204": 1.9299867153167725,
      "205": 2.5502939224243164,
      "206": -1.9896425008773804,
      "207": -1.107169270515442,
      "208": -1.079100489616394,
      "209": -0.8099489212036133,
      "210": 0.14546696841716766,
      "211": 0.8803454637527466,
      "212": 0.00233986577950418,
      "213": -1.1073812246322632,
      "214": 1.544748067855835,
      "215": 1.0323271751403809,
      "216": -2.689342975616455,
      "217": -1.161726951599121,
      "218": -2.5526907444000244,
      "219": 3.155590295791626,
      "220": 0.19089171290397644,
      "221": -0.7447986602783203,
      "222": -1.1703169345855713,
      "223": -0.1559152752161026,
      "224": 2.8737409114837646,
      "225": 4.453887462615967,
      "226": -0.09298565238714218,
      "227": -3.9222323894500732,
      "228": 3.008937120437622,
      "229": -0.03104346990585327,
      "230": -3.6577577590942383,
      "231": -0.26892951130867004,
      "232": 0.1094285324215889,
      "233": 3.1382319927215576,
      "234": -0.5720398426055908,
      "235": 0.2574096918106079,
      "236": 0.30223548412323,
      "237": -0.7456212639808655,
      "238": 0.37902307510375977,
      "239": -0.011688090860843658,
      "240": -0.2257964015007019,
      "241": 0.18010486662387848,
      "242": -0.02620316855609417,
      "243": -0.314720094203949,
      "244": -1.2332804203033447,
      "245": 0.9372462630271912,
      "246": -0.26022306084632874,
      "247": 0.16161134839057922,
      "248": 0.4025723338127136,
      "249": 0.7479974031448364,
      "250": -0.2387089729309082,
      "251": -0.44454577565193176,
      "252": -1.1367647647857666,
      "253": 0.6920472979545593,
      "254": 0.2661154568195343,
      "255": -1.0004531145095825,
      "256": 0.21657364070415497,
      "257": 0.2050217241048813,
      "258": -0.3320849537849426,
      "259": -0.19937188923358917,
      "260": -0.1481037735939026,
      "261": -0.47340747714042664,
      "262": -0.4831079840660095,
      "263": -0.7401065230369568,
      "264": 0.6039843559265137,
      "265": 0.6786546111106873,
      "266": -0.563769519329071,
      "267": -0.19405046105384827,
      "268": 0.09386292099952698,
      "269": 0.2090626358985901,
      "270": -0.6249138712882996,
      "271": -0.8579106330871582,
      "272": -0.23069845139980316,
      "273": 0.04116276651620865,
      "274": -0.32179710268974304,
      "275": -0.4966426193714142,
      "276": -0.004009735770523548,
      "277": 0.7383863925933838,
      "278": 0.3146073520183563,
      "279": 0.1644158661365509,
      "280": -0.9376533031463623,
      "281": 1.3513387441635132,
      "282": 1.5371243953704834,
      "283": -0.5751503109931946,
      "284": -1.2843296527862549,
      "285": 1.017171859741211,
      "286": 1.9851418733596802,
      "287": -0.9199227690696716,
      "288": 2.5319645404815674,
      "289": 0.5476377606391907,
      "290": 0.7327388525009155,
      "291": -0.5727383494377136,
      "292": 1.005886197090149,
      "293": -1.2307697534561157,
      "294": 0.9066113233566284,
      "295": 0.44853678345680237,
      "296": 0.5154082179069519,
      "297": 0.954544186592102,
      "298": -0.2643495202064514,
      "299": 1.931254506111145,
      "300": 0.5189229846000671,
      "301": -2.1540706157684326,
      "302": -3.0694124698638916,
      "303": -1.6467134952545166,
      "304": 0.49699461460113525,
      "305": 0.3415682911872864,
      "306": 0.2609120011329651,
      "307": -0.010853826999664307,
      "308": -0.8095818758010864,
      "309": -0.4925824999809265,
      "310": 1.838967204093933,
      "311": -1.4520118236541748,
      "312": 1.7473052740097046,
      "313": 0.8415214419364929,
      "314": -0.9302931427955627,
      "315": 0.5999982953071594,
      "316": 0.22389444708824158,
      "317": 0.6079809665679932,
      "318": 0.1355496346950531,
      "319": -0.4576272666454315,
      "320": 0.420164555311203,
      "321": -0.10269540548324585,
      "322": 2.338730573654175,
      "323": -1.4965734481811523,
      "324": -0.9052523374557495,
      "325": -1.2919563055038452,
      "326": 0.8523538708686829,
      "327": -1.953971266746521,
      "328": 1.497161626815796,
      "329": -0.1974661499261856,
      "330": -0.04537403956055641,
      "331": 0.6634157299995422,
      "332": -1.5394325256347656,
      "333": 0.10760429501533508,
      "334": -0.0346556194126606,
      "335": 1.172416090965271,
      "336": -0.05040116608142853,
      "337": -0.9671562910079956,
      "338": -0.3428087830543518,
      "339": 3.6489970684051514,
      "340": 0.3674631416797638,
      "341": 0.9307010173797607,
      "342": 0.11464622616767883,
      "343": -0.3956226110458374,
      "344": 0.40627482533454895,
      "345": -0.13199539482593536,
      "346": 0.10137233883142471,
      "347": 1.2894489765167236,
      "348": 1.3609838485717773,
      "349": 1.5571985244750977,
      "350": -0.3432839512825012,
      "351": -0.29600122570991516,
      "352": 0.5594881772994995,
      "353": 0.6302134394645691,
      "354": 0.15652574598789215,
      "355": -0.28021305799484253,
      "356": 0.11466436833143234,
      "357": 1.4609991312026978,
      "358": -1.7597471475601196,
      "359": 0.07812076061964035,
      "360": 0.39402469992637634,
      "361": 0.28564298152923584,
      "362": 0.738016664981842,
      "363": 0.2804817855358124,
      "364": -1.46487557888031,
      "365": 0.6013308167457581,
      "366": 2.2577292919158936,
      "367": 0.5467348694801331,
      "368": -0.5855904817581177,
      "369": -0.27071312069892883,
      "370": -0.8530929684638977,
      "371": -0.7592597603797913,
      "372": -0.11851133406162262,
      "373": 1.3029756546020508,
      "374": 0.696065366268158,
      "375": 0.06006645783782005,
      "376": -1.456499457359314,
      "377": -0.02399413287639618,
      "378": -0.7341246008872986,
      "379": -0.5523862838745117,
      "380": -1.3028260469436646,
      "381": 1.2231026887893677,
      "382": 0.02658519707620144,
      "383": 0.12338057160377502,
      "384": -0.0032097415532916784,
      "385": -1.2135965824127197,
      "386": -0.1004129946231842,
      "387": -0.14162905514240265,
      "388": -0.4953708350658417,
      "389": -0.5973020792007446,
      "390": -0.8294941186904907,
      "391": 0.5799335837364197,
      "392": -0.204966202378273,
      "393": -0.7024215459823608,
      "394": 0.3764629065990448,
      "395": 1.1166656017303467,
      "396": -0.2177259922027588,
      "397": -0.025055166333913803,
      "398": 1.0725018978118896,
      "399": -0.28084293007850647,
      "400": 0.38861754536628723,
      "401": 0.6427825689315796,
      "402": 0.025373706594109535,
      "403": -0.4371849298477173,
      "404": -0.39159077405929565,
      "405": 0.05810200050473213,
      "406": 0.3665143549442291,
      "407": -0.3471940755844116,
      "408": -0.9047251343727112,
      "409": 0.45963284373283386,
      "410": 0.03600822016596794,
      "411": 0.2870708703994751,
      "412": -0.9601056575775146,
      "413": -1.8653035163879395,
      "414": 0.88719642162323,
      "415": 0.48382648825645447,
      "416": -2.1443593502044678,
      "417": -0.1410219669342041,
      "418": 0.5207750201225281,
      "419": 0.09241322427988052,
      "420": -0.027458814904093742,
      "421": -1.0465697050094604,
      "422": -3.4187588691711426,
      "423": -0.6516467332839966,
      "424": -0.48714277148246765,
      "425": -0.08456680178642273,
      "426": -0.9116264581680298,
      "427": -0.32474684715270996,
      "428": -1.947962760925293,
      "429": 0.2382485270500183,
      "430": -0.07683714479207993,
      "431": 1.1596622467041016,
      "432": -1.4735960960388184,
      "433": 0.7498025894165039,
      "434": -0.2787538468837738,
      "435": -0.17361095547676086,
      "436": 2.0102522373199463,
      "437": -1.201607346534729,
      "438": 0.40726009011268616,
      "439": -1.6052091121673584,
      "440": -0.2815924882888794,
      "441": 0.5824186205863953,
      "442": 0.8585624694824219,
      "443": 0.35636669397354126,
      "444": 0.5532482266426086,
      "445": -0.3524869680404663,
      "446": -0.5127462148666382,
      "447": -0.5121300220489502,
      "448": 0.42295727133750916,
      "449": -0.44916677474975586,
      "450": 1.0611999034881592,
      "451": 1.3077720403671265,
      "452": -0.5019925832748413,
      "453": 1.0412507057189941,
      "454": -0.22350317239761353,
      "455": -0.16147561371326447,
      "456": 0.21064653992652893,
      "457": 0.3842619061470032,
      "458": -0.7066618800163269,
      "459": -1.2562239170074463,
      "460": -0.24771280586719513,
      "461": 0.7314937710762024,
      "462": 0.48435497283935547,
      "463": -0.013709806837141514,
      "464": -0.4521500766277313,
      "465": -0.8147449493408203,
      "466": 0.37637990713119507,
      "467": -0.35281288623809814,
      "468": -0.510534942150116,
      "469": 0.28973034024238586,
      "470": 0.11727381497621536,
      "471": -0.07757756859064102,
      "472": -0.4316098093986511,
      "473": 0.8230577111244202,
      "474": 0.823818027973175,
      "475": 0.9085950255393982,
      "476": 1.883129596710205,
      "477": -0.42642712593078613,
      "478": -1.1962089538574219,
      "479": -0.5171988010406494,
      "480": 0.47416892647743225,
      "481": -0.9215170741081238,
      "482": -0.8345287442207336,
      "483": -0.28726181387901306,
      "484": -0.20956487953662872,
      "485": 0.5521036386489868,
      "486": 0.24321016669273376,
      "487": 1.582353115081787,
      "488": 2.2428970336914062,
      "489": 1.024217963218689,
      "490": -0.9495103359222412,
      "491": -0.13136409223079681,
      "492": 0.3686762750148773,
      "493": 0.0539449043571949,
      "494": 1.0464245080947876,
      "495": 0.49483659863471985,
      "496": 0.5443291068077087,
      "497": -0.7395361661911011,
      "498": -0.7809801697731018,
      "499": -1.1812461614608765,
      "500": -1.0919671058654785,
      "501": 0.30596163868904114,
      "502": 0.6133761405944824,
      "503": 1.1540367603302002,
      "504": -0.7657875418663025,
      "505": -0.5694172978401184,
      "506": 0.13169226050376892,
      "507": -0.9327821731567383,
      "508": -1.5581198930740356,
      "509": -1.445677638053894,
      "510": 1.1420561075210571,
      "511": 1.3952760696411133,
      "512": 2.5421972274780273,
      "513": -1.9613008499145508,
      "514": 0.38883814215660095,
      "515": 0.41795575618743896,
      "516": -1.082817792892456,
      "517": 0.49769240617752075,
      "518": 0.014083894900977612,
      "519": -0.8131956458091736,
      "520": -0.2736111283302307,
      "521": 0.988970160484314,
      "522": 0.048187658190727234,
      "523": 0.6334134936332703,
      "524": -0.4906032979488373,
      "525": -1.315561056137085,
      "526": -2.3132197856903076,
      "527": 0.9829640984535217,
      "528": -1.1926395893096924,
      "529": 1.1261447668075562,
      "530": 0.03365585207939148,
      "531": 0.6204978227615356,
      "532": 1.4845874309539795,
      "533": 0.06921392679214478,
      "534": -0.10906169563531876,
      "535": 2.175549030303955,
      "536": -0.0686323419213295,
      "537": -0.15493237972259521,
      "538": -0.6854450106620789,
      "539": -0.0811585932970047,
      "540": -0.13361592590808868,
      "541": 0.36720964312553406,
      "542": 0.156478613615036,
      "543": 0.6243434548377991,
      "544": -0.4916704297065735,
      "545": -0.7651311159133911,
      "546": -1.0663341283798218,
      "547": 0.7850717902183533,
      "548": 0.9079240560531616,
      "549": -0.49293801188468933,
      "550": 0.69071364402771,
      "551": 2.249910831451416,
      "552": -0.02759147807955742,
      "553": -1.6413756608963013,
      "554": 0.723756730556488,
      "555": -0.22168658673763275,
      "556": -0.7805960178375244,
      "557": -1.2596588134765625,
      "558": 0.8311907649040222,
      "559": -0.30389779806137085,
      "560": 1.0027878284454346,
      "561": 0.9587390422821045,
      "562": -1.9532569646835327,
      "563": 0.9674778580665588,
      "564": -0.8682456016540527,
      "565": 0.1435975730419159,
      "566": -2.27066969871521,
      "567": 1.5763630867004395,
      "568": -0.21806780993938446,
      "569": -0.9356805682182312,
      "570": 0.141449436545372,
      "571": -0.5258152484893799,
      "572": -1.4780561923980713,
      "573": 1.1419720649719238,
      "574": -1.0003892183303833,
      "575": 1.5941218137741089,
      "576": -1.3058149814605713,
      "577": 0.8150765895843506,
      "578": 3.238557815551758,
      "579": -0.9843853116035461,
      "580": -0.2577557861804962,
      "581": 0.23925019800662994,
      "582": -0.9571312069892883,
      "583": -0.3455449938774109,
      "584": -1.3402653932571411,
      "585": 1.056982159614563,
      "586": 1.1166080236434937,
      "587": -0.3614049553871155,
      "588": 0.05551641806960106,
      "589": -0.5084130764007568,
      "590": -0.7897013425827026,
      "591": -1.8895472288131714,
      "592": 0.4833641052246094,
      "593": 1.0589686632156372,
      "594": 0.6614000797271729,
      "595": -0.39811572432518005,
      "596": -1.2326059341430664,
      "597": -0.3957836925983429,
      "598": -0.8583469986915588,
      "599": 0.22721122205257416,
      "600": 0.987824022769928,
      "601": -2.400641441345215,
      "602": -0.8296306729316711,
      "603": 0.22838354110717773,
      "604": 1.2308595180511475,
      "605": -1.8075827360153198,
      "606": 0.008492302149534225,
      "607": -0.5863056182861328,
      "608": -1.313936471939087,
      "609": 2.6068222522735596,
      "610": -0.43334999680519104,
      "611": -0.16243195533752441,
      "612": -0.17638348042964935,
      "613": -0.6017507910728455,
      "614": 0.2119726985692978,
      "615": 1.7337050437927246,
      "616": -0.5944216251373291,
      "617": 0.5615644454956055,
      "618": 0.49335870146751404,
      "619": -2.3371059894561768,
      "620": -0.3915300667285919,
      "621": -0.36900362372398376,
      "622": -1.490546464920044,
      "623": 0.27252325415611267,
      "624": 0.7064432501792908,
      "625": 1.7052003145217896,
      "626": 1.3831729888916016,
      "627": -0.6288395524024963,
      "628": 0.8989104628562927,
      "629": -0.23758339881896973,
      "630": 0.8489179611206055,
      "631": -1.5634115934371948,
      "632": 0.09695672243833542,
      "633": -0.600466251373291,
      "634": -0.003844623686745763,
      "635": 0.431558221578598,
      "636": -0.32762864232063293,
      "637": 1.1581834554672241,
      "638": -0.5956637263298035,
      "639": 0.6353186964988708,
      "640": -0.3547583222389221,
      "641": -1.6084412336349487,
      "642": 2.3355979919433594,
      "643": -1.0531597137451172,
      "644": 0.422598659992218,
      "645": 0.3528255820274353,
      "646": -0.34649890661239624,
      "647": -0.9246737360954285,
      "648": -0.6546325087547302,
      "649": 0.7277504205703735,
      "650": -1.0183308124542236,
      "651": 1.004686951637268,
      "652": -1.229613184928894,
      "653": -1.059340476989746,
      "654": 0.520814836025238,
      "655": 0.18539629876613617,
      "656": 0.44942936301231384,
      "657": 0.8507220149040222,
      "658": 0.2704300880432129,
      "659": 0.32371702790260315,
      "660": -0.8126103281974792,
      "661": 0.18091486394405365,
      "662": 0.7958850860595703,
      "663": -0.5167897939682007,
      "664": 0.9865022897720337,
      "665": 0.6820072531700134,
      "666": -0.29372459650039673,
      "667": 0.4729997515678406,
      "668": 4.203606128692627,
      "669": -1.126541018486023,
      "670": 1.4217092990875244,
      "671": -0.34402722120285034,
      "672": 2.0815935134887695,
      "673": -1.2233017683029175,
      "674": 0.23009556531906128,
      "675": -3.8023555278778076,
      "676": 1.9828749895095825,
      "677": 1.0178020000457764,
      "678": 1.1629581451416016,
      "679": -0.7192434072494507,
      "680": -0.22145825624465942,
      "681": -0.41067206859588623,
      "682": -2.469064950942993,
      "683": -0.9264526963233948,
      "684": -1.9948480129241943,
      "685": -0.8501865267753601,
      "686": 2.208425521850586,
      "687": -1.0390238761901855,
      "688": 1.016584873199463,
      "689": 0.6314917206764221,
      "690": -1.827902913093567,
      "691": -0.5745636820793152,
      "692": 1.9455714225769043,
      "693": -1.0047130584716797,
      "694": -0.8002334833145142,
      "695": 0.7769423127174377,
      "696": 0.6065043210983276,
      "697": 0.28169044852256775,
      "698": -0.604952335357666,
      "699": -3.8426380157470703,
      "700": -1.818486213684082,
      "701": 0.10754599422216415,
      "702": 1.5235004425048828,
      "703": 0.07494059205055237,
      "704": 1.426947832107544,
      "705": 1.8059823513031006,
      "706": 1.1378579139709473,
      "707": 2.618396520614624,
      "708": 0.8484889268875122,
      "709": 1.101471185684204,
      "710": 1.7723764181137085,
      "711": 1.1894810199737549,
      "712": -1.7290642261505127,
      "713": 0.6975972056388855,
      "714": 1.583744764328003,
      "715": -0.6353268623352051,
      "716": -0.636202335357666,
      "717": 2.9030776023864746,
      "718": 0.1313353180885315,
      "719": -3.213306427001953,
      "720": 3.2201812267303467,
      "721": 1.447646975517273,
      "722": -1.3587747812271118,
      "723": -1.697969913482666,
      "724": -1.3912029266357422,
      "725": -3.1245768070220947,
      "726": 2.230010986328125,
      "727": -2.000655174255371,
      "728": 1.398498296737671,
      "729": -2.046574115753174,
      "730": -1.0031622648239136,
      "731": 1.9960652589797974,
      "732": 1.9794962406158447,
      "733": 2.400118112564087,
      "734": 1.8469558954238892,
      "735": -2.0082530975341797,
      "736": 0.9944931864738464,
      "737": 1.5644117593765259,
      "738": -2.1821067333221436,
      "739": 3.17401385307312,
      "740": -0.45996639132499695,
      "741": 1.7255643606185913,
      "742": 3.2512707710266113,
      "743": -0.5063508749008179,
      "744": -0.12198419123888016,
      "745": 1.3502033948898315,
      "746": -0.6852136850357056,
      "747": 0.5199479460716248,
      "748": -2.6352970600128174,
      "749": -1.2827401161193848,
      "750": 1.4665253162384033,
      "751": 0.9163689017295837,
      "752": 1.7255061864852905,
      "753": -0.5393422245979309,
      "754": 1.2057050466537476,
      "755": -0.9123071432113647,
      "756": 1.5444414615631104,
      "757": -0.5391824245452881,
      "758": 0.9985212683677673,
      "759": 0.8290968537330627,
      "760": -3.1489574909210205,
      "761": -0.9891780018806458,
      "762": 0.6353647708892822,
      "763": -0.39983606338500977,
      "764": 1.4138703346252441,
      "765": 0.7778181433677673,
      "766": 0.07440777122974396,
      "767": 1.6659319400787354,
      "768": -0.4528370201587677,
      "769": 0.7914031147956848,
      "770": 0.7431752681732178,
      "771": 0.9319407343864441,
      "772": -1.9980928897857666,
      "773": -0.779157280921936,
      "774": -0.8897008895874023,
      "775": 1.0534837245941162,
      "776": 0.9773096442222595,
      "777": 0.5876820683479309,
      "778": 0.9077960848808289,
      "779": 1.0621148347854614,
      "780": 0.5598071813583374,
      "781": 0.13158394396305084,
      "782": -2.2119388580322266,
      "783": 2.6451992988586426,
      "784": 1.4134495258331299,
      "785": 0.9764236807823181,
      "786": 1.6067663431167603,
      "787": -1.1935899257659912,
      "788": -0.8504183292388916,
      "789": 1.727067232131958,
      "790": 0.14372782409191132,
      "791": -2.5876901149749756,
      "792": -0.2020072042942047,
      "793": 0.879025936126709,
      "794": -2.5208775997161865,
      "795": -0.6110550165176392,
      "796": 1.0545512437820435,
      "797": -0.17103607952594757,
      "798": 0.23836545646190643,
      "799": 1.3605009317398071,
      "800": 0.35689523816108704,
      "801": 1.0491513013839722,
      "802": -1.0867295265197754,
      "803": 0.7243777513504028,
      "804": 1.445502519607544,
      "805": 0.733812153339386,
      "806": 0.2485344558954239,
      "807": -1.2531119585037231,
      "808": 1.0908496379852295,
      "809": 0.4861730635166168,
      "810": -0.20564749836921692,
      "811": -0.09081430733203888,
      "812": -0.7605732083320618,
      "813": 0.3314138352870941,
      "814": 0.026052923873066902,
      "815": 0.9015676975250244,
      "816": -0.057765088975429535,
      "817": -0.0044946735724806786,
      "818": 0.7125048041343689,
      "819": 2.434633731842041,
      "820": -0.316604346036911,
      "821": 0.22383302450180054,
      "822": -0.07668184489011765,
      "823": -0.2693021595478058,
      "824": 0.4800267517566681,
      "825": 0.2501227557659149,
      "826": 0.7478343844413757,
      "827": -1.2454334497451782,
      "828": -0.0965222418308258,
      "829": -1.784718632698059,
      "830": 1.548062801361084,
      "831": 0.5264387130737305,
      "832": -0.18863585591316223,
      "833": 0.06907566636800766,
      "834": -0.3581138551235199,
      "835": 0.61330246925354,
      "836": 2.916597604751587,
      "837": -0.6707083582878113,
      "838": -2.380331039428711,
      "839": -0.33359116315841675,
      "840": -1.2710702419281006,
      "841": -2.11474609375,
      "842": 0.15145930647850037,
      "843": 0.8212929964065552,
      "844": 1.6972832679748535,
      "845": -1.3112117052078247,
      "846": -0.005472069140523672,
      "847": -0.36757490038871765,
      "848": 0.6580420136451721,
      "849": 0.6092417240142822,
      "850": -1.7781658172607422,
      "851": 0.03189029172062874,
      "852": 0.32183703780174255,
      "853": -0.8545451760292053,
      "854": 1.2581480741500854,
      "855": 1.204534649848938,
      "856": -3.598738670349121,
      "857": 1.117735743522644,
      "858": -0.7652294039726257,
      "859": -0.025595668703317642,
      "860": -1.6894993782043457,
      "861": -0.03972518816590309,
      "862": 0.536507248878479,
      "863": 0.5662291646003723,
      "864": -1.607258915901184,
      "865": -1.3259773254394531,
      "866": -0.5973386764526367,
      "867": 2.081726312637329,
      "868": 0.5273719429969788,
      "869": 0.12503385543823242,
      "870": -0.1771738976240158,
      "871": -0.6324694156646729,
      "872": 0.6164858937263489,
      "873": -0.6320694088935852,
      "874": -0.4300577938556671,
      "875": 2.7222836017608643,
      "876": -0.2833336591720581,
      "877": -1.6735130548477173,
      "878": 0.7125577330589294,
      "879": -0.40136268734931946,
      "880": -0.7178277373313904,
      "881": 0.9181544184684753,
      "882": 0.7013552188873291,
      "883": -1.350567102432251,
      "884": -3.2918925285339355,
      "885": 1.2564538717269897,
      "886": 0.42612001299858093,
      "887": 1.1085313558578491,
      "888": 2.7596383094787598,
      "889": 1.9643054008483887,
      "890": -0.8847816586494446,
      "891": 3.5869407653808594,
      "892": -1.9407790899276733,
      "893": -1.331775426864624,
      "894": 0.023510107770562172,
      "895": 0.22205741703510284,
      "896": -0.09248723834753036,
      "897": 0.205057755112648,
      "898": 0.4055364727973938,
      "899": -0.29932913184165955,
      "900": 0.0892534926533699,
      "901": -0.9837433099746704,
      "902": -0.9975379109382629,
      "903": 1.7535758018493652,
      "904": 1.9029371738433838,
      "905": -0.3451109826564789,
      "906": -0.5922642946243286,
      "907": 0.2194187194108963,
      "908": 0.07306011021137238,
      "909": -0.43946200609207153,
      "910": 0.08759887516498566,
      "911": 0.7679855227470398,
      "912": 0.9998645186424255,
      "913": 0.4199797809123993,
      "914": 0.2906818687915802,
      "915": 0.349212646484375,
      "916": 1.7254762649536133,
      "917": 1.6290476322174072,
      "918": -0.1971781849861145,
      "919": -0.980069637298584,
      "920": -0.1705673635005951,
      "921": -0.17888282239437103,
      "922": -2.0711236000061035,
      "923": 0.6372156739234924,
      "924": 0.045424286276102066,
      "925": -0.20840126276016235,
      "926": -0.1710202693939209,
      "927": -0.3936547040939331,
      "928": -2.6337993144989014,
      "929": 0.21549968421459198,
      "930": 1.0115224123001099,
      "931": 0.8826303482055664,
      "932": -0.2697182297706604,
      "933": -0.6357400417327881,
      "934": -1.297986388206482,
      "935": -2.561707019805908,
      "936": 0.7326897382736206,
      "937": 0.4624984860420227,
      "938": 0.37763285636901855,
      "939": 0.51471346616745,
      "940": -0.09701140224933624,
      "941": 0.877834141254425,
      "942": 0.42850902676582336,
      "943": -0.19854377210140228,
      "944": 1.5182557106018066,
      "945": 0.7701054215431213,
      "946": 1.3865143060684204,
      "947": 1.3180497884750366,
      "948": -2.516777276992798,
      "949": -0.5048881769180298,
      "950": 0.957175076007843,
      "951": -0.049952730536460876,
      "952": -0.6001991629600525,
      "953": -1.4285062551498413,
      "954": 3.492264747619629,
      "955": -0.6830778121948242,
      "956": -0.42705509066581726,
      "957": 0.7370744347572327,
      "958": 1.7844809293746948,
      "959": 0.6836403012275696,
      "960": 1.548061728477478,
      "961": -1.1437312364578247,
      "962": -0.9558112621307373,
      "963": 0.570828914642334,
      "964": 0.11790016293525696,
      "965": -0.9349184632301331,
      "966": 0.3062109649181366,
      "967": -0.39142656326293945,
      "968": 0.7088675498962402,
      "969": -2.8182456493377686,
      "970": -0.2960951626300812,
      "971": 3.259816884994507,
      "972": 0.6444000005722046,
      "973": 1.63042151927948,
      "974": 0.6074811220169067,
      "975": -0.6444514989852905,
      "976": -1.3450005054473877,
      "977": 0.607271134853363,
      "978": 0.5615707039833069,
      "979": -2.7154715061187744,
      "980": -0.6825196743011475,
      "981": -2.0392704010009766,
      "982": -0.8287547826766968,
      "983": 0.4548048973083496,
      "984": 1.6602904796600342,
      "985": -1.0412168502807617,
      "986": 0.19936220347881317,
      "987": 1.317426085472107,
      "988": 0.8004065155982971,
      "989": -0.10435745120048523,
      "990": 0.4587639272212982,
      "991": 1.8314236402511597,
      "992": 1.761820912361145,
      "993": 1.6510869264602661,
      "994": -0.0778285562992096,
      "995": -2.5312650203704834,
      "996": -0.5379169583320618,
      "997": 1.4558485746383667,
      "998": -1.1729685068130493,
      "999": 0.5555914044380188,
      "1000": -0.5937339663505554,
      "1001": 1.7590707540512085,
      "1002": 0.6669426560401917,
      "1003": 1.3119069337844849,
      "1004": 0.4640921652317047,
      "1005": 0.8646324276924133,
      "1006": -0.8449486494064331,
      "1007": -0.9454455971717834,
      "1008": -3.0775628089904785,
      "1009": 0.14384600520133972,
      "1010": -0.4668503403663635,
      "1011": 0.41982877254486084,
      "1012": 0.68146812915802,
      "1013": -0.11861483752727509,
      "1014": -0.39137157797813416,
      "1015": -0.47221827507019043,
      "1016": -0.33947956562042236,
      "1017": -0.35876044631004333,
      "1018": 1.073505163192749,
      "1019": 0.27764132618904114,
      "1020": 0.32045894861221313,
      "1021": 0.35271844267845154,
      "1022": 0.04255152866244316,
      "1023": -0.252241313457489,
      "1024": 0.1858118772506714,
      "1025": 0.14389507472515106,
      "1026": -1.3234143257141113,
      "1027": -1.3519643545150757,
      "1028": -0.8213068246841431,
      "1029": -2.8235068321228027,
      "1030": -1.696824312210083,
      "1031": 2.351107597351074,
      "1032": -2.4550952911376953,
      "1033": -0.05132457613945007,
      "1034": -0.281067430973053,
      "1035": 1.0136672258377075,
      "1036": 0.3660191595554352,
      "1037": 0.29437369108200073,
      "1038": -0.35847797989845276,
      "1039": 0.48105767369270325,
      "1040": -0.023408645763993263,
      "1041": -2.0862560272216797,
      "1042": -0.5103744864463806,
      "1043": 0.5912294387817383,
      "1044": -2.2953603267669678,
      "1045": -1.4227831363677979,
      "1046": 0.7680840492248535,
      "1047": 0.7477383017539978,
      "1048": -1.6462223529815674,
      "1049": -1.572155237197876,
      "1050": 1.3104603290557861,
      "1051": -1.478039264678955,
      "1052": -0.6240077018737793,
      "1053": 0.7899361848831177,
      "1054": 0.888927698135376,
      "1055": 4.386497497558594,
      "1056": 0.8861218690872192,
      "1057": -0.49469834566116333,
      "1058": -1.3797553777694702,
      "1059": 1.3713507652282715,
      "1060": -0.6207674741744995,
      "1061": 0.21082398295402527,
      "1062": -3.9282636642456055,
      "1063": 1.6767501831054688,
      "1064": 0.32161056995391846,
      "1065": 0.3283953070640564,
      "1066": -0.47325626015663147,
      "1067": -1.2522644996643066,
      "1068": -0.11633960157632828,
      "1069": -0.6979245543479919,
      "1070": -0.6448496580123901,
      "1071": -1.0593165159225464,
      "1072": -1.255313515663147,
      "1073": -0.6812609434127808,
      "1074": 2.2635908126831055,
      "1075": 2.0326287746429443,
      "1076": -1.2289620637893677,
      "1077": 1.0270427465438843,
      "1078": -1.4768377542495728,
      "1079": 3.0009472370147705,
      "1080": -4.194614887237549,
      "1081": 1.1344484090805054,
      "1082": 3.541898012161255,
      "1083": 2.5776753425598145,
      "1084": 1.7272475957870483,
      "1085": -3.0859556198120117,
      "1086": 0.17869451642036438,
      "1087": 3.947772979736328,
      "1088": -1.793742299079895,
      "1089": 0.1479969620704651,
      "1090": 0.8407524824142456,
      "1091": -1.5620313882827759,
      "1092": -2.21186900138855,
      "1093": -0.5903441905975342,
      "1094": 2.520413398742676,
      "1095": -2.4312515258789062,
      "1096": 2.4775424003601074,
      "1097": 0.4013979732990265,
      "1098": -2.8357644081115723,
      "1099": -2.5324838161468506,
      "1100": -3.6591827869415283,
      "1101": 2.3557353019714355,
      "1102": 1.0318677425384521,
      "1103": -1.5915372371673584,
      "1104": -2.4344916343688965,
      "1105": -2.0680179595947266,
      "1106": -3.0089125633239746,
      "1107": 3.340615749359131,
      "1108": 2.324263095855713,
      "1109": -1.7376238107681274,
      "1110": 3.850878953933716,
      "1111": -3.8069117069244385,
      "1112": 2.543771743774414,
      "1113": 3.180021286010742,
      "1114": -2.497559070587158,
      "1115": 1.000443696975708,
      "1116": -4.39028263092041,
      "1117": 2.4812092781066895,
      "1118": 0.7264127135276794,
      "1119": -0.5387464761734009,
      "1120": -2.4910717010498047,
      "1121": 1.4996812343597412,
      "1122": 1.4792689085006714,
      "1123": 2.723259925842285,
      "1124": 2.4617910385131836,
      "1125": -1.3722485303878784,
      "1126": 3.2554969787597656,
      "1127": -4.900784969329834,
      "1128": -1.925689935684204,
      "1129": 3.7795321941375732,
      "1130": -0.1532282680273056,
      "1131": 4.722577095031738,
      "1132": 1.8305310010910034,
      "1133": 3.3849706649780273,
      "1134": 0.835726797580719,
      "1135": -2.220146894454956,
      "1136": -3.9693784713745117,
      "1137": -1.7651416063308716,
      "1138": -0.987522304058075,
      "1139": 0.5771219730377197,
      "1140": 1.8364006280899048,
      "1141": -1.8292346000671387,
      "1142": 1.3013719320297241,
      "1143": -0.43123552203178406,
      "1144": 3.1557366847991943,
      "1145": -1.7167518138885498,
      "1146": -3.120361328125,
      "1147": -3.1552059650421143,
      "1148": 2.7154531478881836,
      "1149": 1.4457242488861084,
      "1150": 1.8708775043487549,
      "1151": -2.1497652530670166,
      "1152": -1.7629629373550415,
      "1153": -3.92495059967041,
      "1154": 0.5274526476860046,
      "1155": 0.21094459295272827,
      "1156": -1.4727671146392822,
      "1157": -0.338693767786026,
      "1158": 1.5848519802093506,
      "1159": 2.484079122543335,
      "1160": 0.021666022017598152,
      "1161": -1.1296981573104858,
      "1162": 0.6987795829772949,
      "1163": 0.9193943738937378,
      "1164": -1.0005426406860352,
      "1165": 0.8740869760513306,
      "1166": 2.561392307281494,
      "1167": -1.235611915588379,
      "1168": -0.3341423571109772,
      "1169": -2.736285448074341,
      "1170": -2.4211208820343018,
      "1171": -0.007791394367814064,
      "1172": -1.4025944471359253,
      "1173": -1.8404000997543335,
      "1174": -2.6917519569396973,
      "1175": -1.9786659479141235,
      "1176": 0.4367848336696625,
      "1177": 1.006013035774231,
      "1178": 4.351900577545166,
      "1179": -0.6098372936248779,
      "1180": 2.122328281402588,
      "1181": -4.999445915222168,
      "1182": -3.6832854747772217,
      "1183": 3.6634585857391357,
      "1184": -3.4860448837280273,
      "1185": -2.759155511856079,
      "1186": 4.9179229736328125,
      "1187": -4.517067909240723,
      "1188": -3.8325088024139404,
      "1189": -3.659621238708496,
      "1190": 3.422564744949341,
      "1191": 0.7313225865364075,
      "1192": -1.2852004766464233,
      "1193": -0.6991233825683594,
      "1194": -4.507615566253662,
      "1195": 2.776115655899048,
      "1196": 2.4096286296844482,
      "1197": -0.7489420771598816,
      "1198": -1.0533291101455688,
      "1199": -2.0089118480682373,
      "1200": -4.881937503814697,
      "1201": 1.0082011222839355,
      "1202": 0.6045483946800232,
      "1203": 0.12579821050167084,
      "1204": 2.1621944904327393,
      "1205": 0.19069962203502655,
      "1206": -2.6571834087371826,
      "1207": 3.004880428314209,
      "1208": -3.1391987800598145,
      "1209": -2.085284471511841,
      "1210": 3.8218955993652344,
      "1211": -3.447803497314453,
      "1212": 1.5917387008666992,
      "1213": 1.441109299659729,
      "1214": 2.8824808597564697,
      "1215": -2.07370924949646,
      "1216": 1.7695610523223877,
      "1217": 1.4880638122558594,
      "1218": -0.6573660373687744,
      "1219": -4.886775970458984,
      "1220": -2.3968889713287354,
      "1221": 1.2213997840881348,
      "1222": 1.4871900081634521,
      "1223": 1.7957401275634766,
      "1224": 4.66864013671875,
      "1225": 0.9049708247184753,
      "1226": 0.36460646986961365,
      "1227": 1.8957648277282715,
      "1228": -1.4934455156326294,
      "1229": -0.11153306066989899,
      "1230": 2.4747531414031982,
      "1231": 0.8537523746490479,
      "1232": 2.148545265197754,
      "1233": 1.8571767807006836,
      "1234": 3.912548065185547,
      "1235": -3.123385190963745,
      "1236": -2.7292490005493164,
      "1237": 3.061028480529785,
      "1238": 1.0637489557266235,
      "1239": -1.9589293003082275,
      "1240": -3.4502813816070557,
      "1241": -0.1920700967311859,
      "1242": 1.8890384435653687,
      "1243": -0.06563231348991394,
      "1244": -4.645583629608154,
      "1245": -0.07136806845664978,
      "1246": -2.4384846687316895,
      "1247": -0.3353588283061981,
      "1248": 0.9778276681900024,
      "1249": 4.920528888702393,
      "1250": 3.411762237548828,
      "1251": 3.1147398948669434,
      "1252": -0.47842979431152344,
      "1253": -0.9632599949836731,
      "1254": 3.8030426502227783,
      "1255": -1.9482587575912476,
      "1256": 2.675299882888794,
      "1257": -1.1007741689682007,
      "1258": 1.3645172119140625,
      "1259": 6.053924560546875,
      "1260": 2.057682991027832,
      "1261": 1.8233721256256104,
      "1262": -3.08451247215271,
      "1263": 0.3246577978134155,
      "1264": -1.979055404663086,
      "1265": -1.8242051601409912,
      "1266": -0.8461140394210815,
      "1267": 0.6569899320602417,
      "1268": 0.2328188568353653,
      "1269": -4.719144821166992,
      "1270": 0.35947221517562866,
      "1271": -1.2471189498901367,
      "1272": -1.7759112119674683,
      "1273": -2.086904287338257,
      "1274": -4.458738803863525,
      "1275": -6.227933406829834,
      "1276": 1.0016528367996216,
      "1277": 1.7594672441482544,
      "1278": 0.27644169330596924,
      "1279": -2.780271053314209,
      "1280": 1.6617344617843628,
      "1281": -4.353594779968262,
      "1282": 1.7095191478729248,
      "1283": 1.183504581451416,
      "1284": -12.721911430358887,
      "1285": -3.0706093311309814,
      "1286": -3.0585179328918457,
      "1287": 2.9398539066314697,
      "1288": 7.542172431945801,
      "1289": 0.7700828909873962,
      "1290": 1.5423858165740967,
      "1291": -3.6956417560577393,
      "1292": 3.5975635051727295,
      "1293": 3.7248616218566895,
      "1294": 4.438610553741455,
      "1295": -7.87682580947876,
      "1296": -1.053124189376831,
      "1297": 1.490323543548584,
      "1298": 1.9367763996124268,
      "1299": -2.8615775108337402,
      "1300": -4.043361186981201,
      "1301": -1.0302166938781738,
      "1302": -1.3166590929031372,
      "1303": -5.6617751121521,
      "1304": 2.0326340198516846,
      "1305": -4.608417987823486,
      "1306": -1.4119359254837036,
      "1307": -3.0845751762390137,
      "1308": 5.955778121948242,
      "1309": 1.0965031385421753,
      "1310": 3.8834989070892334,
      "1311": 3.7416584491729736,
      "1312": -2.808300256729126,
      "1313": -1.8665119409561157,
      "1314": -2.099592924118042,
      "1315": 2.1607303619384766,
      "1316": -2.0253403186798096,
      "1317": 1.8328903913497925,
      "1318": -6.222546577453613,
      "1319": 3.460636854171753,
      "1320": -2.9295637607574463,
      "1321": 1.8549741506576538,
      "1322": -2.5949413776397705,
      "1323": -2.5444815158843994,
      "1324": 3.726977825164795,
      "1325": 0.2155458629131317,
      "1326": -0.06545869261026382,
      "1327": 2.924788475036621,
      "1328": -2.760464906692505,
      "1329": -2.5508737564086914,
      "1330": 1.2516885995864868,
      "1331": -3.0633156299591064,
      "1332": 2.0089547634124756,
      "1333": -1.1826435327529907,
      "1334": 1.3721266984939575,
      "1335": -3.3825693130493164,
      "1336": 1.1037670373916626,
      "1337": -0.644018292427063,
      "1338": 4.807818412780762,
      "1339": -3.3611373901367188,
      "1340": -2.824968099594116,
      "1341": 0.33022499084472656,
      "1342": -5.3608622550964355,
      "1343": -3.9070208072662354,
      "1344": -3.0441055297851562,
      "1345": 0.5963461399078369,
      "1346": 3.538388729095459,
      "1347": -4.079184055328369,
      "1348": -1.8713570833206177,
      "1349": -2.2469253540039062,
      "1350": -3.0308878421783447,
      "1351": 1.8190351724624634,
      "1352": 3.2238574028015137,
      "1353": -0.5451419949531555,
      "1354": -0.5803130865097046,
      "1355": 3.6507859230041504,
      "1356": 0.2008315622806549,
      "1357": -1.2605270147323608,
      "1358": -1.5146663188934326,
      "1359": -0.09800940006971359,
      "1360": -0.44275379180908203,
      "1361": -1.9024031162261963,
      "1362": 0.4320766031742096,
      "1363": -1.8236033916473389,
      "1364": -3.2353858947753906,
      "1365": 4.364024639129639,
      "1366": -2.9485697746276855,
      "1367": -2.3586549758911133,
      "1368": -2.094724416732788,
      "1369": 0.36580294370651245,
      "1370": 3.029855728149414,
      "1371": 1.7110553979873657,
      "1372": -3.842090368270874,
      "1373": -1.1152211427688599,
      "1374": 1.1237059831619263,
      "1375": -2.457845687866211,
      "1376": 2.954718828201294,
      "1377": -7.1753997802734375,
      "1378": 1.1313153505325317,
      "1379": -5.515463352203369,
      "1380": 1.97066330909729,
      "1381": -2.446708917617798,
      "1382": 4.493730545043945,
      "1383": -0.48099133372306824,
      "1384": -1.1677428483963013,
      "1385": -0.23156681656837463,
      "1386": 5.553862571716309,
      "1387": 4.979920864105225,
      "1388": 1.1167930364608765,
      "1389": 3.2510476112365723,
      "1390": 0.44309359788894653,
      "1391": 3.6719582080841064,
      "1392": 2.0935258865356445,
      "1393": -2.349632978439331,
      "1394": -2.953840732574463,
      "1395": 2.707892656326294,
      "1396": 1.804767370223999,
      "1397": -2.5487630367279053,
      "1398": -2.775624990463257,
      "1399": -2.2012827396392822,
      "1400": -1.1613463163375854,
      "1401": 6.154069900512695,
      "1402": 2.351701021194458,
      "1403": 1.0781965255737305,
      "1404": 6.616088390350342,
      "1405": 1.7892627716064453,
      "1406": -3.951896905899048,
      "1407": 0.214112788438797,
      "1408": 1.3471019268035889,
      "1409": -4.468069076538086,
      "1410": 1.195247769355774,
      "1411": 4.338007926940918,
      "1412": 1.427254319190979,
      "1413": 2.861253499984741,
      "1414": 1.5040082931518555,
      "1415": 1.7779107093811035,
      "1416": -2.418822765350342,
      "1417": -0.6861755847930908,
      "1418": -2.6012794971466064,
      "1419": 1.701745867729187,
      "1420": -2.737683057785034,
      "1421": 4.009978294372559,
      "1422": 1.0542762279510498,
      "1423": -1.7616876363754272,
      "1424": 2.237837314605713,
      "1425": -0.30721500515937805,
      "1426": 2.498319149017334,
      "1427": -2.0665743350982666,
      "1428": -2.5951342582702637,
      "1429": -2.2542991638183594,
      "1430": 2.562833547592163,
      "1431": 2.2917847633361816,
      "1432": -1.6176550388336182,
      "1433": -2.48822283744812,
      "1434": -1.8985515832901,
      "1435": -3.1770195960998535,
      "1436": 0.2136935144662857,
      "1437": 1.7020223140716553,
      "1438": -2.462465524673462,
      "1439": 3.45297908782959,
      "1440": -1.9806439876556396,
      "1441": 1.3338477611541748,
      "1442": 1.7123162746429443,
      "1443": -2.4473462104797363,
      "1444": 0.5388959050178528,
      "1445": 2.042551279067993,
      "1446": 2.1983537673950195,
      "1447": 0.9354493618011475,
      "1448": -2.8632872104644775,
      "1449": -0.7959704399108887,
      "1450": -0.2182331681251526,
      "1451": -1.5904362201690674,
      "1452": -1.5590795278549194,
      "1453": 1.329105257987976,
      "1454": -2.5285706520080566,
      "1455": 2.3338215351104736,
      "1456": -2.6111631393432617,
      "1457": 2.1812117099761963,
      "1458": -1.274641513824463,
      "1459": 3.6287097930908203,
      "1460": -0.19924303889274597,
      "1461": -1.147951364517212,
      "1462": -1.5912630558013916,
      "1463": -3.365110397338867,
      "1464": -3.6824469566345215,
      "1465": 2.2305636405944824,
      "1466": 0.3401475250720978,
      "1467": -1.5076040029525757,
      "1468": 2.870307207107544,
      "1469": 2.64467191696167,
      "1470": 0.3509722650051117,
      "1471": -1.8885517120361328,
      "1472": 3.6035032272338867,
      "1473": -2.8676435947418213,
      "1474": -3.7643797397613525,
      "1475": -3.7171502113342285,
      "1476": -5.371562480926514,
      "1477": -0.8850774168968201,
      "1478": 0.9669229984283447,
      "1479": -3.116306781768799,
      "1480": -3.430206537246704,
      "1481": -4.895768642425537,
      "1482": -2.17032527923584,
      "1483": 2.637366533279419,
      "1484": 3.929265260696411,
      "1485": 4.368781566619873,
      "1486": 5.304937362670898,
      "1487": -0.5330433249473572,
      "1488": -1.0285104513168335,
      "1489": 3.785128355026245,
      "1490": -5.14139986038208,
      "1491": 0.2931878864765167,
      "1492": 3.5148680210113525,
      "1493": -0.026868287473917007,
      "1494": 1.8987921476364136,
      "1495": 1.0117950439453125,
      "1496": 0.5946021676063538,
      "1497": -1.9612295627593994,
      "1498": 1.8855639696121216,
      "1499": 0.008566902950406075,
      "1500": -2.2461860179901123,
      "1501": -4.472910404205322,
      "1502": 0.24036170542240143,
      "1503": -0.3515210449695587,
      "1504": 5.747084140777588,
      "1505": -2.479041337966919,
      "1506": 4.5047197341918945,
      "1507": -1.4635297060012817,
      "1508": 3.437575101852417,
      "1509": 0.17740674316883087,
      "1510": -3.508164644241333,
      "1511": 0.8921616077423096,
      "1512": -1.0575802326202393,
      "1513": 5.203469276428223,
      "1514": -2.130183458328247,
      "1515": -0.22225727140903473,
      "1516": 2.5104153156280518,
      "1517": -0.1919097602367401,
      "1518": 2.2783117294311523,
      "1519": 2.441053628921509,
      "1520": -1.3703525066375732,
      "1521": 0.2565520107746124,
      "1522": -3.1837151050567627,
      "1523": -0.8788794875144958,
      "1524": -2.379321336746216,
      "1525": -2.506699323654175,
      "1526": -4.752580642700195,
      "1527": 1.7870914936065674,
      "1528": 1.1218822002410889,
      "1529": 2.7435290813446045,
      "1530": 2.732837200164795,
      "1531": 1.8308824300765991,
      "1532": 1.1971094608306885,
      "1533": 3.434386968612671,
      "1534": -7.035210609436035,
      "1535": 1.6601587533950806,
      "1536": 1.5470061302185059,
      "1537": -1.1379221677780151,
      "1538": 0.17747639119625092,
      "1539": -0.0395110659301281,
      "1540": 0.7043455243110657,
      "1541": 0.8504696488380432,
      "1542": -0.030195290222764015,
      "1543": -3.2802188396453857,
      "1544": -4.03566312789917,
      "1545": -0.09318691492080688,
      "1546": -0.6382210850715637,
      "1547": -3.662295341491699,
      "1548": 1.4799162149429321,
      "1549": 2.5192830562591553,
      "1550": 1.8547619581222534,
      "1551": 2.052851438522339,
      "1552": 1.4697884321212769,
      "1553": 2.780059576034546,
      "1554": 2.1348655223846436,
      "1555": 1.9572386741638184,
      "1556": 2.6111037731170654,
      "1557": 1.1141306161880493,
      "1558": -1.8716689348220825,
      "1559": -1.6418802738189697,
      "1560": 2.1013612747192383,
      "1561": -2.3904383182525635,
      "1562": 0.03864838182926178,
      "1563": 3.9699981212615967,
      "1564": -1.3653894662857056,
      "1565": -4.783714771270752,
      "1566": 1.8031165599822998,
      "1567": 2.2901053428649902,
      "1568": 0.4203675389289856,
      "1569": -1.4519611597061157,
      "1570": -2.2757740020751953,
      "1571": -0.11814681440591812,
      "1572": 1.1692150831222534,
      "1573": -1.7130852937698364,
      "1574": -0.9517726898193359,
      "1575": -1.2382017374038696,
      "1576": -0.7276288866996765,
      "1577": 2.6992719173431396,
      "1578": 1.6654881238937378,
      "1579": -1.2085301876068115,
      "1580": 1.2512247562408447,
      "1581": -3.550523042678833,
      "1582": 3.328505516052246,
      "1583": 2.0724711418151855,
      "1584": -1.0633915662765503,
      "1585": 2.6309592723846436,
      "1586": 1.4724680185317993,
      "1587": 2.339963912963867,
      "1588": 0.3361683189868927,
      "1589": -1.4877732992172241,
      "1590": -2.049351692199707,
      "1591": 1.0296754837036133,
      "1592": 0.0022288570180535316,
      "1593": 0.953890860080719,
      "1594": 1.862057089805603,
      "1595": -2.6438047885894775,
      "1596": 1.8353558778762817,
      "1597": -3.693643808364868,
      "1598": -4.794012069702148,
      "1599": -1.0215528011322021,
      "1600": -5.238696098327637,
      "1601": -1.463107943534851,
      "1602": -4.914758682250977,
      "1603": -1.4346685409545898,
      "1604": -2.6810336112976074,
      "1605": -0.6523570418357849,
      "1606": 5.525669097900391,
      "1607": 1.3673228025436401,
      "1608": -0.10021959990262985,
      "1609": 1.7433429956436157,
      "1610": -7.308938980102539,
      "1611": 0.6557404398918152,
      "1612": 2.631767749786377,
      "1613": -5.032259941101074,
      "1614": -0.6480053663253784,
      "1615": 2.1457736492156982,
      "1616": -0.6749409437179565,
      "1617": 0.5103903412818909,
      "1618": 1.4604862928390503,
      "1619": -1.373754858970642,
      "1620": 6.662398338317871,
      "1621": -0.7510201334953308,
      "1622": 0.692936360836029,
      "1623": 1.464860200881958,
      "1624": -4.899385452270508,
      "1625": -4.968716144561768,
      "1626": 0.5625535249710083,
      "1627": -0.6806434392929077,
      "1628": 7.4482622146606445,
      "1629": -5.423550128936768,
      "1630": -4.096460819244385,
      "1631": 1.5014407634735107,
      "1632": -3.8547632694244385,
      "1633": 0.22155560553073883,
      "1634": 0.12841634452342987,
      "1635": -5.188717842102051,
      "1636": 0.1680322289466858,
      "1637": 6.153868675231934,
      "1638": 1.3379504680633545,
      "1639": -0.5218766927719116,
      "1640": -0.5295583605766296,
      "1641": -0.7168845534324646,
      "1642": 0.28933486342430115,
      "1643": -2.51381778717041,
      "1644": -1.7546809911727905,
      "1645": -2.617119073867798,
      "1646": -3.0596656799316406,
      "1647": -2.8451194763183594,
      "1648": 0.3124772608280182,
      "1649": -3.360708236694336,
      "1650": -4.02923059463501,
      "1651": 2.254037857055664,
      "1652": 1.0768616199493408,
      "1653": 2.432344436645508,
      "1654": -0.1801207959651947,
      "1655": 0.8441517949104309,
      "1656": -3.9747893810272217,
      "1657": -3.662618398666382,
      "1658": 2.640608072280884,
      "1659": -3.638838529586792,
      "1660": -1.9477744102478027,
      "1661": -2.8018600940704346,
      "1662": 1.83053457736969,
      "1663": 1.186590313911438,
      "1664": -0.29039332270622253,
      "1665": -3.2109432220458984,
      "1666": -2.1095669269561768,
      "1667": 1.9062339067459106,
      "1668": -0.15401944518089294,
      "1669": 0.1450394243001938,
      "1670": -1.0623096227645874,
      "1671": -2.555792808532715,
      "1672": -2.0390639305114746,
      "1673": 3.103738784790039,
      "1674": -2.7822906970977783,
      "1675": 2.5860483646392822,
      "1676": -1.3793845176696777,
      "1677": -1.5309984683990479,
      "1678": 1.667749047279358,
      "1679": -2.3245673179626465,
      "1680": 1.4266265630722046,
      "1681": -2.6172425746917725,
      "1682": -2.273437976837158,
      "1683": 0.15020984411239624,
      "1684": 1.112221360206604,
      "1685": 3.0218346118927,
      "1686": 3.003152847290039,
      "1687": 5.381828308105469,
      "1688": -4.371957302093506,
      "1689": -1.5950253009796143,
      "1690": -1.525175929069519,
      "1691": 3.6196916103363037,
      "1692": 3.225843906402588,
      "1693": -0.9073778986930847,
      "1694": 0.9741362929344177,
      "1695": -1.2505567073822021,
      "1696": 2.1861042976379395,
      "1697": 0.27081945538520813,
      "1698": 1.3352324962615967,
      "1699": -0.28436279296875,
      "1700": -2.8737525939941406,
      "1701": -0.2184666097164154,
      "1702": 0.43402743339538574,
      "1703": -0.48066404461860657,
      "1704": 1.196195125579834,
      "1705": 0.359089195728302,
      "1706": 1.1929690837860107,
      "1707": 2.9220080375671387,
      "1708": -0.19649355113506317,
      "1709": 1.126422643661499,
      "1710": 0.43378305435180664,
      "1711": 0.10916100442409515,
      "1712": -0.16659730672836304,
      "1713": 0.3086269497871399,
      "1714": -0.485034704208374,
      "1715": -0.06365972757339478,
      "1716": 0.5977511405944824,
      "1717": 0.8631135821342468,
      "1718": -0.397258460521698,
      "1719": 1.724036693572998,
      "1720": -0.4010230004787445,
      "1721": 0.4042864739894867,
      "1722": -2.215860366821289,
      "1723": 0.545272171497345,
      "1724": 0.7807337641716003,
      "1725": 1.5653791427612305,
      "1726": 0.7093549370765686,
      "1727": -1.90935218334198,
      "1728": 0.7557979226112366,
      "1729": 2.630159854888916,
      "1730": -2.8422465324401855,
      "1731": -2.297741174697876,
      "1732": -2.9737610816955566,
      "1733": -0.4798397719860077,
      "1734": 0.3488878905773163,
      "1735": -0.1362168788909912,
      "1736": 2.049732208251953,
      "1737": 2.597726345062256,
      "1738": 2.3431994915008545,
      "1739": 2.0708200931549072,
      "1740": -1.666412115097046,
      "1741": -1.0547107458114624,
      "1742": 0.03980505093932152,
      "1743": 2.632817268371582,
      "1744": -3.0482985973358154,
      "1745": 2.496938705444336,
      "1746": 2.42182993888855,
      "1747": -1.5967689752578735,
      "1748": 4.263095378875732,
      "1749": -0.906586766242981,
      "1750": -0.7270622253417969,
      "1751": 2.692094326019287,
      "1752": 2.175278902053833,
      "1753": 2.9926326274871826,
      "1754": -4.142102241516113,
      "1755": -3.3909425735473633,
      "1756": 2.761800765991211,
      "1757": 0.6273263692855835,
      "1758": 0.7287746071815491,
      "1759": -1.4900916814804077,
      "1760": -0.6211028695106506,
      "1761": -0.30101868510246277,
      "1762": 2.1026413440704346,
      "1763": 2.142443895339966,
      "1764": -0.3240949213504791,
      "1765": -0.6867277026176453,
      "1766": -0.42386454343795776,
      "1767": 2.4311869144439697,
      "1768": -2.4918646812438965,
      "1769": -3.226024627685547,
      "1770": 3.0589351654052734,
      "1771": -1.567629337310791,
      "1772": 2.5415449142456055,
      "1773": 0.9925483465194702,
      "1774": -1.5471075773239136,
      "1775": 3.4719808101654053,
      "1776": -2.34787917137146,
      "1777": -3.593167304992676,
      "1778": -2.293463945388794,
      "1779": 3.4298574924468994,
      "1780": -0.7198192477226257,
      "1781": 1.2217907905578613,
      "1782": -0.5833076238632202,
      "1783": -1.4213207960128784,
      "1784": 3.528499126434326,
      "1785": 1.6702910661697388,
      "1786": -2.8589961528778076,
      "1787": 0.004316768143326044,
      "1788": -2.71386981010437,
      "1789": -0.3370807468891144,
      "1790": -1.6194500923156738,
      "1791": -2.01676082611084,
      "1792": 0.4856599271297455,
      "1793": 0.30432748794555664,
      "1794": -0.1621113270521164,
      "1795": -2.065358877182007,
      "1796": 0.19489116966724396,
      "1797": -0.3229186534881592,
      "1798": -2.524932622909546,
      "1799": 1.4567997455596924,
      "1800": 2.5786468982696533,
      "1801": -2.530216693878174,
      "1802": -1.1069111824035645,
      "1803": 1.4016538858413696,
      "1804": 1.0500409603118896,
      "1805": 1.1051714420318604,
      "1806": -1.3595986366271973,
      "1807": 1.244321346282959,
      "1808": 1.5825494527816772,
      "1809": -0.02481248788535595,
      "1810": -0.38907501101493835,
      "1811": -0.06459929049015045,
      "1812": -3.1478378772735596,
      "1813": -0.2516742944717407,
      "1814": -1.4530024528503418,
      "1815": 0.03292519599199295,
      "1816": 1.9293122291564941,
      "1817": -1.1283942461013794,
      "1818": -1.5194568634033203,
      "1819": 0.656953752040863,
      "1820": -2.3683829307556152,
      "1821": -0.8351293802261353,
      "1822": -1.4719921350479126,
      "1823": -0.3504011631011963,
      "1824": 1.0528064966201782,
      "1825": 0.6657466888427734,
      "1826": 0.29267948865890503,
      "1827": -0.1929052621126175,
      "1828": -0.7738474607467651,
      "1829": -0.5753134489059448,
      "1830": -0.425445556640625,
      "1831": -1.516970157623291,
      "1832": 1.5736881494522095,
      "1833": 5.966329097747803,
      "1834": -1.9798465967178345,
      "1835": 4.537778377532959,
      "1836": -4.053083896636963,
      "1837": 5.6157660484313965,
      "1838": -3.9411609172821045,
      "1839": -2.280266761779785,
      "1840": 0.5838380455970764,
      "1841": -1.0579783916473389,
      "1842": 3.305935859680176,
      "1843": -2.491248607635498,
      "1844": 3.2291998863220215,
      "1845": 5.1505303382873535,
      "1846": 2.7919423580169678,
      "1847": 4.285027503967285,
      "1848": 0.31231579184532166,
      "1849": -5.16642951965332,
      "1850": -3.1642136573791504,
      "1851": -2.4086575508117676,
      "1852": 1.6610853672027588,
      "1853": 1.2332195043563843,
      "1854": 0.13103298842906952,
      "1855": -5.4467315673828125,
      "1856": 3.0341527462005615,
      "1857": 0.5374290943145752,
      "1858": 4.6080827713012695,
      "1859": 1.1342862844467163,
      "1860": 1.1342121362686157,
      "1861": 1.6672077178955078,
      "1862": 2.0239250659942627,
      "1863": -5.616012096405029,
      "1864": 1.8085860013961792,
      "1865": 0.8930798768997192,
      "1866": -2.165576457977295,
      "1867": 5.6759843826293945,
      "1868": -2.372636318206787,
      "1869": 3.2616512775421143,
      "1870": 1.756022334098816,
      "1871": -1.8039016723632812,
      "1872": -2.394335985183716,
      "1873": -4.606317520141602,
      "1874": -1.4538229703903198,
      "1875": -1.924523949623108,
      "1876": 5.055225849151611,
      "1877": -1.1469943523406982,
      "1878": 2.587383985519409,
      "1879": -2.8146023750305176,
      "1880": -3.7862305641174316,
      "1881": 1.6132705211639404,
      "1882": 1.7037761211395264,
      "1883": 4.1449079513549805,
      "1884": 3.9320766925811768,
      "1885": 2.8987860679626465,
      "1886": -9.188642501831055,
      "1887": 1.68373703956604,
      "1888": -6.8282470703125,
      "1889": -1.209229588508606,
      "1890": -3.800807476043701,
      "1891": 1.2825270891189575,
      "1892": -2.0806174278259277,
      "1893": -3.8984577655792236,
      "1894": 3.3753085136413574,
      "1895": 9.146424293518066,
      "1896": 2.254362106323242,
      "1897": -0.9615926146507263,
      "1898": -3.0078680515289307,
      "1899": 0.9516761302947998,
      "1900": 7.882160663604736,
      "1901": -0.8328031897544861,
      "1902": -0.8471149206161499,
      "1903": -2.3377349376678467,
      "1904": 1.0735541582107544,
      "1905": -1.5774202346801758,
      "1906": 5.820011138916016,
      "1907": -0.1793770045042038,
      "1908": -0.10254590958356857,
      "1909": 4.774137496948242,
      "1910": -0.28487178683280945,
      "1911": -1.4501327276229858,
      "1912": -0.06834129989147186,
      "1913": 0.4709741175174713,
      "1914": 0.4888225495815277,
      "1915": 3.4592456817626953,
      "1916": -2.909123420715332,
      "1917": -2.534367561340332,
      "1918": 4.442935943603516,
      "1919": 2.411890983581543,
      "1920": -10.941764831542969,
      "1921": 0.9751784205436707,
      "1922": -5.172585487365723,
      "1923": -1.8123944997787476,
      "1924": 0.9009992480278015,
      "1925": -1.3204312324523926,
      "1926": -5.283705234527588,
      "1927": 0.10487973690032959,
      "1928": -4.512544631958008,
      "1929": -0.37664923071861267,
      "1930": -1.9035918712615967,
      "1931": 0.7881626486778259,
      "1932": -3.581353187561035,
      "1933": 3.163341522216797,
      "1934": 1.6001783609390259,
      "1935": 8.427011489868164,
      "1936": -2.8653078079223633,
      "1937": 2.798358201980591,
      "1938": -4.754329681396484,
      "1939": 1.9817111492156982,
      "1940": 3.0379750728607178,
      "1941": -2.2361342906951904,
      "1942": -3.6845550537109375,
      "1943": -2.810157060623169,
      "1944": 4.000630855560303,
      "1945": 3.159224271774292,
      "1946": 1.9057707786560059,
      "1947": -4.421609401702881,
      "1948": -1.3966968059539795,
      "1949": 1.9397013187408447,
      "1950": 2.573503017425537,
      "1951": 1.8163604736328125,
      "1952": 3.1111016273498535,
      "1953": -4.359302043914795,
      "1954": 0.7030965089797974,
      "1955": 4.600030422210693,
      "1956": -3.9961650371551514,
      "1957": 0.42834028601646423,
      "1958": -0.8659310340881348,
      "1959": -0.4669191539287567,
      "1960": 2.284090280532837,
      "1961": -1.4886888265609741,
      "1962": -1.9165047407150269,
      "1963": -2.7507681846618652,
      "1964": 1.5740900039672852,
      "1965": 2.8062827587127686,
      "1966": 7.8274922370910645,
      "1967": 2.957585096359253,
      "1968": 0.661957323551178,
      "1969": -1.1280828714370728,
      "1970": -1.9848686456680298,
      "1971": 1.1013518571853638,
      "1972": -4.280951023101807,
      "1973": 4.598354816436768,
      "1974": 1.9365471601486206,
      "1975": 2.2890026569366455,
      "1976": 3.4821178913116455,
      "1977": 0.8057236671447754,
      "1978": 1.702602744102478,
      "1979": 1.1738349199295044,
      "1980": -2.7909910678863525,
      "1981": -2.5170958042144775,
      "1982": -1.6462159156799316,
      "1983": 2.853999376296997,
      "1984": -2.342419385910034,
      "1985": 2.2542786598205566,
      "1986": 1.419377088546753,
      "1987": -1.69904363155365,
      "1988": 1.2581524848937988,
      "1989": 0.2585790455341339,
      "1990": 1.0323430299758911,
      "1991": -2.7030370235443115,
      "1992": -2.235715389251709,
      "1993": -0.5809224247932434,
      "1994": 1.5080738067626953,
      "1995": 3.378605365753174,
      "1996": -3.137223958969116,
      "1997": -0.3287898302078247,
      "1998": -1.2034590244293213,
      "1999": -2.1008567810058594,
      "2000": 1.3571516275405884,
      "2001": 3.345043659210205,
      "2002": -1.101498007774353,
      "2003": 1.9652986526489258,
      "2004": -3.393052101135254,
      "2005": 1.7776817083358765,
      "2006": 3.510133743286133,
      "2007": -2.23028564453125,
      "2008": -0.14591559767723083,
      "2009": 0.8798635005950928,
      "2010": 2.6974308490753174,
      "2011": 3.449777841567993,
      "2012": -2.7108232975006104,
      "2013": -1.992870569229126,
      "2014": 0.7489326000213623,
      "2015": -0.18287983536720276,
      "2016": -0.2245926409959793,
      "2017": -0.05923609808087349,
      "2018": -2.8738222122192383,
      "2019": 4.37244176864624,
      "2020": -0.5589760541915894,
      "2021": -0.6637283563613892,
      "2022": 4.6538310050964355,
      "2023": 4.550101280212402,
      "2024": 1.8029555082321167,
      "2025": -3.937920570373535,
      "2026": 5.1921257972717285,
      "2027": -1.867506742477417,
      "2028": -4.303318500518799,
      "2029": 5.646492004394531,
      "2030": 3.721860647201538,
      "2031": 0.4577498435974121,
      "2032": -1.1852682828903198,
      "2033": 1.8584809303283691,
      "2034": -3.726595640182495,
      "2035": -7.026510238647461,
      "2036": -0.058548588305711746,
      "2037": 3.73046875,
      "2038": -8.108019828796387,
      "2039": -1.3830119371414185,
      "2040": -4.671206474304199,
      "2041": 0.7888460159301758,
      "2042": 1.4847173690795898,
      "2043": -2.3658175468444824,
      "2044": -2.1017000675201416,
      "2045": -6.079969882965088,
      "2046": -3.266918420791626,
      "2047": -2.190523624420166,
      "2048": 2.2799155712127686,
      "2049": -8.6362886428833,
      "2050": 1.6657288074493408,
      "2051": 4.384891510009766,
      "2052": -4.817590236663818,
      "2053": 3.025585651397705,
      "2054": -7.125777721405029,
      "2055": -3.2941977977752686,
      "2056": 2.788935899734497,
      "2057": 4.424283504486084,
      "2058": 5.698553562164307,
      "2059": 2.829237937927246,
      "2060": 2.607391834259033,
      "2061": -1.912042498588562,
      "2062": 5.148252487182617,
      "2063": 4.7114152908325195,
      "2064": -3.434670925140381,
      "2065": -0.9120875000953674,
      "2066": 1.1748229265213013,
      "2067": -0.7944243550300598,
      "2068": -1.8796387910842896,
      "2069": -4.335323810577393,
      "2070": -2.952770233154297,
      "2071": -1.3422424793243408,
      "2072": -1.825225591659546,
      "2073": -2.3080081939697266,
      "2074": 0.5682358145713806,
      "2075": 0.13597653806209564,
      "2076": 1.7122597694396973,
      "2077": -4.789829254150391,
      "2078": 0.7599057555198669,
      "2079": -5.085303783416748,
      "2080": -1.1752723455429077,
      "2081": 2.4541351795196533,
      "2082": -4.3830132484436035,
      "2083": 0.8765610456466675,
      "2084": -2.7819204330444336,
      "2085": 2.3298933506011963,
      "2086": 3.4799365997314453,
      "2087": 4.183638572692871,
      "2088": -2.197486639022827,
      "2089": -0.8449591398239136,
      "2090": 4.357837677001953,
      "2091": 0.1945001631975174,
      "2092": 2.390511989593506,
      "2093": 1.7270104885101318,
      "2094": 0.05521700531244278,
      "2095": -3.306779623031616,
      "2096": 0.950760006904602,
      "2097": -1.8759679794311523,
      "2098": 4.13278341293335,
      "2099": -2.4664156436920166,
      "2100": -4.806884288787842,
      "2101": 2.0517261028289795,
      "2102": -1.5734469890594482,
      "2103": -0.146457701921463,
      "2104": -5.128561973571777,
      "2105": -4.175653457641602,
      "2106": 6.259028911590576,
      "2107": 1.2882128953933716,
      "2108": -0.2667320668697357,
      "2109": 2.9589619636535645,
      "2110": 1.209911584854126,
      "2111": -2.36063814163208,
      "2112": -0.7061226963996887,
      "2113": -4.370059490203857,
      "2114": 0.29583320021629333,
      "2115": -1.1372696161270142,
      "2116": 0.17852964997291565,
      "2117": 1.3314220905303955,
      "2118": -0.23468321561813354,
      "2119": 0.1915881484746933,
      "2120": -0.3133327066898346,
      "2121": 1.652640700340271,
      "2122": -0.17781119048595428,
      "2123": -2.1513140201568604,
      "2124": -0.09848081320524216,
      "2125": 0.16911399364471436,
      "2126": -0.919750452041626,
      "2127": -0.3305589258670807,
      "2128": 0.6068170666694641,
      "2129": -0.485891193151474,
      "2130": -1.2452725172042847,
      "2131": 0.08998560905456543,
      "2132": 0.2513276934623718,
      "2133": 0.2043270468711853,
      "2134": 0.3022359311580658,
      "2135": 0.1790294200181961,
      "2136": 0.5126987099647522,
      "2137": -0.7012657523155212,
      "2138": 0.13708257675170898,
      "2139": 0.007009360007941723,
      "2140": -0.3500864505767822,
      "2141": 1.3731001615524292,
      "2142": 0.7510717511177063,
      "2143": -0.4836679995059967,
      "2144": -1.4888018369674683,
      "2145": -1.8675129413604736,
      "2146": 3.1901473999023438,
      "2147": 0.9986671805381775,
      "2148": 0.11258652061223984,
      "2149": 0.6729775071144104,
      "2150": 0.06658367812633514,
      "2151": -0.38022464513778687,
      "2152": 0.008356010541319847,
      "2153": 0.21332623064517975,
      "2154": -1.6145306825637817,
      "2155": 2.4046902656555176,
      "2156": -0.6144049763679504,
      "2157": 1.2814924716949463,
      "2158": 0.43386000394821167,
      "2159": 0.1378338783979416,
      "2160": 0.26056480407714844,
      "2161": -0.4840295910835266,
      "2162": 0.6758238077163696,
      "2163": 0.021998047828674316,
      "2164": -0.04185672104358673,
      "2165": -0.10057583451271057,
      "2166": 1.0181818008422852,
      "2167": -0.0734616219997406,
      "2168": 0.2466101199388504,
      "2169": 0.22835318744182587,
      "2170": -0.8886585235595703,
      "2171": 1.111131191253662,
      "2172": -0.07600521296262741,
      "2173": -0.13929137587547302,
      "2174": -0.03154589608311653,
      "2175": -0.15377624332904816,
      "2176": 0.7827134728431702,
      "2177": -0.398851215839386,
      "2178": 0.17199566960334778,
      "2179": 0.32743093371391296,
      "2180": -0.4846167266368866,
      "2181": -0.025741668418049812,
      "2182": -0.11306051164865494,
      "2183": -0.11078693717718124,
      "2184": 0.16296131908893585,
      "2185": 0.17200039327144623,
      "2186": -0.01294591836631298,
      "2187": 0.16951310634613037,
      "2188": -0.24541978538036346,
      "2189": 0.5225753784179688,
      "2190": -0.16837283968925476,
      "2191": -0.2125338613986969,
      "2192": -0.7162474989891052,
      "2193": 0.6639330983161926,
      "2194": -0.1130845695734024,
      "2195": 0.11939942091703415,
      "2196": 0.045569270849227905,
      "2197": 0.22644303739070892,
      "2198": 0.47359341382980347,
      "2199": 0.5841809511184692,
      "2200": -0.8837884068489075,
      "2201": -1.0293303728103638,
      "2202": 0.38002079725265503,
      "2203": -0.6190738677978516,
      "2204": -1.283703088760376,
      "2205": -0.26646944880485535,
      "2206": -0.2755904793739319,
      "2207": 1.2080501317977905,
      "2208": -0.19182030856609344,
      "2209": 0.031054140999913216,
      "2210": 0.07769544422626495,
      "2211": -0.0169534869492054,
      "2212": 0.06287025660276413,
      "2213": -0.058095306158065796,
      "2214": -0.007108407560735941,
      "2215": 0.05524258315563202,
      "2216": 0.003547070547938347,
      "2217": 0.010814276523888111,
      "2218": 0.053788475692272186,
      "2219": 0.06836933642625809,
      "2220": -0.06347725540399551,
      "2221": -0.014654656872153282,
      "2222": -0.016801530495285988,
      "2223": 0.007059145253151655,
      "2224": -0.07243703305721283,
      "2225": -0.012382651679217815,
      "2226": 0.06072185933589935,
      "2227": -0.06746547669172287,
      "2228": 0.02670114114880562,
      "2229": -0.029583195224404335,
      "2230": -0.035598039627075195,
      "2231": -0.009909470565617085,
      "2232": 0.057463567703962326,
      "2233": 0.06760666519403458,
      "2234": 0.030631881207227707,
      "2235": 0.00494168046861887,
      "2236": -0.07902543991804123,
      "2237": -0.03802330791950226,
      "2238": 0.0734507367014885,
      "2239": -0.002338610589504242,
      "2240": 0.07602618634700775,
      "2241": -0.00025048039969988167,
      "2242": -0.03180256858468056,
      "2243": -0.012779195792973042,
      "2244": -0.053238943219184875,
      "2245": -0.003177257953211665,
      "2246": -0.018381603062152863,
      "2247": 0.033673763275146484,
      "2248": 0.06151454523205757,
      "2249": 0.017161140218377113,
      "2250": 0.07656602561473846,
      "2251": 0.024599509313702583,
      "2252": -0.07620340585708618,
      "2253": 0.06435077637434006,
      "2254": 0.026237310841679573,
      "2255": 0.04809674248099327
    }
  },
  "hiddenLayers": [
    {
      "inputMatrix": {
        "rows": 20,
        "columns": 47,
        "weights": {
          "0": -0.1544603705406189,
          "1": -0.9954385161399841,
          "2": -0.7776944041252136,
          "3": -0.023747000843286514,
          "4": 0.40922147035598755,
          "5": -1.4959630966186523,
          "6": 0.9148135781288147,
          "7": 0.403438538312912,
          "8": -1.191921353340149,
          "9": -0.9668610095977783,
          "10": 0.8313460946083069,
          "11": -0.8636030554771423,
          "12": -0.39326348900794983,
          "13": 1.4371007680892944,
          "14": 1.1344001293182373,
          "15": -0.5955226421356201,
          "16": -1.045141339302063,
          "17": 1.3236933946609497,
          "18": 0.978967010974884,
          "19": 0.26659560203552246,
          "20": -2.1340041160583496,
          "21": -0.1608104556798935,
          "22": -0.038779646158218384,
          "23": 0.6150556206703186,
          "24": 0.6779525279998779,
          "25": 0.014182149432599545,
          "26": -0.8125702738761902,
          "27": -0.5564785599708557,
          "28": 0.895016074180603,
          "29": -0.4620206654071808,
          "30": -0.12905678153038025,
          "31": 0.2603890895843506,
          "32": -0.2605758011341095,
          "33": 0.8786082863807678,
          "34": -0.5291988253593445,
          "35": -0.7105725407600403,
          "36": 0.014746936038136482,
          "37": -0.8861956000328064,
          "38": -0.04992005228996277,
          "39": -0.08078637719154358,
          "40": 1.4903552532196045,
          "41": -0.8693004250526428,
          "42": 0.0466749407351017,
          "43": -0.4216216504573822,
          "44": 1.0316392183303833,
          "45": -0.36423996090888977,
          "46": 1.945522427558899,
          "47": 0.40086817741394043,
          "48": 1.870678424835205,
          "49": 0.9259982705116272,
          "50": -0.06478571146726608,
          "51": 1.560571312904358,
          "52": 1.0736831426620483,
          "53": -2.194556713104248,
          "54": 0.5913346409797668,
          "55": -1.2230629920959473,
          "56": -0.19778575003147125,
          "57": -0.02788422629237175,
          "58": 0.11983071267604828,
          "59": 2.156839609146118,
          "60": -0.6218205094337463,
          "61": 1.255812406539917,
          "62": 0.9286035895347595,
          "63": 0.5667139291763306,
          "64": -1.735060214996338,
          "65": -0.34949609637260437,
          "66": 0.6572328805923462,
          "67": 0.4464332163333893,
          "68": 0.1885780394077301,
          "69": -1.0069235563278198,
          "70": -0.3628386855125427,
          "71": 0.11856568604707718,
          "72": 0.9740049242973328,
          "73": 0.570665180683136,
          "74": 0.030055660754442215,
          "75": 0.19799187779426575,
          "76": 1.0100090503692627,
          "77": -0.3776557743549347,
          "78": 0.9528998732566833,
          "79": -0.08577130734920502,
          "80": -0.7338817119598389,
          "81": -0.03586673364043236,
          "82": -1.0890660285949707,
          "83": 0.40033453702926636,
          "84": 0.16559439897537231,
          "85": 0.6995271444320679,
          "86": -1.3283271789550781,
          "87": -1.2778478860855103,
          "88": 0.13851097226142883,
          "89": -2.2592825889587402,
          "90": 0.45950478315353394,
          "91": 0.49519258737564087,
          "92": -0.2372119128704071,
          "93": -0.10643904656171799,
          "94": -2.8340301513671875,
          "95": -0.07272213697433472,
          "96": 0.4212501645088196,
          "97": -1.0187731981277466,
          "98": -2.3226613998413086,
          "99": 0.0073062763549387455,
          "100": -0.8217482566833496,
          "101": 0.13679608702659607,
          "102": 1.1127523183822632,
          "103": -0.021312331780791283,
          "104": -0.8440108895301819,
          "105": -0.23685136437416077,
          "106": -1.0411595106124878,
          "107": -0.31738781929016113,
          "108": -1.094885230064392,
          "109": -0.41114237904548645,
          "110": -0.19128303229808807,
          "111": 0.11113477498292923,
          "112": -0.2838710844516754,
          "113": 0.2986677587032318,
          "114": 1.2620385885238647,
          "115": -0.03259921818971634,
          "116": 1.0010731220245361,
          "117": -0.46314045786857605,
          "118": 0.0920342355966568,
          "119": 0.17431989312171936,
          "120": -0.7849700450897217,
          "121": -1.1929874420166016,
          "122": 1.134735107421875,
          "123": -0.22758705914020538,
          "124": -0.16729822754859924,
          "125": -0.3725251853466034,
          "126": -1.2817268371582031,
          "127": -0.47238996624946594,
          "128": -0.460580974817276,
          "129": 0.43522894382476807,
          "130": -0.3159991502761841,
          "131": -0.973125696182251,
          "132": 0.6085541248321533,
          "133": 2.2983932495117188,
          "134": -0.2943491041660309,
          "135": -0.46517324447631836,
          "136": -2.067293643951416,
          "137": 0.4705403745174408,
          "138": -0.03599606826901436,
          "139": 0.5602480173110962,
          "140": -0.44399580359458923,
          "141": -0.6015177369117737,
          "142": -0.114773690700531,
          "143": -1.202474594116211,
          "144": -0.09444332867860794,
          "145": -0.26025718450546265,
          "146": 0.30421769618988037,
          "147": 0.025548318400979042,
          "148": -0.26384028792381287,
          "149": -0.4699653387069702,
          "150": -0.6217797994613647,
          "151": 0.4820758104324341,
          "152": -0.4421878755092621,
          "153": -0.23473484814167023,
          "154": -0.3223755359649658,
          "155": -0.07286030054092407,
          "156": 0.7759070992469788,
          "157": 0.34874558448791504,
          "158": -0.2439962476491928,
          "159": 0.6784360408782959,
          "160": 0.12954047322273254,
          "161": 0.2941656708717346,
          "162": -0.4105801582336426,
          "163": 0.8356693387031555,
          "164": -0.23034998774528503,
          "165": -0.22095423936843872,
          "166": 0.5302321314811707,
          "167": 0.34056591987609863,
          "168": -1.3258775472640991,
          "169": -0.03452456369996071,
          "170": -0.3514483869075775,
          "171": 1.8036315441131592,
          "172": 0.1589229702949524,
          "173": -1.1629141569137573,
          "174": 0.10564568638801575,
          "175": 0.8262950778007507,
          "176": 0.5456157922744751,
          "177": -0.9837332367897034,
          "178": -0.9805201888084412,
          "179": 0.7430810928344727,
          "180": -0.1937475949525833,
          "181": -0.6857110857963562,
          "182": 0.012137853540480137,
          "183": -0.17514117062091827,
          "184": 0.009906886145472527,
          "185": 0.21990253031253815,
          "186": -1.593386173248291,
          "187": -0.665916383266449,
          "188": 0.9886365532875061,
          "189": -0.2337350696325302,
          "190": -0.5584030747413635,
          "191": 0.9541380405426025,
          "192": 0.9103467464447021,
          "193": 0.7167388200759888,
          "194": 0.17134065926074982,
          "195": -0.1146712526679039,
          "196": -1.6471490859985352,
          "197": 0.1514841914176941,
          "198": -1.1824465990066528,
          "199": 0.5218275189399719,
          "200": -0.4492597281932831,
          "201": -0.3856159746646881,
          "202": 1.4015021324157715,
          "203": -0.794910192489624,
          "204": -0.04050418362021446,
          "205": 0.5528163313865662,
          "206": -0.21165451407432556,
          "207": -0.4957121014595032,
          "208": -0.2424020767211914,
          "209": -0.10569595545530319,
          "210": -0.13764388859272003,
          "211": -0.4869999885559082,
          "212": 0.33800557255744934,
          "213": 0.10848308354616165,
          "214": 0.20090654492378235,
          "215": 0.09058193862438202,
          "216": -1.1284778118133545,
          "217": 0.579988420009613,
          "218": -0.992834746837616,
          "219": 0.6765202283859253,
          "220": 0.2797848880290985,
          "221": 1.122474193572998,
          "222": -0.13340477645397186,
          "223": 0.4256133437156677,
          "224": -0.08301800489425659,
          "225": -1.201255440711975,
          "226": -0.5456603169441223,
          "227": -1.6788530349731445,
          "228": -0.6043659448623657,
          "229": 0.19174037873744965,
          "230": 1.4446500539779663,
          "231": -0.45439213514328003,
          "232": -0.7173405289649963,
          "233": 0.008266869001090527,
          "234": -1.9436200857162476,
          "235": -0.6168732047080994,
          "236": -0.1865382045507431,
          "237": -0.8429238200187683,
          "238": -0.702688992023468,
          "239": -2.7803168296813965,
          "240": 0.1888367235660553,
          "241": 0.6950531601905823,
          "242": 0.16713666915893555,
          "243": 0.9761237502098083,
          "244": 0.49577596783638,
          "245": -0.285905122756958,
          "246": -0.7028929591178894,
          "247": -0.7032203078269958,
          "248": 0.11600951105356216,
          "249": -0.3312721252441406,
          "250": -1.5573407411575317,
          "251": 0.1580236554145813,
          "252": 0.3520394563674927,
          "253": -0.03748111054301262,
          "254": 0.7324797511100769,
          "255": 0.0043055154383182526,
          "256": 0.1326991617679596,
          "257": 1.2846301794052124,
          "258": -0.019221628084778786,
          "259": 0.37759724259376526,
          "260": 0.6077642440795898,
          "261": -1.1244823932647705,
          "262": -1.104038953781128,
          "263": -0.7034112811088562,
          "264": 0.25793763995170593,
          "265": 0.8703758120536804,
          "266": -0.7060896754264832,
          "267": -0.8973339796066284,
          "268": 0.5185160636901855,
          "269": -0.6079724431037903,
          "270": -0.5640996098518372,
          "271": 0.9163628816604614,
          "272": -0.9029518365859985,
          "273": 0.09127964079380035,
          "274": 0.6326714158058167,
          "275": 0.5771031975746155,
          "276": 0.5129880905151367,
          "277": 0.9100382924079895,
          "278": 0.8124791383743286,
          "279": 0.3923630118370056,
          "280": 0.9277042746543884,
          "281": -1.4402515888214111,
          "282": -0.4401966333389282,
          "283": -0.019549589604139328,
          "284": -0.8328789472579956,
          "285": -0.672071635723114,
          "286": -1.5457565784454346,
          "287": 0.3026313781738281,
          "288": 0.06556583940982819,
          "289": 0.20647026598453522,
          "290": 0.6553382277488708,
          "291": 1.1880476474761963,
          "292": 0.23767125606536865,
          "293": -0.3088527023792267,
          "294": 0.08033380657434464,
          "295": 0.054404787719249725,
          "296": -0.08824434131383896,
          "297": -0.889678418636322,
          "298": 0.780433177947998,
          "299": -0.35438862442970276,
          "300": 0.16459442675113678,
          "301": 0.9486427307128906,
          "302": 0.8808973431587219,
          "303": -0.161421000957489,
          "304": 0.628463864326477,
          "305": -0.18580424785614014,
          "306": -0.25557222962379456,
          "307": 0.7176358103752136,
          "308": -1.2608399391174316,
          "309": -0.9621264338493347,
          "310": -0.5876070261001587,
          "311": -0.05027306452393532,
          "312": 1.3801718950271606,
          "313": -0.9135903120040894,
          "314": -1.6386816501617432,
          "315": -0.16038453578948975,
          "316": -0.4170904755592346,
          "317": 0.192031592130661,
          "318": 1.019008755683899,
          "319": -0.8773992657661438,
          "320": -0.1755504012107849,
          "321": 1.1942338943481445,
          "322": 0.39248400926589966,
          "323": -0.24150794744491577,
          "324": 0.22521378099918365,
          "325": 0.3667003810405731,
          "326": 0.4748706817626953,
          "327": 0.7979562282562256,
          "328": -0.09407874196767807,
          "329": -1.5057402849197388,
          "330": -0.5041682124137878,
          "331": -1.1714569330215454,
          "332": 1.36971914768219,
          "333": 0.8837617635726929,
          "334": -1.2545989751815796,
          "335": -0.2602555751800537,
          "336": 0.043317265808582306,
          "337": -0.3465026915073395,
          "338": -1.3373560905456543,
          "339": -0.5097634792327881,
          "340": -0.896567702293396,
          "341": -0.7499657869338989,
          "342": 0.9416191577911377,
          "343": 0.8859716057777405,
          "344": 0.1433103382587433,
          "345": -0.6405314207077026,
          "346": 1.9051026105880737,
          "347": 0.1590493619441986,
          "348": -1.481309413909912,
          "349": -0.2189929187297821,
          "350": -0.41462451219558716,
          "351": 0.25332924723625183,
          "352": -0.5199156999588013,
          "353": 0.5114244222640991,
          "354": -1.692097783088684,
          "355": 0.19766300916671753,
          "356": -0.8656014204025269,
          "357": 0.9939398169517517,
          "358": -1.517714023590088,
          "359": 0.6139861941337585,
          "360": 0.08012691140174866,
          "361": -0.37705448269844055,
          "362": 0.33222946524620056,
          "363": -0.9944471716880798,
          "364": 1.2879523038864136,
          "365": -0.5473358631134033,
          "366": -1.283927083015442,
          "367": 0.5209066867828369,
          "368": 1.0931261777877808,
          "369": 0.9176494479179382,
          "370": -0.5534074306488037,
          "371": -0.4477086067199707,
          "372": -0.635198175907135,
          "373": -0.32343465089797974,
          "374": -2.354300022125244,
          "375": 1.394547462463379,
          "376": -0.9315138459205627,
          "377": -0.3672654330730438,
          "378": -1.1953365802764893,
          "379": 0.3196515738964081,
          "380": 0.8723317980766296,
          "381": 0.06689132004976273,
          "382": -0.013279330916702747,
          "383": 0.0609109103679657,
          "384": -1.7049998044967651,
          "385": 0.5552091002464294,
          "386": -0.3762475550174713,
          "387": 0.4873768091201782,
          "388": -0.48171910643577576,
          "389": -0.0035938865039497614,
          "390": 0.5158172845840454,
          "391": -1.3116897344589233,
          "392": 1.0358320474624634,
          "393": 0.8056027293205261,
          "394": -0.0348055437207222,
          "395": 0.667829155921936,
          "396": 0.722545325756073,
          "397": 0.18217644095420837,
          "398": 0.8505623936653137,
          "399": -0.13707739114761353,
          "400": -0.1892005205154419,
          "401": -0.1285046488046646,
          "402": -0.4387173354625702,
          "403": 0.1345055252313614,
          "404": -0.8095213174819946,
          "405": -1.0353952646255493,
          "406": -0.785459041595459,
          "407": 1.9826594591140747,
          "408": -0.3293789029121399,
          "409": 0.3828459084033966,
          "410": -0.012656625360250473,
          "411": 0.4312295615673065,
          "412": -0.1051645427942276,
          "413": -0.9443342089653015,
          "414": -0.5970414280891418,
          "415": -0.648045003414154,
          "416": 2.3636677265167236,
          "417": -0.4690972864627838,
          "418": -2.9165995121002197,
          "419": -0.03591284155845642,
          "420": -0.7977852821350098,
          "421": 0.11543232947587967,
          "422": -1.5132966041564941,
          "423": 0.954814076423645,
          "424": 0.43049436807632446,
          "425": 0.43248194456100464,
          "426": 0.7259165048599243,
          "427": -0.027958380058407784,
          "428": 1.2323031425476074,
          "429": -0.26518872380256653,
          "430": 0.2473345249891281,
          "431": 0.0036160519812256098,
          "432": 0.8197610974311829,
          "433": -1.4931392669677734,
          "434": -0.49831655621528625,
          "435": 0.9155850410461426,
          "436": -1.210634708404541,
          "437": -0.19566290080547333,
          "438": 1.0075535774230957,
          "439": 0.6962552070617676,
          "440": -0.8207851052284241,
          "441": -0.5261991620063782,
          "442": -0.9251075387001038,
          "443": -0.11716650426387787,
          "444": 0.7840438485145569,
          "445": -0.5782137513160706,
          "446": -0.8320707082748413,
          "447": -0.9899548888206482,
          "448": -1.023170828819275,
          "449": 0.5732660889625549,
          "450": 0.17463228106498718,
          "451": -0.8839488625526428,
          "452": 1.4789849519729614,
          "453": -0.7276151180267334,
          "454": 0.5851337313652039,
          "455": 0.04073656350374222,
          "456": -0.44428688287734985,
          "457": 1.1314663887023926,
          "458": 1.1992411613464355,
          "459": 0.08762893080711365,
          "460": 0.2905465066432953,
          "461": -0.7527962327003479,
          "462": -0.6528002023696899,
          "463": -1.8538872003555298,
          "464": 0.13657279312610626,
          "465": -0.23079092800617218,
          "466": 0.9922955632209778,
          "467": -0.5949053168296814,
          "468": 0.4160683751106262,
          "469": -1.8552407026290894,
          "470": 0.6076505780220032,
          "471": 0.03541957214474678,
          "472": -0.08909016102552414,
          "473": 0.12631215155124664,
          "474": 0.39012858271598816,
          "475": -0.045341841876506805,
          "476": 1.536387324333191,
          "477": 1.3748184442520142,
          "478": -0.29724451899528503,
          "479": 0.8734979033470154,
          "480": 1.3473701477050781,
          "481": 0.27669140696525574,
          "482": 0.06512086093425751,
          "483": -0.2172616422176361,
          "484": 0.5357518792152405,
          "485": -0.7857332229614258,
          "486": -0.5984495282173157,
          "487": 0.23836876451969147,
          "488": -0.20604896545410156,
          "489": -0.4177851378917694,
          "490": -1.285630702972412,
          "491": -2.2935051918029785,
          "492": -0.8451942801475525,
          "493": 0.1352284699678421,
          "494": 1.2042200565338135,
          "495": -0.02751384675502777,
          "496": -0.48168808221817017,
          "497": -0.09553475677967072,
          "498": 1.7476532459259033,
          "499": -1.525905966758728,
          "500": -0.3992663323879242,
          "501": -0.1621447205543518,
          "502": 0.6629920601844788,
          "503": 0.6449787616729736,
          "504": -0.21218572556972504,
          "505": -0.8116610050201416,
          "506": 1.5323737859725952,
          "507": 0.24370908737182617,
          "508": -0.42805689573287964,
          "509": -0.26745712757110596,
          "510": 2.012985944747925,
          "511": -1.2158260345458984,
          "512": 0.4385894536972046,
          "513": -0.17921464145183563,
          "514": 1.1946138143539429,
          "515": 0.2029569000005722,
          "516": 1.014573335647583,
          "517": 0.1459372341632843,
          "518": 0.9683840870857239,
